<?xml version="1.0"?>
<opencv_storage>
<my_svm type_id="opencv-ml-svm">
  <svm_type>C_SVC</svm_type>
  <kernel><type>LINEAR</type></kernel>
  <C>1.0000000000000001e-01</C>
  <term_criteria><epsilon>2.2204460492503131e-16</epsilon>
    <iterations>10000</iterations></term_criteria>
  <var_all>4096</var_all>
  <var_count>4096</var_count>
  <class_count>2</class_count>
  <class_labels type_id="opencv-matrix">
    <rows>1</rows>
    <cols>2</cols>
    <dt>i</dt>
    <data>
      -1 1</data></class_labels>
  <sv_total>1</sv_total>
  <support_vectors>
    <_>
      -7.16262162e-02 -3.70194167e-02 -2.12051019e-01 8.90026018e-02
      5.07578403e-02 2.44899511e-01 3.23090225e-01 -1.35679916e-01
      -3.75683382e-02 -1.14923827e-01 3.44462335e-01 1.43711790e-01
      2.41789278e-02 -8.09277445e-02 -9.08112302e-02 -1.62673682e-01
      7.05858320e-02 2.86843181e-01 -1.45203592e-02 2.43919820e-01
      -1.13917261e-01 2.70183776e-02 -1.71179116e-01 9.47817788e-02
      7.32760504e-02 -1.07421903e-02 1.32639021e-01 2.46034656e-02
      7.82188252e-02 1.54017851e-01 4.21457887e-02 0. 1.01533465e-01
      -8.52731690e-02 -1.01303741e-01 -2.74685882e-02 4.62470204e-02
      1.24794260e-01 4.45947498e-02 -3.29735572e-03 -1.12968691e-01
      -3.95176187e-02 1.23192824e-01 1.74220949e-02 4.92715165e-02
      -7.12721124e-02 2.56168276e-01 2.20952585e-01 -2.79027689e-02
      -6.99268728e-02 1.78844437e-01 8.61882269e-02 3.72059308e-02
      -4.96170111e-02 -2.63636887e-01 2.30677858e-01 1.64024293e-01
      4.11001034e-03 -7.62885017e-03 1.89726040e-01 9.96389687e-02
      -9.06553306e-03 -7.04105720e-02 0. 1.45379290e-01 1.24663739e-02
      -3.04861903e-01 6.48704823e-03 2.04184011e-01 8.03520530e-02
      -3.07758808e-01 -1.38732851e-01 7.49033615e-02 -1.26219586e-01
      -3.80221643e-02 4.03851047e-02 1.83909327e-01 -4.35562357e-02
      1.59950033e-01 1.26271486e-01 1.42906338e-01 -1.57377943e-01
      6.03764988e-02 -3.48073691e-02 -1.43487290e-01 1.60827309e-01
      6.15740009e-02 1.44379243e-01 -1.80656239e-01 2.06758864e-02
      1.38912514e-01 -3.72979343e-02 4.92685214e-02 3.95270772e-02
      -2.29002256e-02 0. -1.22519977e-01 -1.15037531e-01 -3.71770620e-01
      -1.73276380e-01 1.71059191e-01 8.18527862e-02 -5.38331904e-02
      -5.39703257e-02 1.10078774e-01 -2.51110852e-01 -5.71670569e-02
      1.43982053e-01 3.23210746e-01 -7.59379864e-02 2.28114292e-01
      8.97516161e-02 1.90988213e-01 1.43256843e-01 -8.52093548e-02
      -7.23632872e-02 -1.73135102e-01 4.28753570e-02 9.31009948e-02
      1.11173578e-01 -1.66502953e-01 -1.18469587e-03 3.12197447e-01
      -1.15798011e-01 3.91902626e-02 2.63127461e-02 1.48190856e-01 0.
      2.88754795e-02 3.77432443e-02 7.08555710e-03 1.37470782e-01
      -1.32994249e-01 1.62215739e-01 9.57554206e-02 -1.01627827e-01
      1.41040817e-01 1.78907856e-01 9.05323550e-02 -2.81522404e-02
      -5.83975315e-02 -2.37265363e-01 -1.03752211e-01 -1.86899960e-01
      -2.81000268e-02 9.89665911e-02 2.15075210e-01 1.45829469e-01
      -4.57955860e-02 -5.14794746e-03 -8.43348280e-02 4.44511697e-03
      -1.00786030e-01 -2.22321320e-02 2.19074622e-01 -2.51803190e-01
      -1.93705894e-02 3.48727331e-02 2.84103125e-01 0. 1.91416100e-01
      3.91695984e-02 -1.32155508e-01 1.12181105e-01 1.73468158e-01
      5.66221215e-02 -3.21938545e-02 -9.73668247e-02 5.16172349e-02
      -4.04283702e-02 1.76899388e-01 -4.00128737e-02 -1.93957612e-01
      -8.89709368e-02 4.68191644e-03 6.35816678e-02 5.90779893e-02
      -4.41339053e-02 2.88043350e-01 8.18920434e-02 -6.38366193e-02
      -1.61077708e-01 -9.14275423e-02 -1.27927754e-02 -3.31882946e-02
      -8.23060051e-02 5.64108044e-02 4.21419144e-02 2.98975021e-01
      -2.25895986e-01 7.10524945e-03 0. -1.58974707e-01 -5.99594461e-03
      -7.54429027e-03 -9.50608104e-02 1.61306411e-01 -1.23333801e-02
      -3.21235321e-02 -4.84191209e-01 -1.09136336e-01 -1.45695329e-01
      2.55214691e-01 7.85947666e-02 1.68779984e-01 1.16115764e-01
      -1.29184186e-01 1.57752216e-01 1.92089140e-01 4.77981418e-02
      -6.19155914e-02 3.29233199e-01 -2.80415621e-02 -7.78236091e-02
      -3.74374352e-02 -8.56433809e-02 1.29609421e-01 -2.29211763e-01
      -3.76485810e-02 5.92488470e-03 9.89163965e-02 -1.65790543e-01
      5.97289279e-02 0. 2.85961498e-02 -1.16368361e-01 -1.90442860e-01
      -1.22455634e-01 1.66789666e-01 1.43742412e-01 -9.18552186e-03
      -3.30861807e-01 1.26971662e-01 2.12746114e-01 7.43740350e-02
      1.76707387e-01 2.05974460e-01 8.38251039e-02 1.15375064e-01
      7.01446235e-02 4.99067158e-02 2.36000661e-02 1.68223217e-01
      1.57021746e-01 -5.23641473e-03 8.25518668e-02 8.28404054e-02
      1.63542584e-01 9.97834578e-02 -1.59953743e-01 1.17647633e-01
      1.09207690e-01 5.12533486e-02 1.58087481e-02 1.58159956e-01 0.
      2.42283374e-01 -3.85027915e-01 -3.23387057e-01 5.97447604e-02
      -7.47064427e-02 1.21645324e-01 -2.50778738e-02 1.67602181e-01
      -1.14153206e-01 -6.79431260e-02 1.79714799e-01 -4.70903814e-02
      5.12398779e-02 1.10066488e-01 1.03752285e-01 -1.93644732e-01
      1.16732130e-02 1.82264745e-02 -6.85248896e-02 8.09148923e-02
      -1.83448583e-01 -2.48108692e-02 -1.14269421e-01 1.03333138e-01
      -1.69027328e-01 1.45368755e-01 -1.30759865e-01 2.96003260e-02
      -2.50062257e-01 1.77440330e-01 -3.47981341e-02 0. -3.11994590e-02
      -1.47592276e-02 8.01508948e-02 2.77080704e-02 1.31216273e-01
      4.56589684e-02 2.62451004e-02 -5.22964001e-02 -2.35892355e-01
      2.22055800e-03 -8.72250944e-02 -6.51425635e-03 2.53575332e-02
      1.96408153e-01 7.74385557e-02 1.16625972e-01 8.02498832e-02
      -1.31278122e-02 1.53992370e-01 1.89952478e-02 9.76224467e-02
      2.82124672e-02 -1.01735160e-01 -6.54825866e-02 3.97725552e-02
      4.95797470e-02 -9.06300470e-02 1.75329119e-01 4.20668395e-03
      1.39176771e-01 -1.45112276e-01 0. 1.78169981e-01 -1.70574207e-02
      -1.32994875e-01 1.40591227e-02 -7.25852624e-02 3.68102081e-02
      -2.58414090e-01 -1.03200987e-01 -1.19107133e-02 1.26133785e-02
      6.62540495e-02 1.25989020e-01 -1.78404781e-03 3.68206650e-02
      -1.79338660e-02 7.86130205e-02 6.31797239e-02 -1.74264789e-01
      1.16794497e-01 7.15815872e-02 1.29558407e-02 -4.21521217e-02
      3.70356292e-02 -2.36898765e-01 -1.14446752e-01 -1.25771448e-01
      -1.50329933e-01 -1.50926471e-01 -6.41010469e-03 9.60427970e-02
      -2.24442687e-02 0. -1.60403818e-01 -6.74699396e-02 3.02158091e-02
      -5.18297367e-02 1.49674207e-01 1.93963811e-01 2.06493005e-01
      -4.30194847e-02 7.68306702e-02 1.47330984e-01 1.18053881e-02
      2.01396197e-02 1.64343476e-01 5.75698800e-02 -8.93640965e-02
      -1.67147368e-01 8.10031742e-02 -1.55222699e-01 2.72866130e-01
      4.97290194e-02 -4.76728333e-03 7.85608962e-02 1.30238131e-01
      -5.13575375e-02 -2.63809916e-02 4.66457792e-02 9.33197886e-02
      2.05008071e-02 3.95702533e-02 -2.56071016e-02 1.56412020e-01 0.
      -9.83932540e-02 -3.54888514e-02 2.57594705e-01 2.08125368e-01
      5.64034954e-02 -2.70285029e-02 8.96209255e-02 7.22163692e-02
      -1.82964895e-02 5.57298288e-02 -1.46222219e-01 -1.89994186e-01
      -2.76258886e-01 -2.90522665e-01 -8.89993981e-02 -3.65819968e-03
      -2.67930120e-01 1.48976058e-01 -3.90898064e-02 -2.80478187e-02
      5.86304702e-02 -2.90917214e-02 -7.40099996e-02 -1.64633453e-01
      5.63652860e-03 -2.17547506e-01 2.00432763e-01 -6.85422421e-02
      -2.06822053e-01 3.96106159e-03 1.01881856e-02 0. 1.11688495e-01
      5.32957949e-02 1.57847479e-01 1.50208533e-01 -1.02671832e-01
      2.50069927e-02 1.64209798e-01 2.41178095e-01 8.48769676e-03
      -1.80592075e-01 1.43862396e-01 -2.18663141e-01 1.24851651e-02
      -1.97947904e-01 -1.03983015e-01 -1.59787461e-01 -2.65594929e-01
      -6.79209158e-02 -2.67630890e-02 2.10472420e-01 -1.28492266e-01
      7.79701844e-02 -2.61667669e-01 -1.62745230e-02 2.70361993e-02
      4.35781628e-02 8.07588995e-02 1.62111726e-02 6.10492146e-03
      -1.38029009e-02 -1.16412349e-01 0. 5.18696718e-02 4.28844951e-02
      1.68125287e-01 7.15960413e-02 1.47979721e-01 1.43140167e-01
      -1.11610249e-01 1.39091745e-01 -6.96642548e-02 -1.71199039e-01
      -1.57393843e-01 -1.19419634e-01 -3.03289238e-02 -6.40824735e-02
      2.06004575e-01 1.18896715e-01 -4.81727198e-02 3.54384109e-02
      1.33989960e-01 4.74994481e-02 4.49575204e-03 1.66466292e-02
      -5.10680676e-03 2.23817423e-01 -3.52831483e-02 -3.16372998e-02
      1.56801697e-02 -1.78393163e-02 1.46376237e-01 2.41272673e-02
      1.38133951e-02 0. -7.96310678e-02 -6.44557476e-02 -1.00473665e-01
      -1.39266670e-01 4.62159701e-02 -5.04430756e-02 4.74051991e-03
      -1.09761514e-01 -4.20749858e-02 1.81516826e-01 -8.82313997e-02
      -7.19802082e-02 5.87299503e-02 -4.59609106e-02 6.07857518e-02
      5.79793528e-02 1.53928161e-01 2.02679969e-02 2.81189885e-02
      -1.37384176e-01 -1.88223973e-01 -1.13873286e-02 -2.33227000e-01
      5.92574431e-03 8.41787085e-03 -2.39721630e-02 -1.72165763e-02
      1.11835435e-01 -5.01672737e-02 -1.54268503e-01 -5.50485309e-03 0.
      3.28016207e-02 3.13663259e-02 -4.01005186e-02 3.41334827e-02
      9.60340723e-03 7.17691258e-02 -2.94010271e-03 1.89308643e-01
      -5.40156327e-02 -6.72999322e-02 -6.76510334e-02 -7.90770724e-02
      -3.98841538e-02 -2.11575232e-03 -1.39650226e-01 1.01647407e-01
      -1.27797797e-01 -2.23822892e-03 -2.55650394e-02 1.48356721e-01
      -7.38049299e-02 -8.69860798e-02 -5.84828183e-02 -4.51953802e-03
      6.56300166e-04 -1.13838330e-01 -4.48291749e-03 -7.95578808e-02
      -1.18444711e-01 6.55755475e-02 6.07079081e-02 0. -1.82502732e-01
      -1.82730228e-01 -1.19594578e-03 1.36695616e-02 1.74906999e-01
      1.17019214e-01 6.27994090e-02 -1.02510318e-01 4.12218235e-02
      5.83370514e-02 1.97625995e-01 8.30711722e-02 5.82255460e-02
      -6.37955591e-02 -8.71936157e-02 9.18408632e-02 -7.24550560e-02
      -1.79200750e-02 3.71397808e-02 1.02434456e-01 1.71961822e-02
      -5.87267429e-02 -3.06489430e-02 1.85537487e-01 7.24602267e-02
      -1.58853814e-01 5.31820878e-02 -4.08984981e-02 3.69810835e-02
      6.32872209e-02 2.94486601e-02 0. -1.24479122e-01 9.28321481e-02
      9.54936072e-02 5.15611768e-02 -1.69792160e-01 9.82420892e-02
      -5.79866916e-02 1.08227760e-01 1.43799027e-02 -1.50982618e-01
      8.86846706e-02 4.86868955e-02 -6.89860657e-02 -1.65994808e-01
      -5.46448901e-02 -1.83926553e-01 6.66996613e-02 -2.64757246e-01
      -7.48870224e-02 5.79340309e-02 7.24337846e-02 1.28743753e-01
      -1.23192646e-01 -1.94102041e-02 -1.74431741e-01 1.38706744e-01
      -8.82339031e-02 -1.50478750e-01 -1.16595753e-01 -6.83286265e-02
      6.35268241e-02 0. -2.02224925e-01 -1.53967306e-01 7.96153992e-02
      1.19966000e-01 1.70198545e-01 -6.03880957e-02 -2.53711510e-02
      -3.00937533e-01 5.29631339e-02 5.38663492e-02 1.45316184e-01
      1.15999907e-01 -6.90139309e-02 -3.05571139e-01 1.53964479e-03
      -1.03434063e-01 2.00083226e-01 -1.29465833e-01 -1.82897765e-02
      4.13522962e-03 1.39725119e-01 9.06850118e-03 6.41204640e-02
      -4.76565026e-02 -7.14004338e-02 1.31563358e-02 -3.27116661e-02
      -1.15251429e-01 6.77652210e-02 -1.11092292e-01 -3.50846313e-02 0.
      -4.93960559e-01 -2.76306063e-01 -1.24988511e-01 2.36067846e-02
      2.50352025e-01 1.53428793e-01 -2.51277417e-01 -2.43565813e-01
      -8.96245707e-03 1.31345704e-01 9.22964290e-02 2.77217388e-01
      -7.70389661e-02 -5.75694032e-02 -5.28865680e-02 1.38261825e-01
      1.34776711e-01 2.09271938e-01 -3.58875543e-02 -4.52888124e-02
      2.14136690e-01 -1.63667351e-02 1.27091467e-01 2.15003371e-01
      -1.02656335e-02 -1.36283534e-02 7.60973766e-02 -1.29644901e-01
      -1.79101322e-02 -4.73061725e-02 1.11895643e-01 0. 6.88958019e-02
      -1.51850954e-01 -1.74931526e-01 -8.72233883e-02 1.45613566e-01
      3.08285594e-01 3.04132886e-02 -2.40173191e-01 -1.52694345e-01
      -3.85560393e-01 1.40292704e-01 9.74175483e-02 1.19422957e-01
      5.78472437e-03 -1.30659146e-02 -2.32362468e-02 1.05485417e-01
      8.91729966e-02 -6.88109621e-02 -5.83726689e-02 1.58731136e-02
      1.23668663e-01 9.77639332e-02 2.82662123e-01 3.45792659e-02
      -3.95271480e-02 2.50504203e-02 -2.10539158e-02 4.21597883e-02
      -9.18132067e-02 1.51050193e-02 0. 5.69845699e-02 -8.50297511e-02
      -2.94812113e-01 2.98068058e-02 -2.99469549e-02 9.86305922e-02
      7.18069375e-02 5.58761060e-02 -1.95352331e-01 -1.62215725e-01
      9.64408442e-02 1.58188149e-01 2.87628137e-02 -1.20919324e-01
      -2.01766402e-01 -9.36584994e-02 8.40620548e-02 6.15882874e-02
      -1.27135083e-01 4.31899838e-02 -7.60476887e-02 5.52062578e-02
      -1.50206834e-02 7.22013116e-02 -6.28871396e-02 5.41251861e-02
      -1.62759051e-01 -9.31517482e-02 -7.44201392e-02 -1.10249750e-01
      6.96730763e-02 0. -1.83760941e-01 3.54867205e-02 1.08240701e-01
      5.43574989e-02 2.19573796e-01 -1.43081218e-01 1.45184353e-01
      1.59191221e-01 3.43861207e-02 -1.04679286e-01 -2.11202666e-01
      -4.01844978e-02 -1.16577074e-01 -1.52863264e-01 -1.33072942e-01
      3.41111161e-02 5.78330159e-02 1.76302761e-01 -1.17459357e-01
      -1.55654354e-02 8.51112083e-02 1.61663815e-03 -1.17360495e-01
      -6.35537729e-02 2.13773414e-01 7.01011419e-02 8.76343176e-02
      1.13775566e-01 1.02190658e-01 -1.28780425e-01 -1.15825608e-01 0.
      -1.55003816e-01 2.28433944e-02 -1.10471375e-01 -5.22246696e-02
      1.14591137e-01 4.26359512e-02 4.71198484e-02 -2.09564134e-01
      -1.39742091e-01 -1.88658848e-01 4.79672328e-02 1.32196814e-01
      1.01869129e-01 1.55711204e-01 7.81989694e-02 1.51912093e-01
      -9.09568593e-02 1.55688599e-01 -2.17106909e-01 1.48532510e-01
      -4.92848177e-03 4.15623225e-02 2.58951247e-01 -1.36276454e-01
      -1.72175523e-02 -2.18116745e-01 3.73913907e-02 3.61725800e-02
      -4.81197014e-02 9.95880291e-02 -3.85621861e-02 0. 6.76116943e-02
      -8.06675553e-02 -2.40638964e-02 -2.03917593e-01 2.03222465e-02
      -2.16484994e-01 1.17214248e-01 1.40907779e-01 -1.32207215e-01
      -5.11871614e-02 1.35600761e-01 -7.05251098e-02 -9.35909525e-02
      -4.74640168e-02 -1.48356948e-02 2.19926387e-02 2.28098184e-02
      2.33706087e-01 -2.08519343e-02 9.62042436e-02 -1.45304263e-01
      -1.73959047e-01 -2.86897987e-01 -2.86529511e-01 4.41516303e-02
      1.18280821e-01 8.36339686e-03 -8.23687762e-02 -1.02140196e-02
      1.41532375e-02 -3.96118686e-03 0. -1.76243380e-01 1.44252941e-01
      1.30402267e-01 4.20691855e-02 -1.72450483e-01 -7.96546489e-02
      2.71788239e-01 -7.10414397e-03 -1.59504518e-01 2.20807754e-02
      -1.33779109e-01 1.48269877e-01 -3.51861008e-02 2.22066626e-01
      5.91674931e-02 4.35437486e-02 4.56726998e-02 -3.62784825e-02
      4.33963872e-02 3.69958729e-02 2.18607977e-01 8.62347335e-02
      -8.89950842e-02 -1.20359808e-01 2.49178261e-01 1.22300848e-01
      -8.32390413e-03 -6.61301762e-02 3.64702046e-02 1.03709862e-01
      8.10940415e-02 0. -2.68680871e-01 -1.19824417e-01 -1.96671665e-01
      -2.63192326e-01 1.55503139e-01 5.26014976e-02 2.04340771e-01
      -1.96878880e-01 2.05407739e-01 -2.25104064e-01 1.90011233e-01
      5.28165735e-02 2.66875401e-02 -1.83104590e-01 -1.42052844e-01
      3.70762460e-02 1.83493346e-02 2.94036895e-01 -2.01894730e-01
      -9.29114372e-02 -1.37531564e-01 -2.21535727e-01 -7.69608766e-02
      -2.05790177e-01 1.82857811e-01 -1.21808447e-01 3.88523757e-01
      -9.40579921e-02 5.03290780e-02 -1.21036522e-01 -4.31575580e-03 0.
      -1.39482111e-01 3.32626924e-02 -2.01396644e-03 2.01290503e-01
      2.10729063e-01 -1.81389630e-01 8.00768882e-02 6.30700728e-03
      -8.99162889e-02 8.91289786e-02 -1.00638978e-01 1.77998930e-01
      -1.03276528e-01 -1.38987571e-01 -5.19708134e-02 8.95112827e-02
      -6.26994148e-02 -3.29266675e-03 9.39503610e-02 -1.13351353e-01
      2.13068947e-01 8.47133175e-02 1.71929553e-01 -4.41316403e-02
      3.85687798e-02 -4.35285419e-02 -2.15464383e-02 -1.27043590e-01
      5.86155914e-02 -1.20323844e-01 1.95651874e-01 0. 8.84463117e-02
      -3.15641351e-02 7.82200620e-02 -5.56780444e-03 -1.81309029e-01
      3.09635967e-01 2.08583340e-01 -3.47295925e-02 1.19229928e-02
      -1.23985447e-01 4.19481136e-02 -1.89317331e-01 6.36810949e-03
      -3.13601419e-02 -1.46605521e-01 -1.19966313e-01 5.65792620e-02
      -1.03905097e-01 7.82739222e-02 4.09900732e-02 -8.17166641e-02
      -7.83015322e-03 1.72622651e-02 2.13199079e-01 6.16911389e-02
      -2.31128855e-04 -8.48022699e-02 -1.86844051e-01 1.48831815e-01
      -9.66898575e-02 5.61639667e-02 0. -5.28208632e-03 1.22666545e-01
      -1.13654070e-01 1.45547196e-01 1.31756723e-01 1.42170697e-01
      -2.56488204e-01 -2.07871109e-01 -5.31606153e-02 -2.57765085e-01
      1.91219151e-01 -5.84446229e-02 1.25202653e-03 -3.71067643e-01
      -4.33130860e-02 -3.52004841e-02 2.93347631e-02 1.90831617e-01
      -1.87667370e-01 1.55473545e-01 -2.75387932e-02 1.49817556e-01
      -2.65686989e-01 3.96734178e-02 -2.75823236e-01 -9.83511209e-02
      -8.68613869e-02 -1.51251838e-01 2.37947982e-02 -1.58596873e-01
      7.51174837e-02 0. 1.15451580e-02 -1.02535352e-01 1.17564090e-01
      3.63076359e-01 -1.64832160e-01 -1.92005217e-01 -3.98239419e-02
      1.96885765e-01 -1.99601501e-02 -1.02610402e-01 1.38625102e-02
      -1.17547140e-02 -1.43519863e-02 -1.56457022e-01 2.86624014e-01
      -6.01728167e-03 2.00697824e-01 -8.73235017e-02 2.79438403e-02
      3.94761711e-02 1.78737551e-01 2.30599880e-01 -3.23950917e-01
      1.46115506e-02 -8.24277662e-03 1.49792925e-01 -1.03227697e-01
      6.81338683e-02 2.26818606e-01 -1.66644558e-01 9.61625669e-03 0.
      1.82166576e-01 -1.01611195e-02 -1.00884035e-01 -1.45205572e-01
      -4.68605995e-01 -5.23714945e-02 6.95245191e-02 1.96519867e-01
      3.43135484e-02 -5.33060193e-01 -9.94972419e-03 2.56916359e-02
      1.96432292e-01 2.13751659e-01 2.29197234e-01 -6.32732287e-02
      -1.33278236e-01 -9.37450901e-02 -1.50117666e-01 4.06449027e-02
      -3.44493352e-02 6.13326468e-02 -1.67257503e-01 1.35168046e-01
      9.23790876e-03 6.57141656e-02 1.46792188e-01 -2.03379869e-01
      6.31827069e-03 -6.35390729e-02 4.23720442e-02 0. -2.30440855e-01
      7.48709077e-04 1.22872353e-01 1.84696868e-01 1.60648629e-01
      2.27959663e-01 5.24464771e-02 7.70405903e-02 9.95756825e-04
      -3.16016853e-01 1.17917642e-01 -2.36945972e-03 5.40588330e-03
      -1.50697738e-01 -3.16380821e-02 -2.59378016e-01 -1.23472497e-01
      3.03462178e-01 -9.93418843e-02 1.36274859e-01 2.06149131e-01
      1.15076892e-01 8.45761597e-02 1.09492198e-01 -9.87311825e-02
      -6.90377457e-03 2.60292441e-01 -1.94317356e-01 1.51161477e-01
      -5.23113683e-02 1.61548719e-01 0. -8.88315290e-02 5.60730435e-02
      1.80699959e-01 1.23154320e-01 -3.25948969e-02 3.38528514e-01
      8.10719132e-02 6.80916607e-02 1.84896328e-02 -2.97716588e-01
      -1.83456853e-01 -1.30188778e-01 1.20962150e-01 1.07956253e-01
      -3.61188829e-01 -1.46534383e-01 -1.74672991e-01 1.00995317e-01
      -2.98360623e-02 -1.35148004e-01 7.81735629e-02 2.61909604e-01
      -2.59465724e-02 2.47205235e-02 -7.62630776e-02 -9.21206698e-02
      2.07583562e-01 -1.45200938e-01 -1.15041481e-02 -8.41561407e-02
      1.37548238e-01 0. 1.02060594e-01 4.46791835e-02 -1.50244638e-01
      2.25430001e-02 1.02408424e-01 2.16366574e-02 3.09019953e-01
      1.75577715e-01 1.51957870e-01 -5.99945150e-02 2.12557837e-02
      -2.68618345e-01 3.32302004e-02 8.76871869e-02 -1.05690785e-01
      -3.09958518e-01 -3.11804622e-01 -8.41940288e-03 1.55696683e-02
      1.47120640e-01 7.13763833e-02 7.65193179e-02 1.04540803e-01
      -5.97849041e-02 1.16247842e-02 5.61864600e-02 1.43946692e-01
      -3.95652056e-02 8.98731649e-02 -2.06862122e-01 8.92975479e-02 0.
      -1.34133741e-01 1.88577995e-01 6.25708476e-02 -1.01023190e-01
      -9.88988504e-02 1.94298968e-01 1.47150382e-01 1.75157249e-01
      -1.69637818e-02 -6.98034987e-02 1.51828244e-01 -1.90464348e-01
      3.43719986e-03 -5.70978485e-02 -2.06001341e-01 -3.77282947e-02
      -2.01958209e-01 -1.28640190e-01 -1.02872565e-01 2.52519965e-01
      7.51216263e-02 4.27265726e-02 -2.82810390e-01 -2.83928891e-03
      1.05823249e-01 -5.58231324e-02 -2.85824299e-01 5.27467541e-02
      -7.81268626e-02 -1.04038745e-01 -2.12840382e-02 0. -1.04666213e-02
      7.05865445e-03 2.32271403e-01 2.58553028e-01 7.47754872e-02
      1.34509732e-03 -4.17028777e-02 8.24190602e-02 1.54476047e-01
      -1.11746766e-01 -1.42624989e-01 -3.54821146e-01 -7.27634579e-02
      -1.80317819e-01 9.11929458e-02 4.41730879e-02 -1.38372838e-01
      1.07267059e-01 -5.40905595e-02 -2.34231561e-01 -1.02682121e-01
      2.28089526e-01 8.51369202e-02 -5.98361306e-02 1.09158538e-01
      1.63630515e-01 1.64593592e-01 -1.12368055e-01 -8.76286998e-03
      9.72233564e-02 2.42448393e-02 0. -4.99998108e-02 2.03906626e-01
      1.89749673e-02 2.31615305e-01 -6.64658286e-03 1.30538523e-01
      -6.15329994e-03 -1.27062306e-01 6.03459291e-02 8.12425986e-02
      -7.27309734e-02 -2.62234032e-01 -1.28176704e-01 -1.23913484e-02
      1.83433369e-02 -3.40029448e-02 -3.12204242e-01 2.27692857e-01
      7.92228729e-02 1.51087791e-01 -6.87345788e-02 -8.54515750e-03
      -9.41371843e-02 1.95580646e-01 3.29356617e-03 4.39980142e-02
      2.74065614e-01 -2.26695746e-01 1.43021986e-01 -5.06924912e-02
      1.16008952e-01 0. -3.13781440e-01 1.03113234e-01 1.30277976e-01
      2.41437629e-01 2.83100516e-01 -7.76522234e-03 5.89840151e-02
      3.41156363e-01 1.97392702e-02 -1.54010341e-01 6.59884661e-02
      -3.29953969e-01 -1.25282362e-01 -3.16193938e-01 1.24365352e-01
      1.14398621e-01 6.80787340e-02 -1.01896696e-01 -1.57459795e-01
      1.64855719e-01 -6.76800460e-02 1.11520477e-02 -1.46505699e-01
      3.33173536e-02 2.46690854e-01 1.75098196e-01 -1.25937462e-01
      -4.80842367e-02 2.43012786e-01 -1.51356101e-01 5.15354350e-02 0.
      7.22116157e-02 3.07997078e-01 4.17384170e-02 -1.06043391e-01
      -1.29802138e-01 2.37992480e-01 -4.46048379e-03 -6.09090589e-02
      -9.12385136e-02 -2.86980718e-01 -9.95971784e-02 -1.59458965e-01
      1.00838775e-02 9.51943323e-02 -3.21555883e-01 -9.94072109e-02
      1.68308675e-01 4.37520780e-02 -1.13206655e-01 3.72510217e-02
      -1.31092578e-01 -9.70334634e-02 1.75051972e-01 7.06638247e-02
      -3.84754017e-02 1.54451370e-01 -1.06439292e-02 -1.65602282e-01
      -3.09222359e-02 -5.28537333e-02 6.92209229e-02 0. -5.89701794e-02
      -4.02751602e-02 -1.98435578e-02 4.52996083e-02 -2.93484926e-01
      4.34389291e-03 -1.94626719e-01 -4.90523651e-02 8.04793090e-03
      6.61557913e-02 2.78729089e-02 -8.67852867e-02 9.41657200e-02
      -5.44534773e-02 2.15474650e-01 5.14749289e-02 -1.23386653e-02
      4.51873522e-03 -2.44299844e-01 1.35611910e-02 -3.66206430e-02
      6.44550025e-02 -1.50675401e-01 6.21587522e-02 3.08883823e-02
      6.59696981e-02 -5.98366894e-02 -1.62304863e-01 -6.93424791e-02
      7.44515797e-03 8.63289312e-02 0. 2.64366213e-02 4.75718938e-02
      -1.14118122e-01 1.08082473e-01 -1.56600460e-01 2.42102683e-01
      -5.91489039e-02 -5.13746962e-02 -2.83910036e-02 -1.46813065e-01
      8.21355060e-02 1.17911920e-01 -8.04027021e-02 -3.37873399e-02
      -2.13545207e-02 -1.58162415e-01 -5.50058484e-02 4.78392430e-02
      -1.99011818e-01 1.20905355e-01 5.14670797e-02 9.39955935e-02
      -4.79480805e-04 1.21993765e-01 -1.34453550e-01 6.19805753e-02
      -8.92484337e-02 -4.39872071e-02 -7.13653639e-02 -3.90954781e-03
      9.38874483e-03 0. 3.25040162e-01 6.60298672e-03 -1.58624113e-01
      8.55731145e-02 -2.23768622e-01 -5.68291694e-02 -2.25333199e-01
      1.93087831e-02 2.29276538e-01 -1.65873334e-01 2.63062250e-02
      1.88955486e-01 1.12199321e-01 5.03525063e-02 1.20035917e-01
      -1.64372712e-01 6.43130019e-02 6.74676672e-02 5.08984402e-02
      -1.22388229e-02 1.11588903e-01 2.20949873e-01 -8.89218897e-02
      1.27933577e-01 -1.75128952e-01 1.23227024e-02 2.12755293e-01
      1.31506249e-01 6.09366708e-02 1.06056442e-03 -5.17863110e-02 0.
      1.21467493e-01 6.61242232e-02 2.61462837e-01 2.46107951e-01
      -2.07619201e-02 6.44182935e-02 7.01154992e-02 1.45181179e-01
      -1.36554345e-01 -3.15385163e-01 9.72687304e-02 -2.34705314e-01
      -1.33836851e-01 2.70575788e-02 -3.12029421e-01 2.63141952e-02
      -9.72785577e-02 -1.45868942e-01 5.35947047e-02 2.10224345e-01
      1.04437597e-01 1.19399332e-01 1.19419850e-01 -1.52883455e-02
      2.86671165e-02 1.61754936e-01 -1.69066355e-01 2.23676767e-02
      1.03917597e-02 -6.42866790e-02 -9.61762369e-02 0. -2.66335696e-01
      -1.61091268e-01 2.05940425e-01 1.59455806e-01 -5.37823066e-02
      -7.30233788e-02 3.01164210e-01 2.09983438e-01 1.26275411e-02
      1.09804921e-01 -2.22772226e-01 -1.47212252e-01 -5.70694394e-02
      -3.20447892e-01 -5.45908734e-02 -1.25676751e-01 -2.00152993e-01
      1.04084268e-01 5.08629531e-02 -1.56488657e-01 3.08139652e-01
      1.85611974e-02 -1.48706153e-01 -7.87863210e-02 1.29138812e-01
      2.61658579e-01 1.62863404e-01 -1.57165363e-01 -1.70015037e-01
      3.72234397e-02 1.69718731e-02 0. -3.36775541e-01 2.54925966e-01
      -3.18750553e-02 -2.66985800e-02 -1.62653193e-01 -1.06527746e-01
      1.70954645e-01 -2.20217660e-01 4.21489216e-02 3.00378144e-01
      3.17306630e-02 2.72868350e-02 -6.92751142e-04 7.38604069e-02
      1.04652524e-01 -3.02039664e-02 1.34958282e-01 -1.08871661e-01
      8.28420520e-02 1.76405102e-01 -3.50000747e-02 7.16946786e-03
      5.68936579e-03 9.18501467e-02 1.08826347e-01 1.24464065e-01
      5.12923226e-02 -1.45918518e-01 -7.61410818e-02 1.51686698e-01
      1.25234544e-01 0. -1.43585041e-01 4.65045609e-02 -1.38455674e-01
      -6.94808259e-04 2.26583369e-02 -1.58570543e-01 -1.59634545e-01
      6.03131875e-02 -3.96053493e-03 4.69066389e-02 3.79479267e-02
      -7.23283142e-02 -1.75190102e-02 7.76831806e-02 5.64290136e-02
      -4.25024657e-03 1.28549919e-01 7.44033307e-02 -2.26220220e-01
      -7.69539317e-03 2.99363323e-02 -1.21426240e-01 -1.56938717e-01
      9.26111564e-02 -7.55720586e-02 4.32604998e-02 8.70064944e-02
      -4.96774390e-02 6.62167668e-02 -6.97958544e-02 -1.63234491e-02 0.
      -1.85814068e-01 8.98637697e-02 -1.51544899e-01 6.55531660e-02
      -1.56237766e-01 -1.74400374e-01 -3.94491181e-02 3.52689847e-02
      6.66436777e-02 4.68589105e-02 2.43414521e-01 4.75350879e-02
      -9.13611576e-02 -7.39978328e-02 -1.29495874e-01 -1.29243582e-02
      1.74344361e-01 -5.05191945e-02 -9.64385718e-02 2.61426747e-01
      -1.42311724e-02 -3.22152930e-03 -1.14014484e-01 -1.42086700e-01
      3.33667547e-02 1.29711166e-01 3.67166810e-02 -5.71507849e-02
      -2.09029496e-01 1.19753450e-01 6.76890416e-03 0. 6.81159049e-02
      3.55313458e-02 -1.00485105e-02 1.22238174e-01 -1.84357107e-01
      -4.96524498e-02 -1.22844405e-01 -3.97149026e-02 -3.44386580e-03
      -4.66506965e-02 -5.52631691e-02 -1.48203345e-02 2.88558364e-01
      4.22104634e-03 -1.45482095e-02 -4.69132513e-02 2.15526924e-01
      -1.73460275e-01 4.28282730e-02 -7.08839446e-02 -9.54866060e-04
      2.79135466e-01 -1.79727644e-01 -6.96172938e-02 -1.28606066e-01
      1.37064010e-01 -6.68442175e-02 1.11722708e-01 -1.62848040e-01
      1.16523162e-01 -7.83733428e-02 0. 7.12850243e-02 2.66974093e-03
      1.28281981e-01 -3.72427367e-02 1.01502426e-01 6.71208799e-02
      3.62885604e-03 1.16543770e-01 -3.51642519e-02 -8.23798031e-03
      -9.45903882e-02 -2.66426187e-02 -1.19064495e-01 -2.06621662e-01
      -1.56671345e-01 -2.35617250e-01 3.15864310e-02 3.50309700e-01
      7.82463923e-02 9.26294550e-02 1.36853069e-01 -5.13592474e-02
      -1.61121160e-01 -1.24852620e-01 -2.04430237e-01 1.37070879e-01
      2.17085242e-01 5.13788052e-02 -1.31299213e-01 2.12230936e-01
      -1.54430494e-01 0. -7.10511506e-02 -1.40557736e-01 1.10717855e-01
      -1.09484904e-01 -8.20033476e-02 8.40779021e-02 4.06053849e-02
      3.48145694e-01 -8.25391412e-02 -3.22822124e-01 -5.85753359e-02
      -2.21128799e-02 8.16182699e-03 -9.68566611e-02 -7.23940879e-02
      8.83376971e-02 -3.53983492e-02 1.49693638e-01 -1.63136274e-01
      -1.00158388e-02 4.01408896e-02 -3.51632833e-02 -1.60509422e-01
      9.69780236e-02 1.47155762e-01 1.89857364e-01 4.18729745e-02
      1.61183793e-02 -6.14833385e-02 6.24176115e-02 -1.41528487e-01 0.
      1.74035281e-01 3.21527958e-01 -1.58274192e-02 -2.09206074e-01
      7.44275600e-02 2.04860722e-03 -2.58669078e-01 -4.37174812e-02
      1.12606607e-01 -1.86088279e-01 2.20361426e-02 -1.04325376e-01
      2.05480959e-02 9.78412777e-02 -2.80998405e-02 9.11832824e-02
      4.02189158e-02 -1.24505699e-01 4.74916287e-02 1.01800248e-01
      -1.23568945e-01 -2.12732896e-01 3.48929800e-02 2.73476932e-02
      -1.59301624e-01 -5.12395352e-02 -1.28375724e-01 -2.86811590e-01
      1.23755977e-01 1.00378409e-01 5.60938269e-02 0. -1.73238486e-01
      2.21023858e-02 -1.08149927e-02 -2.41703287e-01 -1.71453789e-01
      1.67084739e-01 -2.13310704e-01 -1.07371122e-01 2.50849724e-01
      8.09643418e-02 -7.88017064e-02 -1.43367469e-01 1.96840819e-02
      -1.72954366e-01 1.78572163e-01 1.23045959e-01 -5.40069072e-03
      -5.99730834e-02 -4.20964733e-02 -1.71188846e-01 -1.21586561e-01
      -1.57453477e-01 -1.84526354e-01 8.77399594e-02 -1.85830861e-01
      -2.26292118e-01 4.19556275e-02 -4.68619913e-02 -2.10300013e-02
      -2.86126703e-01 1.01307616e-01 0. -3.89510721e-01 -4.57223542e-02
      3.81182671e-01 5.39405048e-02 -5.35488613e-02 1.99162066e-02
      -9.73579511e-02 -1.28261410e-02 -1.34226918e-01 -1.97713256e-01
      1.89591944e-01 5.56619884e-03 1.07455842e-01 2.18556728e-02
      -1.63985195e-03 -4.57731746e-02 -1.16766235e-02 -2.33644131e-03
      -2.34657675e-01 -2.87785102e-02 3.09793204e-01 1.61819771e-01
      1.49403647e-01 -5.75537644e-02 -1.19257979e-01 -3.83285806e-02
      6.78701252e-02 1.44293988e-02 -1.64290518e-01 -1.46777183e-02
      6.42139390e-02 0. -3.72141902e-03 -1.32690236e-01 2.15078607e-01
      -9.07580331e-02 -1.62968989e-02 6.38702586e-02 1.06186472e-01
      1.38319775e-01 -9.85280126e-02 8.61272663e-02 3.11388403e-01
      1.36765704e-01 -1.50896728e-01 -1.30201638e-01 -7.46084452e-02
      -2.12993726e-01 6.42588362e-02 7.19410777e-02 5.89454584e-02
      9.96529236e-02 2.48322114e-01 -2.64594734e-01 -1.69018999e-01
      -6.66583851e-02 -4.14284542e-02 1.84477314e-01 3.64065133e-02
      2.96798289e-01 -1.26050040e-01 1.01568609e-01 -1.38796926e-01 0.
      -2.23691657e-01 6.68478683e-02 -1.29579097e-01 -1.77835628e-01
      -1.30627558e-01 -9.71856266e-02 -2.46221572e-01 -5.40872626e-02
      9.87277851e-02 6.79510385e-02 -1.26833037e-01 1.79339275e-01
      6.79830611e-02 3.92370038e-02 1.39353558e-01 5.47108799e-02
      -7.88308680e-02 2.09043901e-02 -8.69721323e-02 -1.09987468e-01
      6.91544712e-02 -1.51042342e-01 -9.17265341e-02 4.36083190e-02
      -1.01644121e-01 -1.78344958e-02 7.05092475e-02 -3.46521251e-02
      -2.39006951e-01 1.20716706e-01 -9.68230441e-02 0. 4.56022434e-02
      1.55655116e-01 1.56824887e-01 1.74368158e-01 4.77892831e-02
      -2.78363228e-02 1.34864077e-01 1.34327769e-01 1.44456446e-01
      -2.43448153e-01 -1.07882857e-01 -2.03336045e-01 1.01370275e-01
      -1.38419792e-01 7.42832292e-03 -1.56167164e-01 -1.68676488e-02
      8.17184374e-02 -1.25893667e-01 1.01197414e-01 -8.73471703e-03
      2.00056031e-01 -1.18408985e-01 1.17008939e-01 -1.55854616e-02
      3.62033397e-02 7.98169896e-03 1.05843343e-01 1.03016254e-02
      1.15577169e-01 -9.48054641e-02 0. -1.33918211e-01 -3.77599932e-02
      2.05219850e-01 -2.03323007e-01 1.03752382e-01 -2.24082731e-03
      3.61324437e-02 -9.10988152e-02 -2.01879248e-01 3.11094224e-02
      -6.77309334e-02 9.32198688e-02 4.28173095e-02 -4.00699079e-02
      8.85243490e-02 4.86228503e-02 8.94917399e-02 2.98523228e-03
      -1.98392108e-01 -1.63299497e-02 2.05228537e-01 -8.81707966e-02
      -2.05791861e-01 1.23354256e-01 1.16307937e-01 -5.51450066e-02
      -2.15882827e-02 4.20194417e-02 -1.00729384e-01 7.59119168e-02
      -3.42409909e-02 0. -1.75623342e-01 1.14984781e-01 2.52906862e-03
      -1.07349098e-01 4.25592139e-02 1.01533681e-01 1.11390285e-01
      -9.13181528e-02 4.04608727e-01 1.12939261e-01 -6.54978156e-02
      -7.36896992e-02 -1.37728572e-01 -1.70972675e-01 -1.26049981e-01
      -2.71123260e-01 -1.00905985e-01 2.83460230e-01 1.25664659e-03
      1.70639753e-01 -1.30668962e-02 -1.74524754e-01 1.22505445e-02
      1.11942247e-01 -8.80039185e-02 -1.75194606e-01 3.96422178e-01
      1.30093813e-01 -1.31797686e-01 4.30393778e-02 -1.10279322e-01 0.
      -2.55511820e-01 1.37370065e-01 1.11165987e-02 -5.73543645e-02
      1.03049606e-01 3.38067045e-03 -3.46699990e-02 -2.27828830e-01
      1.08189374e-01 -1.14409938e-01 -1.71235085e-01 -1.62102208e-01
      3.65536287e-03 3.06487418e-05 1.27669260e-01 3.24280970e-02
      1.22775966e-02 -2.50809580e-01 -1.58948436e-01 -4.52715419e-02
      -2.94598248e-02 -1.49436653e-01 2.34641577e-03 6.33843094e-02
      -4.04808903e-03 -1.41336545e-02 -1.95631713e-01 3.81378718e-02
      -3.91073495e-01 1.05575502e-01 -9.90031958e-02 0. -1.70794457e-01
      2.44565189e-01 -1.43749923e-01 -1.30212381e-02 -2.76702922e-02
      3.60349864e-02 3.47901136e-02 1.32580161e-01 2.11653709e-01
      -2.34526455e-01 -1.88528404e-01 -3.82692250e-03 1.07414566e-01
      2.25662645e-02 5.04593179e-02 -6.84857666e-02 -2.69636884e-03
      -1.81645349e-01 -6.90664351e-02 1.92426760e-02 6.48830011e-02
      -2.98116327e-04 -1.00858293e-01 7.14559406e-02 -5.10468893e-02
      9.71070677e-03 1.91344514e-01 8.61895084e-02 -1.10361338e-01
      1.88396171e-01 -2.56091207e-01 0. 4.71424721e-02 4.61961031e-01
      -2.32307892e-02 1.21948257e-01 4.77749556e-02 1.39468685e-01
      2.03531180e-02 -2.03531720e-02 1.70187354e-01 -2.63661027e-01
      3.36968452e-01 -1.74060389e-01 -2.18133211e-01 -9.22459066e-02
      -7.40317181e-02 -7.09101409e-02 -7.33390376e-02 -6.56182505e-03
      -2.43146569e-02 4.00957108e-01 -2.81518966e-01 -2.53463741e-02
      1.52844731e-02 1.37310326e-01 -4.85957004e-02 -1.50613680e-01
      2.92964518e-01 1.11374453e-01 -3.49482857e-02 1.41481131e-01
      -6.26860708e-02 0. 3.43922116e-02 -1.52482927e-01 -5.82856499e-03
      1.43415809e-01 -1.11226998e-01 -2.05617975e-02 -1.39670447e-01
      5.81660308e-02 3.27230990e-02 -5.89382909e-02 -3.82550061e-02
      1.31489690e-02 -3.04284338e-02 8.60106274e-02 3.28991860e-02
      1.17308713e-01 1.30058810e-01 -1.08550519e-01 -2.42292583e-01
      -1.63519215e-02 -5.44247625e-04 1.18023902e-01 1.56322327e-02
      -1.19871326e-01 -6.28794208e-02 2.11569786e-01 8.68853703e-02
      1.29342347e-01 1.35959517e-02 1.63072848e-03 -1.52969226e-01 0.
      2.68562362e-02 1.75049663e-01 -3.65734607e-01 -1.46417424e-01
      1.03692509e-01 1.53632596e-01 -1.28632233e-01 -9.30152312e-02
      1.46084055e-01 5.11505641e-02 1.22717880e-01 1.40460506e-01
      -2.41337027e-02 -1.69986933e-02 2.43761204e-02 4.10097353e-02
      -1.13383858e-02 1.03907175e-01 -3.22013721e-02 3.09549898e-01
      -4.12360094e-02 -3.96339744e-02 2.21013740e-01 5.96067756e-02
      5.70839737e-03 2.42614076e-02 1.25693157e-01 5.34259975e-02
      -5.34963720e-02 6.82652518e-02 7.44821578e-02 0. -3.29501629e-02
      -7.95460194e-02 -1.25016347e-01 1.62752360e-01 -8.64631385e-02
      -1.80335473e-02 -2.47231886e-01 -3.57337654e-01 -8.64732265e-02
      1.13337569e-01 9.58494395e-02 -5.18475473e-03 2.73031473e-01
      -1.90252632e-01 1.36578158e-01 2.72156857e-02 -7.90716261e-02
      2.61487551e-02 1.86511919e-01 8.48548189e-02 -2.67183602e-01
      2.64044344e-01 -8.68823603e-02 2.21253373e-02 -1.75731018e-01
      -1.23331644e-01 -3.86746004e-02 2.92244032e-02 -1.89825594e-01
      3.17152627e-02 -9.39201787e-02 0. 1.20462999e-01 4.26592715e-02
      -8.58793557e-02 9.23855752e-02 -5.00650890e-03 1.56422760e-02
      1.43076733e-01 -1.88069254e-01 -3.09884381e-02 -6.96843192e-02
      1.32550940e-01 -5.56401312e-02 7.30462074e-02 -1.62747443e-01
      -6.48619654e-03 -3.25032249e-02 1.38697503e-02 -2.13673607e-01
      -2.13709734e-02 2.60470122e-01 -6.32742345e-02 1.23554535e-01
      -1.45592883e-01 -1.11301839e-01 1.60814047e-01 -4.38855961e-02
      -1.31022274e-01 6.76385239e-02 -1.33789435e-01 3.01623866e-02
      -6.62980974e-02 0. 2.66880859e-02 1.50105119e-01 -2.31955695e-04
      -2.46925727e-01 -1.89494580e-01 1.68150470e-01 -1.01568811e-01
      -9.78977233e-02 3.04424055e-02 -6.89701587e-02 1.80310458e-01
      2.69176334e-01 -6.24351837e-02 7.94184282e-02 2.93677188e-02
      6.98450655e-02 1.09205991e-01 -1.86168090e-01 2.70313881e-02
      1.53122589e-01 2.76882082e-01 -1.96201012e-01 -4.11016494e-02
      1.38485029e-01 -1.55017562e-02 -4.38165814e-02 -1.48592710e-01
      1.10080890e-01 -5.99209368e-02 1.44335344e-01 -1.19534276e-01 0.
      -2.39116833e-01 -1.18440382e-01 -1.75551236e-01 1.64293736e-01
      4.59611490e-02 1.91251278e-01 -1.34093836e-01 -6.66670874e-02
      -1.47806555e-01 4.52930368e-02 5.24580926e-02 -1.85786709e-02
      -1.08340234e-01 -1.06910713e-01 -4.68964912e-02 -1.51092866e-02
      4.57669497e-02 8.07229057e-02 -7.27694407e-02 -1.71357080e-01
      -9.14408714e-02 7.22061023e-02 1.85496546e-02 2.31333360e-01
      -8.30385238e-02 4.78280820e-02 5.03180921e-02 -1.10338593e-03
      -2.14571446e-01 6.49437532e-02 -1.09370582e-01 0. 9.30905044e-02
      -1.60103425e-01 -1.10909753e-01 -3.05090807e-02 1.55877426e-01
      -1.14846095e-01 5.82659319e-02 -1.57546163e-01 -1.71955839e-01
      -1.41548276e-01 6.01556711e-02 1.74321800e-01 6.77546859e-02
      -1.11626707e-01 5.49723879e-02 -9.77431610e-02 -3.95187363e-02
      6.63323104e-02 3.62775102e-02 -4.30027023e-02 1.13222236e-02
      -1.57948956e-02 1.57993674e-01 9.81427077e-03 1.03339404e-01
      -2.03728244e-01 -2.38829687e-01 1.04370549e-01 -2.70751476e-01
      5.25857657e-02 -7.73747265e-02 0. -1.05579391e-01 2.91422252e-02
      -1.61255181e-01 -3.22659910e-02 3.11599243e-02 -2.38316149e-01
      -1.75174117e-01 1.79198533e-02 9.90650430e-02 7.45771229e-02
      -8.68227929e-02 8.80160034e-02 3.74106653e-02 8.25696141e-02
      9.34161693e-02 -8.95153359e-02 1.25112250e-01 1.19037822e-01
      -4.99188937e-02 -1.54220715e-01 -1.55154258e-01 2.39669923e-02
      6.44689128e-02 -1.15459651e-01 -1.02829367e-01 1.81697085e-01
      1.49655297e-01 1.85002461e-01 -2.34572113e-01 1.80087879e-01
      -1.73652500e-01 0. -3.33976150e-02 1.43490925e-01 -3.93119812e-01
      7.12154433e-02 4.10613418e-02 2.46517733e-02 1.19658425e-01
      -7.28726983e-02 2.09414549e-02 3.00704896e-01 -7.64759406e-02
      4.94108908e-02 -1.26998231e-01 -5.78820854e-02 -1.81636721e-01
      1.82442591e-01 -1.26835063e-01 1.58770755e-01 -7.87077285e-03
      -1.11119011e-02 -1.81336835e-01 -4.65923771e-02 -1.99270666e-01
      -7.19249099e-02 2.28634596e-01 -4.36822101e-02 3.03182900e-01
      1.22345060e-01 -4.19240259e-02 1.43909350e-01 -2.03998655e-01 0.
      9.33483467e-02 3.34230177e-02 -1.93820167e-02 -1.75861254e-01
      -1.43264100e-01 2.18258411e-01 2.11399272e-02 -9.63063538e-02
      7.71400519e-03 -1.23920716e-01 1.12086006e-01 1.30448297e-01
      -4.97696735e-02 1.05444454e-01 -9.83636826e-02 9.46983546e-02
      1.01598911e-01 -1.93251520e-02 -2.00864881e-01 1.11481592e-01
      2.43054871e-02 -2.13697791e-01 -1.69920266e-01 1.43406605e-02
      2.34468672e-02 -3.14714946e-02 -7.92395324e-02 1.56740427e-01
      -1.18411399e-01 1.32615581e-01 -8.04514810e-02 0. -2.40771696e-01
      -4.82443012e-02 2.41280526e-01 -1.69325098e-01 -1.19568519e-01
      2.75727749e-01 -1.16512068e-02 5.04870117e-02 3.55630950e-03
      1.48524949e-02 -9.19182003e-02 -2.79129624e-01 1.37108937e-01
      3.16059366e-02 2.37819087e-02 1.50929959e-02 -3.52744223e-03
      2.63179451e-01 -1.14065059e-01 -6.82328343e-02 3.86644453e-02
      6.40555918e-02 -9.77803841e-02 5.28428294e-02 5.74742770e-03
      5.24380244e-02 2.76750594e-01 5.19244373e-02 -7.85426125e-02
      1.80071920e-01 -1.09831624e-01 0. -1.62163779e-01 -6.99866936e-02
      1.25812173e-01 1.51123285e-01 -8.81398935e-03 1.13854617e-01
      1.96323484e-01 6.90547377e-02 9.96009856e-02 -2.09274799e-01
      2.79072020e-02 -1.22149676e-01 -4.74654138e-02 8.17122087e-02
      3.13771218e-02 -2.00966120e-01 -1.29581183e-01 -7.08111376e-02
      -6.18316270e-02 1.51485085e-01 4.22673523e-02 1.05204798e-01
      -7.94479623e-02 2.07564235e-01 6.02042638e-02 6.19263910e-02
      2.49677256e-01 6.43289909e-02 -4.54994999e-02 1.62020121e-02
      -9.36957002e-02 0. 1.38561964e-01 -5.86871058e-02 -1.59918308e-01
      7.55967014e-03 -1.56551182e-01 -1.73109367e-01 -7.54908994e-02
      -1.45365121e-02 3.31935138e-02 -2.75727093e-01 1.10408604e-01
      9.74168926e-02 -9.84950662e-02 5.29263690e-02 -7.43781552e-02
      -1.28255516e-01 9.41410288e-02 2.59874314e-01 1.75921291e-01
      7.48670250e-02 5.07630147e-02 -9.45780873e-02 -9.56689566e-02
      6.49125576e-02 -5.93656711e-02 -1.78374574e-02 1.75687492e-01
      -7.84534775e-03 -7.39874095e-02 -7.45650334e-03 -1.09201618e-01 0.
      -6.37136400e-02 -1.30195364e-01 -1.54270828e-01 -1.22433290e-01
      -1.48802534e-01 1.87225565e-01 7.78377354e-02 1.10760458e-01
      1.07363230e-02 -1.19227678e-01 3.04742634e-01 1.47701710e-01
      1.44382253e-01 8.80543962e-02 -2.97759831e-01 -1.85038373e-02
      -2.09047850e-02 -5.23292273e-02 -2.14277312e-01 8.00329298e-02
      1.04250871e-01 -4.21972536e-02 -1.12168685e-01 -9.31185484e-02
      9.17721689e-02 1.29115999e-01 -5.59787862e-02 7.51790181e-02
      -1.59981281e-01 9.19354558e-02 -3.38615403e-02 0. -2.17051730e-01
      5.69181032e-02 1.13198213e-01 3.43393870e-02 1.13493130e-01
      -1.24458633e-01 -1.09105252e-01 -7.67527744e-02 -1.08565718e-01
      -4.13622633e-02 -1.10109925e-01 9.65130478e-02 4.30220403e-02
      -3.88408452e-01 -1.29589215e-02 1.71563655e-01 2.48024799e-02
      2.87056625e-01 -1.70164645e-01 -1.16737753e-01 2.72339076e-01
      3.15662213e-02 -1.93344221e-01 -7.50200823e-02 5.13375737e-02
      8.37791190e-02 1.12284355e-01 1.48158804e-01 -1.24765977e-01
      7.46127293e-02 -2.14850068e-01 0. -2.47260332e-01 9.75537971e-02
      5.20117059e-02 -4.25243527e-02 -7.43025243e-02 -2.01308489e-01
      6.63699061e-02 -1.95168301e-01 -2.80521028e-02 1.53815880e-01
      1.76255360e-01 3.02653536e-02 -4.56128977e-02 -1.34176061e-01
      7.36527443e-02 -9.38970074e-02 1.76898658e-01 1.27548143e-01
      1.73340440e-01 1.17266439e-01 5.56021966e-02 -2.06414666e-02
      3.88985910e-02 -7.22101107e-02 -1.25091717e-01 8.76704678e-02
      1.35067239e-01 9.70646217e-02 -1.34845957e-01 9.34049338e-02
      -1.06501974e-01 0. -2.10980028e-01 6.23503290e-02 1.23738229e-01
      1.68203846e-01 1.48809612e-01 9.84425992e-02 6.28167242e-02
      4.24709450e-03 -2.11636901e-01 -3.18300277e-01 4.06418443e-02
      -5.96793601e-03 -2.05203399e-01 -8.24302658e-02 -1.04537681e-01
      2.27648392e-02 -2.64804631e-01 1.25519678e-01 -1.89856768e-01
      1.90255955e-01 1.93967924e-01 -1.24101676e-02 3.58349793e-02
      2.21777018e-02 5.50747216e-02 -1.87392399e-01 5.38276508e-02
      4.78318259e-02 -1.82454795e-01 3.71372700e-02 -1.60052508e-01 0.
      7.08873868e-02 1.93191260e-01 3.84227671e-02 3.98696810e-02
      2.55211797e-02 -2.84334016e-03 1.03452295e-01 1.31159127e-01
      1.76702768e-01 4.34285775e-02 -2.61218131e-01 -2.28278473e-01
      -1.50068760e-01 1.49911910e-01 9.91372913e-02 -7.35942572e-02
      8.37891847e-02 -2.24861562e-01 2.35195130e-01 -1.24657303e-01
      -3.41992117e-02 -5.10846451e-02 7.82529563e-02 -5.00272438e-02
      4.47480660e-03 2.79371053e-01 -6.14982797e-03 4.59612682e-02
      -1.24715887e-01 2.13804856e-01 -3.38835083e-02 0. -8.81537870e-02
      -2.73636967e-01 -1.13447085e-01 2.05105040e-02 -8.41885433e-02
      -1.49703264e-01 -9.55324713e-03 -7.62304813e-02 1.53116202e-02
      1.51274666e-01 8.77204984e-02 -2.81040192e-01 1.64007246e-01
      5.13829477e-02 -1.58776902e-02 -3.13728414e-02 -2.23816726e-02
      -1.39181942e-01 -3.68330255e-02 -6.27853051e-02 -2.00706437e-01
      1.08247645e-01 -1.32527530e-01 -9.45723131e-02 -1.52294055e-01
      -1.43981174e-01 -9.82623547e-02 -1.89237595e-01 -2.09405795e-01
      8.33128095e-02 -5.92250712e-02 0. 2.83911056e-03 -1.49843216e-01
      1.49079906e-02 9.30175781e-02 6.60435036e-02 3.60372700e-02
      -2.26682071e-02 7.58061334e-02 -3.04057379e-03 1.27384186e-01
      5.39529026e-02 -1.81594193e-01 1.25545517e-01 9.75138545e-02
      -1.86736062e-01 -1.37373894e-01 -9.58011448e-02 -6.09211996e-02
      2.76931643e-01 -2.15316102e-01 -1.04267545e-01 3.99917290e-02
      -1.19002268e-01 7.33490437e-02 -1.62354991e-01 4.02675793e-02
      2.99924687e-02 -8.43812302e-02 1.70787182e-02 -1.29915972e-03
      2.81468994e-04 0. 9.11567509e-02 4.97951778e-03 -6.68123290e-02
      -1.07111081e-01 2.52354145e-01 4.93262336e-02 -5.03224842e-02
      -3.11759897e-02 5.07767573e-02 -1.00640357e-01 1.49997488e-01
      -1.00147754e-01 2.08494574e-01 2.73367930e-02 -2.58941591e-01
      -2.69800186e-01 -2.06651449e-01 8.24344531e-02 1.92925379e-01
      6.49776384e-02 -7.33072907e-02 -3.21920216e-02 1.95344135e-01
      1.15799464e-01 -2.68175125e-01 -1.81477264e-01 1.17053762e-01
      -9.22438875e-02 -2.88066212e-02 -9.60783213e-02 8.76132399e-02 0.
      -6.78546578e-02 -7.04811960e-02 1.65671751e-01 -2.81217724e-01
      -1.20187446e-01 5.58540924e-03 -6.44494488e-04 1.19835019e-01
      1.96091950e-01 -9.26548019e-02 1.21792860e-01 -9.99619216e-02
      1.77063972e-01 -1.99028537e-01 -2.25142673e-01 -2.52876371e-01
      -4.98984680e-02 -5.54836281e-02 -1.55765163e-02 1.82562113e-01
      7.17716143e-02 -9.85339209e-02 -1.87405840e-01 -8.65728483e-02
      -2.45135471e-01 8.02206025e-02 -6.80954233e-02 -8.66798162e-02
      -1.67560145e-01 -2.25449838e-02 -6.70499876e-02 0. -1.43083215e-01
      2.68247992e-01 -3.72749777e-03 4.83192988e-02 -5.35410456e-03
      -5.10630570e-02 -2.34414861e-01 2.48472214e-01 -1.34204477e-01
      -2.58749537e-02 -1.36924699e-01 -1.07519485e-01 -8.70597214e-02
      -2.48827770e-01 -5.66925034e-02 4.82644290e-02 -1.96008056e-01
      5.48567772e-02 -3.94020404e-04 -4.46200296e-02 -6.78222328e-02
      -1.45407766e-01 -4.83477749e-02 -3.30923758e-02 -1.02354817e-01
      1.91917811e-02 9.33828950e-02 -2.26635374e-02 -3.56320739e-02
      -8.10206234e-02 -2.20170453e-01 0. -1.57265738e-01 -3.03681120e-02
      -1.38120085e-01 -9.60280672e-02 1.83366537e-01 2.39592522e-01
      -9.30340290e-02 -3.36634740e-02 1.10118464e-01 1.33067042e-01
      1.06343940e-01 -1.37662739e-01 -1.19191736e-01 -2.92664111e-01
      1.15533158e-01 8.75766426e-02 -3.99199240e-02 6.37380257e-02
      1.38447508e-01 1.09005742e-01 -1.43910676e-01 -2.32845694e-01
      1.50791779e-01 2.91757017e-01 -8.54128152e-02 -1.02483638e-01
      1.69709072e-01 -2.35219356e-02 1.25707492e-01 -1.14183709e-01
      -3.44732553e-02 0. 1.78888291e-01 -3.38234045e-02 -5.39385267e-02
      -2.25122496e-02 -9.80556570e-03 -3.29404254e-04 -7.48932688e-03
      6.17805496e-02 -1.64817542e-01 -4.68112938e-02 -1.49698958e-01
      3.61861624e-02 -8.42682198e-02 -1.74473748e-01 -1.16425632e-02
      1.40546769e-01 -1.92271411e-01 1.54446317e-02 2.17733935e-01
      -3.97590846e-02 -2.90933345e-02 -1.83355361e-01 -3.62857208e-02
      -8.48309174e-02 -1.23263327e-02 -1.36849627e-01 -2.88495600e-01
      -3.93667445e-02 -6.40366822e-02 -8.45004916e-02 -5.67695536e-02 0.
      4.54120897e-02 2.81269550e-01 1.37848640e-02 -8.51003975e-02
      2.19031528e-01 -1.09799663e-02 1.63918391e-01 -3.16330343e-01
      -1.57530040e-01 1.21348254e-01 -1.59966461e-02 1.51019782e-01
      8.94641504e-02 -5.07048890e-02 1.05423868e-01 -2.36033294e-02
      -2.56397016e-02 -2.41871830e-02 1.05627395e-01 2.26684898e-01
      1.83462560e-01 -1.24378763e-01 2.90144354e-01 1.00679815e-01
      1.20313451e-01 -6.42701015e-02 1.23647954e-02 -2.28332859e-02
      7.70394206e-02 2.05846261e-02 1.51764005e-01 0. -3.86601761e-02
      -2.07337514e-01 -7.75323734e-02 -9.94810313e-02 -1.34665027e-01
      -1.54404163e-01 7.82826766e-02 6.98442459e-02 -1.85101271e-01
      -1.31070703e-01 4.96181212e-02 -1.37562513e-01 2.64444977e-01
      -5.99747635e-02 8.18099603e-02 -1.51542366e-01 -2.10798562e-01
      -1.80826262e-01 -1.60400718e-01 -2.10249294e-02 -6.35032579e-02
      1.47901177e-01 3.12677324e-02 8.59399512e-02 -1.42930010e-02
      -1.40367141e-02 -1.41241997e-01 -1.69391617e-01 -1.71702921e-01
      -2.23716304e-01 -1.26337372e-02 0. 1.74129665e-01 -1.01894327e-01
      -1.49490029e-01 -4.68499735e-02 1.48292542e-01 2.99623869e-02
      4.29448038e-02 -2.55335588e-02 1.10873796e-01 -7.44675398e-02
      3.82869579e-02 -3.19824517e-01 -4.14246060e-02 6.26059249e-02
      8.59132782e-02 -4.47307900e-02 4.23048325e-02 7.66110346e-02
      1.62147060e-01 3.96217890e-02 -2.41728142e-01 4.26263511e-02
      1.18632754e-02 2.14709952e-01 4.52918969e-02 8.74947011e-02
      8.17394853e-02 -4.98266220e-02 -5.78020662e-02 3.80962938e-02
      7.31668919e-02 0. 1.93893705e-02 2.57961333e-01 1.93382874e-01
      -5.42589873e-02 -9.20411758e-03 1.52438700e-01 1.50059253e-01
      -5.75915761e-02 6.78349212e-02 -2.90955901e-02 3.11280098e-02
      -1.98754631e-02 2.37575620e-02 1.69484671e-02 6.58337697e-02
      -1.01232035e-02 -8.48495215e-02 -1.28001779e-01 1.01170585e-01
      2.61790585e-03 1.64575338e-01 -9.23410282e-02 -8.13361108e-02
      2.43084088e-01 1.17834568e-01 -2.11061668e-02 -9.69595462e-02
      1.29994333e-01 1.27165727e-02 1.00363828e-01 3.30403335e-02 0.
      8.25339407e-02 5.75857759e-02 -1.25217795e-01 -9.88964736e-02
      2.33216472e-02 7.45875165e-02 1.65114790e-01 5.47625385e-02
      1.30847767e-01 -1.07166298e-01 1.51609648e-02 1.00884348e-01
      -2.10704580e-02 -3.28101009e-01 -1.86388150e-01 -1.32848602e-02
      4.76268977e-02 1.99632533e-03 3.04447472e-01 1.35631189e-01
      -7.22670835e-03 -6.20276714e-03 -2.74090976e-01 -1.20292462e-01
      1.54347748e-01 3.23512666e-02 1.71334371e-01 2.34492514e-02
      -5.14957234e-02 3.02088000e-02 -6.14185072e-02 0. -1.18889704e-01
      1.91084854e-02 4.99350540e-02 2.28696764e-01 -5.39803598e-03
      8.32269862e-02 4.48116139e-02 2.55996380e-02 6.15698509e-02
      1.67640448e-01 8.06151181e-02 1.06328130e-01 -9.89900529e-02
      -2.93367624e-01 -1.53342873e-01 -9.93908718e-02 1.42174780e-01
      -3.30170579e-02 4.17089939e-01 1.51834965e-01 8.71509016e-02
      1.23020336e-01 -2.06185400e-01 -5.27869053e-02 3.56026851e-02
      5.15102819e-02 8.47314373e-02 8.96262899e-02 -1.53965391e-02
      3.07431072e-02 -7.24656833e-03 0. 6.70802742e-02 1.46417677e-01
      -8.17892402e-02 1.72535017e-01 1.17815889e-01 5.94270490e-02
      -2.06682198e-02 1.29943430e-01 3.40890050e-01 -5.70378080e-02
      -1.05215788e-01 -3.99882570e-02 -1.66513864e-02 7.41531476e-02
      4.13984768e-02 -1.38744395e-02 -1.33926468e-02 -9.74037126e-02
      1.02727577e-01 -9.03397892e-03 -2.62919366e-02 8.51162821e-02
      6.38397932e-02 -4.51609120e-02 -1.01122886e-01 4.01635803e-02
      1.13953955e-01 1.30936772e-01 6.49715289e-02 1.14097618e-01
      2.16897298e-02 0. -2.92981528e-02 1.59397975e-01 2.58290600e-02
      1.24474466e-01 1.29696026e-01 -3.25417034e-02 -1.09594762e-01
      -2.18379453e-01 3.42192734e-03 2.38857195e-01 -2.19037179e-02
      4.98642437e-02 -5.48361614e-03 7.68571123e-02 9.43837594e-03
      -3.97599638e-02 -3.55912954e-01 -8.58471915e-02 2.52933502e-01
      6.53884485e-02 1.70224443e-01 1.44387871e-01 1.33308783e-01
      1.81142113e-03 -1.74397659e-02 -3.94433737e-01 -5.79335541e-03
      3.33721898e-02 8.41922536e-02 -8.62421393e-02 -6.94516078e-02 0.
      -1.32527739e-01 8.05137455e-02 -3.49330120e-02 3.46129015e-02
      -3.27137522e-02 -1.50565937e-01 -1.13228839e-02 1.10319853e-01
      -7.48089179e-02 -1.56623751e-01 1.16679490e-01 -1.86569989e-02
      -9.64226276e-02 7.08673671e-02 1.17570534e-01 -8.72662961e-02
      -4.33089212e-02 1.97581291e-01 -6.71204552e-02 6.81542978e-02
      9.07863602e-02 8.47539492e-03 3.16593945e-01 3.13007198e-02
      -2.75103953e-02 2.11387381e-01 1.96234241e-01 -1.01431794e-02
      -3.64787355e-02 -3.06438394e-02 2.49376539e-02 0. 1.17248528e-01
      6.05536252e-02 -4.01495427e-01 -1.42130688e-01 1.01255020e-02
      -1.16473123e-01 1.19393021e-01 2.45717503e-02 2.61025578e-01
      1.00107171e-01 -3.31106335e-02 1.47570118e-01 1.22792304e-01
      -3.02534580e-01 2.16959678e-02 4.47187573e-02 -1.03379332e-01
      -1.49167283e-03 1.82906929e-02 -1.33650392e-01 -7.82355294e-02
      6.39903769e-02 -2.15995893e-01 1.31079480e-01 2.90672064e-01
      1.31826431e-01 3.32445264e-01 1.20672118e-02 -2.96699144e-02
      -2.63599586e-02 1.05813704e-02 0. 3.36408801e-02 -6.00568950e-03
      -1.86839685e-01 2.17999592e-01 2.79304206e-01 -4.34221998e-02
      -1.64943561e-01 9.80480388e-02 -1.23065986e-01 -3.22265297e-01
      -1.47752956e-01 3.09066642e-02 -8.20287445e-04 9.86032188e-02
      -5.39772026e-02 7.53484294e-02 -8.91270712e-02 9.44390371e-02
      -5.44785187e-02 -7.81526938e-02 -1.39442459e-01 1.69349968e-01
      3.01474873e-02 -4.40373011e-02 -9.63091552e-02 3.09986100e-02
      -5.28146066e-02 -3.12838592e-02 1.67336352e-02 -1.27466351e-01
      4.30556126e-02 0. 4.09016199e-02 1.29698902e-01 -4.62443866e-02
      1.92199014e-02 -6.80990145e-02 4.09440883e-03 -1.55132458e-01
      3.25199999e-02 1.46834727e-03 1.53215244e-01 4.82423007e-02
      5.47132529e-02 4.47806083e-02 1.68056682e-01 -1.19973153e-01
      -2.36415744e-01 -5.01077110e-03 -3.44056897e-02 -4.26358879e-02
      1.25410005e-01 -7.52857849e-02 4.78419960e-02 1.52675882e-01
      -3.93306017e-02 -2.63524413e-01 1.02580614e-01 2.49850471e-02
      2.50037424e-02 4.27402146e-02 -6.00364804e-03 -4.68299650e-02 0.
      -1.99003890e-01 3.40998210e-02 1.63367301e-01 -2.39617508e-02
      -2.89402474e-02 4.61624749e-02 -2.61394382e-01 -1.50881439e-01
      6.12553470e-02 -3.25096101e-02 3.94598283e-02 -1.45248964e-01
      -1.52795121e-01 -2.10854396e-01 5.81237935e-02 -1.73396930e-01
      7.82730803e-02 2.12947980e-01 1.55734032e-01 1.73791572e-01
      -2.91247591e-02 -1.53399229e-01 5.06445542e-02 2.49065924e-02
      -3.07740152e-01 -1.95912030e-02 1.69650733e-01 -1.12170339e-01
      -8.89633298e-02 -1.14253210e-02 -1.10490106e-01 0. -1.67235091e-01
      1.47244841e-01 -1.45637318e-01 -1.50219232e-01 -5.42291291e-02
      1.84240900e-02 -1.52183380e-02 2.85205364e-01 -2.02302504e-02
      -9.58765894e-02 1.87606052e-01 7.68880360e-03 -1.93969473e-01
      1.37059838e-01 -1.20255105e-01 -2.33530417e-01 1.00886099e-01
      1.19389758e-01 7.93754682e-02 2.07380563e-01 -6.95725158e-02
      -3.22406441e-01 3.91232148e-02 8.72053728e-02 -1.80813685e-01
      1.63927048e-01 1.40494585e-01 5.18047847e-02 -4.94531170e-02
      -8.08377191e-02 -1.24451732e-02 0. 7.36778080e-02 1.47947036e-02
      8.01758990e-02 -6.22226251e-03 -3.75649557e-02 -1.34151326e-02
      -2.64834147e-02 5.10730520e-02 7.53163174e-02 -6.72304258e-02
      -8.70359130e-03 -4.73519117e-02 -1.89588368e-01 -7.57292937e-03
      9.70861316e-02 -3.80970701e-03 8.12816061e-03 1.17957458e-01
      -1.80337857e-03 7.78162926e-02 1.07997060e-01 -1.29189566e-01
      3.64559633e-03 1.30188450e-01 -2.82307528e-02 -1.62457675e-02
      2.11269602e-01 -3.99327427e-02 1.73230637e-02 4.14249413e-02
      3.31644863e-02 0. -3.63080800e-01 -1.13950232e-02 -2.03348789e-02
      -2.46606339e-02 9.01148245e-02 2.45971411e-01 1.53824106e-01
      -1.10851169e-01 3.95731516e-02 1.00509033e-01 1.60532370e-01
      -1.53284922e-01 1.04715712e-01 -1.09596476e-01 1.80697009e-01
      -1.35000413e-02 6.90865666e-02 -1.92920730e-01 -1.50076346e-02
      1.37795329e-01 -2.15927828e-02 1.13146409e-01 -2.44421363e-02
      1.76660031e-01 1.64490193e-01 -3.50942928e-03 -5.96212745e-02
      -3.63205597e-02 1.21433519e-01 -3.81513759e-02 2.15796903e-02 0.
      -1.15983889e-01 -1.65360376e-01 -2.65263785e-02 2.38097832e-01
      1.92052498e-01 -9.85292420e-02 -2.14889556e-01 2.54368871e-01
      7.90254623e-02 5.38022406e-02 -6.02001920e-02 6.42753914e-02
      -1.74614608e-01 2.30824053e-01 1.57681499e-02 -1.05357639e-01
      -1.99171051e-01 7.88925067e-02 -2.02029105e-02 -9.34651121e-02
      1.09586790e-01 7.90487379e-02 1.72704875e-01 -2.62247115e-01
      -2.49506727e-01 1.84982866e-01 3.25925529e-01 -5.22118025e-02
      4.53790873e-02 -6.01687357e-02 8.89092535e-02 0. 9.09380764e-02
      3.95541601e-02 2.02574693e-02 2.03101769e-01 1.72477484e-01
      -4.48668860e-02 5.22677712e-02 -1.53265432e-01 -1.84302598e-01
      -9.97925252e-02 2.63040792e-02 -1.29592165e-01 -2.77165890e-01
      -1.20941050e-01 -1.73855171e-01 5.21596745e-02 -5.19961715e-02
      -9.77984145e-02 -8.51358846e-03 -3.16986404e-02 3.98515463e-02
      1.25455379e-01 -2.97741918e-03 -8.41306448e-02 -1.73696335e-02
      -5.90399019e-02 -1.92397967e-01 -2.06929728e-01 -4.12706882e-02
      -9.43682194e-02 2.36590393e-02 0. 5.28041348e-02 2.78050136e-02
      -3.62635553e-02 2.09945992e-01 1.20131887e-01 -1.15257017e-02
      -1.80920318e-01 1.48192182e-01 -1.14980116e-01 -3.26297849e-01
      -6.42674118e-02 1.44691527e-01 -3.44004272e-03 -1.22702152e-01
      2.01930132e-04 -1.30510554e-01 -1.58912346e-01 7.59398192e-02
      9.11078900e-02 -9.40241665e-02 1.07879005e-01 1.36098340e-01
      -2.80546457e-01 1.08524971e-01 -1.74348310e-01 3.13751101e-02
      6.37682453e-02 -3.83437984e-02 7.20977783e-03 -1.55479118e-01
      1.21444259e-02 0. 4.75537293e-02 9.76109952e-02 -1.88166633e-01
      2.89338771e-02 2.37290666e-01 1.10054864e-02 1.66206941e-01
      1.31200716e-01 7.99930543e-02 -6.45065382e-02 1.63910851e-01
      -3.71683463e-02 -9.36229080e-02 -1.39971897e-01 1.57205582e-01
      2.81860307e-02 -1.30765155e-01 -1.21437237e-01 7.70215616e-02
      1.17638342e-01 -1.66260853e-01 -2.70382650e-02 -3.37016910e-01
      1.35944217e-01 2.33929053e-01 8.03247094e-02 8.41688961e-02
      1.14703417e-01 1.37009412e-01 -5.86025156e-02 -1.70617290e-02 0.
      -1.72251731e-01 -1.30251825e-01 1.63302332e-01 5.59223182e-02
      9.44002420e-02 3.09784170e-02 1.28452657e-02 -3.71388607e-02
      9.98955518e-02 -1.42862186e-01 -6.97181597e-02 3.94110605e-02
      -5.40983342e-02 9.67986733e-02 1.10197730e-01 9.64061096e-02
      -2.52092093e-01 1.42794415e-01 -9.52279270e-02 -3.00890934e-02
      2.54586279e-01 3.38240005e-02 3.48904245e-02 -4.82413284e-02
      1.79126740e-01 -7.84336552e-02 1.96925476e-01 -4.15271483e-02
      5.02533950e-02 -5.70432097e-02 8.81686062e-02 0. -1.24177868e-02
      3.21018435e-02 -1.47253945e-01 3.55008282e-02 1.90862603e-02
      -3.51120457e-02 -8.69354308e-02 9.66907740e-02 -3.79062966e-02
      -1.44279018e-01 1.34872749e-01 -1.85316131e-01 5.18928319e-02
      3.88156921e-02 1.96687952e-01 -1.61624759e-01 1.20237563e-02
      -4.39895056e-02 -5.23741990e-02 1.75859928e-01 -1.49922326e-01
      1.71904758e-01 -9.42392871e-02 1.24796785e-01 -2.01182380e-01
      1.25671595e-01 -6.83735171e-03 -8.11541304e-02 6.16595931e-02
      -9.56959724e-02 3.39210592e-03 0. -1.79035440e-01 6.96034804e-02
      8.95253941e-02 9.06378180e-02 4.80467267e-02 1.48965091e-01
      -1.59149114e-02 -1.44806191e-01 1.01677142e-01 -5.43468371e-02
      -7.84467086e-02 -1.91513509e-01 -7.18659395e-03 7.12209865e-02
      2.73575517e-03 -4.21613688e-03 -6.06729127e-02 2.87506878e-02
      3.92734185e-02 1.35890052e-01 9.56806988e-02 2.82463908e-01
      -2.16003228e-02 -2.23357856e-01 -5.14150299e-02 -1.70072347e-01
      7.02054054e-02 -2.16606572e-01 -6.01348206e-02 8.84362459e-02
      1.48247331e-01 0. -2.21161947e-01 -2.24632826e-02 9.24616158e-02
      -8.46486166e-02 5.81637323e-02 2.38636732e-01 3.17605317e-01
      -7.30643701e-03 5.11671118e-02 -2.64908094e-02 -4.92845895e-03
      -3.35266553e-02 -7.61972591e-02 -4.04052623e-02 -1.22320198e-01
      -2.20096499e-01 7.29512051e-02 -4.06620577e-02 1.83328599e-01
      1.19473986e-01 1.19832054e-01 2.19143387e-02 -8.48042592e-02
      -7.42416829e-02 1.14496142e-01 1.17678531e-01 -3.53755504e-02
      -1.44701123e-01 1.25157848e-01 -5.89577071e-02 4.58697937e-02 0.
      -2.27542743e-01 3.02353743e-02 2.26134341e-02 -5.30924574e-02
      5.08570261e-02 -1.15327522e-01 -1.01015717e-01 1.64506972e-01
      -8.40184838e-03 3.00505366e-02 1.28361806e-01 -1.12024611e-02
      -1.34302557e-01 -4.60076630e-02 5.01388833e-02 2.14986384e-01
      -3.15794498e-02 5.30752242e-02 -3.27295922e-02 1.18836209e-01
      1.19461507e-01 -9.26034451e-02 -1.11074001e-02 -5.25337607e-02
      1.91893607e-01 2.31906682e-01 -6.02189675e-02 -2.65560132e-02
      -1.46764502e-01 2.08530411e-01 -2.75010355e-02 0. -2.97931712e-02
      4.90865372e-02 8.24391022e-02 1.05915102e-03 4.36360314e-02
      -2.83976104e-02 -1.18905663e-01 -3.01050693e-02 -1.01327961e-02
      1.24476634e-01 -2.87100673e-01 -1.30006179e-01 -1.63989738e-01
      6.93781227e-02 -3.62349227e-02 2.36200586e-01 3.89870852e-02
      -2.50987448e-02 -1.02035314e-01 -2.00285181e-01 -4.20803912e-02
      -1.71427161e-01 -4.24564928e-02 -3.72143686e-02 4.21851315e-02
      1.55827940e-01 3.54780145e-02 -2.16325875e-02 -4.95583974e-02
      4.34197485e-03 -3.42669338e-02 0. -3.06820627e-02 5.70008941e-02
      -2.46273056e-02 -9.86613706e-02 5.97818755e-02 5.34355789e-02
      -1.26778886e-01 -1.17602624e-01 2.52699256e-02 -2.01350078e-02
      7.26875439e-02 -6.18051365e-02 2.55500479e-03 -2.43903603e-02
      2.83558458e-01 -3.20182480e-02 6.35424033e-02 7.84571469e-02
      1.98002569e-02 1.16805933e-01 -2.41198987e-02 -4.12677005e-02
      8.42575952e-02 2.48769224e-01 1.09768631e-02 2.55148727e-02
      3.32068615e-02 3.93289030e-02 6.23371303e-02 1.14298495e-03
      -2.75793150e-02 0. 2.03568161e-01 1.11160040e-01 -5.36462339e-03
      -9.75390822e-02 2.88346261e-01 -1.57403648e-01 -1.43186882e-01
      -2.02082321e-01 1.28101945e-01 -1.30956501e-01 -1.84672192e-01
      2.33361810e-01 -1.75128996e-01 5.15179615e-03 2.49991030e-01
      9.91381034e-02 9.21532437e-02 9.95407775e-02 -2.21043415e-02
      1.66699775e-02 4.11182046e-02 -2.05386966e-01 1.27380669e-01
      3.74644902e-03 5.56810014e-02 -2.02195138e-01 1.92023173e-01
      1.41832680e-01 5.50597869e-02 -8.91742110e-02 8.75256881e-02 0.
      1.10761620e-01 -6.43264130e-02 3.04194629e-01 6.51865527e-02
      9.56312492e-02 1.10903224e-02 -6.58883480e-03 2.47720927e-02
      5.41268848e-02 8.10712576e-02 -5.34207821e-02 -3.61278541e-02
      -4.26174179e-02 5.41195236e-02 7.42772743e-02 -1.26864061e-01
      7.89358690e-02 1.47866875e-01 1.54515088e-01 -6.47413507e-02
      1.41109392e-01 9.61642526e-03 2.63960540e-01 2.00901717e-01
      -3.14338692e-02 9.47228298e-02 2.33387783e-01 1.07915536e-01
      3.47476602e-02 9.72663909e-02 1.24033071e-01 0. -2.65656359e-04
      -6.14685267e-02 -9.86532890e-04 -6.36604279e-02 8.59939381e-02
      1.39047429e-01 8.85986611e-02 1.16709664e-01 -1.13684656e-02
      1.13273799e-01 1.57617331e-01 9.08387378e-02 -6.63273409e-02
      1.53733894e-01 -1.00388221e-01 -8.27997625e-02 -9.50109214e-03
      4.17832844e-02 4.42123897e-02 1.20366499e-01 2.07562000e-02
      3.84757929e-02 1.48687124e-01 1.86854079e-01 6.26076981e-02
      7.39263371e-02 1.38039971e-02 3.53846848e-02 1.65656358e-01
      6.03266023e-02 1.71499550e-02 0. -9.65099111e-02 1.52004033e-01
      -1.10917248e-01 -2.73735344e-01 -2.96462756e-02 2.52753377e-01
      -2.45781261e-02 6.64261878e-02 1.66349068e-01 2.36952126e-01
      1.35455921e-01 1.76513940e-01 9.44178402e-02 1.86405316e-01
      -3.60986292e-02 -2.46955693e-01 1.72719166e-01 -8.73267502e-02
      -1.98846422e-02 3.32839459e-01 -1.34031707e-02 9.08270478e-02
      6.03426322e-02 8.43739286e-02 -1.58612654e-01 1.74806327e-01
      3.34521346e-02 -6.02999106e-02 1.16212778e-01 1.44672483e-01
      1.45530164e-01 0. -2.15746779e-02 2.53547728e-02 -3.23100947e-02
      -1.47399381e-01 5.45329452e-02 8.90436545e-02 -1.09686717e-01
      4.85312305e-02 1.16907686e-01 -1.39399886e-01 -4.06504087e-02
      -1.41055599e-01 3.10617108e-02 1.42036125e-01 1.40074030e-01
      -2.79833898e-02 -5.94196580e-02 -9.77829993e-02 4.43315245e-02
      -8.39013830e-02 -5.37277386e-02 3.00354382e-04 4.60884906e-02
      1.50897726e-01 -1.03291333e-01 9.90320183e-03 -7.69220293e-02
      -1.21974774e-01 -6.88004133e-04 4.43165284e-03 3.82247679e-02 0.
      -1.22205414e-01 -1.35478705e-01 -1.14250414e-01 2.62168735e-01
      1.85078800e-01 -2.59567857e-01 1.26439318e-01 4.92562801e-02
      -4.03393656e-02 1.09194973e-02 -5.36236465e-02 -2.53119562e-02
      -3.52334492e-02 -1.97440132e-01 1.43593594e-01 -2.56572783e-01
      -9.95308831e-02 1.57992691e-01 -5.10987034e-03 -1.69390813e-02
      -8.77871085e-03 2.72815734e-01 -1.54483765e-01 -6.45485222e-02
      -5.63846864e-02 1.09027382e-02 4.77117896e-02 -6.03787042e-02
      -1.85530290e-01 1.07234918e-01 -5.18213101e-02 0. 1.72188967e-01
      4.20813356e-03 7.86220729e-02 4.57078144e-02 -7.30717331e-02
      -1.34423688e-01 -2.33040437e-01 6.94254134e-03 -1.86080828e-01
      -3.78099531e-02 -9.40062106e-02 -1.21111935e-02 3.06912754e-02
      -3.98022681e-02 5.11307903e-02 -8.01466256e-02 -1.51470020e-01
      1.25916541e-01 -5.48031405e-02 4.82118875e-02 9.23325643e-02
      2.14045808e-01 -3.69694792e-02 -1.21617936e-01 -1.93605646e-01
      -3.65709774e-02 1.17885254e-01 -9.57002342e-02 -1.20170966e-01
      1.03591405e-01 -1.35938063e-01 0. 2.52125412e-01 -6.77177012e-02
      -1.26636431e-01 1.34856269e-01 -2.92271495e-01 3.82197127e-02
      1.48409652e-03 -6.98525459e-02 -1.07206054e-01 -1.19937256e-01
      -8.48069713e-02 -2.44874284e-01 -1.48961879e-02 2.28066936e-01
      2.07724925e-02 -3.44805494e-02 2.60063093e-02 1.48595601e-01
      -4.24116589e-02 -2.85432301e-02 -1.23337850e-01 1.42536908e-01
      -3.22225206e-02 1.34836331e-01 1.32105788e-02 2.31915507e-02
      -2.27909554e-02 -5.62667139e-02 -2.62494050e-02 -2.99510080e-02
      -3.48701887e-02 0. 2.15789586e-01 -1.70414802e-02 -2.51257807e-01
      -1.13554075e-01 5.21507021e-03 1.79603100e-01 -1.23179518e-01
      4.69706208e-02 -1.17864236e-01 -2.19889864e-01 -8.90307948e-02
      1.09742999e-01 -1.42486721e-01 -5.87034859e-02 1.48497105e-01
      8.18735883e-02 8.87724161e-02 -1.31098345e-01 -9.14249495e-02
      -2.90654469e-02 5.57963327e-02 -8.07993580e-03 1.32208854e-01
      2.24884450e-01 4.67941463e-02 2.23630518e-01 -1.38530165e-01
      1.62691876e-01 -1.12343421e-02 -2.02751011e-01 -1.31440908e-01 0.
      2.77402371e-01 -1.53407291e-01 5.03495075e-02 1.50907487e-01
      -1.12483747e-01 8.40107799e-02 -3.74910310e-02 1.16413817e-01
      1.51406556e-01 -6.26872182e-02 -1.26303881e-01 -2.75442421e-01
      -2.54862726e-01 1.99314773e-01 -1.89357206e-01 -1.62303165e-01
      -2.02710882e-01 -2.37995058e-01 1.67556703e-01 -1.29601151e-01
      -1.22285821e-01 4.23763357e-02 9.21113864e-02 1.30775705e-01
      -7.47533143e-02 -7.55012855e-02 7.78092071e-02 1.88827757e-02
      -1.95992708e-01 1.29252281e-02 -2.05977067e-01 0. -3.13327052e-02
      1.74491942e-01 8.64245370e-03 1.64110437e-01 -4.41420302e-02
      -1.25275468e-02 7.91652128e-02 7.98945054e-02 -1.02324784e-01
      2.27541238e-01 -2.34287724e-01 2.45797765e-02 -2.11118981e-01
      4.33795042e-02 7.14169070e-02 -7.78490975e-02 -2.71315783e-01
      -6.09292872e-02 6.47449493e-02 5.14924787e-02 1.45645952e-02
      6.68670982e-02 1.43270284e-01 1.44714221e-01 -1.87123904e-03
      -1.36337414e-01 -6.32970333e-02 -2.01980714e-02 -1.08192503e-01
      1.07247144e-01 -6.02229908e-02 0. -1.64647102e-01 -5.84682748e-02
      3.24043632e-02 1.97011381e-02 9.02074110e-03 3.07562947e-01
      -1.10328004e-01 -1.58561856e-01 -4.74762507e-02 1.48081288e-01
      -1.45160422e-01 -5.98110594e-02 2.33676881e-02 4.75239754e-02
      -6.38566166e-02 -9.61023867e-02 -8.39597285e-02 -3.94515134e-02
      -6.84658214e-02 -1.21677727e-01 8.86256397e-02 1.25916332e-01
      3.19635570e-02 2.44392946e-01 -6.25487715e-02 -4.27371226e-02
      -1.74271762e-02 -8.95608142e-02 -1.31207764e-01 4.33320999e-02
      -3.00554857e-02 0. -3.09397895e-02 -1.09023862e-01 -2.20318418e-02
      8.99772421e-02 -1.48974836e-01 2.23747771e-02 5.43785319e-02
      -1.16272666e-01 2.10703854e-02 1.46648422e-01 1.91262990e-01
      -1.36867851e-01 -4.99932580e-02 -3.97505537e-02 9.76019800e-02
      -3.60208079e-02 -1.53781742e-01 -9.56890285e-02 -3.16694118e-02
      2.91882474e-02 -4.41587120e-02 5.21044247e-02 -1.54340222e-01
      -2.39619333e-02 2.34651156e-02 -1.08996212e-01 2.07923446e-02
      -1.37287956e-02 -7.97080770e-02 8.10210966e-03 -6.36426210e-02 0.</_></support_vectors>
  <decision_functions>
    <_>
      <sv_count>1</sv_count>
      <rho>1.5797328275035307e+00</rho>
      <alpha>
        1.</alpha>
      <index>
        0</index></_></decision_functions></my_svm>
</opencv_storage>
