<?xml version="1.0"?>
<opencv_storage>
<my_svm type_id="opencv-ml-svm">
  <svm_type>C_SVC</svm_type>
  <kernel><type>LINEAR</type></kernel>
  <C>5.0000000000000000e-01</C>
  <term_criteria><epsilon>2.2204460492503131e-16</epsilon>
    <iterations>100</iterations></term_criteria>
  <var_all>4096</var_all>
  <var_count>4096</var_count>
  <class_count>2</class_count>
  <class_labels type_id="opencv-matrix">
    <rows>1</rows>
    <cols>2</cols>
    <dt>i</dt>
    <data>
      -1 1</data></class_labels>
  <sv_total>1</sv_total>
  <support_vectors>
    <_>
      -7.73050636e-03 -1.20224403e-02 -7.47193303e-03 -1.04942312e-02
      -1.59530696e-02 5.42534562e-03 1.77182276e-02 -2.83235610e-02
      -4.70088013e-02 -1.49870589e-02 1.27299558e-02 5.19406162e-02
      2.94819027e-02 -6.56621996e-03 -1.80934854e-02 -5.26507944e-03
      2.91065080e-03 5.49809542e-03 7.00891018e-03 5.98428492e-03
      3.21550183e-02 8.18279479e-03 -2.11118776e-02 -1.63331861e-03
      5.27347624e-03 -1.74638983e-02 -2.36444473e-02 -5.44656627e-03
      -2.65061180e-03 -1.44212162e-02 -2.08559693e-04 0. -3.53565044e-03
      -2.77782325e-03 -4.79055829e-02 -1.25397155e-02 -1.02360314e-02
      -1.78680867e-02 7.83954692e-06 1.88766643e-02 -7.31611624e-03
      7.53802508e-02 7.43891066e-03 8.95754434e-03 3.59878689e-02
      3.71732973e-02 -2.28003021e-02 2.39551496e-02 1.48134390e-02
      2.25678235e-02 4.18937653e-02 -2.88537308e-03 -2.74967067e-02
      1.17155463e-02 -8.46053823e-04 -3.50238965e-03 2.13819183e-02
      1.71769019e-02 1.01831025e-02 4.58009075e-03 -7.84196053e-03
      2.48777419e-02 3.50367241e-02 0. -3.65195349e-02 2.20322236e-02
      -2.24796608e-02 -1.20509379e-02 5.65816499e-02 1.96576075e-04
      -2.40647867e-02 -2.37596594e-02 1.62245743e-02 9.07531194e-03
      2.67820172e-02 1.94464047e-02 1.19556673e-02 1.27030234e-03
      -1.45032420e-03 3.55646424e-02 -4.37847944e-03 3.83601966e-03
      -1.05077866e-02 2.90877558e-02 -1.31114305e-03 -3.36696371e-03
      4.90829125e-02 1.76209658e-02 7.17674848e-03 -1.99176166e-02
      3.46296914e-02 3.23385336e-02 -6.67299191e-03 5.75918751e-03
      5.46798296e-03 0. -4.02490944e-02 -2.11922191e-02 -2.45182193e-04
      -2.93518160e-03 6.36453135e-03 1.87368765e-02 7.60039641e-03
      -4.40427288e-03 3.30279605e-03 -2.12337617e-02 1.11295944e-02
      -2.85084289e-03 -1.63695812e-02 1.94847658e-02 -1.53256329e-02
      -2.75850724e-02 2.00779699e-02 1.28449090e-02 -1.67372767e-02
      -1.78448427e-02 -5.15044760e-03 -1.94903649e-02 1.81134753e-02
      -1.13964928e-02 -3.18493508e-02 2.28012074e-02 3.13650519e-02
      -4.73843981e-03 -2.49260049e-02 1.83723401e-02 -1.36209186e-02 0.
      -7.65667390e-03 -3.07429712e-02 -1.79228988e-02 -1.71862673e-02
      1.91351119e-03 -1.96189936e-02 -1.49254175e-02 -4.10317965e-02
      2.89717014e-03 -4.52341326e-03 1.80386063e-02 -1.54228453e-02
      6.25509629e-03 -2.62269285e-02 -2.57344684e-03 -3.69825028e-02
      1.19700618e-02 8.44364706e-03 -8.07000045e-03 -2.53873393e-02
      -1.74123123e-02 -1.99436769e-02 -2.40549305e-03 -1.78036205e-02
      -3.79699804e-02 -2.13432927e-02 1.50985373e-02 -3.87576707e-02
      -4.69865389e-02 6.91239582e-03 -8.51676427e-03 0. 3.70734781e-02
      -5.75746037e-03 1.55011229e-02 -5.62976161e-03 1.79924183e-02
      2.76357331e-03 -2.74095195e-03 -5.78776421e-03 -2.77231238e-03
      -2.26158532e-03 3.40259522e-02 1.58864707e-02 2.61719665e-03
      1.26511678e-02 -1.95353758e-02 3.03866770e-02 3.01260967e-02
      -1.00957677e-02 5.44285774e-02 3.54794017e-03 3.31845172e-02
      -5.12475427e-03 5.17329248e-03 -1.39009031e-02 2.28531938e-02
      2.72341836e-02 5.60410460e-03 3.18685882e-02 9.03254468e-03
      1.68228261e-02 1.03665488e-02 0. -7.10014394e-03 -1.69566944e-02
      -8.11384432e-03 1.51564348e-02 1.36764133e-02 -7.10014766e-03
      -1.04565853e-02 -5.43678366e-03 -1.10164266e-02 3.69675294e-03
      1.21415248e-02 2.28529349e-02 3.99965830e-02 4.94196126e-03
      -3.59634832e-02 7.27946591e-03 2.01573353e-02 1.43997958e-02
      -2.73552388e-02 -5.09927562e-03 1.41491042e-02 3.92980874e-02
      3.70960012e-02 -2.90646721e-02 -6.75330544e-03 2.25193482e-02
      -9.31933318e-05 2.69983057e-02 4.74069128e-03 5.22208493e-03
      -1.23751666e-02 0. 5.13602048e-02 -4.94370190e-03 -1.94526301e-03
      1.68628655e-02 -1.66409928e-02 9.31531377e-03 -6.40974194e-03
      -5.39417490e-02 1.40839361e-03 -8.07891507e-03 -1.58082452e-02
      1.93624198e-02 4.88744676e-02 6.34082919e-03 -3.17654163e-02
      -5.52557642e-03 6.37816824e-03 4.08097878e-02 -2.01873627e-04
      1.03933308e-02 1.81707982e-02 5.40543981e-02 4.59510721e-02
      -3.10049020e-03 1.36328423e-02 -2.20957119e-02 3.63109671e-02
      1.47844888e-02 3.14170815e-04 6.77683717e-03 4.35926626e-03 0.
      2.83011887e-03 -3.72241996e-02 -1.92830246e-02 1.48746725e-02
      2.69392617e-02 1.26458304e-02 4.47702743e-02 3.51032638e-03
      -7.64219556e-03 1.81111936e-02 -8.89438298e-03 -3.16022779e-03
      1.77646766e-03 1.18351169e-02 2.40258556e-02 -8.51462968e-03
      -4.88999262e-02 -9.83749237e-03 9.38609615e-03 -3.38259116e-02
      -1.53177716e-02 -8.85975547e-03 -1.71722397e-02 5.32202283e-03
      2.76614390e-02 -2.74089091e-02 -4.51517850e-03 1.16157765e-02
      4.16965410e-03 -1.53568806e-03 -5.82910283e-03 0. -5.18611446e-03
      1.89427715e-02 4.27185558e-02 3.04484870e-02 -1.32791931e-02
      -1.40533606e-02 4.15132903e-02 -9.01367224e-04 -1.22459326e-02
      3.00782975e-02 -9.31248724e-05 6.21923106e-03 -1.30820274e-02
      -2.23111198e-03 3.11901770e-03 -3.86892743e-02 -3.21131460e-02
      3.28985415e-02 6.73832325e-03 1.94246322e-02 4.15048562e-02
      1.34870810e-02 -3.36034149e-02 -2.83391904e-02 -1.29364576e-04
      -2.11734399e-02 2.27239784e-02 8.92161299e-03 1.11174748e-04
      1.40651027e-02 1.18156727e-02 0. 9.92017612e-03 9.33539355e-04
      1.46224312e-02 -2.33338904e-02 -3.53385787e-03 2.97436421e-03
      -2.66722329e-02 -3.36357020e-03 1.70434620e-02 1.18085453e-02
      9.14228149e-03 1.03986328e-02 1.15542917e-03 -2.65352950e-02
      -2.28550285e-02 1.67571586e-02 -3.69304158e-02 -1.97179522e-02
      -6.98360195e-03 -5.40113822e-03 1.81386620e-02 -3.61373276e-02
      2.85535119e-04 -2.62698662e-02 -8.51808116e-03 -3.78159545e-02
      2.53389473e-03 -1.25009688e-02 3.19587416e-03 -5.65247238e-03
      -1.71854142e-02 0. -1.67487711e-02 -2.92493217e-03 -7.42258783e-03
      -3.74944694e-02 -1.30186956e-02 4.45048511e-02 2.17997469e-02
      -2.11368892e-02 -5.23700006e-02 1.69243403e-02 2.00099666e-02
      2.25652810e-02 3.78439054e-02 -2.42760517e-02 -9.56105348e-03
      -7.10346911e-04 -2.70255134e-02 2.19634082e-02 -1.24299142e-03
      -4.90941992e-03 2.00344715e-02 -1.35774277e-02 -2.36522220e-02
      -2.92257551e-04 1.48614226e-02 -3.38173397e-02 -2.01150291e-02
      -2.88706017e-03 -6.43974962e-03 -1.82469934e-02 1.48093188e-02 0.
      -2.06182972e-02 -2.26511769e-02 1.05614103e-02 -1.14574293e-02
      -4.23473381e-02 -7.03246472e-03 -8.41338933e-03 -6.25413423e-03
      -2.80111134e-02 1.59481782e-02 2.26424113e-02 7.88774528e-03
      1.33314533e-02 -4.18981072e-03 3.31317373e-02 -3.23197246e-02
      -2.47299019e-02 4.19459753e-02 -2.20059566e-02 -1.15803862e-02
      2.12032106e-02 -1.10340386e-03 -3.26393247e-02 -8.00868683e-03
      -3.60577069e-02 -3.76867466e-02 6.06387807e-03 -1.84753891e-02
      -3.49115357e-02 1.01348842e-02 1.37537755e-02 0. 8.82554706e-03
      -3.40195559e-02 1.24659427e-02 2.24696174e-02 -2.24489104e-02
      -1.02845638e-03 5.51459519e-03 1.21372426e-02 -2.39648763e-02
      2.26129254e-04 3.20317363e-03 -2.96008326e-02 -3.15771587e-02
      -9.61429719e-03 3.62813845e-02 -1.73930661e-04 -2.52811834e-02
      -1.65403746e-02 1.65314190e-02 -2.32750867e-02 -1.95898768e-02
      -1.48333395e-02 -1.24794990e-02 3.15946080e-02 -1.17385737e-03
      -1.93011928e-02 -8.41360539e-03 4.41776449e-03 -1.28043471e-02
      -1.58079714e-02 -1.97050143e-02 0. 1.73384529e-02 -3.09446733e-03
      2.67563518e-02 2.81055551e-02 4.75557242e-03 5.02926437e-03
      -7.94536248e-03 1.23443566e-02 8.08640569e-03 -1.38811758e-02
      -1.38639342e-02 -5.43149784e-02 -1.12799192e-02 -2.64116414e-02
      6.25875872e-03 -6.84960093e-03 -2.01944895e-02 3.74250114e-02
      6.22799667e-03 -1.97920464e-02 -2.62827128e-02 7.99900666e-03
      -1.43543468e-03 3.27878706e-02 -5.89985354e-03 -3.28232709e-04
      3.13055664e-02 5.09356242e-03 5.04725194e-03 -4.39586770e-03
      -1.12772258e-02 0. 4.90736812e-02 -1.99457277e-02 3.23928632e-02
      4.95927893e-02 7.35469442e-03 -4.63078823e-03 -4.18096920e-03
      -2.41597146e-02 -5.94071811e-03 -3.50283049e-02 -7.05807582e-02
      2.14175470e-02 -2.04553306e-02 1.10693714e-02 -3.55764814e-02
      6.23971317e-03 1.62080005e-02 1.83234420e-02 -1.16747217e-02
      -6.98169097e-02 3.28989774e-02 3.67484726e-02 4.78902459e-02
      1.85987502e-02 1.42962821e-02 3.34895449e-03 3.07790004e-02
      5.07316040e-03 1.23338739e-03 -1.04718320e-02 4.39022915e-06 0.
      2.45809481e-02 4.06771898e-03 1.41967973e-02 -3.51276658e-02
      -3.62119265e-02 -6.16226941e-02 3.66709987e-03 -8.80398508e-03
      1.56858675e-02 2.24769451e-02 -2.13350207e-02 -3.57329845e-02
      -4.09931364e-03 1.83884446e-02 -6.18275674e-03 9.26193409e-03
      1.79715604e-02 3.29739042e-02 -3.35312122e-03 -1.67914550e-04
      -1.22084599e-02 -4.89703007e-02 1.55146504e-02 -3.18103917e-02
      1.00952610e-02 -1.36393157e-03 4.63969968e-02 1.13987051e-04
      -1.40884416e-02 1.72906071e-02 -2.49275453e-02 0. -7.55950203e-03
      -2.27447450e-02 -8.25104117e-03 -4.69924472e-02 -4.57147621e-02
      4.80556488e-03 2.80235428e-02 9.30358563e-03 -2.21417993e-02
      1.72305740e-02 1.36745386e-02 -9.97344684e-03 1.45536186e-02
      4.43277657e-02 -5.77020133e-03 1.58221473e-03 4.01795516e-03
      4.02199998e-02 -1.01242308e-03 -5.66582428e-03 -2.39289589e-02
      -2.50171963e-02 -6.74554100e-03 1.32532818e-02 1.69570856e-02
      -2.26967572e-03 2.23771762e-02 -5.27980085e-03 -1.28338777e-03
      1.20479846e-02 -1.43480173e-03 0. 2.92092096e-02 4.80414229e-03
      3.81108373e-02 -4.29973230e-02 -7.07011530e-03 -2.54975595e-02
      -2.52481978e-02 -2.80907676e-02 3.22816125e-03 -1.83683019e-02
      4.32976261e-02 4.12451625e-02 3.61354649e-02 -6.33171992e-03
      3.99894174e-03 1.06763477e-02 -1.49979861e-02 8.20535142e-03
      -3.98722151e-03 4.09494564e-02 4.43359502e-02 -9.64722713e-04
      4.90046898e-03 6.72134291e-03 9.77544580e-03 -2.37737745e-02
      4.56977030e-03 -1.37129065e-03 5.50268730e-03 1.09624146e-02
      8.62198696e-03 0. -4.04257774e-02 3.47099756e-03 -2.65656598e-02
      -1.66559033e-02 7.38319242e-03 -1.27013866e-02 -5.00462297e-03
      -1.78120565e-02 3.33989691e-03 3.52142453e-02 2.62642726e-02
      1.99453365e-02 1.72565375e-02 -2.63743894e-03 7.65856542e-03
      2.67300811e-02 9.19070840e-03 1.36859752e-02 4.67327330e-03
      2.94883940e-02 1.51101337e-03 -1.82169478e-03 1.46080824e-02
      1.99608561e-02 1.55502390e-02 -8.32497329e-03 1.65467709e-02
      -4.64967452e-03 1.46267340e-02 4.55155456e-03 8.25743563e-03 0.
      -1.91801153e-02 3.30106765e-02 -7.24246819e-03 2.22292021e-02
      2.01747958e-02 -4.71367268e-03 5.11281134e-04 -2.37727240e-02
      -3.08998767e-02 3.67189385e-02 1.05717573e-02 1.01604639e-02
      1.62004307e-02 -3.70597234e-03 7.30813900e-03 -7.11413752e-03
      -1.35600660e-02 1.09794899e-03 2.06403639e-02 3.23538221e-02
      1.24774594e-02 3.33142690e-02 1.02165788e-02 1.02410102e-02
      1.29251555e-03 -2.84187030e-02 -1.03582609e-02 -1.03960326e-02
      -1.32979881e-02 1.42223900e-02 3.20020057e-02 0. 4.55079451e-02
      -1.53570641e-02 -6.46345643e-03 1.25974901e-02 1.44343944e-02
      5.11362776e-02 1.54772550e-02 -1.86613705e-02 -4.28518988e-02
      -2.47003417e-02 6.40416425e-03 2.13708822e-02 -1.27618574e-02
      9.45353042e-03 1.96779557e-02 2.16676444e-02 -4.75983210e-02
      -2.65526325e-02 2.49890592e-02 -1.01118572e-02 1.91161949e-02
      5.89825353e-03 2.59273965e-02 4.77791727e-02 1.63268689e-02
      -4.92436886e-02 -3.20602506e-02 7.85867102e-04 1.40410895e-02
      -7.86561333e-03 3.77742038e-03 0. 2.41986178e-02 -2.15036813e-02
      -2.54758466e-02 -1.25385765e-02 -2.63110399e-02 1.87163781e-02
      -2.10923725e-03 -2.21532001e-03 -2.94695795e-02 5.41532552e-03
      2.00158805e-02 -4.34394693e-03 -1.46757262e-02 -4.49982053e-03
      -1.02334898e-02 1.30552826e-02 1.02231186e-03 2.18143035e-02
      1.79843288e-02 -8.22536275e-03 -2.48037204e-02 -2.01551896e-02
      -4.68080118e-03 1.26320357e-02 5.34019724e-04 -6.36702776e-03
      -1.32487947e-02 -1.14328938e-03 3.83137516e-03 -2.09024791e-02
      -4.94934060e-03 0. 3.54468939e-03 3.14633548e-03 1.91106927e-02
      9.83528513e-03 1.01147583e-02 -6.01161830e-02 -2.55477037e-02
      -1.90524999e-02 -2.25939546e-02 8.36041756e-03 -2.28721183e-02
      3.44657078e-02 -2.12572310e-02 2.49890871e-02 3.05472985e-02
      2.80584730e-02 -1.58618670e-02 4.43402072e-03 1.06946072e-02
      -1.17027173e-02 3.47245373e-02 2.86538889e-05 -2.65913783e-03
      2.02379934e-02 1.32657336e-02 -3.55725028e-02 -1.90089233e-02
      -1.41948927e-02 1.90930534e-02 -1.24261212e-02 2.48643453e-03 0.
      1.47445044e-02 1.73017792e-02 8.43699742e-03 2.20721345e-02
      1.02445679e-02 -1.46375084e-02 8.01667757e-03 1.20026972e-02
      -7.92571437e-03 8.49979091e-03 1.29264053e-02 2.64174235e-03
      -2.55612396e-02 -6.64285989e-03 -4.38778661e-03 1.29722748e-02
      3.71085876e-03 -1.77776068e-02 2.09285449e-02 5.02649732e-02
      2.56160330e-02 -5.52302180e-03 3.53740230e-02 5.47477882e-03
      1.87376738e-02 6.41430495e-03 -1.18109547e-02 -1.00900512e-02
      1.10081770e-03 1.95683241e-02 1.61199309e-02 0. 3.53198312e-02
      1.51648428e-02 8.17944761e-04 -2.69156080e-02 -1.87497158e-02
      -1.67975184e-02 1.33843143e-02 2.73109991e-02 -1.09886490e-02
      -4.52664904e-02 1.41329458e-02 1.44948326e-02 3.87989655e-02
      5.47255240e-02 6.94228243e-03 5.80225475e-02 -8.71765614e-03
      -2.12988146e-02 -5.73157845e-03 1.80436410e-02 7.30390614e-03
      2.14329865e-02 3.64504158e-02 1.36645297e-02 5.63673079e-02
      3.74444313e-02 -2.63632964e-02 -5.56450989e-03 1.62628815e-02
      1.85952373e-02 3.21678035e-02 0. 1.43822590e-02 -1.45731932e-02
      -2.29041055e-02 3.50922113e-03 -2.04034522e-02 -4.90942132e-03
      1.73953269e-02 -4.32909727e-02 -6.31883135e-03 8.55461345e-04
      -1.29447579e-02 5.45409024e-02 2.60400139e-02 7.22176023e-03
      -1.34759266e-02 3.17258798e-02 3.06672268e-02 2.81383600e-02
      1.19875725e-02 -1.77198425e-02 7.98972230e-03 3.06979772e-02
      -2.65825447e-02 -6.65776106e-03 4.51192185e-02 1.64539237e-02
      2.00273544e-02 1.38473529e-02 6.46124315e-03 3.96224111e-03
      1.13932826e-02 0. 5.90732554e-04 6.06011786e-03 -3.54469903e-02
      -1.85450464e-02 -2.54815165e-02 7.35917594e-03 1.49087366e-02
      -2.88310070e-02 3.70964706e-02 -1.63871818e-03 -1.92155205e-02
      3.61259980e-03 2.72716209e-03 -1.07852425e-02 8.55657924e-03
      -1.78848710e-02 9.87914577e-03 5.76430634e-02 1.24465078e-02
      -8.43045861e-03 -1.00851832e-02 -1.45621141e-02 -3.89476754e-02
      1.85710173e-02 1.27132460e-02 -1.01349950e-02 7.05479831e-02
      -1.91441330e-03 -3.97392316e-03 6.88824570e-03 -5.42876963e-03 0.
      -2.59729312e-03 -2.95136087e-02 1.28933862e-02 -2.78624962e-03
      -4.15075221e-04 -1.94415562e-02 -1.23128388e-02 7.53568858e-03
      -1.21814096e-02 2.65009515e-02 1.96360201e-02 3.16794440e-02
      6.70154300e-03 -2.78019644e-02 4.32303287e-02 1.32099893e-02
      1.33400075e-02 -1.27497213e-02 4.14905734e-02 1.00819543e-02
      2.23562308e-02 -1.16144503e-02 -1.47459954e-02 -2.14204984e-03
      1.17731858e-02 8.88387766e-03 -1.00294147e-02 9.40290093e-03
      -1.85084268e-02 1.07501633e-02 2.42482442e-02 0. 5.07557988e-02
      8.98932852e-03 -5.60368458e-03 1.61838233e-02 -2.55960841e-02
      -2.56076753e-02 2.66504176e-02 2.11160183e-02 3.49602138e-04
      3.28354444e-03 -3.05127203e-02 4.48903680e-04 -3.05457748e-02
      1.68823358e-02 1.58906356e-02 1.74049828e-02 4.80901599e-02
      2.85495520e-02 5.34901842e-02 5.58883790e-03 -1.26672490e-02
      -2.41842065e-02 4.03844198e-04 1.23682413e-02 2.96847858e-02
      2.33611558e-02 2.11513825e-02 -3.02010821e-03 2.70934664e-02
      3.41391712e-02 6.24161726e-03 0. -1.30278654e-02 9.39483568e-03
      1.80020090e-02 2.94506792e-02 1.69439446e-02 9.39975213e-03
      1.60970856e-02 -9.10837203e-03 -8.94629396e-03 -1.80603769e-02
      -3.46829323e-03 -1.95655804e-02 -2.51779538e-02 3.05885524e-02
      -3.06694526e-02 -3.96352671e-02 1.46832904e-02 5.38487025e-02
      -2.16243286e-02 1.53504098e-02 -1.31429993e-02 -1.87319564e-03
      1.19181015e-02 -1.12561379e-02 -2.56700981e-02 2.04531029e-02
      4.59164791e-02 1.38413149e-03 9.60893743e-03 -3.53010953e-03
      7.03229383e-03 0. 9.19717364e-03 4.09527496e-03 -5.81152597e-03
      -9.23978537e-03 -7.02798076e-04 3.50007392e-03 5.28423414e-02
      3.71793322e-02 -2.54878076e-03 1.56218642e-02 1.74126327e-02
      1.37065165e-02 -1.76973525e-03 -1.43388333e-02 2.49833837e-02
      2.94245686e-02 -4.45889449e-03 -2.58142408e-02 3.28489020e-02
      7.98052642e-03 -5.97299135e-04 -1.01133641e-02 -1.74147766e-02
      1.79167502e-02 6.49209842e-02 1.59823999e-03 -6.96021086e-03
      3.30325270e-06 3.08553372e-02 4.64730477e-03 3.20355743e-02 0.
      3.58828977e-02 1.99823920e-02 -3.10257580e-02 -2.91901063e-02
      -1.66782029e-02 1.74567401e-02 3.88678201e-02 1.14158066e-02
      -9.25102923e-03 -6.69039087e-03 1.30088618e-02 -2.24793795e-02
      1.36189209e-02 5.73495366e-02 3.45415808e-02 1.34318210e-02
      -1.95766371e-02 -4.86439979e-03 -6.20674063e-03 2.05127578e-02
      -3.05099096e-02 -1.85273271e-02 3.07960622e-02 6.32392913e-02
      5.60593754e-02 2.85039283e-02 1.06697017e-02 -9.28228442e-03
      1.28966859e-02 1.55321397e-02 3.54417972e-02 0. -1.07612191e-02
      -8.13111011e-03 -2.82896031e-02 -2.35797744e-02 -3.56574208e-02
      7.86289852e-03 1.47436457e-02 6.14092452e-03 2.50297673e-02
      1.21565033e-02 3.05191651e-02 7.48836575e-03 1.73746645e-02
      1.18435193e-02 -1.83561780e-02 -9.34216101e-03 -4.11141589e-02
      1.51996473e-02 1.23334518e-02 2.69512907e-02 2.08563786e-02
      -4.45996225e-03 -3.38422097e-02 -1.15812020e-02 1.13634225e-02
      -1.01521760e-02 2.76012532e-02 -3.73782031e-02 2.66510318e-03
      -9.75929652e-05 2.21429747e-02 0. 5.60222659e-04 3.15233483e-03
      -1.75152645e-02 6.14573201e-03 -8.70397966e-03 4.06938270e-02
      7.74094230e-03 -5.57967054e-04 1.25554325e-02 4.05567884e-03
      4.14867047e-03 6.66376203e-03 1.06801454e-03 1.99603550e-02
      -2.88617052e-02 -6.76532788e-03 -1.19191303e-03 1.32533303e-02
      1.01185283e-02 1.85907688e-02 6.53652707e-03 2.63613891e-02
      3.56699177e-03 1.49097880e-02 3.19844950e-03 2.91943434e-03
      3.11922897e-02 -8.44217744e-03 2.65113283e-02 -7.07767345e-03
      1.55964950e-02 0. -2.77133472e-02 -4.77348380e-02 -2.74888780e-02
      1.94285940e-02 -1.36605445e-02 1.88774094e-02 -2.37352010e-02
      -4.60091466e-03 -1.39294229e-02 -2.73728697e-03 3.87970097e-02
      -3.10182031e-02 6.41932595e-04 -4.69303550e-03 2.07431670e-02
      3.00545506e-02 2.72113737e-02 -3.14387493e-03 -3.28289121e-02
      6.61764247e-03 -2.02259850e-02 -9.72687081e-03 -5.14552929e-03
      3.57654355e-02 3.47708818e-03 3.58099863e-02 2.08973931e-03
      -1.10885687e-02 -2.54260027e-03 -2.09791157e-02 1.35380048e-02 0.
      -5.51907495e-02 -1.30912317e-02 4.13070172e-02 -1.09478645e-02
      2.88287494e-02 3.41849662e-02 -6.11107610e-03 8.66640825e-03
      -3.30795837e-03 4.32497635e-02 3.05955429e-02 -3.26936133e-02
      1.28321787e-02 -2.24671271e-02 -4.09588143e-02 7.01753516e-03
      -3.52676376e-03 -4.45988812e-02 9.92860994e-04 8.21765792e-03
      4.98251319e-02 1.03584593e-02 3.19886929e-03 8.80574249e-03
      2.11496791e-03 6.98323303e-04 -2.62899511e-02 9.97892115e-03
      -2.55625974e-03 -1.37716988e-02 -6.00724900e-03 0. 2.82050688e-02
      2.48690080e-02 4.08661664e-02 5.59333004e-02 -1.64112095e-02
      -6.42172247e-02 -3.98476236e-03 -8.66053533e-03 -2.92291562e-03
      -2.56775040e-02 -2.04057973e-02 -4.85509336e-02 -4.49515842e-02
      -5.26903495e-02 1.09231928e-02 8.61041769e-02 1.17930481e-02
      -1.16815791e-02 1.01813925e-02 -1.31176254e-02 6.15291623e-03
      9.32587869e-03 -4.12279554e-02 -5.59356920e-02 3.11801415e-02
      3.09144286e-03 -2.77245026e-02 -1.88187845e-02 -2.84835231e-02
      2.04060692e-02 7.35179568e-03 0. -8.71871877e-03 1.21324202e-02
      4.76852469e-02 3.06503102e-02 -3.99249643e-02 -1.07978722e-02
      -1.59939043e-02 8.91622994e-03 -7.50391418e-03 -2.38635018e-02
      2.83158943e-02 7.66781392e-03 -2.04724036e-02 -8.75279400e-03
      -1.83970109e-02 -4.05137101e-03 2.21750373e-03 2.81719817e-03
      -2.18807682e-02 3.39160338e-02 4.20448110e-02 -4.15349472e-03
      -4.36661653e-02 -1.70012657e-02 -1.79213546e-02 2.73334812e-02
      2.83732954e-02 -1.56929139e-02 1.59556628e-03 7.99459498e-03
      -2.41725543e-03 0. -4.52621654e-03 9.86102689e-03 -3.24947461e-02
      -2.87993178e-02 1.42282639e-02 2.54756715e-02 2.01247949e-02
      1.79356486e-02 -3.24494950e-02 -2.56796665e-02 5.40394858e-02
      1.90850962e-02 2.56366152e-02 3.53244953e-02 -4.02651960e-03
      -4.05245051e-02 -7.15802703e-03 -1.19409971e-02 -3.18544470e-02
      5.04861400e-02 -1.88116655e-02 -1.66257098e-02 6.92185014e-03
      2.49596182e-02 1.65570644e-03 6.10794220e-03 -2.72490177e-02
      -3.55671486e-03 3.42628174e-03 8.09637786e-05 1.61296818e-02 0.
      3.96391712e-02 7.08832871e-03 -1.60779823e-02 -3.72217037e-02
      -2.62231100e-02 2.83594034e-03 5.23451157e-03 -1.64878480e-02
      -5.44571429e-02 -1.02773914e-02 -3.16813658e-03 -1.67494118e-02
      -1.40301427e-02 3.87750082e-02 -8.08208622e-03 4.41226736e-03
      5.13789169e-02 -1.02952151e-02 1.62339024e-02 1.11704704e-03
      -2.72611380e-02 -2.78545897e-02 3.74659821e-02 2.02827826e-02
      8.16522352e-03 3.70656475e-02 -3.71435471e-02 -3.70419100e-02
      -2.28015054e-03 -1.87125672e-02 2.80036051e-02 0. 5.37945377e-03
      -3.33820246e-02 -5.23222052e-02 -3.62251438e-02 -1.88123807e-02
      3.44755985e-02 1.39447744e-03 -4.81167389e-03 6.84944401e-03
      2.65430603e-02 -3.29826474e-02 2.15734281e-02 1.40039437e-03
      2.25817580e-02 1.18851811e-02 6.82705827e-03 -1.59470681e-02
      -1.07785384e-03 1.27891330e-02 -5.89543581e-02 -1.25913611e-02
      -1.73854269e-02 -2.44604936e-03 4.20269594e-02 1.43620996e-02
      -6.92407368e-03 -1.03032980e-02 -2.83877589e-02 -1.01563586e-02
      -1.63804330e-02 2.82191988e-02 0. -9.26477555e-03 -8.95777810e-03
      -4.02292162e-02 -4.00313847e-02 -2.27783564e-02 3.90835963e-02
      2.33703163e-02 2.37113498e-02 2.22902335e-02 -3.21873906e-03
      -6.40746951e-03 3.81556079e-02 3.34259635e-03 7.69512821e-03
      4.67862934e-03 1.72600858e-02 -5.85968420e-03 1.13832364e-02
      -2.15368532e-02 -1.86467655e-02 5.30368183e-04 -1.80024356e-02
      -1.49932755e-02 2.14027725e-02 2.67079826e-02 -1.03092324e-02
      4.21317155e-03 2.84638396e-03 1.01861833e-02 3.10395844e-03
      9.42436699e-03 0. 3.04636620e-02 8.62422027e-03 -3.26903574e-02
      7.99244735e-03 7.06821866e-03 3.05636860e-02 1.26878070e-02
      3.53068113e-02 1.80295985e-02 -4.68021035e-02 1.11744963e-02
      3.35316360e-02 1.72605906e-02 -2.42395271e-02 2.58068573e-02
      -3.80898379e-02 -4.72885296e-02 2.58377083e-02 -2.06122175e-02
      3.78884934e-03 2.32026037e-02 1.40305376e-02 -1.90884937e-02
      3.18593085e-02 -4.36920486e-02 -1.42571945e-02 3.05227451e-02
      1.47353122e-02 1.46921100e-02 3.21687752e-04 5.71778277e-03 0.
      1.31712146e-02 2.26706602e-02 1.90246720e-02 2.11559776e-02
      -1.36180986e-02 2.84966026e-02 -2.85717715e-02 2.57477071e-02
      1.91109553e-02 5.17471973e-03 3.10307518e-02 -3.05330101e-02
      -3.70081887e-02 -3.00213397e-02 -1.16382819e-02 -2.23141648e-02
      -1.35307759e-03 -8.47539306e-03 1.92837659e-02 2.85991374e-02
      6.13203738e-04 2.24809870e-02 -3.67612094e-02 2.02984214e-02
      -3.88484560e-02 3.46548446e-02 2.77804248e-02 2.09375415e-02
      1.10544078e-02 -1.34513993e-02 -1.75742023e-02 0. -6.43600430e-03
      -2.00234912e-02 -1.15706874e-02 3.02285235e-02 -8.55224393e-03
      -1.10810669e-02 -2.92124711e-02 1.94627643e-02 -1.88597187e-03
      4.64911386e-02 1.41139971e-02 -2.10564863e-02 -1.60767343e-02
      -2.02658214e-02 2.04440560e-02 -9.91426758e-04 -8.96596815e-03
      -1.14276633e-02 2.86577418e-02 -5.44990739e-03 1.53858317e-02
      4.79378179e-03 -2.35885680e-02 2.21149754e-02 -7.45927310e-03
      1.45901199e-02 5.05028712e-03 -2.56290846e-03 -1.63707249e-02
      1.98942772e-03 -4.05928789e-04 0. -1.27846692e-02 2.92835254e-02
      8.08745809e-03 6.41453639e-03 -1.59326326e-02 -2.58824825e-02
      -3.74613442e-02 1.73424778e-03 -4.51337658e-02 -4.50256132e-02
      -4.79231495e-03 1.57045363e-03 -1.18797133e-02 -1.14962338e-02
      3.00294477e-02 3.16685252e-02 3.39519531e-02 -4.93046828e-02
      -2.60833427e-02 1.88056640e-02 9.72987618e-03 -6.16562553e-03
      -1.94372348e-02 9.97247361e-03 2.12468393e-03 2.44552568e-02
      -3.81330848e-02 -1.75717641e-02 -3.36223505e-02 1.02900695e-02
      -1.42277498e-02 0. 8.33702646e-03 -1.65051874e-02 -4.15798426e-02
      -1.90402828e-02 -5.82419410e-02 -5.34864068e-02 -1.90542713e-02
      2.24343017e-02 2.20416076e-02 -4.81906496e-02 2.21150257e-02
      -5.69946086e-03 2.49772239e-02 2.18877606e-02 7.11216126e-03
      -2.61398703e-02 5.52777899e-04 -2.92756204e-02 -1.17686568e-02
      -8.30506440e-03 -2.48815324e-02 1.27670285e-03 -2.12484952e-02
      -1.53238690e-02 -5.16649224e-02 6.76315930e-03 -1.02550059e-03
      -2.44520679e-02 -2.31957287e-02 -1.16650276e-02 -2.91951969e-02 0.
      6.42396417e-03 2.92262658e-02 3.88037600e-03 7.89558701e-03
      -3.05546317e-02 5.58820134e-03 -3.37589569e-02 5.61394216e-03
      2.47801058e-02 3.65040191e-02 -3.42131294e-02 -2.06187088e-02
      7.93040358e-03 4.01947135e-03 3.58831324e-02 -1.03881108e-02
      2.54298523e-02 5.42663643e-03 -1.33491708e-02 1.24696654e-03
      -1.98737774e-02 2.18805838e-02 -3.13258432e-02 2.69025806e-02
      -2.44272202e-02 1.93285812e-02 6.36877725e-04 1.30646639e-02
      -9.04953573e-03 3.37450439e-03 2.51692161e-02 0. -3.82765979e-02
      -3.51316412e-03 -3.95902805e-03 -3.29633988e-03 -4.25910056e-02
      8.33245181e-03 -1.68995466e-03 2.90603582e-02 1.45648429e-02
      9.33535025e-03 -2.19247956e-02 1.58142373e-02 6.66829431e-03
      2.19589826e-02 1.41841611e-02 -3.37503403e-02 3.88408056e-03
      -3.55140306e-02 -3.47397961e-02 -2.94044632e-02 1.04691992e-02
      1.32098449e-02 -1.82381142e-02 -1.31280569e-03 -2.24266518e-02
      1.86772477e-02 -5.48581686e-03 1.93480887e-02 -1.88010763e-02
      -7.39839394e-03 -2.17684917e-02 0. -2.56219171e-02 -3.64780799e-03
      -2.90674400e-02 -2.98316497e-02 7.80455768e-03 3.73236835e-02
      -2.24804785e-02 1.02311233e-02 -1.86612923e-03 2.00114548e-02
      2.84491330e-02 1.02100633e-02 -2.67309844e-02 -5.25429882e-02
      -1.89278405e-02 -3.09983455e-02 2.22332422e-02 3.03234532e-03
      1.36173125e-02 1.90611333e-02 -1.79035179e-02 -2.22107656e-02
      -1.83761977e-02 5.95019897e-03 -4.44580093e-02 2.84418073e-02
      3.04847560e-03 -9.73620918e-03 -2.69071646e-02 1.26615604e-02
      -2.42989659e-02 0. -5.51858405e-03 -2.81949211e-02 -1.56598985e-02
      -2.69010775e-02 -5.90038626e-03 1.42212734e-02 -1.97597034e-02
      8.34292918e-03 6.47711987e-03 -3.49477455e-02 5.57214729e-02
      2.68694069e-02 1.01158209e-02 -5.06658480e-02 -6.93462417e-03
      -2.70775463e-02 -7.36841420e-03 5.18047363e-02 -1.05297640e-02
      1.07874791e-03 -4.42814734e-03 -1.16827590e-02 -7.98397232e-03
      -2.75706104e-03 -4.49550264e-02 -8.70036799e-03 -8.64872336e-03
      1.95701905e-02 -1.65664144e-02 -1.68078614e-03 -2.74272226e-02 0.
      5.23620509e-02 5.93069941e-03 -6.98569184e-03 -3.08642369e-02
      -2.02881750e-02 -2.51067132e-02 -1.29863881e-02 -7.55776046e-03
      3.46805230e-02 2.56109685e-02 3.94269936e-02 -9.78856068e-03
      1.45430723e-02 9.74046823e-04 1.06737204e-02 2.12962739e-02
      3.50585841e-02 1.31168310e-02 7.17113540e-02 3.77065800e-02
      -1.26464627e-04 -3.42855342e-02 -2.49820035e-02 -1.24567170e-02
      1.15123168e-02 1.23155760e-02 1.33005269e-02 3.24081965e-02
      3.12431511e-02 1.78924967e-02 -1.55024771e-02 0. -9.68431029e-03
      -2.59813424e-02 -2.29938049e-02 -1.43397748e-02 -2.62916237e-02
      -1.17034633e-02 -1.51831806e-02 4.16083785e-04 2.62547173e-02
      1.49784274e-02 2.96921730e-02 -2.28160340e-02 2.76836697e-02
      -2.92020794e-02 -3.34098451e-02 1.42866215e-02 5.83107583e-02
      -1.38346748e-02 1.80458967e-02 6.47100993e-03 -3.80280837e-02
      -5.48697019e-04 -2.11960357e-02 -2.41975430e-02 1.58785004e-03
      4.26039062e-02 2.29414385e-02 -2.65148794e-03 -3.39347310e-03
      -5.50588546e-03 -1.38188135e-02 0. -4.86699641e-02 2.37384085e-02
      -1.11083072e-02 -6.82234578e-03 -2.66243108e-02 -3.45005430e-02
      -1.43929431e-02 2.06087604e-02 1.09948311e-02 -6.43772781e-02
      1.33705894e-02 4.55072336e-03 1.44823892e-02 -1.31177604e-02
      -5.59936510e-03 -2.80258581e-02 -6.14646683e-03 -1.65727381e-02
      -2.78086215e-02 2.07744427e-02 -1.51881836e-02 9.13655665e-03
      -1.82068907e-02 -3.55309360e-02 -2.32897010e-02 -5.35826012e-03
      1.28084784e-02 -1.65903743e-03 -4.68979999e-02 -1.32270493e-02
      -2.69391425e-02 0. -1.88908242e-02 -2.66323388e-02 1.07762255e-02
      -1.68971401e-02 -7.53903901e-03 -4.13711146e-02 -2.66801147e-03
      5.19763827e-02 1.69590954e-02 2.81333495e-02 4.62888889e-02
      1.59389898e-02 3.41362432e-02 3.02254278e-02 5.34772361e-03
      -2.30671628e-03 1.22254854e-02 -6.22061677e-02 1.21995737e-03
      2.01707259e-02 1.85978431e-02 1.26586938e-02 6.82882674e-04
      -3.43372412e-02 -9.68034845e-04 4.32652161e-02 -2.70889327e-02
      3.06301173e-02 -1.49754798e-02 3.19298320e-02 -1.29382368e-02 0.
      -1.81988056e-03 3.54977399e-02 3.47184166e-02 -1.28901787e-02
      -5.88853611e-03 -1.98156368e-02 -3.35888080e-02 -1.43260676e-02
      4.36039967e-03 7.97595084e-03 -3.20421942e-02 -1.40843820e-02
      9.89267789e-03 2.36244276e-02 -5.13878092e-03 3.33715556e-03
      -6.97979983e-03 -1.09817472e-03 2.36987472e-02 -2.81721726e-03
      1.44221149e-02 1.08712714e-03 4.91420627e-02 -2.28293668e-02
      -1.37835639e-02 2.33970452e-02 1.37294019e-02 1.66591052e-02
      -1.20569207e-02 -2.58642132e-03 -1.53401997e-02 0. -1.63310952e-02
      3.36034107e-03 3.92903900e-03 2.52066203e-03 3.22142839e-02
      2.67645512e-02 2.96750162e-02 8.24689516e-04 -2.81253383e-02
      -8.44430029e-02 -9.79211275e-03 2.22609788e-02 2.94410711e-04
      -2.93902811e-02 1.96999274e-02 -3.31211537e-02 -4.19971906e-03
      -3.98320286e-03 -5.21736853e-02 -1.51855005e-02 2.16917694e-02
      8.06456711e-03 4.93886927e-03 1.27730612e-02 5.67496754e-03
      3.71704460e-03 -1.54431434e-02 2.93788686e-03 -1.97393866e-03
      -4.72953217e-03 -2.82151457e-02 0. -7.30440691e-02 2.10174471e-02
      -1.07085826e-02 -2.13804971e-02 2.48044524e-02 4.67817113e-02
      3.42106563e-03 5.67967296e-02 -2.38510855e-02 -1.47007881e-02
      2.18102615e-02 -1.98834436e-03 -2.46520434e-02 1.26552712e-02
      -1.75435096e-02 -2.19066758e-02 1.30203627e-02 2.68395282e-02
      -5.64107411e-02 2.92054377e-02 -8.12373031e-03 -3.45172659e-02
      -1.12103915e-03 1.10178301e-02 -4.02053399e-03 6.72590137e-02
      -9.55667067e-03 -1.07034715e-02 -9.20555182e-03 1.27082216e-02
      1.53895961e-02 0. -8.10242593e-02 1.85524896e-02 -3.57904918e-02
      4.81470441e-03 4.90938798e-02 4.37876880e-02 4.54119965e-02
      -2.22898815e-02 3.38262506e-02 3.56808007e-02 6.26802072e-02
      -1.43694067e-02 7.85490777e-03 1.06665129e-02 -2.52543036e-02
      -1.16751548e-02 -3.43906879e-02 1.46758475e-03 -1.30342832e-02
      4.15470116e-02 -2.67628990e-02 -7.42095709e-03 4.36633714e-02
      3.68348584e-02 3.13685797e-02 -5.55387139e-02 -1.82702709e-02
      2.30024233e-02 2.05426756e-02 6.05720654e-03 -7.62751000e-03 0.
      -1.57588013e-02 3.78020257e-02 1.87735017e-02 -2.89530829e-02
      1.29418829e-02 3.90631426e-03 1.10340985e-02 -1.04816621e-02
      3.12194247e-02 -1.67574338e-03 2.49306764e-03 -3.74349914e-02
      -7.48931943e-03 -3.24524902e-02 1.82946082e-02 -1.61945466e-02
      7.43507920e-03 -9.02335998e-03 2.67074071e-02 5.93741275e-02
      -2.57105194e-02 -6.97644707e-03 -1.94327626e-02 1.72757581e-02
      -1.29383395e-03 1.22546416e-03 1.09071424e-02 -1.21566057e-02
      1.85943972e-02 -4.26648930e-03 -9.50817578e-03 0. -3.69113274e-02
      -3.55151511e-04 -1.21435970e-02 4.01047915e-02 3.20349447e-02
      8.90318397e-03 4.74320538e-03 2.30387766e-02 -2.63706851e-03
      -5.20594418e-02 -1.40801305e-02 -2.64629023e-03 8.84206966e-03
      6.15064241e-03 -2.44208649e-02 -2.96679977e-03 1.96649060e-02
      -9.70323943e-03 -2.96176095e-02 1.98272299e-02 4.24025161e-03
      2.15256624e-02 2.33300328e-02 8.57846346e-04 3.56894056e-03
      1.35857705e-02 -2.44281199e-02 -5.71814273e-03 -2.28757318e-03
      -8.47933348e-03 9.67738312e-03 0. 8.96341167e-03 3.08878068e-02
      5.71586564e-03 3.26430872e-02 1.33016193e-02 1.59171168e-02
      3.24115553e-03 2.37378199e-02 -1.60654988e-02 -3.89338918e-02
      3.70912999e-02 -2.25932337e-02 -1.73292146e-03 -8.25158611e-04
      -2.40802206e-02 -3.00244009e-03 2.23006122e-02 5.39023727e-02
      1.08333491e-02 3.55379470e-02 -7.28834141e-03 1.85456257e-02
      2.76607592e-02 2.71559823e-02 1.30500272e-02 4.98365983e-02
      7.57828448e-03 2.88989153e-02 2.31347494e-02 1.16857619e-03
      1.30147571e-02 0. 2.65244627e-03 5.07988082e-03 1.28903762e-02
      2.64166319e-03 1.10477880e-02 -1.75787006e-02 2.64703482e-03
      2.82802470e-02 1.87157299e-02 -2.30342317e-02 3.41543779e-02
      -6.27051340e-03 -3.63262482e-02 6.77261455e-03 -2.04188749e-02
      1.07756760e-02 -2.58054864e-02 -1.59800630e-02 -1.30518014e-02
      3.21183354e-02 -1.69526378e-03 -2.23884434e-02 -1.42239193e-02
      -4.31963708e-03 2.69178953e-02 -1.55803852e-03 1.40866991e-02
      1.02141825e-02 -8.56131501e-03 -3.06297489e-03 -3.18900612e-03 0.
      2.79626343e-02 5.55025153e-02 -1.05654700e-02 6.61414955e-03
      6.91017881e-03 -1.56400667e-04 1.52236596e-02 -1.22375898e-02
      -1.37786176e-02 -9.42447409e-03 -1.04480619e-02 -2.30028611e-02
      9.96695482e-04 -2.85505261e-02 -2.78091002e-02 -2.39161551e-02
      3.48352082e-02 1.47647141e-02 -5.06887864e-03 3.99823822e-02
      -3.31398435e-02 5.23975212e-03 1.60555802e-02 -3.37244533e-02
      -1.96772069e-02 1.03471819e-02 5.22999046e-03 -4.73321462e-03
      4.55227401e-03 2.89417291e-03 -1.33650552e-03 0. 2.72455439e-02
      -9.65775736e-03 -1.52724003e-02 3.15807909e-02 8.45193025e-03
      4.00231816e-02 3.33497971e-02 -1.68844163e-02 5.79202129e-03
      -2.04159282e-02 1.55560290e-02 -4.41908557e-03 2.62105595e-02
      -3.18775438e-02 2.27796356e-03 -3.24411429e-02 2.00769678e-02
      -3.83346132e-03 1.70976706e-02 1.12297374e-03 -3.20729166e-02
      3.25229540e-02 -1.24424566e-02 2.80140340e-02 3.32518741e-02
      9.27202776e-03 2.78303605e-02 1.38007132e-02 1.22809662e-02
      -3.46347690e-04 9.97935981e-03 0. -2.01962646e-02 -2.11610794e-02
      -2.62799375e-02 2.35400032e-02 2.35233605e-02 1.48880444e-02
      6.78220950e-03 -2.55211368e-02 -3.46130063e-03 -2.11523175e-02
      9.36433766e-03 -1.45180374e-02 3.17608602e-02 1.39476929e-03
      3.61128673e-02 8.96384474e-04 2.80968361e-02 1.11448830e-02
      -1.59871913e-02 -9.49075911e-03 -4.06762734e-02 3.55954953e-02
      2.63405638e-03 1.75720733e-02 1.99277252e-02 7.76117714e-03
      7.60817947e-03 -2.94903293e-03 -1.00256633e-02 1.87813193e-02
      2.02214886e-02 0. -6.25076564e-03 -5.90821505e-02 -3.63058671e-02
      -2.40598097e-02 3.04047037e-02 4.10213880e-02 -7.67785357e-03
      1.84671003e-02 5.10903448e-03 4.39098990e-03 3.50583568e-02
      3.99998110e-03 -2.08999552e-02 2.21328833e-03 1.65391807e-02
      -2.35143937e-02 -1.56088769e-02 4.53544955e-04 1.99867990e-02
      -1.28805377e-02 -1.75989978e-02 -3.75965834e-02 2.28606630e-02
      2.98586357e-02 -3.80306765e-02 9.95134283e-03 5.13403257e-03
      -1.49333812e-02 9.46103036e-03 2.79172277e-03 -1.41682168e-02 0.
      2.54468489e-02 2.26438735e-02 5.13104023e-03 2.36841757e-02
      2.54349951e-02 3.60012725e-02 1.28774885e-02 1.96542628e-02
      -1.14523927e-02 5.67223737e-03 -9.77554359e-03 -1.62837747e-02
      -4.13840674e-02 -9.78165399e-03 -6.21624151e-03 -1.91157516e-02
      1.33437272e-02 3.38074267e-02 1.00089107e-02 8.45956057e-03
      -1.20621845e-02 -1.42423213e-02 3.09740193e-02 2.02095434e-02
      -1.09646684e-02 2.44548693e-02 8.22641980e-03 9.74850846e-04
      2.09268425e-02 1.11149633e-02 1.86902247e-02 0. -1.00092394e-02
      -8.42900947e-03 1.51563985e-02 6.14483934e-03 3.50781344e-02
      2.66562495e-02 3.35575938e-02 1.44948550e-02 -8.95668380e-03
      -1.49928741e-02 1.18094534e-02 2.73056142e-02 5.85352071e-02
      4.60024737e-02 -2.72932779e-02 -6.35942817e-02 -4.69897548e-03
      -8.01677629e-03 -1.83282960e-02 1.69520881e-02 2.86422018e-02
      3.30140926e-02 5.04460111e-02 1.76936481e-02 -2.11576074e-02
      6.66974857e-03 -3.82479690e-02 3.36874910e-02 1.53468456e-02
      -1.59188570e-03 1.32501507e-02 0. 4.30951156e-02 5.43957241e-02
      -1.11472001e-02 9.95347090e-03 2.16270164e-02 3.98581568e-03
      -3.47663723e-02 2.01938078e-02 -1.53884068e-02 -5.55383042e-02
      -3.85218933e-02 -5.16003594e-02 -5.43908551e-02 3.33623290e-02
      5.85955009e-03 -1.58795863e-02 3.74209285e-02 2.05233507e-02
      -3.74494400e-03 1.27828056e-02 -4.39902544e-02 -5.65838218e-02
      1.89316366e-02 2.27055270e-02 -2.36267764e-02 3.32286619e-02
      -1.46934865e-02 1.43927000e-02 6.63440581e-03 -1.65651981e-02
      -1.71029121e-02 0. 1.53548066e-02 -2.00620778e-02 -2.37001982e-02
      -1.80734904e-03 3.30923013e-02 3.48154153e-03 -1.61548350e-02
      3.14097442e-02 -2.52996106e-03 1.63262207e-02 6.25305483e-03
      -1.46325855e-02 -2.02525649e-02 2.41086190e-03 -1.39906788e-02
      3.66998394e-03 -1.06287133e-02 8.61934479e-03 2.04370730e-02
      -8.32155347e-03 -4.26284187e-02 -1.45687275e-02 1.60646513e-02
      -2.61240522e-03 4.57879767e-04 1.68346260e-02 3.85683291e-02
      -1.65083855e-02 5.72434161e-03 8.16614367e-03 1.13719108e-03 0.
      3.70388515e-02 8.50425102e-03 1.84285399e-02 -4.78570862e-03
      -2.55383812e-02 -2.84913350e-02 -4.12900373e-03 -9.30942595e-03
      -1.39985774e-02 2.28084158e-02 1.20203830e-02 1.57919731e-02
      6.70881476e-03 2.70257723e-02 2.94732442e-03 3.13533982e-03
      2.29739193e-02 4.45081778e-02 3.89020853e-02 4.54362389e-03
      1.90311149e-02 -3.51011707e-03 -3.32843186e-03 -3.51348817e-02
      5.42009110e-03 1.56376287e-02 4.74258605e-03 2.75998339e-02
      -1.15284114e-03 3.56935710e-02 1.79981079e-03 0. 1.41765308e-02
      -2.22573671e-02 2.52167415e-02 1.36264917e-02 -1.27734905e-02
      3.81458737e-02 -1.14481756e-03 2.98072770e-03 -2.85516158e-02
      1.95583850e-02 4.55786623e-02 -3.95706184e-02 -2.22742837e-02
      1.42867761e-02 -7.85001926e-03 1.62065541e-03 -1.63688697e-02
      -2.93459324e-03 3.14628445e-02 1.08991396e-02 -2.40321159e-02
      8.75928812e-03 -8.09633732e-03 1.98765267e-02 -1.68921519e-02
      -3.05359215e-02 -6.61757775e-04 1.23670781e-02 1.77626859e-03
      1.58498492e-02 -1.98745113e-02 0. -2.62553580e-02 -9.55843739e-03
      -3.70541364e-02 5.74364443e-04 -5.56808338e-03 3.24841328e-02
      2.61570476e-02 -1.94338579e-02 -1.99515861e-03 -2.88950978e-03
      2.04094108e-02 -4.43036333e-02 -1.42169371e-02 1.62815042e-02
      8.27588234e-03 -1.68788992e-02 2.46902741e-02 -8.39040877e-05
      -4.72924719e-03 1.61651336e-02 -6.27912134e-02 -1.12182749e-02
      -1.17294192e-02 2.82034241e-02 -8.79812334e-03 6.83383271e-03
      5.47558349e-03 5.47788339e-03 -2.18177531e-02 -6.53328258e-04
      -6.27760077e-03 0. 5.88765964e-02 -2.38820054e-02 -1.59361307e-02
      8.46395362e-03 -4.13384428e-03 -7.48300785e-03 -1.76754072e-02
      -3.15282941e-02 -2.26755980e-02 -1.15810353e-02 1.31107131e-02
      1.71595125e-03 2.07929369e-02 2.56083366e-02 4.72144829e-03
      -1.51179032e-03 1.62700266e-02 1.72256790e-02 4.02850062e-02
      1.60225853e-02 7.91591592e-03 1.99098792e-02 5.14939148e-03
      1.42250359e-02 1.54837884e-03 1.49946939e-02 -1.76819041e-02
      -1.30709838e-02 -3.45725007e-03 2.50039194e-02 5.84475463e-03 0.
      -3.89963947e-02 -4.50231181e-03 1.69866532e-02 5.00829704e-03
      2.61476096e-02 2.72140699e-03 2.85453983e-02 -7.45532243e-03
      -2.80372854e-02 -3.71098109e-02 5.39243594e-02 -3.18556186e-03
      -3.06715304e-03 -8.74274503e-03 6.65480783e-03 -4.08054516e-02
      -3.42015289e-02 8.12404323e-03 -4.61705700e-02 1.88747942e-02
      5.62982634e-03 -6.89955894e-04 5.01192687e-03 3.95560311e-03
      -7.96806999e-03 -3.78851369e-02 -3.43809873e-02 -1.42926946e-02
      -1.27210533e-02 -4.01168084e-03 3.68847651e-03 0. -3.48680019e-02
      4.21990221e-03 1.12631929e-03 -2.48129182e-02 3.12538967e-02
      5.58754010e-03 1.75126921e-02 5.04722744e-02 1.12483269e-02
      -3.66517976e-02 5.74534014e-03 -2.13085599e-02 -9.38848406e-03
      -2.71763112e-02 -1.21061960e-02 -1.53988739e-02 -2.27941154e-03
      -4.07396443e-03 -4.94757816e-02 9.65262298e-03 -1.02942660e-02
      -4.01075110e-02 -1.97745562e-02 -2.14805845e-02 -1.24956192e-02
      3.58475782e-02 -5.51036792e-03 4.16014204e-03 1.02138920e-02
      -2.68594585e-02 -1.62219889e-02 0. 5.18427696e-03 1.46328937e-02
      -1.91888530e-02 -4.34108963e-03 -3.32117802e-03 -1.46351438e-02
      1.23861176e-03 -2.49269400e-02 -1.22124618e-02 1.83899608e-03
      -1.19381538e-02 -1.89508349e-02 -1.80994775e-02 -2.16982290e-02
      1.94320139e-02 5.75173320e-03 2.00519767e-02 -7.16019562e-03
      6.29095733e-03 -2.73979921e-02 -3.25549990e-02 -2.68728361e-02
      -6.15957566e-03 1.40070738e-02 9.98347532e-03 1.29766427e-02
      2.91035753e-02 1.23346690e-04 -5.27193444e-03 -2.25195792e-02
      -1.39762787e-02 0. 3.35274776e-03 4.40265276e-02 1.58336610e-02
      2.64654253e-02 -6.45476021e-03 -2.86154225e-02 -4.37454395e-02
      -2.37484742e-02 -1.36152946e-03 -1.54365739e-02 2.15585791e-02
      3.73569727e-02 -1.25942286e-02 1.22253569e-02 3.09782233e-02
      7.18525285e-03 -4.64564003e-03 1.41279213e-02 2.31157672e-02
      4.41563353e-02 3.70206088e-02 5.54755563e-03 3.36520486e-02
      2.23226938e-02 -3.50500345e-02 -1.41468151e-02 2.54391432e-02
      6.00702316e-03 -2.35242187e-03 1.24540702e-02 1.99574735e-02 0.
      4.23366129e-02 2.01936197e-02 8.35548900e-03 5.57944970e-03
      2.02916060e-02 8.99418164e-03 -2.88077444e-02 -2.98560895e-02
      -1.37518859e-02 -3.48000060e-04 -1.49148926e-02 -1.70107894e-02
      -3.19036245e-02 3.27167772e-02 3.05492077e-02 -6.59267455e-02
      -5.93081005e-02 -1.31230894e-02 3.45916972e-02 -2.62683840e-03
      8.78369785e-04 -4.70062625e-03 4.44891416e-02 2.57393364e-02
      -5.51903509e-02 -5.02747111e-02 -2.31812391e-02 -1.90009587e-02
      -3.43333744e-02 7.09193666e-03 -3.69489519e-03 0. -1.13445949e-02
      2.73522977e-02 2.92906184e-02 1.29303066e-02 -2.72572786e-02
      1.01860194e-02 -1.57349724e-02 4.65667690e-05 -1.71201434e-02
      1.03534507e-02 2.69885827e-02 -2.78938655e-02 4.85584289e-02
      -1.10416124e-02 1.27849802e-02 -2.68388875e-02 -2.00436246e-02
      1.16685452e-02 4.52159438e-03 2.81724427e-02 -1.04388525e-03
      5.61568625e-02 -8.85483716e-03 2.19195988e-02 -3.60872485e-02
      -1.79784745e-02 4.40583471e-03 -6.53939461e-03 -4.23938315e-03
      2.14601438e-02 4.82053915e-03 0. -1.84171665e-02 3.52311810e-03
      7.18558999e-03 4.35662270e-03 1.25332559e-02 2.02759188e-02
      1.05256392e-02 -4.21577366e-03 -2.27309540e-02 4.66603413e-03
      -2.38464382e-02 -1.58762131e-02 2.88099633e-03 1.68068465e-02
      -2.02936074e-03 -1.54954139e-02 2.42245812e-02 -1.23812258e-03
      -1.58321054e-03 -8.70111119e-03 -4.72768850e-04 4.12164442e-03
      3.57150957e-02 2.84850858e-02 -5.06132701e-03 1.66709572e-02
      -1.56312007e-02 1.36702545e-02 -5.69494255e-03 -4.26486600e-03
      -2.23536091e-03 0. 1.44992126e-02 8.67673662e-03 5.17282682e-03
      8.72415025e-03 2.74195522e-02 -1.71625447e-02 -1.15157915e-02
      -2.96849050e-02 3.67693417e-03 -1.51631311e-02 3.84399444e-02
      2.94262567e-03 3.65701951e-02 4.92149172e-03 -5.94577054e-03
      -4.01129797e-02 3.40912578e-04 7.19329715e-03 -7.23141292e-03
      3.83731648e-02 -7.66975293e-03 3.61272581e-02 4.77246754e-02
      -1.73295476e-02 -2.70800181e-02 -1.60753801e-02 -1.19242352e-02
      5.33779105e-03 -2.36870777e-02 2.44744532e-02 1.22560095e-02 0.
      -2.47588158e-02 -3.93385207e-03 -1.61655415e-02 8.01753078e-04
      8.64460878e-03 4.48373612e-03 5.22304559e-03 -2.43810937e-02
      -1.95868239e-02 -1.18293809e-02 -8.28679837e-03 -4.09995532e-03
      -1.65037364e-02 -3.38216370e-04 -2.12281644e-02 -4.78907637e-02
      -4.89041321e-02 3.93990725e-02 -1.40405335e-02 -6.18484942e-03
      -2.98319068e-02 -6.71102339e-03 1.68563984e-02 -3.24267112e-02
      -4.78284657e-02 -5.83918318e-02 -3.09466440e-02 2.49150163e-03
      -4.33711261e-02 -5.00500668e-03 -4.33773547e-02 0. 3.81674357e-02
      4.82552592e-03 -2.24256199e-02 -3.44209448e-02 -2.96065398e-02
      -1.39189279e-02 -2.43027019e-03 1.80259570e-02 -3.29334363e-02
      -3.08475923e-02 2.55305488e-02 -4.19734884e-03 -9.89910215e-03
      -3.84677798e-02 -1.31018562e-02 7.30108656e-03 -2.35115029e-02
      -1.38264885e-02 5.07853627e-02 1.32855270e-02 -3.23894098e-02
      -4.36042324e-02 -4.55537662e-02 -3.09969243e-02 1.79499183e-02
      6.50008535e-03 -2.31601968e-02 -1.21791344e-02 -1.55547485e-02
      -4.07740520e-03 -5.10310754e-02 0. -1.05797369e-02 -1.21271340e-02
      1.73120492e-03 -3.51836439e-03 2.68072286e-03 1.72593519e-02
      -1.77868865e-02 -8.22082628e-03 -2.20921617e-02 8.94927012e-04
      2.82786731e-02 -1.05401045e-02 2.52415240e-03 -1.97282955e-02
      2.62436066e-02 -1.62148625e-02 -6.27811253e-03 -1.70267355e-02
      -1.30044390e-02 -3.77172278e-03 -2.11518053e-02 -8.44770670e-03
      -1.74077433e-02 4.07855473e-02 -1.78844947e-02 -5.88583853e-03
      -1.65550672e-02 -1.28044328e-02 9.85681452e-03 -1.65605284e-02
      -1.08974399e-02 0. 2.44049132e-02 3.35494541e-02 2.87763104e-02
      9.50176734e-03 3.28820981e-02 1.94345433e-02 -9.90286469e-03
      -2.84470655e-02 2.83468136e-04 -1.70964785e-02 -3.31877135e-02
      6.16691587e-03 -1.91910509e-02 -3.75661291e-02 -2.08428241e-02
      -6.12341845e-03 -2.06342712e-02 -4.74837460e-02 1.59175284e-02
      -2.68945633e-03 1.63376983e-02 -2.86754165e-02 -1.17352307e-02
      -9.61048342e-03 -8.12095590e-03 -2.29740571e-02 -4.96259518e-02
      6.40388718e-03 -1.36574674e-02 -4.05168943e-02 7.47703062e-03 0.
      3.06740832e-02 2.39361320e-02 1.53356548e-02 1.67864971e-02
      8.14748555e-02 5.01911156e-02 2.96726096e-02 -3.84169035e-02
      -1.01941135e-02 -4.85906098e-03 1.90335885e-02 2.52740644e-03
      -9.99976322e-03 1.52505124e-02 -1.24450810e-02 -5.14153764e-02
      -1.73294749e-02 1.90380141e-02 -7.02027872e-04 2.41198894e-02
      1.44590177e-02 8.51831678e-03 5.50065525e-02 2.31637098e-02
      -1.40325157e-02 -5.71494997e-02 1.75180919e-02 2.86441967e-02
      7.22422171e-03 4.08256706e-03 3.51245105e-02 0. 7.15663610e-03
      8.54090229e-03 7.79645564e-03 -2.58111432e-02 -9.69246868e-03
      -5.06364624e-04 3.90042998e-02 3.50260697e-02 1.03933783e-02
      -6.64283708e-02 -5.69099188e-03 -1.61681268e-02 3.11148185e-02
      1.81129109e-02 6.82014525e-02 -1.37466090e-02 3.13016499e-04
      2.99192648e-02 -3.95287648e-02 -3.02303024e-03 2.29823403e-03
      2.01351233e-02 -2.85226363e-03 3.73117290e-02 3.76667231e-02
      3.08461152e-02 4.18901928e-02 1.47156008e-02 4.63318359e-03
      2.56711561e-02 1.03861066e-02 0. -4.26982045e-02 -1.27441785e-03
      -1.71846524e-02 1.85607700e-03 -1.52094830e-02 -1.19693661e-02
      4.28414531e-03 8.40321649e-04 2.64870282e-02 -1.90511048e-02
      1.86093077e-02 -2.04103012e-02 -4.29253131e-02 5.75453565e-02
      9.56345201e-02 1.40082166e-02 1.07036475e-02 5.70322247e-03
      -2.56425831e-02 4.63122223e-03 -2.10680477e-02 -7.14427885e-03
      -1.18411881e-05 5.89779504e-02 -1.05136004e-03 1.29601564e-02
      3.01674586e-02 2.25379728e-02 8.04858562e-03 6.67311577e-03
      -6.64270716e-03 0. -8.70053656e-03 9.18606948e-03 -2.00635772e-02
      -3.04798149e-02 -1.01894317e-02 -2.56738700e-02 5.58977108e-03
      -6.06739186e-02 -2.63507431e-03 5.20143751e-03 2.77644657e-02
      -2.80256141e-02 2.82248156e-03 8.41931067e-03 3.86728980e-02
      -3.00601916e-03 2.75695436e-02 -2.06614695e-02 -1.97205483e-03
      2.14600693e-02 -4.47342843e-02 -2.16420926e-02 4.31052933e-04
      7.00844917e-03 -1.86447310e-03 -3.02703436e-02 -8.10026471e-03
      -2.20127013e-02 -2.50920374e-02 1.01534985e-02 -3.06277163e-03 0.
      7.63305696e-03 -2.01461669e-02 1.54324004e-03 -1.19249253e-02
      -1.96470991e-02 -3.24380794e-03 4.98998351e-02 2.62883566e-02
      7.29328534e-03 2.02968670e-03 8.37111101e-03 1.04231422e-03
      -1.35889445e-02 -3.38844731e-02 -1.93854496e-02 4.60804673e-03
      1.87830557e-03 1.84533335e-02 5.29157333e-02 1.20357675e-02
      -5.58540411e-03 -1.02059748e-02 -3.83951627e-02 -1.72860958e-02
      4.98072170e-02 1.97987743e-02 2.73183975e-02 3.49579786e-04
      -3.79372970e-03 5.31556364e-03 1.53194601e-03 0. 2.43712980e-02
      3.59721407e-02 4.74578291e-02 3.43295634e-02 -8.78658053e-03
      2.03622412e-03 -8.98690603e-04 8.23012833e-03 8.57451186e-03
      -1.10375825e-02 4.22475301e-03 8.56773369e-03 -1.37239285e-02
      -5.55805415e-02 -7.10380897e-02 -1.24883093e-02 1.03840046e-02
      -1.67692807e-02 6.14766665e-02 2.86974944e-02 4.65135127e-02
      2.06174310e-02 -3.80057245e-02 -6.35345653e-02 -1.94034185e-02
      7.87779689e-03 5.75489830e-03 -1.32470680e-02 -2.72512180e-03
      9.19952989e-03 3.86185991e-03 0. 1.77373849e-02 1.84326041e-02
      1.54494876e-02 3.02730920e-03 4.49344516e-02 5.71697541e-02
      -1.96793508e-02 -1.20697170e-02 1.93106253e-02 7.36249005e-03
      -1.08421743e-02 2.59574167e-02 -2.98069585e-02 6.34852704e-03
      2.46926975e-02 8.81791022e-03 -2.64002080e-03 -1.61242355e-02
      -7.80264195e-03 9.10513278e-04 3.73460948e-02 -3.50271240e-02
      -1.38296392e-02 7.58952796e-02 -9.29180440e-03 1.64897479e-02
      -1.62493754e-02 1.82800144e-02 2.30492670e-02 1.19241076e-02
      2.12646835e-02 0. -2.90032495e-02 1.97508354e-02 6.03261963e-03
      3.61309201e-02 5.30911610e-02 8.51304561e-04 -3.43595408e-02
      -3.69384289e-02 4.73001227e-03 1.62403809e-03 -8.59634113e-03
      1.96453207e-03 1.05917202e-02 3.65704745e-02 3.56727652e-02
      -1.84607618e-02 -8.93414114e-03 -1.94661003e-02 -2.63210423e-02
      2.70918850e-03 2.07542063e-04 3.54016647e-02 1.56965684e-02
      3.01692858e-02 -2.64417492e-02 -1.81483701e-02 -1.93893630e-02
      2.95406189e-02 2.36966573e-02 -1.74279492e-02 -1.16492333e-02 0.
      3.39627452e-02 2.23575607e-02 -4.26154546e-02 1.96993048e-03
      3.44194584e-02 2.04424448e-02 -2.71189725e-03 -2.08996274e-02
      -1.71910729e-02 -3.86282732e-03 8.86853412e-03 1.37900962e-02
      1.10348752e-02 2.68430039e-02 -1.17428331e-02 -1.09993527e-02
      1.88988354e-02 3.03301364e-02 7.58203561e-04 2.70704776e-02
      -1.04073696e-02 2.11517680e-02 2.72802860e-02 7.70667940e-03
      1.75448805e-02 2.20223721e-02 6.58915285e-03 3.52702290e-02
      3.42106484e-02 -1.69061031e-02 6.43719977e-04 0. -1.04114506e-02
      -5.19710593e-03 -2.02147234e-02 -3.96414921e-02 1.70978159e-02
      1.77933425e-02 4.90919948e-02 2.09678616e-02 3.09139420e-03
      2.37773685e-03 8.92769778e-04 2.62311567e-02 -2.74505503e-02
      -2.66394150e-02 7.12287240e-03 3.37522328e-02 1.24275051e-02
      -1.46091459e-02 -8.41508713e-03 3.08267568e-04 1.25249680e-02
      -2.54203156e-02 3.63859511e-03 -1.17588723e-02 6.07602112e-02
      4.84539866e-02 7.81374797e-03 1.56760111e-03 8.66312912e-05
      6.91029290e-03 1.34417508e-02 0. -1.08979950e-02 5.23660844e-03
      1.87626816e-02 2.03637928e-02 2.37188283e-02 1.05523942e-02
      2.50029042e-02 6.91249641e-03 -1.79031249e-02 -2.26459466e-02
      -3.11895553e-02 -5.17019480e-02 -1.31963585e-02 -7.61074189e-04
      2.34496351e-02 1.18146455e-02 -1.44572894e-03 3.09431776e-02
      -1.51251222e-03 -2.52986848e-02 -1.47819705e-02 1.43431295e-02
      1.04179839e-02 4.90850210e-03 3.28433625e-02 1.38490237e-02
      2.41534654e-02 4.69326414e-03 1.48014957e-02 -5.52405603e-03
      -1.23563653e-03 0. -3.43987066e-03 3.93759720e-02 7.36383861e-03
      9.11019091e-03 -1.90424323e-02 4.07462493e-02 2.57218927e-02
      -2.34627333e-02 8.77585914e-03 -1.30817597e-03 -4.40343423e-03
      -3.27426419e-02 4.31572869e-02 8.54154211e-03 6.00482011e-03
      -1.26087908e-02 -2.49373391e-02 -3.26659270e-02 -2.54103113e-02
      4.08626311e-02 -9.29590664e-04 5.02081700e-02 9.42089316e-03
      4.07175981e-02 2.23637484e-02 -3.49842086e-02 4.12295433e-03
      -2.27856450e-02 -1.20977601e-02 2.28116214e-02 2.81872004e-02 0.
      -9.47403954e-04 2.33752690e-02 1.78857278e-02 5.80574060e-03
      1.55137875e-03 3.75391841e-02 4.00765501e-02 1.68431625e-02
      2.37446581e-03 1.17097714e-03 5.13685942e-02 8.45383480e-03
      2.28225328e-02 -6.68780049e-05 -9.15757474e-03 -1.60498358e-03
      2.96338070e-02 5.89840598e-02 9.55258217e-03 6.57695159e-02
      2.10101418e-02 2.86507905e-02 2.21818853e-02 4.03365865e-02
      2.18059923e-02 4.40376438e-02 5.60923256e-02 2.67158728e-02
      3.50725092e-02 4.01228778e-02 4.23882566e-02 0. -4.32962365e-02
      6.90326467e-03 -4.01909556e-03 -1.00724269e-02 -2.50029769e-02
      -5.13294945e-03 -1.27776880e-02 7.85904005e-03 3.61108929e-02
      1.81953888e-02 8.51904321e-03 1.52113894e-02 1.25159258e-02
      1.27275579e-03 -3.67890857e-02 1.01161962e-02 6.13767887e-03
      -4.56833318e-02 -2.30739675e-02 2.01488435e-02 1.22184195e-02
      6.69127854e-04 -1.64065342e-02 -3.27780917e-02 -1.33327227e-02
      -1.23954313e-02 3.28811370e-02 -9.99288727e-03 -1.82956085e-02
      -6.42708736e-03 6.46353699e-03 0. 3.16720759e-03 1.46880541e-02
      2.16843653e-03 4.90152761e-02 -3.91950645e-03 1.73030272e-02
      -2.12955405e-03 2.41762213e-02 2.28318553e-02 -1.73359085e-03
      9.63876583e-03 -9.47383582e-04 -1.54997008e-02 1.39710037e-02
      1.20636402e-03 2.24775802e-02 -1.80150699e-02 -1.15519753e-02
      -1.29574183e-02 1.93577241e-02 1.29764033e-02 3.11682895e-02
      2.09712442e-02 1.27589870e-02 2.56644767e-02 -7.49508897e-03
      -1.49466412e-03 2.83169784e-02 2.19618697e-02 2.81096692e-03
      6.70585316e-03 0. -5.91155775e-02 -1.94656923e-02 4.79651429e-03
      5.64775802e-03 4.35478240e-02 -2.61496822e-03 -2.75072828e-02
      -4.50882614e-02 -1.50087513e-02 6.03273697e-02 1.94733627e-02
      -3.70077044e-02 6.46730652e-03 -1.06297275e-02 2.59838309e-02
      4.39096056e-03 -2.62986496e-03 -2.29350738e-02 -7.93472398e-04
      -3.43184685e-04 -1.00166901e-04 -4.96981572e-03 1.46582825e-02
      -4.63828929e-02 -1.63278393e-02 -2.77849287e-02 -1.72493253e-02
      -1.08863469e-02 2.03046016e-02 -1.74818411e-02 -2.55792774e-02 0.
      1.57369729e-02 -6.03809766e-03 -3.46728228e-02 8.32165882e-04
      2.57041175e-02 -5.60364733e-03 -7.03667640e-04 -5.02968673e-03
      1.09863037e-03 2.52182968e-03 1.74646303e-02 1.91359408e-02
      1.06392512e-02 6.80366298e-03 -1.09434994e-02 -1.64323561e-02
      1.24642998e-02 7.09644798e-03 7.03310408e-03 1.88434571e-02
      6.67831535e-03 1.59752388e-02 5.13610691e-02 -2.40494683e-02
      -6.52645249e-03 -1.42987713e-03 1.85656082e-02 1.89867690e-02
      2.87367944e-02 -9.30212624e-03 -1.95304919e-02 0. 4.29533832e-02
      3.43603804e-03 -1.14329755e-02 -9.49241221e-03 7.52788261e-02
      5.29641658e-03 -6.14728080e-03 -2.58415360e-02 -5.23731187e-02
      -4.81535215e-03 1.13646826e-02 -4.31667175e-03 -4.84753167e-03
      -1.27245095e-02 -1.49268629e-02 2.80290246e-02 9.90397390e-03
      6.23036502e-03 -1.18182786e-02 1.71099952e-03 9.24170483e-03
      3.28724761e-03 4.25903276e-02 -1.11699449e-02 2.26635225e-02
      1.71236172e-02 -3.35788019e-02 -3.66401039e-02 1.75810903e-02
      1.12981079e-02 2.45307162e-02 0. -1.25352631e-03 3.58760427e-03
      -4.90426272e-03 3.34249139e-02 3.86676155e-02 8.51646885e-02
      1.00761726e-02 2.48397700e-03 -2.05728319e-02 -3.98444943e-02
      -7.03873485e-03 1.24242036e-02 -5.69073623e-03 -2.05036849e-02
      -2.16924548e-02 -1.48892691e-02 -7.57604325e-03 2.72744466e-02
      -1.63343102e-02 -1.13867912e-02 1.69328060e-02 1.44176902e-02
      -2.90855533e-03 2.90617570e-02 2.83071771e-03 -8.09389399e-04
      2.56995950e-02 -1.37763340e-02 3.81541885e-02 -1.98766068e-02
      2.80902106e-02 0. 4.19754758e-02 -2.59048995e-02 -5.50001226e-02
      -3.00672408e-02 3.59237865e-02 7.18676578e-03 3.81717063e-03
      1.62594058e-02 2.34855376e-02 -5.87783521e-03 -1.62892055e-03
      -1.62691120e-02 9.81853344e-04 -1.97774190e-02 -1.27905589e-02
      1.10893818e-02 -1.93416942e-02 -7.84527790e-03 2.74273865e-02
      -4.32592109e-02 -5.93946055e-02 -4.32759225e-02 -1.39814466e-02
      2.36271340e-02 2.22917926e-02 -2.39496143e-03 1.92003846e-02
      2.85738218e-03 -1.05124824e-02 -3.65521349e-02 1.88535936e-02 0.
      1.01561472e-02 -2.74951514e-02 2.30409037e-02 1.58267915e-02
      2.98995450e-02 1.79270692e-02 1.55516081e-02 -7.44026667e-03
      1.33202095e-02 -4.50838357e-03 6.87426748e-03 -4.32383735e-03
      -2.69635022e-02 -2.20741630e-02 -1.36178583e-02 9.65742802e-04
      -2.69717872e-02 1.70419842e-03 3.78281325e-02 1.58929527e-02
      3.12171113e-02 -8.99202004e-03 1.53253758e-02 7.91318249e-03
      2.06623040e-02 -2.35674325e-02 5.34595596e-03 -5.30100428e-03
      -8.40267632e-03 1.20715471e-02 2.51437956e-03 0. 7.32872123e-03
      -1.93315223e-02 -4.38826764e-03 -4.25857399e-03 -1.60480198e-02
      -1.82222053e-02 1.30285434e-02 1.01422854e-02 -1.67767908e-02
      -7.89713673e-03 2.06207600e-03 8.09777807e-03 6.58538425e-03
      2.75210720e-02 1.32711232e-02 1.26257949e-02 -6.50215847e-03
      -1.81253571e-02 2.49120910e-02 1.38268713e-03 7.15766521e-03
      -2.82474118e-03 -3.60400602e-03 -7.49978051e-03 1.12636322e-02
      -4.44023497e-03 -6.95686461e-03 -3.01562133e-03 3.51114577e-05
      -3.99414886e-04 -1.75232952e-03 0. -4.78744805e-02 1.58169642e-02
      2.16947384e-02 1.37140490e-02 -8.20291881e-03 1.68020790e-03
      -3.97667801e-03 4.68190424e-02 -3.91495004e-02 1.33582819e-02
      1.41350962e-02 -1.59750786e-03 1.97546482e-02 2.81005558e-02
      3.25074606e-02 4.71699536e-02 4.22094716e-03 1.97691377e-02
      -5.73900016e-03 3.99887748e-02 4.26193140e-02 1.79026257e-02
      2.50214152e-02 -1.35047892e-02 3.54461931e-02 3.37310582e-02
      -4.39807866e-03 9.47813131e-03 4.02331538e-02 1.21022603e-02
      2.20673662e-02 0. -1.81877296e-02 -1.24412344e-03 2.78629605e-02
      -6.34389464e-03 -7.67532783e-03 -1.43909352e-02 4.96226177e-03
      1.10309198e-02 1.33825969e-02 7.19113871e-02 -2.72694486e-03
      -5.82226552e-03 -6.49025617e-03 7.09971972e-03 2.21086293e-02
      -2.11521592e-02 4.53210697e-02 2.25861743e-02 5.16248979e-02
      2.66098306e-02 3.39274108e-02 -1.91385578e-02 -1.56890117e-02
      -3.62966373e-03 -1.51404142e-02 3.26862484e-02 1.92805007e-02
      -8.90020933e-03 4.09342572e-02 9.75942053e-03 2.52547301e-02 0.
      -2.24820594e-03 8.44758842e-03 3.22024971e-02 -8.79785698e-03
      1.56363635e-03 1.39804231e-02 -3.05168098e-03 1.39659978e-02
      -1.18114399e-02 -2.14885492e-02 -5.80446720e-02 7.78411049e-03
      -3.24594826e-02 -5.60255069e-03 2.67802943e-02 -8.53040349e-03
      -1.17592132e-02 -9.21904203e-03 -1.28598735e-02 -3.23780738e-02
      3.91486436e-02 -1.19954403e-02 1.35963121e-02 -1.20769767e-03
      7.21795438e-03 1.64194480e-02 -7.62977451e-03 -8.48886278e-03
      -1.55165242e-02 1.69903915e-02 -2.51762420e-02 0. 1.35503411e-02
      9.84104723e-03 3.71366777e-02 1.62652303e-02 1.24229304e-02
      1.73054431e-02 -1.38014918e-02 -8.47273227e-03 -1.01478575e-02
      1.52889881e-02 -5.92698231e-02 -3.25570405e-02 2.46546958e-02
      2.10293736e-02 4.11684699e-02 5.55002838e-02 4.74141166e-02
      -6.57789293e-04 -1.93666574e-03 -4.29097377e-02 3.66725912e-03
      3.07389218e-02 3.50015797e-03 1.94294713e-02 3.48677970e-02
      2.21011396e-02 -1.27054779e-02 -1.18902074e-02 6.56491751e-03
      5.36690466e-02 3.96528915e-02 0. -1.88213158e-02 -4.05021827e-04
      -2.83661298e-02 -3.55828814e-02 -3.61465709e-03 2.22184621e-02
      -4.37777564e-02 -3.24444249e-02 -1.77150667e-02 6.48812996e-03
      5.18593891e-03 3.81684862e-03 -7.98387080e-03 -1.31072048e-02
      3.49049270e-02 2.04653274e-02 1.49887078e-03 3.37568368e-03
      -1.64181869e-02 1.41375950e-02 -1.42379971e-02 -3.71527821e-02
      -1.09923137e-02 -3.66436155e-03 -2.75354609e-02 -2.21687574e-02
      -1.26102427e-02 -1.09356921e-02 1.07322894e-02 -3.90324593e-02
      -9.72569920e-03 0. 1.11470344e-02 -7.84358941e-03 -3.86737175e-02
      -2.33195219e-02 2.06120759e-02 -9.91958659e-04 -2.19703489e-03
      -4.64660436e-04 3.01941354e-02 -8.15158943e-04 -1.22510372e-02
      -2.31808564e-03 -2.17862763e-02 -9.94341169e-03 3.32070440e-02
      -6.72072219e-03 1.89456600e-03 -1.97709762e-02 1.45939877e-02
      7.08665466e-05 -3.78080681e-02 -3.01080737e-02 2.89915595e-02
      3.09400423e-03 6.35569682e-03 -4.13626479e-03 5.12477942e-03
      2.52968259e-03 1.76155530e-02 -3.22018340e-02 -1.15328692e-02 0.
      2.40265895e-02 -6.81053922e-02 6.01196941e-03 -1.14995828e-02
      3.74179222e-02 1.86799318e-02 7.43176118e-02 5.88444024e-02
      4.81941849e-02 -1.66225340e-02 -1.76107567e-02 3.06535028e-02
      -2.09057331e-02 2.04629488e-02 1.89427461e-03 -1.01238117e-02
      -2.95952987e-03 -2.89573632e-02 2.49114595e-02 -5.20612560e-02
      2.24941801e-02 -1.46431671e-02 8.98100063e-03 8.03529285e-03
      3.77653167e-02 4.94278446e-02 2.08670944e-02 1.12668276e-02
      5.69912186e-03 2.50396729e-02 2.57433299e-02 0. -4.64712456e-03
      -3.56055796e-02 2.08074637e-02 -2.10852548e-02 2.76715904e-02
      4.41736169e-02 -2.68529244e-02 2.07459349e-02 1.57947931e-02
      2.31671911e-02 3.73763107e-02 2.03990750e-02 -9.53020155e-03
      6.73317444e-03 1.15164649e-02 -2.26681773e-02 -6.33408688e-03
      -4.28623334e-02 -9.20903124e-03 1.87941815e-03 2.13201717e-02
      -1.72320437e-02 9.35197622e-03 3.11470293e-02 -4.46835607e-02
      1.83268711e-02 -4.50156964e-02 1.38107911e-02 4.83887561e-04
      1.58296842e-02 -2.40607676e-03 0. 1.25757745e-02 8.15365172e-04
      -2.06903294e-02 -1.63683239e-02 -2.42839614e-03 4.39399965e-02
      -3.70340906e-02 7.29963416e-03 -7.00672120e-02 -2.32705027e-02
      -2.88470332e-02 1.41556910e-03 4.38480861e-02 4.02272940e-02
      2.54665432e-03 3.32106873e-02 3.94373238e-02 -3.42954067e-03
      -7.40588829e-03 -2.62462441e-02 -2.13278960e-02 2.23511155e-03
      2.50178780e-02 3.50865424e-02 -1.16090402e-02 4.02005278e-02
      -4.70337644e-02 5.96770260e-04 -2.66966014e-03 1.02106342e-02
      2.78975931e-03 0. -2.95681600e-02 -3.51242498e-02 -1.57150812e-02
      -2.09454671e-02 1.15047833e-02 1.89504791e-02 -1.44138290e-02
      3.09769474e-02 1.35020539e-02 2.10806243e-02 1.28155295e-02
      2.76470953e-03 -8.73398967e-03 3.73669788e-02 4.49583977e-02
      2.09258292e-02 4.22114693e-02 -2.63315551e-02 -7.72423344e-03
      -1.86555777e-02 2.52125249e-03 -1.66582689e-02 3.24289054e-02
      3.95314321e-02 -2.75786128e-03 4.94529940e-02 -9.38530266e-03
      -2.23477185e-02 7.38565950e-03 3.68919633e-02 2.81447861e-02 0.
      1.44495191e-02 -3.59121431e-03 7.43189827e-03 3.04251295e-02
      -1.35426614e-02 -2.70566382e-02 1.38950571e-02 1.61758699e-02
      -4.32490781e-02 1.62027497e-02 -6.53475299e-02 -1.26025127e-02
      -9.95783135e-03 -2.80214120e-02 -1.34797972e-02 -5.52184042e-03
      -7.55868200e-03 -4.24672663e-02 2.48165093e-02 -4.53442931e-02
      3.40107689e-03 2.73024756e-02 -8.21373251e-04 -3.23228054e-02
      2.47474909e-02 1.04398113e-02 -6.48397878e-02 -1.18544546e-03
      -3.95849794e-02 -1.18571818e-02 -2.93093584e-02 0. 3.42155658e-02
      6.30144542e-03 2.44964324e-02 7.18909409e-03 -2.21191533e-02
      -2.07606759e-02 -1.87926716e-03 2.09394866e-03 -2.02549412e-03
      3.23040667e-03 -1.23839118e-02 1.38816144e-03 3.02803852e-02
      6.31890679e-03 2.26773638e-02 1.18036261e-02 8.44746362e-03
      1.13312667e-02 -1.22609707e-02 5.81390038e-03 2.56986599e-02
      2.46333033e-02 3.66572617e-03 8.01783800e-03 6.91556092e-03
      -4.84494446e-03 1.84323788e-02 4.20577591e-03 -3.20352502e-02
      5.82420528e-02 2.17268933e-02 0. 1.08314054e-02 2.92497855e-02
      -1.54023310e-02 -6.72965031e-03 -3.83799023e-04 -4.15208982e-03
      1.84589773e-02 -1.17884511e-02 -9.99219343e-03 -3.27751264e-02
      -1.68306027e-02 -2.23636869e-02 -9.54724674e-04 4.60152104e-02
      5.67810982e-03 5.71405469e-03 -1.15684059e-03 1.13696521e-02
      -9.45503241e-04 1.13924546e-02 -2.04909779e-02 -1.17439991e-02
      -8.07542936e-04 1.41916228e-02 -3.15366499e-03 -4.20422805e-03
      2.53723748e-03 4.96394327e-03 2.80060165e-04 1.92536581e-02
      -2.22407356e-02 0. 5.21219429e-03 1.15248300e-02 -1.45037007e-03
      -2.50809398e-02 2.48810146e-02 4.00328711e-02 1.94174424e-02
      1.15096197e-02 1.92774292e-02 -1.62138715e-02 1.68972276e-02
      5.39335608e-03 1.46035748e-02 -2.10453589e-02 1.69364940e-02
      1.08878901e-02 -1.28044136e-04 -1.98988039e-02 -9.76731419e-04
      2.82471292e-02 4.21876321e-03 1.26261814e-02 2.34257374e-02
      3.35722379e-02 1.07434941e-02 1.37420008e-02 1.48274945e-02
      3.37175466e-02 2.37844549e-02 -8.14756285e-03 3.79900751e-03 0.
      -1.05579523e-03 -8.40694061e-04 1.67902820e-02 -1.18115228e-02
      -4.14040387e-02 1.89056527e-02 -5.23392996e-03 2.07696459e-03
      1.43546155e-02 -8.03278759e-03 2.04279274e-02 2.83786971e-02
      1.92167480e-02 6.32245699e-03 -2.89066769e-02 -6.94358675e-03
      -1.46778543e-02 -2.03601718e-02 1.78269148e-02 2.46221144e-02
      3.94485667e-02 1.67049700e-03 3.21590668e-03 6.78954273e-03
      -3.86701152e-03 -3.59589094e-03 1.33294910e-02 1.61735006e-02
      -2.31233593e-02 8.47923977e-04 7.09669184e-05 0. -3.93595733e-02
      5.44886710e-03 9.37572867e-03 1.82059519e-02 2.46989131e-02
      -7.59898685e-03 1.50241097e-02 2.30414737e-02 1.00341486e-03
      1.79096796e-02 -1.50751276e-02 -8.25606845e-03 -2.58549247e-02
      -5.08516468e-02 -2.08883337e-03 -2.27164738e-02 -3.70516591e-02
      -3.94957066e-02 -4.87163011e-03 -7.09413132e-03 -4.97726863e-03
      -7.77536910e-03 5.60319237e-03 -1.38564780e-03 -1.52443219e-02
      -2.39743069e-02 -2.68301293e-02 -2.52603786e-03 -2.61273738e-02
      -3.59874242e-03 -3.07461563e-02 0. -2.45697647e-02 -2.68679447e-02
      2.46670675e-02 9.26762912e-03 3.26027125e-02 -4.05224115e-02
      -2.13871105e-03 1.24814305e-02 -4.99230437e-03 4.72533563e-03
      -2.45051589e-02 -3.93001698e-02 4.73965658e-04 -5.17031774e-02
      3.14595923e-02 1.61671210e-02 1.44801307e-02 1.59846079e-02
      -2.25802027e-02 -3.33410650e-02 5.97244361e-03 1.21814478e-02
      -3.98534257e-03 -2.27334499e-02 1.06173037e-02 2.38483865e-02
      1.25660021e-02 -8.79676640e-03 -1.41109116e-02 2.13228799e-02
      -2.30647326e-02 0. -1.03626763e-02 -2.67015118e-02 -8.16857151e-04
      6.49816822e-03 -1.83209330e-02 -3.30290049e-02 1.61128733e-02
      7.74051901e-03 -1.92018524e-02 2.97069773e-02 3.64118442e-02
      1.32318083e-02 -1.64558161e-02 -5.34149669e-02 5.52619509e-02
      -7.01278495e-03 8.87842104e-03 -4.18654876e-03 1.42751411e-02
      1.09338211e-02 1.54167125e-02 -1.77550483e-02 -4.87043569e-03
      -9.73550882e-03 -2.11868752e-02 1.84569936e-02 -1.94524191e-02
      -2.09723786e-02 -2.84766424e-02 2.61222031e-02 1.59445237e-02 0.</_></support_vectors>
  <decision_functions>
    <_>
      <sv_count>1</sv_count>
      <rho>1.2130308668806760e+00</rho>
      <alpha>
        1.</alpha>
      <index>
        0</index></_></decision_functions></my_svm>
</opencv_storage>
