<?xml version="1.0"?>
<opencv_storage>
<my_svm type_id="opencv-ml-svm">
  <svm_type>C_SVC</svm_type>
  <kernel><type>LINEAR</type></kernel>
  <C>1.0000000000000001e-01</C>
  <term_criteria><epsilon>2.2204460492503131e-16</epsilon>
    <iterations>6000</iterations></term_criteria>
  <var_all>128</var_all>
  <var_count>128</var_count>
  <class_count>2</class_count>
  <class_labels type_id="opencv-matrix">
    <rows>1</rows>
    <cols>2</cols>
    <dt>i</dt>
    <data>
      -1 1</data></class_labels>
  <sv_total>1</sv_total>
  <support_vectors>
    <_>
      -1.72516942e-01 -5.52041456e-02 -1.45693710e-02 -7.94136822e-02
      -7.50675574e-02 -6.76729679e-02 -6.53386265e-02 -7.62226507e-02
      -6.91698864e-02 -9.49356407e-02 2.69562900e-01 2.75620878e-01
      2.27566853e-01 -1.06621027e-01 -1.76609203e-01 -1.22728236e-01
      -7.14265257e-02 -4.21619527e-02 -1.23856768e-01 2.04836398e-01
      1.95413396e-01 1.58230990e-01 -1.03630073e-01 -2.20743343e-01
      -1.76459551e-01 -1.43680453e-01 -1.11331835e-01 -5.01064695e-02
      -5.59501536e-02 -7.39846602e-02 -6.36290386e-02 0. -6.03219606e-02
      1.30445305e-02 -3.71970497e-02 -2.95987800e-02 -6.63723722e-02
      -1.09628059e-01 -9.50046778e-02 -4.79796194e-02 -3.79477330e-02
      -1.07475296e-01 6.58678412e-02 1.35325342e-01 8.22137073e-02
      -8.96393508e-02 -1.10480465e-01 1.90486401e-01 2.20033586e-01
      1.45647556e-01 -7.83556253e-02 7.89123699e-02 1.15981042e-01
      6.37402758e-02 -9.34135541e-02 -1.74934000e-01 1.07026488e-01
      1.62519276e-01 1.07902758e-01 3.95608917e-02 3.94269004e-02
      -1.85192544e-02 -3.17255706e-02 0. -1.11029688e-02 2.08625644e-01
      -4.92748991e-03 -1.81389134e-02 -7.00719655e-02 8.68017897e-02
      -5.52884582e-03 9.20747872e-03 8.43980387e-02 -1.12570576e-01
      1.77300535e-02 -1.05080912e-02 -3.05542368e-02 3.60932387e-02
      2.21828848e-01 2.42498964e-01 2.60216475e-01 9.64647681e-02
      5.83978230e-03 1.93204537e-01 -1.54355913e-02 -4.07337695e-02
      4.11460400e-02 1.48019180e-01 1.70062274e-01 2.27536440e-01
      1.81043074e-01 1.23581633e-01 1.30831152e-01 1.14966117e-01
      1.02238998e-01 0. 7.63819963e-02 2.80671179e-01 7.66618503e-03
      -1.28096655e-01 -1.38150007e-01 4.00650948e-02 4.53040116e-02
      1.09855225e-02 3.50521021e-02 -2.08284073e-02 -6.07587919e-02
      -6.24581166e-02 -5.60640730e-02 -6.25689775e-02 2.26984903e-01
      1.61148310e-01 -2.51355600e-02 8.38722363e-02 9.01646763e-02
      1.77715018e-01 -5.09259067e-02 -1.62944183e-01 -1.17878981e-01
      1.76478535e-01 1.83126867e-01 -1.41500402e-02 1.18924335e-01
      6.31916896e-02 8.53076428e-02 1.86198354e-02 2.80738603e-02 0.</_></support_vectors>
  <decision_functions>
    <_>
      <sv_count>1</sv_count>
      <rho>1.2661934252290012e+00</rho>
      <alpha>
        1.</alpha>
      <index>
        0</index></_></decision_functions></my_svm>
</opencv_storage>
