<?xml version="1.0"?>
<opencv_storage>
<my_svm type_id="opencv-ml-svm">
  <svm_type>C_SVC</svm_type>
  <kernel><type>LINEAR</type></kernel>
  <C>1.0000000000000001e-01</C>
  <term_criteria><epsilon>2.2204460492503131e-16</epsilon>
    <iterations>100000</iterations></term_criteria>
  <var_all>2688</var_all>
  <var_count>2688</var_count>
  <class_count>2</class_count>
  <class_labels type_id="opencv-matrix">
    <rows>1</rows>
    <cols>2</cols>
    <dt>i</dt>
    <data>
      -1 1</data></class_labels>
  <sv_total>1</sv_total>
  <support_vectors>
    <_>
      7.66820908e-02 -1.06191777e-01 1.05931640e-01 -2.83386689e-02
      3.57279554e-02 9.68014151e-02 -1.02469198e-01 -9.23897922e-02
      5.15777338e-03 4.20117006e-02 -6.95614517e-02 -1.72739625e-02
      6.87896311e-02 4.36455496e-02 3.02986591e-04 -1.15853637e-01
      -9.44384933e-03 -5.07555343e-02 1.34738699e-01 -1.99409910e-02
      6.01282082e-02 4.02557515e-02 6.35438040e-02 7.14301169e-02
      -1.14430778e-01 -7.25969747e-02 8.03334545e-03 -7.51479343e-03
      -2.25171484e-02 -1.80824623e-02 -7.14648049e-03 0. 1.98951438e-02
      -1.44718796e-01 -4.24735667e-03 -7.51033202e-02 -2.92732809e-02
      6.55959398e-02 -7.37849101e-02 -8.99201781e-02 -7.39827380e-02
      6.14022501e-02 -2.43387260e-02 8.18082616e-02 7.68581629e-02
      -5.90108940e-03 3.73082198e-02 -1.96607020e-02 -1.14884637e-01
      -1.98802631e-02 9.74006504e-02 -5.61691187e-02 3.66371721e-02
      2.12585703e-02 2.60021212e-03 7.73400487e-03 -5.48885465e-02
      -1.28882185e-01 -6.24303855e-02 -6.25829026e-02 -4.27484289e-02
      -8.45736172e-03 -4.31064330e-02 0. -4.61602658e-02 -2.13355318e-01
      -1.21079706e-01 2.58944407e-02 9.09478590e-02 1.67057991e-01
      -4.71199639e-02 -4.36558686e-02 7.38867596e-02 7.89103284e-02
      -1.20505817e-01 5.55236302e-02 1.57532603e-01 1.09527029e-01
      9.58213136e-02 -4.94751222e-02 -1.67264387e-01 -1.25035197e-01
      -1.37455761e-02 -2.05584690e-01 -4.17601317e-02 1.85112223e-01
      1.99588329e-01 2.28308946e-01 -1.61129963e-02 -1.75857797e-01
      -1.33568458e-02 -3.05083692e-02 3.48054878e-02 -2.95639839e-02
      -1.17614940e-02 0. 4.32462581e-02 -5.66705912e-02 -4.74822968e-02
      2.18744241e-02 6.18512183e-02 1.14687078e-01 -3.80394720e-02
      -8.86511877e-02 -6.59833401e-02 4.72177416e-02 -1.00763142e-01
      -9.69050918e-04 1.65001582e-02 -1.83915868e-02 7.61297792e-02
      2.81010196e-02 -7.83131942e-02 -1.54713869e-01 7.97197297e-02
      -1.11832060e-01 -1.44653544e-02 4.50970568e-02 8.10162798e-02
      1.62219852e-01 7.32349753e-02 -9.49108154e-02 -1.30790010e-01
      -1.65054090e-02 3.41584310e-02 -1.32373035e-01 1.40957418e-03 0.
      5.64411804e-02 -3.84162217e-02 -1.61585480e-01 -1.39288204e-02
      1.92570209e-03 7.17197806e-02 -6.94614425e-02 -5.34784943e-02
      -1.03303343e-01 1.91530157e-02 -1.19173691e-01 -9.76866670e-03
      3.69106117e-03 -4.81404290e-02 4.11542803e-02 6.86978027e-02
      -4.31434698e-02 -1.00493105e-02 3.65484990e-02 -1.03941329e-01
      -1.09462813e-01 1.81450901e-04 -6.07796758e-02 1.49499223e-01
      1.64341722e-02 -1.13333538e-01 -3.42526473e-02 -5.99879920e-02
      -2.76956949e-02 -1.04925953e-01 4.35612397e-04 0. 2.90929980e-04
      -2.98426785e-02 -6.32430688e-02 -1.12717800e-01 -1.05576150e-01
      2.07552269e-01 1.11536637e-01 -1.70039963e-02 -2.35987194e-02
      1.80825710e-01 7.03648338e-03 1.02542333e-01 6.92013428e-02
      -3.96432430e-02 5.22941165e-02 -4.61764075e-02 -1.51702806e-01
      -8.68812650e-02 1.15668185e-01 6.62194937e-02 4.38990146e-02
      -1.64961792e-03 -1.09152541e-01 2.31468573e-01 9.06133559e-03
      -8.04938674e-02 8.05984251e-03 8.52609333e-03 1.72298718e-02
      -2.11911350e-02 2.13120375e-02 0. -8.57849568e-02 -7.54438862e-02
      -7.34931752e-02 3.61650214e-02 -6.26917556e-02 9.84586850e-02
      -6.73566610e-02 -1.78688094e-02 7.65725672e-02 1.11282870e-01
      -8.53239074e-02 -7.98814595e-02 -6.80339942e-03 -6.49423152e-02
      -4.69329916e-02 1.40585914e-01 4.34405021e-02 -1.16109392e-02
      4.53364700e-02 -1.07561767e-01 -1.07935362e-01 5.30510955e-02
      -5.21284901e-03 6.39321059e-02 1.07719645e-01 5.58743514e-02
      8.92732665e-02 -3.72282341e-02 2.76809670e-02 -8.25231299e-02
      1.11646205e-02 0. 5.31082712e-02 -9.22418907e-02 -1.19905978e-01
      -8.57046619e-03 -1.86149515e-02 3.01314220e-02 -1.77555438e-02
      2.11911052e-02 9.19853598e-02 2.43048206e-01 1.01065353e-01
      1.16140947e-01 4.60415035e-02 -5.40944748e-02 -1.06135845e-01
      2.97399890e-02 -5.17796837e-02 3.08355521e-02 2.22736612e-01
      7.73523897e-02 4.12065312e-02 5.14094857e-03 -8.30503106e-02
      -2.65576728e-02 1.32395336e-02 3.88180697e-03 1.34504795e-01
      -1.83093976e-02 3.05962544e-02 3.10065839e-02 9.53871980e-02 0.
      -1.68447336e-03 9.31325108e-02 7.47878850e-02 1.60030946e-01
      -2.58365832e-02 9.88390520e-02 -1.64469573e-04 6.30583093e-02
      9.11549106e-02 1.01066232e-01 1.16745330e-01 1.07459597e-01
      8.61381590e-02 6.96752369e-02 5.24846613e-02 -9.90239438e-03
      2.99102794e-02 6.17482550e-02 1.77066565e-01 1.97408170e-01
      2.28549898e-01 1.99804068e-01 3.45411636e-02 1.11941695e-01
      -3.73774469e-02 8.41269866e-02 1.41689986e-01 1.26545936e-01
      1.61707222e-01 7.29513988e-02 1.89693958e-01 0. -1.52974315e-02
      6.20560870e-02 5.01576886e-02 3.81874070e-02 -9.59567446e-03
      6.64277896e-02 1.12596259e-01 9.17276740e-02 2.24627569e-01
      1.60619784e-02 1.01084694e-01 3.28186341e-02 7.94821903e-02
      6.58456385e-02 1.25736326e-01 6.81398138e-02 9.22109708e-02
      6.45796433e-02 1.45237982e-01 1.48664847e-01 6.34366646e-02
      3.25374492e-02 5.94294779e-02 2.14652404e-01 1.51270568e-01
      1.74384266e-01 2.12931663e-01 1.59068346e-01 2.02609017e-01
      7.53427669e-02 1.60171658e-01 0. 1.49652317e-01 2.87834499e-02
      -4.02181223e-02 1.82672578e-03 -4.82625775e-02 2.54006404e-02
      6.81988243e-03 -4.35393900e-02 4.50999849e-02 9.62261930e-02
      -3.85489874e-02 -6.53148675e-03 1.83146298e-02 -1.05722204e-01
      3.64860892e-02 -6.73934668e-02 4.71936865e-03 -1.11890892e-02
      1.67775020e-01 4.03853692e-02 -3.66267264e-02 9.29271989e-03
      -5.64761236e-02 1.29422277e-01 -3.66298854e-02 -4.46160696e-02
      6.13224953e-02 4.47574370e-02 -3.16969166e-03 -4.77604456e-02
      3.06496639e-02 0. 1.24262189e-02 -6.21057814e-03 -2.33515985e-02
      1.08371284e-02 -1.71232015e-01 6.51466921e-02 1.60295237e-02
      1.42830834e-02 -7.27646500e-02 1.15755968e-01 4.34046723e-02
      -5.38806804e-02 1.34775192e-01 3.88443805e-02 5.42049408e-02
      -3.82008366e-02 -1.33571088e-01 -1.07239567e-01 8.35912898e-02
      1.02049895e-02 -1.73865892e-02 1.60934120e-01 -5.37225157e-02
      2.32543409e-01 1.37827639e-02 -9.77144167e-02 -1.32181540e-01
      1.84792243e-02 -5.95258959e-02 4.37352760e-03 -1.08172093e-02 0.
      -2.30197180e-02 -6.83928207e-02 5.01580350e-02 3.76881361e-02
      -4.95891646e-02 1.75315022e-01 -2.00707000e-02 -3.49119715e-02
      -4.22203988e-02 -4.73585129e-02 -2.51728687e-02 -2.43028533e-02
      1.12003004e-02 1.01532787e-01 -1.16826277e-02 -3.09543330e-02
      -2.37181243e-02 2.13182662e-02 -6.39357939e-02 1.11624487e-02
      2.51915809e-02 3.22032422e-02 1.45505413e-01 1.75177693e-01
      1.80241663e-03 -4.08275090e-02 -2.13194732e-02 -1.77689213e-02
      3.81813310e-02 -2.04043631e-02 -1.97923440e-03 0. -7.01285899e-02
      -2.94111837e-02 3.60707231e-02 -5.66063728e-03 4.48148698e-02
      3.04604303e-02 -6.35649785e-02 1.18573718e-01 -1.44818816e-02
      4.48564024e-05 2.07019914e-02 1.18886344e-01 2.23948155e-02
      4.25035059e-02 -6.22663684e-02 -7.24722892e-02 -1.15546109e-02
      -9.41444337e-02 -1.05581619e-02 6.00303151e-02 1.88408703e-01
      4.59697284e-02 1.18698440e-01 4.39995974e-02 -8.62739161e-02
      6.64354563e-02 -2.26953588e-02 2.71662511e-02 -2.34042536e-02
      -3.98201197e-02 4.11333330e-02 0. -1.64380506e-01 -2.55175363e-02
      1.15201861e-01 7.91284665e-02 -1.50099527e-02 8.20710063e-02
      5.40935919e-02 9.57518369e-02 5.45154810e-02 -6.15441725e-02
      8.73971656e-02 1.81304097e-01 1.27757072e-01 -2.88998298e-02
      -1.01329572e-01 -2.88257636e-02 1.83773302e-02 -7.00948909e-02
      -8.57904404e-02 1.09268881e-01 2.60965019e-01 1.94955096e-01
      4.26432043e-02 3.24361511e-02 5.12395576e-02 1.08576804e-01
      1.98358800e-02 1.46125242e-01 1.47062205e-02 1.11549776e-02
      1.65715162e-02 0. -1.37524292e-01 1.25978887e-01 9.40293297e-02
      -3.70089337e-02 3.78036723e-02 1.22140795e-01 1.39025643e-01
      1.47573784e-01 -4.28825766e-02 -1.03354193e-01 2.16373149e-02
      3.11444178e-02 1.42500833e-01 -8.51287041e-03 -3.08442581e-02
      -4.18674666e-03 1.17829502e-01 1.02865271e-01 -2.88168751e-02
      1.16969988e-01 1.15825653e-01 6.66332468e-02 8.20753202e-02
      1.37381569e-01 1.25095427e-01 2.00772107e-01 1.03477396e-01
      1.37029827e-01 5.58938235e-02 1.24011375e-01 2.16317810e-02 0.
      -4.49464954e-02 4.61668661e-03 4.87654172e-02 -2.88963635e-02
      -3.81309190e-04 1.32033616e-01 -1.79881006e-02 7.09208027e-02
      -4.42749187e-02 -4.25545573e-02 2.40515172e-03 -2.05866750e-02
      -2.89016701e-02 -8.28071460e-02 -3.67347174e-03 -3.84364799e-02
      8.30378830e-02 -3.23069096e-02 4.55686748e-02 3.36384736e-02
      1.98026784e-02 -3.17319781e-02 -3.48426327e-02 1.47880167e-01
      3.48552577e-02 1.66903421e-01 3.46740633e-02 1.17495870e-02
      3.60772721e-02 -1.27130654e-02 -5.58433682e-02 0. -1.01672888e-01
      3.67224924e-02 -1.65881775e-02 1.05505966e-01 -3.36994566e-02
      8.47777203e-02 -3.87223773e-02 3.65269370e-02 -3.74472961e-02
      3.16136554e-02 2.33997665e-02 3.82586829e-02 -2.69522555e-02
      -3.43322307e-02 -3.53233106e-02 -7.13028163e-02 -1.20302953e-01
      -7.85746276e-02 -7.14572221e-02 3.90931554e-02 -1.45538794e-02
      8.24753717e-02 -1.26212807e-02 9.84786376e-02 -4.09076028e-02
      -1.18282408e-01 -5.35530709e-02 -5.22100292e-02 -3.47765647e-02
      -2.19787806e-02 -3.28119053e-03 0. -7.24452287e-02 -4.59624715e-02
      -2.12949309e-02 -1.20460680e-02 1.16989739e-01 7.17047155e-02
      5.92664331e-02 1.01651065e-01 -5.72377816e-02 -5.65422066e-02
      4.05591950e-02 7.80916810e-02 9.90043767e-03 -1.16311207e-01
      -1.16559424e-01 -4.20294255e-02 -2.66433731e-02 1.05861649e-02
      1.48420222e-02 3.62556502e-02 5.08869253e-02 1.04698632e-02
      -6.13112077e-02 3.71473022e-02 -3.62579189e-02 4.54686768e-02
      6.61688074e-02 1.02432957e-02 -9.14071128e-02 1.20343439e-01
      -7.61009455e-02 0. -9.55931768e-02 9.33841541e-02 1.47923961e-01
      -1.01033427e-01 -5.96446022e-02 1.10670244e-02 -4.01018634e-02
      9.64908525e-02 -1.03052467e-01 -5.44102192e-02 9.83284488e-02
      2.05228299e-01 8.58383626e-02 -7.96387792e-02 -5.90629540e-02
      -2.88711190e-02 -4.87492345e-02 -5.73811792e-02 1.62329606e-03
      1.47368655e-01 2.87756354e-01 1.41835762e-02 -1.47680730e-01
      -4.07396667e-02 -4.90282625e-02 -2.25404911e-02 -1.02791488e-01
      1.04450218e-01 -5.66289239e-02 2.18439028e-02 -6.46108091e-02 0.
      -1.65256023e-01 1.40453307e-02 1.65875778e-01 3.40278493e-04
      -3.91785838e-02 -4.26592119e-02 -2.67880838e-02 5.26754931e-03
      -4.40513156e-02 -2.95352966e-01 -5.24277752e-03 5.86118735e-02
      2.30153799e-02 -2.88642943e-02 1.41052566e-02 -3.79806273e-02
      -2.99761053e-02 -1.14794105e-01 -2.00170696e-01 -3.71189117e-02
      1.13159686e-01 4.93706726e-02 -6.18083589e-02 -6.17938377e-02
      -9.65968054e-03 1.77780017e-02 -6.67074323e-02 5.82123734e-02
      -1.01103812e-01 -5.93696125e-02 -1.56482220e-01 0. -1.96471870e-01
      -1.06243111e-01 1.48921674e-02 -6.84527978e-02 -3.78542603e-03
      -3.30453515e-02 1.51724285e-02 1.09687053e-01 9.67185348e-02
      -9.59895849e-02 -6.46390617e-02 6.64292723e-02 2.03704685e-02
      -6.15330189e-02 7.80691803e-02 4.11351584e-03 1.26105055e-01
      6.01222999e-02 -5.83074093e-02 -1.13262877e-01 7.27163553e-02
      -6.93469420e-02 -1.09732643e-01 3.06648109e-02 4.36522700e-02
      1.57595709e-01 8.98412615e-02 4.27164026e-02 -3.84674668e-02
      6.37578890e-02 -8.61463919e-02 0. -9.79223922e-02 -1.34869158e-01
      -5.10748588e-02 -1.82885639e-02 -1.28821656e-02 -6.95485920e-02
      -5.25769666e-02 4.48301248e-02 1.01394482e-01 1.43277431e-02
      -2.83608902e-02 2.37745997e-02 -2.33441219e-02 5.21868700e-03
      1.02251852e-02 2.31808648e-02 1.61225319e-01 9.84604955e-02
      5.22575602e-02 -1.17709592e-01 -6.56480268e-02 -3.67741063e-02
      -3.36624272e-02 -1.84341352e-02 8.83796439e-03 2.35447124e-01
      1.43293113e-01 3.40033992e-04 -7.04216631e-03 6.13637865e-02
      -5.75985722e-02 0. -4.91091087e-02 -5.88786565e-02 3.62153724e-02
      1.75179932e-02 2.54437048e-02 7.95722008e-02 -9.98077542e-03
      2.78824940e-02 -4.21344675e-03 1.54694011e-02 -6.19365051e-02
      5.19412532e-02 1.69397183e-02 4.37601805e-02 -8.55090022e-02
      -5.79811707e-02 2.81252414e-02 -4.37328592e-02 -5.08870231e-04
      -6.69867843e-02 4.72800210e-02 -3.85685302e-02 -3.21342945e-02
      2.45586820e-02 -4.07646596e-02 -8.65497161e-03 -4.50750105e-02
      1.43897347e-02 -1.09297745e-02 -5.83462231e-03 -1.10479826e-02 0.
      -8.17802250e-02 5.36996387e-02 3.89887094e-02 -7.13564605e-02
      -5.78719249e-04 9.14587155e-02 -6.19179904e-02 5.30178659e-04
      -5.46876043e-02 -4.64357883e-02 3.06437388e-02 1.54452428e-01
      -1.26021713e-01 1.55154234e-02 1.03452884e-01 -1.35945886e-01
      5.77042624e-02 1.83143709e-02 6.49930770e-03 1.79983713e-02
      1.11531131e-01 -1.25507012e-01 4.51612845e-02 1.38772413e-01
      -1.64074302e-01 9.58885718e-03 -3.82230617e-02 -1.29482457e-02
      -7.79909939e-02 1.11287773e-01 -2.69311722e-02 0. -2.30430644e-02
      4.06442061e-02 1.27553176e-02 -9.86409038e-02 -1.90309733e-01
      -5.51947467e-02 -5.14627956e-02 1.06292948e-01 1.16776496e-01
      4.20815870e-02 1.21311076e-01 1.18597560e-01 8.61189235e-03
      -4.02064063e-02 -9.11742300e-02 -1.10559650e-01 5.81980608e-02
      8.15243050e-02 1.44147024e-01 9.10604671e-02 1.21419802e-01
      -3.77221890e-02 -1.51447311e-01 -9.39098373e-02 -9.17184502e-02
      1.14599884e-01 1.07139610e-01 5.92978783e-02 -1.04141245e-02
      1.18840421e-02 -3.89882065e-02 0. 5.02255419e-03 -6.39587874e-04
      -6.60675466e-02 -1.43090591e-01 -7.31573105e-02 -5.99108115e-02
      -1.15260661e-01 -7.93711096e-02 2.44151545e-03 -6.29089633e-03
      7.85413757e-03 1.55406049e-03 -1.65793858e-02 -3.68956500e-03
      7.28394045e-03 -2.03692652e-02 -2.43874937e-02 2.74742302e-02
      3.78752202e-02 -4.11933213e-02 -6.01503551e-02 -1.71811149e-01
      -1.40646130e-01 -4.09338251e-02 -1.24622360e-01 -5.60276844e-02
      -8.19378439e-03 -8.23701546e-03 -5.94940111e-02 -8.76318291e-02
      -1.07293606e-01 0. -2.07693260e-02 -4.72711995e-02 -1.20062090e-01
      -1.40546858e-01 -1.25514224e-01 -2.70856358e-02 -2.05941454e-01
      -4.06905152e-02 9.74190459e-02 7.73393065e-02 6.67364448e-02
      2.22390536e-02 1.80576555e-02 -1.55760758e-02 1.08016461e-01
      -1.79772153e-02 -6.75854906e-02 6.33579772e-03 1.05598040e-01
      -2.34550759e-02 -7.67052323e-02 -1.15388632e-01 -1.04808822e-01
      1.09724412e-02 -2.14082912e-01 -1.23474590e-01 4.41531949e-02
      -5.29869981e-02 -8.09778050e-02 -7.63166638e-04 -6.93299100e-02 0.
      -6.16010316e-02 5.97127154e-02 5.03898598e-02 -4.77042384e-02
      -1.36905387e-01 -7.37632513e-02 -1.88473865e-01 -6.63403124e-02
      1.13445282e-01 -1.38507541e-02 1.23874068e-01 1.34419084e-01
      -5.37445471e-02 -6.39600530e-02 -2.57211234e-02 -9.63935480e-02
      -7.74347782e-03 3.26790251e-02 7.19824433e-02 1.00242257e-01
      7.78440014e-02 -1.01945966e-01 -1.51416332e-01 -5.48612103e-02
      -2.09881380e-01 -2.41947509e-02 1.09506868e-01 -1.97677091e-02
      -8.63243341e-02 1.08838417e-02 -5.64324781e-02 0. -1.13941208e-01
      -8.17801207e-02 5.23169823e-02 -1.36412233e-01 -1.03580453e-01
      1.03801824e-01 -1.01710960e-01 3.13774571e-02 2.93892785e-03
      2.34950520e-02 -3.01426854e-02 2.07494777e-02 1.39743742e-02
      8.03629607e-02 -6.22744821e-02 -1.25905395e-01 1.00914255e-01
      7.59466290e-02 -4.07822570e-03 -1.02377519e-01 1.88228693e-02
      -8.90941322e-02 -6.79215267e-02 4.54261042e-02 -1.50413409e-01
      8.29335749e-02 6.24220893e-02 4.49839272e-02 -8.64140391e-02
      -3.10954675e-02 -4.52629514e-02 0. 3.94174876e-03 -1.33844078e-01
      1.35426212e-03 -8.19253456e-03 9.64392573e-02 4.93364111e-02
      -9.82876588e-03 1.20726507e-02 -1.72924232e-02 -3.33845764e-02
      7.47158304e-02 9.01878476e-02 9.02774110e-02 4.97679971e-02
      -9.58395302e-02 -1.74686641e-01 -2.11049058e-02 7.02702999e-02
      7.12036118e-02 3.08361724e-02 5.70373461e-02 4.42527346e-02
      1.56280193e-02 -4.27968754e-03 -8.94515365e-02 1.64900701e-02
      1.09558925e-03 -2.70652920e-02 -9.54926163e-02 1.05376229e-01
      3.80129665e-02 0. -3.85949835e-02 1.03359617e-01 4.63090092e-02
      -6.18006513e-02 -8.51063952e-02 1.86781380e-02 7.38774762e-02
      6.83661103e-02 4.58381176e-02 -8.81762709e-03 -7.99017865e-03
      2.96171084e-02 -6.61883429e-02 -9.22917649e-02 -1.16074800e-01
      -1.12337835e-01 -5.49513064e-02 8.04220885e-02 1.05415814e-01
      4.39011864e-02 6.61927909e-02 -9.85416025e-02 -1.41540051e-01
      -4.64744009e-02 -5.33549152e-02 -5.24217822e-02 1.22074962e-01
      -1.53012099e-02 -1.63635807e-04 5.31361729e-04 -6.88278079e-02 0.
      -1.56666756e-01 -6.15560114e-02 -5.72307780e-02 -3.75328027e-02
      -1.05353057e-01 8.03724751e-02 -2.82794088e-02 9.24412534e-02
      3.38362828e-02 -3.67999226e-02 -6.12236932e-02 5.77145182e-02
      -6.76521137e-02 1.26232440e-02 7.82064945e-02 6.21787496e-02
      1.80431968e-03 9.78594795e-02 -1.79664930e-03 -5.92517368e-02
      -2.91498601e-02 -7.29123279e-02 -1.60841830e-02 1.35307506e-01
      -1.42451990e-02 5.28927706e-02 8.82240459e-02 5.03860153e-02
      1.89004689e-02 -5.33040613e-02 -6.08869493e-02 0. -9.96604189e-02
      -2.38582063e-02 4.92217802e-02 1.42274788e-02 -4.67134751e-02
      -4.78569940e-02 -6.32127151e-02 2.40457114e-02 -4.53943424e-02
      -1.07672758e-01 4.31659296e-02 2.92400923e-02 3.03699840e-02
      3.07031125e-02 5.50510287e-02 -8.13400298e-02 -3.80193330e-02
      2.38954220e-02 -4.15075980e-02 5.44310138e-02 4.35286127e-02
      2.65140962e-02 2.12968420e-03 3.70799378e-02 -1.19602181e-01
      -3.71015333e-02 -3.27524804e-02 -3.24751139e-02 -6.91590980e-02
      2.58340593e-03 -2.05941461e-02 0. -5.92191964e-02 -2.99623087e-02
      1.25256345e-01 1.11351557e-01 -3.39055322e-02 -4.71906587e-02
      -3.02796941e-02 3.66602279e-02 8.84413645e-02 -8.43715668e-02
      1.57684889e-02 -8.14722031e-02 2.44247187e-02 -1.08370326e-01
      2.38833092e-02 -2.32481547e-02 4.08921652e-02 3.70620042e-02
      6.64955517e-03 2.89498232e-02 2.19075177e-02 9.13871303e-02
      -1.36309505e-01 1.13085611e-02 2.91255885e-04 5.16824909e-02
      8.34195390e-02 -4.31419350e-03 -3.46410684e-02 4.76974137e-02
      -6.04548957e-03 0. -9.08340514e-02 -3.43192928e-02 6.54022247e-02
      -6.96638599e-02 2.66036820e-02 1.13571860e-01 9.47883539e-03
      -7.27590397e-02 -1.63678303e-02 -6.72963411e-02 -7.86303356e-02
      -5.73203266e-02 3.79026979e-02 8.67714081e-03 -1.40290372e-02
      5.20332493e-02 -3.67948599e-02 5.80225103e-02 -4.88760881e-02
      -5.89226149e-02 -1.04890834e-03 -4.48361449e-02 -5.18355146e-02
      4.64831851e-02 5.19539900e-02 -8.05453658e-02 4.99259159e-02
      5.43258823e-02 -1.26305381e-02 -3.25684324e-02 -8.75314698e-02 0.
      -2.59045865e-02 -2.20512915e-02 5.81335314e-02 9.66894627e-02
      5.56887798e-02 -2.27151550e-02 -1.00769892e-01 9.79768671e-03
      3.59103717e-02 -1.09031335e-01 -1.05969142e-02 -5.97302197e-03
      2.56420709e-02 1.06722005e-01 2.17219759e-02 -9.79513451e-02
      -6.02937303e-02 2.72260830e-02 5.55711277e-02 7.25464970e-02
      1.95479058e-02 1.00136891e-01 7.67364874e-02 -4.34631519e-02
      -1.39812827e-01 -2.90040169e-02 8.56241286e-02 -1.68278534e-02
      -6.72456622e-02 6.33838326e-02 1.23198116e-02 0. 7.00501353e-02
      1.26952514e-01 8.02020729e-02 -5.07037565e-02 -4.57406715e-02
      1.73596013e-03 -1.50258988e-01 -2.34366190e-02 9.81754344e-03
      1.12336375e-01 4.63666441e-03 3.84303778e-02 6.47072634e-03
      4.12939750e-02 5.71462512e-02 -5.83660342e-02 -1.09056093e-01
      -1.51085556e-02 1.43043503e-01 5.37593514e-02 1.03862368e-01
      -4.55565527e-02 -2.33158171e-02 7.00998977e-02 -1.74199834e-01
      -9.80421454e-02 2.23966446e-02 -5.82139846e-03 9.36070457e-03
      5.09543940e-02 -9.04985052e-03 0. 5.98093867e-03 -3.68168652e-02
      1.33776842e-02 2.61556520e-03 -5.48537076e-02 8.05843025e-02
      -6.73833163e-03 -8.12718552e-03 -7.35032335e-02 -1.77168235e-01
      -5.17380089e-02 -1.93713214e-02 3.10588386e-02 -3.32595184e-02
      5.30994385e-02 2.21245028e-02 -6.47938102e-02 3.49068828e-02
      -7.70835876e-02 -8.29907805e-02 1.20089957e-02 4.97351214e-02
      -2.75668651e-02 1.43303290e-01 2.83890590e-02 -2.71816943e-02
      -7.05431476e-02 4.33900468e-02 7.53622036e-03 -7.87415206e-02
      -1.05412804e-01 0. -1.38097346e-01 -1.28146753e-01 2.38467325e-02
      8.80948920e-03 3.74652259e-02 9.88867655e-02 3.33794244e-02
      -3.17155160e-02 -7.50929937e-02 -6.33047223e-02 4.60176766e-02
      5.31774061e-03 4.19970267e-02 -5.81009984e-02 -3.92491510e-03
      -9.51418504e-02 -4.69430797e-02 -2.70886440e-02 -2.40250379e-02
      -3.63260955e-02 1.95512269e-02 6.86080605e-02 4.76935208e-02
      8.92454237e-02 -4.14610542e-02 -5.54712340e-02 -1.22007228e-01
      -4.26642485e-02 -8.98277760e-02 -1.82241332e-02 -2.45676674e-02 0.
      9.16994140e-02 -3.15024517e-04 1.90685075e-02 -7.94280097e-02
      -6.89109340e-02 9.28389188e-03 -7.82547053e-03 7.70990178e-02
      8.46136808e-02 4.11998555e-02 -9.94315594e-02 -9.94692147e-02
      -1.17323389e-02 -8.33066031e-02 -9.74313021e-02 7.23224320e-03
      4.06433605e-02 2.88342405e-03 1.10843755e-01 -1.81886014e-02
      -3.81706282e-02 -6.56943768e-02 -6.89210147e-02 -4.87100072e-02
      -2.86995769e-02 8.60099047e-02 3.13430727e-02 1.93421096e-02
      -5.14831953e-02 -3.39282304e-02 -1.60142090e-02 0. -1.24242000e-01
      1.12994388e-02 1.36745814e-02 -7.31647238e-02 -3.58075164e-02
      5.21648861e-02 9.59117115e-02 -3.63039710e-02 -7.21588545e-03
      9.18046460e-02 2.26869527e-02 -6.01805095e-03 -9.36356112e-02
      -3.69901806e-02 -6.77594021e-02 -4.35847277e-03 -8.52369741e-02
      -1.33944936e-02 6.61862120e-02 4.97562736e-02 -1.07492274e-02
      -1.26142591e-01 -7.43046552e-02 -5.53313736e-03 8.37955102e-02
      -9.54652131e-02 3.01557984e-02 7.00900778e-02 -4.36454341e-02
      -3.20220441e-02 -1.34232804e-01 0. -1.95449054e-01 -2.74923854e-02
      6.94631785e-02 4.71535660e-02 -1.72866099e-02 1.72140561e-02
      -8.74674246e-02 3.41597497e-02 1.22510612e-01 -3.13495100e-02
      -6.13890067e-02 -6.58881292e-02 2.29761470e-02 -9.47202370e-02
      2.93064788e-02 -1.10599294e-01 -1.60712954e-02 4.85079512e-02
      5.89177832e-02 2.23499201e-02 -1.54154440e-02 3.80110107e-02
      -9.45995282e-03 3.65612656e-02 -1.51018769e-01 1.08528696e-02
      8.34936649e-02 -5.12306839e-02 -9.79861021e-02 1.71925649e-02
      -1.71367284e-02 0. 3.96883599e-02 6.54389039e-02 3.79687995e-02
      -2.53662355e-02 -6.37261868e-02 5.16198128e-02 -3.79749052e-02
      6.67572320e-02 1.08932480e-01 -2.61519058e-03 6.24979734e-02
      6.99003339e-02 -3.04387100e-02 -1.22337267e-01 3.26310769e-02
      -1.05504267e-01 -3.84789445e-02 2.48809103e-02 1.08046040e-01
      9.52198878e-02 1.95901990e-02 -5.05282506e-02 -7.62077495e-02
      1.25165313e-01 -1.03546776e-01 -3.12489942e-02 1.00584500e-01
      1.77780055e-02 1.60142034e-02 2.39125378e-02 5.40352426e-03 0.
      -6.79997057e-02 -2.32428201e-02 -1.92055095e-03 -3.57440598e-02
      -1.43041715e-01 -5.02854120e-03 1.31766498e-02 7.57613778e-02
      -2.62151100e-02 -1.13240287e-01 -3.12914141e-02 -1.14263132e-01
      -3.91446799e-02 -7.35820904e-02 8.08936208e-02 -2.21716519e-02
      -9.09991190e-02 -3.17014381e-02 -4.77828756e-02 -3.62153202e-02
      -1.01325005e-01 -2.02666186e-02 -5.58382273e-02 1.14697948e-01
      3.28798518e-02 2.29173154e-02 -6.30444884e-02 -2.44033262e-02
      6.59098849e-03 -1.43179417e-01 -1.45302594e-01 0. -9.51148048e-02
      1.24024395e-02 -2.52134283e-03 7.95351565e-02 -9.71918479e-02
      -4.17528115e-02 1.17946472e-02 -6.97956607e-02 -2.85439962e-03
      -1.85220003e-01 1.15278009e-02 -1.27377078e-01 7.34059066e-02
      7.16630220e-02 -7.19933421e-04 -6.80289865e-02 -4.01128866e-02
      3.90079245e-02 -1.36939324e-02 4.26567495e-02 -1.66101642e-02
      1.56670034e-01 5.30329868e-02 1.36753507e-02 -8.18701554e-03
      -8.98899809e-02 3.96995479e-03 -6.29691556e-02 -6.13964945e-02
      -6.04409389e-02 -1.85331777e-02 0. 7.31226206e-02 1.10316508e-01
      -1.47417784e-02 -7.35318065e-02 -1.09860383e-01 -5.70078082e-02
      6.92678392e-02 3.08205914e-02 8.99730474e-02 4.72258739e-02
      4.60403645e-03 -5.64171635e-02 -1.52779669e-02 3.23362537e-02
      -3.92823815e-02 -9.50662792e-02 1.03534862e-01 4.85636331e-02
      1.49165034e-01 1.31861627e-01 -5.09180091e-02 -5.55705614e-02
      3.90906706e-02 -8.48951936e-02 -5.58528379e-02 8.73595551e-02
      6.87930807e-02 5.29809259e-02 2.15074439e-02 -8.02346226e-03
      3.57557251e-03 0. -4.64056395e-02 6.05419688e-02 1.11651635e-02
      -1.17411718e-01 -9.26372781e-02 2.38195658e-02 -1.19491639e-02
      -8.51615295e-02 -4.56867330e-02 3.76174673e-02 3.47713940e-02
      2.84148436e-02 -9.54012200e-02 -2.60665566e-02 -1.02361545e-01
      -1.28045259e-02 -1.18370026e-01 -2.85310810e-03 2.75697485e-02
      3.66228670e-02 2.21374836e-02 -1.79608673e-01 -6.80571198e-02
      -1.90633424e-02 -7.04994127e-02 -1.86501577e-01 -1.67609546e-02
      3.18881162e-02 -4.20241542e-02 -1.14315420e-01 -1.39899567e-01 0.
      -1.93208516e-01 -3.05781029e-02 4.65271026e-02 8.84394161e-03
      5.94294183e-02 2.87717395e-02 -1.26704648e-02 7.40833879e-02
      -8.85761343e-04 -2.60493290e-02 -6.61127493e-02 2.06906237e-02
      1.33478552e-01 -1.07370187e-02 5.07038552e-03 -1.45308942e-01
      -1.01341687e-01 -1.20177008e-01 3.40370685e-02 -1.69867948e-02
      2.81341337e-02 1.15558252e-01 7.94775337e-02 6.40233755e-02
      -1.12099230e-01 -4.84155752e-02 -8.76580998e-02 -1.07844479e-01
      -4.84178625e-02 -5.29348217e-02 5.35529442e-02 0. -2.26716008e-02
      7.58979470e-02 -6.98069111e-02 -5.59635907e-02 1.77007392e-02
      7.42539316e-02 3.04044653e-02 5.29047735e-02 3.36137936e-02
      1.16685091e-03 3.29956226e-02 2.25090571e-02 -5.61511070e-02
      -4.56127934e-02 -1.79870948e-02 -1.95690393e-01 -5.11130765e-02
      4.84929932e-03 5.07608950e-02 9.25430357e-02 -7.77719244e-02
      -1.52375191e-01 -1.81547441e-02 7.75723532e-02 -1.37535766e-01
      -5.11555746e-02 3.14722285e-02 -3.24648432e-02 -1.44442869e-02
      -1.86743606e-02 -1.39417434e-02 0. -2.07276672e-01 5.81648462e-02
      4.98604216e-02 -4.16429192e-02 5.15712537e-02 -2.43336204e-02
      4.56360430e-02 1.25024363e-01 1.04219384e-01 2.57692882e-04
      -1.44062005e-02 -6.82163611e-02 -5.59791587e-02 -4.43129241e-02
      -2.74009928e-02 -8.19489285e-02 -4.84868735e-02 -5.46667539e-02
      5.01423702e-02 2.93748975e-02 -7.75489733e-02 -7.89035708e-02
      -2.24510990e-02 3.10138706e-02 -4.29825298e-02 2.05413513e-02
      -2.34543327e-02 4.51443065e-03 6.42119795e-02 -1.00008860e-01
      -7.89956525e-02 0. 8.31923485e-02 1.03407726e-01 1.53094213e-02
      4.39795144e-02 -7.31000304e-02 7.54693709e-03 -4.05487195e-02
      8.91612247e-02 7.83268735e-02 -1.47637710e-01 1.42409662e-02
      -1.15478501e-01 -3.72294821e-02 -6.05587326e-02 -7.03733712e-02
      -1.15168318e-01 6.73056487e-03 3.88229974e-02 1.30962059e-01
      7.61984438e-02 -4.40388098e-02 4.39809402e-04 -7.49739334e-02
      -4.05087844e-02 -1.23767339e-01 2.24660132e-02 7.98871145e-02
      -5.29907309e-02 4.27619694e-03 -5.60523905e-02 2.02089511e-02 0.
      1.44044429e-01 3.23067456e-02 -1.43037690e-03 8.99016038e-02
      1.39896176e-03 6.54630363e-02 -9.03837904e-02 -3.36750993e-03
      6.08864911e-02 -5.73967174e-02 -3.22906859e-02 -6.27020299e-02
      -1.01653196e-01 -5.14861494e-02 8.78037419e-03 -5.40568233e-02
      4.35898788e-02 1.54785782e-01 1.35623530e-01 3.72550748e-02
      -9.36773121e-02 -3.63497585e-02 -3.00608724e-02 5.01642562e-02
      -1.31192908e-01 7.50169456e-02 1.58331230e-01 9.13788378e-02
      2.92595793e-02 -3.49532142e-02 -1.66769754e-02 0. -1.03948899e-01
      -2.34264806e-02 8.71526897e-02 7.36424625e-02 3.36787477e-02
      1.49836227e-01 2.66925003e-02 1.94696784e-02 -4.64169085e-02
      -1.21598199e-01 -2.30084136e-02 -3.62023748e-02 -6.60612881e-02
      -7.67173469e-02 -9.02450830e-02 4.01023440e-02 -4.61370647e-02
      -8.59432220e-02 -7.62100145e-02 -4.37840931e-02 3.10463216e-02
      -2.69536069e-03 -6.94812015e-02 1.00250065e-01 5.98120391e-02
      -2.24581864e-02 -7.80366883e-02 6.62887543e-02 1.31746950e-02
      -8.96643326e-02 -1.26095295e-01 0. -1.14019290e-01 -5.31999767e-02
      -4.60888073e-02 -1.23220228e-01 -9.69610177e-03 5.76614290e-02
      4.08556908e-02 3.02020740e-02 2.27168016e-02 5.13825640e-02
      4.23869975e-02 -1.00999698e-02 4.21088822e-02 -3.17401029e-02
      -9.43043083e-03 -6.74334355e-03 -1.24401171e-02 -8.84382278e-02
      3.83258872e-02 3.74139585e-02 -6.72398880e-02 -4.23096158e-02
      -4.48393486e-02 3.85967642e-02 5.70733361e-02 9.86874569e-03
      -9.16063637e-02 -4.18593436e-02 -3.78291234e-02 -5.40590249e-02
      3.10755707e-02 0. -8.61397237e-02 2.51410939e-02 6.69356138e-02
      -1.08646229e-01 -5.71198808e-03 5.98677360e-02 2.75270529e-02
      1.45810694e-02 6.25583678e-02 8.69335905e-02 1.30057782e-01
      1.02214150e-01 -2.78530549e-02 -9.13872123e-02 -1.15598589e-01
      -1.11448422e-01 -2.39862707e-02 5.50678819e-02 1.20267406e-01
      1.01028293e-01 5.64160533e-02 -1.42668292e-01 -5.09294197e-02
      2.55807620e-02 -6.90579638e-02 -8.66610035e-02 5.70466369e-02
      5.83539857e-03 -1.76766850e-02 3.03633418e-02 9.81513783e-03 0.
      7.87929669e-02 9.84749421e-02 1.34710714e-01 -8.37153755e-04
      -5.05256131e-02 6.66350797e-02 -4.56433371e-02 -3.07116564e-02
      7.25593269e-02 -7.84924552e-02 6.58081621e-02 2.81658228e-02
      -1.61177516e-02 -1.10866867e-01 -1.09939925e-01 -8.16006288e-02
      -1.25417426e-01 1.95163041e-02 1.06336534e-01 1.33523673e-01
      1.38898849e-01 -1.25059681e-02 -1.49935976e-01 -2.80469861e-02
      -1.00989103e-01 -1.69429466e-01 2.72782426e-02 -9.44630988e-03
      5.84276989e-02 -2.58004069e-02 -6.34807348e-02 0. 1.23749292e-02
      6.10577688e-02 4.82319742e-02 8.15267954e-03 -5.80438301e-02
      1.05554573e-01 4.96968962e-02 1.04896739e-01 1.92126065e-01
      7.91262239e-02 5.99819385e-02 -4.87391278e-02 -9.10540521e-02
      -8.74599442e-02 -4.24776450e-02 -5.39881214e-02 7.00440723e-03
      1.68044101e-02 2.52945036e-01 9.29806605e-02 -3.08962837e-02
      -5.82679175e-02 -1.38560742e-01 3.42031755e-02 1.15334736e-02
      8.73454511e-02 1.23991162e-01 5.57233803e-02 4.22976390e-02
      1.13332374e-02 6.18798323e-02 0. 4.87433188e-02 1.07258245e-01
      4.13414054e-02 5.41226380e-02 9.98389628e-03 5.21705160e-03
      -1.05348699e-01 6.10751696e-02 6.32515624e-02 7.69861648e-03
      -1.31512687e-01 -3.62940244e-02 -1.40739799e-01 1.39723057e-02
      2.07129004e-03 -8.97481292e-02 4.53619249e-02 1.25069380e-01
      1.09479435e-01 1.01202009e-02 -2.16187108e-02 -6.19500056e-02
      3.90020423e-02 4.52911444e-02 -1.41616225e-01 3.80154513e-02
      9.43780094e-02 1.20622486e-01 5.00602722e-02 -7.60747641e-02
      -5.61778359e-02 0. -6.92289844e-02 -3.75796072e-02 6.64652139e-02
      5.04812598e-02 4.50046025e-02 -1.23683047e-02 -8.82652402e-02
      -1.87725225e-03 -9.71172228e-02 -1.74691305e-01 -1.01127632e-01
      3.79560553e-02 1.42004751e-02 5.60589246e-02 5.82966842e-02
      -2.74904985e-02 -2.87061129e-02 1.39351144e-01 -8.12503770e-02
      -1.00014180e-01 4.33017202e-02 6.84255883e-02 3.27658989e-02
      6.32536262e-02 -1.27846627e-02 -3.86322550e-02 6.96119666e-02
      9.04322118e-02 1.94584634e-02 -6.36974275e-02 -1.26631916e-01 0.
      -6.30477592e-02 -3.41636781e-03 2.21239533e-02 -2.49984935e-02
      -9.75830406e-02 5.16183376e-02 1.88594759e-02 -2.88589927e-03
      -2.87151393e-02 -5.42989075e-02 5.30022755e-03 -2.55807415e-02
      5.83995916e-02 1.06090017e-01 -2.46502347e-02 -6.21986724e-02
      -8.49117190e-02 -3.59128714e-02 -8.24902114e-03 -4.21288796e-02
      -3.87176536e-02 7.77956145e-03 -2.97019705e-02 2.70598195e-02
      -2.03218330e-02 -7.48543218e-02 -5.62514961e-02 3.03680152e-02
      -2.52168067e-02 -5.73818795e-02 -6.36433363e-02 0. 2.63395719e-02
      5.63394502e-02 -4.59923744e-02 -2.32613087e-02 -9.38518569e-02
      5.70209883e-02 2.19455343e-02 1.64972432e-02 -7.50470757e-02
      2.73512043e-02 -1.95899997e-02 -4.05390821e-02 4.87311147e-02
      -5.55450059e-02 -1.06475137e-01 -1.55512899e-01 -4.79430482e-02
      8.53434652e-02 9.29670334e-02 -2.40559783e-02 -9.36208069e-02
      1.52477799e-02 -1.05291056e-02 3.06832921e-02 -5.65099269e-02
      -4.75767329e-02 -7.16770126e-04 -5.39667420e-02 -6.67749345e-02
      7.08935363e-03 -3.91704775e-02 0. 1.40384540e-01 1.93601549e-02
      8.72389972e-02 1.85772106e-02 -1.21849597e-01 7.18258992e-02
      -6.44985735e-02 -4.24285000e-03 8.51654410e-02 -7.85448588e-03
      -4.26876694e-02 -1.33900007e-03 -3.66418585e-02 -1.12218395e-01
      -1.03185125e-01 -3.07007935e-02 -3.73153016e-02 3.22934575e-02
      4.61895466e-02 1.06485141e-02 5.83170652e-02 -4.53846809e-03
      -1.20378971e-01 2.60664080e-03 -9.67725292e-02 -1.45778442e-02
      6.48798570e-02 -1.19716702e-02 5.17399376e-03 -2.00845394e-02
      -2.38818768e-02 0. 1.18821166e-01 -5.23436889e-02 3.02702934e-02
      -2.39245277e-02 1.49971060e-02 -3.72624118e-03 -9.64065548e-03
      8.85744989e-02 1.44642040e-01 7.46367797e-02 1.66533738e-02
      -2.65532751e-02 -7.43123591e-02 -8.81819502e-02 -1.05561733e-01
      -1.42911561e-02 -1.80161558e-02 -1.19304480e-02 1.65649682e-01
      -5.66769391e-02 7.52460258e-03 -6.67479783e-02 -6.92636743e-02
      -5.37536666e-02 -7.49285445e-02 2.65489309e-03 8.17493126e-02
      8.10846984e-02 2.52650995e-02 -4.29995880e-02 -3.50129306e-02 0.
      4.72126007e-02 1.60048045e-02 -9.23950225e-03 -9.83894840e-02
      2.08284277e-02 6.59366995e-02 1.51089672e-02 -1.81199815e-02
      8.99826884e-02 -6.07335661e-03 -2.58640554e-02 -4.62061353e-02
      -1.36715889e-01 -8.90034586e-02 -8.50674286e-02 -9.60279107e-02
      -2.78654452e-02 5.72891831e-02 4.34333719e-02 -1.43298106e-02
      -6.03778139e-02 -1.73538581e-01 3.37477550e-02 3.77110094e-02
      -8.86367708e-02 -5.20248748e-02 5.28527051e-02 9.46338326e-02
      2.55883671e-02 -1.05147265e-01 -1.68850005e-01 0. -1.56138197e-01
      -2.85973139e-02 -1.37602016e-02 5.26033491e-02 1.14114046e-01
      7.47604445e-02 6.53801858e-02 -4.61977819e-04 3.93660814e-02
      -4.60284166e-02 -2.13065706e-02 -2.93510314e-02 -4.54523489e-02
      -2.41435636e-02 -4.62358678e-03 -5.40876724e-02 -2.84139626e-02
      2.55563613e-02 -5.40577434e-02 -2.46006157e-02 -8.55336413e-02
      3.41538750e-02 7.18733370e-02 8.43366832e-02 6.25376254e-02
      -6.12390414e-02 2.92565431e-02 7.69411474e-02 5.31173944e-02
      -6.08909763e-02 -1.07155025e-01 0. 4.21667285e-02 8.84995162e-02
      4.50518541e-02 1.02666989e-01 -6.92346841e-02 6.86655417e-02
      -4.07028459e-02 4.33377847e-02 7.17467442e-02 -1.16673894e-01
      -8.35623965e-02 -3.15796584e-02 -9.11987294e-03 8.28151107e-02
      2.20287796e-02 -1.08375005e-01 -6.11702688e-02 -7.68243596e-02
      8.52064788e-03 -2.46868599e-02 -1.54910963e-02 3.78458798e-02
      4.18123007e-02 6.09325729e-02 -1.08061589e-01 -5.49505018e-02
      1.40970908e-02 3.04880776e-02 -2.89849974e-02 8.81168172e-02
      -1.03886321e-01 0. -6.42110705e-02 2.50959606e-03 8.48974884e-02
      9.47310254e-02 -5.77403139e-03 1.25917375e-01 -2.01018043e-02
      7.45814219e-02 4.94052731e-02 -3.03951297e-02 9.07468274e-02
      5.88823110e-02 1.18159123e-01 -9.41796228e-02 -5.30439802e-02
      -7.18821064e-02 -1.19082525e-01 -8.13623294e-02 1.53381201e-02
      4.70605642e-02 8.49342942e-02 1.70600057e-01 2.29938552e-02
      4.20603491e-02 -7.84024894e-02 -3.33491974e-02 -1.61981606e-03
      3.61620784e-02 -7.96302333e-02 9.95514765e-02 1.92453805e-02 0.
      1.24264136e-02 8.89373720e-02 5.26320189e-02 7.93065950e-02
      -7.33808205e-02 6.89430609e-02 -8.59861225e-02 -2.14125980e-02
      3.85243148e-02 4.95083630e-02 -3.25543694e-02 5.26628196e-02
      1.42049819e-01 -5.13042100e-02 -1.18507162e-01 -5.19175977e-02
      -4.57763381e-04 1.05442069e-02 1.69949651e-01 3.89034227e-02
      8.70577469e-02 1.42889783e-01 -1.45967573e-01 -8.13306943e-02
      -1.21657081e-01 -5.61551936e-02 4.96877171e-02 8.62112790e-02
      -3.82694788e-02 6.94796145e-02 -4.19906750e-02 0. 1.22428678e-01
      7.10863341e-03 -4.62321900e-02 2.88000312e-02 -5.24471030e-02
      6.76300675e-02 4.99599464e-02 1.12074606e-01 2.54539773e-02
      -4.01136540e-02 -2.12694090e-02 1.53140239e-02 -5.10683917e-02
      -9.28698927e-02 -1.82245411e-02 7.24058991e-05 3.91701460e-02
      2.75878012e-02 1.49978250e-01 -2.83994037e-03 -3.90302688e-02
      -7.34116940e-04 -1.19930096e-01 4.24532406e-02 -5.32258116e-02
      1.23579718e-01 9.46549978e-03 1.41016915e-01 3.51587981e-02
      1.66184790e-02 -1.11065172e-01 0. 2.86264569e-02 1.55804623e-02
      3.90478317e-03 -5.77978902e-02 4.77758199e-02 -3.12179904e-02
      -1.81101412e-02 1.37939733e-02 -5.09360060e-02 -8.92874822e-02
      -1.23210765e-01 -2.96402071e-02 -6.23746635e-03 1.00231133e-01
      -7.42666498e-02 -4.64825146e-02 5.77676408e-02 1.37014478e-01
      8.90715141e-03 -3.47316824e-02 2.56087538e-02 -6.58280551e-02
      6.19469546e-02 -2.80833598e-02 -2.36030631e-02 2.04951204e-02
      -2.53829826e-03 1.09770574e-01 3.21852937e-02 -2.59012710e-02
      -1.73797488e-01 0. -5.30769452e-02 1.22094758e-01 2.59078443e-02
      5.95305786e-02 -1.15419887e-02 3.14478204e-02 9.00317654e-02
      3.55472509e-03 6.36321753e-02 1.57083776e-02 -4.63809557e-02
      -1.82186402e-02 4.36136052e-02 8.87225568e-03 -3.52327526e-02
      -5.51450960e-02 3.12526487e-02 2.22727079e-02 5.26150037e-03
      1.05267130e-01 3.73153239e-02 5.17171286e-02 -2.90448721e-02
      6.63146377e-02 8.90969764e-03 4.89908829e-03 -5.98943513e-03
      1.63145542e-01 6.80928081e-02 -6.09769812e-03 -8.45112726e-02 0.
      4.75481749e-02 -1.49547994e-01 2.04305165e-02 2.40396298e-02
      -6.24848083e-02 1.23963200e-01 -9.26458742e-03 6.68756962e-02
      4.88082357e-02 -7.13279098e-02 -5.46728671e-02 8.82646069e-03
      4.33650874e-02 -1.13317169e-01 1.87172331e-02 1.64436642e-02
      1.12289250e-01 -1.62263829e-02 9.22468118e-03 -1.61554575e-01
      2.48726457e-02 4.23679352e-02 -6.58683926e-02 3.85712199e-02
      -5.71765238e-03 1.43867999e-01 2.51445305e-02 7.14474078e-03
      -9.16666314e-02 1.49621025e-01 -3.94241251e-02 0. -1.37038246e-01
      -9.84745100e-02 5.24141081e-03 -7.50656240e-03 8.15921649e-02
      2.52875984e-01 -1.74631504e-03 1.37202308e-01 1.97320469e-02
      -4.32883687e-02 -6.38581067e-02 2.15295758e-02 4.77859415e-02
      -5.23097478e-02 2.69108657e-02 2.05253530e-02 1.32463872e-02
      -1.12929679e-01 -6.36920780e-02 -5.48648015e-02 8.35725665e-03
      2.75030416e-02 4.26200591e-02 1.46585569e-01 2.12060213e-02
      8.06972086e-02 -7.94386193e-02 7.88417608e-02 -8.33224729e-02
      7.48965144e-02 -1.88019779e-02 0. -8.16086903e-02 7.95633271e-02
      4.47345786e-02 6.70676157e-02 1.04773812e-01 2.78498024e-01
      1.27983838e-01 7.19247982e-02 7.85605833e-02 7.35013653e-03
      -1.03237312e-02 -3.96338291e-02 1.06284551e-01 -1.97533779e-02
      -1.08582005e-01 -1.19519405e-01 -1.56400800e-01 -2.27176715e-02
      3.13232094e-02 5.61100021e-02 5.14521450e-02 1.12006128e-01
      8.54006410e-02 1.53775111e-01 7.16674551e-02 -1.08271772e-02
      4.99921665e-02 1.91691384e-01 -3.62892561e-02 9.11826715e-02
      -5.41584939e-02 0. -5.52907400e-03 7.11203665e-02 7.53076300e-02
      1.64904997e-01 1.10440895e-01 2.22509012e-01 3.53104994e-02
      3.74148898e-02 3.42712947e-03 -7.55524337e-02 -7.78830796e-02
      5.46509027e-02 2.56833546e-02 8.36958457e-03 -5.90722561e-02
      1.98743548e-02 -4.20099683e-02 7.27607384e-02 8.69920626e-02
      5.86366504e-02 1.37130916e-01 1.74658149e-01 9.94971916e-02
      2.28360161e-01 3.87642942e-02 2.33098418e-02 6.22106306e-02
      2.26558104e-01 3.25219259e-02 1.27063960e-01 -8.36336315e-02 0.
      -7.19721466e-02 2.60043610e-02 8.59905034e-02 5.96327446e-02
      1.81529924e-01 2.00200081e-01 2.67967191e-02 -1.19952550e-02
      -3.26843858e-02 -1.60797492e-01 -1.08091317e-01 1.55076692e-02
      1.31776286e-02 5.73127866e-02 -9.29045677e-02 -4.18290123e-03
      5.24132922e-02 5.62886707e-02 -9.12789926e-02 -2.85296645e-02
      1.01745605e-01 7.27674365e-02 1.23372994e-01 7.84713551e-02
      2.35220175e-02 4.34736051e-02 3.09340525e-02 1.91852570e-01
      5.67627233e-03 7.85497651e-02 -1.38323128e-01 0. -1.23726679e-02
      7.00469464e-02 3.71821485e-02 -2.81116404e-02 9.05125961e-02
      -1.73397008e-02 3.28001417e-02 -5.88294789e-02 -5.58848493e-02
      -4.22879346e-02 1.50898704e-02 2.50484310e-02 1.44779131e-01
      -6.14664890e-02 -1.63973406e-01 2.57348698e-02 2.56679673e-02
      2.19994411e-02 1.65025834e-02 9.77488831e-02 8.66027772e-02
      4.32715118e-02 1.89190404e-03 -4.38500429e-03 7.80068710e-02
      -4.11361158e-02 -2.98126191e-02 1.48339078e-01 -4.65989998e-03
      3.19993459e-02 -1.52770653e-01 0. -1.65450145e-02 -1.84865117e-01
      -5.12743592e-02 -8.19692537e-02 1.70661714e-02 4.53851521e-02
      -2.90635880e-02 -8.72213766e-02 -2.58234721e-02 -1.37872742e-02
      -5.90758882e-02 6.35535792e-02 1.00076966e-01 6.32003397e-02
      -1.09870635e-01 -6.29126281e-02 3.34764756e-02 -8.08976293e-02
      -8.56355671e-03 -2.33763412e-01 -2.32926011e-02 -2.10850798e-02
      -1.03456890e-02 -6.37123315e-03 -6.71027154e-02 -5.08338101e-02
      -1.32693946e-01 -4.47167782e-04 -1.68958262e-01 5.49246408e-02
      -1.12049371e-01 0. 3.90588641e-02 -8.87533873e-02 -7.34340250e-02
      4.20893915e-02 5.22733852e-02 9.43921804e-02 -8.06607977e-02
      1.09461568e-01 1.76979147e-03 -1.33344337e-01 -6.37284666e-02
      8.23507085e-02 -7.06618875e-02 2.20796764e-02 -3.79781574e-02
      -6.92236945e-02 5.41701401e-03 -1.41148912e-02 -8.00980702e-02
      -1.16713338e-01 1.27988122e-02 -9.12400894e-03 3.27376500e-02
      9.09337848e-02 -5.21456450e-02 2.32447684e-02 -2.86060162e-02
      7.47464225e-02 -1.10890321e-01 5.84451631e-02 -1.08570807e-01 0.
      -9.64995399e-02 -8.84310082e-02 -6.27528951e-02 -1.09428270e-02
      -2.96703000e-02 8.04386437e-02 -6.42082130e-04 -1.35622136e-02
      -1.89474281e-02 2.15170735e-06 8.00245721e-03 8.72272477e-02
      -4.63705044e-03 -1.25290349e-01 -1.93037063e-01 -6.64287955e-02
      3.55679356e-02 -1.38713062e-01 -8.05112496e-02 -7.30562881e-02
      -8.08073115e-03 -2.43037157e-02 -3.04647088e-02 -1.39883365e-02
      4.56039282e-03 1.07717526e-03 -9.45951268e-02 5.67961521e-02
      -1.17938019e-01 -3.59834880e-02 -2.03776881e-01 0. -7.51706287e-02
      -1.37259394e-01 -1.68882066e-03 -2.25074887e-02 6.25331998e-02
      6.61490113e-02 -6.44115917e-03 -6.56350479e-02 -1.22522719e-01
      -1.22535564e-01 -1.28505498e-01 2.84241401e-02 2.06850618e-02
      -2.74728406e-02 -1.64621770e-01 -8.58416408e-02 6.38278574e-02
      -1.18293062e-01 -1.35111377e-01 -2.07145184e-01 4.95360140e-03
      1.88463014e-02 4.61437404e-02 6.29064674e-03 -4.56357598e-02
      3.96318585e-02 -1.81336358e-01 2.52987817e-02 -1.43096671e-01
      -6.91592544e-02 -2.07546383e-01 0. 2.00372059e-02 -5.16458042e-02
      -3.61020453e-02 5.79026714e-03 6.21993840e-02 5.04087210e-02
      -2.25753151e-02 -8.92792568e-02 -1.23929836e-01 -6.31111041e-02
      -2.70375647e-02 -2.97127315e-03 -2.21628156e-02 2.29784641e-02
      -2.15264540e-02 8.79739597e-03 8.48008841e-02 5.94508909e-02
      -3.55603285e-02 -1.17519043e-01 -9.41619091e-03 -4.26799692e-02
      3.93408239e-02 3.29035297e-02 2.35251896e-03 1.13533400e-02
      -6.97687268e-02 1.09301664e-01 -6.12815320e-02 3.73905152e-02
      -1.54177651e-01 0. -6.54107034e-02 1.29168620e-02 -4.14076373e-02
      -3.33825871e-02 -5.84219284e-02 5.34575060e-02 6.13118596e-02
      5.44959344e-02 -1.39459252e-01 7.16233030e-02 3.53942178e-02
      -3.45675014e-02 -2.80190427e-02 -8.13074633e-02 -1.01092709e-02
      6.19517080e-02 -1.43355345e-02 -4.48284559e-02 5.95721938e-02
      4.75776605e-02 -2.91734822e-02 -5.38040884e-02 -4.52459306e-02
      5.97614013e-02 1.14458285e-01 2.34235246e-02 -1.21499963e-01
      1.02715194e-01 -5.95526770e-02 1.53131951e-02 -1.52801901e-01 0.</_></support_vectors>
  <decision_functions>
    <_>
      <sv_count>1</sv_count>
      <rho>1.2277248648581454e+00</rho>
      <alpha>
        1.</alpha>
      <index>
        0</index></_></decision_functions></my_svm>
</opencv_storage>
