<?xml version="1.0"?>
<opencv_storage>
<my_svm type_id="opencv-ml-svm">
  <svm_type>C_SVC</svm_type>
  <kernel><type>LINEAR</type></kernel>
  <C>5.0000000000000000e-01</C>
  <term_criteria><epsilon>2.2204460492503131e-16</epsilon>
    <iterations>100000</iterations></term_criteria>
  <var_all>4096</var_all>
  <var_count>4096</var_count>
  <class_count>2</class_count>
  <class_labels type_id="opencv-matrix">
    <rows>1</rows>
    <cols>2</cols>
    <dt>i</dt>
    <data>
      -1 1</data></class_labels>
  <sv_total>1</sv_total>
  <support_vectors>
    <_>
      1.04845345e-01 1.05236217e-01 5.02754822e-02 -5.46760596e-02
      3.87667827e-02 3.31469700e-02 -2.53855120e-02 -4.59227785e-02
      -6.52657375e-02 9.49451253e-02 7.09499493e-02 -5.68577349e-02
      -3.56983505e-02 1.98673338e-01 1.30250245e-01 8.52751881e-02
      2.37838570e-02 -5.83708398e-02 1.06322505e-01 1.68991908e-01
      1.97870601e-02 -1.06465235e-01 1.47222355e-01 5.91956489e-02
      4.78246473e-02 -1.20772384e-02 -6.74462840e-02 -6.57687336e-02
      4.73196507e-02 2.43092906e-02 2.74137914e-01 0. 1.79139897e-01
      -5.99586405e-02 -6.05502874e-02 -8.21786895e-02 -4.48718928e-02
      2.73971446e-02 4.32376377e-02 -1.03189409e-01 -6.52331039e-02
      1.00484565e-01 8.70797634e-02 4.56122160e-02 -5.88164944e-03
      1.51660562e-01 1.35716842e-02 -3.41918245e-02 -6.90736994e-02
      -3.62423100e-02 9.23736244e-02 8.80968794e-02 -3.67039852e-02
      -5.52397259e-02 2.27988865e-02 5.12352623e-02 -5.52373230e-02
      -1.53093725e-01 -7.72746280e-02 -8.14793408e-02 1.01477936e-01
      -4.27684225e-02 6.36929795e-02 0. 2.70154420e-02 -7.42819980e-02
      1.24899987e-02 3.82552519e-02 -2.11276785e-02 -1.19126163e-01
      -3.38511132e-02 4.93311137e-02 -1.67453974e-01 7.74639770e-02
      1.77304313e-01 1.29211277e-01 3.91643830e-02 1.40231982e-01
      -6.44415691e-02 -1.01472512e-01 -1.11410394e-02 4.20059115e-02
      4.90660518e-02 8.68181512e-02 1.12613961e-01 1.01444617e-01
      2.03147352e-01 -2.72985175e-02 -1.65621579e-01 -1.04664546e-02
      -9.91344973e-02 -7.81100914e-02 1.23341866e-02 -5.49234077e-03
      1.37065083e-01 0. 2.40561441e-02 3.63826267e-02 7.02160820e-02
      8.49578008e-02 1.25010923e-01 -1.25025297e-02 -1.43423676e-01
      -1.95272509e-02 -7.48330951e-02 1.90758884e-01 -1.10098697e-01
      3.00089810e-02 1.14101902e-01 1.53023407e-01 -4.86758910e-02
      -2.95963436e-02 -4.13745195e-02 -1.36576472e-02 2.30787620e-01
      -2.51377095e-03 2.93335974e-01 2.28593081e-01 1.85544178e-01
      5.99801540e-02 -1.52700573e-01 -2.40384582e-02 -8.69349316e-02
      -3.48722227e-02 8.79399851e-02 -2.02773493e-02 1.25047088e-01 0.
      -1.09823663e-02 -3.78657086e-03 1.67078990e-02 -1.95748918e-02
      9.93910134e-02 1.94162607e-01 -8.09443817e-02 2.22709514e-02
      1.16937175e-01 8.69031399e-02 -1.03709631e-01 -7.39152133e-02
      -2.05545463e-02 5.69497533e-02 9.86551568e-02 4.29562964e-02
      1.21123441e-01 5.23190647e-02 9.03480724e-02 -1.28380835e-01
      -6.53588250e-02 -1.58672053e-02 8.89488384e-02 2.65356034e-01
      6.29521534e-02 1.15742050e-01 1.15492553e-01 -3.53601314e-02
      2.15334311e-01 2.68152007e-03 9.77843553e-02 0. 6.64868876e-02
      -6.89992234e-02 -7.71907121e-02 -7.32516944e-02 3.96135561e-02
      3.76312472e-02 -1.23665340e-01 7.11199781e-03 3.06118261e-02
      -5.45213511e-03 -8.98717865e-02 -2.22769380e-02 -1.66918695e-01
      3.33919562e-02 2.22373590e-01 5.34398742e-02 -3.54715846e-02
      1.08890094e-01 1.32923409e-01 -9.11640450e-02 -2.80465297e-02
      -1.24803692e-01 9.06031728e-02 1.51090309e-01 -3.50229554e-02
      8.53668675e-02 1.99109256e-01 -3.43826646e-03 2.24409387e-01
      -2.23520011e-01 -2.74072178e-02 0. 1.22528985e-01 -1.34273335e-01
      -4.30583134e-02 -4.58807126e-02 -7.00211152e-03 -7.24331057e-03
      -7.61177167e-02 6.42773882e-02 4.99125198e-02 3.03083174e-02
      1.36329131e-02 -1.03385299e-01 1.57793798e-02 4.38692234e-02
      8.75785127e-02 4.41524833e-02 -2.32729185e-02 -7.20111355e-02
      1.29097432e-01 -7.61137083e-02 -7.31286183e-02 -6.96739741e-03
      5.18972380e-03 1.39001638e-01 2.17148978e-02 5.57696521e-02
      3.00566386e-03 -6.69206530e-02 5.31574897e-02 -1.25381976e-01
      1.20192409e-01 0. 1.62777781e-01 -1.22801960e-01 -7.74197653e-02
      3.88629804e-03 1.75346002e-01 2.44187161e-01 1.74944680e-02
      -1.14406675e-01 -3.97633351e-02 3.10669720e-01 1.00397944e-01
      -2.03977898e-02 -4.82100435e-03 8.10960680e-02 1.30238637e-01
      -4.99767475e-02 4.10437211e-02 -1.06076777e-01 1.73687741e-01
      4.59525622e-02 2.70057265e-02 9.58729535e-02 4.31735888e-02
      3.12271416e-01 -2.45151017e-02 -1.28395110e-01 -1.09649219e-01
      1.01410210e-01 2.58552670e-01 -6.13163225e-02 4.61701602e-02 0.
      -2.59373598e-02 -6.76050261e-02 1.38521697e-02 1.28100932e-01
      -6.16609529e-02 8.88936818e-02 -1.61252692e-02 -5.00097573e-02
      4.68729855e-03 -1.02309465e-01 -4.25736867e-02 -4.21325639e-02
      -1.09696187e-01 8.99848193e-02 -4.35616449e-02 1.33056998e-01
      9.55697522e-02 3.69683094e-02 -5.74216945e-03 -3.34519744e-02
      -1.83482785e-02 -2.94475281e-03 4.47751917e-02 6.46810085e-02
      5.73924035e-02 1.08960435e-01 4.37698103e-02 -7.54579753e-02
      -6.49678782e-02 1.16858281e-01 3.74748148e-02 0. 1.59504220e-01
      -4.78639714e-02 -8.07145610e-02 -6.54163808e-02 1.13686519e-02
      2.10614093e-02 9.32001024e-02 9.87201408e-02 6.18550479e-02
      9.56161767e-02 -1.19004503e-01 -2.69380789e-02 7.50859361e-03
      -7.66318217e-02 1.33674752e-04 -2.16358379e-02 -5.59401959e-02
      -1.29523307e-01 1.18506908e-01 -4.33830135e-02 -9.80286449e-02
      -3.68812680e-02 -3.01058795e-02 1.32938281e-01 3.58685963e-02
      -1.14123644e-02 1.92617439e-02 -7.70476600e-03 -5.90722375e-02
      2.94644106e-02 2.09864555e-03 0. -1.41908908e-02 5.23030139e-05
      4.58515584e-02 6.78074174e-03 -1.30403717e-03 -3.59107368e-03
      8.76601189e-02 7.52528012e-02 8.67578015e-02 1.12770684e-02
      4.06037970e-03 -1.06296040e-01 2.40727011e-02 -1.05375297e-01
      -1.72848463e-01 -5.74295484e-02 -1.11861281e-01 9.76070464e-02
      1.27942255e-02 -2.97683328e-02 1.56579271e-01 1.16749212e-01
      -8.91957283e-02 -1.13705635e-01 3.84274051e-02 1.78734772e-02
      1.13771148e-01 1.34992795e-02 -4.81475778e-02 9.16474033e-03
      -3.74597199e-02 0. -1.83461368e-01 1.07745394e-01 7.55435899e-02
      1.64123341e-01 3.01795583e-02 9.73188430e-02 6.60197958e-02
      1.15352735e-01 6.96737096e-02 -1.34489983e-02 -1.57015026e-01
      1.07606295e-02 -3.35910404e-03 -1.81395322e-01 -8.39506835e-02
      1.53546140e-01 -1.25531420e-01 -7.41455555e-02 5.12740240e-02
      6.64463788e-02 1.96281090e-01 1.38758287e-01 -1.09748944e-04
      1.56132028e-01 1.95120916e-01 3.75267304e-02 8.21174681e-02
      3.66149321e-02 -2.43444312e-02 2.23849565e-02 -2.62089842e-03 0.
      7.04279467e-02 8.26338455e-02 1.99186787e-01 -8.97603557e-02
      -8.20081830e-02 1.44424826e-01 7.67970830e-02 2.19183013e-01
      -5.31823114e-02 2.61749998e-02 2.66062915e-02 -1.71075817e-02
      -3.94121483e-02 -1.49890646e-01 -1.59327120e-01 -7.73614123e-02
      -4.52038385e-02 -1.10418819e-01 1.43332452e-01 5.18738329e-02
      1.25221238e-01 -7.64817074e-02 -3.51834595e-02 5.96832931e-02
      1.37799196e-02 1.76558211e-01 -1.40539110e-01 6.61338074e-03
      -3.84189487e-02 4.93172184e-02 -7.25286873e-03 0. 1.69455796e-01
      1.88325137e-01 1.23459511e-01 2.03134175e-02 1.78356729e-02
      7.60253221e-02 3.26135047e-02 1.73352927e-01 -1.68884665e-01
      1.12556741e-02 -3.48761491e-02 -4.89455834e-02 -4.15572859e-02
      -1.60352781e-01 -5.71450107e-02 -1.48018021e-02 -8.57708678e-02
      -9.39215571e-02 1.85687408e-01 2.67168403e-01 1.14411756e-01
      -5.89183252e-03 -1.07337549e-01 -1.01034455e-02 8.69610608e-02
      9.24283192e-02 -8.32883269e-02 8.20508078e-02 1.41430676e-01
      -6.06623851e-02 -1.12670980e-01 0. 1.43031731e-01 -1.48181543e-02
      -7.61308521e-02 -1.42236307e-01 -1.69790670e-01 -2.20782608e-02
      -6.86273575e-02 1.31354123e-01 -1.07920535e-01 1.03954300e-01
      -5.05880080e-03 -1.27300084e-01 -1.82376020e-02 -1.94360036e-02
      1.12473376e-01 -8.03611353e-02 -2.23456442e-01 -2.24671468e-01
      1.37297034e-01 1.19319046e-02 -6.99016601e-02 2.29280554e-02
      -1.06229499e-01 1.07620478e-01 -7.88603127e-02 -6.44549057e-02
      -1.76006258e-01 -9.80282202e-02 -6.41620159e-02 -1.39305755e-01
      -8.00128132e-02 0. 1.05210721e-01 -6.97012469e-02 2.80840863e-02
      1.56221213e-02 7.62934536e-02 2.34479550e-02 1.86216482e-03
      9.72617194e-02 -4.39859964e-02 1.61672365e-02 -3.20733301e-02
      -4.98367436e-02 5.67834591e-03 5.60175404e-02 2.15174146e-02
      -1.66419614e-02 -9.18775052e-02 -7.08440244e-02 3.83276492e-02
      -3.88472565e-02 1.21218348e-02 6.35683164e-02 2.69378088e-02
      -1.31793050e-02 -2.58362554e-02 -7.09414631e-02 -4.90529910e-02
      8.03710446e-02 8.80317539e-02 -8.83229673e-02 -4.60438915e-02 0.
      1.44123241e-01 -8.81686360e-02 -5.85133443e-03 1.93891842e-02
      -1.01989083e-01 5.54972142e-02 -4.20654491e-02 7.81430826e-02
      7.33404830e-02 -7.19822273e-02 -1.55487224e-01 4.88913506e-02
      7.31762201e-02 -5.43858483e-03 1.42009938e-02 -5.83507717e-02
      3.38033438e-02 -6.65670782e-02 5.97155914e-02 -2.15816855e-01
      -3.79823186e-02 2.49222312e-02 -2.13336553e-02 7.26832002e-02
      -7.01805353e-02 1.26279771e-01 -6.26903679e-03 -8.20860341e-02
      -1.54916346e-01 1.26805842e-01 8.41114894e-02 0. 1.10058412e-01
      -1.12255611e-01 1.35482669e-01 5.87326474e-03 4.38073352e-02
      1.94012951e-02 5.22795841e-02 -8.71403366e-02 -1.15902342e-01
      -9.74667594e-02 4.47654426e-02 2.09060553e-02 2.63829321e-01
      -1.99704766e-02 5.51716015e-02 -3.72226983e-02 -7.22779930e-02
      -1.81466028e-01 2.87313340e-03 -2.17411090e-02 2.15253234e-01
      2.49438584e-01 1.51356742e-01 6.81662410e-02 3.34642529e-02
      -1.36622235e-01 -1.80241391e-01 3.00785601e-02 -4.21002135e-02
      1.71663165e-02 7.99452793e-03 0. -1.13122277e-01 -9.49885547e-02
      1.28176481e-01 9.19452161e-02 8.45314711e-02 3.37822596e-03
      9.66944098e-02 4.57943194e-02 9.97832417e-03 -9.24044847e-02
      1.77405208e-01 2.37102121e-01 1.17889844e-01 -3.27925645e-02
      3.42106074e-02 -6.14164472e-02 -7.94610530e-02 -1.67866156e-01
      -6.78560883e-02 1.28940105e-01 3.83412242e-01 2.82321662e-01
      1.64846718e-01 1.44918069e-01 4.02059779e-02 5.97144896e-03
      -1.21113978e-01 8.00821409e-02 -2.96676252e-02 9.69673172e-02
      3.41328941e-02 0. -2.08043799e-01 -1.00061938e-01 1.94426298e-01
      1.68807685e-01 -2.23372225e-02 6.35895282e-02 -3.89992259e-02
      1.86494872e-01 3.04623526e-02 -1.61661580e-01 -3.86233628e-02
      1.51623428e-01 -4.40021157e-02 -4.30196896e-02 -8.19101743e-03
      8.16429630e-02 -1.13822082e-02 -7.45981932e-02 -2.39237741e-01
      -7.87441880e-02 2.67333329e-01 1.65556714e-01 7.23735392e-02
      1.86113060e-01 1.02751330e-01 1.98343769e-01 -6.01197267e-03
      1.16863318e-01 -8.91574845e-03 9.00589209e-03 -5.74973375e-02 0.
      5.78681380e-02 -8.39919373e-02 1.09570615e-01 1.95214972e-01
      -1.60222799e-02 7.94679075e-02 5.44816144e-02 7.82028884e-02
      -1.88726112e-01 -1.52084127e-01 -8.81827474e-02 1.44254416e-01
      -5.90576157e-02 -1.92128912e-01 -2.66074482e-02 6.01908639e-02
      1.80445701e-01 -4.61857766e-03 -1.09457731e-01 -1.49549469e-01
      1.74679145e-01 9.59945172e-02 -2.31128186e-02 4.80825827e-02
      2.08634853e-01 2.85327971e-01 -1.42418802e-01 9.41253081e-02
      -5.47774769e-02 8.03243965e-02 -4.97743152e-02 0. -1.43450409e-01
      -8.68963301e-02 2.36111656e-02 -8.99106562e-02 -1.22621231e-01
      -1.59165248e-01 1.04931213e-01 1.11607648e-01 -7.52994865e-02
      1.67359144e-03 -7.58627653e-02 -6.95394501e-02 -8.76537934e-02
      -4.30772752e-02 1.57196030e-01 1.13352530e-01 2.43833393e-01
      2.80826036e-02 -4.55218032e-02 -9.20034479e-03 1.64061598e-02
      -8.85706693e-02 -4.18824963e-02 8.99223462e-02 2.39455819e-01
      3.47039491e-01 7.82194138e-02 6.63472265e-02 -2.07729135e-02
      5.12879714e-02 -1.76617697e-01 0. -2.06331089e-01 -1.77133366e-01
      -4.83917519e-02 -1.84700042e-01 -1.09428316e-01 -4.56980653e-02
      -2.92724725e-02 1.93168014e-01 -1.51180506e-01 9.53232944e-02
      6.02872483e-02 -6.70053214e-02 -1.73039064e-02 2.19409373e-02
      9.08372626e-02 1.31515354e-01 5.02548106e-02 -3.24348621e-02
      -1.23173930e-01 -1.17806606e-01 -8.10903236e-02 -1.70400620e-01
      -4.28104997e-02 6.71519414e-02 1.14513189e-01 2.59268135e-01
      -4.94757518e-02 -8.17143172e-02 -7.73393214e-02 5.34169711e-02
      -9.49689075e-02 0. 7.19003147e-03 1.62290875e-02 1.40368000e-01
      4.49974909e-02 4.14319597e-02 5.83253652e-02 -5.30499108e-02
      7.00244531e-02 -1.04769900e-01 1.90350875e-01 -8.08461457e-02
      -1.78255960e-01 -3.09297424e-02 -5.85099980e-02 4.95828018e-02
      2.95844041e-02 -3.48841771e-02 -8.23484268e-04 9.07437950e-02
      -3.66369486e-02 4.94595729e-02 3.95024158e-02 1.84976328e-02
      1.49899930e-01 1.03825601e-02 -3.07695214e-02 1.30305802e-02
      9.84789133e-02 1.12052605e-01 -9.34749618e-02 -6.70810640e-02 0.
      1.38149947e-01 -7.09352195e-02 -1.05091162e-01 -6.55948743e-02
      5.10629155e-02 6.83354065e-02 2.09773973e-01 2.95498241e-02
      1.39015764e-02 -7.17343856e-03 1.48644326e-02 -4.03862707e-02
      -3.66964303e-02 -1.51756480e-01 -1.35017931e-01 4.68356684e-02
      -7.30065629e-02 -2.03313231e-02 1.71730854e-03 -9.71430689e-02
      -1.40897766e-01 -6.78711683e-02 -1.31356969e-01 -2.40847208e-02
      1.55836985e-01 -5.83913326e-02 -2.84662098e-02 2.10265703e-02
      -1.85636967e-01 1.34713933e-01 -3.30429710e-02 0. 9.41590033e-03
      -3.65753174e-02 -1.32381953e-02 -1.37023941e-01 -1.17381915e-01
      9.78718773e-02 -3.75641398e-02 4.38145399e-02 -1.03069067e-01
      -7.36411661e-02 1.25236452e-01 5.79179451e-02 -9.26923472e-03
      -5.14390133e-02 -1.24667488e-01 -9.45795625e-02 -7.79917240e-02
      -4.76872399e-02 6.19902126e-02 3.78821306e-02 6.11683205e-02
      -1.12471007e-01 -1.17699884e-01 -1.22457527e-01 -1.02028310e-01
      -1.05452672e-01 -1.44239336e-01 -1.18779959e-02 -1.26485795e-01
      1.01101340e-03 -1.40712544e-01 0. -2.86966935e-02 1.78149238e-01
      5.78784980e-02 -1.61736488e-01 -2.19431132e-01 -2.24529020e-02
      -1.05443731e-01 -1.28620610e-01 -1.50097623e-01 -1.60163820e-01
      7.59210810e-02 8.44894722e-02 6.77782893e-02 -3.71107608e-02
      -9.42079234e-04 -8.45396817e-02 -7.67833516e-02 -1.47376777e-04
      5.98560870e-02 2.14655757e-01 2.03041017e-01 -5.34806075e-03
      -2.97664016e-01 -9.57254227e-03 -1.68324724e-01 -9.10751447e-02
      -1.48746744e-01 2.62935814e-02 -2.13760436e-01 -3.23908292e-02
      -1.15755379e-01 0. -1.33374989e-01 -1.14907093e-01 7.14719445e-02
      8.90147910e-02 -1.10333897e-01 3.85284163e-02 -6.11111373e-02
      -8.05761479e-03 -5.82875200e-02 -1.28956571e-01 -8.97713192e-03
      -3.25451582e-03 8.02897960e-02 3.53989415e-02 4.87364642e-02
      4.28383872e-02 4.99206670e-02 6.87513053e-02 -1.43619791e-01
      -2.14032590e-01 7.75843114e-02 1.75106511e-01 -6.60581440e-02
      9.19864699e-02 -2.73369718e-02 5.74761108e-02 -4.33369018e-02
      1.39284611e-01 -9.10805985e-02 4.39932533e-02 -1.40426069e-01 0.
      -2.88381994e-01 -9.95603874e-02 7.97710493e-02 1.27903268e-01
      -5.96142933e-02 -2.02528030e-01 -2.37867594e-01 5.40242866e-02
      5.32513708e-02 -9.56537649e-02 7.82900527e-02 6.88388273e-02
      4.14130948e-02 -1.14651456e-01 -2.75170561e-02 6.25988394e-02
      8.67111702e-03 -4.03071614e-03 -1.81176737e-01 -3.54800113e-02
      1.47600779e-02 6.80297837e-02 -1.22481458e-01 -9.75392982e-02
      -7.93426409e-02 5.61746769e-02 5.06618395e-02 -5.73760970e-03
      -1.28665820e-01 3.39214392e-02 -1.61165461e-01 0. -3.57004069e-02
      -1.04815431e-01 -1.26807550e-02 2.43014749e-02 -9.01419818e-02
      -1.10869601e-01 -1.29820302e-01 5.36393262e-02 3.27625982e-02
      -9.63397622e-02 1.07415088e-01 -1.04167297e-01 7.66861718e-03
      -1.76051006e-01 -2.08899584e-02 -1.03163719e-02 2.20307112e-02
      1.62351459e-01 -5.84031753e-02 -3.55971754e-02 -4.65733111e-02
      3.34261805e-02 -1.37799278e-01 -8.28398466e-02 1.20205693e-02
      9.93018150e-02 2.33602554e-01 -2.65916884e-02 -8.78298581e-02
      4.65117730e-02 -1.59127593e-01 0. -3.00065037e-02 -1.68918192e-01
      4.86551784e-02 -5.73552549e-02 7.03944219e-03 -3.58977243e-02
      3.38514186e-02 1.72745524e-04 -1.63993388e-01 -1.62047707e-02
      1.06855780e-02 -5.32768518e-02 9.19959769e-02 -3.24218161e-02
      -8.39389488e-02 -1.09414086e-01 8.70748088e-02 7.61949420e-02
      3.59004326e-02 -7.80715048e-02 -1.43672340e-02 7.35717686e-03
      -3.54508832e-02 -1.26156937e-02 2.75403298e-02 1.53271109e-01
      7.82130957e-02 -5.46312779e-02 -1.37349024e-01 5.29300608e-02
      -4.75098081e-02 0. 7.30795041e-02 5.33075945e-05 1.34028837e-01
      -1.00449257e-01 -1.34773925e-02 -7.47858256e-04 -4.77370396e-02
      9.71259922e-03 3.61423120e-02 -6.24217801e-02 3.54144373e-03
      -3.05135753e-02 7.95953050e-02 1.22686967e-01 -6.23346791e-02
      -9.64346603e-02 6.77135438e-02 1.13232441e-01 6.22327961e-02
      7.10894819e-03 7.88737237e-02 -1.50083881e-02 1.62232085e-03
      -4.28378917e-02 -6.84201121e-02 1.11238696e-01 1.74081609e-01
      1.56767637e-01 8.04542676e-02 -5.18762060e-02 -7.89648518e-02 0.
      1.96574599e-01 9.54101235e-02 1.10325031e-01 -5.61493188e-02
      4.44952436e-02 1.09005593e-01 -2.04674359e-02 6.05994798e-02
      2.96704769e-02 7.80903250e-02 -9.10593569e-02 -4.39470969e-02
      -5.18816076e-02 8.95160213e-02 -1.06375734e-03 -7.82207698e-02
      -2.48887073e-02 5.03227580e-03 1.28923744e-01 -2.82699615e-02
      5.49176000e-02 -8.87409598e-02 -1.94326695e-02 -5.37566729e-02
      -9.06727239e-02 4.90986928e-02 -1.16230827e-03 2.92877778e-02
      -4.08331640e-02 2.31875673e-01 -7.70947803e-03 0. 7.20765069e-03
      1.90690115e-01 -4.79557924e-02 -1.40143007e-01 -1.44228712e-01
      5.32031283e-02 -1.30916238e-01 9.27065760e-02 -7.32838288e-02
      -1.03142448e-01 8.53887498e-02 4.56257630e-03 -5.95761091e-02
      2.27467739e-03 -2.45079435e-02 1.29160568e-01 1.18816728e-02
      -6.83556050e-02 4.82895747e-02 1.68372065e-01 1.52642325e-01
      -1.06539682e-01 -1.00186080e-01 -3.35794240e-02 -8.40008259e-03
      5.22450171e-02 -7.59970024e-02 8.77499282e-02 -1.25251368e-01
      2.66433619e-02 -9.05089527e-02 0. -5.31505682e-02 1.07525691e-01
      2.70240903e-02 -1.95306510e-01 -1.92357041e-03 -2.68446766e-02
      -4.49884534e-02 1.60924047e-02 -1.84337609e-02 -1.41668051e-01
      8.08319226e-02 1.26199787e-02 6.21153153e-02 -1.22672953e-01
      -9.05204117e-02 1.07038438e-01 -4.94828261e-03 1.53280035e-01
      -1.32675143e-02 1.80834994e-01 6.32739365e-02 -4.13885452e-02
      -1.82939485e-01 -8.09281543e-02 -2.54676994e-02 2.59454586e-02
      9.42329392e-02 4.10857014e-02 -7.57541060e-02 6.26908913e-02
      -9.11568552e-02 0. 9.56848171e-03 -1.41521513e-01 -2.43647695e-01
      -1.15576051e-01 -3.65108065e-02 -6.26133159e-02 -8.23570415e-02
      7.00699314e-02 -9.10017043e-02 -4.90315929e-02 1.21518485e-01
      7.09766373e-02 7.99881443e-02 4.83043455e-02 5.96606396e-02
      9.18748677e-02 8.19991436e-03 3.99706252e-02 8.57235715e-02
      -6.58912659e-02 -1.07095771e-01 -5.73537648e-02 -1.11017767e-02
      7.96945649e-04 -5.44526242e-02 9.36853886e-02 2.20154561e-02
      9.46595967e-02 -5.49237393e-02 -3.08884569e-02 -1.13558359e-01 0.
      -3.75698432e-02 -7.95441028e-03 -1.11404480e-02 -2.18056049e-02
      4.49919738e-02 -9.78109837e-02 -1.12137109e-01 -9.28808451e-02
      -3.53569277e-02 -1.37962863e-01 1.02330104e-01 4.10219133e-02
      -7.01201633e-02 -2.58277338e-02 1.25570327e-01 3.89346369e-02
      2.46909671e-02 -6.76891627e-03 -1.19105831e-01 3.65126766e-02
      -4.83473614e-02 -1.32092535e-01 3.07308435e-02 1.48570398e-02
      -6.20942861e-02 5.97723350e-02 2.94639096e-02 -5.50167747e-02
      -8.79904553e-02 5.10296412e-02 -3.99182178e-02 0. -4.87747751e-02
      -1.16323270e-02 3.80891189e-02 -2.50689425e-02 2.26979032e-02
      -8.66725817e-02 -5.38681820e-02 5.98528534e-02 -1.99926943e-02
      3.32326069e-02 1.02243818e-01 7.95845762e-02 6.27248809e-02
      -7.95475021e-02 2.27402654e-02 -6.43056184e-02 -1.24440975e-01
      2.00658720e-02 9.64308977e-02 -2.18599886e-02 1.59501925e-01
      -3.72319296e-03 -9.10647586e-03 -8.02642256e-02 -4.33039293e-02
      4.92690690e-02 3.03203389e-02 -8.33899528e-02 -3.57138738e-02
      7.36119598e-02 1.10458676e-02 0. -5.52194566e-02 -6.24672920e-02
      4.41468023e-02 -2.66961940e-02 1.03340670e-01 2.96160728e-02
      -1.26332730e-01 -8.51640031e-02 -1.12164915e-02 6.13455893e-03
      -8.90802443e-02 -8.47918391e-02 4.15251032e-02 -6.36235550e-02
      -7.86963850e-02 -1.69873908e-02 4.87166308e-02 -3.60803902e-02
      2.34384667e-02 -1.08761437e-01 -4.28273669e-03 -1.84200015e-02
      5.80350384e-02 -3.85936014e-02 -1.59057871e-01 8.57871547e-02
      3.94241177e-02 -8.21751505e-02 -1.36618122e-01 -9.13737155e-03
      9.73081589e-03 0. 1.60218813e-02 6.61465228e-02 2.22150862e-01
      -1.23235807e-01 1.89505950e-01 -2.05979906e-02 -2.47687668e-01
      1.36283012e-02 1.26700655e-01 -4.41743769e-02 -1.63768947e-01
      -4.61835638e-02 -1.07044699e-02 1.66007522e-02 -9.61303934e-02
      -4.08161096e-02 6.52958378e-02 7.20078275e-02 1.05469540e-01
      -3.33195962e-02 8.25396553e-02 -1.30438462e-01 3.99789289e-02
      -1.80161744e-01 -2.21604168e-01 7.82335401e-02 1.16113953e-01
      5.27705066e-02 3.48358452e-02 -2.51488574e-02 -6.49279878e-02 0.
      1.27258748e-01 3.80569920e-02 6.05140813e-02 -2.93261558e-03
      1.20840758e-01 7.43785575e-02 -5.78999557e-02 3.80020551e-02
      2.80766003e-02 9.99437720e-02 5.77724492e-03 1.18587008e-02
      -2.77272493e-01 -2.16190498e-02 2.63785552e-02 -1.42321423e-01
      -1.50331929e-01 6.98280036e-02 1.34710878e-01 3.22476961e-03
      1.19845271e-01 -2.37789452e-01 7.96021819e-02 7.82115683e-02
      -1.45253062e-01 1.19330147e-02 1.20360993e-01 -1.28292799e-01
      -8.09977874e-02 1.08411409e-01 1.23759329e-01 0. -1.71830617e-02
      -1.33266794e-02 -1.23158038e-01 -1.96137473e-01 1.89912859e-02
      1.67773023e-01 2.93081235e-02 1.69931754e-01 -5.40846251e-02
      -1.37880534e-01 -8.32415223e-02 2.17265245e-02 -3.14443856e-02
      -8.89168978e-02 -1.05056524e-01 1.61507186e-02 -7.88787454e-02
      1.07614892e-02 -1.05137201e-02 1.63953360e-02 9.36154723e-02
      -1.12995304e-01 7.87107348e-02 1.05804816e-01 7.61474296e-02
      1.04577869e-01 -5.52771762e-02 -1.18919532e-03 -2.79797465e-02
      -1.26834512e-01 -7.71818906e-02 0. 1.10659366e-02 5.22390082e-02
      1.27605107e-02 4.37465198e-02 -4.46546711e-02 -1.24132410e-01
      8.34551156e-02 -1.35111678e-02 -8.54000226e-02 -1.51602000e-01
      5.55044338e-02 7.73378983e-02 -3.33153555e-04 -3.04748304e-02
      1.61631964e-02 -6.26035556e-02 5.90757541e-02 1.05740108e-01
      -6.49470985e-02 6.76686615e-02 1.38192669e-01 6.42611012e-02
      -3.35665233e-02 -4.58420515e-02 -7.71471253e-03 3.78951011e-03
      2.72958744e-02 6.02269545e-02 -2.35716868e-02 -2.06414200e-02
      -1.39506897e-02 0. -1.89542487e-01 -2.16296203e-02 -9.75102931e-02
      -3.94723490e-02 -1.07667588e-01 -6.13093004e-02 -6.17354363e-02
      -1.93139594e-02 -3.89087833e-02 -2.21209407e-01 1.34312764e-01
      -7.64889121e-02 -2.93506328e-02 5.38770575e-03 -1.59111153e-02
      -5.33759184e-02 2.98542380e-02 1.58017199e-03 -1.65672615e-01
      -1.86124537e-02 -2.44562387e-01 -4.83479910e-02 -6.57034293e-02
      -1.41781002e-01 -1.41414061e-01 2.32794788e-02 -8.74127913e-03
      -6.31850287e-02 -1.00546159e-01 -8.44100863e-02 -1.58342645e-01 0.
      -2.79036406e-02 8.96079466e-02 6.86217695e-02 -9.09378529e-02
      -1.01211809e-01 -1.03856266e-01 -2.05504760e-01 -1.10481396e-01
      -4.50330414e-02 3.00997999e-02 1.36395767e-01 6.04420714e-02
      3.30425128e-02 -6.63727745e-02 5.64715713e-02 8.75752866e-02
      8.32080394e-02 -4.83625568e-02 8.52822959e-02 9.88135785e-02
      1.11545570e-01 -6.32344782e-02 -6.03970401e-02 -1.15497727e-02
      -9.74752530e-02 2.22101063e-02 -2.77613364e-02 -4.10569720e-02
      -9.17571932e-02 3.92388627e-02 2.08857264e-02 0. 1.07173987e-01
      1.90135330e-01 -2.36586556e-02 3.86032611e-02 -3.87778990e-02
      -9.84505489e-02 3.97481285e-02 -9.51067661e-04 -4.12332080e-02
      -8.70745257e-02 2.99874623e-03 3.56919281e-02 5.88016324e-02
      -5.02276905e-02 -4.03609388e-02 2.66266731e-03 -4.30666804e-02
      3.35791036e-02 1.09265313e-01 1.14400208e-01 6.58937618e-02
      7.70273153e-03 -6.68953061e-02 -4.77297641e-02 -3.43144201e-02
      3.05177253e-02 -1.35831907e-02 -8.93882886e-02 -3.58803011e-02
      8.10790434e-02 8.45383257e-02 0. 9.68721882e-02 1.10611450e-02
      6.15897477e-02 -1.18947057e-02 9.39242244e-02 6.09565936e-02
      -9.24777333e-03 -1.57185663e-02 -1.70949977e-02 -7.12450519e-02
      4.41796193e-03 8.05308968e-02 -2.49720160e-02 -2.26712041e-02
      -1.78740576e-01 5.14214262e-02 4.68050614e-02 3.88236642e-02
      2.37368196e-02 -1.20001123e-03 1.12027109e-01 -2.12684181e-02
      1.05956551e-02 -2.14061383e-02 6.42396882e-02 -1.31173441e-02
      3.06128170e-02 -1.08690159e-02 2.40645073e-02 1.08668758e-02
      6.77749217e-02 0. 1.03492728e-02 6.40245974e-02 -4.51731235e-02
      -5.81449270e-03 1.52730227e-01 1.49081469e-01 -4.99048680e-02
      6.15809001e-02 -2.64935978e-02 -6.94479495e-02 6.07058480e-02
      7.21706916e-03 -5.88557031e-03 1.57328308e-01 1.29368585e-02
      6.84194965e-03 -5.27978539e-02 -4.54502627e-02 5.67666218e-02
      1.29994780e-01 -6.11218028e-02 1.81874502e-02 1.09623499e-01
      9.12283063e-02 -3.43164690e-02 3.55104506e-02 6.92991614e-02
      9.94103551e-02 8.21271092e-02 -3.70044671e-02 3.54610607e-02 0.
      6.27147704e-02 -1.00124940e-01 -8.22037756e-02 -1.22653201e-01
      2.82712549e-01 1.52026370e-01 -9.40059423e-02 5.79530597e-02
      -2.52459850e-02 8.03656224e-03 -5.70808016e-02 9.48111638e-02
      1.42999180e-02 1.22226574e-01 -4.38807905e-03 -1.83651105e-01
      -2.09997706e-02 3.27709280e-02 4.48618643e-02 -1.15462251e-01
      -2.35718638e-02 -9.22596380e-02 1.39868364e-01 9.97123942e-02
      -1.83654755e-01 6.86503649e-02 2.53487322e-02 -9.15010497e-02
      -9.40269530e-02 1.00684986e-01 1.49518222e-01 0. -1.81963801e-01
      1.46445036e-01 8.98468494e-02 -5.50921112e-02 1.11546539e-01
      1.73783422e-01 -1.99493114e-02 -3.17494236e-02 5.09031713e-02
      -4.85542277e-03 -9.79189277e-02 8.57010949e-03 7.18214959e-02
      -2.38284096e-02 -6.76385388e-02 -3.74392420e-02 2.89994478e-02
      -1.66506451e-02 -6.71674982e-02 5.45670204e-02 1.59838900e-01
      3.74754630e-02 1.32019714e-01 1.27425134e-01 -5.35429344e-02
      5.93773611e-02 -6.95141032e-02 -5.65594248e-03 6.35390505e-02
      1.94087233e-02 -9.01889428e-03 0. -1.30183429e-01 8.23034123e-02
      1.13164596e-01 5.28515242e-02 -5.98912537e-02 -6.71482384e-02
      -4.83228220e-03 1.06321685e-01 -6.57301396e-02 -5.92972338e-02
      1.28468037e-01 6.77149221e-02 -2.62034722e-02 -1.72002643e-01
      3.94272047e-06 1.90900476e-03 -2.00261883e-02 2.20703036e-02
      3.89145613e-02 1.25946507e-01 7.03618601e-02 -4.34440635e-02
      -1.24651715e-01 -7.50417039e-02 -1.14561647e-01 -8.95135629e-04
      5.05715795e-02 -2.89223995e-02 3.05567542e-03 -2.09457781e-02
      3.24313119e-02 0. 8.57337750e-03 1.00135831e-02 -5.58674037e-02
      -7.55080655e-02 -7.45083243e-02 -6.09622821e-02 1.70103163e-02
      -8.00108984e-02 -1.29590586e-01 -7.72446170e-02 -1.99605133e-02
      -7.94664547e-02 -8.37474838e-02 -2.71378178e-02 -4.37325016e-02
      2.03932479e-01 6.50973171e-02 1.41687542e-01 3.86175215e-02
      -7.10997656e-02 -6.84573352e-02 -1.19718939e-01 -1.02910250e-01
      -1.50416523e-01 6.44659549e-02 1.05995722e-01 7.39728436e-02
      -5.09865060e-02 -4.08962332e-02 -4.88098413e-02 -2.96819527e-02 0.
      -5.55619523e-02 7.37813041e-02 1.36287555e-01 2.16636118e-02
      1.09390371e-01 4.39223982e-02 -5.53619526e-02 -6.33150386e-03
      9.03246552e-02 -3.13428044e-02 -1.29656896e-01 -4.78642806e-02
      1.66428536e-02 -5.03877625e-02 1.78276561e-02 2.92532798e-02
      -1.29787192e-01 -9.84471664e-03 -8.88205245e-02 -7.02078789e-02
      5.27379923e-02 6.69203419e-03 1.54069345e-02 4.81776036e-02
      -3.71944159e-02 -9.21717510e-02 8.26806575e-02 4.60362341e-03
      -8.92406181e-02 7.30485767e-02 2.24091895e-02 0. 9.08693206e-03
      -9.44815129e-02 1.62945539e-01 1.48810297e-01 7.20617846e-02
      -1.46720022e-01 -3.03752162e-02 2.70131435e-02 1.60295725e-01
      7.58348480e-02 -4.75027077e-02 -4.73538227e-02 -1.01264387e-01
      -8.19818974e-02 2.29115449e-02 5.49154449e-03 -1.08961970e-01
      -3.24228108e-02 1.09112777e-01 -1.07265845e-01 5.89029081e-02
      3.80010270e-02 8.78072977e-02 1.10766413e-02 -4.10626009e-02
      -5.12591489e-02 3.57413627e-02 2.42494792e-03 -1.23402819e-01
      7.39362836e-02 4.39242460e-02 0. -8.56921019e-04 -2.18380466e-02
      7.25698695e-02 2.65202135e-01 -3.17189470e-02 -7.22489133e-02
      5.45899794e-02 5.32886852e-03 9.00526643e-02 5.08304965e-03
      1.39259994e-02 -4.20094095e-02 -1.84808999e-01 -5.59188128e-02
      -4.07872535e-02 6.17233813e-02 2.46689394e-02 3.35946791e-02
      9.92465019e-02 2.17688121e-02 6.57918826e-02 9.94868875e-02
      -6.43461496e-02 -1.33908436e-01 -1.45547539e-02 2.26461329e-02
      7.00793415e-02 8.10523033e-02 -5.08127622e-02 6.39400557e-02
      -1.09528108e-02 0. 1.04031228e-02 -2.81452425e-02 -1.33850485e-01
      -2.34311633e-02 6.58284575e-02 1.41070813e-01 -5.36413342e-02
      -8.34270194e-03 1.53518238e-04 4.61803824e-02 1.64966267e-02
      -9.70105454e-03 -1.91715300e-01 2.74164006e-02 8.64602849e-02
      9.81221125e-02 -8.65320563e-02 -3.94519344e-02 8.46423656e-02
      1.64439380e-02 -9.06107873e-02 -1.74977303e-01 -4.41608801e-02
      1.13713406e-01 -3.33707482e-02 -1.81572229e-01 1.15627699e-01
      1.37412667e-01 -1.21956635e-02 -2.48526298e-02 -1.39339507e-01 0.
      2.48336773e-02 -3.08377165e-02 -5.22730425e-02 6.90957457e-02
      1.99755803e-01 -5.08510508e-03 -9.08212140e-02 6.20048046e-02
      1.22452237e-01 3.65089513e-02 -1.64276536e-03 -1.78618599e-02
      -1.13263093e-01 3.27940588e-03 -2.24111456e-04 -1.76879823e-01
      6.09163232e-02 4.40327376e-02 9.56120342e-02 -1.53351640e-02
      -1.70047469e-02 -2.80811661e-03 8.29985812e-02 -3.01525723e-02
      -2.86802888e-01 1.26239195e-01 4.64941822e-02 -1.52997207e-02
      -1.18446298e-01 1.31424800e-01 6.54845387e-02 0. 1.02459649e-02
      1.73249692e-01 4.89864275e-02 -1.78772826e-02 -1.51681930e-01
      5.06111309e-02 -2.50363480e-02 1.11134842e-01 8.54222253e-02
      4.58158553e-02 -7.07188472e-02 1.89264063e-02 3.64489816e-02
      -1.16910711e-01 -4.52806316e-02 -2.72304602e-02 3.63902859e-02
      7.77426884e-02 1.15227826e-01 1.47425741e-01 1.50835842e-01
      5.98071469e-03 -1.55374274e-01 3.93072814e-02 -4.20900881e-02
      1.22914396e-01 2.58985143e-02 3.53866853e-02 4.61695716e-03
      1.03175692e-01 -2.99310163e-02 0. -6.46404177e-02 -2.34947857e-02
      -8.13970640e-02 -2.01554764e-02 -5.08552454e-02 -1.58050638e-02
      1.42910387e-02 1.37140051e-01 -1.39314467e-02 -4.93001007e-02
      1.26183510e-01 -7.52607509e-02 8.23733062e-02 -1.01557381e-01
      -1.04435779e-01 -8.79599061e-03 -2.46086400e-02 -7.33555928e-02
      7.09941164e-02 8.00893083e-02 -1.07333250e-01 4.85678855e-03
      -2.37463694e-02 -6.72841892e-02 2.61615682e-02 1.13818154e-01
      9.76312533e-02 7.44914114e-02 -8.10847580e-02 -5.72225563e-02
      -1.00045495e-01 0. -7.82501921e-02 5.70566542e-02 -1.34185746e-01
      6.29527271e-02 2.09274471e-01 9.57010314e-02 2.45463606e-02
      -3.23184021e-02 -1.25224501e-01 -2.03563079e-01 -1.89538840e-02
      -1.07288755e-01 -2.49062516e-02 -4.59671915e-02 -5.98570779e-02
      -6.19744603e-03 9.34722126e-02 -1.64218489e-02 -8.06734487e-02
      7.32776597e-02 -8.28354284e-02 3.38637345e-02 2.93826133e-01
      9.92136970e-02 5.01972288e-02 1.27851620e-01 -1.42890844e-03
      -6.28549233e-02 -6.65497407e-02 6.95267394e-02 -8.63178074e-02 0.
      -1.02131084e-01 6.58560693e-02 -9.39840525e-02 2.67986078e-02
      1.65636867e-01 2.27229334e-02 -6.13570102e-02 5.08401543e-02
      -3.50436382e-02 -9.46649164e-02 -1.61557257e-01 7.88200274e-02
      1.06933966e-01 3.86674516e-02 -3.96262705e-02 -2.22000536e-02
      -7.25596771e-02 9.25494656e-02 -1.98361114e-01 -1.13419384e-01
      -1.86225474e-02 9.18348208e-02 2.02061936e-01 9.72428396e-02
      -7.56717399e-02 -6.10247329e-02 2.57783402e-02 -3.07397433e-02
      -3.03893164e-02 2.95235999e-02 1.54371513e-02 0. -9.63222459e-02
      -2.83422042e-02 1.71911448e-01 7.72075355e-02 6.92622587e-02
      -7.52527714e-02 -2.62458827e-02 1.11247577e-01 2.36796692e-01
      4.89115007e-02 -1.58817649e-01 -1.23118848e-01 -1.64372679e-02
      -6.95169270e-02 -1.39387235e-01 -1.11500919e-02 -1.66454967e-02
      2.04057340e-02 8.59258324e-02 -9.18221250e-02 8.48230347e-02
      5.25393412e-02 4.30070749e-03 -5.67786768e-02 -8.17456399e-04
      7.10656047e-02 1.73143014e-01 3.38648371e-02 -3.83220389e-02
      -3.25677134e-02 2.50071175e-02 0. -1.38591565e-02 -7.52114654e-02
      -8.77790377e-02 -1.24933332e-01 -9.21817720e-02 -7.76189789e-02
      -8.31950158e-02 7.82350749e-02 1.48238495e-01 -5.79911508e-02
      -3.01750526e-02 -6.88051200e-03 4.21308447e-03 -1.23399105e-02
      -1.48357257e-01 6.12998344e-02 -4.86275032e-02 1.17598716e-02
      2.63621509e-02 1.03049530e-02 1.05500426e-02 -1.17933683e-01
      -1.22634895e-01 -1.36923850e-01 2.22023409e-02 7.66331470e-03
      1.71805561e-01 6.24623969e-02 -1.40210584e-01 -7.82677010e-02
      -1.05801433e-01 0. 1.15547128e-01 7.90838897e-02 -9.10970345e-02
      2.46859179e-03 1.09589703e-01 1.01292871e-01 -5.72950654e-02
      -1.26237229e-01 -8.16124007e-02 -1.58139929e-01 6.21308982e-02
      1.35242511e-02 -8.11103880e-02 1.13714494e-01 -4.58625145e-02
      -1.60647392e-01 2.37248279e-02 4.37758528e-02 1.16875671e-01
      9.75028723e-02 -4.87436168e-02 -4.70105968e-02 -5.66371018e-03
      1.14932861e-02 -7.79323354e-02 -8.02200809e-02 6.83758482e-02
      1.52595639e-01 -2.91944165e-02 -3.91742922e-02 -1.48879200e-01 0.
      -4.74616922e-02 -9.67824482e-04 -6.11626059e-02 -8.64067022e-03
      3.35687697e-02 6.17557466e-02 1.44528281e-02 8.95185247e-02
      1.68781415e-01 -3.36778350e-02 6.39924258e-02 -1.65274248e-01
      -1.01416861e-03 4.80302349e-02 7.36525729e-02 -2.49303784e-02
      5.86589910e-02 6.02836721e-02 9.96873304e-02 3.64417471e-02
      -1.29413143e-01 -3.67315114e-02 7.40976855e-02 5.93480133e-02
      -1.59950368e-02 1.58184484e-01 1.35399923e-01 -3.59309986e-02
      -1.07743554e-01 2.09013656e-01 9.00182351e-02 0. -1.42408693e-02
      7.08994940e-02 -2.96054166e-02 1.00490674e-02 1.10725444e-02
      8.65144073e-04 -7.12589249e-02 1.52645372e-02 -1.15534924e-01
      2.15176214e-02 1.24272862e-02 -2.95032351e-03 3.63383107e-02
      -4.07453515e-02 7.31937438e-02 -8.22566524e-02 -6.32658182e-03
      8.97642970e-02 1.03596248e-01 7.96053633e-02 6.14989661e-02
      2.38235649e-02 -5.47249727e-02 3.85504365e-02 -1.11850739e-01
      -4.07418907e-02 -6.10077828e-02 -2.78346594e-02 -1.51642971e-02
      8.42912570e-02 -5.14401421e-02 0. -6.50272444e-02 1.02452770e-01
      -9.71283987e-02 -6.34697452e-02 7.18348697e-02 1.05293833e-01
      -1.08175806e-03 -7.30850548e-03 4.39115725e-02 7.66317695e-02
      8.98589641e-02 -1.03712156e-01 -9.30222403e-03 -1.40967354e-01
      -6.99939877e-02 -3.46048139e-02 -1.43964574e-01 -4.79396284e-02
      2.93473154e-01 1.54591545e-01 -4.51436602e-02 2.93937661e-02
      5.69923446e-02 1.29473820e-01 -8.51380453e-02 1.02704344e-02
      1.12752870e-01 2.04238258e-02 2.79323496e-02 -5.92562221e-02
      -1.27935097e-01 0. -1.05252333e-01 -6.49298951e-02 -8.41261595e-02
      7.62581080e-02 -3.70792858e-02 -1.07170336e-01 -1.16065741e-01
      -4.29438725e-02 -9.77578834e-02 -1.57078132e-01 8.49470571e-02
      -1.74867690e-01 -1.35705009e-01 -3.88357081e-02 1.28258377e-01
      3.72532830e-02 -1.35043725e-01 3.71358730e-02 -1.12828434e-01
      5.94088510e-02 -1.09678671e-01 -2.29443517e-02 1.45860597e-01
      1.10939756e-01 -9.05364379e-02 -8.23017731e-02 -4.81488258e-02
      -1.43372402e-01 -1.46777749e-01 -9.44993272e-02 -5.51681295e-02 0.
      -4.67758924e-02 1.60965137e-02 -5.11969961e-02 7.70877823e-02
      -1.11923419e-01 -3.26225720e-02 -3.20821651e-04 -4.50429134e-02
      -1.38352498e-01 -1.67946622e-01 3.85276899e-02 1.16699999e-02
      5.82140908e-02 8.40979517e-02 4.31376090e-03 -6.42937571e-02
      -1.71090990e-01 1.00033008e-01 -9.35086235e-02 -2.11197194e-02
      6.69130534e-02 7.51265213e-02 7.68965557e-02 -3.13253142e-03
      -6.07373677e-02 -7.47653395e-02 1.25036796e-03 -1.25573680e-01
      -5.98338246e-02 -4.15763147e-02 1.97913870e-02 0. -2.05070898e-01
      -1.04424492e-01 -1.20826550e-01 2.31855325e-02 -1.39385592e-02
      3.89334783e-02 -9.65482667e-02 -7.51537532e-02 -2.98269745e-02
      -2.93825362e-02 -4.22539450e-02 3.72389853e-02 1.00373346e-02
      1.15215667e-01 -2.52629519e-02 6.39139190e-02 -2.40007918e-02
      7.94450641e-02 6.96510226e-02 -5.72586618e-02 6.64314581e-03
      4.88743745e-02 1.94805920e-01 8.51398855e-02 -3.40975896e-02
      -1.14955850e-01 4.22980338e-02 -5.90802357e-02 -1.64620448e-02
      -7.52509832e-02 -3.71631943e-02 0. -7.93785676e-02 5.47289252e-02
      1.04460590e-01 -2.95859762e-02 -4.62543964e-02 -1.96139626e-02
      -9.76540595e-02 1.18396193e-01 -6.04140870e-02 2.14750897e-02
      7.67679699e-03 -3.39092501e-02 -1.47126958e-01 9.55570489e-03
      -1.19608112e-01 -4.44882289e-02 -1.09523714e-01 -3.52394097e-02
      7.41983652e-02 1.57187060e-01 1.40752867e-01 -4.81190113e-03
      2.68757790e-02 -5.25552183e-02 -5.64515963e-02 8.93026441e-02
      -3.54382619e-02 2.64369976e-02 -2.66106036e-02 -1.38204366e-01
      -1.00387722e-01 0. -4.90886085e-02 1.49615616e-01 7.53717422e-02
      1.23019358e-02 2.48405915e-02 3.38661261e-02 -9.18099936e-03
      1.03826746e-01 -8.16788152e-02 -2.06632027e-03 3.07459105e-02
      4.13340665e-02 -9.26676467e-02 4.74665128e-02 -3.74840982e-02
      9.01700556e-02 2.78831599e-03 -3.43224630e-02 1.18839927e-01
      6.28740415e-02 1.62362994e-03 -2.13363469e-02 2.98213586e-02
      -3.10631171e-02 2.45341174e-02 1.07683592e-01 -8.18791986e-03
      2.17533559e-01 1.05726264e-01 -7.86093548e-02 -1.00478128e-01 0.
      -1.38050482e-01 2.82897446e-02 -2.66681015e-02 3.44451852e-02
      -6.92558801e-03 3.75766270e-02 2.37575807e-02 -2.79866569e-02
      1.38164654e-01 -1.99604481e-02 7.85299391e-02 -7.51285553e-02
      -7.73339197e-02 -4.33479473e-02 -1.50808636e-02 1.28325433e-01
      -2.57924777e-02 -6.80816034e-03 5.69847524e-02 4.87906113e-02
      -6.29752502e-02 -8.16198885e-02 -9.09959823e-02 -6.16993792e-02
      1.35583267e-01 3.13925999e-03 1.00364029e-01 -1.22084804e-01
      -1.09780699e-01 1.19250864e-01 1.15445822e-01 0. -7.52085820e-02
      6.52184263e-02 1.62808299e-01 1.75925205e-03 4.42471169e-02
      8.80897418e-02 1.09467603e-01 -1.00350631e-02 8.70686471e-02
      -3.22282873e-02 -6.36260659e-02 -3.73749435e-02 -3.50558646e-02
      -1.24210395e-01 -1.09995112e-01 1.37496470e-02 -1.71097875e-01
      2.64019202e-02 1.36153609e-01 8.90717134e-02 1.50734112e-01
      2.90595181e-02 1.07155778e-02 -1.94861200e-02 8.21891204e-02
      -1.11428469e-01 1.75707191e-02 -1.26099437e-01 -3.50396000e-02
      7.96584040e-02 5.31864353e-02 0. -1.80955380e-01 7.99733624e-02
      1.86337098e-01 -9.96805355e-02 -4.82066441e-03 6.76869825e-02
      6.73335418e-02 -1.70387700e-02 1.08027302e-01 -1.23521432e-01
      -9.15957838e-02 -9.02036205e-02 -2.46332306e-02 -2.23193526e-01
      -1.13448158e-01 2.86501907e-02 -8.10568184e-02 -7.86097813e-03
      1.12375729e-01 -6.16542175e-02 4.08505872e-02 -1.08963355e-01
      -6.37236536e-02 8.78395215e-02 6.55734465e-02 -2.65276767e-02
      3.52988355e-02 -7.86778927e-02 3.84390429e-02 -1.45799220e-01
      -5.90901487e-02 0. -2.02617526e-01 9.66069847e-02 1.53042018e-01
      7.86876455e-02 5.14078960e-02 -4.38064709e-02 -6.41974285e-02
      1.28718978e-02 1.30238727e-01 -1.64698258e-01 -4.51912376e-04
      -7.14230835e-02 -8.47000331e-02 1.45378206e-02 1.19652934e-02
      1.25106826e-01 -2.21946135e-01 -1.66686714e-01 -1.26879945e-01
      7.03875199e-02 5.76964431e-02 5.07609248e-02 7.75077343e-02
      5.41716209e-03 8.51022452e-02 -2.54768562e-02 -5.14562950e-02
      -8.91953409e-02 -4.48767655e-02 -6.41210899e-02 3.50593328e-02 0.
      -4.68643345e-02 -1.10872462e-02 -5.60938194e-02 -4.69377376e-02
      -5.51667027e-02 -2.41862595e-01 8.68789628e-02 2.98963517e-01
      2.12059751e-01 -9.26264152e-02 -6.75535873e-02 -6.48676138e-03
      -1.17500834e-01 -6.28319606e-02 -8.98951516e-02 -5.90442754e-02
      -1.22979626e-01 4.98184860e-02 4.85040201e-03 -1.57746412e-02
      4.29944210e-02 -1.41282409e-01 1.82630233e-02 -1.64020061e-01
      4.80038188e-02 2.55914688e-01 1.15406923e-01 -1.37344584e-01
      -2.38431338e-02 -3.55061777e-02 -5.63582731e-03 0. -1.70832589e-01
      9.60942805e-02 2.31892824e-01 1.68405861e-01 -4.11940292e-02
      -8.89778957e-02 -1.23454824e-01 -1.03541706e-02 1.24399913e-02
      -4.79879454e-02 -6.94745481e-02 -1.60522401e-01 -1.09730199e-01
      -3.62269133e-02 1.30510867e-01 3.93406935e-02 -1.28819659e-01
      5.78271300e-02 1.38576239e-01 7.11064637e-02 1.78630322e-01
      1.22109801e-01 5.33445701e-02 5.88448122e-02 -3.77414599e-02
      -1.06763028e-01 1.22254372e-01 -7.28058591e-02 2.19484791e-02
      -9.50878263e-02 2.75938809e-02 0. -1.09317914e-01 -4.84510027e-02
      -1.30605782e-04 6.40087947e-02 1.78781468e-02 1.98288243e-02
      1.01199992e-01 -8.12405348e-02 -6.10097721e-02 -1.19532436e-01
      -1.13240831e-01 1.15579627e-02 -3.22926268e-02 -5.17998077e-02
      3.56087349e-02 -2.24334504e-02 9.44235548e-02 7.96298590e-03
      3.55971456e-02 -1.10417167e-02 2.90057454e-02 5.63606918e-02
      7.04476088e-02 7.90526643e-02 -1.40636675e-02 -9.72768385e-03
      3.95702198e-02 -1.30470721e-02 1.02571234e-01 -1.72795191e-01
      -5.20113707e-02 0. -7.73307756e-02 2.22293101e-02 2.55649630e-02
      1.13387488e-01 -1.26567492e-02 2.47874316e-02 -8.72592628e-02
      1.95368053e-03 8.46759137e-03 -9.53154638e-02 2.86020599e-02
      -5.66387363e-02 -5.19704558e-02 -4.22382317e-02 4.30706935e-03
      5.72029948e-02 -2.99094059e-02 -1.02494664e-01 7.44029507e-02
      6.48503304e-02 -3.60697582e-02 9.69559401e-02 -3.05594085e-03
      6.67462051e-02 -2.34831721e-02 3.53079401e-02 -3.36037204e-02
      1.17793716e-01 1.15067050e-01 -2.30595365e-01 -1.29218712e-01 0.
      -9.15708840e-02 2.15372946e-02 -7.14338645e-02 -5.81458490e-03
      4.57483083e-02 1.73180819e-01 -4.84022610e-02 -8.51567313e-02
      7.51016960e-02 -4.00582030e-02 -9.07572955e-02 -4.52346355e-02
      -2.47435942e-02 -1.23319728e-02 -5.17773814e-02 -9.37299058e-02
      3.54981869e-02 1.25714406e-01 -6.00062646e-02 -7.48714507e-02
      -4.64446582e-02 -8.44559819e-03 -3.99034806e-02 1.58350483e-01
      -1.11636952e-01 -6.28645569e-02 8.46929848e-02 -2.17708305e-01
      -9.46670175e-02 6.38754070e-02 1.61653608e-01 0. -2.00585097e-01
      -1.07885361e-01 3.48599851e-02 -1.60084963e-02 5.53841069e-02
      4.10503857e-02 -2.59467550e-02 -7.29184598e-02 4.13523354e-02
      -1.33028552e-01 -1.17112979e-01 -5.19119464e-02 3.12027950e-02
      1.75246254e-01 -8.20640568e-03 -1.07455954e-01 -6.23480901e-02
      -1.01381689e-01 5.66496095e-03 -1.28745198e-01 4.28785793e-02
      5.91141498e-03 9.01010931e-02 5.17880209e-02 -1.17769577e-01
      -1.28698736e-01 -4.80427369e-02 -1.57105625e-01 -1.33380041e-01
      -6.28943890e-02 5.84278777e-02 0. -8.50949809e-02 -8.75241868e-03
      -1.90484468e-02 -8.12375247e-02 -1.72480360e-01 -7.45447204e-02
      -3.39494422e-02 -2.68293638e-02 8.53678361e-02 -2.67098714e-02
      6.19532764e-02 9.21907723e-02 5.33290906e-03 2.98376791e-02
      -4.92746159e-02 -5.52256256e-02 -3.49162146e-03 -3.60408723e-02
      1.23181410e-01 -3.35587859e-02 -2.01987270e-02 -5.99472187e-02
      -6.57885820e-02 -4.76630665e-02 -7.75059089e-02 -4.00272869e-02
      -2.21674796e-02 -1.10418489e-02 3.40163559e-02 -1.10766239e-01
      -9.98242870e-02 0. -8.50470364e-02 4.97916155e-02 8.91450141e-03
      -7.61543289e-02 4.97311316e-02 -1.25799537e-01 2.05795020e-02
      3.06629930e-02 1.79406703e-02 -7.65333101e-02 1.00165226e-01
      -1.32199526e-01 2.43889410e-02 5.06595261e-02 1.61856227e-02
      -1.23349153e-01 -2.22632721e-01 -2.12109052e-02 5.33237234e-02
      1.72657400e-01 -2.52405033e-02 -2.71322262e-02 2.99026445e-02
      -1.11861430e-01 -2.90371571e-02 -6.60223933e-03 6.55238330e-02
      -8.58418941e-02 -3.93410847e-02 -6.20647371e-02 -4.55799513e-02 0.
      -5.97536713e-02 -1.40831936e-02 -1.64174121e-02 -4.15794514e-02
      -1.36681553e-02 -1.89662397e-01 -9.36181694e-02 8.15088302e-02
      7.26516768e-02 -1.18987933e-01 -8.74638781e-02 -1.26859963e-01
      -1.10319704e-01 -1.38763487e-01 -6.15564873e-04 -1.01621244e-02
      -3.42541933e-02 3.81546021e-02 -1.12215750e-01 4.20815870e-02
      -1.22579738e-01 -1.09855391e-01 -1.61567882e-01 -1.27692461e-01
      -8.15661252e-02 3.98822278e-02 2.29103435e-02 -1.24596842e-01
      -1.59154847e-01 -5.31475879e-02 -7.03403950e-02 0. 2.18120925e-02
      1.09888613e-01 6.67217523e-02 1.00242719e-01 -1.24375418e-01
      -5.73788919e-02 -6.47440404e-02 -7.04676211e-02 6.38894513e-02
      3.22854705e-02 -5.16673026e-04 -1.37166783e-01 -5.66206127e-02
      6.86026365e-02 8.39914083e-02 6.16658479e-02 -4.76886146e-02
      3.73247974e-02 2.69300699e-01 5.22926673e-02 -1.59295443e-02
      7.36028925e-02 4.39455267e-03 2.95693707e-02 -2.49540377e-02
      -6.04709499e-02 1.21868528e-01 1.38538973e-02 -1.96711645e-02
      2.57211048e-02 2.13277321e-02 0. 1.04997389e-01 -3.55346464e-02
      -1.48638546e-01 1.49256699e-02 1.22042514e-01 -6.91010989e-03
      3.12987864e-02 -1.52144656e-01 1.28959447e-01 -8.66404325e-02
      -2.34870017e-02 2.04131566e-02 -1.97641253e-02 -1.03814587e-01
      1.20371461e-01 -1.61456782e-02 -2.20046062e-02 -8.04448873e-02
      2.35046983e-01 2.19112653e-02 -8.46889615e-02 1.50693860e-02
      8.97136480e-02 5.81870936e-02 -7.46115297e-02 -1.28005117e-01
      8.69374201e-02 1.30388169e-02 5.24274409e-02 -8.58946368e-02
      -5.14699556e-02 0. -8.76641572e-02 6.15058951e-02 -1.20515421e-01
      9.37274378e-03 7.72105679e-02 3.45077664e-02 -1.13780685e-02
      4.40599397e-02 3.34299132e-02 8.41924474e-02 1.38756474e-02
      -7.45773166e-02 4.95032035e-02 -8.04801434e-02 8.56380984e-02
      1.84128080e-02 -9.57048237e-02 -7.98069015e-02 4.13632765e-02
      -1.89235266e-02 -1.07405916e-01 4.09091860e-02 -3.54835838e-02
      1.50543660e-01 8.28353805e-04 8.38614907e-03 1.26956850e-02
      6.31784126e-02 2.07113042e-01 -1.41149014e-01 -1.47252604e-01 0.
      -1.07227691e-01 -7.80841038e-02 8.12849402e-03 -3.32600288e-02
      1.46569714e-01 4.96117473e-02 2.89329328e-02 1.12731278e-01
      5.43124974e-02 3.06750257e-02 -6.84914589e-02 -2.55192425e-02
      -6.82371706e-02 -5.27319163e-02 -3.58827552e-03 -4.74298187e-02
      9.87002254e-02 -2.74826474e-02 4.58586030e-03 -1.19325608e-01
      -2.90900972e-02 -5.70648834e-02 -1.10418210e-02 4.69956808e-02
      1.24381250e-02 1.31583363e-01 2.32380722e-02 -2.13619545e-01
      -1.18972749e-01 1.53869212e-01 1.87024251e-01 0. -1.08657897e-01
      -7.29086921e-02 8.93075094e-02 -6.63374811e-02 -9.60483402e-02
      5.87633029e-02 3.65184322e-02 -1.21149225e-02 -9.30450633e-02
      -9.41338167e-02 3.01335696e-02 2.41106879e-02 -2.83461921e-02
      -2.23523024e-02 -1.41093686e-01 -4.84173223e-02 -1.35833081e-02
      -5.20454608e-02 1.00846522e-01 3.97131070e-02 8.08402896e-02
      -2.18366347e-02 -1.25094354e-02 8.31036083e-03 -2.32682656e-02
      -5.64318113e-02 -3.21070738e-02 -1.06650360e-01 -6.18642047e-02
      -1.15721628e-01 -3.43616214e-03 0. -5.53499274e-02 1.08945139e-01
      2.34588906e-01 -4.64600362e-02 -1.18038647e-01 5.58429435e-02
      -5.19658346e-03 1.38190743e-02 1.73628837e-01 -1.56175382e-02
      1.48534328e-01 1.49862664e-02 -6.37739673e-02 -1.60337150e-01
      -2.37608671e-01 -1.78168803e-01 -1.58277601e-01 -7.08999708e-02
      1.75036579e-01 3.07529066e-02 1.11249417e-01 -1.16082072e-01
      -1.69356465e-01 -8.62479731e-02 -1.87066883e-01 -1.05019905e-01
      5.97519204e-02 -5.66168875e-02 4.72648107e-02 -1.13424957e-01
      -4.66363579e-02 0. -2.41081864e-02 1.05296008e-01 1.70336977e-01
      1.62652388e-01 6.44557774e-02 1.10489026e-01 7.65455961e-02
      9.36894417e-02 2.07804311e-02 -2.46191084e-01 5.18829599e-02
      -6.46062270e-02 -7.18639493e-02 -3.95739563e-02 -8.89952555e-02
      -6.44984096e-02 -3.20068076e-02 7.28360713e-02 5.72514981e-02
      1.53797194e-01 1.22834735e-01 6.78655878e-03 5.08679934e-02
      -3.11188959e-02 -4.24058326e-02 9.92522109e-03 1.92308985e-02
      2.91870418e-03 6.80814385e-02 4.55553597e-03 6.45070747e-02 0.
      -8.42067599e-02 1.23676144e-01 7.15876892e-02 1.24293715e-01
      -8.41611028e-02 2.67603826e-02 -8.37947950e-02 1.67320058e-01
      1.43810317e-01 1.03185333e-01 7.20813349e-02 4.24800366e-02
      -7.44268447e-02 5.67971058e-02 -2.39950549e-02 -9.81018320e-02
      3.43416445e-02 -7.38932937e-02 5.91900684e-02 2.16821253e-01
      5.92293814e-02 4.09740731e-02 1.12672606e-02 1.82054646e-03
      -1.67418122e-01 2.73021311e-01 7.74990842e-02 -4.36122157e-02
      5.24117723e-02 7.81656578e-02 1.22220501e-01 0. -7.25824684e-02
      1.82301268e-01 -1.07980389e-02 9.58177596e-02 -4.69970107e-02
      -5.97658567e-03 -3.43945734e-02 1.55404523e-01 9.39538330e-02
      -9.25726444e-02 -1.77106127e-01 -8.64742473e-02 -9.47708115e-02
      -2.44929902e-02 -5.70223071e-02 -1.08172044e-01 4.11678255e-02
      -4.25146557e-02 1.68930903e-01 2.39694715e-02 -5.94917946e-02
      3.65634821e-02 -4.85095419e-02 -6.05457164e-02 -1.72755018e-01
      1.32177785e-01 4.64825742e-02 -5.85085005e-02 -1.37768770e-02
      -7.80782402e-02 1.59065165e-02 0. 8.87841135e-02 -9.02596787e-02
      -1.07217155e-01 1.31932363e-01 -1.29569415e-02 1.12495851e-02
      -5.14939539e-02 4.39158902e-02 -5.27364723e-02 -1.93272159e-01
      -1.43072814e-01 -1.37251494e-02 -2.01971792e-02 -1.85921453e-02
      -5.76253980e-02 4.01673391e-02 9.29162428e-02 -2.51094084e-02
      1.09107427e-01 -1.04032326e-02 -5.46217188e-02 8.93707424e-02
      6.46873415e-02 -5.54681495e-02 -1.21947698e-01 1.77724864e-02
      -2.91776303e-02 -5.34434170e-02 4.68233153e-02 -1.32320970e-01
      -3.89148332e-02 0. -1.46987870e-01 1.19479656e-01 -9.66221560e-03
      5.85863516e-02 6.40186146e-02 5.15283048e-02 -7.44998828e-02
      4.35356013e-02 -2.14871559e-02 8.28042179e-02 -2.62043551e-02
      -5.70233492e-03 2.17927564e-02 -5.93672469e-02 8.37058425e-02
      5.95354624e-02 2.31826771e-02 -1.20969735e-01 8.31724703e-02
      -1.69105679e-02 1.57787781e-02 1.84570812e-02 -2.72960067e-02
      5.93261831e-02 -1.09164156e-01 -1.11784041e-01 -5.12042530e-02
      1.06856637e-01 2.03396484e-01 -1.82766899e-01 -5.99400029e-02 0.
      -9.30637270e-02 -2.29013246e-02 1.30300727e-02 -4.26345058e-02
      7.29796961e-02 5.40014468e-02 5.93785085e-02 5.23487478e-02
      -1.22072488e-01 -7.04726949e-03 2.30382308e-01 1.48766011e-01
      2.18147063e-03 2.81288158e-02 8.73923767e-03 -6.61724210e-02
      -1.66418534e-02 -4.54091839e-02 -8.10311586e-02 2.19318897e-01
      6.17853776e-02 1.66611485e-02 5.38420305e-03 3.62503007e-02
      1.81552656e-02 -4.98981727e-03 -1.24287635e-01 -1.23595871e-01
      -1.43071607e-01 1.74570188e-01 2.11829841e-01 0. -9.87867638e-03
      1.65392682e-01 9.90581214e-02 -6.76948801e-02 7.67945172e-03
      1.98056325e-01 1.82871346e-03 8.23950768e-03 -1.29301637e-01
      3.96880507e-02 -4.28860486e-02 -2.31311396e-02 -5.99732958e-02
      -6.32491037e-02 -4.50400487e-02 5.09041436e-02 -6.10517226e-02
      1.34988368e-01 1.03290305e-01 6.95920810e-02 5.97083904e-02
      -6.16250299e-02 -8.03171075e-04 5.08831665e-02 4.12182212e-02
      -6.41756654e-02 2.45619267e-02 9.36516747e-03 4.64028819e-03
      4.75705191e-02 3.44146602e-02 0. -1.51710346e-01 4.08037230e-02
      6.58977553e-02 -9.71538052e-02 6.91189989e-02 7.38126263e-02
      -8.01974833e-02 -4.14364450e-02 2.19932720e-02 -1.53558021e-02
      1.13650411e-02 2.39989571e-02 5.68808503e-02 -1.23888418e-01
      -1.15389243e-01 4.69485484e-02 -5.88705800e-02 -1.61112491e-02
      1.89816192e-01 1.00561157e-02 6.04335889e-02 3.92227061e-02
      3.48596573e-02 -4.72013988e-02 -6.46846788e-03 -7.09121823e-02
      -3.32426801e-02 -2.91225091e-02 5.47920773e-03 -5.75147830e-02
      -5.52149229e-02 0. -1.31714851e-01 2.04862103e-01 8.02751482e-02
      -1.56207129e-01 -1.12376124e-01 7.78820664e-02 9.16445926e-02
      2.33661849e-02 9.20306444e-02 -7.11661205e-02 5.96671663e-02
      2.30758935e-02 3.32810506e-02 -5.59754483e-02 -1.34504050e-01
      -1.39942080e-01 -4.57206145e-02 6.92430660e-02 8.85788724e-02
      2.82017171e-01 1.04939401e-01 -1.03372552e-01 -2.12776408e-01
      -1.29523680e-01 -2.86428984e-02 9.82184988e-03 8.55965689e-02
      -5.96731305e-02 3.91947329e-02 3.88715533e-03 -2.69088652e-02 0.
      -1.23946361e-01 1.40153542e-01 3.57117094e-02 -8.33503976e-02
      -8.15544650e-02 -2.78458986e-02 9.43606272e-02 1.65182471e-01
      2.04544201e-01 5.16356118e-02 -1.91151891e-02 -3.41310240e-02
      6.75253719e-02 -3.20448875e-02 -7.62731358e-02 -1.49613276e-01
      -8.51418376e-02 -7.76245221e-02 2.43583806e-02 1.10842921e-01
      -2.13176645e-02 -6.85012564e-02 4.38563526e-03 -7.15028048e-02
      -9.70052406e-02 1.03270464e-01 8.64026994e-02 -7.65137896e-02
      -2.28158962e-02 2.33163801e-03 8.21359754e-02 0. -1.03283644e-01
      1.81804329e-01 -1.57201160e-02 6.28259629e-02 6.16986267e-02
      -1.58051148e-01 5.46296407e-03 -3.28257792e-02 1.77495629e-02
      -6.57964274e-02 -9.75751579e-02 -1.09274186e-01 -1.89119071e-01
      -8.48725140e-02 -7.87106156e-03 -1.77737698e-02 2.35302486e-02
      2.88359150e-02 9.75294486e-02 9.28887427e-02 -9.72825736e-02
      -1.17604032e-01 6.20286018e-02 3.91635299e-03 7.88170006e-03
      -3.96680087e-02 9.06154364e-02 -1.06076069e-01 -4.30338457e-02
      -5.13610654e-02 -3.53493690e-02 0. -1.37928233e-01 -6.18841350e-02
      1.33711053e-02 1.53910115e-01 3.45439203e-02 7.23974332e-02
      -5.09108119e-02 1.03232615e-01 -4.71694805e-02 -1.73656747e-01
      -4.36033942e-02 -1.78270325e-01 2.73337308e-02 3.27324755e-02
      -1.87612362e-02 6.30694553e-02 9.37123746e-02 -3.61137139e-03
      3.99681441e-02 -1.22352792e-02 -1.03433698e-01 1.23768456e-01
      1.88541681e-01 1.46294490e-01 2.71189287e-02 5.77967800e-02
      -1.24511740e-03 -3.24809179e-02 9.88688394e-02 -8.31299648e-02
      -4.05295677e-02 0. -1.48096025e-01 -6.37127757e-02 6.81611523e-02
      5.75692095e-02 3.86398397e-02 5.96055239e-02 -5.66029549e-02
      5.28541766e-02 -6.29993752e-02 -1.17196836e-01 1.25719473e-01
      -2.60162298e-02 4.79102507e-02 -1.21145174e-01 2.73121148e-02
      1.51858822e-01 1.00624435e-01 -4.76012491e-02 -1.15669511e-01
      1.32369744e-02 7.63090849e-02 6.26738444e-02 -3.80108319e-02
      1.75214455e-01 8.13950598e-02 -7.73968641e-03 1.15297241e-02
      1.00303218e-01 1.79772854e-01 -1.69681743e-01 -6.94370195e-02 0.
      -9.84022673e-03 -6.11233599e-02 -3.47806923e-02 5.08063026e-02
      1.49665654e-01 2.26580929e-02 8.59992877e-02 1.24784857e-01
      3.93939763e-02 -7.88513497e-02 8.09831843e-02 5.81852868e-02
      -2.11096287e-01 -1.12129204e-01 5.72035350e-02 -7.72996619e-02
      -9.28229913e-02 -1.03482893e-02 2.70497985e-02 -3.05844489e-02
      6.46736333e-03 -1.25436410e-01 1.10912882e-02 5.95657043e-02
      -4.09445874e-02 -2.92268246e-02 3.74212116e-02 -1.30837590e-01
      -1.10530563e-01 8.06479976e-02 1.51946500e-01 0. -2.38363504e-01
      -1.57110859e-03 -1.12586347e-02 5.15220575e-02 3.83862108e-02
      7.02814460e-02 -2.13884958e-03 -4.92191501e-02 1.10230625e-01
      -8.51050112e-03 4.35307398e-02 -1.06465235e-01 -2.35702470e-02
      -1.89080667e-02 7.05734044e-02 -1.02967307e-01 -1.36523142e-01
      -1.45177931e-01 4.86477725e-02 2.40661320e-03 -1.03665791e-01
      1.06749035e-01 2.57131979e-02 1.37474209e-01 -5.42759821e-02
      -1.24438986e-01 -5.60089312e-02 -1.33900538e-01 -4.61805565e-03
      -6.14791699e-02 -1.69165581e-02 0. -7.16788396e-02 -5.38032502e-03
      8.02315027e-03 -2.50179805e-02 -8.66247416e-02 -5.87027986e-03
      -1.33403793e-01 -1.16361871e-01 2.24594660e-02 6.60398006e-02
      3.96986045e-02 1.07255788e-03 -3.10712010e-02 -7.51669109e-02
      2.21528653e-02 -2.50296909e-02 -1.16217330e-01 2.99367495e-02
      2.38217130e-01 3.54943573e-02 9.77466907e-03 -3.05360090e-03
      -4.45402302e-02 6.80036023e-02 -1.21991299e-01 -1.29219234e-01
      6.10349141e-02 -1.60543546e-01 3.98083888e-02 -1.15868390e-01
      -2.46558688e-04 0. -1.16874032e-01 -8.75833556e-02 -1.79786310e-02
      -4.04846705e-02 -1.00152522e-01 -7.27749020e-02 -1.46974751e-03
      -7.32533187e-02 1.31328404e-01 -2.20616795e-02 8.44990015e-02
      -6.47073835e-02 -4.12100777e-02 -2.68865433e-02 6.61228299e-02
      -3.31540592e-02 1.60779636e-02 2.71437410e-02 1.16890728e-01
      4.44994830e-02 -6.67257681e-02 -6.45973980e-02 -5.50090102e-03
      -3.61471176e-02 -4.58318815e-02 -5.01775928e-02 9.18644816e-02
      -1.53728083e-01 2.69942041e-02 -1.29359350e-01 8.00634921e-02 0.
      -8.09980035e-02 -1.09472172e-02 4.91409786e-02 3.65580544e-02
      -1.53644562e-01 -6.69280142e-02 -3.10423244e-02 -7.72899482e-03
      -3.98062170e-02 -8.48627463e-02 1.28893778e-01 -1.46417812e-01
      -9.66864005e-02 -9.90748778e-02 -3.21133323e-02 -1.47141159e-01
      4.59923036e-02 9.56779644e-02 6.98514879e-02 6.28149137e-02
      -3.11925784e-02 -3.54066193e-02 -1.46966711e-01 -6.61461726e-02
      -2.06809878e-01 5.19830547e-02 1.04925744e-01 -1.40584826e-01
      -5.40524647e-02 -1.28067493e-01 2.04767827e-02 0. -5.65704480e-02
      5.39777912e-02 2.98250578e-02 3.57464105e-02 -4.88777943e-02
      -1.23197578e-01 3.00649535e-02 -3.99993826e-03 1.35349408e-02
      -9.75076854e-02 -5.50626814e-02 -1.38910919e-01 -1.97193131e-01
      -1.07905120e-01 -6.23179879e-03 -4.24981723e-03 8.04750845e-02
      1.39631048e-01 1.08018875e-01 -2.29645590e-03 -2.13582497e-02
      -1.36223957e-01 -1.19480848e-01 -2.18933802e-02 -5.96888997e-02
      7.17954934e-02 1.61897004e-01 -4.06214856e-02 -4.37662192e-02
      -6.82266355e-02 -6.25569299e-02 0. -6.22094516e-03 -1.89906098e-02
      5.12378328e-02 2.95348112e-02 2.37418097e-02 1.15369424e-01
      1.17588244e-01 9.67154875e-02 -1.05858646e-01 -2.70887434e-01
      -1.95417721e-02 -1.72541529e-01 -7.87240118e-02 -5.73073402e-02
      -2.34117117e-02 -2.99752019e-02 -1.39451608e-01 4.96381968e-02
      6.89218417e-02 -3.99632193e-02 -8.73407423e-02 -2.64251023e-03
      5.15868962e-02 8.60542431e-02 4.91142981e-02 -4.70069535e-02
      -3.98065709e-02 -2.58304179e-02 -3.35207246e-02 -5.91094792e-02
      -8.85240510e-02 0. 1.75422840e-02 -5.32732718e-02 5.53391799e-02
      1.33264624e-02 3.42882574e-02 -7.39599206e-03 -2.47664917e-02
      1.11167923e-01 -5.13401888e-02 -4.29395065e-02 5.17813116e-02
      -1.27803847e-01 -1.53601930e-01 -1.19460121e-01 6.47774935e-02
      -1.44621059e-02 -2.11028866e-02 -8.11814591e-02 5.96212000e-02
      -6.07157648e-02 -1.32910863e-01 -1.01871632e-01 -9.55445766e-02
      5.22634052e-02 -4.03298438e-02 4.75562103e-02 -3.85358930e-02
      6.51808903e-02 1.23115875e-01 -1.44869104e-01 -2.07995683e-01 0.
      1.31761253e-01 5.76499104e-02 -4.77863476e-02 -3.46423872e-02
      2.36904353e-01 2.11128965e-01 2.49147695e-02 3.76105569e-02
      2.47525722e-02 -8.06326792e-03 1.03236891e-01 -8.58252868e-02
      1.10340372e-01 -1.35015501e-02 -5.44262119e-02 -4.32534814e-02
      -2.81420760e-02 -1.03473954e-01 1.29436150e-01 8.42626691e-02
      -6.83802217e-02 -1.63478982e-02 6.03140071e-02 8.28547552e-02
      -4.40155156e-02 -3.89735326e-02 -9.75776687e-02 -9.54574347e-02
      -3.22719105e-02 1.71834484e-01 2.00638711e-01 0. -1.66467011e-01
      -4.05961722e-02 1.52414516e-01 -5.23675904e-02 2.10175030e-02
      -8.17763677e-04 -3.73395905e-02 1.14192076e-01 1.59822628e-01
      7.93025196e-02 -7.06908554e-02 -1.33932158e-01 3.41165923e-02
      -6.37321174e-02 -9.52888187e-03 -1.20218761e-01 -3.20697241e-02
      -1.83707312e-01 1.00817479e-01 -1.04296803e-01 3.59789431e-02
      -5.12766130e-02 1.50304250e-02 6.31800592e-02 -1.40387982e-01
      7.13168010e-02 -9.59690660e-03 -1.53628275e-01 -2.82332599e-02
      -3.05529814e-02 4.71407175e-02 0. 4.00961302e-02 1.16748000e-02
      1.41593531e-01 -5.18475100e-02 -1.06822431e-01 -8.20755586e-02
      -1.21103264e-01 1.04075521e-01 9.76703465e-02 6.29172176e-02
      -1.16443587e-02 -9.09646135e-03 5.43422364e-02 -5.26275113e-02
      1.20672539e-01 -1.45543173e-01 -1.71180502e-01 -4.88012582e-02
      2.27583125e-01 1.93858314e-02 1.11226037e-01 -2.35133749e-02
      -2.19758675e-02 3.67518626e-02 -2.18079731e-01 -8.63565784e-03
      7.10913762e-02 -1.09690279e-01 1.02355133e-03 -1.66363604e-02
      4.62494269e-02 0. 3.14509422e-02 -6.53982162e-02 1.17636137e-01
      8.38658959e-02 -8.74811597e-03 -8.39864388e-02 1.91384573e-02
      -7.68912584e-02 2.59316266e-01 6.18731491e-02 3.22983824e-02
      4.65511978e-02 -6.68294206e-02 -2.98947711e-02 -9.70188901e-03
      -1.20650306e-01 1.14900703e-02 5.80418706e-02 2.20044926e-01
      5.87157086e-02 3.83077636e-02 -6.11186884e-02 3.74986269e-02
      -1.13423109e-01 -7.43282586e-02 -1.39648607e-02 2.36528158e-01
      -2.04545818e-02 8.97010565e-02 -3.37376446e-02 8.68486911e-02 0.
      -9.75572467e-02 5.49520142e-02 -5.33268973e-02 -6.28155172e-02
      -6.24439940e-02 -2.79434789e-02 3.21211829e-03 -4.74141352e-02
      -1.99960899e-02 -1.61253940e-02 6.10832907e-02 5.25306948e-02
      -1.28573447e-01 -4.34315801e-02 -5.79985641e-02 -1.36748626e-04
      6.33892193e-02 1.70249753e-02 3.99427749e-02 9.75844637e-02
      -6.23096596e-04 -2.18269721e-01 -9.88977179e-02 -1.44873247e-01
      -6.34884788e-03 7.27870390e-02 -4.40623239e-02 -1.16129406e-01
      3.24858259e-03 -8.06895122e-02 2.12403182e-02 0. -9.42881554e-02
      1.33422315e-01 -4.43884991e-02 -3.61771286e-02 -5.45555539e-02
      6.87947497e-02 -1.36828080e-01 -5.95709048e-02 1.11981137e-02
      -1.24306872e-01 2.76310313e-02 4.60006595e-02 -8.18745196e-02
      -2.03161374e-01 5.00324648e-03 5.70390746e-02 1.02367550e-01
      7.77982324e-02 5.78850098e-02 4.84069549e-02 6.34045601e-02
      -1.03725776e-01 -4.14306782e-02 3.88504863e-02 -3.50981876e-02
      4.37919283e-03 8.77164900e-02 6.82636574e-02 -1.33372948e-03
      -1.44610211e-01 -6.65191561e-02 0. 3.48458849e-02 3.61234769e-02
      1.11209847e-01 -1.72814690e-02 -9.47135091e-02 -2.17041187e-02
      -2.52592862e-01 1.29361684e-02 6.09552674e-02 -1.25504166e-01
      -1.77439339e-02 6.66290745e-02 -4.93947603e-02 2.58443430e-02
      -6.58684522e-02 -2.24305615e-02 -3.48042063e-02 4.18597646e-02
      6.67181686e-02 2.78276280e-02 1.13811992e-01 -7.80400708e-02
      -4.59647588e-02 8.55732784e-02 -1.81735322e-01 1.94412412e-03
      2.11726371e-02 -6.76953569e-02 -2.21059769e-02 1.09852804e-02
      -6.80883303e-02 0. 1.01756565e-01 -1.88545417e-03 4.77028266e-02
      2.15434935e-03 -1.30055144e-01 -3.79364751e-02 -6.13217875e-02
      6.30556941e-02 2.43994091e-02 -4.37658280e-02 4.21527624e-02
      -4.50907573e-02 -2.17112303e-02 1.20796405e-01 3.41598727e-02
      1.84048954e-02 7.43731437e-03 -1.83522906e-02 3.48464064e-02
      2.21536607e-02 7.41774682e-03 -6.46618381e-03 -4.74554934e-02
      -5.72982011e-03 1.23551814e-02 1.28291368e-01 -7.50637203e-02
      8.13763067e-02 1.60035104e-01 -1.22161292e-01 -7.12139085e-02 0.
      1.70339525e-01 4.75794114e-02 -4.02368093e-03 -4.93887290e-02
      1.05582736e-01 1.64747491e-01 8.99292752e-02 1.20333716e-01
      1.68076903e-01 -4.31944653e-02 -7.25385174e-02 4.59183902e-02
      8.90880078e-02 6.62998036e-02 4.97289933e-02 -4.54513021e-02
      -3.54832895e-02 -1.66333281e-02 -3.43905054e-02 -8.50578249e-02
      4.33784537e-02 -1.58567000e-02 1.79775506e-01 1.52816907e-01
      3.07804309e-02 6.86983168e-02 1.17829785e-01 -3.26311439e-02
      -7.91715309e-02 3.39541644e-01 1.73380435e-01 0. -1.33492827e-01
      1.82418060e-02 9.25814807e-02 -1.33873383e-02 -1.89925497e-03
      8.90158936e-02 1.14068098e-01 1.75255746e-01 7.36062378e-02
      1.04808390e-01 -1.19571283e-01 -8.56554955e-02 4.45886925e-02
      -9.38651711e-03 -4.89610061e-02 -7.77103528e-02 -1.08844608e-01
      -1.46609619e-01 8.08841586e-02 -1.13583736e-01 2.78778989e-02
      -4.17916250e-04 1.66588966e-02 1.34516448e-01 2.08371710e-02
      2.10544858e-02 -9.37969312e-02 -3.30062695e-02 -9.58963931e-02
      7.96930045e-02 3.34875062e-02 0. -5.09954840e-02 7.59291649e-02
      1.37751177e-01 -2.54035722e-02 2.34884825e-02 1.91871077e-01
      1.88110724e-01 2.04155877e-01 -2.94967964e-02 -5.96786514e-02
      -1.32757694e-01 5.01684584e-02 2.49248877e-01 8.80082771e-02
      3.68172787e-02 -2.23123968e-01 -2.02224135e-01 -1.43149063e-01
      8.40335116e-02 3.72329280e-02 1.41283035e-01 1.58364952e-01
      1.51969150e-01 2.05216423e-01 2.20429339e-02 5.59639409e-02
      -5.35759777e-02 2.93752141e-02 -2.29103342e-02 1.38796002e-01
      3.32677215e-02 0. 9.98387337e-02 -9.13564861e-02 1.24964401e-01
      8.87585431e-03 -1.02574810e-01 -3.95154953e-03 2.18438596e-01
      1.62415668e-01 -2.45476677e-03 -3.37982588e-02 -5.94430007e-02
      1.27843514e-01 1.91296395e-02 3.46680172e-02 7.73540139e-02
      -5.36832325e-02 -5.71096763e-02 -1.06500447e-01 4.83700670e-02
      1.84209552e-02 1.74710989e-01 4.09104638e-02 -2.12957114e-02
      1.48335934e-01 1.55012697e-01 1.38382558e-04 -1.17914133e-01
      4.75363322e-02 3.73531394e-02 8.94886628e-02 -3.42198857e-03 0.
      4.25393283e-02 -5.32314964e-02 7.79273137e-02 -8.90575442e-03
      1.21301748e-01 8.63576010e-02 9.08538327e-02 1.76426128e-01
      -1.23189822e-01 -5.10106198e-02 3.57850417e-02 9.26446635e-03
      4.33247946e-02 -8.70278047e-04 -2.76822317e-02 5.75583577e-02
      5.56258895e-02 5.22448309e-02 3.77330892e-02 -2.84960493e-02
      7.44136497e-02 1.39356041e-02 5.83331212e-02 9.59196091e-02
      9.53455791e-02 1.58835813e-01 -1.97986644e-02 3.45031731e-02
      7.66565651e-02 8.48380998e-02 7.94502124e-02 0. 1.47288106e-02
      1.16480127e-01 5.14011160e-02 -3.03266104e-02 9.25572515e-02
      4.17876616e-02 -5.56808449e-02 4.47902344e-02 -8.94041881e-02
      -1.30457103e-01 8.28872621e-02 -3.44002731e-02 2.06584614e-02
      2.43109483e-02 7.50433505e-02 1.08602054e-01 9.90397483e-02
      2.04402789e-01 4.56545725e-02 1.08034588e-01 1.43978596e-02
      -5.04527474e-03 1.92355663e-01 2.04352021e-01 8.93978924e-02
      1.56361952e-01 5.07571399e-02 2.22510755e-01 1.47305787e-01
      -2.57651359e-02 -4.40426469e-02 0. -2.05000062e-02 4.11143787e-02
      8.76927003e-02 -1.81414522e-02 1.56444818e-01 -4.61071543e-03
      -9.13952515e-02 -1.53389359e-02 -8.51334929e-02 -1.12470798e-01
      -2.44945660e-02 -4.78579588e-02 -7.69695267e-02 4.45733313e-03
      -3.74164246e-02 1.12149402e-01 3.78152877e-02 -3.03431451e-02
      3.01615503e-02 -3.60457785e-02 -9.65051260e-03 2.75005605e-02
      2.50733882e-01 1.22664303e-01 1.92304179e-02 6.17474243e-02
      -7.19491318e-02 3.54865380e-02 -6.79300874e-02 2.26635356e-02
      -4.91442569e-02 0. 1.00138932e-01 1.32966518e-01 8.10441002e-02
      2.08464354e-01 1.78286120e-01 -1.59489829e-02 7.10716769e-02
      7.25809783e-02 -6.58253133e-02 -1.89256430e-01 -6.75621778e-02
      -1.83874846e-01 -2.57073771e-02 -2.62291208e-02 5.36466129e-02
      3.81820723e-02 -3.96962278e-03 -9.34316218e-02 -1.39439747e-01
      6.22920804e-02 -1.22106016e-01 1.08656667e-01 1.14578560e-01
      1.50701463e-01 9.42603275e-02 -3.88614573e-02 -2.19731957e-01
      2.84480304e-01 3.75565141e-02 -4.51240838e-02 -1.52191669e-01 0.</_></support_vectors>
  <decision_functions>
    <_>
      <sv_count>1</sv_count>
      <rho>3.1041065978450204e+00</rho>
      <alpha>
        1.</alpha>
      <index>
        0</index></_></decision_functions></my_svm>
</opencv_storage>
