<?xml version="1.0"?>
<opencv_storage>
<my_svm type_id="opencv-ml-svm">
  <svm_type>C_SVC</svm_type>
  <kernel><type>LINEAR</type></kernel>
  <C>1.0000000000000001e-01</C>
  <term_criteria><epsilon>2.2204460492503131e-16</epsilon>
    <iterations>100000</iterations></term_criteria>
  <var_all>4096</var_all>
  <var_count>4096</var_count>
  <class_count>2</class_count>
  <class_labels type_id="opencv-matrix">
    <rows>1</rows>
    <cols>2</cols>
    <dt>i</dt>
    <data>
      -1 1</data></class_labels>
  <sv_total>1</sv_total>
  <support_vectors>
    <_>
      2.07066461e-01 -2.08321912e-03 8.29613209e-02 5.70635349e-02
      1.50812939e-01 -2.99149007e-02 -7.67098665e-02 -2.64922112e-01
      -3.85834873e-02 1.73596412e-01 4.18001562e-02 2.31735650e-02
      3.46812680e-02 9.04807150e-02 1.44266173e-01 9.93459821e-02
      7.42209852e-02 -5.20860031e-02 1.48330882e-01 1.33309126e-01
      8.87412205e-02 2.66695209e-02 1.00801811e-01 1.11133866e-01
      3.30769946e-03 -1.85346991e-01 4.81121521e-03 -1.81235731e-01
      4.10064980e-02 9.77618545e-02 3.79598498e-01 0. 1.14000537e-01
      -9.54759121e-02 3.73895541e-02 -2.26041093e-01 -5.62104359e-02
      9.00354534e-02 8.26920867e-02 -1.23494990e-01 1.95481144e-02
      5.35360612e-02 -1.29175168e-02 -1.58561822e-02 1.31951477e-02
      1.21458933e-01 5.36322445e-02 -1.89603902e-02 -6.33863034e-03
      -1.06247582e-01 4.54498120e-02 -4.57234681e-02 -1.32231228e-02
      -2.00194523e-01 -4.62065749e-02 1.57541603e-01 -9.51607991e-03
      -1.66720465e-01 -3.50668989e-02 -1.75702959e-01 7.75158480e-02
      -8.36849362e-02 1.46019980e-01 0. -5.13703600e-02 -1.13889230e-02
      4.77771796e-02 -4.87664789e-02 3.32796276e-02 -8.80845413e-02
      -5.36926277e-02 5.39495749e-03 -8.85080695e-02 1.32242233e-01
      1.00537591e-01 9.62991491e-02 1.42586395e-01 1.76635087e-01
      1.60927027e-01 -3.97269093e-02 -2.50966232e-02 -8.68671983e-02
      1.35607934e-02 2.35469546e-02 -2.65841633e-02 1.11607112e-01
      1.84666976e-01 1.14587240e-01 -1.45416230e-01 -6.32006750e-02
      -1.08338751e-01 -6.33968934e-02 4.22777869e-02 9.52545833e-03
      2.01180056e-01 0. 8.96190060e-04 -1.21478261e-02 1.74900323e-01
      2.99824774e-02 3.02212499e-02 -7.00207204e-02 -6.30049184e-02
      2.55801119e-02 1.00587562e-01 2.30961427e-01 -1.43963546e-01
      3.90283763e-02 6.61778674e-02 1.55911341e-01 5.60673662e-02
      -1.80732965e-01 -9.61270481e-02 -9.39447135e-02 2.12358639e-01
      5.71497679e-02 3.31037760e-01 1.48764446e-01 1.86186284e-01
      7.69723952e-02 -2.27103308e-01 2.48291600e-03 -7.90356100e-02
      -2.17229668e-02 6.87155351e-02 -5.90000395e-03 7.69330338e-02 0.
      1.06984764e-01 4.93974313e-02 6.60858303e-02 6.42262846e-02
      -2.01039528e-03 1.10051990e-01 -1.01346187e-01 1.50477335e-01
      7.83238783e-02 1.04442559e-01 -1.30894795e-01 -8.90825167e-02
      -9.08357650e-02 6.35475963e-02 1.10069096e-01 1.58579901e-01
      2.09230214e-01 1.31729469e-02 9.00687873e-02 -3.40134613e-02
      -9.86972675e-02 -1.46684162e-02 8.96270275e-02 1.26357809e-01
      1.40834332e-01 2.08242938e-01 8.43730718e-02 5.60005642e-02
      3.73884767e-01 -5.27932532e-02 3.32239792e-02 0. 1.18695147e-01
      -1.28177796e-02 -1.80706486e-01 -1.00104079e-01 -5.88528030e-02
      1.05960235e-01 -7.86790699e-02 -4.81573567e-02 -6.26265705e-02
      9.36655030e-02 -7.84530714e-02 6.50028735e-02 -1.31383643e-01
      3.45086865e-02 2.23427564e-01 1.14207216e-01 7.57308304e-02
      6.47749230e-02 8.53594691e-02 -7.31816515e-02 -2.51311902e-02
      -1.04538530e-01 1.44419357e-01 2.57313043e-01 6.34681731e-02
      1.08579807e-01 7.13375509e-02 -1.70850921e-02 3.14189464e-01
      -2.54509747e-01 2.53775418e-02 0. 1.63453788e-01 -8.21151063e-02
      -6.68150038e-02 -1.57456741e-01 7.78772905e-02 -2.56488584e-02
      -1.48083502e-02 1.47625916e-02 2.85101030e-02 1.49271250e-01
      -2.69003455e-02 -1.00091599e-01 -5.97477742e-02 3.19270045e-02
      1.90305233e-01 3.85500863e-02 4.53845635e-02 -3.75547446e-02
      1.37834981e-01 -7.70015791e-02 -9.84823145e-03 -5.49408831e-02
      2.00874917e-02 1.01117745e-01 6.14672452e-02 8.12449679e-02
      -2.25873310e-02 -1.31275833e-01 1.02771424e-01 -1.24019675e-01
      2.32145086e-01 0. 3.48922648e-02 -2.36899387e-02 -8.49783495e-02
      8.17658263e-04 9.70340669e-02 2.12192804e-01 8.20849091e-02
      7.37705231e-02 -7.84048587e-02 3.21517259e-01 1.42670065e-01
      -1.26096345e-02 2.79395580e-02 5.75239807e-02 7.14179352e-02
      7.02416338e-03 -5.77781349e-02 -1.59815505e-01 3.24195996e-02
      1.34369954e-01 -8.77617896e-02 1.05358660e-01 8.75058759e-05
      1.44676641e-01 2.46416144e-02 -6.41808957e-02 -1.79794893e-01
      5.09395674e-02 2.98865139e-01 -9.20692757e-02 7.77169690e-02 0.
      -1.54140666e-02 -7.56082013e-02 -9.06575285e-03 8.26350078e-02
      -1.02200277e-01 5.67350835e-02 3.26908492e-02 8.44602101e-03
      -1.10902274e-02 -5.44401109e-02 -6.32903725e-02 2.30689719e-02
      -8.32563415e-02 3.94431092e-02 -1.19221695e-01 1.57186911e-01
      1.28210736e-02 1.48367003e-01 -4.20519523e-02 -8.93340409e-02
      -2.38097645e-03 1.46030374e-02 -3.97096910e-02 2.91779544e-02
      1.34000316e-01 1.16639785e-01 9.20785367e-02 -1.14668086e-01
      -1.41921967e-01 1.59085721e-01 1.10612549e-01 0. 7.75597245e-02
      -1.30885333e-01 -9.87121239e-02 -7.87514895e-02 1.20761245e-01
      -4.40188274e-02 9.96455923e-02 4.71908860e-02 5.76578416e-02
      1.13480106e-01 -1.12739451e-01 -1.16979241e-01 -8.59916359e-02
      1.09778373e-02 -1.62224203e-01 -5.24284653e-02 8.09345171e-02
      -9.94715318e-02 1.86508060e-01 -1.24433905e-01 -1.21041015e-01
      -1.39270332e-02 8.82856250e-02 4.43634354e-02 5.49613759e-02
      8.95325392e-02 1.13385625e-01 -5.49638830e-02 -1.25025466e-01
      7.39675388e-02 -7.02793002e-02 0. -9.29609686e-02 -4.46028970e-02
      2.10707951e-02 1.91099867e-02 1.11614026e-01 7.40096793e-02
      -5.62373623e-02 1.30027190e-01 -3.75805446e-03 1.55494064e-01
      -6.91548409e-03 1.12479285e-03 3.58245969e-02 -7.62403086e-02
      -2.03384697e-01 -2.94782370e-02 -2.45001130e-02 2.71805584e-01
      5.74314706e-02 2.12325919e-02 1.37231633e-01 8.74042287e-02
      -6.48487583e-02 -6.40734807e-02 -6.29179701e-02 1.35854721e-01
      1.68767095e-01 9.44484547e-02 -4.78133224e-02 7.87958428e-02
      7.50500569e-03 0. -1.53593719e-01 1.29301429e-01 1.16167553e-01
      1.16777606e-01 5.95646538e-03 1.52764514e-01 4.21598330e-02
      1.13009915e-01 7.45132416e-02 -3.88204530e-02 -1.21575847e-01
      -1.02536485e-01 4.26088758e-02 -1.86093792e-01 -6.07336126e-02
      7.95021430e-02 -1.29946932e-01 -7.01280683e-02 4.90865931e-02
      1.39439702e-01 1.48949102e-01 1.71618089e-01 -6.76486418e-02
      1.82187662e-01 1.32861927e-01 1.09142341e-01 7.04002231e-02
      3.39819975e-02 -5.49260899e-02 3.46456394e-02 -9.30211041e-03 0.
      1.48893967e-01 6.89210668e-02 1.39029682e-01 -1.04721673e-02
      -1.25689328e-01 1.21578678e-01 1.26613826e-01 2.17533857e-01
      -7.46895745e-02 -3.64572704e-02 4.36508320e-02 4.55620140e-03
      -9.10972655e-02 -1.77206367e-01 -4.85857949e-02 -1.02640927e-01
      -1.25293121e-01 -1.50674775e-01 1.68532759e-01 1.07424602e-01
      1.07019477e-01 -4.81227562e-02 -1.68682501e-01 8.93133581e-02
      3.60961705e-02 9.45230052e-02 -1.72209352e-01 1.95674784e-02
      3.16718183e-02 1.67779643e-02 -1.01971470e-01 0. 1.55236676e-01
      1.65264100e-01 1.11539634e-02 -1.35861291e-03 2.79977247e-02
      5.41122481e-02 9.27336589e-02 1.91819489e-01 -2.06731662e-01
      6.45092577e-02 7.98590332e-02 -1.69690549e-02 -4.70268838e-02
      -1.36879981e-01 -4.36721519e-02 -7.49466941e-02 -9.64549333e-02
      -7.89724439e-02 1.07932910e-01 2.34598786e-01 1.38352275e-01
      -4.57263784e-03 -8.40016380e-02 4.68725078e-02 1.46650448e-01
      9.47272405e-02 -1.23502351e-01 7.06047788e-02 1.57926351e-01
      -5.08123264e-02 -1.11876614e-01 0. 9.29309577e-02 2.81009693e-02
      8.51783063e-03 -1.28516734e-01 -2.43500667e-03 -7.40236044e-02
      -4.11290675e-02 1.30087147e-02 -6.16477914e-02 -6.25800788e-02
      3.94503288e-02 3.42202969e-02 1.20208617e-02 6.69384673e-02
      -1.07631460e-02 -4.07347307e-02 -1.98040619e-01 -2.28105798e-01
      -7.31191337e-02 3.66557725e-02 5.64706838e-03 1.16461581e-02
      -5.08992560e-02 4.09760997e-02 -7.98580050e-03 -1.50826290e-01
      -1.98800281e-01 -9.10716653e-02 -3.89790460e-02 -1.18183210e-01
      -1.23504335e-02 0. 5.69842160e-02 -9.67809856e-02 -5.28610013e-02
      5.02606072e-02 1.13370284e-01 2.72743553e-02 -4.69181761e-02
      1.18840739e-01 -1.77512057e-02 2.77194735e-02 1.03853913e-02
      -7.81592727e-02 -2.80184019e-02 7.48913512e-02 -5.28922901e-05
      -4.12490964e-02 -2.96345539e-02 -7.67150596e-02 -4.00557518e-02
      -3.43739092e-02 -3.50708403e-02 2.97444258e-02 8.26334022e-03
      1.15470149e-01 -4.00666483e-02 -8.13224763e-02 -2.23918986e-02
      3.75949219e-02 8.51721242e-02 -8.25311765e-02 -3.47744152e-02 0.
      2.06631161e-02 1.06669702e-01 1.52561357e-02 3.62925753e-02
      -1.09927334e-01 6.41593290e-03 -6.25399873e-02 -2.83663291e-02
      1.08293563e-01 -2.29810867e-02 -9.94479656e-02 -9.56301615e-02
      8.38757306e-03 2.41612960e-02 -1.76606029e-02 -2.34042406e-02
      -4.78217453e-02 -4.84078517e-03 -7.91394860e-02 1.61802359e-02
      -1.33549333e-01 -1.19705452e-02 -2.09965855e-02 1.09705925e-01
      -9.03646350e-02 5.90832122e-02 5.37138321e-02 -2.40266085e-01
      -9.78936478e-02 1.13829136e-01 1.36423737e-01 0. 5.39828055e-02
      -2.55542196e-04 1.27600029e-01 6.90581277e-02 -3.37359458e-02
      4.48479317e-02 7.69285858e-02 1.26193389e-02 -1.41865596e-01
      -1.86964378e-01 6.66817725e-02 -5.62106594e-02 1.95662752e-01
      -4.34125029e-02 -9.51634273e-02 -1.53159425e-01 -8.92071128e-02
      -1.56996459e-01 -5.84432669e-02 4.01557013e-02 8.42475966e-02
      2.56293416e-01 1.04331762e-01 1.00707509e-01 -8.62295255e-02
      -8.32455605e-02 -1.13697030e-01 -9.38813239e-02 -3.01756840e-02
      -9.42477584e-02 7.23641515e-02 0. -1.79247275e-01 -9.83233899e-02
      1.87801048e-01 1.30763739e-01 -1.60039961e-02 -2.43130270e-02
      9.47737023e-02 9.71836038e-03 -3.07156518e-02 -5.76645285e-02
      4.35484983e-02 3.15018922e-01 8.02735537e-02 -2.89956861e-05
      -1.48520414e-02 -8.86790603e-02 -1.41528836e-02 -5.44325672e-02
      -1.33483782e-01 8.72811675e-02 4.22069490e-01 1.85321346e-01
      5.04241884e-02 1.71112135e-01 3.70491818e-02 3.83209325e-02
      -4.15073968e-02 6.82937950e-02 -7.52352085e-03 6.54087635e-03
      6.63233623e-02 0. -1.54523045e-01 1.46300849e-02 1.37046546e-01
      1.59230337e-01 -8.99958517e-03 -2.84591522e-02 1.27311856e-01
      1.51333153e-01 1.44836204e-02 -2.41183639e-01 -8.51261467e-02
      1.62457168e-01 -2.29436364e-02 -8.34775642e-02 5.00818016e-03
      9.70205143e-02 4.39487137e-02 -1.09140359e-01 -2.08971068e-01
      -4.76405658e-02 2.65844166e-01 2.16933817e-01 9.32596326e-02
      9.07574818e-02 2.28257164e-01 2.67052650e-01 -2.14316938e-02
      1.04206733e-01 -1.68684199e-02 -1.29622081e-02 9.82393231e-03 0.
      -4.25143912e-02 -1.24125361e-01 1.65888175e-01 1.13525473e-01
      -1.81390587e-02 6.25785589e-02 1.44943139e-02 2.86622420e-02
      -1.20937094e-01 -7.35959932e-02 5.19492244e-03 1.60755366e-02
      -1.37961343e-01 -1.21504419e-01 -3.70388590e-02 -7.90190697e-03
      1.26849100e-01 5.06718867e-02 -1.75019234e-01 -1.36108786e-01
      2.24065945e-01 1.92750692e-02 -2.57417886e-03 3.96067165e-02
      2.99748108e-02 2.50456780e-01 -6.73860759e-02 5.39559722e-02
      -3.81928012e-02 3.01101319e-02 -9.29088444e-02 0. -1.07906342e-01
      -5.34240380e-02 6.39867112e-02 -3.09211165e-02 -1.27891362e-01
      -1.22275241e-01 4.17967774e-02 2.22959787e-01 -9.13253799e-02
      -7.17227980e-02 -2.04758178e-02 -1.18525200e-01 -7.79873878e-02
      2.10725758e-02 2.26132452e-01 2.62695789e-01 1.63695514e-01
      4.46693040e-02 -8.62293467e-02 1.34827029e-02 -7.14846924e-02
      -6.42495602e-02 2.52212249e-02 1.79236993e-01 2.83071905e-01
      3.91282946e-01 1.11757189e-01 1.31272569e-01 1.99312996e-02
      7.13919476e-02 -1.16740979e-01 0. -1.29482135e-01 -3.02827358e-02
      -1.04618959e-01 -1.88356563e-01 -4.04901654e-02 -4.67034280e-02
      4.57837507e-02 1.82088062e-01 -1.00650541e-01 1.37017444e-01
      9.29958299e-02 -4.06364687e-02 -3.17903631e-03 6.65109083e-02
      1.23967687e-02 7.86916167e-02 8.96643251e-02 -6.43273070e-02
      -5.84726557e-02 -2.48922012e-03 -9.36497748e-02 -1.65498197e-01
      -6.76380619e-02 8.47263727e-03 4.82614189e-02 1.75894499e-01
      -1.15273796e-01 -1.80402175e-02 -9.04417261e-02 1.31749541e-01
      -4.38105799e-02 0. 1.00210242e-01 -1.02311172e-01 9.13178846e-02
      1.54894099e-01 1.89123884e-01 1.22722074e-01 -1.16917126e-01
      1.04479983e-01 -3.73405777e-02 1.98183149e-01 4.14060988e-02
      -1.55982330e-01 1.70479771e-02 -6.63441047e-02 -6.56224936e-02
      -1.31023601e-01 -1.41586000e-02 -8.25837031e-02 -6.85468782e-03
      -6.61787316e-02 2.38288995e-02 7.71460757e-02 2.15532482e-02
      1.86367542e-01 -2.08561510e-01 -4.75786030e-02 -1.33853676e-02
      1.89975172e-01 4.63361777e-02 -5.35425059e-02 -6.62851185e-02 0.
      1.55033112e-01 -3.57342884e-02 -1.13392092e-01 -1.30706161e-01
      5.61576486e-02 4.71498184e-02 9.78653356e-02 -9.45883542e-02
      6.92355484e-02 -1.45095838e-02 -7.69097032e-03 -1.96254216e-02
      4.65574581e-03 2.89159305e-02 -1.09204706e-02 3.39887701e-02
      -2.92718764e-02 9.90314502e-03 -7.37770498e-02 -8.38370770e-02
      -1.34934977e-01 -3.34820524e-02 -3.92928012e-02 1.07421212e-01
      6.63452968e-02 -1.54221013e-01 3.24236639e-02 -7.84838349e-02
      -1.75091103e-01 1.69803023e-01 1.05675884e-01 0. -5.16663305e-02
      -6.08392842e-02 6.07319102e-02 -2.23155275e-01 -1.96193725e-01
      6.50509745e-02 -1.29977688e-01 7.70818591e-02 -1.09437101e-01
      -1.17489226e-01 1.22864097e-01 1.38730869e-01 1.19609967e-01
      -1.51618607e-02 -1.45111591e-01 -1.16115153e-01 -2.04527825e-01
      -3.30584720e-02 -6.27933294e-02 5.05037867e-02 1.45150751e-01
      -7.53294528e-02 -1.87325567e-01 -1.10253826e-01 -1.66081041e-01
      -1.43400848e-01 -8.98115858e-02 -6.06559329e-02 -1.34539813e-01
      -1.02069430e-01 -8.86530280e-02 0. -6.78384975e-02 2.27105431e-02
      9.69811305e-02 -1.72930405e-01 -2.07464516e-01 2.22807024e-02
      -1.49020538e-01 -1.53620495e-02 -9.28870887e-02 -1.80593237e-01
      1.00252107e-01 1.21326879e-01 7.56949335e-02 -8.16837847e-02
      -1.01465710e-01 -4.14022282e-02 -6.27009720e-02 -4.25555669e-02
      4.68315259e-02 1.54158965e-01 1.90663025e-01 -1.09068468e-01
      -3.18362772e-01 6.66065549e-04 -1.52531251e-01 -2.07376312e-02
      -1.39230132e-01 6.68449327e-02 -1.66189253e-01 -1.21105425e-01
      -1.45666927e-01 0. -9.07569453e-02 -9.25800353e-02 -6.88190088e-02
      1.32700071e-01 -3.62561643e-02 -3.12279817e-02 -4.84835589e-03
      -4.76288870e-02 -1.67731225e-01 -1.03647999e-01 -1.44720450e-01
      3.15703102e-03 1.15931541e-01 -7.34305605e-02 4.50079665e-02
      1.28615558e-01 3.68468948e-02 8.94995779e-02 -7.91686401e-02
      -3.06179047e-01 -1.90801248e-02 1.88675702e-01 -7.27571994e-02
      7.27074966e-02 1.06750816e-01 -1.17944144e-02 -4.82495688e-02
      7.35925063e-02 -1.46548957e-01 8.62598270e-02 -1.59385070e-01 0.
      -2.09424928e-01 -1.42829195e-01 8.02143812e-02 7.31593370e-02
      -1.16497949e-01 -1.45703301e-01 -1.19429745e-01 -1.53590649e-01
      -1.06148021e-02 -2.23516822e-02 7.86999092e-02 1.07404791e-01
      8.01902860e-02 -1.55940622e-01 -3.60045186e-03 8.46320912e-02
      -2.08038371e-02 6.11136407e-02 -2.50867218e-01 -1.80735216e-01
      -3.62649560e-02 8.31962749e-02 -1.89307824e-01 -1.25377581e-01
      1.54519845e-02 -1.31147727e-02 4.14361060e-02 1.64284930e-02
      -1.17835507e-01 1.97172035e-02 -1.70684859e-01 0. -8.93256906e-03
      -4.69942689e-02 9.17487871e-03 2.43541114e-02 -1.25059456e-01
      -4.90822271e-02 -1.05916850e-01 -2.75428966e-02 3.28159183e-02
      -1.20065995e-01 5.76044023e-02 -2.57626045e-02 3.04155648e-02
      -1.46412149e-01 -3.99008766e-02 -5.27101345e-02 1.42699242e-01
      1.57625079e-01 5.63974306e-02 -5.24845235e-02 -7.85141215e-02
      7.40339607e-02 -1.98452875e-01 -5.32218814e-02 -7.85354599e-02
      1.41691998e-01 2.37103015e-01 9.01633129e-02 -3.69463786e-02
      -5.07148588e-03 -1.86591297e-01 0. -5.07574566e-02 -5.96154183e-02
      6.16135299e-02 -1.16566032e-01 -3.67769673e-02 1.59154572e-02
      -2.89043505e-02 -7.41796754e-03 6.46732934e-03 -2.22392067e-01
      2.87331771e-02 -8.63759220e-02 7.65169263e-02 -4.70533557e-02
      -5.21886609e-02 -3.06457281e-02 1.15935333e-01 1.21590689e-01
      -4.74319048e-02 -4.55695204e-02 -1.75125187e-03 -3.20641734e-02
      -1.00314550e-01 -4.22776751e-02 -5.65566607e-02 8.14338252e-02
      8.69861916e-02 5.72541095e-02 -1.91464230e-01 7.95388594e-02
      -9.23685059e-02 0. 8.72731581e-02 1.36575587e-02 7.27869421e-02
      -4.23624702e-02 4.09218781e-02 1.16174057e-01 -9.47741419e-02
      1.16945945e-01 9.98621508e-02 -8.08719397e-02 -1.60179590e-03
      4.33772169e-02 8.50780830e-02 1.47724776e-02 -1.47048548e-01
      -3.74551751e-02 9.54560414e-02 7.47483820e-02 -1.82563663e-02
      4.05566059e-02 8.68809968e-02 -1.34435715e-02 -3.00181769e-02
      -6.14740402e-02 -1.23334378e-01 1.01837315e-01 1.35549858e-01
      2.78948307e-01 4.59691957e-02 3.02879550e-02 -1.39804050e-01 0.
      8.21870863e-02 5.71757145e-02 1.15888312e-01 -1.01298161e-01
      5.49958609e-02 1.07146978e-01 5.49310111e-02 -8.66797417e-02
      1.01329751e-01 7.18382448e-02 5.79308067e-03 -4.33871225e-02
      -5.42088412e-03 1.35125071e-01 1.19597897e-01 -1.20186239e-01
      7.94675127e-02 -1.02780256e-02 1.96152225e-01 -4.02821787e-02
      -4.57323045e-02 -8.57910886e-02 -2.69038114e-03 1.51167642e-02
      -5.77308163e-02 3.15575637e-02 5.52614182e-02 9.29191802e-03
      -1.32949486e-01 3.00694168e-01 1.14395350e-01 0. -7.26040080e-02
      1.72397777e-01 -1.04670323e-01 -1.70536309e-01 -1.64909482e-01
      3.78483683e-02 -6.81622103e-02 8.11397135e-02 -7.84623176e-02
      -1.21397860e-01 3.26908901e-02 2.21131667e-02 -2.73503736e-02
      1.79963876e-02 7.87928607e-03 7.09224269e-02 -5.64619862e-02
      -3.12683731e-02 -3.96055765e-02 1.68540582e-01 4.20913696e-02
      -1.18854493e-01 -1.28048018e-01 -6.53413013e-02 3.53553928e-02
      1.01559833e-02 -9.39808115e-02 2.95234937e-02 -1.57038316e-01
      3.43010984e-02 -1.20252796e-01 0. -2.53706928e-02 -2.45818496e-02
      2.53629908e-02 -1.54466048e-01 9.56977531e-02 -2.67354529e-02
      -1.57789111e-01 1.08683310e-01 -1.50809869e-01 -1.63379341e-01
      1.06961578e-01 2.30331123e-02 1.13075376e-02 -8.14970583e-02
      -2.76742913e-02 2.07879692e-02 -8.00035074e-02 2.02597544e-01
      7.41706267e-02 2.14582965e-01 1.60894647e-01 -1.02769427e-01
      -1.31045714e-01 -3.37880515e-02 -1.76836759e-01 6.58102557e-02
      -9.12794276e-05 2.29573958e-02 -3.28311659e-02 3.19945882e-03
      -1.33744195e-01 0. -1.43659770e-01 -1.44384384e-01 -1.74132600e-01
      -8.27194974e-02 -7.96601698e-02 -1.09523594e-01 -4.39438187e-02
      1.18605934e-01 -5.48196100e-02 -7.60866180e-02 3.39309424e-02
      9.05746967e-02 -5.38519677e-03 -2.84364130e-02 -1.31450715e-02
      1.25934914e-01 6.71813414e-02 1.13948189e-01 -3.60083319e-02
      -1.00821085e-01 -8.79746601e-02 -1.48611009e-01 -1.80579305e-01
      -7.03970939e-02 -5.74809732e-03 2.13302612e-01 3.31057841e-03
      2.72648279e-02 -9.37576070e-02 -4.01146002e-02 -8.46493691e-02 0.
      -5.35894446e-02 2.56076176e-02 -1.07192568e-01 -8.33727121e-02
      -4.99905422e-02 -1.86170131e-01 9.90042347e-04 -1.13782637e-01
      -8.37599412e-02 -1.03711579e-02 9.29450244e-02 -6.91614598e-02
      5.95072359e-02 7.73075297e-02 1.02905422e-01 3.49464864e-02
      1.95863508e-02 -1.06553689e-01 -1.71299264e-01 -4.36100550e-02
      -1.48970470e-01 -1.27561092e-01 -1.15028191e-02 1.17325587e-02
      -5.05929217e-02 4.19104919e-02 -1.03493027e-01 2.63291430e-02
      -1.32768959e-01 -7.46633578e-03 -9.82939228e-02 0. -4.22562361e-02
      5.11799427e-03 1.87547952e-01 3.37755568e-02 -2.66381074e-02
      -8.72398391e-02 -2.65804064e-02 -2.29266938e-02 -1.16548948e-02
      -5.87166920e-02 1.24919191e-01 -3.15659330e-03 -1.35669885e-02
      -8.96009579e-02 1.24563165e-02 -9.85944122e-02 -2.38390435e-02
      2.47853473e-02 1.01694122e-01 -1.56796947e-02 1.30077273e-01
      2.07114294e-02 -9.69407633e-02 -9.90924016e-02 -1.19164020e-01
      1.10361576e-01 -1.35871414e-02 2.44652163e-02 -9.08161048e-03
      4.35970128e-02 -1.13742441e-01 0. -1.62690386e-01 -1.25176936e-01
      7.30263023e-03 4.82949689e-02 2.22324394e-02 -6.19086437e-02
      -9.09370407e-02 1.34558417e-02 -2.43255519e-03 -2.85490658e-02
      8.80648755e-03 -1.31784201e-01 7.72656128e-02 3.00617162e-02
      -2.51798183e-02 -2.35888138e-02 3.30101848e-02 4.37072814e-02
      -3.48846079e-03 -2.91574094e-02 -5.08322641e-02 1.30773470e-01
      -3.82257090e-03 -6.77347034e-02 -9.97658670e-02 7.74851814e-02
      2.85384003e-02 -3.18818167e-02 -1.30649015e-01 4.91986983e-02
      -6.01950325e-02 0. 5.56346327e-02 1.27269641e-01 1.42873943e-01
      -1.99706718e-01 1.78909838e-01 6.54374287e-02 -1.55535668e-01
      9.39617530e-02 1.26304597e-01 -3.38022225e-02 -1.25772744e-01
      -5.39731458e-02 1.00634405e-02 1.26497494e-03 -8.00944045e-02
      2.36984510e-02 1.52653530e-01 1.21704355e-01 1.68030381e-01
      -9.37430933e-03 -8.48271791e-03 -7.91093558e-02 8.73136297e-02
      -1.69189364e-01 -1.28889024e-01 1.17661990e-01 1.52546614e-01
      1.23878591e-01 1.42416179e-01 -1.21844364e-02 -4.15599830e-02 0.
      9.01494920e-02 -3.89959551e-02 4.65458073e-02 7.17088282e-02
      7.33953789e-02 8.91254768e-02 -1.63768232e-01 8.92441273e-02
      4.36068838e-03 1.16882950e-01 -4.50253524e-02 -5.85331433e-02
      -1.38683915e-01 -7.45100854e-03 1.38617933e-01 -7.43136927e-02
      -7.11546317e-02 4.60208952e-02 2.52658576e-01 -5.30386977e-02
      1.28333777e-01 -4.73683216e-02 3.98598611e-02 2.31399953e-01
      -1.57991454e-01 7.80327544e-02 9.51219127e-02 -1.36215895e-01
      -1.03580534e-01 1.53462425e-01 1.65588409e-01 0. 7.28698000e-02
      -5.90761611e-03 -6.83573857e-02 -1.66934893e-01 3.45416851e-02
      2.06520215e-01 -1.05183519e-01 1.27253383e-01 -4.28119227e-02
      -1.44642562e-01 -8.46681520e-02 3.53991725e-02 1.83153786e-02
      -4.94033061e-02 -4.94363867e-02 6.64359843e-03 -1.23078777e-02
      9.63673964e-02 1.09051816e-01 3.69366221e-02 1.39362693e-01
      -4.01283577e-02 1.08753212e-01 1.67093098e-01 -5.96022559e-03
      1.23617299e-01 -3.51293869e-02 1.11942813e-02 -3.39351110e-02
      -9.51256789e-03 -2.98502743e-02 0. -7.92410150e-02 5.69297448e-02
      -4.00111191e-02 -9.17521771e-03 4.93064001e-02 4.83262837e-02
      1.10336348e-01 1.14429906e-01 -8.03021491e-02 -1.55920744e-01
      1.18375257e-01 3.05548795e-02 -5.98574392e-02 -6.18129671e-02
      -1.91114992e-02 -1.40861541e-01 -6.37643263e-02 1.91841781e-01
      5.83603629e-04 7.90055469e-02 1.35606095e-01 -3.05033009e-02
      -1.13141872e-01 1.54911531e-02 -4.75124083e-02 -8.44948888e-02
      1.12891616e-03 7.05225989e-02 1.81970801e-02 -3.97621319e-02
      -4.42235172e-02 0. -1.95041284e-01 -1.72909051e-02 -1.01014310e-02
      -5.50598353e-02 -1.47937864e-01 -1.08601443e-01 1.49523048e-02
      -1.56857632e-02 9.23394337e-02 -2.16005445e-01 7.28481710e-02
      -2.91181281e-02 -5.46805523e-02 -1.86284147e-02 -2.31984686e-02
      2.66130874e-03 1.31886974e-01 -1.19642681e-03 -9.24524292e-02
      -8.71484429e-02 -1.43580183e-01 -8.04217011e-02 -1.61536440e-01
      -1.63859099e-01 -2.82734493e-03 9.57511589e-02 2.75814235e-02
      -6.91326410e-02 -4.31536734e-02 -5.71458675e-02 -1.02969952e-01 0.
      4.09292765e-02 1.04498737e-01 1.23909704e-01 -8.34277272e-02
      1.09503744e-02 -1.28071293e-01 -8.17980543e-02 -1.17531558e-02
      -4.54549603e-02 -2.12830454e-02 -3.80548723e-02 1.16336629e-01
      5.73940761e-02 -1.89445484e-02 -5.27168950e-03 3.52423415e-02
      9.87718850e-02 -6.26391172e-02 1.77266970e-02 1.66231114e-02
      2.15550929e-01 -5.27793020e-02 -5.16359042e-03 -2.16313656e-02
      -6.06094897e-02 4.95762341e-02 -7.42861256e-02 6.90405145e-02
      2.24914984e-03 -1.79272518e-02 -1.03073120e-02 0. 3.38498019e-02
      1.09839670e-01 -5.53690903e-02 2.11333465e-02 2.51073320e-03
      -1.61240876e-01 1.49531774e-02 -6.67159632e-02 5.98098785e-02
      -1.54450223e-01 3.66567224e-02 1.09047890e-01 -1.80223417e-02
      -1.77445307e-01 -7.91033134e-02 1.74132101e-02 -1.28809884e-01
      2.15198994e-01 9.33699682e-02 1.39748856e-01 9.68830362e-02
      -4.90738228e-02 -1.40697181e-01 -1.31556273e-01 -7.73713067e-02
      -5.82068041e-02 2.28681132e-01 -2.89633106e-02 -5.18234726e-03
      -2.69934833e-02 -4.29194011e-02 0. 5.52357845e-02 7.51152486e-02
      -7.89716840e-02 2.17750296e-02 -3.49802002e-02 -3.05438824e-02
      -1.25049144e-01 6.87700361e-02 4.88842502e-02 -3.39072049e-02
      5.75177521e-02 6.23011962e-02 -1.01856373e-01 3.10699511e-02
      -8.06592628e-02 1.19797336e-02 -1.12733223e-01 -6.50191233e-02
      1.23117357e-01 9.52001959e-02 1.26426993e-02 -3.30212526e-02
      -8.17141980e-02 -4.07038219e-02 -8.09922591e-02 -7.73071423e-02
      -1.08812675e-01 -6.53999969e-02 -4.02307808e-02 3.27128079e-03
      -6.56736176e-03 0. 2.01350059e-02 7.89546371e-02 -8.65986869e-02
      -5.18788397e-02 2.70162255e-01 1.89396068e-01 -8.99791047e-02
      -4.35223021e-02 8.10910203e-03 1.14102196e-02 8.22967738e-02
      -2.50505917e-02 -8.18672925e-02 1.86913252e-01 9.41689461e-02
      -4.52182069e-02 -3.14044207e-02 -1.38464617e-03 1.35201477e-02
      8.74264613e-02 -6.13164715e-02 -6.86315149e-02 1.03556074e-01
      9.13166031e-02 -1.30637437e-01 -4.04660963e-02 5.83230741e-02
      1.31099299e-01 8.42210576e-02 -1.29204281e-02 2.60603670e-02 0.
      7.48964176e-02 -1.22293122e-01 -5.83930761e-02 4.11423296e-02
      2.82639861e-01 1.35224998e-01 -1.13086201e-01 6.55749254e-03
      1.65704405e-03 -2.20316723e-02 8.31860118e-03 7.76548497e-03
      3.25286947e-02 6.18360043e-02 -1.19441360e-01 -3.70347351e-02
      -4.03869785e-02 4.11921255e-02 3.90765071e-02 -4.93739396e-02
      -6.43679053e-02 6.17295969e-03 -3.81700369e-03 -1.62908155e-02
      -4.72080782e-02 -5.26971929e-02 7.73358494e-02 -1.12864710e-01
      -1.02588020e-01 1.17712490e-01 1.83106929e-01 0. -1.36321306e-01
      1.83252156e-01 1.44701609e-02 6.84774965e-02 1.21432260e-01
      1.52114317e-01 6.38210401e-02 -5.03216051e-02 -6.20137118e-02
      -9.79143158e-02 1.87303405e-02 -3.56228650e-02 4.77725603e-02
      -1.74627192e-02 1.03266351e-02 -7.55766183e-02 -2.49940529e-02
      -1.24201797e-01 -4.63823862e-02 1.57159224e-01 1.44847378e-01
      1.16870023e-01 8.37357789e-02 1.58600807e-01 1.22976517e-02
      -8.56426079e-03 -1.51685417e-01 -1.51213277e-02 8.11224245e-03
      4.65628617e-02 -1.31704686e-02 0. -1.22524783e-01 -2.51395795e-02
      1.10258959e-01 5.59962727e-02 2.15101205e-02 2.61995625e-02
      7.97737986e-02 8.03669468e-02 -1.93817783e-02 -1.15887962e-01
      1.36116296e-01 9.66477022e-02 -1.13062717e-01 -1.38102993e-01
      -6.08056672e-02 4.99005169e-02 -6.27410039e-02 1.44211560e-01
      8.01310241e-02 1.45955365e-02 2.10026175e-01 -1.01042271e-01
      -6.61144331e-02 -4.50805686e-02 5.07256128e-02 -4.87002768e-02
      6.02919534e-02 8.05596914e-03 3.91635932e-02 1.22708026e-02
      8.07790086e-03 0. -4.97756414e-02 1.71168912e-02 4.19366248e-02
      -2.69882884e-02 -9.19051282e-03 7.67448694e-02 -2.32218523e-02
      -1.99034423e-01 -5.16724065e-02 -1.08655222e-01 3.34078260e-02
      -1.48587480e-01 -7.98952579e-02 9.57015157e-03 -2.52623595e-02
      1.49045512e-01 2.22153701e-02 6.07171096e-02 4.37575579e-02
      -4.23943810e-02 -1.18680336e-01 -1.05535604e-01 -1.51250409e-02
      -1.11401722e-01 1.88578609e-02 -5.64419478e-02 5.76710999e-02
      -3.94097343e-02 -6.11506924e-02 -3.04333474e-02 -1.58610642e-02 0.
      -9.62095186e-02 4.39153276e-02 1.34677589e-01 -5.57653457e-02
      1.08757444e-01 -3.37981060e-02 -1.30355656e-01 -2.63084974e-02
      1.93594798e-01 -3.97263281e-02 1.67314894e-02 -9.90840793e-02
      1.09984644e-01 -1.68390740e-02 7.57780150e-02 -1.58134606e-02
      -3.40857618e-02 -1.66857429e-02 -2.36284118e-02 4.13089842e-02
      8.46355706e-02 -3.27976450e-04 5.66919856e-02 1.04743071e-01
      -1.14242144e-01 4.92507406e-02 1.00216918e-01 8.95866454e-02
      1.08377784e-02 9.87267774e-03 -5.43100014e-02 0. -1.31805435e-01
      -9.97836217e-02 8.79232734e-02 8.47528651e-02 9.88534391e-02
      -1.49520993e-01 -2.51455251e-02 -6.87847435e-02 1.37299851e-01
      -5.62070832e-02 6.33634068e-03 -7.14177713e-02 -1.67784676e-01
      -6.29511029e-02 -5.27489036e-02 6.32003769e-02 -1.59645796e-01
      5.85586838e-02 1.19094111e-01 1.86045114e-02 -1.32950405e-02
      -4.38897796e-02 8.00711066e-02 -6.22559227e-02 5.47800176e-02
      -8.48676786e-02 1.54730365e-01 -6.78804517e-02 -8.45318064e-02
      -5.10824323e-02 -3.63869555e-02 0. -4.97127743e-03 3.40345339e-03
      2.15835888e-02 2.47699559e-01 -1.30121529e-01 -1.28184278e-02
      2.91140825e-02 5.23735024e-02 -2.60981396e-02 8.80427137e-02
      -9.77786332e-02 -8.80380571e-02 -3.18683296e-01 -9.70717072e-02
      4.87788804e-02 8.88465345e-02 4.20938507e-02 8.54413062e-02
      2.22029939e-01 5.25882607e-03 4.74030599e-02 -2.69120000e-02
      -6.62932172e-02 6.71903566e-02 -4.67984863e-02 1.45798117e-01
      1.98198352e-02 1.51620293e-03 -4.63982634e-02 1.62453987e-02
      -3.51447752e-03 0. -9.02418271e-02 1.14692524e-02 -9.53057110e-02
      -1.06857322e-01 -3.97121347e-03 1.67823732e-01 -6.49724305e-02
      -6.88787550e-02 -5.79539165e-02 3.60086039e-02 4.88739274e-02
      -8.25680569e-02 -1.45051807e-01 -5.31748347e-02 3.55541222e-02
      4.35941620e-03 5.17614782e-02 7.37813115e-02 -2.60412297e-03
      -4.24367981e-03 -2.83411108e-02 -1.74536631e-01 -1.80759258e-03
      1.57710940e-01 -1.30270988e-01 -1.15879990e-01 9.26428288e-02
      7.85975233e-02 1.74999777e-02 -9.44456160e-02 -1.61618680e-01 0.
      -4.87337634e-03 9.37429965e-02 9.77483168e-02 1.09247498e-01
      8.48177634e-03 6.64546853e-04 -5.95111996e-02 1.14470497e-02
      7.93047696e-02 4.88354079e-03 -1.04607157e-01 -2.47550779e-03
      -1.26043230e-01 4.78450470e-02 -8.08612444e-03 -1.07741721e-01
      4.31970656e-02 1.58153214e-02 7.53066540e-02 4.05757502e-02
      8.26030597e-02 -1.96227618e-02 -6.01837933e-02 3.55863869e-02
      -2.07983717e-01 8.88552442e-02 3.32026482e-02 -3.36507298e-02
      -1.11683242e-01 7.92069137e-02 1.12814337e-01 0. 2.68602651e-02
      1.31779537e-01 1.05299622e-01 4.30148169e-02 -2.66909927e-01
      1.47650084e-02 5.74970245e-02 2.03839183e-01 1.86547473e-01
      -2.47664694e-02 -1.02257289e-01 -1.12695210e-01 -4.81076986e-02
      -4.49325442e-02 -1.45425797e-01 -5.48249744e-02 -1.55398366e-03
      2.94263475e-02 8.63009989e-02 9.72062945e-02 3.10340784e-02
      -1.17778210e-02 -1.97964668e-01 -2.34968378e-03 3.03775370e-02
      1.58863172e-01 1.47562876e-01 -2.57910006e-02 -7.65684694e-02
      1.08947530e-01 -7.74045894e-03 0. 5.72640635e-03 6.91126799e-04
      -4.65309843e-02 4.70684767e-02 -1.11045703e-01 -5.98863512e-02
      -4.88717072e-02 4.43844916e-03 -6.67521916e-03 -1.12771660e-01
      8.00337940e-02 3.52649540e-02 5.45577221e-02 -6.00762777e-02
      -1.87414318e-01 -8.03869590e-02 -1.91402510e-02 -1.22757211e-01
      1.06405780e-01 5.30025251e-02 -5.17214723e-02 -3.99563201e-02
      -6.53081536e-02 -9.93142128e-02 -7.60825723e-02 -3.66259813e-02
      6.04599267e-02 6.11787997e-02 -1.04950696e-01 -7.89095536e-02
      -1.73252016e-01 0. -1.08697161e-01 7.24601746e-03 -1.34604022e-01
      9.05870050e-02 1.22152656e-01 1.19309746e-01 4.57392484e-02
      -5.91184618e-03 -1.27099410e-01 -1.27511621e-01 -6.88002333e-02
      -1.01255305e-01 1.33093044e-01 5.01487963e-02 -8.29557627e-02
      1.63559049e-01 5.54402620e-02 -3.38233002e-02 -5.39527051e-02
      4.21361364e-02 -2.01150671e-01 1.26523286e-01 2.77880877e-01
      6.03004433e-02 1.93310007e-01 9.72930118e-02 -8.49018171e-02
      1.07624196e-02 -3.20864432e-02 7.05137700e-02 -5.07844388e-02 0.
      -1.04367658e-01 1.28925294e-01 -1.56630456e-01 -2.60285307e-02
      9.82967615e-02 -1.12113717e-03 4.23990153e-02 1.82585701e-01
      -2.70833671e-02 -2.01014489e-01 -5.76595441e-02 6.01009801e-02
      7.38964751e-02 -2.26522982e-02 -8.88042673e-02 -1.36057228e-01
      -8.60799402e-02 4.72700000e-02 -1.94474891e-01 4.96625155e-02
      -2.93988101e-02 4.49945293e-02 2.04893336e-01 7.25492910e-02
      -2.39400174e-02 9.93311033e-03 -2.14808341e-02 3.36586758e-02
      -1.70073491e-02 -6.19788207e-02 -8.38477686e-02 0. -1.22444697e-01
      1.11579830e-02 1.75914839e-01 1.34287044e-01 1.85027141e-02
      -2.26323139e-02 5.94835393e-02 8.39705616e-02 2.02754036e-01
      -3.85660231e-02 -1.10720612e-01 -9.04033929e-02 -9.54120234e-02
      -3.00396625e-02 -6.77533299e-02 -8.14835057e-02 -3.45419087e-02
      4.81156521e-02 1.32022396e-01 -3.42154060e-03 8.59208032e-02
      7.78675973e-02 5.94899021e-02 5.18862791e-02 -9.73191485e-03
      3.74787264e-02 2.85599411e-01 2.14393437e-02 3.05299624e-03
      -3.12152728e-02 2.56679915e-02 0. -7.11608604e-02 -4.09647934e-02
      -6.37683570e-02 -6.62860498e-02 -9.39820930e-02 -8.95215720e-02
      -4.73131910e-02 7.25899637e-02 6.80945367e-02 -1.91519670e-02
      -1.83674157e-01 -3.98031026e-02 -3.69475111e-02 -1.66392215e-02
      -1.60797089e-02 -3.81013975e-02 -8.27522948e-02 1.05853893e-01
      7.21103773e-02 -1.00152656e-01 -3.98494639e-02 -1.23510277e-02
      -3.96756046e-02 -1.91533137e-02 -4.68209498e-02 -1.70378275e-02
      6.32811561e-02 -4.68162745e-02 -1.26459941e-01 -9.04273465e-02
      -4.72355559e-02 0. 1.83388982e-02 1.26613423e-01 -3.44650634e-02
      -5.39356656e-02 2.45485269e-02 4.71387655e-02 -5.94292255e-03
      -2.56902222e-02 -8.24764222e-02 -2.18242273e-01 -1.69619243e-03
      -2.11496074e-02 9.50145535e-03 1.85127124e-01 5.68338372e-02
      -2.32700258e-02 -1.19783096e-02 5.43916523e-02 2.90604159e-02
      8.79982933e-02 -3.56394541e-03 -4.57349606e-03 -3.35473269e-02
      1.07667349e-01 -2.04232335e-02 -3.49506475e-02 -2.23988201e-02
      1.12769552e-01 8.26055855e-02 -9.09975618e-02 -8.38024467e-02 0.
      6.18797867e-03 -8.23695883e-02 1.74535997e-02 2.26071868e-02
      3.18228416e-02 7.22178519e-02 -5.43577000e-02 8.60219821e-02
      7.70671591e-02 3.65370773e-02 8.35386571e-03 -1.65573761e-01
      -5.29381298e-02 1.33543843e-02 3.72401960e-02 -9.88556966e-02
      2.49312613e-02 9.40603241e-02 1.61840431e-02 -3.21018286e-02
      -1.47132546e-01 -9.40468535e-02 -1.95070787e-03 4.14919555e-02
      -1.08467914e-01 1.67140976e-01 7.00738505e-02 -1.03472240e-01
      -1.05198547e-01 1.77133963e-01 6.63077310e-02 0. 2.17396673e-02
      1.80191249e-02 8.34984779e-02 2.61510909e-02 -5.07230833e-02
      8.63722935e-02 -9.25804526e-02 1.74888298e-02 -7.78966770e-02
      -1.15721077e-01 5.77172004e-02 -7.97011517e-03 3.57014611e-02
      1.08253300e-01 1.11386064e-03 -5.66426776e-02 -8.13391134e-02
      4.95057292e-02 1.07371531e-01 1.30014002e-01 7.68110454e-02
      2.16747504e-02 1.75142605e-02 1.05457328e-01 -1.21555440e-01
      -1.00769453e-01 2.30213604e-03 -2.74437740e-02 -4.65946756e-02
      6.42913952e-02 2.04420593e-02 0. -1.19041160e-01 9.55341849e-03
      -5.73939718e-02 -1.47407129e-01 3.63743603e-02 5.97382933e-02
      5.16057089e-02 8.02593678e-02 6.03229254e-02 -3.27025726e-02
      1.47158429e-01 -1.02262333e-01 -8.38689134e-03 -1.18356682e-01
      -6.24586120e-02 1.25860041e-02 1.49967754e-02 -1.49474263e-01
      2.42080659e-01 9.09265056e-02 -1.92706827e-02 -6.48921132e-02
      8.69656429e-02 4.59783077e-02 3.39536071e-02 1.01118729e-01
      5.24435230e-02 2.00090557e-02 -3.78567446e-03 -4.20519821e-02
      -1.27323776e-01 0. -6.26588464e-02 -1.35529473e-01 -7.89835975e-02
      6.65487200e-02 -5.10183610e-02 -3.99541408e-02 -3.19843702e-02
      1.39601789e-02 -6.49819747e-02 -1.93284512e-01 -1.16175348e-02
      -1.62382677e-01 -3.21774632e-02 3.24084312e-02 1.27280012e-01
      1.36424020e-01 -6.06426410e-02 4.13477160e-02 -1.03870928e-01
      -7.39103481e-02 -1.37148649e-01 1.41071558e-01 1.33523524e-01
      9.77183953e-02 8.65894035e-02 -9.24989674e-03 -7.49197826e-02
      -3.18523794e-02 -8.67606103e-02 -4.36602756e-02 -7.68427104e-02 0.
      -3.59953269e-02 7.01407343e-03 -2.79284231e-02 1.19784594e-01
      -2.24624738e-01 -1.24813356e-01 1.95721500e-02 2.31594127e-02
      -4.45453115e-02 -2.62294859e-01 -4.59916284e-03 -5.22845685e-02
      2.29125526e-02 3.78656052e-02 -6.22583665e-02 6.07109582e-03
      -2.24572252e-02 1.16527557e-01 -1.11890808e-01 -4.34934609e-02
      7.47478083e-02 1.19084619e-01 -2.24984214e-02 -1.21938616e-01
      6.11241087e-02 8.66400301e-02 1.82456374e-02 -8.26785415e-02
      -2.49421205e-02 -8.46418142e-02 -4.76303771e-02 0. -2.02581346e-01
      -1.30927131e-01 -1.01497121e-01 1.12465799e-01 -1.52840419e-02
      -5.89745790e-02 -1.14939667e-01 -3.16515751e-02 1.15303397e-01
      2.00888999e-02 -3.97483259e-02 -5.84848709e-02 -7.51059037e-03
      1.50852948e-01 2.43439320e-02 -3.16908248e-02 -9.58627164e-02
      7.45417103e-02 6.03034869e-02 8.06039665e-03 -7.50264674e-02
      2.82035489e-02 2.58417040e-01 -2.97623388e-02 -1.32757932e-01
      -1.30070195e-01 1.73338965e-01 -6.44484013e-02 -2.52443962e-02
      -9.59540457e-02 1.06731721e-03 0. 4.90360633e-02 1.34633044e-02
      7.95697197e-02 -3.43548693e-02 4.22102911e-03 -2.16656062e-03
      -1.65096954e-01 3.83304060e-02 -3.20463069e-02 1.65008083e-02
      -8.43383521e-02 -2.34591272e-02 8.77205189e-03 -1.66824665e-02
      -9.54229161e-02 -5.00709675e-02 -2.04489797e-01 -3.17693092e-02
      1.04493581e-01 5.33202514e-02 1.43143132e-01 5.88660203e-02
      3.49956676e-02 -1.82879460e-03 -7.08711743e-02 1.70763733e-03
      -1.26439318e-01 -7.10031763e-03 -2.60328893e-02 -1.59699723e-01
      -5.70110567e-02 0. 3.63107882e-02 1.51876062e-01 -3.11988629e-02
      -4.53055166e-02 -7.83963501e-03 4.05273065e-02 -1.34525662e-02
      7.70136714e-02 -7.72505477e-02 -1.95030849e-02 -3.91393490e-02
      -2.50610313e-03 -7.17039183e-02 -4.61319499e-02 -8.77913311e-02
      1.12916976e-01 -2.13824511e-02 3.95385735e-02 9.74910632e-02
      5.59122041e-02 -3.71979736e-02 -4.77971286e-02 -1.22928806e-02
      2.14627236e-02 4.00357917e-02 9.30233859e-03 2.53529493e-02
      2.22744063e-01 4.00912017e-02 -1.32417485e-01 -1.32785112e-01 0.
      -1.18360840e-01 -4.68380973e-02 5.86564727e-02 6.35870472e-02
      -9.84330662e-04 1.17356442e-01 1.21338107e-01 7.58450627e-02
      1.16238311e-01 -7.66880345e-03 8.16369951e-02 -8.05340558e-02
      -8.02116990e-02 -6.14217333e-02 -2.14174315e-02 2.16245446e-02
      -1.35540571e-02 2.84814425e-02 4.98267263e-02 2.79027820e-02
      -2.09700931e-02 -3.07407714e-02 -1.06254056e-01 8.47555231e-03
      1.01669386e-01 4.29330207e-02 1.55059278e-01 -9.38196406e-02
      -9.32810381e-02 2.35351339e-01 7.13781491e-02 0. -1.59636792e-03
      6.05961913e-03 1.47605851e-01 -5.65885901e-02 -2.87211873e-02
      7.05232397e-02 6.26904517e-02 1.07442949e-03 2.48832349e-02
      4.52129878e-02 2.49374378e-02 -4.31200191e-02 -1.48301393e-01
      -5.04532233e-02 -9.86204296e-02 -1.50555139e-02 -3.09354365e-02
      3.45954783e-02 2.61676580e-01 6.33772016e-02 1.88265160e-01
      -1.35468096e-01 -1.09733015e-01 -2.43675485e-02 1.98333804e-02
      2.51484429e-03 4.69945632e-02 -1.13520466e-01 -3.09858713e-02
      1.00034013e-01 1.81637146e-02 0. -2.47935101e-01 1.01623401e-01
      3.05840168e-02 5.22632804e-03 4.65162918e-02 -5.51411137e-03
      -3.46009322e-02 -7.50885755e-02 1.29572913e-01 -2.06095263e-01
      2.15263627e-02 -7.94671699e-02 -4.35392447e-02 -1.31929383e-01
      6.61610905e-03 8.06595199e-03 1.57663506e-02 -1.87429011e-01
      2.11371288e-01 3.82486507e-02 -1.69540681e-02 -4.31916825e-02
      -7.79159414e-03 8.77597928e-02 -7.46830693e-03 6.39356859e-03
      -5.74971698e-02 -5.73021621e-02 -4.69949320e-02 -1.11855231e-01
      -8.84196982e-02 0. -4.24704179e-02 9.37392339e-02 -2.00098194e-03
      5.27401529e-02 7.04977289e-02 -8.78779665e-02 1.57986656e-02
      1.16189457e-02 1.06550232e-01 -1.75476074e-01 -1.74933635e-02
      -1.84515834e-01 -1.68933406e-01 -9.23250765e-02 3.55306305e-02
      1.14710324e-01 -9.49254110e-02 -1.57821804e-01 4.97058593e-03
      8.01944211e-02 -9.78691354e-02 -2.18828605e-03 8.53985921e-03
      -1.62268635e-02 1.47935063e-01 7.39985704e-02 -5.17434850e-02
      -7.78921545e-02 -7.27124214e-02 -7.16733932e-02 -2.41013505e-02 0.
      -1.52114451e-01 1.06068775e-01 7.32756183e-02 3.72496508e-02
      -4.66957800e-02 -1.33890480e-01 3.02737039e-02 2.19686508e-01
      7.07962736e-02 -1.67235747e-01 -7.05306306e-02 -1.10018507e-01
      -2.09299877e-01 -3.82036120e-02 -3.75756770e-02 -3.07613816e-02
      -7.99558461e-02 -8.55402276e-03 8.37930944e-03 4.35540192e-02
      1.72972344e-02 -7.03222901e-02 2.42969356e-02 -5.84755167e-02
      -2.55631041e-02 1.77123964e-01 -1.72503553e-02 -1.23956673e-01
      -1.47027420e-02 -7.44048283e-02 -4.50203940e-02 0. -5.34381531e-02
      8.65302011e-02 2.30157003e-01 7.60714263e-02 4.81288768e-02
      -1.34892717e-01 -1.55757353e-01 -3.33529674e-02 -5.86143918e-02
      -7.87985697e-02 1.16831608e-01 -1.15274861e-01 -1.40629992e-01
      -8.99898633e-03 1.07396238e-01 -5.07883541e-03 -3.57039906e-02
      -5.89970266e-04 1.49130061e-01 1.99284315e-01 2.02190518e-01
      5.20931706e-02 1.29276469e-01 -5.45770675e-02 -1.14224084e-01
      -9.89978611e-02 -7.40614813e-03 -2.90897191e-02 -6.74955081e-03
      -4.73919287e-02 9.68555547e-03 0. -4.71147224e-02 -3.67978476e-02
      5.52536212e-02 -1.43558001e-02 -7.73066506e-02 5.92571981e-02
      -8.13806579e-02 -1.10427186e-01 9.33904853e-03 -5.48504805e-03
      2.00770665e-02 4.74382676e-02 5.41635901e-02 -3.47744450e-02
      5.49737811e-02 -5.70797883e-02 2.51221731e-02 8.07240084e-02
      1.42213538e-01 4.64680605e-02 3.95608731e-02 1.14846341e-02
      3.86606120e-02 1.24943130e-01 -1.71068177e-01 -7.48665780e-02
      4.67727333e-02 1.28441192e-02 9.17987898e-02 -8.85459483e-02
      -4.36142236e-02 0. -1.13074794e-01 8.50189701e-02 1.04656816e-01
      1.40447751e-01 -6.13641106e-02 -4.80396226e-02 -9.77085680e-02
      -8.44643191e-02 7.63670802e-02 6.43998943e-03 8.97694528e-02
      -7.29636103e-02 -8.20016339e-02 3.54555063e-02 4.55735065e-02
      1.03932343e-01 -4.85871844e-02 -6.61027804e-02 -8.56820419e-02
      1.40834123e-01 -6.40368983e-02 4.54175146e-03 -6.93227947e-02
      5.06670363e-02 -5.95459081e-02 -4.90193442e-02 9.03528277e-03
      1.61308333e-01 2.38269508e-01 -2.36221522e-01 -1.57060876e-01 0.
      -8.36679339e-02 -1.13126077e-01 -4.76913080e-02 4.09665890e-02
      1.54669955e-01 1.63703308e-01 3.76414917e-02 -4.84698154e-02
      1.05848715e-01 -1.81151880e-03 1.31727858e-02 6.68670908e-02
      -7.26426905e-03 -5.07329404e-02 -1.25043482e-01 -2.08425269e-01
      1.69365909e-02 6.06513396e-02 2.32343990e-02 -7.80358836e-02
      4.46956418e-02 5.24875447e-02 -5.90588488e-02 9.52401459e-02
      -1.91061884e-01 -4.43951786e-02 4.51832451e-02 -1.93987831e-01
      -1.58704862e-01 1.66433692e-01 1.74108788e-01 0. -2.32717067e-01
      -6.85955137e-02 -5.74562885e-02 1.06002288e-02 1.41286373e-01
      1.01896096e-02 2.70102136e-02 -1.72264394e-04 1.53887998e-02
      -1.34666532e-01 -8.21410120e-02 -1.04989745e-01 -3.11531732e-03
      1.08483694e-01 2.20777467e-02 -1.07759178e-01 -7.46272579e-02
      -1.45506077e-02 -6.00266876e-03 -9.79924724e-02 -4.23932448e-02
      3.50099765e-02 7.96049237e-02 1.76217090e-02 -1.39122859e-01
      -8.28202367e-02 2.94590928e-03 -1.05001219e-01 -1.52541861e-01
      1.38464349e-03 -1.11009309e-03 0. -1.40818268e-01 4.04382721e-02
      -3.35843157e-04 -3.28355841e-02 7.88908266e-03 -1.46236226e-01
      3.33769098e-02 -5.63042192e-03 1.01945907e-01 -7.09610002e-04
      3.02388724e-02 -5.23811057e-02 -1.36416964e-02 -9.57806874e-03
      5.24122268e-02 -4.85710278e-02 4.22568433e-02 -1.06603272e-01
      2.04201996e-01 9.86470804e-02 1.21533265e-02 1.20782368e-02
      -3.53630707e-02 -6.12587621e-03 -4.80305078e-03 -1.98095795e-02
      -1.10083143e-03 -4.62981081e-03 1.07865408e-02 -4.98110019e-02
      -7.36220926e-02 0. -5.07182479e-02 4.83998358e-02 7.00421333e-02
      -3.05043813e-02 1.18283100e-01 -1.38112113e-01 1.36165442e-02
      1.30209714e-01 1.88239440e-01 1.46684200e-02 -2.17899252e-02
      1.45116430e-02 -3.46416347e-02 -2.68080998e-02 9.63859074e-03
      -1.33061573e-01 -1.66903451e-01 1.34716490e-02 9.93810669e-02
      5.45318723e-02 1.04420505e-01 -4.54814360e-02 -4.55523096e-02
      -1.15014195e-01 -6.09776191e-02 7.68437386e-02 1.54869810e-01
      -4.99299988e-02 1.76431499e-02 9.46514774e-03 3.15622464e-02 0.
      -4.69508171e-02 1.08511575e-01 -6.47595152e-02 1.46663589e-02
      -4.46651652e-02 -1.80939242e-01 -1.43294692e-01 1.78492472e-01
      1.03659138e-01 -2.47389808e-01 -1.12736300e-01 -7.57247657e-02
      -1.66367069e-01 6.32258207e-02 1.63593423e-02 -2.88053025e-02
      -1.35577470e-01 4.52295266e-04 -4.71927002e-02 1.11724205e-01
      -4.41888198e-02 -8.59113559e-02 -1.03453368e-01 -1.16932422e-01
      -7.34640360e-02 5.63915707e-02 6.59862906e-02 -8.98022056e-02
      -1.13928318e-01 -7.19356686e-02 -8.34666714e-02 0. 6.55765757e-02
      1.08959809e-01 1.29430778e-02 1.36903087e-02 -1.38622224e-01
      1.48026682e-02 -5.63588105e-02 -4.71708812e-02 3.19346599e-02
      -1.66254677e-02 -2.74261087e-02 -8.97930264e-02 4.63668667e-02
      1.13606669e-01 3.31094861e-02 1.93824060e-02 -1.03511781e-01
      -5.67365475e-02 2.92633682e-01 -9.33624804e-03 -3.78944650e-02
      7.57137984e-02 5.57702333e-02 -2.94859409e-02 -3.26303467e-02
      -8.58657360e-02 -3.64618860e-02 1.76506769e-02 -3.10636014e-02
      2.28671706e-05 -2.23761592e-02 0. 4.85612191e-02 -1.41146809e-01
      -8.02983567e-02 -1.72043350e-02 4.57032658e-02 1.96923569e-01
      5.04728332e-02 -1.21281400e-01 1.70838740e-02 -1.05210677e-01
      -1.13392420e-01 -4.99566868e-02 -6.03789289e-04 -1.62423030e-01
      4.82472740e-02 -2.41177417e-02 1.38254911e-01 1.20418370e-01
      1.78621054e-01 -2.07486242e-01 -9.70368162e-02 -3.06711253e-03
      7.87273981e-03 1.94957927e-01 -2.13871151e-02 5.46929240e-02
      8.32745135e-02 7.10747670e-03 6.78629652e-02 -8.80318508e-02
      -5.76344356e-02 0. -1.02472700e-01 -2.05051824e-02 2.08633393e-02
      2.32017711e-02 2.16465313e-02 5.67669347e-02 1.13052346e-01
      5.64664751e-02 -7.16238096e-02 8.63151699e-02 -4.68361750e-02
      -1.13251440e-01 1.17233358e-01 2.68261395e-02 8.65712017e-02
      -4.68402468e-02 -4.28421795e-02 3.31110694e-02 -6.46968111e-02
      -1.28379062e-01 -2.87789516e-02 7.57241324e-02 -1.19125746e-01
      9.47998166e-02 5.95346801e-02 6.31112680e-02 8.88991952e-02
      1.31596833e-01 2.65407056e-01 -1.67139634e-01 -1.36676669e-01 0.
      -1.30713254e-01 -3.53357419e-02 4.82057407e-02 -2.56774426e-02
      9.24699679e-02 1.09463945e-01 1.16335014e-02 2.03143820e-01
      -7.60407746e-02 -3.89539674e-02 2.58113500e-02 -6.61593229e-02
      -8.62288177e-02 -3.06254402e-02 4.42863256e-02 -7.61438459e-02
      -5.24396589e-03 -8.40748176e-02 -3.12410761e-02 1.41289057e-02
      9.46481887e-05 -7.83922747e-02 -8.97657871e-02 3.86661515e-02
      -3.32217216e-02 1.25557616e-01 -1.11502320e-01 -1.91040903e-01
      -1.78811014e-01 1.44948930e-01 1.68248862e-01 0. -6.68178499e-02
      -6.65969253e-02 4.07781871e-03 -2.09048148e-02 -6.51987568e-02
      9.58221629e-02 -5.76790364e-04 7.29296282e-02 -1.37743995e-01
      -1.05195768e-01 1.18688680e-01 -2.70572770e-02 -8.60109702e-02
      -7.08352327e-02 -7.94636980e-02 -6.87096938e-02 -5.14946319e-02
      5.06351516e-02 1.76322892e-01 9.73139033e-02 -3.16829048e-03
      -3.88641167e-03 -6.20673560e-02 4.85685840e-02 -5.95131367e-02
      5.06432587e-03 2.73411572e-02 -5.70431091e-02 -1.08475789e-01
      -7.03758821e-02 -1.90433778e-03 0. -9.19910595e-02 2.64711045e-02
      1.75328344e-01 -1.15229413e-01 -4.97357920e-02 1.05795726e-01
      1.72343209e-01 4.82430421e-02 1.07097365e-01 -1.84180737e-02
      1.05766192e-01 -1.03033021e-01 -4.64363173e-02 -9.07918140e-02
      -1.26110122e-01 -1.39378384e-01 -1.38421908e-01 -5.04732132e-02
      2.64611483e-01 6.39191940e-02 8.87096226e-02 -1.54648334e-01
      -1.32955164e-01 6.72775134e-02 -3.97258326e-02 -6.60412163e-02
      8.33502784e-02 -4.42988202e-02 4.46978733e-02 -5.06858006e-02
      -5.76517098e-02 0. -8.10713880e-03 1.30706415e-01 1.55262128e-01
      1.98677570e-01 9.70154256e-02 -3.28314793e-03 1.28479332e-01
      1.10612243e-01 7.77035877e-02 -1.52200967e-01 5.54775931e-02
      2.18975116e-02 -4.79259565e-02 8.83649476e-03 -7.62396231e-02
      -6.80902302e-02 -1.49111584e-01 -1.10927492e-03 3.96036915e-02
      8.93584415e-02 1.80658072e-01 5.42388894e-02 2.28182711e-02
      -1.06914669e-01 -1.98329408e-02 -8.23474973e-02 6.88843206e-02
      -6.82266708e-03 6.36669770e-02 7.95608088e-02 8.92071053e-02 0.
      -1.15220748e-01 1.25497699e-01 -9.56625044e-02 1.59136042e-01
      -6.34051636e-02 -6.50445893e-02 -9.27221309e-03 2.30240539e-01
      2.28439003e-01 4.37731892e-02 8.17502439e-02 -4.14230302e-02
      -6.28749430e-02 1.48337390e-02 -6.54238537e-02 -1.37555122e-01
      4.61469591e-02 -1.63983718e-01 1.27113359e-02 2.28971347e-01
      -5.48986718e-02 1.09441146e-01 -8.94373208e-02 -1.73649192e-01
      -1.44091591e-01 2.68127412e-01 1.27008244e-01 -7.10530132e-02
      4.20562588e-02 -1.25974016e-02 9.34253186e-02 0. -1.09799206e-01
      1.89345598e-01 -1.98529661e-02 6.10200018e-02 7.76298791e-02
      3.65567543e-02 -2.02794239e-01 1.07004896e-01 3.95407192e-02
      -5.46521209e-02 6.33877004e-03 -6.47918060e-02 -2.50782687e-02
      -1.91859305e-02 -6.39859587e-02 -7.75792003e-02 4.95108590e-02
      -3.94673571e-02 2.02558875e-01 6.99220821e-02 -1.71207320e-02
      5.91428578e-02 2.36381423e-02 -9.63331386e-02 -2.49684155e-01
      1.73963860e-01 -5.52674057e-03 -3.23365182e-02 -7.25286454e-03
      -4.64764498e-02 3.40988711e-02 0. 1.49336020e-02 9.42438841e-03
      -5.27731963e-02 6.53365329e-02 -3.51856463e-02 2.99617760e-02
      -8.65970105e-02 -2.95407064e-02 -3.16166505e-02 -1.32407278e-01
      -4.80313338e-02 -1.22026898e-01 -6.72188848e-02 -6.49977252e-02
      -1.45329470e-02 -4.63485457e-02 8.50070342e-02 -4.62900996e-02
      1.10879920e-01 3.57062817e-02 -6.91011995e-02 -2.14502923e-02
      -6.08907379e-02 -7.61020780e-02 -2.01945916e-01 2.74613444e-02
      1.02311345e-02 -8.08477774e-02 2.47591995e-02 -1.26233727e-01
      -8.77444595e-02 0. 5.79340442e-04 -3.94695438e-02 -4.06723060e-02
      5.46951778e-02 -1.30753014e-02 2.01415464e-01 -1.63363535e-02
      1.03515550e-01 4.72139791e-02 8.19448829e-02 3.73617071e-03
      -1.37248263e-01 -9.04255360e-03 -1.20987184e-01 1.58797637e-01
      -7.72820935e-02 9.61140841e-02 -1.31417200e-01 5.46429381e-02
      1.88825782e-02 -7.43470192e-02 -9.89218149e-03 -1.90369740e-01
      1.36132270e-01 -8.27493370e-02 6.12173192e-02 -6.25277013e-02
      1.80274650e-01 2.22729832e-01 -2.11468130e-01 -1.14942633e-01 0.
      -1.14049681e-01 2.18645241e-02 5.42720594e-02 -1.30426809e-01
      -4.19605114e-02 -1.03291124e-02 6.87988326e-02 -4.92234575e-03
      -1.38975754e-01 -4.03960794e-02 1.20676436e-01 1.62184328e-01
      -6.59816116e-02 -6.06768653e-02 1.55358408e-02 -1.91991050e-02
      9.94463637e-03 1.28792629e-01 -7.42189288e-02 6.41643777e-02
      6.09100126e-02 -7.77729824e-02 -7.37968907e-02 -1.16862515e-02
      8.40018243e-02 1.43786389e-02 8.48745741e-03 -1.39182046e-01
      -1.69123203e-01 1.61861733e-01 1.25301912e-01 0. -6.24437705e-02
      1.60177082e-01 1.34321884e-03 -3.01468056e-02 -6.44793659e-02
      1.64466217e-01 -1.91239417e-01 -3.27601959e-03 -9.56978053e-02
      -1.16506010e-01 5.30206375e-02 -8.15671757e-02 -5.88892661e-02
      1.80030689e-02 1.91913042e-02 -2.80547589e-02 -1.00316562e-01
      2.24080786e-01 9.52947736e-02 1.75842285e-01 -5.24324644e-03
      -8.20021182e-02 -1.15410867e-03 8.02930519e-02 -1.36302471e-01
      -1.25118941e-01 5.80200404e-02 -2.50250064e-02 -3.38138975e-02
      -2.91854199e-02 -2.64222478e-03 0. -1.75933599e-01 -1.37090636e-02
      -2.04186086e-02 -1.70810789e-01 4.81965840e-02 2.80342549e-02
      -5.00340723e-02 1.13422319e-01 2.78848223e-02 -3.70660573e-02
      -1.65600814e-02 -5.14578633e-02 1.31992936e-01 2.37686932e-02
      -1.27211764e-01 4.39050011e-02 -7.26977885e-02 2.42055710e-02
      1.11359537e-01 -9.37154237e-03 -2.57572774e-02 -2.72526108e-02
      6.95725381e-02 -4.60944735e-02 5.09342961e-02 3.50648426e-02
      -2.03478569e-03 -8.17205980e-02 2.55873483e-02 -5.13389334e-02
      -3.13501507e-02 0. -9.27326456e-02 1.62197173e-01 5.99982776e-02
      -9.61767212e-02 -7.92693645e-02 4.99291644e-02 7.41731897e-02
      -3.01948693e-02 -1.84636060e-02 -1.06995054e-01 -7.94982654e-04
      -7.16477213e-03 1.01567842e-01 -4.44590561e-02 -6.98273405e-02
      -3.33973654e-02 -1.11498050e-01 5.40857054e-02 1.64889675e-02
      1.54204547e-01 1.10563830e-01 1.33933434e-02 -8.50883573e-02
      -7.13500381e-02 1.99721642e-02 -5.34936264e-02 2.54371464e-02
      -1.29558221e-01 -1.81552880e-02 1.12094069e-02 4.73988727e-02 0.
      -9.68204141e-02 7.52299801e-02 -1.41200781e-01 -5.39515503e-02
      9.03743930e-05 -1.15651833e-02 2.06913650e-01 1.64422154e-01
      2.06228048e-01 1.64685950e-01 1.01142107e-02 -5.01517095e-02
      6.08267970e-02 -1.70704201e-01 -5.86780980e-02 -7.09575415e-02
      -3.56160924e-02 -2.61981525e-02 9.89244226e-03 4.72001433e-02
      -7.60296956e-02 -6.39243275e-02 -4.21088375e-02 -5.57835996e-02
      1.89942606e-02 1.12586387e-01 7.57030025e-02 -4.69219387e-02
      3.15168537e-02 -2.07549669e-02 1.17555425e-01 0. -2.62945086e-01
      2.08891347e-01 4.53329161e-02 9.88617688e-02 4.20190319e-02
      -8.94070603e-03 -3.97305340e-02 1.80033613e-02 -8.45185742e-02
      -8.70838687e-02 -7.42667243e-02 -1.09992974e-01 -1.92134842e-01
      -5.65698147e-02 2.09318232e-02 3.29541340e-02 -2.53680740e-02
      2.54962053e-02 8.99225622e-02 1.18328899e-01 -5.66990040e-02
      -9.54729766e-02 1.54265435e-02 5.02006002e-02 5.51531240e-02
      -4.54614274e-02 -4.62926514e-02 -1.01974338e-01 -1.97707694e-02
      -5.53588942e-02 -3.45831737e-02 0. -1.73251137e-01 -2.99623031e-02
      5.99749275e-02 1.83721915e-01 7.48354718e-02 -1.97193446e-03
      -9.33525339e-02 1.43692985e-01 -1.01928093e-01 -1.03316389e-01
      5.56183048e-02 -1.47846624e-01 -5.10807335e-02 6.37689829e-02
      3.29009164e-03 7.55360797e-02 8.79377499e-02 -1.03179187e-01
      -4.96241152e-02 7.13840500e-02 -3.93243581e-02 7.37905800e-02
      2.09891796e-01 3.54873389e-02 -1.97787527e-02 1.11838683e-01
      -1.15471750e-01 -5.25551327e-02 9.49546471e-02 -7.70152584e-02
      7.50438124e-03 0. -1.35990933e-01 -5.60582131e-02 3.23950909e-02
      8.23047459e-02 6.34188056e-02 9.16537121e-02 -3.64083536e-02
      1.14068851e-01 -5.74454255e-02 -5.39420061e-02 1.08620133e-02
      4.74536093e-03 7.74771124e-02 -2.27704093e-01 1.05756894e-02
      1.28141284e-01 7.93954134e-02 -8.42926577e-02 -1.39296457e-01
      -4.98631895e-02 3.23833972e-02 1.42441556e-01 -1.49673373e-01
      4.30730451e-03 5.96948601e-02 3.39471130e-03 -9.96829644e-02
      9.33276638e-02 2.35675156e-01 -2.18843386e-01 -8.97966623e-02 0.
      -2.68845703e-03 -1.67679399e-01 -9.17252004e-02 4.71212417e-02
      2.66471833e-01 3.30646634e-02 -3.06593310e-02 -1.88105777e-02
      1.27026970e-02 -1.52592197e-01 1.32105932e-01 1.37432069e-01
      -1.15701109e-01 -1.91491738e-01 -3.68908755e-02 -1.03862267e-02
      -7.48921931e-03 2.12517545e-01 8.22232664e-02 7.03113386e-03
      7.35850409e-02 -4.34842743e-02 6.94297925e-02 8.48516896e-02
      -6.58066347e-02 -7.48608448e-03 1.84795007e-01 -1.06080852e-01
      -1.48197889e-01 8.32046643e-02 1.78287208e-01 0. -2.17953607e-01
      -1.87024903e-02 -3.43123227e-02 -1.28531270e-02 2.00593956e-02
      1.63768068e-01 -3.81790139e-02 -1.12509215e-02 3.00276317e-02
      -1.67112425e-01 8.32050815e-02 -7.75387734e-02 -2.78037675e-02
      -9.66339409e-02 -2.01358218e-02 -8.93081129e-02 -1.48799703e-01
      -1.27794668e-01 -1.82971917e-02 5.33056855e-02 -6.40623048e-02
      5.23030583e-04 -2.85099335e-02 1.44352809e-01 -1.12224296e-01
      -9.99846607e-02 -1.19635090e-01 -1.52118355e-01 -6.33678362e-02
      -7.75570199e-02 -7.99843296e-02 0. 4.54564532e-03 1.01571232e-02
      -2.76819337e-02 -1.25354260e-01 -1.21904567e-01 -3.98875140e-02
      -1.90993756e-01 -2.62522348e-03 1.11102186e-01 1.54001350e-02
      1.57558396e-01 7.26071075e-02 -3.79242636e-02 -7.75619596e-02
      -1.56133696e-01 -6.39768913e-02 -5.96240014e-02 1.85071137e-02
      2.90553659e-01 1.68765977e-01 2.18679532e-02 -9.18253362e-02
      -3.07270214e-02 -4.51761149e-02 -2.04687953e-01 -3.54917273e-02
      6.91066086e-02 -2.04889089e-01 -1.64388260e-03 -6.57230094e-02
      3.00552007e-02 0. 1.08905770e-01 6.06488176e-02 -1.38303652e-01
      -5.99332638e-02 1.67032126e-02 -1.24480247e-01 -2.46842224e-02
      -2.02562306e-02 4.26814519e-02 -2.69974247e-02 7.41695147e-03
      -9.62893143e-02 -1.86937656e-02 -2.39643306e-02 -1.39856571e-02
      -2.81736124e-02 1.60593297e-02 -3.66456695e-02 2.65155882e-01
      5.50281964e-02 -1.03390008e-01 -1.06413625e-01 -3.23396921e-02
      -1.69765815e-01 -4.92597222e-02 -6.64911047e-03 -4.18616133e-03
      -1.78710908e-01 1.77123211e-03 -1.16195366e-01 1.23434864e-01 0.
      -2.75238585e-02 -5.07807918e-02 -1.37295038e-01 -6.91162841e-03
      -8.99206325e-02 -1.08016022e-01 -4.00338098e-02 -5.65521605e-02
      -2.92860990e-04 -7.50449002e-02 9.50894579e-02 -9.68063623e-02
      -1.05367579e-01 -1.09411799e-03 -1.07015394e-01 3.87380309e-02
      5.39395362e-02 4.41608205e-02 1.02778792e-01 -5.04749380e-02
      -1.18901774e-01 -9.13934335e-02 -9.54522863e-02 -8.48216861e-02
      -1.33666188e-01 1.81293599e-02 1.02715164e-01 -1.69574022e-01
      1.90943887e-04 -1.55921429e-01 9.12365224e-03 0. -1.76598892e-01
      1.11698359e-01 1.20639950e-01 5.28990254e-02 -1.30921319e-01
      -7.22906590e-02 -3.70992124e-02 4.06963490e-02 9.67587829e-02
      -8.89997184e-02 -2.37054490e-02 -9.55925509e-02 -1.64969161e-01
      -1.58933550e-01 -8.37172270e-02 1.71278995e-02 6.82894439e-02
      1.27779365e-01 1.69628739e-01 1.49262622e-02 4.39475738e-02
      -1.23477519e-01 -1.97358117e-01 -7.73981959e-02 -8.37791488e-02
      1.07366994e-01 2.00944886e-01 -4.84012961e-02 -1.47540844e-03
      -1.31857306e-01 -5.38285309e-03 0. -1.07286274e-02 -2.38872673e-02
      1.34539604e-01 6.04965398e-03 -1.49266496e-01 1.54569015e-01
      -3.34538706e-02 2.02958155e-02 2.75585074e-02 -1.95164308e-01
      -6.75796270e-02 -1.81728452e-01 -1.82020403e-02 -1.48509532e-01
      -4.25176993e-02 -3.55475247e-02 -5.19661047e-02 4.20746729e-02
      5.34826517e-02 -4.55558375e-02 2.71416344e-02 4.31063585e-03
      -1.06424324e-01 8.95104036e-02 -7.21727163e-02 -9.69352014e-03
      -1.10998489e-02 -7.08778799e-02 -3.65372039e-02 -1.07760057e-01
      -5.51559627e-02 0. -2.83691287e-02 -8.14912375e-03 3.19325253e-02
      1.66955143e-02 7.11251497e-02 1.23431534e-01 -9.10652131e-02
      7.97553435e-02 -1.41187478e-02 5.57518154e-02 3.18180844e-02
      -4.25654463e-02 -6.20583072e-02 9.53277777e-05 1.21455677e-01
      -5.33467755e-02 -1.94615602e-01 -9.63622555e-02 8.99540484e-02
      -6.03110380e-02 -5.47819957e-02 1.38260815e-02 7.00430200e-02
      1.25307754e-01 -1.32482901e-01 -1.40002877e-01 -1.12370491e-01
      1.33017421e-01 1.82751983e-01 -1.66631445e-01 -1.76757067e-01 0.
      8.11716728e-03 -2.70273313e-02 7.42837265e-02 -6.87311292e-02
      9.36356187e-02 1.02052234e-01 -3.37190926e-02 5.30832224e-02
      4.61550876e-02 -1.63084511e-02 6.42564073e-02 -2.60629784e-02
      8.71186331e-02 -1.32487481e-02 6.10202774e-02 -1.03539534e-01
      1.77427325e-02 -1.16341867e-01 6.10954575e-02 -1.38193462e-03
      3.54010761e-02 -3.90475057e-02 5.12877107e-02 1.66458488e-01
      -1.27423644e-01 5.25576212e-02 -5.22755012e-02 -1.57582507e-01
      -7.67121688e-02 1.64031908e-01 1.65714666e-01 0. -1.76443204e-01
      -1.93579271e-02 1.49356171e-01 -1.15614220e-01 -1.38032166e-02
      5.89037612e-02 -4.97104004e-02 1.37678487e-02 8.38817880e-02
      3.27221565e-02 -4.70448397e-02 -5.99885806e-02 1.04278520e-01
      -1.11196309e-01 3.52006871e-03 -4.89972867e-02 -1.47195846e-01
      -1.20231539e-01 1.49088785e-01 -1.11571047e-03 8.26501027e-02
      -5.88646494e-02 8.37022141e-02 7.28835538e-02 -8.49559978e-02
      -4.71046306e-02 8.40477552e-03 -1.68676272e-01 -2.99136601e-02
      -5.29917590e-02 3.32513228e-02 0. -6.63501769e-02 -1.26673773e-01
      9.85825285e-02 -1.34541690e-01 -1.41485229e-01 -8.72255489e-02
      -7.92949796e-02 3.47117893e-02 6.81137443e-02 2.42000110e-02
      1.50715709e-01 5.38477786e-02 1.42126769e-01 -3.40718254e-02
      -3.03332340e-02 -1.46617025e-01 -1.99157715e-01 4.64723445e-02
      2.21495509e-01 -1.49244675e-02 1.68560028e-01 -1.96291823e-02
      -1.37767121e-02 2.14612018e-02 -2.31470332e-01 -7.35883191e-02
      8.11918303e-02 -1.70856297e-01 -6.61135390e-02 -5.04511781e-02
      8.61423761e-02 0. 6.64634928e-02 1.00830905e-01 6.21578135e-02
      1.02874443e-01 -1.59928296e-02 -5.73958643e-02 -1.78974476e-02
      -7.26098493e-02 1.52723238e-01 1.11220531e-01 -8.23817849e-02
      9.03185308e-02 -9.20926780e-03 2.32124832e-02 -9.41781178e-02
      -6.13032468e-02 3.36159952e-02 -3.40452939e-02 2.71871328e-01
      6.95711300e-02 9.18223634e-02 -6.18636096e-03 2.95811910e-02
      -7.11406469e-02 -1.25960156e-01 4.03216965e-02 9.74029750e-02
      -3.40291336e-02 6.47366419e-02 -2.53838059e-02 1.35343805e-01 0.
      -7.08117485e-02 5.75169511e-02 5.36123104e-02 -4.91698645e-02
      -5.18616438e-02 -6.97838962e-02 -5.30177839e-02 7.82565773e-03
      -3.68190259e-02 1.67981219e-02 -6.10171072e-02 -5.38320094e-03
      -4.42697033e-02 -2.20402405e-02 -4.26187664e-02 -1.26318354e-02
      1.00910235e-02 -6.45627305e-02 8.31763148e-02 4.06838432e-02
      6.06699325e-02 -1.06686018e-01 -7.17935115e-02 -1.01819746e-01
      -1.24577776e-01 1.37001202e-01 -1.19717829e-01 -8.30174610e-02
      -1.13120060e-02 -1.13259971e-01 1.04863208e-03 0. -3.78444381e-02
      1.18701130e-01 -1.54617727e-02 -5.60004450e-03 -4.38097902e-02
      1.24689743e-01 -1.87698863e-02 -3.10452618e-02 4.38149869e-02
      -9.22157541e-02 -1.38147503e-01 2.94357575e-02 -9.92047563e-02
      -1.37912214e-01 -7.02295452e-02 3.48441601e-02 1.49264440e-01
      3.94272543e-02 1.27149507e-01 -2.26887148e-02 7.97494408e-03
      -8.02502260e-02 5.40444441e-03 9.52972770e-02 -4.56675189e-03
      8.02583322e-02 5.82987182e-02 6.50972798e-02 -4.82958881e-03
      -8.92576128e-02 -4.17500362e-02 0. 2.25774813e-02 3.55424657e-02
      1.47669828e-02 -7.58822337e-02 1.48182001e-03 -2.40690839e-02
      -2.27074936e-01 2.38598641e-02 1.03052430e-01 -1.15622669e-01
      2.81312056e-02 2.09850539e-02 -1.18053434e-02 -6.57500997e-02
      -1.30990073e-01 4.66885902e-02 1.47357751e-02 7.95258582e-02
      4.73961188e-03 4.85922210e-02 -5.65558672e-03 -6.57840371e-02
      -4.75593284e-02 6.36704192e-02 -1.89276710e-01 6.25614673e-02
      5.96953258e-02 -5.18720672e-02 7.42472382e-03 -2.65195593e-02
      -5.15249558e-02 0. 8.79511163e-02 5.51142879e-02 5.50122596e-02
      5.62076792e-02 -8.15495178e-02 1.49708554e-01 3.11164800e-02
      9.95946005e-02 6.89558983e-02 -6.36407435e-02 -5.54957353e-02
      -5.82339205e-02 -6.54417351e-02 4.85864952e-02 1.51573876e-02
      8.82845223e-02 -1.01307333e-01 -4.63918112e-02 6.80042803e-02
      4.56419177e-02 -2.09859293e-02 -1.68769937e-02 -2.78976317e-02
      1.72290772e-01 6.01155460e-02 1.13650328e-02 -9.41531137e-02
      1.47760332e-01 2.39626035e-01 -1.71726331e-01 -8.19575712e-02 0.
      1.02677390e-01 9.27368477e-02 8.79376009e-02 -9.24071595e-02
      1.57670192e-02 1.91554889e-01 1.55150607e-01 2.05553234e-01
      2.26405859e-01 -6.40113428e-02 -7.47444779e-02 1.16395112e-02
      1.83386266e-01 -8.72002635e-03 4.55721468e-03 1.46880131e-02
      -1.45269129e-02 -9.57508087e-02 -3.69332917e-02 -2.24570185e-02
      7.56693482e-02 -6.21075034e-02 4.93219718e-02 2.38285005e-01
      9.16892067e-02 1.54421449e-01 9.34811234e-02 -6.10090159e-02
      -1.01904452e-01 4.18324322e-01 1.88597843e-01 0. -1.85906753e-01
      -5.23076355e-02 -8.53550248e-03 -3.79752703e-02 -8.63667578e-02
      1.51283428e-01 8.75327140e-02 7.28345811e-02 -2.89229788e-02
      -1.22517021e-02 -3.06083169e-02 2.02278290e-02 2.07076252e-01
      3.01559828e-02 -3.91070843e-02 -2.42390968e-02 -1.65385619e-01
      -7.79894516e-02 -3.75886867e-03 -6.16720505e-02 -1.83198806e-02
      5.95776364e-02 -2.00318247e-02 1.27678052e-01 -3.53835698e-04
      -5.81524856e-02 -9.35681537e-02 -9.99430940e-02 -9.98768136e-02
      6.27809092e-02 5.19581735e-02 0. -8.82849544e-02 6.95310086e-02
      1.83882508e-02 2.96006370e-02 2.55430583e-02 8.95534977e-02
      1.25646308e-01 6.99864104e-02 -5.12689389e-02 -9.04807262e-03
      -3.21005136e-02 8.25489908e-02 1.89250082e-01 -3.77733409e-02
      -5.01958244e-02 -1.79054618e-01 -4.39551473e-02 -1.15187451e-01
      5.68864271e-02 1.31051004e-01 2.04156965e-01 1.31027237e-01
      1.35062516e-01 1.63085893e-01 -4.96808067e-02 2.16855686e-02
      -1.15215763e-01 -5.72615787e-02 -6.83528036e-02 6.98824525e-02
      9.96566936e-02 0. 5.68020716e-02 -9.15248543e-02 6.91494485e-03
      2.79628066e-03 -4.91707698e-02 3.27419722e-03 1.58227339e-01
      1.41242296e-01 1.09639175e-01 6.57387972e-02 1.25679806e-01
      1.50692761e-01 1.08998470e-01 8.16190895e-03 7.96688497e-02
      7.13563710e-02 -7.69882202e-02 -1.06320880e-01 7.03242719e-02
      9.21125636e-02 1.39342681e-01 9.44697782e-02 -2.02851482e-02
      1.95053875e-01 2.07138523e-01 2.31830236e-02 -2.90579570e-04
      6.85234517e-02 1.28548175e-01 6.55501783e-02 9.80880633e-02 0.
      -2.45139264e-02 -6.42842427e-02 1.37967989e-01 4.61914092e-02
      1.40529394e-01 1.33836523e-01 1.53558984e-01 2.39676595e-01
      -1.24166213e-01 2.80017611e-02 -6.13678060e-02 3.46288085e-02
      8.36590007e-02 -2.54091937e-02 1.38959121e-02 -2.46998072e-02
      5.77789508e-02 2.20132526e-02 1.27464548e-01 -5.63109070e-02
      1.04824901e-01 1.36469871e-01 1.13403700e-01 2.13880688e-01
      1.09422430e-01 1.72956303e-01 -9.55462009e-02 9.38555598e-02
      1.25373289e-01 3.79948020e-02 1.04480326e-01 0. 3.24901901e-02
      4.19955626e-02 6.57920726e-03 -2.42849179e-02 6.85218126e-02
      3.89270671e-02 -1.70681641e-01 2.06995830e-02 -1.21318817e-01
      -1.48102924e-01 7.14657921e-03 -2.84585431e-02 1.78050734e-02
      -1.14610475e-02 4.85364273e-02 1.07659951e-01 1.27826586e-01
      1.23962276e-01 3.81469876e-02 1.09650195e-02 3.46319340e-02
      -3.63531560e-02 1.95251882e-01 1.99253276e-01 -5.10611311e-02
      1.22527376e-01 2.61040088e-02 1.54611066e-01 5.63686006e-02
      -7.28472471e-02 -7.31534958e-02 0. 1.21260375e-01 6.28898367e-02
      8.41985792e-02 1.43303573e-02 2.21143469e-01 1.51581992e-03
      -1.21080235e-01 -1.83069646e-01 -1.46596417e-01 -1.74730107e-01
      1.20784588e-01 -9.12493020e-02 -1.03305355e-01 5.15741892e-02
      -6.35457486e-02 1.78327546e-01 1.13698300e-02 5.51939420e-02
      5.36079928e-02 2.09948421e-02 -4.82449643e-02 1.18829599e-02
      3.10237408e-01 1.48557797e-01 4.64624241e-02 -1.26658112e-01
      -5.57184741e-02 8.25751722e-02 -6.74337670e-02 4.69566844e-02
      -4.37079780e-02 0. 2.40946084e-01 1.19858146e-01 7.77042061e-02
      2.26996019e-01 1.39956757e-01 -8.15779995e-03 1.19904671e-02
      1.10346377e-01 -3.44725922e-02 -1.11858219e-01 -9.51780081e-02
      -9.18979570e-02 -7.60676861e-02 -2.65575554e-02 1.33832738e-01
      6.79350719e-02 -4.30282690e-02 7.05860481e-02 -2.43972447e-02
      -3.07729132e-02 -1.00131795e-01 8.72414336e-02 1.37787331e-02
      1.37629762e-01 -3.23256142e-02 -6.93397969e-02 -1.59899712e-01
      3.36290985e-01 1.46503940e-01 4.98093490e-04 -1.47216022e-01 0.</_></support_vectors>
  <decision_functions>
    <_>
      <sv_count>1</sv_count>
      <rho>2.9455619319041966e+00</rho>
      <alpha>
        1.</alpha>
      <index>
        0</index></_></decision_functions></my_svm>
</opencv_storage>
