<?xml version="1.0"?>
<opencv_storage>
<my_svm type_id="opencv-ml-svm">
  <svm_type>C_SVC</svm_type>
  <kernel><type>LINEAR</type></kernel>
  <C>1.0000000000000001e-01</C>
  <term_criteria><epsilon>2.2204460492503131e-16</epsilon>
    <iterations>100000</iterations></term_criteria>
  <var_all>4096</var_all>
  <var_count>4096</var_count>
  <class_count>2</class_count>
  <class_labels type_id="opencv-matrix">
    <rows>1</rows>
    <cols>2</cols>
    <dt>i</dt>
    <data>
      -1 1</data></class_labels>
  <sv_total>1</sv_total>
  <support_vectors>
    <_>
      5.77324480e-02 -3.12794596e-02 3.73685472e-02 5.67376800e-02
      1.22114666e-01 -4.05936390e-02 -1.62994489e-02 -1.51979119e-01
      -5.17394356e-02 3.49799730e-02 2.88723856e-02 8.38786829e-03
      -5.72421886e-02 -4.93563563e-02 8.72720554e-02 -3.99229303e-02
      -5.71150966e-02 -4.91638593e-02 -2.52999160e-02 1.21879587e-02
      -3.41231265e-04 4.62804101e-02 2.58559566e-02 4.42899317e-02
      -8.98974203e-03 -1.06812201e-01 -5.61512969e-02 -4.60642353e-02
      -3.08864061e-02 3.55624979e-05 2.44831759e-02 0. 4.53151278e-02
      1.52840139e-02 -1.11696199e-02 -8.38120580e-02 -1.94935463e-02
      4.35195379e-02 -2.95656081e-02 -5.13003916e-02 -1.18087167e-02
      3.58950831e-02 -7.46681122e-03 5.79635203e-02 -2.90432088e-02
      3.72075923e-02 1.40625998e-01 1.53251272e-02 -4.84998636e-02
      -6.67735115e-02 2.93825958e-02 4.05020937e-02 -5.92898170e-04
      -5.38478047e-02 -1.70884673e-02 1.31617516e-01 -1.79986600e-02
      -6.75626248e-02 -2.49740425e-02 -3.31494883e-02 3.00867134e-03
      6.45886455e-03 3.88622917e-02 0. -1.00406721e-01 -3.74226123e-02
      -1.59457866e-02 -8.07136949e-03 1.75157655e-02 -7.03343898e-02
      -4.26733159e-02 5.02476171e-02 -7.13342847e-03 7.43283778e-02
      -2.02785041e-02 1.03835978e-01 5.46544939e-02 8.25653300e-02
      7.61597976e-02 -2.05369405e-02 -5.54236248e-02 -4.58080545e-02
      2.52441652e-02 2.95689590e-02 5.89938797e-02 8.27648118e-02
      1.13103062e-01 9.87077970e-03 -5.97527958e-02 -3.97274010e-02
      -4.56698090e-02 -8.02029390e-03 -1.13013601e-02 7.34291086e-03
      2.86062416e-02 0. -5.34002930e-02 2.35157013e-02 1.33252129e-01
      6.66652769e-02 -5.72380535e-02 -4.67405617e-02 -3.03345751e-02
      3.75216566e-02 -3.15838978e-02 5.52865900e-02 -2.26550903e-02
      1.46298081e-01 9.39607993e-02 6.12898022e-02 3.64706218e-02
      -9.12605971e-02 -1.46572636e-02 -3.38060409e-02 1.72621179e-02
      6.94347024e-02 2.47927591e-01 1.87747926e-01 5.96845895e-02
      4.83927317e-02 -1.18041217e-01 1.66885331e-02 -4.87705730e-02
      4.93554957e-02 2.45956946e-02 1.90381799e-02 3.55068408e-02 0.
      6.27993271e-02 4.18402143e-02 4.14975472e-02 1.69934835e-02
      -7.27052838e-02 3.74819562e-02 -2.88332608e-02 5.97821735e-02
      8.47671181e-02 2.24201269e-02 -8.21281448e-02 -2.31729704e-03
      -4.77503613e-02 7.07962662e-02 1.13596603e-01 7.23481849e-02
      6.31117299e-02 -4.39519323e-02 4.92648333e-02 -1.88978445e-02
      1.95987318e-02 -3.30697894e-02 7.21707493e-02 1.37695998e-01
      6.67576194e-02 6.62968084e-02 3.86218429e-02 7.61777386e-02
      1.69650018e-01 -1.66165587e-02 -3.60557772e-02 0. -8.88566021e-03
      -4.31836843e-02 -5.27374893e-02 -2.61523798e-02 -1.01067849e-01
      6.51746169e-02 -1.32257203e-02 4.91485484e-02 -4.57585929e-03
      8.35096911e-02 3.68255228e-02 6.53565377e-02 1.48779829e-03
      -3.61002833e-02 5.32432683e-02 5.77962138e-02 -4.86457311e-02
      1.00989370e-02 7.43790902e-03 2.20319107e-02 4.34486941e-02
      -1.15534961e-02 2.12217551e-02 1.02053568e-01 1.37411905e-02
      2.38233134e-02 7.25767538e-02 7.27444962e-02 1.23771347e-01
      -1.07050158e-01 -4.79511507e-02 0. 9.70312022e-03 -9.71025005e-02
      -7.37951696e-02 -8.02608132e-02 -6.70115873e-02 8.57649278e-03
      -4.75517474e-02 7.25680217e-02 -1.10485228e-02 -4.34609205e-02
      9.01866332e-03 -5.71703017e-02 -1.79246592e-03 1.87784396e-02
      9.89432186e-02 2.27941200e-02 -1.12474104e-02 -6.54091090e-02
      1.97127089e-02 -3.66921052e-02 -7.56591111e-02 -4.54301164e-02
      -1.03514688e-02 9.76071283e-02 -2.94310469e-02 -2.65843421e-03
      -3.72161791e-02 -4.34870236e-02 -5.19069582e-02 -6.42503574e-02
      1.09324902e-02 0. 2.15873979e-02 -2.76437122e-02 -6.02279305e-02
      -4.46783453e-02 5.90568734e-03 1.76583350e-01 4.18599658e-02
      4.16350784e-03 5.46506792e-02 1.57610074e-01 1.00258894e-01
      3.93168367e-02 -3.36792730e-02 1.78101298e-03 1.43745080e-01
      -9.86227114e-03 -6.44725263e-02 -6.86678514e-02 9.61908773e-02
      7.03528821e-02 -4.48784558e-03 -2.99346335e-02 -5.53772710e-02
      2.21196711e-01 -2.52514388e-02 -8.73489380e-02 1.89558184e-03
      8.70868787e-02 1.27069160e-01 -5.61969960e-03 -1.95445726e-03 0.
      4.01739217e-03 -5.97102717e-02 -2.01485846e-02 5.31548150e-02
      -1.69989951e-02 8.42004046e-02 -7.20905438e-02 -2.69665029e-02
      -1.23057608e-02 -2.62363181e-02 -1.74781457e-02 -2.48006675e-02
      4.58175614e-02 7.26216063e-02 -7.98334554e-03 7.70754740e-02
      2.49273032e-02 6.19004555e-02 -3.48828845e-02 -4.76835705e-02
      -3.43619771e-02 1.27527431e-01 2.99237035e-02 6.09099306e-02
      2.89274622e-02 6.55452982e-02 4.05875556e-02 -3.76214576e-03
      -5.12618432e-03 5.58811054e-02 1.85298957e-02 0. 1.04452528e-01
      1.37427114e-02 -2.14633346e-02 -2.92170253e-02 1.17947087e-02
      1.93146560e-02 3.15690972e-02 6.95048869e-02 5.30694313e-02
      6.48750961e-02 -4.14399616e-02 4.94661480e-02 -2.63467226e-02
      -5.48511110e-02 -1.55875357e-02 5.56333847e-02 -2.36370079e-02
      -2.76710633e-02 1.45016134e-01 1.26856258e-02 2.09048763e-02
      1.16583880e-03 -2.11613923e-02 5.31467125e-02 6.65212944e-02
      4.34745140e-02 7.38195106e-02 1.85164362e-02 -1.01473155e-02
      6.77989870e-02 3.37665454e-02 0. -8.96029174e-03 -1.92603504e-03
      4.69987988e-02 1.77168455e-02 3.00142542e-02 -5.07408716e-02
      2.59327926e-02 1.13748521e-01 3.97753865e-02 -2.26765033e-03
      -4.72675674e-02 9.12344456e-02 -2.06870697e-02 -5.79793304e-02
      -4.11876664e-02 -3.53214294e-02 -7.50081986e-02 4.17032465e-02
      2.60226037e-02 -1.87829845e-02 1.05156250e-01 6.30453229e-02
      -2.37951074e-02 -4.48908210e-02 2.07747798e-02 3.30076516e-02
      4.25545312e-02 4.63077687e-02 -1.94285717e-02 1.36104263e-02
      -9.48182307e-03 0. -9.98423100e-02 7.57604986e-02 1.04912385e-01
      6.46893084e-02 4.36753705e-02 6.58309981e-02 9.16478336e-02
      1.19359449e-01 5.78614213e-02 -4.35364246e-02 -9.89217535e-02
      5.48939742e-02 6.12191558e-02 -7.14171976e-02 -2.24627592e-02
      1.81831047e-02 -2.98723709e-02 -6.03695773e-02 3.68186506e-03
      3.29059213e-02 1.08101502e-01 1.45169437e-01 2.40353104e-02
      6.97230101e-02 1.20182209e-01 8.17044526e-02 2.37461869e-02
      9.67322811e-02 -3.16558010e-03 5.21753766e-02 1.05793718e-02 0.
      5.10971211e-02 3.25822160e-02 9.43859518e-02 -4.40194905e-02
      -1.45530820e-01 6.54162914e-02 9.00967568e-02 1.68852180e-01
      -1.68811064e-03 -2.06434969e-02 2.75220275e-02 5.97034320e-02
      -5.66629414e-03 -5.97088672e-02 -2.84221414e-02 -6.51338175e-02
      -3.99881080e-02 -1.01256162e-01 9.06172395e-02 2.80846898e-02
      1.07539847e-01 -1.17743723e-02 -6.43797219e-02 6.00198992e-02
      6.45092726e-02 1.06242321e-01 -5.25620282e-02 5.89479990e-02
      6.57591224e-03 1.74559914e-02 -4.63998951e-02 0. 1.28204390e-01
      7.48128295e-02 8.00946429e-02 -1.56756416e-02 -3.05106137e-02
      1.42806649e-01 9.83104557e-02 1.13645419e-01 -9.64461640e-02
      2.75626294e-02 5.10549396e-02 3.84696350e-02 -9.89769399e-03
      -1.15758330e-02 -4.16743681e-02 -3.82477902e-02 -9.60095897e-02
      -1.88820139e-02 9.56357718e-02 1.15695156e-01 1.22829355e-01
      2.36173496e-02 1.93297565e-02 5.56374975e-02 8.67444277e-02
      6.33665770e-02 -2.85465233e-02 1.06999248e-01 1.36199698e-01
      -3.36055970e-03 -5.31442501e-02 0. 5.51311411e-02 -1.93278603e-02
      -1.66514516e-02 -4.71615866e-02 -3.69071960e-02 6.56449869e-02
      -7.81282037e-03 5.54717630e-02 3.22053507e-02 6.94649369e-02
      8.77311900e-02 1.82875562e-02 4.40978399e-03 -2.46339794e-02
      3.09903007e-02 -5.60143441e-02 -9.52133536e-02 -8.38456377e-02
      4.62430008e-02 4.21299711e-02 1.05380090e-02 4.43331571e-03
      -1.47610065e-02 9.29478705e-02 -6.95483536e-02 -5.41849881e-02
      -1.16181541e-02 1.17583191e-02 1.18705267e-02 -1.78397819e-02
      9.18675680e-03 0. 5.39646558e-02 1.41198114e-02 1.66469219e-03
      -4.60796542e-02 -3.02636018e-03 6.16981462e-02 -4.09095781e-03
      8.15442055e-02 5.59042431e-02 3.05098370e-02 4.96201403e-02
      4.29570787e-02 -2.13787053e-02 5.28680999e-03 3.85542288e-02
      1.73884109e-02 -9.23505351e-02 -1.13549514e-03 2.80592851e-02
      6.58730716e-02 7.56215677e-02 -8.62872414e-03 -5.40172160e-02
      7.93043524e-02 -7.91765377e-03 -3.46951969e-02 2.61859894e-02
      9.35313627e-02 8.33756700e-02 -2.82675698e-02 -1.42195271e-02 0.
      3.17325704e-02 -9.71458778e-02 8.49327911e-03 -4.60149907e-02
      -1.18762832e-02 -3.71668226e-04 -6.72554076e-02 2.25953087e-02
      4.73591909e-02 -8.11340511e-02 -5.05732633e-02 2.44677048e-02
      2.10328568e-02 -2.76839156e-02 -3.14037763e-02 -6.51018620e-02
      -4.78149727e-02 -3.41029614e-02 -6.41514584e-02 -7.22575188e-02
      3.83898057e-02 2.07786504e-02 -1.10628456e-02 2.24977434e-02
      -9.66076776e-02 4.03769501e-02 2.09324788e-02 -5.67755029e-02
      -9.72688198e-02 -7.44315214e-04 -3.60332020e-02 0. 5.79786748e-02
      6.41117990e-02 9.32301953e-02 -1.71463899e-02 2.42186952e-02
      -2.19523106e-02 -2.08180081e-02 -3.98344398e-02 -1.07075937e-01
      -1.66156814e-01 -8.43543210e-04 6.62764683e-02 1.36239111e-01
      -3.56414355e-02 -5.25541864e-02 -2.60777902e-02 -4.37853001e-02
      -3.01463623e-02 -2.94706207e-02 3.40596028e-02 1.12222724e-01
      1.42458409e-01 3.78241464e-02 -9.15502384e-03 -3.42790149e-02
      -9.58800837e-02 -1.14282325e-01 -2.11990271e-02 -3.38054150e-02
      1.63503624e-02 -1.79033726e-02 0. -7.81583413e-02 -3.37319784e-02
      1.74381807e-01 7.47578666e-02 -2.13223509e-02 4.81665041e-03
      9.56916586e-02 2.90082097e-02 2.84449458e-02 -2.53822301e-02
      -8.27789214e-03 2.11667955e-01 4.15781513e-02 -1.58850364e-02
      8.02984927e-03 -8.01448524e-02 -2.64857505e-02 -7.61885047e-02
      -3.31140794e-02 4.90465872e-02 2.46204287e-01 1.81754336e-01
      -6.21677423e-03 8.04612488e-02 6.22964744e-03 1.96273788e-03
      -3.09942421e-02 6.85428604e-02 1.23605598e-02 4.90027256e-02
      1.28338188e-02 0. -1.27369329e-01 -2.01950651e-02 1.35109693e-01
      5.34695871e-02 -3.60195041e-02 -2.79153406e-04 1.25977639e-02
      1.18618660e-01 2.43483810e-03 -1.03190698e-01 -3.97980586e-02
      1.26651555e-01 1.05018012e-01 2.91908924e-02 2.54923645e-02
      2.95611285e-02 -2.91909222e-02 -8.00099596e-02 -1.32001206e-01
      -1.60825960e-02 2.01918542e-01 1.91659197e-01 4.04429957e-02
      9.28550512e-02 7.06730783e-02 9.74259898e-02 -5.10297939e-02
      1.04862303e-01 -1.18394187e-02 2.41749361e-02 -2.19317283e-02 0.
      -4.83616963e-02 -4.59153019e-02 1.21252246e-01 6.58115521e-02
      4.64357957e-02 7.64350519e-02 8.47770739e-03 1.43302754e-01
      -3.38136777e-02 -7.77324364e-02 9.72759351e-03 6.20742626e-02
      3.63484249e-02 -5.99794462e-02 5.66595532e-02 1.29681882e-02
      1.43371046e-01 1.09369233e-02 -1.29951119e-01 -1.68606061e-02
      1.41726285e-01 1.08155459e-01 5.35891093e-02 7.09401891e-02
      8.18535984e-02 2.14535773e-01 -1.91484634e-02 1.16698422e-01
      3.71799022e-02 8.69722143e-02 8.04794207e-03 0. -1.31534517e-01
      -2.50424966e-02 7.14703426e-02 -7.54023045e-02 -5.81831150e-02
      -3.27236624e-03 3.24602984e-02 1.29793718e-01 1.60993207e-02
      -3.61963697e-02 8.58030468e-03 -3.13155875e-02 -2.99158096e-02
      -1.21858725e-02 3.37192528e-02 7.11151585e-02 1.29922569e-01
      1.60174277e-02 -1.52980417e-01 -1.13785909e-02 8.57697520e-03
      -6.41795322e-02 -2.25176066e-02 3.74785028e-02 1.02076292e-01
      2.20428959e-01 3.65291350e-02 7.82720819e-02 2.24487782e-02
      2.52786484e-02 -7.59698525e-02 0. -7.32984990e-02 -8.26908052e-02
      -2.42895670e-02 -9.36078280e-02 2.13384237e-02 5.63347340e-02
      2.17289962e-02 9.50230956e-02 -1.78385861e-02 -2.59259678e-02
      4.62187231e-02 -4.58539464e-02 -2.78060399e-02 4.59539006e-03
      1.91694051e-02 3.63173820e-02 -5.03512379e-03 -2.61590276e-02
      -7.01613948e-02 -4.44346815e-02 -7.02747405e-02 -7.94484019e-02
      -1.13072724e-03 4.70529757e-02 1.72103774e-02 8.68894756e-02
      -9.79337748e-03 -2.16222219e-02 -4.17765714e-02 4.34233211e-02
      -3.74312587e-02 0. -1.81022752e-02 -2.99742166e-02 1.22626713e-02
      5.11356033e-02 8.91138315e-02 1.08056426e-01 -4.75275842e-03
      -2.80468147e-02 -1.22212274e-02 6.69318512e-02 2.13250611e-02
      -1.24443378e-02 1.20843658e-02 -6.14582859e-02 7.95782655e-02
      -1.95888933e-02 -6.32389858e-02 -1.11380527e-02 -7.06314808e-03
      -1.91395972e-02 3.42839696e-02 5.56957014e-02 -2.38546226e-02
      1.49138510e-01 -3.97152007e-02 -1.18650764e-01 -2.78727282e-02
      9.04770270e-02 3.91146168e-02 -2.82829329e-02 -1.66819412e-02 0.
      8.08623955e-02 -1.35093629e-01 -1.67848740e-03 -7.87489042e-02
      -2.19164528e-02 5.97724654e-02 4.27134410e-02 -1.20774070e-02
      4.08171602e-02 -3.36043052e-02 -1.46296714e-03 6.94254134e-03
      1.16340993e-02 -4.60092984e-02 -1.38317822e-02 -2.61951070e-02
      -7.80870542e-02 3.20605561e-02 1.89305209e-02 -1.01607822e-01
      -1.94223784e-02 -1.70244612e-02 -5.66294231e-02 6.88044503e-02
      -2.26109568e-03 -9.60889757e-02 5.68448827e-02 2.16061976e-02
      -7.53369853e-02 -9.54086054e-03 -1.87060907e-02 0. -6.34518964e-03
      8.27054977e-02 7.72864893e-02 -1.22843660e-01 -9.68290120e-02
      1.18746378e-01 -1.79319996e-02 -2.21070834e-02 -1.21131614e-01
      -1.26218528e-01 4.50582094e-02 8.12960342e-02 7.96337202e-02
      -1.30538242e-02 -6.93911016e-02 -1.14741020e-01 -7.38095939e-02
      -2.16797385e-02 -1.33949360e-02 8.00419375e-02 9.97603014e-02
      -2.87017561e-02 -8.43757018e-02 -2.34516989e-02 -1.13447107e-01
      -1.16061509e-01 -1.14585303e-01 1.59916226e-02 -8.84731933e-02
      -6.57982239e-03 -7.24258348e-02 0. -5.80678172e-02 2.95626242e-02
      1.62901767e-02 -1.06350072e-01 -1.37640104e-01 -1.30178966e-02
      -4.37066108e-02 -2.20235828e-02 -6.16046265e-02 -2.50665955e-02
      2.79282760e-02 7.44577199e-02 2.05770060e-02 -9.68487933e-02
      -2.79219486e-02 -3.67751233e-02 -1.82128176e-02 4.81632501e-02
      5.92189394e-02 1.19167276e-01 6.96508586e-02 -3.39174159e-02
      -2.27800176e-01 -2.51861643e-02 -8.19389522e-02 -2.65637990e-02
      -3.94105837e-02 5.62538393e-02 -1.12195745e-01 -1.72321349e-02
      -1.29649058e-01 0. -1.09857202e-01 -8.01165476e-02 5.45229949e-02
      4.80517372e-02 -9.67236981e-02 1.90692209e-02 -1.68007091e-02
      -7.13568414e-03 -6.44968525e-02 -3.00211459e-02 -3.83896306e-02
      3.54103632e-02 -3.56139801e-02 -5.58148883e-02 6.16945773e-02
      2.35673189e-02 -9.10554454e-03 -5.90512063e-03 -7.99075067e-02
      -1.43874496e-01 3.95189635e-02 6.23973571e-02 -1.10366717e-01
      4.36077714e-02 1.31264667e-03 -1.12111019e-02 -6.96369186e-02
      5.16966619e-02 -9.39785317e-02 3.20250206e-02 -1.34776354e-01 0.
      -1.28521517e-01 -5.37664779e-02 2.66268663e-02 -3.54764494e-03
      -1.36775985e-01 -6.81955963e-02 -3.20874974e-02 -4.15994562e-02
      3.14717032e-02 -3.25296931e-02 -1.19440649e-02 2.00343262e-02
      9.32238623e-02 -8.26891288e-02 1.89229734e-02 8.40607584e-02
      5.55020384e-03 5.60139641e-02 -1.48291260e-01 -7.48809576e-02
      1.42148603e-03 5.92695847e-02 -1.22510031e-01 -3.38432193e-02
      7.24464580e-02 -4.68640849e-02 5.13089523e-02 3.31309475e-02
      -6.24562725e-02 2.21081898e-02 -1.13344543e-01 0. 3.86528741e-03
      -1.47554846e-02 -6.20695278e-02 -7.68911764e-02 -1.64902017e-01
      -2.93002762e-02 -5.62854148e-02 2.37215292e-02 4.34970409e-02
      3.45096947e-03 5.61881661e-02 -2.12780889e-02 4.95719984e-02
      -1.56922162e-01 -9.22626257e-02 2.35799365e-02 1.79662302e-01
      1.46377996e-01 3.53571936e-03 -1.70496162e-02 -8.39453563e-02
      -2.03993381e-03 -1.90754533e-01 -8.74266997e-02 4.06035967e-02
      1.52843535e-01 1.46047264e-01 1.89232193e-02 -2.71560121e-02
      3.52809019e-02 -9.52839851e-02 0. -3.90139110e-02 -9.26400349e-02
      5.91415167e-02 -1.16829202e-01 -8.32384080e-02 2.98023485e-02
      -2.80693527e-02 -5.08576557e-02 -5.24925590e-02 -9.65405032e-02
      -2.49721780e-02 -3.95360403e-02 1.04504049e-01 -5.70405498e-02
      -3.80864441e-02 -5.98187931e-02 1.37141049e-01 8.56193751e-02
      -2.90363636e-02 -1.13079198e-01 7.67392712e-03 -1.39247235e-02
      -9.65128094e-02 -3.47600840e-02 -5.91259822e-02 9.09370556e-02
      5.47262356e-02 -2.31887996e-02 -1.15981340e-01 2.14872956e-02
      -5.34010902e-02 0. -4.14672121e-02 -3.26289460e-02 7.58101866e-02
      -6.64376393e-02 -6.79189013e-03 8.86109248e-02 2.23727943e-03
      -2.79617729e-03 2.49438528e-02 3.50822546e-02 -1.01295114e-02
      6.84492141e-02 9.40994397e-02 -8.18896759e-03 -3.67564373e-02
      -3.21529731e-02 1.72825847e-02 -1.24642830e-02 -1.07360529e-02
      -6.29159436e-02 1.12670690e-01 1.97969172e-02 -1.23949451e-02
      3.73194590e-02 -9.49893892e-03 1.08001968e-02 1.97065109e-03
      1.11741051e-01 1.68630928e-02 -7.23283645e-03 -4.75021340e-02 0.
      1.25882655e-01 -7.52958842e-03 9.90096405e-02 -8.24689493e-02
      -3.60142663e-02 4.36322503e-02 -5.10595776e-02 -5.85129410e-02
      8.35383162e-02 1.19134700e-02 1.58705153e-02 4.71700951e-02
      3.49409394e-02 1.48305120e-02 2.42850184e-02 -4.22447436e-02
      -8.52797553e-03 -5.47578596e-02 1.07976511e-01 -2.21783426e-02
      7.12802261e-02 -1.78166293e-02 -2.80589033e-02 -1.22541655e-02
      -7.17566535e-02 -5.71279079e-02 1.33272232e-02 4.73629721e-02
      5.17926645e-03 2.32044253e-02 -3.42669024e-04 0. 1.81118101e-02
      5.84751107e-02 -2.96017453e-02 -1.33311629e-01 -1.08376138e-01
      4.59853448e-02 -4.38393392e-02 -3.74870072e-03 1.99408326e-02
      -3.14828828e-02 1.34301767e-01 -7.12628663e-02 -3.12759466e-02
      -4.40690704e-02 -2.42965156e-03 4.19352613e-02 -3.11310263e-03
      -1.03613241e-02 4.96511944e-02 1.26350686e-01 -1.81329567e-02
      -1.07651472e-01 -1.22193754e-01 1.77034941e-02 1.40419556e-02
      3.16564925e-03 4.82196640e-03 7.03255907e-02 -6.89339191e-02
      -2.09116023e-02 -7.19892979e-02 0. -7.45011726e-03 2.02699564e-02
      -8.24478827e-03 -1.12775601e-01 -5.58874942e-02 -6.02120236e-02
      -1.11701734e-01 -2.32768506e-02 -6.75771385e-02 -4.96490337e-02
      8.13555941e-02 -4.04266687e-03 -4.37905453e-02 -8.49442407e-02
      3.24492045e-02 -9.23228264e-03 -2.35293712e-02 1.36663869e-01
      3.26124951e-02 1.03302538e-01 2.58572400e-03 -7.90308714e-02
      -1.38315886e-01 -1.64579116e-02 -1.28110290e-01 -1.52556933e-02
      7.92916343e-02 2.29677428e-02 -6.99936524e-02 -2.30375142e-03
      -1.35258913e-01 0. -3.28528546e-02 -1.12009667e-01 -6.45195469e-02
      -8.11842307e-02 -7.32532144e-02 -2.60277744e-02 -2.45848522e-02
      8.91281962e-02 -1.31792324e-02 -4.72133011e-02 2.57429127e-02
      6.51822388e-02 -1.10418198e-03 -1.84767656e-02 -6.93082437e-03
      4.95243818e-02 1.67876128e-02 3.24911810e-02 -6.23999052e-02
      -6.50086105e-02 -3.63408588e-02 -7.54775703e-02 -8.55367258e-02
      -3.45866084e-02 -2.89091542e-02 7.20941573e-02 2.13520285e-02
      2.21198685e-02 -4.87245806e-02 1.35111168e-03 -7.96234459e-02 0.
      -5.06827123e-02 -7.17297802e-03 2.17425022e-02 -1.87143907e-02
      -6.14427328e-02 -1.42835239e-02 -6.10213215e-03 -6.14217389e-03
      -2.40374152e-02 -2.14394871e-02 9.16862562e-02 9.50902235e-03
      3.07478663e-02 -3.12661449e-03 9.84088033e-02 -4.55375528e-03
      -2.61846483e-02 -2.59220637e-02 -9.43723693e-02 1.71631481e-02
      -3.35040945e-03 -3.37081626e-02 -1.20518822e-02 3.63142528e-02
      -2.79198904e-02 -2.77003925e-02 -4.34780493e-02 4.15544473e-02
      -2.43210644e-02 3.19729187e-02 -5.75548895e-02 0. 7.89247639e-03
      3.90678421e-02 5.68150403e-03 -1.14276037e-02 -4.13786955e-02
      -8.21670331e-03 -4.14094073e-04 3.06059308e-02 3.54220234e-02
      7.71733373e-03 4.94392142e-02 4.03637998e-03 4.10705805e-02
      -8.81776735e-02 7.84385577e-03 -8.92608985e-02 -1.23810228e-02
      7.30784088e-02 3.14424746e-02 -8.99557397e-03 4.99484427e-02
      3.60902771e-02 -1.01592422e-01 -5.66809773e-02 -8.31733868e-02
      3.13449278e-02 8.95552039e-02 4.74998029e-03 -1.59185901e-02
      5.10001592e-02 -1.59792472e-02 0. -6.27622753e-02 -9.26448554e-02
      6.66550770e-02 -5.74846566e-02 -5.10084769e-03 1.90721743e-03
      -7.80897588e-02 -3.96045409e-02 -4.18366790e-02 -1.51932901e-02
      5.01734689e-02 5.85537637e-03 3.10209747e-02 -4.28184448e-03
      -5.03997207e-02 -9.69679803e-02 2.17366498e-02 3.85105498e-02
      -6.09141192e-04 -6.79465234e-02 5.29120788e-02 3.26349190e-03
      -1.61082968e-02 -4.96862307e-02 -1.70957848e-01 8.59203003e-03
      4.69370559e-02 -2.72012502e-02 -9.58582237e-02 6.82568317e-03
      -3.86244804e-02 0. 3.74464169e-02 -2.30277032e-02 3.00683659e-02
      -8.29188451e-02 3.46798487e-02 4.44558263e-02 -3.84094603e-02
      2.27292795e-02 8.11649393e-03 5.87927662e-02 2.31758263e-02
      2.91838273e-02 9.54425894e-03 4.68640868e-03 -6.83912262e-03
      -4.90995822e-03 6.77954257e-02 8.20694566e-02 5.80761656e-02
      -3.52475978e-02 1.56985912e-02 -7.32738152e-02 -2.20248830e-02
      -2.89584678e-02 -3.70000787e-02 3.32820155e-02 6.79524764e-02
      1.41190976e-01 4.19149697e-02 -1.77506811e-03 -4.14951891e-02 0.
      1.04164928e-01 -4.95308777e-03 5.28050028e-02 -2.59702932e-02
      -4.22293544e-02 -1.74426734e-02 -1.08820356e-01 -8.71571247e-03
      5.45299910e-02 5.79269193e-02 1.11188795e-02 2.97734477e-02
      -5.61255738e-02 7.80371157e-03 -4.81290603e-03 5.41216694e-04
      -9.91266444e-02 7.45579973e-03 1.15906671e-01 -3.00867613e-02
      6.94494769e-02 -3.85251045e-02 -3.14201713e-02 2.45430041e-02
      -6.87832907e-02 -9.20624360e-02 6.63190186e-02 2.99912822e-02
      9.71659645e-03 -1.58008747e-02 -4.37419713e-02 0. -5.41404486e-02
      3.39362328e-03 -2.85473298e-02 -8.59908760e-02 -3.72184627e-02
      3.24676335e-02 -2.25961395e-02 1.24610253e-01 5.90663366e-02
      -6.60368055e-02 -2.38368995e-02 -4.29634936e-02 -4.07712534e-02
      -3.52581367e-02 2.04756875e-02 3.80537733e-02 2.72491500e-02
      -1.91616490e-02 -2.87889820e-02 -4.99020284e-03 -4.34140526e-02
      -7.02017620e-02 -1.43488785e-02 5.22219539e-02 8.90402775e-03
      8.98798928e-02 -1.22279450e-02 2.37012971e-02 1.18199270e-03
      -3.65823954e-02 -5.95789626e-02 0. -3.98412384e-02 3.22750770e-02
      5.16036823e-02 1.19434930e-02 -3.29421721e-02 -2.15865970e-02
      -3.65657173e-02 3.32084149e-02 5.07226139e-02 -1.08625568e-01
      1.04319505e-01 3.28684645e-03 -8.72431546e-02 -2.34032534e-02
      1.93682406e-02 -9.45991604e-04 5.61117195e-04 3.94517295e-02
      3.68850725e-03 6.18642941e-02 7.94064626e-02 -1.29616016e-03
      -8.86772200e-02 -1.32615678e-03 -5.03420942e-02 1.36304530e-03
      5.37220463e-02 5.13966754e-02 1.52615772e-03 -2.48742308e-02
      -3.01288962e-02 0. -5.51176704e-02 -1.01488374e-01 -2.10045408e-02
      4.82107885e-03 -1.01572976e-01 -2.04841066e-02 -5.39010204e-02
      -6.67252392e-02 2.94416212e-02 -1.10297814e-01 2.27498333e-03
      -4.00261916e-02 -2.95840222e-02 -2.12260708e-02 -8.50982592e-03
      3.40510942e-02 9.98208746e-02 4.65738550e-02 -1.03748299e-01
      -1.19106025e-01 -9.26167369e-02 -2.00099256e-02 -1.00082681e-01
      -4.15306315e-02 -3.74185815e-02 3.19249742e-02 5.56653887e-02
      -3.86351794e-02 -6.72994554e-02 -2.14871876e-02 -6.72448501e-02 0.
      -4.39459607e-02 4.18809429e-02 4.21590582e-02 -3.95460650e-02
      -1.58013329e-02 -3.04788053e-02 -7.47570023e-02 -3.07118129e-02
      -2.64904629e-02 -7.81669281e-03 5.34154847e-02 -2.26303525e-02
      1.92143507e-02 -4.40627299e-02 5.48242405e-02 -1.54044218e-02
      -2.49748658e-02 -1.44963190e-02 -1.36863301e-02 8.69690499e-04
      1.51368156e-02 -4.06271145e-02 -4.43263687e-02 1.73375010e-02
      -9.29639712e-02 -3.92087735e-02 -2.27337796e-02 9.21845902e-03
      -4.08555493e-02 -7.88720138e-03 -4.51498739e-02 0. 2.45314976e-03
      3.69517393e-02 -8.75715688e-02 5.73455403e-03 -4.43387544e-03
      -4.20958735e-02 -8.76038335e-03 4.18615527e-02 -1.77494716e-02
      -5.11761382e-02 2.80559547e-02 9.53744277e-02 -9.76393872e-04
      -8.28754455e-02 -6.32348955e-02 -8.35949648e-03 -2.10949015e-02
      3.40671763e-02 6.69389265e-03 4.00341526e-02 6.23274315e-03
      -1.21295312e-02 -6.85031712e-02 -8.18652809e-02 -4.19884399e-02
      -4.00009304e-02 1.50278490e-02 -1.97984558e-02 -3.20864469e-02
      1.16554610e-02 -2.75719874e-02 0. 9.54424776e-03 9.07228235e-03
      -2.93900706e-02 -2.29266603e-02 6.34166691e-03 1.96832847e-02
      -8.55958983e-02 2.52700560e-02 -5.43415826e-03 5.19743375e-03
      8.21008161e-02 9.45587642e-03 -2.20085569e-02 1.89523697e-02
      -2.46448629e-02 -5.54843247e-03 4.68949266e-02 6.58728508e-03
      1.73534136e-02 1.40902540e-02 -2.14515142e-02 -2.44878363e-02
      -3.46225314e-02 1.20896278e-02 -8.16023126e-02 5.27988523e-02
      2.07084678e-02 1.53535092e-02 -1.60013083e-02 2.20967252e-02
      -9.18680977e-04 0. 1.96882617e-02 3.10087148e-02 -8.10784325e-02
      -5.41407615e-02 2.43708137e-02 7.56258890e-02 -2.96589341e-02
      3.50398989e-03 3.52444798e-02 4.53755260e-02 1.07329920e-01
      4.78987806e-02 -3.65829915e-02 4.46778946e-02 6.61740452e-02
      -8.32200795e-02 -8.65426809e-02 -7.06209429e-03 1.14622787e-02
      9.74425375e-02 -5.61143085e-02 -4.75900844e-02 -1.80086624e-02
      9.01074186e-02 -8.41226950e-02 -6.72965273e-02 6.88197985e-02
      1.18893251e-01 3.48038375e-02 -3.32469456e-02 -6.26506880e-02 0.
      3.38073112e-02 -5.29695489e-02 -2.91366354e-02 -3.35227065e-02
      1.25890151e-01 -4.71780524e-02 -5.07842982e-03 2.92298701e-02
      4.53135781e-02 -7.39036053e-02 -5.02217114e-02 4.57153805e-02
      1.98591352e-02 8.06824639e-02 4.19294611e-02 -5.29610850e-02
      -4.16345447e-02 1.07691076e-03 1.21978559e-02 -3.54330949e-02
      1.61120277e-02 1.58916030e-03 8.52550790e-02 -1.52429221e-02
      -5.00936806e-02 1.48691237e-02 5.44626079e-02 3.12489197e-02
      1.03563936e-02 -1.98565386e-02 -4.35509859e-03 0. -5.64136580e-02
      7.42596760e-02 7.39802569e-02 6.12467490e-02 6.48371726e-02
      4.61938567e-02 -3.45051885e-02 3.07714250e-02 4.57238108e-02
      3.38565633e-02 -2.89294729e-03 -1.73651725e-02 4.78313677e-02
      -1.22785177e-02 4.14659679e-02 -1.91840865e-02 -3.00469287e-02
      -3.29976380e-02 2.34375708e-02 3.26249450e-02 4.98882756e-02
      9.31099206e-02 3.51642258e-02 4.80467901e-02 -3.78996395e-02
      4.69166599e-02 -3.35218757e-02 3.24841030e-02 6.13166466e-02
      4.72615100e-02 7.18490593e-03 0. -5.56613505e-02 -2.51195058e-02
      7.96946660e-02 1.03884086e-01 2.15171240e-02 2.90698209e-03
      3.13125737e-03 3.37786190e-02 5.57165518e-02 -8.05997401e-02
      8.23405460e-02 5.30678183e-02 -7.78616518e-02 -1.28027707e-01
      3.42026469e-03 1.31986616e-02 2.07362995e-02 5.68026640e-02
      3.01941652e-02 3.17672901e-02 7.09766522e-02 2.20279880e-02
      -1.06294744e-01 -1.81357525e-02 2.66924617e-03 -1.29020950e-02
      7.62219280e-02 5.13030887e-02 5.83171658e-02 -2.20688209e-02
      -1.07483091e-02 0. -3.38841341e-02 -1.09076858e-01 -2.39707087e-03
      1.84831191e-02 -1.97457485e-02 4.17511761e-02 -4.59028259e-02
      -5.37435003e-02 -5.23326686e-03 -1.38038620e-01 -1.46844063e-03
      -5.88897876e-02 -3.75118181e-02 -1.17565971e-02 -4.64309901e-02
      1.96765587e-02 8.15284997e-02 7.54386708e-02 -6.57495707e-02
      -8.69522393e-02 -5.01382388e-02 -5.27960528e-03 1.66138238e-03
      -6.59927279e-02 -2.48856805e-02 5.17073311e-02 2.76340693e-02
      -1.81438774e-02 -4.94197346e-02 -5.52603938e-02 -3.14188637e-02 0.
      -4.24061902e-02 2.01994758e-02 5.60495146e-02 -6.52717752e-03
      9.13856030e-02 -2.08842084e-02 -8.85584801e-02 -7.10901991e-02
      8.22281931e-03 -4.11585532e-02 -1.30564226e-02 -2.92573078e-03
      9.12101194e-02 6.67687356e-02 3.85231748e-02 -9.86787211e-03
      -2.41713524e-02 4.47047949e-02 -6.48011416e-02 -5.45698777e-02
      2.74275076e-02 5.31265438e-02 8.80443752e-02 2.59655733e-02
      -4.59179543e-02 -5.22555932e-02 1.96420569e-02 7.06344917e-02
      -1.23281905e-03 1.84788126e-02 -4.24290113e-02 0. -1.39918968e-01
      1.16858212e-03 6.21874183e-02 1.75455920e-02 -1.88617669e-02
      -4.05586213e-02 -3.85388955e-02 2.53736712e-02 9.39056650e-02
      -3.44876461e-02 -1.17155798e-02 5.50940493e-03 1.60442628e-02
      8.51998851e-02 2.31297314e-02 -1.52949216e-02 -1.02601476e-01
      7.56415650e-02 -3.90231945e-02 -2.81226765e-02 5.09945229e-02
      2.12771297e-02 8.11793953e-02 2.41036098e-02 -6.57597110e-02
      -6.55700788e-02 9.69722569e-02 4.04488072e-02 -4.83482257e-02
      3.30023095e-02 -2.33455468e-02 0. -2.65082102e-02 3.07065179e-03
      4.18539084e-02 4.38177884e-02 -8.02368969e-02 -2.23951675e-02
      6.89210929e-03 -1.19230170e-02 2.35835258e-02 3.38131897e-02
      3.10966335e-02 -1.98614616e-02 -1.18927732e-01 -6.27858043e-02
      -3.98705751e-02 3.21543738e-02 5.94748259e-02 8.24364424e-02
      3.99518758e-02 1.63545795e-02 3.33670480e-03 -6.64144829e-02
      -7.56902546e-02 -4.52313200e-02 -8.46945047e-02 2.84936633e-02
      7.22472519e-02 4.28649224e-02 -4.37473692e-02 2.68795099e-02
      -3.74593623e-02 0. -5.42004779e-02 5.35151828e-03 -5.27929813e-02
      -5.53070530e-02 3.96490693e-02 7.00255856e-02 -3.88403833e-02
      -3.13486792e-02 -4.99438681e-02 4.03889790e-02 3.21691856e-03
      3.41969356e-02 -8.06884691e-02 -4.03158031e-02 2.76632328e-02
      -6.82366788e-02 -5.18359281e-02 3.06068584e-02 -1.44293848e-02
      7.84769841e-03 -1.50978966e-02 -9.22648385e-02 -1.66866630e-02
      5.31527065e-02 -1.27029195e-01 -1.52983546e-01 2.72267759e-02
      1.15443416e-01 -2.19103647e-03 -8.26178044e-02 -1.59049228e-01 0.
      -3.24422750e-03 -5.91227436e-04 -4.04806063e-02 -9.59947612e-03
      1.06262967e-01 3.79494391e-02 -3.62499692e-02 1.06860615e-01
      9.47271734e-02 -1.92831382e-02 -5.66376932e-02 3.07171047e-02
      -3.35960314e-02 1.02392770e-02 6.93895714e-03 -1.21929206e-01
      1.94279812e-02 2.10154355e-02 4.36288118e-02 1.25640482e-02
      2.90060113e-03 -1.85772479e-02 5.85621260e-02 5.87574998e-03
      -1.33962676e-01 1.01095743e-01 1.04871742e-01 6.08271956e-02
      2.01702472e-02 2.12027784e-03 -3.00722905e-02 0. -2.13435898e-03
      3.83081436e-02 4.81447950e-02 -2.57709455e-02 -1.03657223e-01
      -9.50047653e-03 -3.01001547e-03 8.64393711e-02 5.72015494e-02
      5.69531433e-02 5.96135482e-02 1.92937125e-02 2.06955094e-02
      -1.40193840e-02 -2.99984403e-02 -7.85277113e-02 -6.34331331e-02
      7.00983703e-02 6.59127384e-02 9.71541703e-02 4.46272828e-02
      1.71354152e-02 -1.00297399e-01 -3.28815654e-02 -7.42186457e-02
      3.45462561e-02 7.69903064e-02 1.01067098e-02 5.92095172e-03
      4.19511907e-02 1.74586638e-03 0. -4.31859232e-02 3.16963135e-03
      2.47003734e-02 5.67199327e-02 -3.72459181e-02 -6.09926060e-02
      -5.85269146e-02 1.33592868e-02 8.23597386e-02 -5.30679300e-02
      -1.98924541e-02 -4.34802510e-02 4.93013337e-02 -1.87602174e-02
      -5.18763587e-02 -6.39742762e-02 -2.20848098e-02 3.78727876e-02
      1.40437661e-02 8.81454442e-03 4.62676445e-03 4.89834622e-02
      -3.19291353e-02 -4.18917574e-02 -6.66668564e-02 -2.27790382e-02
      1.16931744e-01 5.57687506e-02 -1.14630181e-02 -8.06406215e-02
      -6.05871081e-02 0. -1.04514062e-02 -8.46726745e-02 -5.94351292e-02
      3.45960669e-02 8.11587796e-02 6.39136806e-02 -2.96368487e-02
      -2.75098793e-02 -2.73961294e-02 -1.59645244e-01 -8.97763763e-03
      -7.48112239e-03 1.21227484e-02 4.88526225e-02 -7.70502016e-02
      4.99017648e-02 6.20879978e-02 6.19238727e-02 -5.64653352e-02
      -2.61211097e-02 -6.08735271e-02 3.94349433e-02 1.52421713e-01
      2.09403574e-03 4.01776917e-02 5.58078215e-02 2.14539077e-02
      1.93343814e-02 -1.92984026e-02 4.60311247e-04 -3.71234864e-02 0.
      -6.43877164e-02 -3.57672535e-02 -1.01446912e-01 3.24382521e-02
      1.21100709e-01 8.65031630e-02 -1.73877866e-04 1.97237674e-02
      -5.74782193e-02 -1.07676052e-01 -1.84457358e-02 6.87236115e-02
      6.90046623e-02 5.13953120e-02 -3.67436744e-02 -4.68963534e-02
      1.16297398e-02 7.42994994e-02 -1.27855301e-01 -9.28934738e-02
      -3.66882086e-02 9.84857157e-02 1.50754914e-01 7.62264878e-02
      -4.55765277e-02 -1.95396878e-02 2.86406651e-03 5.88427447e-02
      2.57084928e-02 -9.60426684e-03 -4.39274795e-02 0. -1.41727462e-01
      -1.67193431e-02 4.36504744e-02 2.88143344e-02 -2.05031671e-02
      -9.21332743e-03 -1.49553362e-02 3.37154716e-02 1.14259437e-01
      -9.05962661e-02 -5.02117947e-02 -2.53705494e-02 -2.87558306e-02
      -5.04607335e-02 -3.00700888e-02 1.97055255e-04 -2.44035125e-02
      7.37558156e-02 6.49366528e-03 -3.42369340e-02 1.36434548e-02
      2.13911589e-02 6.22826628e-04 -1.40159484e-03 2.62158252e-02
      5.35050742e-02 1.64012462e-01 3.10274065e-02 -3.89863923e-02
      -3.80382501e-02 -5.23343310e-02 0. -3.91661488e-02 -3.54763232e-02
      1.71948057e-02 -9.77478325e-02 -6.77800700e-02 -5.66071682e-02
      -7.57209882e-02 -1.40071439e-03 9.87070873e-02 -1.49198100e-02
      -1.36732338e-02 -4.29941714e-02 2.86806654e-02 2.82107070e-02
      2.23203562e-03 2.94213891e-02 2.28791628e-02 1.27194986e-01
      4.26260345e-02 -2.93686762e-02 -2.08989866e-02 -4.05820794e-02
      -1.85531862e-02 -5.69379888e-02 -4.37869411e-03 5.65942414e-02
      1.44159466e-01 3.16013880e-02 -4.98926900e-02 3.24042514e-03
      -2.78302878e-02 0. -4.34553064e-02 4.41317819e-02 -6.92928880e-02
      -7.96603635e-02 1.79915186e-02 5.97669603e-03 -4.59993929e-02
      -3.99712101e-02 -5.29676303e-02 -8.17272291e-02 2.08779611e-02
      2.30805930e-02 2.72566266e-02 1.01325519e-01 6.31792769e-02
      -3.72098312e-02 -1.67315770e-02 4.86678891e-02 -1.55516844e-02
      1.82349402e-02 -5.45864813e-02 -4.00019847e-02 2.27251444e-02
      3.08686998e-02 -5.23272380e-02 -1.08928256e-01 2.30005048e-02
      7.53036439e-02 6.66890293e-02 -7.78359398e-02 -1.18145034e-01 0.
      -1.15782714e-04 -7.59151578e-02 -8.34727809e-02 -6.75106198e-02
      1.21551827e-02 8.17597508e-02 -7.16935098e-02 6.20396137e-02
      6.85611144e-02 -3.33196297e-02 -3.26116085e-02 -9.83999893e-02
      1.17297955e-02 6.60461327e-03 -1.70301236e-02 -1.22743510e-01
      3.35525796e-02 8.89343396e-02 -2.69320770e-03 -3.82750705e-02
      -1.14795350e-01 -3.18471678e-02 -2.34594606e-02 1.73713341e-02
      -1.07359089e-01 8.61253664e-02 8.99692178e-02 -1.11461226e-02
      -2.98709981e-02 2.68872790e-02 -9.78162140e-02 0. 6.16375320e-02
      4.00204919e-02 3.57394889e-02 -1.78426001e-02 -2.04872992e-02
      3.89360934e-02 -3.37514393e-02 4.86048460e-02 3.94248515e-02
      8.26480165e-02 3.35593373e-02 -4.02293019e-02 2.37997547e-02
      6.02383837e-02 3.30449315e-04 -8.24851468e-02 -3.33175398e-02
      4.01767604e-02 1.21730104e-01 9.95879099e-02 1.74949449e-02
      -2.29178905e-03 -8.21218919e-03 2.91774441e-02 -9.49966460e-02
      -4.79995273e-02 3.83997671e-02 2.33480148e-02 1.01162866e-02
      6.97989464e-02 2.73158103e-02 0. -7.83049464e-02 4.84536327e-02
      -3.27588501e-03 -7.29206651e-02 1.57338642e-02 -2.05093808e-02
      -8.30272213e-02 -4.68062935e-03 1.04001589e-01 -3.81938666e-02
      4.70786393e-02 -9.26338509e-03 1.02212979e-02 -1.30905863e-02
      -3.95065881e-02 -5.02547249e-02 -1.33117437e-02 -6.18765727e-02
      9.09586474e-02 6.01459481e-02 1.36785051e-02 -1.09052397e-02
      3.94658931e-02 -1.57851372e-02 -1.02998532e-01 -2.79587526e-02
      6.41743988e-02 3.11815273e-02 3.48990853e-03 -6.86759874e-02
      -8.98450166e-02 0. -8.54687169e-02 -4.73794714e-02 -7.48617277e-02
      3.04002166e-02 4.71905572e-03 -2.95332987e-02 -9.10199359e-02
      -4.28577848e-02 4.86108959e-02 -9.35477540e-02 -1.59275942e-02
      -6.92467242e-02 -3.57985683e-02 3.18574272e-02 3.33858095e-02
      -1.36962822e-02 1.03785924e-03 -1.11918279e-03 -5.64236678e-02
      -3.25476192e-02 -7.19379187e-02 7.57327443e-03 9.83766988e-02
      4.82358783e-02 -1.01588123e-01 -1.62735693e-02 2.90958118e-02
      -5.10450862e-02 -3.43899094e-02 -7.00637996e-02 -5.68413325e-02 0.
      -7.81045109e-02 9.38653480e-04 -1.26861939e-02 -6.33442076e-03
      -5.70239127e-02 -6.74323812e-02 -3.29970643e-02 -1.13816943e-03
      9.20387916e-03 -6.99975416e-02 -3.70923951e-02 -2.75272671e-02
      7.49576092e-02 6.69725463e-02 -1.85460038e-02 -3.36812586e-02
      -4.23152260e-02 2.53467876e-02 -1.11975156e-01 -3.15795578e-02
      -1.71589106e-02 2.88310368e-02 5.71362339e-02 -7.11713284e-02
      -9.79302675e-02 -1.52555229e-02 1.08084530e-02 -2.60949787e-02
      6.22804463e-03 -1.06269307e-01 -1.87989511e-02 0. -1.53574258e-01
      -1.22587178e-02 1.13274250e-03 4.75169644e-02 -3.23908553e-02
      -2.27489844e-02 -4.77406159e-02 2.76260544e-02 2.93434896e-02
      -1.92760844e-02 -1.42961796e-02 -7.60704353e-02 4.06676494e-02
      2.21729204e-02 -3.52796540e-02 -2.63559818e-02 5.40204870e-04
      7.01926090e-03 3.43954675e-02 9.47193708e-03 -2.66262982e-02
      7.94160441e-02 8.32921788e-02 -3.66771705e-02 -7.02833757e-02
      -2.88530402e-02 6.50027171e-02 -1.05554033e-02 1.04346033e-02
      -9.20356214e-02 -3.22801955e-02 0. -4.01958749e-02 1.00044966e-01
      7.22099915e-02 1.77804468e-04 -1.70351639e-02 -4.52423654e-02
      -9.78158489e-02 3.35619226e-02 -1.31426370e-02 -3.17169763e-02
      2.76526529e-03 -8.89626220e-02 -2.89659146e-02 -1.50826294e-02
      2.25315299e-02 -9.72308367e-02 -9.24461484e-02 -8.62226859e-02
      4.06261757e-02 7.63671920e-02 -3.57335783e-03 -4.51173633e-04
      1.91763591e-03 -3.08663733e-02 -1.61452711e-01 -5.34554049e-02
      -9.46039930e-02 -5.05023776e-03 -4.23792042e-02 -9.25458819e-02
      -5.93176149e-02 0. -2.95417607e-02 3.29190716e-02 -2.10915543e-02
      -1.20944735e-02 3.15747783e-02 -2.71990392e-02 4.68957461e-02
      6.31349683e-02 2.78837290e-02 3.42298038e-02 7.08415136e-02
      1.29927443e-02 -1.81933939e-02 -1.84447523e-02 1.30535532e-02
      3.18782479e-02 -7.20620826e-02 1.47575587e-02 6.60199076e-02
      6.33322587e-03 -4.80965860e-02 -1.94143951e-02 7.11997878e-03
      -1.29385581e-02 5.77724278e-02 1.10491354e-03 4.94827293e-02
      1.61549479e-01 6.47131577e-02 -4.40196730e-02 -9.66675356e-02 0.
      -6.45643920e-02 -1.00573182e-01 -8.17095116e-02 -6.73260763e-02
      2.59053390e-02 5.48944175e-02 5.85367493e-02 9.71851032e-03
      3.65754403e-02 -5.38856164e-02 3.98118943e-02 -4.05467674e-02
      -2.86310874e-02 -1.08211674e-02 -1.18110962e-02 5.04828095e-02
      -2.16618404e-02 4.48613316e-02 -6.19904697e-03 -4.12425511e-02
      -6.20527826e-02 -4.29482125e-02 -2.88492236e-02 1.04570370e-02
      9.28205475e-02 1.42528964e-02 5.23202419e-02 -4.52589542e-02
      -3.09463441e-02 -1.89976371e-03 2.33022613e-03 0. 3.69063728e-02
      2.82131843e-02 3.39356512e-02 -2.96788421e-02 -1.85434800e-02
      1.44132311e-02 1.26344347e-02 -2.54306793e-02 6.99919462e-02
      6.64421469e-02 -2.24957205e-02 -6.66255280e-02 -5.97213022e-02
      3.42183281e-03 -7.04123080e-02 3.73226702e-02 -4.85363416e-02
      -5.20550041e-03 8.31396282e-02 6.21061698e-02 -2.50106268e-02
      -4.75647002e-02 -3.17685157e-02 -2.38054711e-02 3.72126997e-02
      -7.42245987e-02 1.00673630e-03 -3.14863236e-03 -3.07568386e-02
      1.06022554e-02 2.85942713e-03 0. -1.11992605e-01 4.28102426e-02
      8.37438852e-02 -1.80595256e-02 -4.14100848e-02 -4.14927006e-02
      -1.64848752e-02 1.69120714e-04 1.00278445e-01 -6.99370950e-02
      -8.22796393e-03 -2.17926893e-02 -4.35500666e-02 -7.45070502e-02
      1.64913312e-02 5.24398079e-03 -2.25661322e-02 -7.77269527e-02
      3.98728251e-02 3.85706909e-02 5.05681075e-02 -8.49410612e-03
      -2.31878776e-02 3.84939797e-02 -9.13789589e-03 -2.97387075e-02
      -1.76734682e-02 1.73615720e-02 1.96095952e-03 -6.23975582e-02
      -9.78786349e-02 0. -1.61116391e-01 5.53604290e-02 3.32540050e-02
      4.28161584e-02 1.47688137e-02 -3.99387479e-02 1.48098338e-02
      7.40929693e-02 8.42423588e-02 -1.80598404e-02 -2.25865212e-03
      -6.59959763e-02 -5.21179996e-02 -4.14153039e-02 1.06121134e-02
      4.40153405e-02 -1.85211897e-02 -3.44721228e-02 -6.87108561e-02
      5.54408319e-02 -3.08444835e-02 6.34009391e-03 5.93461469e-02
      2.58005690e-02 6.71145171e-02 9.00919884e-02 6.47793338e-03
      8.04950763e-03 -1.48653961e-03 -1.66409984e-02 -1.81702375e-02 0.
      -5.36155701e-02 5.22380508e-02 3.27390991e-02 -1.68337009e-03
      -8.62073451e-02 -9.07947496e-02 8.22571863e-04 1.42749995e-01
      4.40269969e-02 -1.82199012e-02 -5.67093529e-02 -9.59799960e-02
      -7.46036246e-02 -1.26960948e-01 -1.73116773e-02 1.26889758e-02
      2.96272920e-03 1.11283414e-01 -2.91283224e-02 -1.56081431e-02
      -2.42362637e-02 -3.85186188e-02 -5.12240343e-02 -6.28361180e-02
      -6.98477321e-04 1.12420149e-01 4.86580208e-02 -2.53240168e-02
      1.17180962e-02 -4.42165919e-02 -4.70992029e-02 0. -1.25111178e-01
      8.37224275e-02 1.40701056e-01 3.84324789e-02 -6.82750791e-02
      -2.64269207e-02 -4.72169779e-02 4.35174117e-03 -2.53782868e-02
      2.90641822e-02 -1.44642917e-02 -6.06584810e-02 -3.73256542e-02
      -2.27288902e-02 -8.22028238e-03 -2.52974592e-02 -4.35435921e-02
      7.35414177e-02 8.50081444e-02 3.29833776e-02 1.01451389e-01
      5.75719588e-02 -1.09603442e-02 -1.63775086e-02 -6.20466881e-02
      -8.80715996e-02 5.88783659e-02 3.77876568e-05 3.33818235e-02
      -7.25879744e-02 -2.43922770e-02 0. -7.34279528e-02 -2.31562182e-02
      1.39108030e-02 2.45916490e-02 1.93562210e-02 -1.57502498e-02
      -8.63391813e-03 1.37887914e-02 -8.76847375e-03 -9.27225046e-04
      2.67780144e-02 7.42382556e-02 -6.22482784e-03 -4.42026034e-02
      -3.56386453e-02 -5.44944219e-02 1.76757518e-02 1.22998515e-03
      6.68154284e-02 -6.90953247e-03 5.35325147e-02 2.33437661e-02
      2.58401129e-02 -3.98068391e-02 -6.88232407e-02 -2.26405654e-02
      -7.63948588e-03 3.32252383e-02 5.59368394e-02 -8.75460953e-02
      -3.91653664e-02 0. -6.05381131e-02 -2.22167019e-02 -3.97560596e-02
      -2.06608567e-02 -2.77928766e-02 -3.23316343e-02 8.55305791e-03
      -1.01907933e-02 5.81291355e-02 1.29543301e-02 9.31629166e-02
      -3.56202088e-02 -7.16435835e-02 1.29695458e-03 9.13268514e-03
      8.25131238e-02 1.42643359e-02 8.15685466e-03 2.67969314e-02
      1.22120567e-02 -7.91581497e-02 -5.82598262e-02 -3.82399522e-02
      -1.22869236e-03 4.03368324e-02 6.39445707e-03 5.70504963e-02
      1.02817386e-01 9.92105976e-02 -1.20936655e-01 -9.64530259e-02 0.
      -6.45108223e-02 -6.71127141e-02 -4.03462984e-02 -2.46295258e-02
      8.17137659e-02 7.95354098e-02 -4.16071154e-03 3.04626096e-02
      7.46740634e-03 -2.07523089e-02 -3.06345616e-02 4.59172651e-02
      1.08869169e-02 -4.51118173e-03 -5.17610274e-02 3.47769051e-03
      -7.87315816e-02 6.78311754e-03 -3.42630111e-02 -7.17151910e-02
      2.10178792e-02 -1.59859797e-03 5.81940301e-02 6.12149015e-02
      1.21495705e-02 -5.82581498e-02 1.66270963e-03 -3.86699140e-02
      -3.85835618e-02 1.25841517e-02 7.67397368e-03 0. -2.85530817e-02
      3.88169698e-02 3.54881445e-03 7.50397798e-03 2.54907440e-02
      2.73503121e-02 -3.81895229e-02 1.09364875e-02 7.39234537e-02
      -2.33224481e-02 -7.93675631e-02 -5.60655538e-03 1.88915282e-02
      9.37337577e-02 -3.94964740e-02 -1.90691501e-02 -3.81703191e-02
      4.05811034e-02 9.56036523e-03 -7.60636032e-02 1.45262862e-02
      3.58398259e-02 4.99605946e-02 9.21435282e-03 -5.42941988e-02
      1.07599543e-02 5.64764328e-02 3.34468670e-02 -5.14439819e-03
      -1.94807467e-03 6.17313106e-03 0. -7.84909204e-02 4.96469438e-02
      4.64193858e-02 -6.92078024e-02 -4.07940373e-02 -6.46691173e-02
      -5.92201501e-02 2.07536668e-02 6.81663305e-02 4.49585840e-02
      -1.39899058e-02 6.77753687e-02 -1.11222463e-02 5.94867393e-04
      2.45840605e-02 -3.68378311e-02 8.61167500e-04 -1.57591794e-02
      5.24374805e-02 1.35625890e-02 5.66490553e-02 -5.30696921e-02
      -3.38993482e-02 2.30826102e-02 -8.75519738e-02 -5.90332272e-03
      3.96432839e-02 1.78238247e-02 2.67148558e-02 -2.21290309e-02
      -5.36780171e-02 0. -4.85534556e-02 1.00408692e-03 6.69809207e-02
      -7.77937705e-03 6.38554767e-02 -5.80096953e-02 1.98761672e-02
      4.22881879e-02 9.44747403e-02 -4.42147329e-02 4.85726679e-03
      6.87423646e-02 2.32059439e-03 9.77795944e-03 1.80988444e-03
      -9.99321342e-02 -6.54827952e-02 1.74907185e-02 8.86316448e-02
      5.75088821e-02 1.09277055e-01 -5.87606523e-03 4.42242920e-02
      -2.42605489e-02 -4.17332426e-02 2.49591060e-02 8.44740719e-02
      3.00788861e-02 1.82533097e-02 -2.25787498e-02 7.01175677e-03 0.
      2.48669405e-02 9.10324305e-02 6.71575367e-02 -8.41050409e-03
      -3.43084559e-02 -1.21864624e-01 -3.98653634e-02 9.10237283e-02
      8.64055902e-02 -2.95032598e-02 -4.12843749e-02 -3.54300030e-02
      -1.18136130e-01 -1.02529094e-01 -6.45766407e-03 -6.83023632e-02
      -8.52235928e-02 -5.51452972e-02 1.53721170e-02 5.72221726e-02
      1.94803514e-02 -9.26449075e-02 -1.43632904e-01 -6.21811859e-02
      -1.04545340e-01 1.29332459e-02 2.04606298e-02 -3.38187553e-02
      -4.11649235e-02 -2.53948253e-02 -8.15698653e-02 0. 1.25560164e-02
      1.45054325e-01 1.03190176e-01 6.27783984e-02 -5.79606257e-02
      -4.76454310e-02 -2.36822069e-02 1.14299161e-02 7.86451548e-02
      -5.35996957e-03 1.31874969e-02 -4.29637469e-02 -6.39811233e-02
      7.01484382e-02 7.49807432e-02 -1.31353335e-02 -7.36979172e-02
      4.05259617e-02 1.28143087e-01 7.87814781e-02 8.94633010e-02
      9.52486414e-03 1.54010504e-02 -9.99136129e-04 -3.85749564e-02
      -4.30607162e-02 9.99493822e-02 5.15311770e-02 5.41202426e-02
      2.04777997e-02 7.78153865e-03 0. 5.28834909e-02 -3.23799299e-03
      -2.40456872e-02 -1.95182692e-02 5.73711097e-02 3.35594229e-02
      3.50490510e-02 -3.27171646e-02 9.93967056e-02 -1.27521129e-02
      -7.55721238e-03 6.80610090e-02 7.15938397e-03 1.98374037e-02
      6.95482641e-02 -2.99568735e-02 3.10995001e-02 1.70422811e-03
      1.14739388e-01 -1.41533399e-02 4.64877188e-02 -2.47660391e-02
      9.06454995e-02 6.22260906e-02 -2.65199654e-02 -1.59111321e-02
      1.06924817e-01 6.54654875e-02 1.06538415e-01 -9.74830147e-03
      7.94227875e-04 0. -2.31287275e-02 7.51296617e-03 -1.87758240e-03
      -6.98188739e-03 6.96689039e-02 4.77832109e-02 8.12999755e-02
      1.99057022e-03 -2.71894014e-03 -6.43568998e-03 -8.07202887e-03
      -1.10340372e-01 -2.45046504e-02 -1.15092564e-02 5.94677515e-02
      -5.35577498e-02 -6.25908822e-02 -3.71403247e-02 -3.62882279e-02
      -5.82976565e-02 -3.56316604e-02 3.32134729e-03 3.96158695e-02
      1.04382880e-01 4.54822369e-02 7.17779715e-03 5.24003664e-03
      6.80416003e-02 1.27479628e-01 -1.29839435e-01 -1.03928708e-01 0.
      -5.53584620e-02 -1.73726361e-02 -5.08126803e-02 -4.98673283e-02
      -1.92328300e-02 2.42181844e-03 3.31268422e-02 8.81388336e-02
      -1.96368322e-02 -4.28067185e-02 -8.49562436e-02 -3.16063948e-02
      -1.56741291e-02 -3.25470306e-02 6.10180723e-04 -2.85193920e-02
      -3.11507788e-02 -5.98570555e-02 -2.88814958e-02 -5.57469912e-02
      -1.66205280e-02 -1.87767819e-02 -8.42697993e-02 2.66040768e-02
      3.57453264e-02 2.81199086e-02 -1.21002803e-02 -8.89565721e-02
      -4.82675396e-02 -6.43909946e-02 5.93658164e-03 0. 1.72104035e-02
      5.00284433e-02 3.23765632e-03 2.40399763e-02 -9.72588733e-02
      2.78772172e-02 4.62612286e-02 -8.60331208e-03 8.62109940e-03
      -2.39480566e-02 4.58666496e-02 1.90165862e-02 -8.52692947e-02
      1.85161494e-02 -7.98262581e-02 -8.22102800e-02 -1.13918178e-01
      -2.08278429e-02 8.85562748e-02 7.93147907e-02 3.22765931e-02
      -2.59690285e-02 -7.13709742e-02 -2.53850385e-03 -3.53215933e-02
      -1.13947242e-01 4.42037964e-03 -3.10744718e-02 6.18134113e-03
      -7.39400834e-02 -1.95762180e-02 0. -1.91627592e-02 3.80193405e-02
      -2.01990977e-02 -8.24771151e-02 -4.05461714e-02 2.39764880e-02
      3.46322842e-02 5.13187796e-02 7.52792582e-02 -2.41337772e-02
      2.05775592e-02 -1.45763746e-02 -8.92914012e-02 -9.72294956e-02
      -1.18518986e-01 -1.41503289e-01 -8.61854255e-02 -4.85800765e-02
      7.73822218e-02 -2.17915955e-03 -7.00049326e-02 -1.42621458e-01
      -1.07909173e-01 -4.04653922e-02 -9.95357484e-02 -2.32127756e-02
      4.07352038e-02 -1.08112529e-01 -4.89831336e-06 -9.99118313e-02
      -4.58669029e-02 0. 2.43809801e-02 6.02084249e-02 1.06208585e-01
      1.09946400e-01 5.28856777e-02 5.54569587e-02 3.04590501e-02
      -8.46589636e-03 5.04119769e-02 -2.86544636e-02 -9.86776128e-03
      5.73717095e-02 -2.58298758e-02 -2.98668202e-02 -7.19475821e-02
      -1.28355280e-01 -9.40439031e-02 -1.15186311e-02 1.24196455e-01
      4.90625016e-02 1.20865673e-01 4.70977090e-02 4.88808146e-03
      -3.26108858e-02 -1.16050839e-01 -9.48862582e-02 -4.81171673e-03
      1.09570837e-02 8.98087323e-02 -6.75762519e-02 3.22311148e-02 0.
      -2.16564965e-02 1.19084470e-01 1.95508562e-02 4.94694784e-02
      -4.94212843e-02 2.18145959e-02 1.97489802e-02 1.48213595e-01
      1.74657986e-01 2.90947016e-02 -5.20947352e-02 4.85896628e-04
      -6.00616634e-02 -3.38498056e-02 -8.21232796e-02 -8.06408226e-02
      -3.94190252e-02 -9.57450420e-02 4.10197340e-02 6.46078363e-02
      2.24712547e-02 -2.45082867e-03 -7.73663297e-02 -4.00114991e-02
      -5.43331131e-02 1.18663885e-01 1.08733661e-01 -2.60044746e-02
      3.89188230e-02 -4.09988053e-02 5.97193688e-02 0. -4.03023809e-02
      5.79119176e-02 -2.63303779e-02 1.83919948e-02 -7.39173293e-02
      -1.13301249e-02 -1.42994793e-02 1.09048449e-01 6.71172962e-02
      -7.98688531e-02 -2.56288494e-03 -7.96035007e-02 -6.11597747e-02
      -1.92615297e-02 -1.62188038e-02 -1.10187598e-01 -4.99122925e-02
      3.25873345e-02 5.58939762e-02 1.28574977e-02 -6.23844154e-02
      -2.77280365e-03 -1.03410959e-01 -5.25730997e-02 -1.27533510e-01
      4.22594734e-02 7.59507939e-02 -5.36627583e-02 4.79515688e-03
      -7.29147717e-02 -1.95895061e-02 0. 5.23953047e-03 -5.75824315e-03
      -4.95319180e-02 -4.36710939e-02 6.00100383e-02 6.46727383e-02
      -1.58013974e-03 4.23064418e-02 -1.10786026e-02 -8.33035037e-02
      5.04683843e-03 -8.02316144e-03 -8.33998770e-02 -6.13376778e-03
      2.54095048e-02 -8.84854048e-02 1.19133200e-02 1.71819367e-02
      5.24189584e-02 8.62092059e-03 4.03888598e-02 -8.86874124e-02
      3.58798318e-02 2.53266040e-02 -1.06140628e-01 3.64523940e-02
      4.30772454e-02 1.68458242e-02 6.05201572e-02 -1.09908484e-01
      -3.77834700e-02 0. -4.37305495e-02 1.96796022e-02 5.39171044e-03
      3.59509364e-02 6.04472458e-02 6.96338192e-02 -6.54990152e-02
      6.41975179e-02 3.37600224e-02 -2.74821408e-02 9.43708140e-03
      -7.37653524e-02 -5.38307726e-02 4.34189923e-02 7.95710981e-02
      -1.73347536e-02 6.68026879e-03 -3.07218507e-02 -9.93527379e-03
      2.17383876e-02 -2.90961824e-02 -6.11093454e-03 3.27311754e-02
      6.50534034e-02 -1.05684094e-01 2.56303814e-03 1.62788909e-02
      1.21337585e-01 1.34517789e-01 -1.22769050e-01 -7.84964040e-02 0.
      -5.00015281e-02 -7.03851432e-02 -4.90076058e-02 -6.22422583e-02
      3.14158364e-03 5.92131503e-02 -1.04999042e-03 2.66010985e-02
      -3.01556680e-02 -7.36121312e-02 3.21625620e-02 3.74638401e-02
      1.35487746e-02 3.89301702e-02 -4.06787656e-02 -6.27976358e-02
      -2.68434137e-02 4.89045084e-02 -3.50072049e-02 -1.22713167e-02
      1.81577746e-02 -3.79598071e-03 -3.78191993e-02 3.38776037e-02
      -2.89459992e-02 -7.09811132e-03 1.36873415e-02 -5.37529252e-02
      -5.84935164e-03 -4.88223955e-02 1.09351631e-02 0. -4.94483709e-02
      3.02515477e-02 2.09616567e-03 -6.74724812e-03 5.36130145e-02
      1.08820200e-01 -4.38544415e-02 -1.87892746e-02 -6.52697980e-02
      -8.31207708e-02 5.70254400e-03 7.38584548e-02 -5.25695756e-02
      1.70508362e-02 -1.70559995e-02 -1.62690282e-02 -1.36783626e-02
      1.01528265e-01 -9.32455808e-03 3.78968045e-02 2.12834552e-02
      -2.01443098e-02 2.05593500e-02 4.98795360e-02 -5.11527248e-02
      -5.54465428e-02 1.42577123e-02 -6.27208315e-03 4.89608794e-02
      -3.37972380e-02 3.42052174e-03 0. -3.92070971e-02 -2.66400799e-02
      4.60223816e-02 -4.38518636e-02 2.95113306e-02 2.41821930e-02
      3.62980291e-02 7.75746927e-02 8.32178295e-02 2.50542630e-02
      -9.98209510e-03 2.50799814e-03 7.02463314e-02 -6.26030713e-02
      -5.78637719e-02 -6.82380870e-02 -6.01159967e-02 -6.70710355e-02
      1.02502421e-01 -2.68443134e-02 4.36845310e-02 2.07247175e-02
      -2.04526056e-02 -8.90897121e-04 -6.29060436e-03 -1.78509038e-02
      -1.61111001e-02 -5.36061488e-02 3.76011245e-02 -2.61030309e-02
      2.28004344e-02 0. 4.68267649e-02 8.32474232e-02 -1.15884608e-03
      -4.54475023e-02 -1.69718359e-02 4.79071960e-02 6.30120412e-02
      1.48000577e-02 7.66125917e-02 -1.93482619e-02 2.23759636e-02
      4.23303209e-02 1.38353033e-03 -9.10273418e-02 -7.62623549e-02
      -9.27969664e-02 -8.13355073e-02 8.05086643e-03 9.35139433e-02
      8.54153335e-02 4.06375788e-02 -1.42903896e-02 -1.16227165e-01
      -4.81530391e-02 -2.48722676e-02 -4.93612699e-02 5.78377619e-02
      7.07247294e-04 9.17214677e-02 -8.81620646e-02 -1.26584554e-02 0.
      -6.34530783e-02 -3.41023831e-03 2.47041881e-02 -1.34271896e-02
      -2.97384895e-02 8.84457119e-03 1.14111662e-01 2.27657333e-01
      8.68281648e-02 -7.24841654e-02 -2.54441034e-02 -4.88085710e-02
      3.64486426e-02 -4.62419763e-02 -4.52409945e-02 -7.45543167e-02
      -2.01708507e-02 -2.00208630e-02 -5.46678938e-02 -4.06195223e-02
      -1.30796637e-02 1.86148565e-02 3.83463036e-03 -2.18848661e-02
      1.45164439e-02 1.59668356e-01 4.36440818e-02 1.87169539e-03
      3.69977280e-02 -5.41047715e-02 3.20170559e-02 0. -1.05919959e-02
      4.65068929e-02 -1.88702215e-02 2.99127642e-02 3.39149447e-05
      2.02094167e-02 -3.28446329e-02 2.56090164e-02 9.77226719e-03
      -2.61453874e-02 1.69117637e-02 -6.21062182e-02 -6.20717704e-02
      -8.31732247e-03 -1.05194896e-02 -6.44968748e-02 -9.96269006e-03
      4.68530925e-03 5.09285815e-02 2.52617593e-03 -4.95838895e-02
      -3.95097621e-02 6.32951595e-03 1.91646218e-02 -5.73761202e-02
      -2.02495698e-06 -1.54721728e-02 -2.05961075e-02 -7.12045352e-04
      -3.55145745e-02 -1.49645256e-02 0. -3.95230763e-02 3.48293260e-02
      2.19850782e-02 7.07712471e-02 7.66350850e-02 4.80808802e-02
      -1.48926647e-02 8.81143287e-02 -4.63098325e-02 -7.41486624e-02
      -8.21287930e-03 -8.87233615e-02 -1.66696440e-02 -3.91684240e-03
      -6.71640411e-02 -1.37819275e-02 6.28205016e-02 -3.00823133e-02
      2.05240026e-02 2.35694628e-02 -2.49571670e-02 5.04147187e-02
      1.05511397e-01 -3.42735797e-02 1.30252913e-02 9.56298113e-02
      -6.76373243e-02 3.32214423e-02 7.17572942e-02 -5.61449341e-02
      -4.89227995e-02 0. -1.05582029e-01 2.28071772e-02 8.57210904e-02
      1.07339015e-02 3.83806676e-02 5.08077517e-02 -1.39342481e-02
      9.17700827e-02 2.04429906e-02 -4.68559191e-02 1.32573359e-02
      -7.59487897e-02 -1.16593717e-02 -4.16648835e-02 -5.02065569e-02
      -1.82597172e-02 9.83172562e-03 -1.20729040e-02 -8.18927065e-02
      1.29213966e-02 3.20424587e-02 2.58161388e-02 -2.81868987e-02
      -1.40403332e-02 -3.59845087e-02 7.33981235e-03 -4.67705261e-03
      8.89977515e-02 1.44478768e-01 -1.49294421e-01 -9.94704068e-02 0.
      -4.37306724e-02 -4.30173762e-02 6.94082603e-02 -3.45147401e-02
      1.09963901e-01 4.29623462e-02 -3.39111052e-02 -2.13076323e-02
      1.56750847e-02 -4.51757237e-02 2.68175937e-02 8.25840980e-03
      -6.73715472e-02 -2.16321219e-02 -2.90020313e-02 -4.78950925e-02
      -2.36074720e-02 3.86161432e-02 2.81959921e-02 -2.08422150e-02
      5.14845029e-02 -8.65355581e-02 5.52494116e-02 3.96053791e-02
      -6.01376146e-02 -2.01716293e-02 1.98562350e-02 3.54167745e-02
      -2.74882261e-02 -2.23713070e-02 -3.24445032e-02 0. -1.84522882e-01
      -6.12613745e-02 2.53056474e-02 2.78585646e-02 9.27536413e-02
      8.67992863e-02 -2.67470162e-02 -4.29894365e-02 1.26874698e-02
      4.51418087e-02 9.85050425e-02 1.00288242e-02 -2.92702317e-02
      3.20409797e-02 -2.77272426e-02 -1.19499564e-01 -2.86185257e-02
      -3.17347310e-02 1.71075799e-02 1.93629693e-02 2.30950825e-02
      1.46710277e-02 9.79628712e-02 7.33578727e-02 -1.25823110e-01
      -7.65370280e-02 -3.37346736e-03 5.58752741e-04 -1.28288623e-02
      -1.08288340e-02 -3.40582021e-02 0. -2.19785795e-02 8.00360646e-03
      4.65166122e-02 -5.75454161e-02 -4.57205437e-02 -3.59256612e-03
      -5.01167066e-02 -1.20241437e-02 7.25933388e-02 4.86168936e-02
      -7.68276816e-03 7.18960389e-02 9.86681040e-03 -5.74269965e-02
      -4.71201837e-02 -6.35095537e-02 -6.22951016e-02 -1.95293818e-02
      1.20589003e-01 1.20891142e-03 1.11122683e-01 -3.53822485e-02
      -7.91246817e-02 -2.53862608e-02 -1.11116320e-01 -7.94982985e-02
      4.76308428e-02 -5.44035733e-02 -4.47619557e-02 1.34906489e-02
      -4.38545225e-03 0. 3.01827618e-04 -2.04249509e-02 -1.23170437e-02
      -9.80117172e-02 -6.18747249e-02 -5.15741855e-02 -1.23996790e-02
      2.41651405e-02 1.75582141e-01 -1.23655079e-02 -3.52634490e-02
      -2.35348400e-02 -9.02759202e-04 -5.86225130e-02 2.32677888e-02
      -3.49148060e-03 -7.22827576e-03 -5.77328205e-02 7.78304264e-02
      -1.41148660e-02 -3.02508045e-02 -5.62429205e-02 -5.55164851e-02
      -6.22857176e-02 -6.51453957e-02 -1.60921011e-02 6.44193366e-02
      -2.22162791e-02 2.43253000e-02 -5.62377833e-02 -5.54373413e-02 0.
      -5.11850491e-02 -2.80941986e-02 2.79202219e-02 -5.66011332e-02
      -1.01426139e-01 -9.51435938e-02 -2.10328531e-02 6.34448752e-02
      5.02633043e-02 -7.99582824e-02 4.42715921e-02 -3.32174897e-02
      -5.20622730e-02 -3.57283093e-02 3.29196975e-02 -4.28528227e-02
      -4.97518517e-02 -3.15406988e-03 3.09766345e-02 -4.25057206e-03
      -2.17555615e-04 -8.85269418e-02 -9.30960625e-02 -3.43243442e-02
      -8.91830251e-02 1.46222310e-02 6.10737130e-02 -1.42184542e-02
      -1.12984162e-02 -1.08521409e-01 -6.93181977e-02 0. -6.80508316e-02
      6.48029745e-02 6.32506534e-02 -5.06053120e-02 -8.72031152e-02
      -3.56717259e-02 2.15677265e-02 8.96613598e-02 7.62141496e-02
      -8.33069012e-02 -8.34015906e-02 -9.07113999e-02 -1.07460938e-01
      -7.47162551e-02 -5.45714609e-02 -3.86188030e-02 3.87552492e-02
      6.07959293e-02 3.49267200e-02 -2.04659645e-02 1.90360248e-02
      -9.64298025e-02 -9.51893404e-02 -9.92239043e-02 -3.28503773e-02
      8.42656344e-02 1.09445848e-01 -1.02545964e-04 -2.98067983e-02
      -6.65718764e-02 -7.28787929e-02 0. 1.49139138e-02 8.89866240e-03
      4.36086021e-02 -8.97892937e-02 -5.50706983e-02 1.23511292e-01
      6.72292337e-03 6.32837340e-02 -2.81685758e-02 -2.29401931e-01
      -9.40452218e-02 -9.47587490e-02 -4.19798605e-02 -1.08563170e-01
      -8.71049836e-02 1.03627564e-02 2.93738185e-03 3.32357064e-02
      -2.72382628e-02 -8.79456773e-02 1.29259164e-02 -9.03863385e-02
      -3.01798116e-02 2.22710520e-02 3.51575576e-02 3.37448455e-02
      2.24648789e-02 -2.41899621e-02 -4.32135388e-02 -6.48207143e-02
      -1.13567300e-01 0. -3.61987986e-02 1.69147807e-03 1.85380373e-02
      -7.77776400e-03 4.98273484e-02 1.15161322e-01 -1.74877960e-02
      9.95730236e-02 -1.02759374e-03 1.81126539e-02 2.25232597e-02
      -6.08663559e-02 -3.45783122e-02 4.09507081e-02 7.07456470e-03
      -1.47002535e-02 -1.26296863e-01 -8.39757081e-03 3.23918741e-03
      -1.64099261e-02 -4.33856621e-02 9.22199152e-03 6.91022053e-02
      4.28718552e-02 -2.88292170e-02 -5.52834310e-02 4.30303859e-03
      9.34390649e-02 1.38812646e-01 -8.40246901e-02 -1.17057525e-01 0.
      -2.66953986e-02 -3.21001671e-02 3.07154320e-02 -5.44024557e-02
      8.38988274e-02 9.59014148e-02 8.44475552e-02 1.24366088e-02
      1.95060521e-02 2.49106046e-02 2.43008640e-02 -3.90535630e-02
      1.99623257e-02 -2.08555479e-02 -5.39900586e-02 -7.16247186e-02
      1.43955536e-02 -6.57566711e-02 -2.28172466e-02 6.84277434e-03
      1.08842598e-02 -3.59435864e-02 -2.25719460e-03 2.84468047e-02
      -1.18541103e-02 -1.22712702e-02 -5.18327393e-02 1.74623299e-02
      1.87851507e-02 8.67503509e-03 -2.32396983e-02 0. -1.75214306e-01
      -4.67016809e-02 -9.85712558e-03 -9.53506157e-02 5.79017848e-02
      6.32969365e-02 -1.85184758e-02 7.47512234e-03 1.00846179e-01
      6.03109114e-02 -2.79773250e-02 -3.19921738e-03 8.71223882e-02
      -1.72729604e-02 -1.26139252e-02 -4.06964533e-02 4.73268563e-03
      -3.37912366e-02 1.74055602e-02 -2.45598163e-02 -1.07784597e-02
      -1.72999408e-02 5.60233779e-02 5.70651405e-02 -6.91536441e-02
      2.41191429e-03 4.73570079e-02 -1.39024658e-02 -5.07412339e-03
      -1.40939485e-02 -1.38372211e-02 0. -4.42559347e-02 2.13699620e-02
      4.83995862e-02 -3.20491865e-02 -4.03294265e-02 -9.13934559e-02
      -9.48767439e-02 -6.14612922e-03 5.49995303e-02 7.50370920e-02
      -3.48221920e-02 9.17818695e-02 4.38576043e-02 -2.59898156e-02
      -4.83249575e-02 -7.94704407e-02 -9.40067992e-02 3.50051336e-02
      1.05969474e-01 -7.94141612e-04 1.04647122e-01 -1.57415625e-02
      3.34124290e-03 -1.16535328e-01 -1.35026127e-01 -4.96621765e-02
      8.01189691e-02 -2.95575969e-02 -8.05917159e-02 -2.21130601e-03
      8.08019657e-03 0. 2.84903552e-02 -5.89712849e-03 -4.61566113e-02
      -3.82975638e-02 -2.40360145e-02 -7.62199089e-02 -2.84365676e-02
      -1.01642106e-02 2.48271972e-01 1.49166778e-01 3.77035029e-02
      8.54141563e-02 4.53729294e-02 1.75565034e-02 -5.59881069e-02
      1.60412525e-03 2.32550763e-02 -5.58798295e-03 1.27511039e-01
      5.81296757e-02 4.98801097e-02 8.49536993e-03 -8.75869952e-03
      -1.27067909e-01 -3.63983996e-02 3.09404433e-02 1.77835032e-01
      6.08748198e-02 7.38414675e-02 3.47159207e-02 -6.30362099e-03 0.
      7.05104228e-03 5.56458421e-02 1.25252288e-02 -6.20657504e-02
      -1.06071897e-01 -1.12785935e-01 -7.25850835e-02 -2.99763232e-02
      -4.05461565e-02 8.85854661e-03 1.65896118e-02 4.51767957e-03
      -4.81362343e-02 -1.92147344e-02 -1.65939033e-02 6.19080476e-02
      4.05705422e-02 1.15305148e-02 3.50021385e-02 1.02375202e-01
      3.87665257e-02 -7.78111592e-02 -8.98709372e-02 -6.78593814e-02
      -4.58380505e-02 2.72391699e-02 -2.76880786e-02 -1.97408441e-03
      2.82335989e-02 -7.83777758e-02 -8.40121433e-02 0. -1.06110476e-01
      5.63327558e-02 -2.00736355e-02 3.41023095e-02 -4.63451967e-02
      2.44082734e-02 1.38850296e-02 -2.37359758e-02 8.25000461e-03
      -3.48223336e-02 -1.27044944e-02 -3.90653536e-02 -1.01857021e-01
      -5.76110706e-02 -6.36724681e-02 2.45803893e-02 5.45882657e-02
      4.34481390e-02 2.39734035e-02 2.57811919e-02 -4.11708243e-02
      -6.30599707e-02 1.40636796e-02 -1.46467341e-02 -1.60293316e-03
      1.94856580e-02 3.54212299e-02 3.84823754e-02 1.14529124e-02
      -1.02105610e-01 -6.39839768e-02 0. 3.19978036e-02 8.03028494e-02
      3.51294018e-02 -3.39522511e-02 -6.90778643e-02 -5.90015352e-02
      -1.19455010e-01 5.46155311e-02 5.20221666e-02 -8.13978836e-02
      -3.37543078e-02 -2.66958550e-02 -5.36310412e-02 -7.02523366e-02
      -1.01889998e-01 1.52117328e-03 -3.86196631e-03 9.11206901e-02
      7.82164261e-02 2.85900328e-02 3.85492072e-02 -6.41789660e-02
      -2.73068491e-02 -8.22271034e-02 -6.71455711e-02 5.14434278e-02
      1.02695636e-01 -4.72696126e-02 -1.18110050e-02 -3.76718342e-02
      -4.76187244e-02 0. 4.25316021e-02 2.78792474e-02 9.65486169e-02
      3.96745913e-02 -7.35846907e-02 2.98268776e-02 1.30769080e-02
      1.04250014e-01 9.61851180e-02 -2.33065039e-02 -4.41380292e-02
      -3.16462070e-02 -4.43091393e-02 3.48737761e-02 6.74547674e-03
      -3.22423726e-02 -4.71193716e-02 -2.32959893e-02 3.93202752e-02
      -3.02876383e-02 1.81543380e-02 -1.42665682e-02 -2.52337325e-02
      2.96499804e-02 8.93999636e-03 4.31799740e-02 1.15303677e-02
      9.14873928e-02 1.25834808e-01 -8.10496137e-02 -5.52154034e-02 0.
      -6.41185567e-02 -1.66428927e-02 4.91338558e-02 -2.79255193e-02
      9.56080016e-03 2.03126401e-01 1.41349211e-01 1.20456487e-01
      1.65449917e-01 -2.47979593e-02 -8.02436695e-02 -4.45185089e-03
      7.43135344e-04 6.05228543e-02 -1.22509981e-02 -4.15990762e-02
      -1.40590593e-02 -1.77693944e-02 -9.09623280e-02 -7.90475309e-02
      1.57558322e-02 -4.29587141e-02 7.78633729e-02 1.64203808e-01
      4.46824618e-02 6.79092109e-02 7.74962753e-02 7.44159967e-02
      4.57061362e-03 1.44279450e-01 -1.27936583e-02 0. -1.79353178e-01
      -1.48215657e-02 5.68284802e-02 -5.71339093e-02 2.28785332e-02
      1.78337127e-01 1.17325202e-01 9.67661738e-02 -1.90185029e-02
      -1.90063138e-02 -4.47926298e-02 3.85997370e-02 1.24732397e-01
      5.75409271e-02 -2.87845526e-02 -5.73248900e-02 -9.60938260e-02
      -1.33476369e-02 -3.63926627e-02 -7.52562433e-02 8.53697956e-02
      8.61052796e-03 7.47409314e-02 1.35211602e-01 4.19435538e-02
      -3.37872794e-03 -1.96377616e-02 2.70959735e-02 -7.40955072e-03
      4.97931316e-02 7.51495315e-03 0. -1.11471735e-01 4.57729548e-02
      9.04079303e-02 3.77965532e-02 2.77050119e-02 1.17761269e-01
      1.39082789e-01 2.28337198e-02 -2.69877501e-02 -5.29133826e-02
      -4.05717036e-03 -8.77484854e-04 7.63689503e-02 -3.59652145e-03
      2.61702240e-02 -9.61417481e-02 3.36699709e-02 -2.82962602e-02
      -2.30644736e-02 7.55240470e-02 7.45277554e-02 8.26022178e-02
      1.04182258e-01 1.61762103e-01 6.10185564e-02 5.49688041e-02
      -4.43307944e-02 3.07116099e-02 -6.94379350e-03 8.14883560e-02
      3.29711884e-02 0. 3.34818214e-02 -7.24060610e-02 2.00009141e-02
      -1.06751425e-02 6.35027885e-02 1.14549696e-01 1.74263507e-01
      6.98376596e-02 6.16227537e-02 2.03090142e-02 1.11851003e-02
      4.06976342e-02 5.64119667e-02 2.68989038e-02 -1.25597166e-02
      -3.46477740e-02 -2.48370878e-02 -7.78987259e-02 1.43064400e-02
      -2.66393330e-02 7.57917464e-02 5.18088229e-02 5.65526560e-02
      1.13063097e-01 1.10349104e-01 5.59200197e-02 4.70017781e-04
      7.51595199e-02 5.46713807e-02 7.50619620e-02 1.18272575e-02 0.
      -5.95506541e-02 -4.04197071e-03 1.41117230e-01 5.20440489e-02
      1.16392732e-01 7.38946050e-02 1.19691655e-01 9.80385169e-02
      -2.14670622e-03 -1.91673096e-02 -4.32872493e-03 5.98642118e-02
      1.05274960e-01 -3.64198834e-02 -4.57004905e-02 2.61046179e-02
      5.50969057e-02 1.44762313e-02 5.08035496e-02 6.90511195e-03
      1.37153447e-01 1.42117813e-01 6.21937737e-02 1.07245512e-01
      1.48150206e-01 1.22944102e-01 2.00371724e-02 1.41517952e-01
      1.02058120e-01 6.25211969e-02 1.94704104e-02 0. -6.94548190e-02
      -1.30538759e-03 6.93818331e-02 2.30830982e-02 7.77450651e-02
      6.50958270e-02 -2.67131664e-02 -7.20018847e-03 -9.50375348e-02
      -1.52540013e-01 2.53197365e-02 -2.79001370e-02 -1.34193944e-02
      6.28017560e-02 8.67432505e-02 1.06305778e-01 3.73894162e-02
      7.05579519e-02 -7.19281286e-02 1.27351601e-02 2.33973432e-02
      4.22966219e-02 1.22745246e-01 1.48098052e-01 6.89299479e-02
      3.27285826e-02 6.96771359e-03 1.35854453e-01 6.75004423e-02
      -2.43049804e-02 -7.02257901e-02 0. -4.85255197e-02 -2.50807814e-02
      1.10616073e-01 8.02611094e-03 1.63784981e-01 4.65746149e-02
      -8.83867219e-02 -3.47102284e-02 -7.79659227e-02 -1.80390656e-01
      8.48602727e-02 -3.22402711e-03 -1.09947324e-01 7.04593807e-02
      -5.93231842e-02 1.33505523e-01 4.32735644e-02 4.49221842e-02
      -7.92734027e-02 -5.68027515e-03 4.64504994e-02 -2.02798154e-02
      1.74258545e-01 6.48732856e-02 2.78351568e-02 -1.71156880e-03
      -3.61154377e-02 6.98028058e-02 -3.09352633e-02 3.16512510e-02
      -3.35288383e-02 0. -7.82208592e-02 1.38163613e-02 3.42185758e-02
      1.73907757e-01 4.99764606e-02 4.22690623e-02 -4.74228188e-02
      4.67406809e-02 6.49340916e-03 -1.57942697e-02 -3.67071405e-02
      -1.93103664e-02 -7.43758529e-02 1.11011518e-02 5.84318340e-02
      6.88966662e-02 -1.85725782e-02 -3.48097412e-03 -1.23459682e-01
      -4.68109623e-02 -3.26664522e-02 3.84820960e-02 4.57416214e-02
      7.70877451e-02 2.56806221e-02 -5.09122461e-02 -4.66898195e-02
      1.74646944e-01 5.44597469e-02 -1.48995686e-02 -1.14285834e-01 0.</_></support_vectors>
  <decision_functions>
    <_>
      <sv_count>1</sv_count>
      <rho>1.2259672995445134e+00</rho>
      <alpha>
        1.</alpha>
      <index>
        0</index></_></decision_functions></my_svm>
</opencv_storage>
