<?xml version="1.0"?>
<opencv_storage>
<my_svm type_id="opencv-ml-svm">
  <svm_type>C_SVC</svm_type>
  <kernel><type>LINEAR</type></kernel>
  <C>1.0000000000000001e-01</C>
  <term_criteria><epsilon>2.2204460492503131e-16</epsilon>
    <iterations>100000</iterations></term_criteria>
  <var_all>2688</var_all>
  <var_count>2688</var_count>
  <class_count>2</class_count>
  <class_labels type_id="opencv-matrix">
    <rows>1</rows>
    <cols>2</cols>
    <dt>i</dt>
    <data>
      -1 1</data></class_labels>
  <sv_total>1</sv_total>
  <support_vectors>
    <_>
      2.76322782e-01 3.11458372e-02 6.94755837e-02 4.48509492e-02
      1.81780279e-01 1.30695537e-01 -5.94398417e-02 -1.01453513e-02
      -5.63502079e-03 5.78731894e-02 6.82414100e-02 -4.45702262e-02
      4.32758555e-02 4.71644513e-02 5.96920587e-02 -3.38453837e-02
      8.80067796e-02 -3.25142555e-02 3.44358981e-01 1.55922502e-01
      -1.22572042e-01 5.81271667e-03 5.38693927e-02 2.12353259e-01
      -8.53308290e-02 1.26781622e-02 -1.24431830e-02 -1.79136887e-01
      1.03025652e-01 6.34197891e-02 4.42784816e-01 0. 3.45187813e-01
      -5.89889213e-02 -1.85938533e-02 -4.83833216e-02 -9.06662941e-02
      4.12356257e-02 6.75916374e-02 -1.74856886e-01 -2.38294110e-01
      -2.94331722e-02 -5.46005927e-02 -6.17236160e-02 1.07492000e-01
      -4.57624458e-02 -4.66640741e-02 1.14333984e-02 3.98675026e-03
      -2.49485746e-02 7.35652521e-02 -1.52688967e-02 -7.57417679e-02
      2.23065000e-02 -7.89614767e-02 3.54959071e-02 9.21397954e-02
      -2.02537224e-01 -1.59054980e-01 -1.88138515e-01 1.46416694e-01
      -2.22685069e-01 1.15449838e-01 0. 2.83434629e-01 -9.84463543e-02
      -7.67518580e-02 1.02366637e-02 1.64446607e-01 1.40022799e-01
      -1.40252978e-01 -2.41457850e-01 -4.07119235e-03 2.08410040e-01
      -1.88948780e-01 -7.69461645e-03 1.73365489e-01 1.99553877e-01
      -1.43225670e-01 -1.21599331e-01 -2.53326863e-01 -1.88927919e-01
      1.00615725e-01 -2.21253082e-01 2.45942827e-02 3.72681886e-01
      3.07650238e-01 1.90406173e-01 -1.76228836e-01 -2.97209263e-01
      -2.05151796e-01 -1.13838360e-01 4.11667302e-02 -1.12836607e-01
      5.10492995e-02 0. 1.79403231e-01 1.01803700e-02 -2.93097705e-01
      -2.20030639e-03 1.40543461e-01 9.38500538e-02 5.19082583e-02
      -8.39490891e-02 -1.08836204e-01 2.48592377e-01 -2.78526485e-01
      -1.20867625e-01 -4.17058878e-02 -3.58566977e-02 1.00178614e-01
      2.52864391e-01 -7.89860729e-03 -1.29920527e-01 2.51720212e-02
      -1.14815287e-01 -3.52559268e-01 3.94527763e-02 2.19393909e-01
      3.46270114e-01 3.34746122e-01 7.08779618e-02 -2.01060668e-01
      -4.32960652e-02 -1.07180197e-02 -7.34012350e-02 1.15470782e-01 0.
      -5.03480695e-02 -2.44202465e-01 -2.97537804e-01 -1.10764533e-01
      -4.29691225e-02 -3.96956839e-02 -1.89690754e-01 7.90381134e-02
      -1.27265364e-01 2.86236167e-01 -4.01530452e-02 5.24179414e-02
      1.71257123e-01 5.52785723e-03 -1.82155613e-03 9.53880548e-02
      -8.06380957e-02 4.00110669e-02 7.49589577e-02 -1.37221649e-01
      -2.85066366e-01 -5.09510897e-02 -1.55724809e-01 1.02403335e-01
      -9.30058435e-02 -3.94092128e-02 -6.98397681e-03 -1.41589358e-01
      -5.75317144e-02 -9.01964977e-02 5.58754466e-02 0. 1.59489870e-01
      5.67652658e-03 7.65553489e-02 -1.28897708e-02 1.35624930e-01
      1.16760083e-01 -1.58821866e-01 7.90093765e-02 3.87343131e-02
      2.17516363e-01 -2.30000705e-01 1.24842003e-01 -2.02927571e-02
      1.57460555e-01 2.76102703e-02 2.61697639e-02 1.89102218e-02
      1.20497219e-01 2.46067598e-01 -1.43087074e-01 1.10176660e-01
      1.31373992e-02 -3.33528109e-02 2.16297597e-01 -1.99571520e-01
      -3.57416235e-02 2.07917571e-01 2.20464349e-01 3.74003321e-01
      -1.47955075e-01 -3.03363092e-02 0. 1.10850118e-01 -9.82159153e-02
      -6.19339384e-02 -6.55630827e-02 4.70008813e-02 -1.12692083e-04
      -1.34406447e-01 -3.35964635e-02 9.50046778e-02 -1.31793439e-01
      -1.38943136e-01 1.03009611e-01 8.39367509e-02 9.52704921e-02
      -5.88481128e-02 8.57509673e-02 7.42370496e-03 -1.08244479e-01
      -4.04604524e-02 -1.54604524e-01 -1.11448422e-01 -3.22366543e-02
      6.88779280e-02 8.20896104e-02 -9.19725001e-03 2.73793675e-02
      -5.82301952e-02 -1.74788520e-01 -1.07492544e-01 3.86102051e-02
      1.47783086e-01 0. 1.14036128e-01 5.84745891e-02 -1.35594472e-01
      -1.37499571e-01 2.12491769e-02 1.24447405e-01 -1.51111320e-01
      -3.68042587e-04 4.30223979e-02 -1.48115426e-01 -2.01548133e-02
      1.27470553e-01 4.33781780e-02 3.73445041e-02 -2.84565806e-01
      1.20560220e-02 1.23412438e-01 -1.09885864e-01 1.00644352e-02
      4.93453443e-02 1.07202409e-02 -6.03435934e-02 -7.59342909e-02
      -1.60674661e-01 -1.86797544e-01 6.17080145e-02 -7.29503855e-02
      -5.05710840e-02 4.36575785e-02 -5.84300458e-02 -6.77817464e-02 0.
      -8.17553848e-02 3.37936789e-01 -9.04690772e-02 2.54094526e-02
      2.81710140e-02 -3.95120829e-02 2.03901738e-01 1.00250475e-01
      9.83949602e-02 1.51324287e-01 1.20450832e-01 5.14789410e-02
      -3.56824249e-02 -1.82794761e-02 -1.71991259e-01 -9.15208384e-02
      -8.31511021e-02 -8.51095766e-02 2.90727496e-01 2.54245847e-01
      1.42814457e-01 1.79687873e-01 5.16599119e-02 -7.05491230e-02
      9.85429212e-02 3.63551192e-02 8.18560719e-02 6.77474886e-02
      8.19877908e-02 1.02398153e-02 3.79408449e-02 0. 6.67608604e-02
      9.63255391e-02 1.21332556e-02 1.53098807e-01 -1.40110806e-01
      -9.95255858e-02 1.11858077e-01 3.89767322e-03 1.93486035e-01
      -7.33655244e-02 -5.57097271e-02 -1.13913007e-02 2.91566011e-02
      -1.79414645e-01 -3.95600684e-03 2.35598564e-01 8.84464979e-02
      1.70813203e-01 2.18921781e-01 6.69621900e-02 6.00888841e-02
      8.73799473e-02 -5.16979285e-02 1.05529390e-01 3.54833186e-01
      2.64636725e-01 3.28654498e-01 3.90261272e-03 1.05120488e-01
      4.66267765e-02 1.26295105e-01 0. 3.95943746e-02 -1.34376828e-02
      -3.80191766e-02 -1.20292440e-01 1.00357458e-02 7.83577934e-02
      -2.13414848e-01 -1.00865170e-01 -5.74101619e-02 1.00551113e-01
      -8.07514340e-02 3.16556841e-02 -5.91751225e-02 -2.43600741e-01
      -9.07447785e-02 -3.12583782e-02 1.84519365e-01 -4.02818881e-02
      9.46182013e-02 5.35449684e-02 1.94606779e-03 -1.32967740e-01
      -6.30880147e-02 -1.57255051e-03 -1.28884137e-01 1.32013252e-02
      -1.00403093e-01 -1.03125803e-01 -1.15177199e-01 -1.02481768e-01
      1.69497021e-02 0. 2.26566922e-02 -2.28301529e-02 -9.08091813e-02
      -9.93785039e-02 1.13666408e-01 5.31688482e-02 -7.92926028e-02
      2.81605478e-02 -1.31974101e-01 8.07555839e-02 -2.47984827e-01
      -4.14330838e-03 2.11814761e-01 1.78292189e-02 -5.52601442e-02
      -4.05534282e-02 -1.15257360e-01 1.32949546e-01 5.89266373e-03
      -1.58836052e-01 1.10949822e-01 1.47540435e-01 1.13933191e-01
      1.60174176e-01 -5.45726232e-02 -1.12603018e-02 -3.36759016e-02
      9.56014320e-02 1.40051186e-01 -1.69441000e-01 -1.72975212e-01 0.
      4.81669493e-02 -5.74660301e-02 6.57949457e-03 1.09052341e-02
      1.50845185e-01 1.68030094e-02 3.29610519e-02 -1.05849370e-01
      8.76492634e-02 -8.54347050e-02 1.32657206e-02 3.76862399e-02
      -9.51926485e-02 -1.21669449e-01 -1.65955275e-01 1.90115105e-02
      1.43378684e-02 6.49471879e-02 -3.22955288e-03 3.63869965e-02
      -1.29893035e-01 -1.29278228e-01 3.15467678e-02 4.39737253e-02
      6.88381568e-02 -3.54072340e-02 7.51140043e-02 -1.40216962e-01
      -1.16593830e-01 1.52922213e-01 4.33566943e-02 0. -4.82421815e-02
      -2.01384276e-01 7.98765123e-02 6.45001829e-02 1.96234137e-01
      -3.20104137e-02 -1.18846102e-02 2.43361861e-01 1.20064877e-01
      -1.41360864e-01 -1.25036940e-01 -1.02181658e-01 3.00008543e-02
      -4.43181358e-02 -5.46958819e-02 -1.04461357e-01 4.69799787e-02
      6.59136251e-02 3.25000174e-02 -2.17693999e-01 1.92283899e-01
      9.04124230e-02 1.27159759e-01 -1.36810452e-01 5.19910175e-03
      1.59095570e-01 1.32634357e-01 7.69579262e-02 1.10956589e-02
      -2.38196366e-02 -7.30229020e-02 0. -2.43223920e-01 -1.83552176e-01
      1.04310669e-01 2.71718293e-01 7.86219835e-02 8.66199583e-02
      1.10146791e-01 1.97351679e-01 9.02438685e-02 -1.21468306e-01
      2.39718035e-01 6.42297044e-03 1.96658567e-01 -1.48134500e-01
      -1.10411540e-01 2.47755013e-02 1.13979526e-01 1.46223502e-02
      -1.02081880e-01 4.60346378e-02 3.23543340e-01 4.27789330e-01
      2.73934007e-02 4.28759567e-02 1.11602761e-01 2.71829844e-01
      1.57553002e-01 2.57407188e-01 3.87369134e-02 4.88523580e-02
      -1.62892346e-03 0. -3.94679271e-02 6.57800883e-02 1.84634537e-01
      5.93353808e-02 -5.64183965e-02 9.51604322e-02 1.75620675e-01
      1.40812889e-01 -2.05363363e-01 -1.47782564e-01 7.78110027e-02
      5.01849204e-02 2.30749026e-02 -1.77639171e-01 -7.55318776e-02
      2.03292072e-01 -2.00020894e-02 1.30575329e-01 6.20624684e-02
      1.69047698e-01 2.99002141e-01 2.80087329e-02 -1.03280947e-01
      1.72935158e-01 3.25897455e-01 3.05875123e-01 8.62409547e-03
      -1.20482994e-02 1.90533660e-02 2.10359007e-01 1.08297123e-02 0.
      -1.85543388e-01 4.55228798e-02 1.68340728e-01 4.32035662e-02
      -8.94482154e-03 -6.98233861e-03 2.39203908e-02 5.61823882e-02
      -1.22202985e-01 -1.77739874e-01 4.58932109e-02 -9.33171734e-02
      -1.19027376e-01 1.96697757e-01 1.36080027e-01 7.57089183e-02
      -1.78349894e-02 -1.04969963e-01 -1.03977419e-01 1.55953556e-01
      1.47560999e-01 -4.15208824e-02 -4.14413475e-02 1.75163448e-01
      1.58231154e-01 2.85846025e-01 -8.20235908e-02 -1.24372587e-01
      -1.73392892e-02 7.36156479e-02 4.68771495e-02 0. -5.62975369e-02
      1.35836666e-02 -2.16823503e-01 -5.12283221e-02 3.17320228e-02
      4.16098498e-02 -9.43315998e-02 1.13632292e-01 3.95596027e-02
      -1.19190201e-01 7.41600767e-02 -1.30584361e-02 1.81529060e-01
      -1.35443546e-02 1.49439707e-01 -2.98810974e-02 2.71060709e-02
      -3.06042004e-03 -1.07785147e-02 1.37766957e-01 -9.53433812e-02
      1.11276731e-01 3.65415104e-02 2.01300070e-01 -6.34887144e-02
      -6.75601438e-02 1.09364070e-01 1.00136712e-01 1.14488952e-01
      -1.46230996e-01 -3.30694281e-02 0. -1.51016116e-01 5.22659859e-03
      -1.69284139e-02 -1.12718903e-01 1.44086912e-01 1.86950937e-01
      6.89590499e-02 -1.01001732e-01 -5.00328988e-02 -2.56088824e-04
      -8.88905451e-02 1.11405011e-02 2.26153154e-03 -2.47569215e-02
      -1.67513136e-02 1.03639007e-01 1.84037879e-01 4.72619459e-02
      2.00719293e-02 -8.62166658e-02 6.31280020e-02 -1.30180284e-01
      -9.04745683e-02 2.99054086e-02 3.35498191e-02 3.13731879e-02
      6.79633841e-02 -1.38660461e-01 -1.06682062e-01 2.36090451e-01
      9.93890986e-02 0. -4.56074476e-02 1.02087043e-01 9.48206857e-02
      -1.94472969e-01 -1.35619208e-01 2.37785676e-03 -1.51722208e-01
      -1.29300267e-01 -1.75135672e-01 8.15863386e-02 2.27127895e-01
      -2.40050675e-03 1.43839344e-01 -6.40063584e-02 5.44330440e-02
      -7.71616697e-02 2.28408072e-02 -1.92368049e-02 3.02635729e-01
      3.15687180e-01 3.00793856e-01 -7.27050826e-02 -2.12678835e-01
      -6.89083338e-02 -2.25954920e-01 -1.82916909e-01 -2.37534061e-01
      1.46342427e-01 -4.96357083e-02 -1.28220409e-01 -9.36666429e-02 0.
      -3.67487036e-02 6.63100854e-02 2.67175287e-01 -3.23829651e-02
      -2.07256883e-01 -9.80601460e-02 1.22964457e-02 -5.55093586e-02
      -3.78649712e-01 -3.92548501e-01 8.12559575e-02 -3.86700928e-02
      2.48833597e-02 -1.39672607e-02 -4.65261005e-02 -8.67575184e-02
      1.86153829e-01 3.86227071e-02 -1.31101564e-01 -2.25203838e-02
      2.38501057e-01 1.53206840e-01 -4.28783000e-02 -1.31507516e-01
      -5.52225560e-02 6.11804277e-02 -2.99332738e-01 1.15270674e-01
      -1.07784264e-01 -1.41152486e-01 -2.01206818e-01 0. -4.60779458e-01
      -2.50225604e-01 9.61034223e-02 8.23042355e-03 -2.23024815e-01
      -6.11959994e-02 -2.11437326e-02 1.07351013e-01 3.34284604e-02
      -2.29121178e-01 -3.83622460e-02 -1.62251797e-02 -2.69331746e-02
      -9.41932425e-02 -1.85672998e-01 -5.67009896e-02 1.46816224e-01
      7.54694343e-02 -1.26677096e-01 -2.59453356e-01 9.49291214e-02
      -5.87826632e-02 -2.24443421e-01 -1.37585297e-01 6.88332990e-02
      2.60177910e-01 -1.13490887e-01 -1.78320080e-01 -2.98844188e-01
      7.80260935e-02 -1.64740905e-01 0. -5.26603162e-02 -1.41103491e-01
      -3.72505188e-02 -1.11735597e-01 -1.00863867e-01 -1.06742159e-01
      -3.04266661e-01 1.70118749e-01 1.83326125e-01 -2.02140599e-01
      3.85796800e-02 -2.59690154e-02 -4.72240858e-02 4.27103601e-02
      4.07274514e-02 3.09909484e-03 1.11478709e-01 1.33642316e-01
      1.18640445e-01 -1.80024087e-01 -1.09331921e-01 -2.16796249e-01
      -1.81156784e-01 -3.34213413e-02 -1.08300537e-01 4.04740572e-01
      2.69829690e-01 -1.13809802e-01 -1.70844778e-01 1.48052752e-01
      -5.49156144e-02 0. 3.45836468e-02 -4.32781577e-02 -1.19497351e-01
      5.68207875e-02 1.11283652e-01 2.31380403e-01 -1.99068084e-01
      4.58392762e-02 1.15715778e-02 -1.28400214e-02 -3.50519121e-02
      6.19827509e-02 -1.91729137e-04 1.72143206e-02 -5.85259907e-02
      -9.45761204e-02 1.76946726e-02 -9.75650176e-03 7.92341456e-02
      1.10331867e-02 3.15837897e-02 2.37899506e-03 -6.38391227e-02
      1.99155062e-02 -1.48657367e-01 -4.84909303e-03 -6.72343373e-02
      2.65723795e-01 4.23787870e-02 -1.59724727e-01 -1.41030952e-01 0.
      -6.78299414e-03 1.67181611e-01 8.71285796e-02 -1.94678649e-01
      1.19295307e-01 2.70407379e-01 -1.10897705e-01 1.06627792e-02
      1.32928742e-02 -2.78482009e-02 -6.85949484e-03 -9.22911912e-02
      -1.98778227e-01 -6.58101067e-02 1.18534423e-01 -4.42280285e-02
      1.84739947e-01 9.11153182e-02 5.88815883e-02 -1.44267017e-02
      -1.07368998e-01 -2.88691014e-01 -2.71885656e-02 2.23650128e-01
      -1.13840915e-01 5.68180196e-02 -6.65902868e-02 -2.62253769e-02
      -2.32955337e-01 3.58484119e-01 4.88027819e-02 0. -8.54854062e-02
      9.60628465e-02 -1.20425604e-01 -1.17257006e-01 1.05525501e-01
      9.58632454e-02 -1.69760175e-02 4.24884353e-03 4.27074209e-02
      -2.17302173e-01 1.90657392e-01 -1.08490400e-01 -9.81516317e-02
      -1.07486352e-01 1.95736680e-02 -1.90330427e-02 1.21436596e-01
      9.50259268e-02 3.21349591e-01 1.23931579e-01 -1.23934820e-01
      -1.68817818e-01 -2.02373099e-02 1.15702040e-01 4.23556603e-02
      -7.49365333e-03 4.97913547e-02 1.62244171e-01 -3.19174565e-02
      1.58439986e-02 -2.02505887e-01 0. 1.92968041e-01 2.37421542e-02
      -1.47431985e-01 -2.22280234e-01 -2.10135043e-01 -2.47125819e-01
      -1.25511780e-01 -1.96779612e-02 -1.68304384e-01 8.55328608e-03
      -1.52219459e-02 -1.67789146e-01 1.43380910e-01 -1.53402546e-02
      3.55621576e-02 2.73650110e-01 2.99398210e-02 1.90571234e-01
      3.43761861e-01 -2.66961396e-01 -1.76971734e-01 -1.26343817e-01
      -2.57273227e-01 -1.20562084e-01 9.16629508e-02 7.58950645e-03
      -5.48669137e-02 5.49020730e-02 -1.92021094e-02 -5.73048592e-02
      -1.86023697e-01 0. 2.62982566e-02 -4.57034148e-02 7.71506429e-02
      -1.30784869e-01 -2.43213609e-01 -2.00347185e-01 -2.60875404e-01
      -1.57158986e-01 -8.03177282e-02 -6.19034283e-02 9.36857015e-02
      -1.05185911e-01 2.01878130e-01 -6.43871278e-02 9.30981338e-02
      7.99218938e-02 1.04481131e-01 3.47361788e-02 3.81279618e-01
      -5.03754094e-02 3.31373955e-03 5.01872972e-02 -3.05772424e-01
      -1.83656096e-01 -1.92895159e-01 -7.84597769e-02 -2.14602128e-01
      -1.00452185e-01 -1.86089680e-01 4.52198051e-02 -5.97269572e-02 0.
      -2.95722216e-01 9.63471383e-02 4.94957864e-02 1.21595122e-01
      4.26681787e-02 4.61282395e-02 -1.24337710e-01 -9.83092710e-02
      1.07890502e-01 -7.88891688e-02 1.82944745e-01 4.36947234e-02
      5.51775545e-02 -1.08328406e-02 -1.82217091e-01 -5.12798280e-02
      -1.83473565e-02 4.17637937e-02 2.36549437e-01 8.71608704e-02
      -4.95629199e-03 1.76008493e-01 2.51772795e-02 -1.34092331e-01
      -1.06362030e-01 2.14429442e-02 1.71869919e-01 -2.26650350e-02
      -1.40287995e-01 9.70542654e-02 3.18496935e-02 0. 2.50837374e-02
      5.12982309e-02 -6.53071180e-02 -9.02120471e-02 1.80344418e-01
      1.74646184e-01 -1.81268662e-01 -3.58062312e-02 1.60410345e-01
      -7.10598528e-02 2.13018581e-01 5.07116914e-02 6.30859286e-02
      1.03000544e-01 -1.07539082e-02 -1.46733031e-01 7.40225911e-02
      -9.39470064e-03 1.64778113e-01 4.38377783e-02 -1.03581995e-01
      -3.30706015e-02 8.74193311e-02 8.03045854e-02 -2.44546592e-01
      -7.06039518e-02 7.29674622e-02 3.36063743e-01 1.39051199e-01
      -6.52358979e-02 -1.81209221e-01 0. 3.86931412e-02 -1.00536272e-01
      -8.36289376e-02 6.71913996e-02 2.68449157e-01 1.94280714e-01
      -1.09310232e-01 -1.14913970e-01 4.83728424e-02 -5.63518424e-03
      1.91925824e-01 -2.07467914e-01 1.13572434e-01 -9.90248844e-02
      -3.84261832e-02 -5.41336127e-02 9.09565836e-02 1.15899548e-01
      6.24224693e-02 1.21590681e-01 -2.36128986e-01 7.60381073e-02
      5.37557565e-02 1.69257566e-01 -9.35983807e-02 -1.13263816e-01
      1.83520652e-02 -2.70822942e-02 -2.00761333e-01 2.63645858e-01
      1.13284893e-01 0. -2.59511054e-01 5.71167506e-02 1.33324236e-01
      6.11203387e-02 -1.41975759e-02 5.41500226e-02 6.69169575e-02
      5.23667084e-03 -4.95123677e-02 -1.79643258e-01 1.14429034e-01
      -1.83380879e-02 8.80918279e-02 -1.05563119e-01 -2.22084120e-01
      -9.25960913e-02 5.06135896e-02 -4.21044081e-02 5.76135740e-02
      1.87023550e-01 1.29932955e-01 5.20028435e-02 1.04562333e-02
      -6.05346225e-02 -1.53960958e-02 3.31020053e-03 -1.91695802e-02
      1.11390367e-01 -4.27706614e-02 -3.55686657e-02 -1.99243426e-01 0.
      -2.99392492e-01 1.98237598e-01 1.74771786e-01 1.71287894e-01
      -1.65617689e-01 7.53037483e-02 3.92419994e-02 5.12109436e-02
      2.73822080e-02 -1.45838596e-02 -5.85836079e-03 -2.01183736e-01
      8.10776204e-02 -8.16682205e-02 -3.11919786e-02 9.41673517e-02
      -1.82937801e-01 -8.63104686e-03 3.47969420e-02 -5.72897829e-02
      -7.10827261e-02 1.41238466e-01 -1.10004917e-01 1.51335895e-01
      6.90833805e-03 2.17828937e-02 -3.12069189e-02 1.50693685e-01
      -2.15881392e-02 2.83426866e-02 -1.94398463e-01 0. -1.32832974e-01
      1.62470147e-01 6.92432895e-02 1.16927966e-01 3.09836343e-02
      -1.19558536e-01 5.80722541e-02 4.15757336e-02 -3.34530696e-02
      -3.64035636e-01 -4.35233787e-02 -8.55110660e-02 1.40459631e-02
      -1.44842297e-01 -1.05994195e-01 1.30815044e-01 -1.84953716e-02
      8.10056343e-04 -2.94588581e-02 -2.11770330e-02 1.98469888e-02
      5.06698489e-02 -1.18100017e-01 -1.07947811e-01 1.08565666e-01
      -2.52380352e-02 -7.30174184e-02 -2.37787031e-02 -2.28268921e-01
      1.05910406e-01 -5.34075759e-02 0. -2.46267289e-01 -4.45256121e-02
      2.19027530e-02 2.98883487e-02 -4.68183532e-02 -3.33573036e-02
      -7.50499144e-02 1.26199707e-01 1.79618821e-01 -9.05319303e-02
      -6.86520897e-03 -1.66742414e-01 -1.04661867e-01 -1.86945096e-01
      -1.08362436e-01 5.92549741e-02 4.16046791e-02 7.08348379e-02
      1.39712572e-01 -7.84943998e-02 -4.62939627e-02 -2.49524065e-03
      -1.51851162e-01 -4.02678028e-02 -8.67631361e-02 1.48206785e-01
      2.48678967e-01 -5.85654490e-02 -2.38560244e-01 8.81478935e-02
      -6.48223087e-02 0. 4.48498502e-02 1.49317369e-01 5.16469777e-02
      1.56167187e-02 1.11139111e-01 2.15478927e-01 -6.68416619e-02
      -1.09460987e-01 -8.05642605e-02 -4.83184941e-02 -5.05634919e-02
      -6.14247695e-02 -7.04396591e-02 -1.76451299e-02 1.02280475e-01
      1.55035809e-01 -6.33239597e-02 8.42780247e-02 -1.54703334e-02
      7.07861558e-02 -5.72754443e-02 -9.09077004e-02 2.60948241e-02
      1.69428438e-01 6.30365908e-02 -1.17717236e-01 -5.09197265e-03
      2.99285024e-01 1.14718422e-01 -2.25421488e-02 -2.21257240e-01 0.
      -4.93577756e-02 4.50841151e-03 -2.41844840e-02 2.09728479e-01
      -5.28846718e-02 -6.34549782e-02 7.73786902e-02 8.30800533e-02
      1.50998205e-01 -7.82702640e-02 -5.98651869e-03 -7.01189935e-02
      4.74486351e-02 -6.78978255e-03 -1.53446076e-02 -1.23720400e-01
      -4.38823290e-02 2.50983715e-01 1.54160066e-02 1.01385519e-01
      -8.76918733e-02 1.71143174e-01 -2.49655247e-02 -4.58254293e-02
      -2.82485541e-02 5.02111278e-02 1.23687677e-01 -7.15455636e-02
      -1.39237136e-01 2.04453573e-01 1.43096998e-01 0. 7.35169798e-02
      9.62206200e-02 9.46541801e-02 -1.11451879e-01 -1.22013621e-01
      -2.34690279e-01 -2.93327775e-02 8.27079043e-02 1.67001992e-01
      1.15620736e-02 9.67282504e-02 -5.12908399e-02 -1.20850995e-01
      -6.32375255e-02 7.71629140e-02 5.64624108e-02 -1.80234909e-01
      -8.57819095e-02 2.47251958e-01 5.06508797e-02 1.85908154e-01
      -1.78050935e-01 -4.97580543e-02 3.79475541e-02 7.54871666e-02
      4.27502720e-03 1.12416677e-01 5.60512133e-02 1.75687093e-02
      -3.46951820e-02 -1.53412476e-01 0. -2.56239057e-01 1.02808371e-01
      7.38161802e-02 4.02544960e-02 -8.82346332e-02 1.62212700e-01
      4.58741486e-02 -1.23749614e-01 -8.60072225e-02 -2.16950059e-01
      1.23569155e-02 3.49524580e-02 -9.31575596e-02 5.80058340e-03
      4.02732864e-02 1.48935899e-01 3.80638950e-02 1.19896762e-01
      -6.41474649e-02 -1.55957639e-02 5.49141467e-02 -2.47212555e-02
      2.46641904e-01 3.36424619e-01 1.62787884e-01 1.85718089e-01
      -4.02895659e-02 1.37362942e-01 -3.17994282e-02 1.77240092e-02
      -1.41715750e-01 0. -2.16380551e-01 -1.06162563e-01 5.25063314e-02
      1.66585185e-02 -5.60927391e-02 -9.29691195e-02 1.05339944e-01
      3.33305821e-02 -1.04613733e-02 -2.04137400e-01 -2.80377306e-02
      -7.61932507e-02 8.27044472e-02 1.03123993e-01 -1.34037156e-02
      1.47101050e-02 6.27347007e-02 5.29654771e-02 -9.63318497e-02
      -1.28655985e-01 1.49739310e-01 1.18808851e-01 3.74003977e-01
      1.46524906e-01 9.54426080e-02 1.27827123e-01 -9.10947248e-02
      -1.05716689e-02 -1.63457185e-01 1.06422082e-01 -6.42741323e-02 0.
      -1.82098188e-02 9.15424600e-02 1.02086514e-01 -5.56084216e-02
      -5.91134019e-02 -4.63057421e-02 -1.70835242e-01 9.58240032e-02
      1.40594244e-01 -1.60094518e-02 -1.32652864e-01 -2.15147004e-01
      4.24922891e-02 -9.17155147e-02 -1.95215523e-01 4.01271470e-02
      -4.17730846e-02 1.28307655e-01 3.38532180e-01 2.58687530e-02
      5.94290234e-02 1.04494289e-01 4.68391068e-02 -3.75566818e-02
      -1.17958374e-01 1.84216291e-01 1.95993021e-01 -5.32615967e-02
      -1.70621142e-01 6.15623146e-02 -2.69993544e-02 0. 1.71999857e-02
      1.09693833e-01 -7.64326081e-02 -1.48953125e-01 1.02764759e-02
      -7.11882189e-02 -4.75331880e-02 -9.74404439e-02 4.76717874e-02
      -1.39731586e-01 2.88632482e-01 1.99446958e-02 2.36808509e-03
      1.06636547e-01 1.94583810e-03 7.16753080e-02 -1.63875610e-01
      1.53343514e-01 1.17816396e-01 2.27680609e-01 -6.76104240e-03
      -7.00124428e-02 -3.73497535e-03 7.66844302e-03 1.67302936e-02
      -1.29112586e-01 1.08879782e-01 1.21189781e-01 1.27637461e-01
      -8.51549432e-02 -1.23964466e-01 0. -4.12650555e-02 -7.86286369e-02
      3.40143517e-02 -3.29023711e-02 -8.20360705e-03 -1.45671982e-02
      8.25642347e-02 3.10966112e-02 1.01117780e-02 1.53300902e-02
      -1.28642619e-01 -1.94242939e-01 5.64014539e-02 -3.02720107e-02
      7.34696910e-03 -6.94555044e-02 9.94430408e-02 3.70979123e-02
      9.38602984e-02 -7.59773254e-02 -2.02127308e-01 -1.30731389e-01
      8.94291103e-02 -9.64194685e-02 -1.14770122e-01 -1.04333414e-02
      -8.87103155e-02 -2.45957732e-01 -2.08952233e-01 2.34295204e-01
      1.14656478e-01 0. -4.02663043e-03 6.37239516e-02 7.24979937e-02
      7.37540871e-02 2.90101599e-02 3.33330110e-02 1.00562714e-01
      -1.04145415e-01 1.01549610e-01 -6.82928935e-02 9.58869830e-02
      -7.77608296e-03 -9.83556733e-02 -2.00933740e-01 1.37990741e-02
      1.02045298e-01 -1.35116920e-01 -3.69696282e-02 3.46135348e-01
      7.34425411e-02 -6.07841974e-03 -3.71093638e-02 -1.33642321e-02
      2.57647932e-01 2.07025543e-01 -1.22490257e-01 1.90391108e-01
      2.06748936e-02 1.07850403e-01 -6.51984066e-02 -4.89275381e-02 0.
      -3.59378606e-01 5.76465502e-02 6.87118322e-02 4.47829487e-03
      -1.70482934e-01 -5.60611337e-02 3.46160531e-02 2.09105983e-01
      3.55703500e-03 -1.72266096e-01 3.59562077e-02 -1.81588903e-01
      -3.58676575e-02 -2.10941911e-01 1.68801352e-01 1.11607179e-01
      -3.27789992e-01 -4.58946191e-02 1.61593050e-01 4.60183360e-02
      -1.69093117e-01 -1.17413979e-02 -1.14080362e-01 1.95258483e-01
      1.61511630e-01 1.47108838e-01 4.59671579e-02 -5.69260120e-02
      -4.25632484e-02 -1.49707586e-01 -1.58937231e-01 0. -1.12270370e-01
      2.37382621e-01 1.33452743e-01 1.08983397e-01 -5.76038137e-02
      -9.79479477e-02 6.77412748e-03 1.35199726e-02 -8.47207382e-03
      -2.40182385e-01 -8.96599740e-02 -3.34076583e-01 7.21101910e-02
      1.46355569e-01 -1.88454077e-01 -1.42849818e-01 -1.56131014e-01
      -8.29560980e-02 1.57032475e-01 1.14742160e-01 -1.17818654e-01
      1.71709314e-01 2.62253940e-01 -4.69650589e-02 -1.50033340e-01
      -1.06025465e-01 -3.26939262e-02 -1.65701360e-01 -1.78433686e-01
      -3.80041711e-02 8.77842586e-03 0. -1.34215459e-01 6.95189908e-02
      9.61489901e-02 5.45141809e-02 4.98398989e-02 9.03241038e-02
      8.22880790e-02 -7.83922300e-02 -7.37617463e-02 3.02438787e-03
      -3.58146392e-02 -9.30612236e-02 6.85399920e-02 5.83797619e-02
      -1.96977183e-01 -1.45950720e-01 1.75123252e-02 -9.42403171e-03
      3.30286980e-01 2.22509071e-01 4.18526493e-02 1.59307539e-01
      3.38629186e-01 -6.40867278e-02 -1.54063478e-01 -2.07280852e-02
      -6.70289695e-02 -1.00236699e-01 -5.62867038e-02 -2.35419571e-02
      9.63887572e-02 0. -7.34002590e-02 1.19921483e-01 -1.22756198e-01
      -2.10696738e-02 -2.64502820e-02 1.59716100e-01 2.04718560e-02
      -2.74122227e-02 2.46508848e-02 -2.87930779e-02 2.10758597e-01
      1.95921093e-01 9.41391811e-02 -8.26585516e-02 2.86111478e-02
      7.46474713e-02 -2.50755370e-01 -1.46471947e-01 1.09337948e-01
      1.64554507e-01 2.54864129e-03 4.14634962e-03 7.16067925e-02
      2.34306559e-01 -6.67384639e-02 -1.64058954e-01 1.02719152e-02
      2.65398979e-01 1.11230016e-01 -2.12608427e-01 -9.37488303e-02 0.
      7.38392174e-02 1.25300631e-01 3.80221047e-02 3.44748460e-02
      1.93882003e-01 -8.75129104e-02 -7.37801567e-02 2.75970530e-02
      -1.79566979e-01 -5.15289530e-02 -1.69972241e-01 -6.88310713e-02
      8.04725364e-02 -8.71371198e-03 -1.42224282e-01 4.94588055e-02
      1.71457566e-02 1.93049207e-01 1.02399930e-01 -2.17382144e-03
      -4.89684418e-02 7.12535754e-02 5.07843085e-02 -1.12697154e-01
      -1.18773684e-01 -1.00451540e-02 -4.15382981e-02 -1.39121518e-01
      -2.71697193e-01 2.86196828e-01 1.48716018e-01 0. -2.29650095e-01
      1.36073843e-01 -1.69296131e-01 -1.05519138e-01 4.34808284e-02
      -1.69835761e-02 1.08220868e-01 -9.01980475e-02 -1.83361843e-02
      1.17601715e-01 1.32727131e-01 2.03087237e-02 6.43196627e-02
      1.19873628e-01 -6.17578218e-04 -1.03985742e-01 -5.97255565e-02
      5.50053976e-02 1.92576438e-01 8.24125409e-02 -2.53215253e-01
      -1.24371417e-01 5.46905547e-02 5.90255819e-02 -1.05650976e-01
      -2.41585091e-01 8.62487033e-02 1.13968756e-02 -2.23328657e-02
      1.22908562e-01 -1.10417135e-01 0. -2.08129898e-01 6.15055338e-02
      8.66814703e-02 9.16263647e-03 -5.42865954e-02 -1.11849740e-01
      2.99559813e-02 5.70295230e-02 2.55613010e-02 1.15643322e-01
      3.11602764e-02 1.45631097e-02 -4.78906594e-02 -8.73219445e-02
      -5.78650236e-02 -1.42661169e-01 -1.85285702e-01 1.79703414e-01
      3.26587349e-01 6.78823143e-02 -6.89268485e-03 -3.53740454e-02
      1.44246919e-02 9.06391516e-02 -1.19081952e-01 -4.06909510e-02
      1.29439518e-01 5.47067076e-02 -2.59518791e-02 -6.64244518e-02
      -9.63608176e-02 0. 6.34461315e-03 2.82457113e-01 1.06165439e-01
      9.44391787e-02 -6.83593899e-02 -1.24821067e-01 -4.48374189e-02
      1.45409063e-01 5.43697290e-02 -1.41716048e-01 -1.13381306e-02
      -1.34427637e-01 -2.13750243e-01 -1.76781565e-02 6.65702894e-02
      -1.13191791e-01 -3.63933779e-02 -3.00682504e-02 2.24250868e-01
      1.62291601e-01 -8.03550556e-02 -1.52002111e-01 5.40963858e-02
      1.12571940e-01 -1.82384625e-01 4.98739667e-02 7.20143616e-02
      -2.64771227e-02 -1.26749858e-01 7.82300904e-02 -1.02445250e-02 0.
      -8.06645155e-02 -8.41797609e-03 -1.03189163e-01 1.58131808e-01
      -2.42204200e-02 -6.41924068e-02 -5.37403710e-02 4.75800671e-02
      -3.85331921e-02 -3.22418541e-01 4.06137928e-02 4.85730246e-02
      -1.44446924e-01 1.00030527e-01 1.03703491e-01 -7.77595267e-02
      4.33608256e-02 8.99247900e-02 2.32547283e-01 1.79133415e-01
      -2.09440753e-01 -4.53057028e-02 1.18430838e-01 1.07044657e-03
      -1.73772722e-01 -5.64194918e-02 -3.89271565e-02 -8.51924717e-03
      -1.78733081e-01 9.82127115e-02 -4.56227772e-02 0. 2.60685124e-02
      2.24329662e-02 -8.38801637e-02 -2.95632537e-02 -2.17140466e-01
      1.67626888e-01 1.49072018e-02 8.65532234e-02 9.93231684e-02
      -1.54418930e-01 1.93033423e-02 1.42563498e-02 -3.35925184e-02
      1.06465079e-01 -2.08841693e-02 1.12313077e-01 -3.53417136e-02
      2.90815737e-02 1.49979085e-01 -4.04213630e-02 -1.32555112e-01
      -9.69282612e-02 6.08146451e-02 1.59395263e-01 5.97976968e-02
      3.74537073e-02 1.35559842e-01 1.89922422e-01 2.28558198e-01
      -1.04633994e-01 -2.55623937e-01 0. -3.02017301e-01 -1.05963454e-01
      5.09873107e-02 4.06058989e-02 1.16546929e-01 1.70407519e-01
      1.29204504e-02 7.63510540e-02 1.25391902e-02 -3.25097799e-01
      -5.44156367e-03 -8.23910981e-02 7.75629207e-02 4.03708480e-02
      -6.21567555e-02 -4.09064756e-04 1.05933761e-02 1.05061062e-01
      -9.77807939e-02 1.30310273e-02 -1.14046238e-01 3.09185069e-02
      1.93871334e-02 1.48999900e-01 -8.76584947e-02 3.62807252e-02
      1.12942792e-02 -1.47168532e-01 -2.34699726e-01 1.58827409e-01
      1.43124163e-01 0. -3.09554666e-01 1.73885569e-01 1.48122728e-01
      -3.70730460e-02 -1.79803558e-02 8.17622989e-02 4.99719121e-02
      7.46332407e-02 1.24956265e-01 -2.17358723e-01 1.00629829e-01
      6.55008778e-02 -1.99945837e-01 4.71218601e-02 -9.04912949e-02
      -3.04722458e-01 -1.40502185e-01 -5.57133183e-02 1.19526684e-01
      3.40540637e-03 9.33283381e-03 -2.26485759e-01 1.74100921e-01
      1.06072843e-01 -2.34104425e-01 -1.37573704e-01 -1.18014356e-02
      -6.11678697e-02 -1.70849115e-01 8.50936174e-02 -9.19620544e-02 0.
      1.13571417e-02 1.97649628e-01 2.07843587e-01 -1.08365461e-01
      -1.07138254e-01 1.00329831e-01 1.02521904e-01 3.56677882e-02
      3.32846195e-01 -2.06971511e-01 4.86558378e-02 1.40308857e-01
      -9.68293548e-02 -6.39191046e-02 -1.01345800e-01 -4.02713604e-02
      -1.05400681e-01 7.40473568e-02 2.42618486e-01 1.37034923e-01
      2.99871743e-01 -2.08569750e-01 -2.18012720e-01 -1.02989621e-01
      -5.08056022e-02 -4.29101847e-02 2.30544984e-01 6.71371222e-02
      1.14200115e-01 5.88461868e-02 -4.17303592e-02 0. -2.48610124e-01
      2.78192937e-01 1.69183407e-02 2.86305901e-02 1.05216362e-01
      -4.36067628e-03 -1.80909976e-01 1.59271300e-01 1.64295509e-01
      -2.56683119e-02 9.29150879e-02 -2.11938426e-01 -1.33408815e-01
      -2.41616353e-01 1.64551102e-02 -4.11682762e-03 -4.89107184e-02
      1.90015528e-02 1.17002666e-01 2.41791308e-01 -1.46561116e-01
      -1.28498137e-01 -2.24269822e-01 -1.02108352e-01 -2.38611385e-01
      1.48524776e-01 1.18002251e-01 -6.47730827e-02 -8.82088542e-02
      9.65497550e-03 4.02584001e-02 0. -1.91616789e-01 3.55969295e-02
      -1.86449029e-02 1.65548056e-01 4.25543599e-02 -1.28803179e-01
      -3.61363664e-02 2.30239257e-01 5.06214648e-02 -1.60355791e-01
      4.46394272e-03 -8.65974799e-02 -2.38615081e-01 -4.15925793e-02
      7.22307935e-02 -3.26781496e-02 2.90738139e-02 2.12920383e-01
      1.73050731e-01 -1.70151293e-02 -2.51640171e-01 -6.91106841e-02
      -1.52871441e-02 -5.68792820e-02 -1.44266561e-01 -6.18754746e-03
      1.73075590e-02 -9.59075615e-03 -9.40082446e-02 5.04120104e-02
      9.91654675e-03 0. -3.86243388e-02 1.12280123e-01 3.08057573e-02
      2.15744302e-01 -1.39080174e-02 -1.79718249e-02 6.79867342e-02
      -2.19413247e-02 4.94621396e-02 -1.71125770e-01 2.26077251e-02
      1.01447618e-02 -1.29895478e-01 5.36800288e-02 3.52122560e-02
      -5.60626686e-02 -1.02075025e-01 2.96318922e-02 -4.05136608e-02
      4.86411061e-03 -4.90081385e-02 -4.06047925e-02 -4.34479937e-02
      -1.43226692e-02 -1.00752510e-01 -2.59634227e-01 9.05178562e-02
      1.23567581e-01 2.04447180e-01 -1.25040919e-01 -1.67170405e-01 0.
      -2.23279938e-01 -1.24414163e-02 4.92166355e-02 3.41526344e-02
      1.24137282e-01 1.53791904e-01 2.94251135e-03 1.89674534e-02
      1.48799241e-01 -1.21030226e-01 3.47741134e-02 2.26695486e-03
      1.01718061e-01 1.06511623e-01 -8.49941224e-02 -1.35668712e-02
      -9.32933390e-02 2.13085162e-03 1.02780014e-01 5.85371554e-02
      -7.43647069e-02 1.03191391e-01 6.96471252e-05 1.34186581e-01
      -1.06159300e-01 -7.54526705e-02 9.08871293e-02 -1.33971900e-01
      -1.96468323e-01 2.92668819e-01 1.46572098e-01 0. -2.83721954e-01
      9.92532670e-02 3.74524109e-02 1.15914889e-01 1.77169666e-01
      1.64972022e-01 -2.80833151e-02 4.92651910e-02 2.37561256e-01
      -1.03671312e-01 -2.31603701e-02 2.23248657e-02 -6.71740323e-02
      1.19598815e-02 -1.53196245e-01 -1.82754576e-01 -1.08889900e-01
      -1.97981894e-01 3.33658814e-01 2.80696265e-02 -1.10278815e-01
      -2.94562485e-02 2.40382284e-01 1.19198062e-01 -2.48811603e-01
      -9.87463817e-02 3.53148729e-02 -1.13572098e-01 -9.60247144e-02
      4.81547564e-02 5.17189540e-02 0. 4.46995441e-03 1.78568467e-01
      1.66010678e-01 -5.47096059e-02 -8.86887163e-02 -1.33278266e-01
      -3.89223062e-02 6.62862360e-02 1.88226506e-01 1.12507176e-02
      -2.93106481e-04 3.61967757e-02 8.16578120e-02 -2.71401759e-02
      -1.37936398e-01 -6.39276728e-02 -2.44131818e-01 -1.32365222e-03
      1.45788923e-01 2.07159985e-02 7.93866720e-03 -4.21923697e-02
      2.60997307e-03 -7.98581317e-02 -1.17527217e-01 -1.71345487e-01
      2.21410487e-02 -7.33441189e-02 5.89114800e-02 -1.49252266e-02
      2.16532755e-03 0. -1.64559975e-01 1.50006503e-01 -7.74388835e-02
      -4.10845280e-02 -5.14947250e-02 -1.87521845e-01 -6.99937418e-02
      -8.49860236e-02 4.69829142e-02 1.18314382e-02 7.57711604e-02
      -2.69069761e-01 -1.32356733e-02 -1.99995384e-01 -4.08239514e-02
      -1.50292544e-02 7.69457296e-02 1.04355782e-01 1.22865915e-01
      2.95380522e-02 -2.68613070e-01 -8.76971856e-02 -8.69792998e-02
      -4.84448820e-02 -1.67360649e-01 -1.29970282e-01 -5.37783327e-03
      -8.03811774e-02 -1.23004004e-01 -1.21519126e-01 -2.83347182e-02 0.
      -6.09852858e-02 -1.01816701e-02 -1.05057918e-01 -7.94968009e-02
      -7.18456805e-02 9.82025079e-03 2.38174796e-01 1.91028584e-02
      -4.30064090e-02 -3.87046754e-01 1.08919427e-01 -1.23040825e-01
      -1.07728787e-01 -8.41138735e-02 -4.30609174e-02 7.11679161e-02
      4.22130860e-02 1.33842826e-01 8.37262794e-02 5.20460913e-03
      -2.23129272e-01 -1.31934196e-01 5.55247888e-02 1.48854285e-01
      2.36135200e-01 -3.21274176e-02 1.08603448e-01 -8.08132254e-03
      -1.35398865e-01 -3.24020423e-02 -5.61991893e-02 0. -6.30678460e-02
      -1.26339138e-01 -2.78504170e-03 7.62010887e-02 -7.49461129e-02
      1.07333727e-01 7.86042884e-02 1.82739329e-02 -6.59709738e-04
      -6.89368770e-02 2.67311651e-02 -1.03723817e-02 -1.28934542e-02
      6.37039095e-02 2.86481306e-02 -2.05469020e-02 -1.54167097e-02
      -9.76269320e-02 6.57677301e-04 -8.63096341e-02 -3.13184485e-02
      2.63402574e-02 8.13209638e-03 2.39924058e-01 -4.80842851e-02
      -1.56143412e-01 -4.59056348e-02 1.78280875e-01 7.04971850e-02
      -9.38602760e-02 -1.99274078e-01 0. 4.83346079e-03 1.61436312e-02
      -1.01372316e-01 -2.32341681e-02 -1.61659587e-02 2.12811127e-01
      1.71637043e-01 1.10669978e-01 6.55134022e-02 -1.42335564e-01
      -7.68864229e-02 -1.45271411e-02 1.99136604e-02 4.97502536e-02
      -1.70470953e-01 -7.98490345e-02 -3.16904538e-04 1.90989133e-02
      1.52025595e-01 -3.49989310e-02 -1.99771002e-01 -5.21861985e-02
      -7.11020157e-02 -3.19596380e-02 1.39537424e-01 2.69799232e-02
      4.40378673e-02 -2.03871384e-01 -3.30109656e-01 3.89328748e-01
      1.65965661e-01 0. -2.86121488e-01 3.41084152e-02 -1.06749348e-02
      1.22896455e-01 -5.05029340e-04 4.46968079e-02 3.39601226e-02
      -2.03160439e-02 1.20187148e-01 -1.06323689e-01 2.38332406e-01
      5.84923364e-02 -8.11721757e-02 -1.14551850e-01 9.62106287e-02
      -2.00766195e-02 3.75504568e-02 -1.20816879e-01 6.81743249e-02
      1.17811956e-01 -8.40404928e-02 -3.28550668e-04 3.30616161e-02
      1.10689759e-01 -1.17989250e-01 -7.47939572e-02 -7.96637014e-02
      -3.17660160e-02 -1.22906752e-01 1.48129970e-01 1.87407453e-02 0.
      -7.10090995e-03 1.25995278e-01 6.56294003e-02 1.42222315e-01
      -3.44536938e-02 -9.87824351e-02 -4.63759527e-02 -1.77749246e-02
      7.56576136e-02 1.53783813e-01 1.28929794e-01 4.47671935e-02
      -1.77182034e-01 9.43210423e-02 -2.22644676e-03 4.18805704e-02
      -5.00169247e-02 -6.77609118e-04 3.23496133e-01 1.22587651e-01
      1.33977965e-01 -4.88215536e-02 6.23459220e-02 -6.02559000e-02
      -1.10888615e-01 -5.00952601e-02 1.28816411e-01 9.40326601e-02
      -3.89078371e-02 1.45282879e-01 6.34648185e-03 0. 7.66697749e-02
      1.13892205e-01 -4.03109640e-02 6.19037859e-02 -6.86433166e-02
      -3.60368676e-02 8.27610940e-02 -4.64676553e-03 1.75797194e-01
      5.35147972e-02 7.84366503e-02 1.23471860e-02 -6.22321926e-02
      1.87116731e-02 4.19165120e-02 1.09182835e-01 -6.00667559e-02
      -1.03484686e-04 4.04674917e-01 7.26659670e-02 -4.20917310e-02
      -8.44523162e-02 -9.95169356e-02 1.33653432e-02 3.04995254e-02
      -2.13956255e-02 1.40570089e-01 1.07320726e-01 4.55748513e-02
      9.89621356e-02 8.87039304e-03 0. 2.69481074e-02 1.46438003e-01
      -3.80204781e-03 6.08470775e-02 5.56179322e-02 -1.58875912e-01
      2.04862934e-02 1.81712866e-01 9.03591886e-02 -4.21968073e-01
      -6.02326877e-02 -5.84765933e-02 -8.15652013e-02 2.36450788e-02
      -1.37091041e-01 1.67354003e-01 8.40983167e-02 1.78061292e-01
      9.28278938e-02 3.23146470e-02 -5.51018417e-02 -1.14987396e-01
      7.72171617e-02 -2.05351543e-02 8.49168524e-02 1.70855761e-01
      1.38337255e-01 8.97429660e-02 -8.91140625e-02 6.04479052e-02
      -7.54622649e-03 0. -3.53433937e-02 -6.87173083e-02 -4.08257917e-02
      2.06126735e-01 6.92715272e-02 3.55005823e-02 2.12341268e-03
      -3.30644101e-02 1.45614535e-01 3.78126428e-02 -8.54159892e-03
      -5.44787683e-02 -6.06490448e-02 -2.51199678e-02 6.83413371e-02
      1.11036129e-01 9.97907892e-02 -1.39281631e-01 9.14031640e-02
      -1.08948536e-02 -1.79325327e-01 3.50818411e-02 -1.38509408e-01
      5.37791215e-02 -2.12625116e-02 -1.02333531e-01 -2.51907180e-03
      4.48913276e-01 -9.39446222e-03 -4.77755107e-02 -2.45799914e-01 0.
      -6.03335351e-02 -4.77342717e-02 5.99112883e-02 -6.63341805e-02
      -5.19472472e-02 -6.01610914e-02 5.58354594e-02 1.26211643e-02
      9.50829908e-02 1.44960478e-01 2.41614375e-02 -1.85435414e-02
      4.29794788e-02 -7.36955404e-02 -1.13201872e-01 8.78383294e-02
      6.30347356e-02 -1.29027337e-01 1.25389278e-01 -2.16711629e-02
      6.23426586e-02 -1.08708821e-01 2.63808239e-02 -8.87035802e-02
      1.00287691e-01 -3.14914696e-02 -9.09297392e-02 -1.83674052e-01
      -2.89738208e-01 2.37330720e-01 2.19793200e-01 0. -2.43010849e-01
      -6.21966794e-02 1.18980750e-01 -6.52704239e-02 6.68834522e-02
      -6.34081569e-03 -5.82152382e-02 5.71686476e-02 6.31611124e-02
      -1.02659121e-01 -3.90452929e-02 -2.08190717e-02 8.15467760e-02
      -6.77096397e-02 -6.91196397e-02 -2.49563754e-02 1.37311801e-01
      -7.57078361e-03 -4.00871411e-02 6.94833100e-02 5.28121740e-02
      -2.86790784e-02 7.54996017e-02 1.08631134e-01 5.71209984e-03
      1.06517084e-01 -1.34922774e-03 -1.17257843e-02 -2.17784658e-01
      1.00956261e-01 1.45406844e-02 0. 2.61136293e-02 -4.94034030e-02
      -2.21215487e-02 -8.28437954e-02 7.56699070e-02 7.84183815e-02
      2.28801161e-01 2.34302110e-03 -1.72580872e-02 -6.38422072e-02
      3.27588208e-02 2.79802419e-02 7.44216982e-03 1.67852834e-01
      -6.24554008e-02 5.04276901e-03 1.03571102e-01 -8.24493319e-02
      2.40069151e-01 3.92036177e-02 1.49782347e-02 -2.28931429e-03
      2.91914672e-01 2.02449813e-01 2.21991181e-01 1.16027452e-01
      1.01254869e-03 9.57620144e-02 -7.03866780e-02 1.81315050e-01
      -2.96229906e-02 0. -2.03919366e-01 3.92851373e-03 6.38699755e-02
      3.29791933e-01 2.21774042e-01 -6.99571334e-03 6.20251149e-02
      6.75002113e-02 -1.12486836e-02 8.72395486e-02 -1.11346237e-01
      -4.74714004e-02 -3.91193032e-02 -1.42191321e-01 -2.99672149e-02
      1.11510813e-01 4.13167439e-02 -2.24364060e-03 2.23215669e-01
      -9.67544615e-02 6.88070804e-03 1.92237630e-01 2.51654208e-01
      1.57070905e-01 1.43143103e-01 2.51632500e-02 3.42861228e-02
      1.89628571e-01 -1.66297257e-02 7.38193020e-02 -6.08725064e-02 0.
      -1.82234809e-01 -5.09508960e-02 2.15472192e-01 1.81674752e-02
      8.23043063e-02 -7.38968030e-02 -1.95741832e-01 8.61035958e-02
      -1.66421011e-02 -1.79983616e-01 -1.64338171e-01 1.93971524e-03
      -5.00070751e-02 -8.94157887e-02 -1.08059391e-01 1.89870223e-01
      -9.96037647e-02 -2.46017880e-04 1.05785705e-01 -1.40018389e-01
      9.86443833e-02 5.20272739e-02 7.69176334e-02 1.44829080e-01
      -4.30223271e-02 -4.59876284e-02 3.74429934e-02 5.49593754e-02
      -1.14551239e-01 1.16514531e-03 -2.32550934e-01 0. -5.45119569e-02
      2.11400948e-02 1.18814178e-01 4.33560871e-02 1.01892510e-02
      -1.24089397e-01 -1.65063664e-01 -1.30776083e-02 -1.31970286e-01
      2.36808863e-02 -1.78140856e-03 -1.28017478e-02 -7.87203982e-02
      3.16547938e-02 2.32020076e-02 1.35154456e-01 -1.20025091e-01
      -3.01965810e-02 2.46169250e-02 -1.59970520e-03 -7.95778260e-02
      -7.47713819e-02 -8.69641080e-02 5.56445792e-02 -8.02021697e-02
      -9.13594961e-02 -1.44785091e-01 3.78258139e-01 1.55116692e-02
      -1.75147429e-01 -3.71849269e-01 0. 2.51751930e-01 -9.52367708e-02
      -5.85051477e-02 3.30123529e-02 1.99762851e-01 2.28504911e-02
      -7.52829947e-04 -8.87002349e-02 1.27097622e-01 4.00880314e-02
      8.21192414e-02 3.13919075e-02 7.73160011e-02 1.24750622e-01
      -1.60826519e-01 -9.45108682e-02 -1.67242736e-01 -9.81833190e-02
      1.71520919e-01 -1.09293148e-01 -1.80772349e-01 -8.03325847e-02
      -1.20637916e-01 -4.70576100e-02 -1.10091142e-01 -2.31509387e-01
      -3.96453664e-02 1.52456269e-01 -4.08491910e-01 4.48379934e-01
      -8.57217908e-02 0. 1.09391257e-01 -7.30920583e-02 -6.20040856e-02
      4.92368117e-02 9.79970098e-02 8.20707977e-02 -7.30706379e-02
      1.18711568e-01 -3.47280838e-02 2.63833646e-02 -2.03335375e-01
      -8.41150177e-04 -8.12024772e-02 -1.66766733e-01 -5.88416643e-02
      3.58143151e-02 6.27809763e-02 1.05214991e-01 3.59596871e-02
      -2.00340614e-01 -5.04970662e-02 -4.79889698e-02 -6.49573281e-03
      1.30751282e-01 -6.73469678e-02 4.45853882e-02 -6.89182878e-02
      2.91964471e-01 -3.18038076e-01 3.10233772e-01 -3.15405160e-01 0.
      9.69222859e-02 -9.44681838e-02 -1.11627489e-01 1.51488975e-01
      4.99741398e-02 3.07148486e-01 1.32511139e-01 -1.53789595e-01
      -2.53367294e-02 1.08542191e-02 -1.59669131e-01 3.08331009e-02
      -2.17537135e-01 -1.00271199e-02 -1.87080309e-01 2.02786326e-01
      5.49546964e-02 -1.22273326e-01 -3.54165845e-02 -2.24635005e-01
      -8.35146159e-02 -1.26034409e-01 -9.66243893e-02 1.48879454e-01
      2.92705178e-01 -9.62087288e-02 -1.10439368e-01 2.49246806e-01
      -2.97290385e-01 3.13593000e-01 -2.86449283e-01 0. 1.01906210e-01
      7.30345771e-02 -1.06945105e-01 1.65134296e-01 2.35288844e-01
      -9.16303415e-03 7.78117627e-02 -1.11946627e-01 -8.27420130e-02
      -5.92260845e-02 -9.35024098e-02 -4.97455448e-02 -2.13456359e-02
      -8.62346068e-02 -1.72910288e-01 -1.22851312e-01 1.16237752e-01
      -2.48310670e-01 -1.13861561e-01 -9.84141752e-02 -1.16297983e-01
      1.14448436e-01 -6.57600164e-02 -7.58173987e-02 -1.68699861e-01
      -9.39901397e-02 -1.95674360e-01 2.64885098e-01 -2.54234910e-01
      1.28491744e-01 -3.25585276e-01 0. -1.83939666e-01 -5.24057522e-02
      1.67585328e-01 8.89859423e-02 6.78494275e-02 1.74221233e-01
      -1.06692156e-02 -2.72020954e-03 -1.80161908e-01 2.23194733e-01
      6.33462444e-02 -1.46155823e-02 -4.13595624e-02 -1.01252003e-02
      -1.46007806e-01 -5.52728064e-02 -3.24228667e-02 -1.34852543e-01
      -1.99757237e-02 -9.53946859e-02 1.01680316e-01 2.28556572e-03
      -1.17455617e-01 9.38850418e-02 -1.25930980e-01 -1.25957116e-01
      -2.77908325e-01 2.66231835e-01 -3.00424784e-01 2.52132833e-01
      -2.55355060e-01 0. 8.00609365e-02 -7.40372017e-02 5.37524596e-02
      1.27583489e-01 8.03891420e-02 1.30386904e-01 2.49304790e-02
      -1.34118840e-01 -1.19928457e-01 3.41895521e-01 -9.62893851e-03
      -4.37174775e-02 -4.76709269e-02 -3.16841565e-02 -2.96333543e-04
      1.22092485e-01 7.76494592e-02 1.78483315e-02 2.28306338e-01
      -1.81833878e-01 -6.46880642e-02 -2.09275875e-02 -2.09582835e-01
      2.24347506e-02 -7.26707205e-02 -2.00531647e-01 -1.06307782e-01
      5.04650176e-01 2.12850999e-02 1.06912211e-01 -3.52125525e-01 0.</_></support_vectors>
  <decision_functions>
    <_>
      <sv_count>1</sv_count>
      <rho>3.6311119284416145e+00</rho>
      <alpha>
        1.</alpha>
      <index>
        0</index></_></decision_functions></my_svm>
</opencv_storage>
