<?xml version="1.0"?>
<opencv_storage>
<my_svm type_id="opencv-ml-svm">
  <svm_type>C_SVC</svm_type>
  <kernel><type>LINEAR</type></kernel>
  <C>1.0000000000000001e-01</C>
  <term_criteria><epsilon>2.2204460492503131e-16</epsilon>
    <iterations>1000</iterations></term_criteria>
  <var_all>4096</var_all>
  <var_count>4096</var_count>
  <class_count>2</class_count>
  <class_labels type_id="opencv-matrix">
    <rows>1</rows>
    <cols>2</cols>
    <dt>i</dt>
    <data>
      -1 1</data></class_labels>
  <sv_total>1</sv_total>
  <support_vectors>
    <_>
      5.59908785e-02 4.99176234e-02 -5.77973053e-02 -9.83212218e-02
      5.77913858e-02 -4.07317318e-02 -6.14613742e-02 -1.22620426e-01
      -9.64232758e-02 8.17023963e-02 -1.29822865e-01 1.39298737e-01
      -3.42219439e-03 7.94775262e-02 1.04470715e-01 -1.72483087e-01
      -1.14269480e-02 -5.36552779e-02 7.61640668e-02 -1.08306684e-01
      9.51020978e-03 -2.04697084e-02 1.30895033e-01 2.46496778e-02
      -6.94573969e-02 -1.08790569e-01 -4.41751815e-02 7.49890506e-02
      -1.39679387e-03 -5.65368421e-02 -1.48819432e-01 0. 7.94807002e-02
      -3.11069172e-02 -5.91051355e-02 -1.07278340e-01 -3.00536328e-03
      2.66850233e-01 9.53271836e-02 8.50505009e-03 3.66357341e-02
      -1.80202890e-02 1.05182707e-01 9.92867202e-02 1.24320947e-02
      9.70104039e-02 5.27222417e-02 -5.46931289e-02 -4.31200899e-02
      7.86958784e-02 5.20446114e-02 1.43145099e-02 2.33683232e-02
      -5.21924114e-03 8.23932663e-02 1.01440184e-01 -1.18433125e-02
      5.76616824e-02 8.23760107e-02 7.51875564e-02 4.35595885e-02
      1.17069803e-01 5.44710532e-02 0. -1.27746508e-01 -2.70272434e-01
      -6.08650073e-02 9.33488365e-03 3.63952247e-03 1.27883822e-01
      -9.05221887e-03 3.58207487e-02 -3.70394588e-02 1.54274907e-02
      1.40023530e-01 2.23737136e-01 1.03281148e-01 1.29014608e-02
      8.71565267e-02 -1.37883648e-01 -3.94635201e-02 3.47108878e-02
      -1.02734417e-02 8.38742964e-03 1.23644762e-01 1.04622103e-01
      9.87169966e-02 7.79125541e-02 -9.69762132e-02 -2.33919453e-02
      4.16224450e-02 1.11841246e-01 3.74714076e-03 -2.01939940e-04
      -6.27808049e-02 0. -1.09288663e-01 -8.94136503e-02 2.49635532e-01
      4.23551910e-02 -7.59865297e-03 1.95739940e-02 5.88548817e-02
      2.49097422e-02 1.03712082e-02 9.57067832e-02 1.07459150e-01
      1.41902238e-01 1.44412950e-01 -8.97227153e-02 8.95245522e-02
      -1.15771160e-01 -6.75897598e-02 -1.59314841e-01 1.01574518e-01
      6.03251420e-02 2.24642903e-01 2.40161434e-01 2.07078587e-02
      1.39732867e-01 3.04877735e-03 -4.81095724e-03 -8.28204677e-02
      1.03911825e-01 -4.45823483e-02 7.19422996e-02 3.18358131e-02 0.
      1.02872625e-02 -1.70910405e-03 4.67774943e-02 -5.24358032e-03
      -3.68763655e-02 -2.08161655e-03 -4.27110828e-02 1.70002684e-01
      3.79890129e-02 4.17056531e-02 -3.22501455e-03 6.57615513e-02
      -7.07826316e-02 8.93002525e-02 1.62016243e-01 1.22400429e-02
      5.04088700e-02 -8.77129566e-03 1.40709475e-01 6.34971112e-02
      1.08054422e-01 2.26233732e-02 1.72271416e-01 2.21408874e-01
      6.49340525e-02 4.30172458e-02 3.99115570e-02 9.00076181e-02
      4.16899808e-02 1.06765792e-01 4.34927410e-03 0. -1.09151788e-01
      -3.60015109e-02 9.58898570e-03 -5.85871842e-03 -1.67510584e-01
      1.92163840e-01 2.94014998e-02 -7.46803498e-03 2.01078560e-02
      3.16747613e-02 -7.34265288e-03 1.20308235e-01 -5.57551160e-02
      -5.84946387e-02 7.56688640e-02 5.48675582e-02 3.56193446e-02
      -4.31952961e-02 -3.12015340e-02 1.27200847e-02 4.63783592e-02
      -4.07988243e-02 -2.43980661e-02 2.10623965e-01 7.98025131e-02
      2.85918526e-02 3.61481272e-02 8.52024555e-02 6.12626933e-02
      -3.08465771e-02 -7.85558522e-02 0. 1.90376528e-02 -8.16647150e-03
      -3.16165090e-02 -6.67887554e-02 -2.19723776e-01 3.25454189e-03
      -2.99653504e-02 -4.63861860e-02 -7.49253929e-02 -6.38549030e-02
      -9.73601043e-02 -9.07026157e-02 -1.44374952e-01 -6.25873879e-02
      2.29967400e-01 -6.43372610e-02 2.25664154e-02 -3.92686874e-02
      -3.94499786e-02 -7.12943599e-02 -1.01566412e-01 -1.53340131e-01
      -1.34416848e-01 1.01678327e-01 -9.48416218e-02 -1.96529180e-03
      -3.68675850e-02 4.40941704e-03 -1.39487088e-01 -9.14797261e-02
      -1.34173140e-01 0. 7.39170611e-02 4.00681980e-02 -8.35065469e-02
      -1.39752939e-01 -1.25394771e-02 8.06582943e-02 -2.87892446e-02
      6.05554925e-03 4.19884361e-02 5.24536557e-02 1.28887340e-01
      5.71339298e-03 4.48733829e-02 4.98290211e-02 1.93513274e-01
      -3.10464222e-02 -1.89125482e-02 -1.44783095e-01 1.00190975e-01
      7.74097219e-02 -5.56373708e-02 -1.85614917e-02 8.50679632e-03
      2.34943956e-01 -3.79093178e-02 -3.33834253e-02 -1.23024754e-01
      1.62348196e-01 8.14837962e-02 -3.67421703e-03 -1.18240833e-01 0.
      3.14884400e-03 -1.04536980e-01 -9.19934269e-03 -1.85512025e-02
      -1.02593489e-02 6.43727705e-02 5.85410520e-02 -2.49886680e-02
      -1.22634262e-01 -2.85757072e-02 2.41547618e-02 3.58728599e-03
      6.01133443e-02 -3.75967915e-03 1.10771209e-01 -2.06534322e-02
      -8.46410319e-02 6.46994039e-02 -1.32671986e-02 -9.69581529e-02
      -1.15974685e-02 5.04381061e-02 7.93422982e-02 1.77810609e-01
      2.87148487e-02 -9.28067416e-02 -6.74750563e-03 1.07530862e-01
      8.51700529e-02 -8.37420449e-02 -1.27065763e-01 0. 1.65778562e-01
      1.61666349e-02 9.13347676e-02 -1.39836324e-02 -1.48350969e-01
      1.04115449e-01 9.39550921e-02 8.17834511e-02 3.02011110e-02
      1.15779907e-01 -1.50783788e-02 4.57513332e-02 1.44047365e-02
      -1.08057335e-01 -2.01097457e-03 1.11882508e-01 -2.35768836e-02
      1.24940723e-02 2.07354218e-01 -3.94912623e-02 6.23540469e-02
      3.72158742e-04 -9.27334428e-02 7.16079026e-02 1.25010774e-01
      4.25724164e-02 8.14663544e-02 5.00881784e-02 1.56625342e-02
      1.04336344e-01 9.98316035e-02 0. -9.96705815e-02 -2.25304049e-02
      -6.62791729e-03 1.83799282e-01 1.55474069e-02 9.09789279e-02
      1.41666055e-01 1.04019314e-01 6.31916942e-03 2.02153325e-02
      5.06788604e-02 1.92459702e-01 9.96980667e-02 -3.58450003e-02
      -4.62682061e-02 -3.26219685e-02 -2.38512084e-02 -2.17029117e-02
      -9.25254226e-02 1.44794781e-03 8.55145603e-02 2.27156952e-01
      8.29833448e-02 2.94447299e-02 4.07146774e-02 8.08780193e-02
      -1.38792358e-02 1.06353022e-01 1.02992110e-01 5.63769937e-02
      2.47846898e-02 0. -1.73119530e-01 1.51457451e-03 2.47389317e-01
      4.46012355e-02 -1.78492381e-04 2.05769494e-01 1.49113744e-01
      1.33024082e-01 9.28634331e-02 -2.05866247e-02 -2.20337734e-02
      1.04543313e-01 6.76836520e-02 -9.65664163e-02 -1.42430395e-01
      -1.76109057e-02 1.18460944e-02 -1.46130279e-01 -7.01954514e-02
      1.54461926e-02 2.62315333e-01 1.20643295e-01 -1.98262613e-02
      7.62080327e-02 1.02741204e-01 1.56590968e-01 6.89756824e-03
      1.14918821e-01 6.05957396e-02 9.50421859e-03 2.22523268e-02 0.
      -2.33916026e-02 5.81668951e-02 1.23943888e-01 -6.86853100e-03
      6.74711242e-02 1.19288616e-01 1.13533817e-01 1.32884100e-01
      6.55527487e-02 1.28242970e-01 -2.72967778e-02 -1.64647903e-02
      -2.04781964e-02 -1.21609911e-01 -2.84492467e-02 -2.82252952e-02
      3.15842894e-03 -3.01074944e-02 1.31312385e-01 1.94353834e-02
      3.91285010e-02 1.42500475e-02 -7.65287802e-02 1.50462896e-01
      1.04523242e-01 1.02923540e-02 -1.11549906e-02 5.75571917e-02
      1.31081138e-02 1.01712219e-01 6.77303746e-02 0. 1.41116828e-01
      1.01704396e-01 5.96870556e-02 -2.14687232e-02 1.41168892e-01
      2.56887078e-01 6.80840015e-02 1.06498390e-01 1.33748561e-01
      7.79538527e-02 -2.67125713e-03 2.12835111e-02 -8.61420333e-02
      -2.29870193e-02 2.31983159e-02 5.77143021e-02 -1.15059026e-01
      -2.85994895e-02 9.26591903e-02 1.13287613e-01 9.12635475e-02
      -1.79961622e-02 7.88608938e-02 1.09724045e-01 1.64966673e-01
      9.34981480e-02 9.53223184e-02 1.98374808e-01 1.79617733e-01
      2.05502603e-02 3.14294249e-02 0. -6.30894024e-03 -1.28024831e-01
      -7.71339834e-02 -9.18027386e-02 7.61252418e-02 1.47495672e-01
      -2.62366869e-02 4.03715968e-02 -4.23883134e-03 7.88914561e-02
      1.21183380e-01 -7.71096051e-02 -4.85376045e-02 -1.10873871e-01
      2.82492563e-02 -3.05394121e-02 -9.52177420e-02 -2.34452948e-01
      2.54507288e-02 -3.63056064e-02 -1.56299219e-01 -1.52862314e-02
      -4.25359756e-02 5.86156845e-02 -4.87655699e-02 -3.92509587e-02
      -1.40858799e-01 -4.51914705e-02 4.61464003e-03 -8.39956999e-02
      -8.19763839e-02 0. -6.53736517e-02 -4.21113409e-02 -7.61068892e-03
      -4.79549766e-02 -9.69277620e-02 5.24036102e-02 5.15515497e-03
      -1.05657905e-01 5.65253310e-02 1.36274368e-01 1.09721757e-01
      1.85114324e-01 -1.65208653e-02 -1.18491337e-01 1.07371338e-01
      5.45821758e-03 -5.19737741e-03 2.37255208e-02 9.03058946e-02
      -3.10042966e-02 4.60574590e-02 5.59285432e-02 -8.78334567e-02
      6.52277395e-02 -2.39465833e-02 -1.03709564e-01 1.77656189e-02
      9.56161767e-02 7.15451017e-02 -5.80158830e-02 -2.62243915e-02 0.
      -7.67842978e-02 -4.92617227e-02 -3.23638730e-02 1.50255719e-02
      8.78015682e-02 2.72355080e-02 6.37522861e-02 -6.38371632e-02
      -2.21774615e-02 -1.04894280e-01 -1.02189846e-01 8.17557275e-02
      1.29308049e-02 -4.96359393e-02 2.07090415e-02 -1.52207464e-01
      -1.46344543e-01 2.76956204e-02 -1.45106971e-01 -1.79976851e-01
      5.98299280e-02 2.01405287e-02 4.50089574e-02 6.03550635e-02
      -3.96421878e-03 -9.68956724e-02 3.22707482e-02 4.62986790e-02
      -3.47440243e-02 -4.25671153e-02 -1.87146932e-01 0. 8.90458375e-02
      -5.03607802e-02 3.41647379e-02 8.87748897e-02 -6.51749969e-03
      5.70767373e-02 -2.23310627e-02 -1.45192787e-01 -7.27872029e-02
      -1.37087166e-01 -4.27972376e-02 1.25680700e-01 1.68545574e-01
      -9.33059081e-02 -3.67915221e-02 -3.11108269e-02 -3.33887041e-02
      -4.55214120e-02 5.69969602e-02 -1.59671783e-01 8.76644105e-02
      1.51102141e-01 -9.13542733e-02 -1.14883939e-02 -8.62232447e-02
      -1.26508445e-01 -8.66839290e-02 -9.14860051e-03 -8.44591483e-02
      4.40696515e-02 -2.30120849e-02 0. -8.77358317e-02 -2.74386816e-02
      2.67219812e-01 1.06737420e-01 -4.80109304e-02 5.14402837e-02
      8.93975943e-02 2.56648827e-02 -1.98091585e-02 -5.33566773e-02
      -1.16112716e-02 2.74224341e-01 2.27688059e-01 -3.97424884e-02
      -2.11327244e-02 -1.43003151e-01 3.81236821e-02 -1.67506307e-01
      -1.37835547e-01 4.25867476e-02 2.57373720e-01 2.86805421e-01
      -9.80168432e-02 2.13691536e-02 -4.53114025e-02 4.33109663e-02
      -1.21344075e-01 7.19730705e-02 3.16239074e-02 8.72417465e-02
      2.65468433e-02 0. -7.87870064e-02 -3.74592505e-02 2.08718225e-01
      2.38907225e-02 1.49198603e-02 1.04801685e-01 6.50129244e-02
      8.51420462e-02 4.94574420e-02 -1.35009259e-01 -3.47429290e-02
      2.52252221e-01 1.65514141e-01 -2.53456011e-02 -1.77626777e-02
      -6.06517717e-02 -5.37726737e-04 3.35890800e-02 -9.78994742e-02
      -3.41755152e-02 2.04238087e-01 1.94676220e-01 -4.54000244e-03
      1.53940246e-01 3.17382365e-02 1.51012972e-01 2.35611815e-02
      1.58966437e-01 5.26523218e-02 5.76981492e-02 1.96522791e-02 0.
      2.39616297e-02 -3.81886922e-02 1.35882795e-01 -2.85248924e-03
      -2.42308173e-02 1.09011099e-01 6.37684539e-02 9.41025745e-03
      3.64261642e-02 4.40774672e-02 1.06932782e-02 6.28228411e-02
      1.72139779e-02 -8.84755477e-02 1.49679147e-02 -1.80328265e-02
      1.32005915e-01 -4.93480153e-02 -2.34566606e-03 -4.63799424e-02
      1.87431261e-01 6.77027628e-02 -7.63557628e-02 1.31690830e-01
      1.00465037e-01 2.79603954e-02 -4.37374376e-02 1.23796850e-01
      -4.97286320e-02 1.23225428e-01 9.70440824e-03 0. -5.46813719e-02
      -1.26334086e-01 -3.89791988e-02 -2.13232636e-02 3.63650220e-03
      3.35010998e-02 4.79919165e-02 6.70038313e-02 9.84692201e-02
      -2.18570605e-02 -2.51829866e-02 8.65954608e-02 1.11687435e-02
      -1.60918131e-01 -1.45626580e-02 9.93613005e-02 1.09202944e-01
      -3.06720082e-02 -1.18498243e-01 -1.11354418e-01 -1.24141695e-02
      -2.06061397e-02 -9.12836939e-02 1.03233077e-01 1.45422235e-01
      1.64824620e-01 1.98117290e-02 1.36971161e-01 -2.09077094e-02
      3.08497678e-02 -1.17488302e-01 0. -1.38791248e-01 -9.38922241e-02
      -1.61547214e-02 1.48295192e-02 1.06785186e-01 5.64478636e-02
      -8.02519768e-02 6.34976774e-02 6.92616776e-02 3.35706025e-02
      1.36815652e-01 -7.81615078e-03 -5.69443889e-02 -4.87239379e-03
      8.21545869e-02 1.51365981e-01 5.40412553e-02 -6.90950900e-02
      -7.11359829e-02 8.06647725e-03 -3.61312926e-02 -4.98303212e-02
      2.50899084e-02 7.94993937e-02 1.48874391e-02 8.84201974e-02
      1.69447102e-02 9.49538052e-02 6.18711207e-03 9.11319703e-02
      -5.04042208e-02 0. -9.85931009e-02 -1.01147510e-01 -7.58678392e-02
      -1.31216357e-02 1.07118100e-01 2.26083741e-01 9.92457420e-02
      4.37528715e-02 -8.51781946e-03 1.50047988e-01 3.46879996e-02
      1.18885428e-01 -5.37043437e-02 1.09902667e-02 7.59740174e-02
      3.72379497e-02 -7.74185508e-02 3.69160846e-02 1.70238853e-01
      -7.17882216e-02 2.85438932e-02 -3.93065363e-02 -5.83285205e-02
      1.57920122e-01 1.10692762e-01 -1.54741807e-02 3.10098808e-02
      2.11907044e-01 3.43275927e-02 4.69515957e-02 -5.15610799e-02 0.
      -2.89364830e-02 -1.16607798e-02 -6.76459447e-02 -1.78294852e-01
      -5.68277575e-02 3.98859642e-02 -5.09736547e-03 -2.64099017e-02
      -1.35055222e-02 -5.39915683e-03 -3.29303667e-02 5.16718514e-02
      -3.24293934e-02 -3.25929336e-02 1.25225447e-02 -6.93508610e-02
      -6.00226969e-02 7.86355734e-02 -3.39305401e-03 -8.11230391e-02
      -5.10209519e-03 -1.90529466e-01 -6.96164668e-02 4.91717868e-02
      -1.17127940e-01 -8.93211439e-02 4.77103926e-02 1.11679090e-02
      1.07117963e-03 -9.66300592e-02 -1.22265182e-01 0. -1.30799944e-02
      1.33262232e-01 -1.65026020e-02 -4.20886241e-02 -7.26636350e-02
      -4.55137109e-03 -4.54074983e-03 -8.32252726e-02 -1.09191060e-01
      -8.42595324e-02 1.14123330e-01 1.84076592e-01 6.32946417e-02
      -7.92969614e-02 -2.26557273e-02 -1.75548419e-01 -4.51458804e-02
      4.58073393e-02 8.89296830e-02 9.30244327e-02 8.85443017e-03
      -6.25470430e-02 -1.85866877e-01 -3.94846909e-02 -1.87870100e-01
      -1.76858053e-01 8.07622634e-03 9.87552479e-03 -7.56899938e-02
      -8.93848296e-03 -2.52714008e-02 0. 2.94280685e-02 3.34423408e-02
      1.09123759e-01 -1.05324388e-01 -6.03452809e-02 -2.65217330e-02
      -9.34559405e-02 -1.19938612e-01 -5.29133193e-02 -1.06688097e-01
      9.76077467e-02 1.34726405e-01 1.29251823e-01 -9.45445821e-02
      -9.05116573e-02 5.28333150e-03 -4.85629775e-02 1.57159828e-02
      -1.81587003e-02 2.02157378e-01 1.24972470e-01 3.89001076e-03
      -1.54426560e-01 -2.89656129e-02 -7.10983127e-02 -1.37407497e-01
      -2.84728296e-02 8.29716306e-03 -6.56378567e-02 1.47331301e-02
      -7.25211054e-02 0. -7.49115571e-02 -8.03450048e-02 4.57150191e-02
      7.83416331e-02 -5.40951267e-02 1.21243736e-02 -5.40346727e-02
      9.42405022e-04 -1.14859730e-01 -1.40985832e-01 -7.41901696e-02
      1.41235068e-01 1.13499068e-01 7.47837406e-03 2.85271928e-03
      -7.21055258e-04 5.44878952e-02 -6.71324357e-02 -1.51449770e-01
      -1.37860760e-01 7.00016096e-02 1.79337278e-01 -1.19808577e-01
      6.28188699e-02 -4.65970375e-02 3.02936863e-02 -1.76308855e-01
      2.69982405e-02 -8.44221842e-03 -2.65798029e-02 -8.84242058e-02 0.
      -6.53717741e-02 -1.50331423e-01 1.28687024e-01 -1.97293926e-02
      -1.53474033e-01 -2.31310129e-02 6.69526979e-02 2.05582958e-02
      2.37804260e-02 -8.80934596e-02 1.89941134e-02 8.30734223e-02
      7.57474378e-02 -5.11849253e-03 -1.03172725e-02 6.80194870e-02
      7.40864053e-02 -1.80589203e-02 -1.84953153e-01 -1.64519012e-01
      6.56601712e-02 2.45502051e-02 -1.45448938e-01 -5.18379211e-02
      9.73472148e-02 3.75702381e-02 -8.81922022e-02 7.46740997e-02
      -3.56974043e-02 1.74073875e-02 -4.39987145e-02 0. -6.50667166e-03
      -8.85606185e-02 -5.72203211e-02 -1.30546242e-01 -1.54981568e-01
      -1.58427179e-01 -5.08966483e-02 1.17756054e-01 1.59594312e-01
      -9.90290120e-02 -3.36963609e-02 2.17397526e-01 1.24389216e-01
      -5.35280816e-02 -4.60225008e-02 9.46514904e-02 4.30137068e-02
      1.06712431e-01 -1.21705174e-01 -8.99362639e-02 5.10848537e-02
      1.32504562e-02 -2.08766803e-01 -1.20635755e-01 -1.63312480e-02
      1.11836858e-01 1.48930460e-01 4.97878753e-02 -7.17309024e-03
      3.52750532e-02 -8.53853598e-02 0. 2.63064336e-02 -2.39723958e-02
      -4.11004946e-03 -1.91950932e-01 -1.00622222e-01 -4.20097336e-02
      -1.36280268e-01 6.38994295e-03 -4.44295853e-02 -2.10254397e-02
      2.47247592e-02 4.86867018e-02 1.23126591e-02 4.31545638e-02
      9.13008451e-02 3.99501398e-02 7.58550465e-02 6.07123971e-02
      -6.37430549e-02 -3.89183909e-02 -1.77376382e-02 -1.35058299e-01
      -1.74948797e-01 -4.54941131e-02 -1.38105720e-01 9.39999335e-03
      -1.93724856e-02 1.58440217e-01 -1.07872069e-01 -1.58773568e-02
      -9.83331725e-02 0. -3.50317992e-02 1.23420022e-02 -6.72812611e-02
      -1.70862824e-01 6.77818879e-02 3.59779969e-02 -3.93739790e-02
      3.91103663e-02 5.29059134e-02 8.95105377e-02 -8.70882869e-02
      1.11684255e-01 -1.84506737e-02 8.05794001e-02 5.09766191e-02
      3.82758863e-02 -5.45724444e-02 -1.59937646e-02 1.45354807e-01
      -1.18961744e-01 5.98633774e-02 -3.98128331e-02 8.24584961e-02
      3.50859538e-02 -4.39267308e-02 4.00194526e-02 1.57217383e-02
      1.58473000e-01 1.55003835e-03 2.11136974e-02 -1.38479784e-01 0.
      2.71648336e-02 -7.76133966e-03 5.03557324e-02 -1.94971323e-01
      -1.27110094e-01 6.97351471e-02 -6.56607822e-02 -6.31591231e-02
      1.49814542e-02 -8.75415578e-02 3.81444544e-02 1.51665300e-01
      1.34815238e-02 -7.81410933e-02 -2.67525967e-02 -1.45369582e-02
      5.21532781e-02 1.33957751e-02 -5.79844676e-02 1.87098403e-02
      9.33954716e-02 -1.83960482e-01 -7.14293346e-02 -1.27052180e-02
      -9.61733311e-02 -4.43026349e-02 1.45074492e-02 1.07385956e-01
      -5.13920151e-02 -2.89252158e-02 -1.37639090e-01 0. 3.82781886e-02
      5.61061427e-02 8.46019983e-02 -2.57273793e-01 -7.49245435e-02
      7.57715851e-02 -6.16157353e-02 8.24993551e-02 3.44883092e-02
      -3.62622291e-02 3.95087078e-02 1.35418624e-01 1.83682386e-02
      -2.56345030e-02 -7.78213888e-02 3.62861343e-02 6.93371007e-03
      8.29966739e-02 1.39974073e-01 5.82770556e-02 1.06292866e-01
      -2.25546554e-01 -6.99332803e-02 -2.32860781e-02 -5.64565137e-02
      2.58367397e-02 8.53181481e-02 9.64221954e-02 2.04861542e-04
      5.72327152e-02 -7.95079619e-02 0. 7.26149231e-02 1.75548762e-01
      -1.22525007e-01 -1.08756989e-01 -1.43806249e-01 -5.43400683e-02
      -1.61572814e-01 7.92970508e-03 -1.23187639e-02 -1.46649912e-01
      4.25954089e-02 5.21018468e-02 -8.24790001e-02 -7.17645884e-02
      -6.45711794e-02 -1.06864460e-02 1.56902257e-04 1.35461956e-01
      -3.16636302e-02 1.68927684e-01 -4.41867001e-02 -1.30417898e-01
      -1.99113220e-01 -1.10401019e-01 -1.76826894e-01 -3.52270976e-02
      1.53818741e-01 4.58890125e-02 -1.17074490e-01 -5.60211465e-02
      -1.05222590e-01 0. -2.26499829e-02 -5.78378141e-02 -2.52797771e-02
      -5.56857027e-02 -9.80723277e-02 -1.07552037e-01 1.46085992e-02
      1.01947831e-02 6.71983734e-02 -1.83241755e-01 1.49170235e-02
      6.93812519e-02 9.50504169e-02 -3.78044955e-02 -5.69032766e-02
      1.80507377e-02 5.37624545e-02 3.06799412e-02 -1.46079347e-01
      -4.16426249e-02 5.52396737e-02 3.57561074e-02 -1.55162334e-01
      -1.39439479e-01 -2.91414354e-02 -6.15288364e-03 1.12883613e-01
      1.32261943e-02 -5.90331778e-02 1.81026924e-02 -1.00131646e-01 0.
      -5.77722862e-02 -7.62785226e-02 -3.34567786e-03 -7.74563104e-02
      -1.62433818e-01 1.97644979e-02 -1.23707280e-02 -8.70156884e-02
      5.64279892e-02 -5.28961942e-02 7.73419887e-02 1.29904151e-01
      2.76898630e-02 1.59323998e-02 1.29820839e-01 4.75398041e-02
      -9.09774080e-02 1.63231101e-02 -1.55139521e-01 -4.99876216e-02
      8.15943256e-02 7.35481968e-03 -1.52052283e-01 9.52251479e-02
      -4.02636938e-02 -1.21369697e-01 9.80619192e-02 7.51495138e-02
      -2.11534034e-02 3.14406818e-03 -1.04186855e-01 0. 4.34210040e-02
      9.45508331e-02 -3.33453878e-04 -8.52535665e-02 -9.18706283e-02
      -6.32770583e-02 5.40438220e-02 6.64858446e-02 5.81797063e-02
      -1.50123999e-01 -6.29868880e-02 4.69023269e-03 -2.38720868e-02
      -2.01474037e-02 8.59909132e-03 -5.67944422e-02 6.76677376e-02
      1.31241798e-01 -8.80285446e-03 -4.32797037e-02 1.75119340e-02
      2.63141543e-02 -1.23016037e-01 -4.75264676e-02 1.33131957e-02
      1.18956894e-01 7.43866563e-02 1.68111250e-02 -1.22872572e-02
      2.58395765e-02 -4.25159112e-02 0. -3.19561623e-02 -1.54706521e-03
      2.61637643e-02 -5.11048175e-02 6.18529469e-02 -2.64618769e-02
      -1.22560263e-02 2.80074608e-02 4.97247167e-02 -2.61986367e-02
      7.07789287e-02 3.71102169e-02 -1.54246151e-01 -9.03235227e-02
      -8.71924832e-02 -3.44886780e-02 -2.61589903e-02 5.19856811e-02
      -1.89268850e-02 -7.35759502e-03 4.44694050e-02 -9.27839950e-02
      -1.12384371e-01 -7.84459487e-02 -7.44361579e-02 7.61804357e-03
      9.64644328e-02 5.18275984e-02 3.90840881e-02 -7.50623867e-02
      -1.17818147e-01 0. -2.74761170e-02 4.64227311e-02 -4.58616130e-02
      -1.64048359e-01 7.28018731e-02 -3.04131266e-02 -1.93164844e-04
      -1.52964611e-02 2.19147801e-02 3.19102928e-02 1.13640927e-01
      1.61485206e-02 -3.75942700e-02 -4.81426157e-02 -9.43282992e-02
      -8.03027302e-02 3.04624569e-02 5.31147048e-02 2.85169501e-02
      9.12792608e-02 2.49795970e-02 -1.35779560e-01 -7.30356425e-02
      -5.33710457e-02 -1.19587630e-01 3.19121741e-02 4.65266183e-02
      6.04171045e-02 2.27165613e-02 -7.95859769e-02 -7.76708052e-02 0.
      1.20164841e-01 2.55004279e-02 -5.21564819e-02 -7.30752945e-03
      -7.17556328e-02 -5.00357673e-02 -1.01470590e-01 -4.88737188e-02
      4.07488793e-02 3.53732333e-02 -4.37039249e-02 1.49670437e-01
      6.53073490e-02 -3.75934574e-03 -7.53834203e-04 -1.20988198e-01
      -1.34313151e-01 4.59664389e-02 1.15299128e-01 -4.10446264e-02
      5.79984859e-02 6.26041815e-02 6.14932477e-02 -4.30048183e-02
      -1.86372176e-01 -1.09614491e-01 9.27177370e-02 1.17777936e-01
      4.04608734e-02 -7.11477324e-02 -1.58926100e-01 0. -5.58727011e-02
      6.22161366e-02 4.82650772e-02 -1.19023323e-01 3.07587325e-03
      9.58618075e-02 5.11696227e-02 9.32923332e-02 8.10694918e-02
      -8.76670890e-03 -4.32969183e-02 -6.04711333e-03 -7.78443217e-02
      2.11756844e-02 1.43622719e-02 -1.80690195e-02 6.88071102e-02
      -3.51628475e-02 1.77453775e-02 -7.53127933e-02 -1.31312516e-02
      -8.82280841e-02 5.00684865e-02 -8.03902838e-03 2.60521080e-02
      1.26890019e-01 5.90333976e-02 4.70934026e-02 3.95208970e-02
      1.52979894e-02 -1.93171203e-02 0. 1.22074690e-02 8.01706165e-02
      3.20650712e-02 -1.16205275e-01 -6.71271160e-02 -9.47045609e-02
      -1.72762927e-02 4.48046997e-02 7.80557916e-02 -1.28977180e-01
      -7.89548382e-02 1.25488434e-02 4.77287024e-02 -1.06992699e-01
      5.96051589e-02 8.52617994e-03 8.10641348e-02 -1.79028716e-02
      1.63213927e-02 1.39640840e-02 9.90160257e-02 -2.92699300e-02
      -1.87488154e-01 -1.01807535e-01 -2.31070127e-02 6.56518936e-02
      9.23794210e-02 9.89605188e-02 -5.77866584e-02 -6.02741092e-02
      -6.16807751e-02 0. -2.28204112e-02 -5.86001091e-02 -5.88898361e-02
      -7.03852177e-02 -1.60224825e-01 -8.92951190e-02 5.31521114e-03
      -1.06392801e-01 6.87157586e-02 -2.06906155e-01 -3.25518847e-02
      8.36741552e-02 4.22359183e-02 1.85142420e-02 2.34839674e-02
      5.99032966e-03 5.25853364e-04 2.85891015e-02 -1.08654641e-01
      -1.17711522e-01 1.52750928e-02 -2.20111888e-02 -1.45680368e-01
      -8.18168446e-02 -8.13956559e-03 -6.53255954e-02 3.72831039e-02
      4.82377410e-03 -1.26484454e-01 -2.19486598e-02 -1.05771556e-01 0.
      -9.64362323e-02 2.58190725e-02 7.67254876e-03 -2.84056347e-02
      5.21164276e-02 1.17464021e-01 4.91371639e-02 -7.64909461e-02
      -3.29120494e-02 3.92323156e-04 5.92569299e-02 1.31441783e-02
      -2.27461196e-02 -2.60884799e-02 1.79232702e-01 -5.81490174e-02
      -5.98651804e-02 9.05939937e-02 -5.91705404e-02 -1.70193501e-02
      3.61856557e-02 -5.44445775e-02 1.54358437e-02 1.60808966e-01
      -1.06488749e-01 -1.15792230e-01 1.30210724e-02 6.66404516e-02
      3.21144797e-02 6.32092282e-02 -7.06371441e-02 0. 2.03123372e-02
      8.82415399e-02 9.15372297e-02 -4.12472524e-02 -1.66436657e-02
      2.25487561e-03 -9.75623354e-02 -9.01049748e-02 2.25632861e-02
      -1.53980404e-01 1.84645830e-03 9.39801484e-02 -1.52856618e-01
      -4.57769111e-02 -2.16054246e-02 3.81004512e-02 2.49709915e-02
      1.43131062e-01 1.88641008e-02 -2.06038123e-03 1.69561163e-01
      -1.13176711e-01 -3.49356793e-02 -8.21864679e-02 -1.08319953e-01
      -1.06185779e-01 9.01718289e-02 1.90662164e-02 -8.26782174e-03
      1.93343405e-02 -7.38971531e-02 0. 5.15124612e-02 8.12800154e-02
      4.93806340e-02 4.50136419e-03 -9.27479789e-02 -5.29083721e-02
      -2.49703154e-02 -1.92811284e-02 3.86909246e-02 3.96062396e-02
      5.85353039e-02 1.38117850e-01 -1.17943317e-01 -2.33762199e-03
      -1.75132100e-02 -2.76991967e-02 -3.37738614e-03 7.81791136e-02
      6.61971867e-02 5.12064397e-02 8.47215280e-02 -1.13267034e-01
      -1.48274571e-01 -9.29368213e-02 -8.56004506e-02 -9.25869867e-02
      8.58370960e-02 9.38687846e-02 3.36860456e-02 5.22459932e-02
      -9.44654569e-02 0. -2.31335368e-02 8.84759724e-02 3.23686786e-02
      -7.44306892e-02 -6.30710497e-02 -2.13931762e-02 7.08021000e-02
      2.36689653e-02 2.85105836e-02 -6.69488078e-03 6.12060502e-02
      4.35710289e-02 -8.00934210e-02 1.98257759e-01 5.01985550e-02
      -1.23217836e-01 -5.23679182e-02 2.39436012e-02 -3.30364704e-02
      7.33441338e-02 5.08010201e-02 -8.29682872e-02 -6.34337142e-02
      -1.96130872e-02 -9.23258439e-02 -6.71079680e-02 2.31793765e-02
      8.24170783e-02 4.11964096e-02 9.77079268e-04 -4.13409472e-02 0.
      7.97765777e-02 -1.35989627e-02 -6.61611632e-02 -3.98359373e-02
      1.23295501e-01 -2.68657655e-02 -4.45616022e-02 -4.42281216e-02
      1.33110704e-02 -1.34012341e-01 -9.87586230e-02 6.70534670e-02
      4.88743477e-04 9.96686518e-02 -4.63173389e-02 2.33628266e-02
      1.31953759e-02 -2.62425300e-02 -2.18739826e-02 -1.05293632e-01
      2.98318826e-02 -6.50637448e-02 2.18459651e-01 -4.26199846e-02
      1.17276516e-02 -1.72564071e-02 -3.72888409e-02 9.61866453e-02
      7.89876059e-02 -1.48016736e-01 -8.39282721e-02 0. -1.02473505e-01
      5.61731607e-02 1.99944481e-01 -3.18163261e-02 5.42171784e-02
      7.26998597e-02 -6.33116812e-02 7.28825992e-03 -1.03759877e-02
      6.53663203e-02 1.16189182e-01 5.57956472e-02 6.11425005e-02
      7.67206959e-03 -1.63646005e-02 1.03108138e-02 5.25547341e-02
      -1.62486136e-02 4.23687734e-02 2.56245788e-02 1.87611520e-01
      6.27275929e-02 6.22160546e-02 4.11957167e-02 -8.08226690e-02
      1.91172846e-02 -1.48249455e-02 6.69266880e-02 7.95937032e-02
      2.59274971e-02 7.20972642e-02 0. -2.51748525e-02 -7.72565976e-02
      -9.13534407e-03 -4.09337319e-02 -6.71264762e-03 -9.35688149e-03
      -1.37171689e-02 1.00123174e-01 3.52366641e-02 -1.37663797e-01
      -1.30748358e-02 4.28261757e-02 5.41644022e-02 -1.26009285e-01
      -1.09212033e-01 -7.61478394e-02 4.57386151e-02 3.42024602e-02
      5.43979146e-02 -3.63010429e-02 7.82280117e-02 3.69130410e-02
      -7.07790479e-02 1.52739184e-02 -5.06813489e-02 7.54684508e-02
      6.77584186e-02 1.04397088e-02 3.60952062e-03 -1.06969655e-01
      -6.36331439e-02 0. -3.99321020e-02 -1.46845222e-01 -1.24069806e-02
      -4.12761612e-04 -5.28149568e-02 2.91609280e-02 3.44226435e-02
      1.07232742e-02 -4.12589423e-02 -1.74787119e-01 -1.54591799e-01
      -3.29203866e-02 -4.31564078e-02 -2.04229191e-01 -4.92195338e-02
      -2.38745231e-02 9.07922909e-02 8.61378834e-02 9.77812521e-03
      -2.03795865e-01 -2.56398283e-02 -3.59380804e-02 -1.43485561e-01
      7.36618638e-02 1.70106180e-02 1.14259005e-01 -1.03821224e-02
      -7.15782344e-02 -7.85393864e-02 -7.82069638e-02 -1.13540784e-01 0.
      -9.49000567e-02 -4.94861305e-02 8.46756902e-03 9.49053168e-02
      -6.41987026e-02 9.64042079e-03 -7.11468086e-02 5.21264039e-03
      -3.63195017e-02 4.63800207e-02 -5.06385975e-02 -5.50258383e-02
      6.98672011e-02 -2.56471313e-03 -4.42624539e-02 -8.53060372e-03
      -1.20213397e-01 1.36686385e-01 -4.85830568e-02 -6.88357502e-02
      -3.57640460e-02 1.49549723e-01 -1.76046584e-02 7.26453168e-03
      1.59806367e-02 -1.30574703e-01 1.50957974e-02 4.53260653e-02
      -3.24164182e-02 -2.65295897e-02 -9.29764584e-02 0. -1.06807396e-01
      1.55876426e-03 1.43376738e-01 -5.16830431e-03 7.11312704e-03
      3.15735396e-03 -3.94299105e-02 -6.75616413e-02 9.81592461e-02
      6.86678365e-02 -6.86602294e-02 -6.44116895e-03 -1.54473176e-02
      -2.49448363e-02 3.88616882e-02 3.09136994e-02 -5.24319038e-02
      1.54857293e-01 5.25205955e-02 -1.02438085e-01 1.26373678e-01
      -2.80695967e-02 3.17373462e-02 5.44832423e-02 -2.71066967e-02
      -6.60886094e-02 1.62680417e-01 1.23216286e-01 1.03205489e-02
      2.18342748e-02 -8.00540820e-02 0. -1.20173544e-02 6.45910725e-02
      1.34630173e-01 4.50233668e-02 1.52961304e-03 -5.21883592e-02
      3.82937491e-02 -1.44120632e-02 3.50043699e-02 -3.86422612e-02
      -4.52512652e-02 -6.58906996e-02 -7.90200755e-02 -2.61080433e-02
      -4.58598696e-02 3.47480960e-02 -4.34924709e-03 1.02094822e-01
      5.91870286e-02 3.81245203e-02 4.23446968e-02 -5.67998691e-03
      -2.14817282e-02 -9.02044997e-02 -7.73233920e-03 -7.74372788e-03
      5.12284748e-02 1.23247348e-01 -1.63630117e-02 2.95712762e-02
      -1.02431856e-01 0. -3.37914936e-02 2.35240217e-02 -6.15849234e-02
      6.59063924e-03 -6.54992461e-02 4.91128713e-02 7.64766037e-02
      1.17020153e-01 2.74758451e-02 2.52339561e-02 5.27986959e-02
      4.96261716e-02 -1.17033839e-01 1.18537322e-01 -6.97066188e-02
      -6.02114536e-02 -6.34372188e-03 -1.49083119e-02 9.03386250e-02
      1.74913313e-02 3.06627825e-02 -1.08557254e-01 2.00888328e-02
      -3.75512391e-02 -1.35607775e-02 2.84530707e-02 -2.13222913e-02
      1.71819285e-01 -2.77758539e-02 2.10194550e-02 -1.09759822e-01 0.
      1.72494948e-02 -1.17819376e-01 3.95917421e-04 6.46458790e-02
      5.00437096e-02 -3.38728204e-02 -3.69478241e-02 2.44300142e-02
      4.40469980e-02 -6.91671669e-02 -6.79166317e-02 3.36887804e-03
      -1.16499811e-01 -8.41373950e-02 -7.12382495e-02 -4.30421568e-02
      1.69596188e-02 2.30745394e-02 -1.15278810e-02 -1.39325097e-01
      8.51935819e-02 1.40566949e-03 -1.34788733e-02 -1.02782182e-01
      -7.35752955e-02 5.08068502e-02 5.12379445e-02 2.53812969e-02
      4.32461686e-02 -1.36850685e-01 -1.18652172e-01 0. 7.55420998e-02
      3.18856463e-02 -9.04673990e-03 5.46340086e-02 -1.70946587e-02
      1.26465484e-02 3.29160094e-02 6.20685630e-02 2.09606841e-01
      5.03481776e-02 4.98563871e-02 4.58824113e-02 -1.48645695e-02
      -4.86265458e-02 -5.83604313e-02 -8.57051164e-02 -1.42372698e-02
      7.87506066e-03 6.79460615e-02 7.47336671e-02 5.14050946e-02
      3.30153368e-02 -9.04787034e-02 -5.83982579e-02 -7.94177204e-02
      3.75993736e-02 8.18229541e-02 2.19597016e-02 5.14366217e-02
      2.86336429e-02 7.96128809e-02 0. -4.40827161e-02 -1.02590330e-01
      -5.72444387e-02 1.48685416e-02 3.73776257e-02 1.73195880e-02
      8.15987885e-02 3.30205336e-02 4.57607657e-02 -9.02468562e-02
      -2.17028428e-02 7.83506706e-02 5.91911562e-02 -8.91987383e-02
      -1.61457509e-01 -1.15405649e-01 -2.18949858e-02 5.60707673e-02
      -3.36353574e-03 -3.36620435e-02 2.64329314e-02 5.49325831e-02
      7.86906295e-03 -6.32119328e-02 -5.71778044e-02 -6.92471582e-03
      6.51034191e-02 3.45091335e-02 -1.20391697e-02 -1.16487958e-01
      -3.80992293e-02 0. -1.19700402e-01 -2.64806487e-03 -7.70227760e-02
      4.04250026e-02 1.53944075e-01 1.09891638e-01 3.83079760e-02
      2.95902714e-02 -5.35144843e-02 -1.66980848e-01 5.46157211e-02
      -1.25921711e-01 -5.61497509e-02 -1.13084301e-01 -1.10128798e-01
      -2.73503978e-02 6.77004606e-02 6.35660514e-02 -1.14568241e-01
      3.65527757e-02 -1.74891338e-01 7.78163364e-03 9.06182975e-02
      2.89217453e-03 3.03257070e-02 6.05893731e-02 -3.93581763e-02
      -6.19339384e-03 -5.42530417e-02 -2.75670607e-02 -5.07951081e-02 0.
      -5.24584465e-02 -4.17859554e-02 -1.47733614e-01 5.71521968e-02
      1.26240224e-01 7.95166716e-02 1.72201842e-02 1.32825943e-02
      -5.71895801e-02 -2.95222327e-02 4.00694273e-03 -2.33143754e-02
      3.92379100e-03 2.64910646e-02 4.14805040e-02 -9.10342932e-02
      2.20237374e-02 1.12372518e-01 -1.37294114e-01 -5.79431914e-02
      -1.12437151e-01 1.40968915e-02 9.07641873e-02 5.39578274e-02
      -2.38495339e-02 -8.03369470e-03 4.72713932e-02 6.38563409e-02
      3.14369649e-02 5.99348336e-04 -6.72919229e-02 0. -7.59311616e-02
      -8.11117738e-02 1.09102271e-01 8.26524869e-02 4.33662161e-02
      -3.10526881e-02 -6.01836219e-02 8.71813893e-02 9.68858823e-02
      -6.72601387e-02 -7.44357184e-02 3.52757238e-02 -1.04134016e-01
      -1.40045881e-01 -1.10526849e-02 -1.82416313e-03 -7.83384219e-02
      8.06758180e-02 3.12198438e-02 -8.92448649e-02 1.06424280e-01
      -3.14020701e-02 -3.10551375e-02 -6.16790168e-02 -5.97088821e-02
      -7.05119048e-04 8.91352594e-02 6.29198253e-02 -2.41906289e-02
      -2.36621108e-02 -1.04741722e-01 0. -4.45358306e-02 -9.45337713e-02
      -1.17356225e-03 -1.34019196e-01 -9.68393981e-02 2.84380419e-03
      -5.12456745e-02 -2.63536703e-02 6.55397549e-02 -2.77957562e-02
      -6.99936673e-02 4.35528606e-02 2.97882184e-02 6.86733350e-02
      2.10632533e-02 -3.73397768e-02 3.53579372e-02 1.11826874e-01
      1.55300954e-02 -1.34186298e-01 2.34743226e-02 -1.16900750e-01
      2.32254565e-02 -3.60548124e-02 -7.06161484e-02 2.06269100e-02
      5.57466261e-02 4.42775041e-02 -4.22080308e-02 -4.38719988e-02
      -5.49213253e-02 0. 1.14462703e-01 4.33124490e-02 -7.45863169e-02
      -1.16932176e-01 -2.67251227e-02 3.76982242e-02 -1.29990622e-01
      -1.15106236e-02 -4.50703725e-02 1.29499780e-02 7.48570561e-02
      -5.35777695e-02 -3.32105346e-02 1.16040342e-01 9.04746875e-02
      5.96110411e-02 -7.02089455e-04 3.87186669e-02 7.62225315e-02
      9.97836143e-02 -5.80370054e-03 -1.14253201e-01 6.32753894e-02
      1.02372609e-01 -4.34144177e-02 1.14361942e-02 1.09363291e-02
      1.60393089e-01 2.34840475e-02 -5.84027618e-02 -8.03050846e-02 0.
      -3.59020662e-03 -7.18188137e-02 7.34900236e-02 5.52374823e-03
      9.47931223e-03 7.39501193e-02 -9.17815790e-02 6.24354323e-03
      8.96177441e-02 -1.31104365e-01 7.00036362e-02 -9.64756161e-02
      -1.53083084e-02 -1.26787469e-01 -1.47339478e-01 -1.58919856e-01
      1.57129273e-01 -1.42565267e-02 1.77357662e-02 -3.68880667e-02
      -2.29167063e-02 4.35674191e-03 -5.07583208e-02 -7.85528347e-02
      -1.56894743e-01 1.65319324e-01 9.08722132e-02 5.60167991e-02
      8.51224177e-03 -8.39215592e-02 -1.55942261e-01 0. 1.66667253e-01
      -1.07658498e-01 4.17614542e-02 -6.09038584e-02 -5.25371395e-02
      5.66834733e-02 2.47301776e-02 3.95624340e-02 1.08585894e-01
      1.08413212e-01 9.61848423e-02 7.35784695e-02 1.53974136e-02
      -1.87701900e-02 -3.33648659e-02 -2.85155065e-02 8.26003999e-02
      5.83368316e-02 1.46544889e-01 5.20098675e-03 6.00210056e-02
      -7.02909678e-02 -6.73802868e-02 1.45318769e-02 -2.04405971e-02
      -2.94600949e-02 6.08551241e-02 9.84240249e-02 2.63371561e-02
      1.04150631e-01 4.01405841e-02 0. 4.67041694e-02 6.27653375e-02
      5.58841527e-02 -8.08772445e-02 4.74288389e-02 -9.21199694e-02
      2.20106132e-02 1.58365183e-02 1.97523311e-01 -3.89828794e-02
      -1.01242006e-01 3.40205543e-02 1.13678081e-02 -5.59298322e-02
      -2.99747791e-02 -8.29519108e-02 -1.53425813e-01 -3.97363827e-02
      1.02255210e-01 -4.41010892e-02 3.46465148e-02 -1.28428107e-02
      4.52068150e-02 -3.92355546e-02 -1.69072542e-02 -1.33386642e-01
      1.56794429e-01 3.62820849e-02 1.35403927e-02 -7.20600784e-02
      -6.34155497e-02 0. -2.35619783e-01 -3.14573571e-02 -1.47098660e-01
      4.54826392e-02 1.00138582e-01 -7.49256602e-03 -7.28936791e-02
      6.60856366e-02 1.11685060e-01 -4.81584817e-02 -4.99612726e-02
      2.26308256e-02 1.05902944e-02 1.17964804e-01 9.53621268e-02
      -6.12361766e-02 -3.34391766e-03 -4.53395285e-02 -4.04275432e-02
      -5.15288375e-02 -5.16994484e-02 1.75183062e-02 1.81563988e-01
      2.87575070e-02 -8.54626298e-02 7.77943730e-02 9.34975967e-02
      1.88400988e-02 -5.94514469e-03 -5.04801124e-02 -2.49514617e-02 0.
      -1.18523158e-01 5.09402417e-02 2.56028236e-03 -8.61383453e-02
      9.55597535e-02 1.13000264e-02 -2.67496575e-02 -3.96078341e-02
      1.79850254e-02 -9.58065540e-02 -1.22602902e-01 -4.58447523e-02
      5.36013767e-02 1.07728787e-01 6.70180991e-02 -1.85094386e-01
      -6.04143105e-02 4.62608226e-02 -1.22368582e-01 -2.95387432e-02
      -8.78969058e-02 -4.90623377e-02 2.13207915e-01 -2.32669692e-02
      -1.42171562e-01 -5.19924834e-02 5.84790371e-02 -1.10546891e-02
      -1.36303026e-02 -9.50057507e-02 -3.48471403e-02 0. -1.40835091e-01
      -8.86246748e-03 8.36017448e-03 -8.24085101e-02 4.16664518e-02
      4.08198126e-02 -1.35372886e-02 1.32773027e-01 3.74074876e-02
      -1.38640150e-01 -6.25852123e-02 4.08188142e-02 -2.43423413e-02
      1.00693749e-02 1.51274046e-02 -7.10686967e-02 -9.21008587e-02
      1.37845529e-02 -6.02896176e-02 -7.86271598e-03 1.28235996e-01
      -5.40586226e-02 3.46921571e-02 -2.70686559e-02 -5.60877100e-02
      3.02726757e-02 -1.40307667e-02 1.43133877e-02 2.21008621e-02
      -1.09112971e-01 -6.56824335e-02 0. 2.24981401e-02 6.14321865e-02
      9.74876285e-02 -1.31387770e-01 -2.07242090e-02 -5.69421574e-02
      3.01611908e-02 -1.77431013e-02 3.75530310e-02 -2.98067331e-02
      1.12585209e-01 8.46520364e-02 -4.73024771e-02 9.01136026e-02
      -7.12323561e-02 -8.41451734e-02 -2.43112333e-02 2.28614416e-02
      8.75240192e-02 2.45766919e-02 8.02113190e-02 -1.49941921e-01
      -8.18175205e-04 -1.23583123e-01 -6.30861297e-02 -6.77488837e-03
      -1.15227690e-02 5.66492081e-02 1.09948181e-01 -8.05109590e-02
      -5.03782146e-02 0. -4.49702665e-02 4.69959714e-02 7.03358091e-03
      -4.24664952e-02 -8.37437809e-03 -2.99902167e-02 5.25725000e-02
      5.18877693e-02 8.31733793e-02 -7.34135658e-02 -5.04556447e-02
      1.06321797e-01 5.38939191e-03 -3.31471190e-02 2.82340702e-02
      6.14069626e-02 -1.30420346e-02 3.32720578e-02 -5.06968684e-02
      2.95295119e-02 7.30595067e-02 -6.89471588e-02 -7.33856410e-02
      4.59250733e-02 9.41757858e-02 3.43364738e-02 7.71293640e-02
      1.26932383e-01 1.89487576e-01 -1.35303423e-01 -9.60629061e-02 0.
      -8.37703347e-02 -1.75839856e-01 -1.07954126e-02 -2.20206194e-02
      2.58114729e-02 3.82485241e-02 1.54296486e-02 8.39342847e-02
      8.85875225e-02 -1.37385666e-01 4.00011279e-02 4.82316948e-02
      1.65453479e-01 -7.88248107e-02 -6.46104291e-02 2.19520424e-02
      7.76825845e-02 -5.31189051e-03 -2.19757538e-02 -6.63681030e-02
      3.97064313e-02 1.35048762e-01 -2.33287294e-03 3.97635661e-02
      -2.47916616e-02 1.19773485e-01 4.43448424e-02 4.56293933e-02
      7.73484260e-02 -7.42567554e-02 -3.61000821e-02 0. 3.86257805e-02
      -7.03639388e-02 -6.36391342e-04 -3.30891162e-02 -3.31971049e-03
      6.44952729e-02 1.30939230e-01 2.53502373e-02 6.15512282e-02
      1.65004991e-02 4.42374796e-02 4.95493002e-02 -1.78811941e-02
      4.51401528e-03 6.89466251e-03 -8.34901258e-02 -4.83677797e-02
      2.58029997e-02 1.79019161e-02 6.29042462e-02 3.68441567e-02
      -6.41171038e-02 1.12372831e-01 1.30535558e-01 -2.56198402e-02
      -1.31027818e-01 4.47591804e-02 6.42060488e-02 -8.98014661e-03
      1.45290811e-02 2.98576597e-02 0. 5.72360754e-02 -9.38108265e-02
      1.21798895e-01 -6.40676767e-02 -1.05149932e-01 8.11039063e-05
      1.10746972e-01 7.39392862e-02 1.05906680e-01 7.68989185e-03
      8.13078806e-02 -8.34241416e-03 -6.64660186e-02 -7.91936442e-02
      -2.38077808e-02 -8.06376785e-02 -1.03254303e-01 -5.65639883e-03
      1.23459473e-01 3.31585146e-02 7.49340653e-02 -7.34686777e-02
      -6.05219267e-02 1.90227367e-02 1.18740909e-02 -8.24822783e-02
      7.85308108e-02 1.47421630e-02 4.81077619e-02 -4.03460674e-02
      -5.62938005e-02 0. -1.31559595e-01 1.40340745e-01 8.01309273e-02
      2.03311797e-02 5.74682606e-03 -1.02527700e-02 7.88136274e-02
      1.12197421e-01 2.43591800e-01 -1.16196901e-01 -3.98605801e-02
      -6.06716871e-02 -2.69451737e-02 -7.34130368e-02 -5.54106869e-02
      -4.10215184e-02 -1.52265793e-02 -1.78635456e-02 -5.33686019e-02
      6.71347529e-02 -1.36314193e-02 -2.42575388e-02 1.12259090e-02
      -3.66379023e-02 8.10046420e-02 7.69241601e-02 1.17043652e-01
      5.70767224e-02 9.19520780e-02 -6.78450614e-02 -3.74706089e-02 0.
      -9.29224640e-02 1.37729540e-01 -2.28866283e-02 -2.34293193e-02
      1.65845323e-02 7.92278573e-02 8.72633532e-02 1.10864982e-01
      8.46891999e-02 3.37059647e-02 -9.43104550e-03 -3.53239402e-02
      1.58202823e-03 -4.35172655e-02 -4.01813835e-02 -6.46903068e-02
      4.14716229e-02 1.56997770e-01 -2.45111398e-02 9.53751057e-02
      -3.38276215e-02 -5.44712432e-02 2.72010006e-02 -1.27148656e-02
      -1.05712069e-02 1.71004280e-01 1.60512462e-01 8.32595900e-02
      4.23195623e-02 1.25120291e-02 5.88288195e-02 0. -9.01912227e-02
      1.32072061e-01 1.48245543e-01 3.48795876e-02 -4.42210920e-02
      -5.94763421e-02 -6.33879676e-02 -3.26899812e-02 2.75949761e-02
      -8.92843306e-02 4.75190468e-02 5.08539230e-02 1.10358112e-02
      -1.89619008e-02 3.63194779e-03 9.83136445e-02 -7.07867518e-02
      7.10089952e-02 3.66203971e-02 6.06985800e-02 2.14281559e-01
      4.16412652e-02 4.06938195e-02 -7.00365007e-02 1.34660173e-02
      -6.20583892e-02 5.43418080e-02 7.36218542e-02 6.76769018e-02
      -5.86577989e-02 -9.02905501e-03 0. -2.22887062e-02 3.70673463e-03
      1.30861118e-01 2.00270265e-02 2.31627300e-02 5.35827167e-02
      -4.54021953e-02 -4.45021838e-02 -3.47368396e-03 5.96603416e-02
      1.06122389e-01 -5.99812381e-02 9.52484924e-03 -3.96481389e-03
      6.12277351e-02 -8.02873522e-02 -9.58869755e-02 -1.06097702e-02
      1.24524049e-01 4.56676856e-02 6.12210259e-02 2.74666417e-02
      2.68398579e-02 4.22250107e-02 -6.25380054e-02 -1.23352677e-01
      -5.22005148e-02 3.03628165e-02 1.47840872e-01 -1.15216285e-01
      -1.51503086e-02 0. -8.92739594e-02 7.95628875e-02 -1.95076428e-02
      -9.22974125e-02 2.07609721e-02 -1.14333585e-01 -4.41316552e-02
      -3.16589363e-02 7.54084513e-02 8.63860622e-02 -6.35283254e-03
      -2.38494743e-02 -5.30087128e-02 4.74950522e-02 2.66255252e-02
      -3.87810878e-02 -4.91328388e-02 -1.75299216e-02 1.49485627e-02
      -2.17960030e-03 -7.28344247e-02 -8.51699412e-02 1.30719449e-02
      -1.19628221e-01 -6.33899048e-02 -4.02904255e-03 5.86029887e-02
      5.39412489e-03 1.92775488e-01 -2.17269123e-01 -9.57425237e-02 0.
      7.11533520e-03 -1.48394063e-01 2.73022521e-02 1.65124144e-02
      1.72473907e-01 5.86358719e-02 -2.42633205e-02 4.43300717e-02
      2.57430635e-02 -3.28054726e-02 4.32428084e-02 8.21965840e-03
      -1.44082621e-01 -5.55972457e-02 -8.03027824e-02 -4.28799279e-02
      -9.94268805e-02 -9.57352221e-02 6.32769167e-02 -1.12986639e-01
      4.52688821e-02 9.71493777e-03 1.44010007e-01 7.16594085e-02
      -3.69939767e-02 -9.77105722e-02 -9.19947624e-02 4.49654162e-02
      1.38527462e-02 -8.74421448e-02 -1.22182623e-01 0. 5.47051355e-02
      -5.92767149e-02 7.52749741e-02 5.72642535e-02 5.60369678e-02
      5.13634868e-02 2.88745407e-02 8.95383582e-03 2.96268128e-02
      2.93076187e-02 -5.54185696e-02 6.56695068e-02 1.43352011e-02
      -1.25342980e-01 -3.20083238e-02 2.10094396e-02 -9.42822471e-02
      1.03179328e-01 6.15753755e-02 -3.82165052e-02 2.46419925e-02
      1.12188999e-02 -5.28635532e-02 4.15545590e-02 1.95382964e-02
      -1.03082672e-01 2.27897465e-02 7.50155970e-02 3.47085781e-02
      7.46403961e-03 -9.10928100e-03 0. -4.46189158e-02 -1.25533730e-01
      1.37717962e-01 -5.70697412e-02 -3.52949873e-02 5.62322289e-02
      2.54561310e-03 1.29407927e-01 7.82182962e-02 4.89302613e-02
      1.99449416e-02 7.26479292e-02 -5.14055602e-02 -1.11213066e-01
      -2.70864107e-02 -1.62249431e-01 -7.25979805e-02 6.65973797e-02
      6.81485757e-02 -1.11714937e-02 1.91751555e-01 -7.37479404e-02
      -1.51370570e-01 -5.47261676e-03 -1.24633901e-01 1.03071155e-02
      1.17467918e-01 5.46601489e-02 -2.38198191e-02 -5.87903662e-03
      -6.02348447e-02 0. -9.53236818e-02 5.19342832e-02 5.64536266e-02
      2.95568518e-02 2.28070281e-02 5.13467416e-02 -6.26169518e-02
      6.32568821e-02 1.58954754e-01 -2.84449495e-02 7.58279767e-03
      -2.21925676e-02 2.28114165e-02 1.37043241e-02 -2.41649747e-02
      -1.52297825e-01 -8.40555280e-02 -3.53027098e-02 7.09122419e-02
      8.39854181e-02 9.21996590e-03 8.46277550e-03 -2.08042003e-02
      1.05174752e-02 -1.52581483e-01 -4.33149263e-02 7.73654953e-02
      6.84567466e-02 3.36643644e-02 -7.99696241e-03 -1.06376059e-01 0.
      -1.56067491e-01 5.53653203e-02 6.45730719e-02 -2.72986684e-02
      -1.19441412e-01 -3.35945636e-02 -3.15176994e-02 6.51314389e-03
      1.20795116e-01 -5.57848215e-02 2.13835221e-02 -3.06287128e-02
      -1.19761750e-01 -2.68633477e-02 -6.00103848e-03 -1.51371554e-01
      -8.53793696e-02 -5.60211428e-02 -4.30043414e-02 2.66148951e-02
      -3.20453607e-02 -1.34484604e-01 -1.12363577e-01 -2.71655545e-02
      -1.36678100e-01 -4.88066785e-02 -2.02718917e-02 -6.45548031e-02
      -9.09339786e-02 -3.61713357e-02 -1.05841063e-01 0. 2.26425715e-02
      2.03741074e-01 9.51544046e-02 -4.53321338e-02 -9.88160074e-02
      9.63290688e-03 7.22798631e-02 1.06283007e-02 1.20175444e-01
      -1.64725080e-01 -4.11753682e-03 -1.55804809e-02 -7.70999342e-02
      -5.74173741e-02 8.84767398e-02 -4.04524244e-02 -8.59521702e-02
      4.73178877e-03 1.02945700e-01 9.16623175e-02 5.27965054e-02
      -1.02401622e-01 -4.01299298e-02 3.91466059e-02 7.21765161e-02
      -4.67465669e-02 1.69266236e-03 -1.10232234e-02 2.14202683e-02
      9.04765818e-03 -1.54567102e-03 0. 9.89537537e-02 -3.26828882e-02
      -7.91694503e-03 -1.13422342e-01 6.62499815e-02 4.85536754e-02
      -2.92907842e-02 -2.02717446e-02 2.37109307e-02 -2.58173626e-02
      -4.57077026e-02 -1.63713899e-02 -2.58797524e-03 -4.88576200e-03
      1.36618882e-01 7.86266178e-02 -9.65381972e-03 1.03919469e-01
      7.44981170e-02 -8.50339457e-02 -6.68404624e-02 -8.36254135e-02
      3.88360843e-02 6.99931756e-02 7.05276523e-03 -6.71652565e-03
      7.79535919e-02 -4.28249799e-02 1.35966316e-01 -1.90415308e-02
      4.28190008e-02 0. -4.66327034e-02 -4.02825931e-03 4.57448326e-02
      -2.65372936e-02 6.70392439e-02 8.55211541e-02 6.14597611e-02
      -6.09241938e-03 2.57225651e-02 4.21524607e-02 4.71644104e-02
      -4.54152381e-04 1.96989421e-02 2.66735516e-02 4.14166693e-03
      -1.06156871e-01 -5.35034202e-02 -5.24248742e-02 -6.46642148e-02
      -4.31568176e-02 7.19439834e-02 1.71967931e-02 5.95118590e-02
      7.41430894e-02 -5.43907806e-02 1.32893752e-02 1.76828746e-02
      1.14776522e-01 2.09082335e-01 -2.04925880e-01 -5.78920916e-02 0.
      -8.76357872e-03 -9.49602202e-02 6.89622685e-02 6.18922412e-02
      8.16493109e-02 1.00713149e-01 -2.03287024e-02 1.46507010e-01
      -3.47530283e-02 -3.43825892e-02 7.30643496e-02 8.02303627e-02
      -9.51315463e-02 -5.11318771e-03 -1.38409838e-01 -6.26703799e-02
      -1.36863366e-01 -9.28763822e-02 -2.11678259e-02 -9.46969986e-02
      6.48498461e-02 1.91855617e-02 4.73714154e-03 -4.40711230e-02
      -5.62031865e-02 -1.33310603e-02 -9.34459865e-02 4.81109843e-02
      3.71601991e-02 -9.96877030e-02 -3.80192474e-02 0. 8.58108550e-02
      -5.68001121e-02 -9.39796586e-03 2.96679642e-02 4.10414040e-02
      1.13743439e-01 6.97729141e-02 1.08903520e-01 1.19882777e-01
      -1.70936098e-03 9.16972905e-02 9.88425538e-02 -4.98544872e-02
      -4.65043373e-02 1.06247468e-02 -8.89223516e-02 -1.97861165e-01
      -3.77187803e-02 6.99876472e-02 4.26329300e-02 3.30004431e-02
      -9.10130143e-02 -5.20258658e-02 3.51567417e-02 -6.51706010e-02
      -4.91730310e-02 1.78777333e-02 2.84506846e-02 4.54023294e-02
      1.18719721e-02 4.68416102e-02 0. -3.95022711e-04 5.70646115e-02
      -3.71339992e-02 -4.47651483e-02 -1.07810497e-01 -2.80122217e-02
      -4.88043800e-02 6.72203377e-02 2.57431101e-02 -3.44678313e-02
      1.18715707e-02 3.47841829e-02 -3.77218500e-02 -1.63426295e-01
      -8.18222389e-02 -1.76227584e-01 -6.93981573e-02 9.28926561e-03
      4.87355888e-02 2.67623868e-02 7.02602342e-02 -5.68614304e-02
      -2.39477649e-01 -4.88223694e-02 -1.76271930e-01 2.05056816e-02
      1.79411145e-04 -1.07149407e-01 -1.13547146e-02 -9.23109427e-02
      -8.33442733e-02 0. -1.13751583e-01 8.78975540e-02 1.26135886e-01
      1.23904489e-01 3.30650397e-02 2.11819578e-02 -1.29696149e-02
      6.98342547e-02 3.96863669e-02 -5.17116077e-02 2.64210291e-02
      -7.88047351e-03 3.42107825e-02 -9.76415202e-02 -3.62497419e-02
      -7.20383748e-02 -1.30342273e-02 -1.27899110e-01 1.90029182e-02
      1.50984392e-01 1.18688919e-01 1.52173921e-01 1.00177026e-03
      2.97998777e-04 -6.40554130e-02 4.06239601e-03 -2.92063765e-02
      1.90202538e-02 6.74885958e-02 -5.81857972e-02 -1.45765040e-02 0.
      -4.52358611e-02 1.50318921e-01 9.08018798e-02 -1.09597482e-02
      -1.32149458e-01 2.44854600e-03 -5.40087298e-02 2.26160526e-01
      1.18947364e-01 5.04489206e-02 7.36316899e-03 -5.96706085e-02
      -4.74366359e-02 -1.33523911e-01 -1.32539541e-01 -8.87590125e-02
      -1.41529161e-02 -3.26356888e-02 7.16065839e-02 1.02849983e-01
      -1.53767597e-02 -3.07084192e-02 -1.14480935e-01 -4.85975556e-02
      -9.92660746e-02 1.32651448e-01 7.23460168e-02 -2.73208916e-02
      4.53542033e-03 -2.39837989e-02 -2.53106374e-03 0. -2.25360040e-02
      1.53907329e-01 3.57361585e-02 -1.56869054e-01 -1.05355248e-01
      -6.11627055e-03 -6.63006529e-02 1.52204365e-01 1.78010389e-01
      -1.95785180e-01 -1.60122048e-02 -2.21064407e-02 -9.10293981e-02
      -3.07967737e-02 -2.34809853e-02 -1.10139214e-01 -6.73347488e-02
      -2.72183008e-02 -1.06257387e-01 9.43295136e-02 3.77018144e-03
      -1.38983041e-01 -4.51214127e-02 -6.44340441e-02 -1.20561808e-01
      3.46655883e-02 4.96595502e-02 -6.76149353e-02 -5.17413616e-02
      -5.85332327e-02 -2.06746440e-02 0. 5.65216914e-02 -1.21080633e-02
      -7.21214935e-02 -6.11310080e-02 6.63150549e-02 1.05932266e-01
      6.52171224e-02 5.03630824e-02 9.14856717e-02 8.91699397e-04
      -1.75882444e-01 7.43279932e-03 -4.61555794e-02 -3.27256285e-02
      -3.48131247e-02 -1.04550876e-01 -1.19833022e-01 1.64490134e-01
      6.06387444e-02 -9.42863524e-02 8.99977633e-04 -9.92120951e-02
      8.77105519e-02 -1.23518938e-02 -6.42641485e-02 1.53894210e-03
      1.15133509e-01 7.40096271e-02 -3.21301296e-02 -6.38892362e-03
      -5.93772419e-02 0. -2.80671008e-02 1.15317944e-03 7.90940411e-03
      3.08202319e-02 1.69282153e-01 1.14957996e-01 -1.78253409e-02
      -5.27046528e-03 5.38609475e-02 7.62766646e-03 3.85001004e-02
      7.53146457e-03 -7.47111347e-03 -6.03806376e-02 1.81333739e-02
      -4.16072495e-02 -1.47121415e-01 -6.13609254e-02 -6.43134303e-03
      1.09294672e-02 6.09749928e-03 5.03835268e-02 -1.99413323e-03
      7.10149035e-02 -6.12663850e-02 -7.46413842e-02 7.09570944e-03
      1.86826408e-01 1.11028045e-01 -5.79280667e-02 -2.01897472e-01 0.
      2.56896447e-02 -1.83834806e-01 4.23669107e-02 1.24646258e-02
      -3.55403051e-02 9.96574759e-02 1.41718471e-02 -6.14176318e-02
      -8.87035131e-02 2.20006946e-02 -1.62467360e-02 9.01424065e-02
      -9.24881399e-02 -9.90839973e-02 -5.32523021e-02 -1.40025560e-02
      3.46672051e-02 2.78958566e-02 1.22706160e-01 -1.18564732e-01
      7.40778148e-02 -5.98264800e-04 4.29766551e-02 3.19687910e-02
      8.27080291e-03 4.79504513e-03 -2.17934009e-02 3.63377407e-02
      1.15669452e-01 -2.19399676e-01 -6.24844693e-02 0. -1.47203669e-01
      -6.16913922e-02 -4.45656385e-03 -2.12647729e-02 6.98776543e-02
      5.59930429e-02 -7.58077055e-02 -3.23769674e-02 7.78856948e-02
      -5.62698916e-02 9.19202790e-02 1.46665722e-01 2.98711602e-02
      -1.04137324e-01 -1.36320265e-02 -3.39888297e-02 -1.90939859e-01
      7.59355128e-02 -1.23971470e-01 -2.22814865e-02 7.54079223e-02
      1.91873275e-02 -2.79006511e-02 -2.43792101e-03 -8.69927257e-02
      -1.52529478e-01 4.51430082e-02 -7.46052712e-02 2.16666274e-02
      -4.79373671e-02 9.60352551e-03 0. -4.84261289e-03 -6.54209754e-04
      5.94875123e-03 -4.09203321e-02 4.14140411e-02 -8.75126757e-03
      -8.81771650e-03 -1.59370899e-02 1.29218638e-01 5.79734966e-02
      1.18955314e-01 8.09135661e-03 3.68365310e-02 -1.47968069e-01
      -5.41990921e-02 -1.66157767e-01 -1.35033175e-01 -4.78974320e-02
      9.07579958e-02 9.20284241e-02 -4.39327322e-02 -1.43917808e-02
      -9.97830257e-02 -1.08698435e-01 -1.55728728e-01 -1.57015637e-01
      7.02878013e-02 -1.13960907e-01 2.96640862e-02 -6.33513555e-02
      3.79342176e-02 0. 7.60816857e-02 5.79123311e-02 1.09532267e-01
      -7.79061690e-02 -5.83044626e-02 -1.90311186e-02 5.27764969e-02
      4.09020633e-02 1.07369408e-01 -2.90251598e-02 -5.75124845e-02
      -1.16119117e-01 2.60384474e-02 -8.06280971e-02 8.16950388e-03
      -7.10605532e-02 -4.52502891e-02 -7.39175975e-02 1.35361552e-01
      -8.24705511e-03 8.35305154e-02 -1.59479241e-04 -6.73841611e-02
      8.45579430e-03 -6.71210289e-02 -2.52023395e-02 1.77751817e-02
      -2.08178833e-02 1.30473137e-01 -1.49434492e-01 -3.09179910e-02 0.
      -1.35460675e-01 -5.15462458e-02 1.59994848e-02 -9.23173726e-02
      -7.86493421e-02 -5.69574423e-02 4.22977284e-02 1.69392452e-01
      7.46648535e-02 9.46250092e-03 4.97181341e-02 -4.78683263e-02
      7.46204406e-02 2.37511806e-02 -6.28541484e-02 -5.09615950e-02
      -5.59273474e-02 -1.43328846e-01 -6.71025366e-02 -4.78688963e-02
      3.96986082e-02 -1.32175935e-02 6.48213737e-03 -1.18513554e-01
      -4.76630628e-02 4.28232141e-02 -2.35422328e-02 -6.39451668e-02
      8.33414774e-03 -1.04401186e-01 1.10665215e-02 0. -6.41814023e-02
      1.28711879e-01 1.08293453e-02 -2.86106262e-02 -1.40077155e-02
      -2.84194145e-02 6.98719639e-03 5.73380664e-02 7.55965114e-02
      -1.56073049e-01 -4.96016741e-02 -5.11171408e-02 4.08981135e-03
      -6.95834905e-02 1.59822237e-02 -4.59685400e-02 6.73624575e-02
      1.07687041e-01 -5.38754538e-02 3.88418250e-02 -4.67476808e-02
      -2.64502708e-02 -2.96235681e-02 -3.11923381e-02 -3.88892181e-02
      7.43617043e-02 1.00200430e-01 -5.40597588e-02 3.98362465e-02
      -4.35372368e-02 4.22146581e-02 0. -1.29750624e-01 9.21255723e-02
      -2.97898948e-02 2.06825649e-03 1.07729428e-01 1.38943940e-01
      7.54240453e-02 1.19579164e-02 -2.02952772e-02 -4.92428653e-02
      -1.09687530e-01 -1.12185612e-01 -8.03515315e-02 1.05023058e-02
      -6.49487376e-02 2.56218351e-02 -1.22926179e-02 1.56817716e-02
      -7.69825131e-02 -3.77158485e-02 -2.49114465e-02 -2.47996533e-03
      1.08372211e-01 5.96008487e-02 7.78939053e-02 4.13079448e-02
      -7.75459036e-02 1.85683500e-02 6.45956099e-02 -9.55205858e-02
      -4.82133999e-02 0. -1.20360926e-01 4.83219810e-02 1.02005806e-02
      1.73165426e-02 3.03759407e-02 5.97880594e-02 3.54800895e-02
      1.31877720e-01 2.69461870e-02 -8.35024565e-02 -6.62538111e-02
      1.65346600e-02 -8.39103013e-02 -8.89873803e-02 2.00458132e-02
      -7.92640746e-02 -1.58511937e-01 -9.14197639e-02 -9.46296826e-02
      -2.51410473e-02 9.83097702e-02 -9.69185587e-03 -4.74160872e-02
      7.08741397e-02 -5.10666892e-02 1.94427017e-02 -4.53838073e-02
      1.52570438e-02 1.22241065e-01 -1.57207847e-01 -1.57217562e-01 0.
      -1.29191786e-01 -1.30142584e-01 1.17249787e-01 -8.81797150e-02
      3.70780192e-02 6.74242899e-02 2.53636390e-02 4.52291816e-02
      8.72328356e-02 -1.08215772e-01 -1.36049241e-01 2.59905290e-02
      -9.91760641e-02 6.82809874e-02 -6.24452345e-03 -5.96928522e-02
      -6.86153886e-04 1.76919997e-02 -1.13127612e-01 -1.76922917e-01
      1.77402541e-01 -1.07846923e-01 7.03663900e-02 9.11210477e-03
      -3.61274630e-02 -4.32042778e-02 7.10646659e-02 6.71938583e-02
      1.03640690e-01 -1.40585840e-01 -1.55658826e-01 0. -1.86740085e-01
      -1.60684474e-02 1.07691638e-01 -5.75013421e-02 -2.85555590e-02
      5.62066846e-02 -2.82254722e-02 1.14563098e-02 4.07884568e-02
      -4.37314846e-02 8.09776038e-02 1.79626867e-02 -7.22982809e-02
      5.02767786e-02 4.30728234e-02 -4.58168276e-02 -2.32907441e-02
      -3.41632143e-02 -6.43000752e-02 6.74131960e-02 1.86262190e-01
      -2.17803400e-02 1.17114689e-02 7.43291825e-02 -2.87364833e-02
      -2.10137223e-03 -3.22892517e-02 -2.02200878e-02 -4.48005013e-02
      -9.56587866e-03 1.42668169e-02 0. 5.01250401e-02 6.36858400e-03
      8.78108516e-02 -8.47694185e-03 -9.96780992e-02 5.27530499e-02
      -8.33041221e-02 -1.22639298e-01 -4.53268364e-02 9.45142359e-02
      6.26517683e-02 3.95292342e-02 3.16991620e-02 -4.88828421e-02
      2.85094026e-02 -4.50230278e-02 -5.72741516e-02 -5.55697493e-02
      7.40927458e-02 5.85002638e-02 5.34879044e-02 1.67383195e-03
      -4.55766469e-02 2.23658178e-02 -1.65617734e-01 -1.10331178e-01
      -5.99084385e-02 -4.42062132e-02 -5.43230474e-02 3.42475250e-02
      1.13841621e-02 0. 3.62000763e-02 -5.05867116e-02 -9.43307858e-03
      -1.40972614e-01 -8.48628432e-02 8.91874451e-03 -5.55978157e-02
      2.40853745e-02 2.10093752e-01 3.00974287e-02 5.15982881e-03
      -9.01512578e-02 -8.24163144e-05 -6.73322007e-02 2.16386002e-02
      -5.00930026e-02 2.10792758e-02 3.65463085e-02 1.25287905e-01
      -1.49271183e-03 -1.33002356e-01 -6.36350363e-02 -1.48031652e-01
      1.01446640e-02 -1.23522982e-01 2.60874201e-02 2.16569752e-01
      -3.16089690e-02 5.10374568e-02 -4.92500812e-02 -4.33832817e-02 0.
      5.63216954e-02 5.34928963e-02 -4.43537645e-02 -1.12212561e-01
      -1.87778194e-02 3.85723710e-02 -1.97237376e-02 1.36349648e-01
      1.19973466e-01 -2.52448916e-02 3.63416150e-02 -2.32868996e-02
      -3.82371321e-02 -1.09787829e-01 -1.17337503e-01 1.61728053e-03
      -5.53494692e-02 -1.48426937e-02 2.35477816e-02 4.18995246e-02
      -4.70563546e-02 -7.97184259e-02 -1.14432059e-01 -4.84191999e-02
      -3.33826505e-02 -5.23350686e-02 4.22534458e-02 2.70381514e-02
      3.20311114e-02 -1.01747096e-01 -2.16613151e-02 0. 1.59678552e-02
      1.32658750e-01 1.64412439e-01 3.37243942e-03 -3.47798429e-02
      6.57422394e-02 6.07596710e-02 1.47086084e-01 6.90196380e-02
      -1.49107382e-01 -1.38724208e-01 -1.56262085e-01 -1.28993005e-01
      -1.09827816e-01 -6.98493123e-02 -4.40799482e-02 -7.50298495e-04
      1.12469696e-01 -4.18708175e-02 6.37157355e-03 4.84042130e-02
      -7.20007867e-02 -5.83495907e-02 -6.18882477e-02 8.52019619e-03
      5.82788326e-02 5.70447780e-02 7.71179469e-03 7.01261684e-03
      -3.41498815e-02 -9.27576423e-03 0. 2.07606889e-02 1.15447134e-01
      2.55691726e-02 -8.22487846e-02 -1.08054588e-02 1.41173989e-01
      -1.39635708e-02 -2.49814428e-02 -7.30349869e-03 -1.69761047e-01
      -7.48759583e-02 -4.47787717e-02 -2.30817404e-02 -1.33269027e-01
      -3.02687138e-01 -3.51623967e-02 1.38731338e-02 5.93229011e-02
      -6.62058368e-02 -4.54107970e-02 6.79302588e-02 -1.09080479e-01
      -6.47247136e-02 -1.91061869e-01 -8.17803442e-02 -3.79135087e-03
      6.68612421e-02 -3.09554208e-02 1.82349496e-02 -9.06087905e-02
      -1.54418990e-01 0. 6.89480733e-03 -6.69388026e-02 -2.86061410e-02
      4.70187850e-02 5.50610684e-02 1.42437056e-01 5.38474098e-02
      8.69807154e-02 9.60961431e-02 -8.07555020e-02 -3.30748521e-02
      3.59282759e-03 1.84605066e-02 -5.14092334e-02 -7.52753168e-02
      -7.65648186e-02 -1.25772357e-02 -8.83447900e-02 -2.99179256e-02
      -7.43804201e-02 6.79731891e-02 8.76574311e-03 1.36739120e-01
      -4.03601751e-02 -2.53755338e-02 7.69234970e-02 2.75738854e-02
      -9.04179644e-03 1.74773768e-01 -7.37426579e-02 -9.34777036e-02 0.
      -1.39231980e-02 -1.37962565e-01 3.54003534e-03 -2.62041055e-02
      6.30749166e-02 1.07306406e-01 1.07524827e-01 4.09815088e-02
      6.18690029e-02 4.56561968e-02 1.32482899e-02 -1.65667713e-01
      3.04767583e-02 -8.22375491e-02 -7.97141939e-02 1.63038094e-02
      -9.95092988e-02 -7.13943839e-02 3.63027900e-02 -4.90985401e-02
      9.84421186e-03 1.40886486e-01 1.05396405e-01 4.35587689e-02
      9.00165364e-02 -5.86619303e-02 -1.12573234e-02 6.64451048e-02
      1.18343458e-01 -1.43194959e-01 -1.29571617e-01 0. -8.58508945e-02
      9.31772590e-02 1.33355102e-02 -5.64759672e-02 -2.87519991e-02
      7.86967203e-02 5.65357283e-02 3.98090407e-02 1.26329780e-01
      4.04490940e-02 -3.69886085e-02 6.68275810e-04 -2.87669450e-02
      3.84693849e-03 -4.34694923e-02 -2.99522094e-02 5.29675260e-02
      -1.74188223e-02 5.11361919e-02 3.85807194e-02 3.14818136e-02
      1.86130870e-02 6.04829378e-02 5.74413035e-03 -2.04957817e-02
      7.23172128e-02 7.61966854e-02 2.00960599e-03 4.17005084e-02
      9.35749803e-03 3.09080426e-02 0. -1.50260985e-01 4.51159477e-02
      7.23490492e-02 -1.53081575e-02 -1.69898391e-01 1.03813522e-01
      -1.88890435e-02 1.21498793e-01 1.24542348e-01 1.49640203e-01
      -1.77190620e-02 1.99850015e-02 2.78530344e-02 -7.76894018e-02
      -1.91791467e-02 -6.62747994e-02 -1.15549088e-01 -7.13625923e-02
      1.91245880e-02 4.61838283e-02 5.86861186e-02 1.41589111e-02
      -8.18593130e-02 -5.26951905e-03 -9.46905911e-02 1.50091504e-03
      2.93604825e-02 -4.43881676e-02 -5.48859872e-02 1.01799164e-02
      6.20675422e-02 0. 8.07504728e-03 -2.46289149e-02 -1.70637202e-02
      -6.71006143e-02 -1.15390643e-02 3.43207978e-02 -3.58531740e-03
      -5.36116324e-02 1.41703010e-01 -2.95944959e-02 2.15020791e-01
      1.16926141e-01 7.86841512e-02 -9.28221717e-02 -8.90383124e-03
      -2.49749105e-02 -1.63146071e-02 -1.09683029e-01 3.91468592e-02
      8.76790956e-02 1.17764976e-02 -5.14316256e-04 -1.15568653e-01
      2.77875848e-02 -5.99118695e-02 -7.04457387e-02 4.97949570e-02
      -5.92211587e-03 6.75138757e-02 -7.37387361e-03 9.37761739e-03 0.
      5.63118607e-02 1.25332996e-01 5.42067029e-02 5.18085808e-03
      -9.70024541e-02 3.51476371e-02 -3.95374969e-02 -5.98290078e-02
      4.65109721e-02 -5.27245812e-02 -3.04246284e-02 -2.16289405e-02
      -5.35907596e-02 -9.77368951e-02 -2.87174881e-02 6.77003637e-02
      8.24955553e-02 1.05700873e-01 2.34285351e-02 2.22708303e-02
      2.43913010e-02 -1.00058531e-02 -1.87454030e-01 2.62971874e-02
      -1.36784939e-02 1.00203194e-02 1.05232924e-01 5.26310690e-02
      9.69614685e-02 -9.31188539e-02 -1.05614243e-02 0. -8.49701390e-02
      4.46111597e-02 -2.73702182e-02 2.72412039e-02 -1.29056185e-01
      9.02078953e-03 4.38713692e-02 1.15350477e-01 9.47147384e-02
      -1.77976876e-01 -1.11413196e-01 -1.24997273e-01 -1.12125814e-01
      -1.67221844e-01 -1.36052728e-01 -2.36306917e-02 -2.42427085e-02
      6.64819553e-02 -3.01700812e-02 -3.69584113e-02 -1.07033983e-01
      -5.47001436e-02 -9.21724886e-02 -2.48000771e-02 -1.00419391e-02
      1.56881772e-02 3.82848531e-02 -3.36951353e-02 -4.14112285e-02
      -1.52202159e-01 -1.11046314e-01 0. 6.16674051e-02 -8.77257064e-03
      -6.92923218e-02 -2.80461609e-02 -7.63249993e-02 6.11623824e-02
      -1.04564754e-02 1.46364212e-01 7.85439909e-02 -2.50051450e-02
      -1.08189747e-01 -1.10827789e-01 5.85817695e-02 -1.00825295e-01
      -1.37210950e-01 -6.28095046e-02 1.96267813e-02 6.10742047e-02
      3.38793285e-02 -1.65811077e-01 -3.75251323e-02 4.16643433e-02
      -5.96835315e-02 -5.97493649e-02 -2.15350389e-02 1.09732583e-01
      1.00712292e-01 -6.69821817e-03 1.42115133e-03 -5.96185252e-02
      -5.33033647e-02 0. 8.97808000e-02 -1.19132616e-01 5.08255251e-02
      6.88813776e-02 -9.21815708e-02 1.87908970e-02 6.60528243e-02
      1.16239727e-01 9.51409861e-02 -4.91243117e-02 -1.27242565e-01
      -2.67410249e-01 -2.90228259e-02 -8.49013857e-04 8.27552658e-03
      -1.05807438e-01 -5.23299687e-02 6.99906610e-03 6.97505027e-02
      -2.36661553e-01 -1.66793957e-01 -4.02091406e-02 6.23284234e-03
      3.87826487e-02 -6.28318116e-02 4.78561036e-02 6.06940836e-02
      -1.82009991e-02 4.18044589e-02 -9.02337581e-02 -8.52141678e-02 0.
      -2.19422370e-01 -2.30730567e-02 -2.63037253e-02 3.21591124e-02
      6.64215684e-02 9.53415856e-02 1.76968455e-01 1.95873097e-01
      4.24134657e-02 -1.09042317e-01 -7.75824115e-02 1.11598764e-02
      -3.81717235e-02 8.62289071e-02 3.81197333e-02 -6.27112761e-02
      6.64356258e-03 -6.98487312e-02 -1.33321360e-01 -7.91198462e-02
      -3.58493701e-02 3.46609317e-02 1.97675720e-01 7.70782828e-02
      1.41606316e-01 1.73799053e-01 -5.58885708e-02 1.47437721e-01
      7.69645199e-02 -2.64666285e-02 -1.38928711e-01 0. -1.64959550e-01
      -9.47230533e-02 4.98872958e-02 5.37218191e-02 8.20416138e-02
      1.41718194e-01 1.83136478e-01 9.95227695e-02 9.57514197e-02
      -2.17979383e-02 6.91137463e-02 5.97969592e-02 4.64124978e-03
      7.35724047e-02 6.59446865e-02 8.40981528e-02 -2.41702907e-02
      5.23852417e-03 -1.38424281e-02 -3.02742384e-02 3.12244147e-02
      2.23821327e-02 5.93236275e-02 1.10593021e-01 1.82742983e-01
      3.52115184e-02 8.33975226e-02 8.48669335e-02 6.01353012e-02
      1.40937358e-01 7.35191628e-02 0. -1.31567150e-01 9.09302533e-02
      6.56208843e-02 4.33926545e-02 2.05294490e-02 1.23010583e-01
      1.35251224e-01 3.82995531e-02 2.00224556e-02 -6.18291534e-02
      -6.07794933e-02 6.81021810e-03 9.72705632e-02 -4.23820131e-02
      2.29506064e-02 -9.39524919e-02 -4.53281216e-02 -2.20698006e-02
      -8.21125414e-03 8.96730945e-02 1.23399995e-01 1.17443897e-01
      -1.10895326e-02 5.47261536e-02 2.49233581e-02 -2.82264105e-03
      4.16664407e-03 1.49787730e-02 -2.40976419e-02 5.73766045e-02
      4.89356332e-02 0. -6.50163963e-02 -5.26944734e-02 4.16108258e-02
      1.05726540e-01 7.37233683e-02 2.45158836e-01 2.50558674e-01
      9.19354856e-02 9.31451544e-02 1.71735957e-02 5.48808314e-02
      1.23533092e-01 6.24420680e-02 -7.09996372e-02 -1.16123945e-01
      -2.01677680e-01 -7.69814923e-02 -3.81263345e-02 -5.23303263e-03
      -1.51811549e-02 1.29501179e-01 1.95699036e-01 4.89602908e-02
      4.52180021e-02 8.13512877e-02 7.82857314e-02 8.62209350e-02
      1.17463171e-01 1.37117524e-02 7.02478960e-02 5.23169339e-02 0.
      -1.58879772e-01 3.53804305e-02 9.19513851e-02 7.83344656e-02
      9.99220088e-02 1.10394180e-01 1.60034411e-02 1.83998048e-02
      6.15920983e-02 6.09686412e-02 5.39548099e-02 1.08410887e-01
      1.18708603e-01 -6.23728521e-02 3.71765420e-02 1.57877617e-02
      2.05935240e-02 -8.51979107e-03 -4.57432903e-02 1.60571467e-02
      1.36227548e-01 1.69993028e-01 4.98639122e-02 7.25855306e-02
      4.12437469e-02 4.08500433e-02 7.74075463e-02 2.08255455e-01
      7.99506456e-02 8.23008046e-02 -4.15610448e-02 0. -7.56215155e-02
      1.30178735e-01 4.74993661e-02 -5.97825721e-02 -5.71625773e-03
      9.36775133e-02 -2.38744095e-02 2.39790473e-02 -2.94085201e-02
      -8.09179023e-02 5.06693795e-02 -2.84534171e-02 -1.13016054e-01
      -3.54121643e-04 8.14625397e-02 1.35600343e-01 1.97991550e-01
      8.11281428e-02 -2.12581120e-02 1.05367400e-01 5.21419421e-02
      -1.33495092e-01 6.36562854e-02 5.68469875e-02 1.17727481e-01
      1.75882071e-01 -3.63592356e-02 1.60806805e-01 3.91155444e-02
      5.99927045e-02 -5.95503300e-02 0. 3.99759747e-02 5.38360700e-02
      3.46314386e-02 1.85625385e-02 1.93110138e-01 5.11602871e-02
      4.47357967e-02 9.36483517e-02 2.75758784e-02 -2.49952495e-01
      -8.04793369e-03 -3.12922671e-02 1.03990035e-02 -3.89176384e-02
      4.55325060e-02 8.90844539e-02 1.63222812e-02 3.40585597e-02
      -5.90327755e-02 -2.55879965e-02 -2.77803838e-02 3.12205928e-04
      1.35883808e-01 4.86849770e-02 1.08237006e-01 5.04921116e-02
      8.26253369e-02 1.23251386e-01 1.80794671e-02 7.75708333e-02
      -1.88287105e-02 0. -1.09408341e-01 -5.58179431e-02 1.77683175e-01
      1.13546513e-01 2.74212603e-02 6.07867874e-02 6.19128384e-02
      9.18141305e-02 -4.58600111e-02 -1.13206334e-01 -1.12919686e-02
      -1.05334215e-01 5.78166954e-02 2.94797849e-02 9.34250727e-02
      2.39318181e-02 -5.72273582e-02 -8.81067365e-02 -1.42661184e-01
      -1.08342193e-01 3.25862654e-02 7.12315813e-02 1.46044180e-01
      1.11590490e-01 4.13648374e-02 7.46545717e-02 -4.16021831e-02
      1.30188942e-01 -2.87329801e-03 1.97766218e-02 -7.56444409e-02 0.</_></support_vectors>
  <decision_functions>
    <_>
      <sv_count>1</sv_count>
      <rho>7.6925520044035622e-01</rho>
      <alpha>
        1.</alpha>
      <index>
        0</index></_></decision_functions></my_svm>
</opencv_storage>
