<?xml version="1.0"?>
<opencv_storage>
<my_svm type_id="opencv-ml-svm">
  <svm_type>C_SVC</svm_type>
  <kernel><type>LINEAR</type></kernel>
  <C>1.0000000000000001e-001</C>
  <term_criteria><epsilon>2.2204460492503131e-016</epsilon>
    <iterations>100000</iterations></term_criteria>
  <var_all>4096</var_all>
  <var_count>4096</var_count>
  <class_count>2</class_count>
  <class_labels type_id="opencv-matrix">
    <rows>1</rows>
    <cols>2</cols>
    <dt>i</dt>
    <data>
      0 1</data></class_labels>
  <sv_total>1</sv_total>
  <support_vectors>
    <_>
      1.71081275e-001 1.83564350e-001 -9.97306556e-002 -9.62413698e-002
      1.01988971e-001 2.06624791e-001 7.17311427e-002 -2.76470687e-002
      4.92039695e-003 3.57833415e-001 -8.09419826e-002 4.45091203e-002
      4.46763216e-003 6.44147098e-002 4.11077170e-003 3.95105295e-002
      -1.03516541e-001 7.91609958e-002 9.45358723e-002 3.73214372e-002
      -1.21640138e-001 -1.53744027e-001 -8.71786028e-002 2.22290650e-001
      1.17673799e-001 -3.42975557e-002 6.88668638e-002 -2.71211803e-001
      9.52738151e-002 8.69121999e-002 5.25467098e-001 0. 2.56501824e-001
      8.71077459e-003 1.30549669e-001 -9.80021507e-002 1.64675996e-001
      9.55441594e-002 -1.45504698e-001 -6.49964660e-002 -9.90730450e-002
      1.04381129e-001 2.27070507e-002 -2.90427394e-002 -3.01822508e-003
      2.92583674e-001 8.41286406e-002 -1.12427004e-001 3.61665636e-002
      2.40350999e-002 4.58530746e-002 6.17700778e-002 -1.07088231e-001
      -7.08296001e-002 2.57443905e-001 1.62884906e-001 -1.89321518e-001
      -1.48921967e-001 -1.27180591e-001 -9.23046097e-002 2.30151758e-001
      -2.10445505e-002 1.98054969e-001 0. 2.19564483e-001
      1.74077123e-001 -2.94295475e-002 2.83695366e-002 -3.85576338e-002
      -2.36580074e-002 -9.58267599e-002 3.57463285e-002 -3.07174046e-002
      5.49243689e-002 -3.81660461e-002 1.20108597e-001 2.77820140e-001
      3.99407446e-002 -1.95672456e-002 -1.71305373e-001 -5.49716689e-002
      -1.99937791e-001 1.48307055e-001 2.27624282e-001 2.11850151e-001
      2.21143439e-001 5.75321987e-002 6.39439970e-002 -2.24840596e-001
      -9.88079309e-002 -1.92089602e-001 -2.08604664e-001 4.88836505e-002
      -1.30356336e-003 2.78126866e-001 0. -1.36910498e-001
      -1.74302533e-001 1.94102004e-001 2.31687874e-002 -2.03825131e-001
      -9.60223959e-004 4.68351226e-003 1.79169983e-001 -2.69169230e-002
      8.35573897e-002 4.88599129e-002 1.23253148e-002 2.37673625e-001
      7.43928105e-002 5.79611622e-002 -8.76878425e-002 -1.93649083e-001
      -1.14214659e-001 4.78218608e-002 -5.50293587e-002 2.26198047e-001
      3.88322890e-001 2.32898802e-001 2.37961635e-001 -2.31530607e-001
      -1.34571984e-001 -1.05198257e-001 -7.47525468e-002
      -7.93518685e-003 -1.00208044e-001 1.72255039e-001 0.
      1.77916706e-001 -8.66025835e-002 1.18007690e-001 -1.12592414e-001
      -1.07614920e-001 -1.24751277e-001 1.31733984e-001 1.74798995e-001
      -1.00247808e-001 9.50996503e-002 -2.29557782e-001 -5.09635583e-002
      1.19911935e-002 1.00975372e-001 1.96519285e-001 1.43547058e-001
      2.10711479e-001 3.13833654e-002 9.81691629e-002 -2.56380826e-001
      -1.62648838e-002 -8.79676789e-002 9.35535431e-002 1.66446924e-001
      1.84829339e-001 3.24720562e-001 6.94464147e-002 6.85054809e-002
      2.55635679e-001 -4.55597416e-002 -5.00238920e-003 0.
      1.52138412e-001 -1.64875463e-001 -1.11691236e-001 -8.60700384e-003
      -9.57441628e-002 1.57269716e-001 1.31507888e-001 -1.14133328e-001
      1.66003153e-001 2.91299194e-001 -2.37143129e-001 2.21507307e-002
      -8.93234238e-002 1.46030337e-001 1.10630110e-001 8.68222266e-002
      1.65209666e-001 8.32353607e-002 2.10599363e-001 -3.04785371e-001
      -1.13041840e-001 -9.21722949e-002 1.38464227e-001 2.35227957e-001
      2.15050995e-001 1.92933694e-001 2.45670334e-001 8.00104439e-002
      3.28491569e-001 -1.17812321e-001 3.49435024e-002 0.
      7.27189556e-002 -1.19955510e-001 -5.76499514e-002 -4.65784259e-002
      1.47404715e-001 2.08663940e-001 -1.81954131e-001 -2.48867869e-002
      -3.15084048e-002 1.74794495e-001 -1.28812511e-002 8.44440423e-003
      -1.70646802e-001 -1.17815640e-002 2.40396023e-001 1.47857936e-002
      1.06386440e-002 9.52342972e-002 -1.66419998e-001 -1.70165360e-001
      -1.88117236e-001 -1.88404277e-001 -1.52330538e-002 1.23425096e-001
      -4.79620323e-002 -3.68487202e-002 3.33464295e-002 -6.00434244e-002
      4.53745015e-003 -3.40428278e-002 2.38152266e-001 0.
      3.64412546e-001 -4.18551937e-002 -5.26594855e-002 1.94387034e-001
      2.27235749e-001 2.96373457e-001 -1.62164852e-001 -8.89402628e-002
      -3.97911519e-002 4.33165431e-001 -7.50559196e-002 -2.41176575e-001
      1.79668725e-001 -7.35544935e-002 1.11674085e-001 1.23033106e-001
      1.27267772e-002 -9.26122144e-002 5.80953956e-002 7.71772861e-002
      -2.26218298e-001 1.90383330e-001 -1.94124684e-001 8.40383768e-002
      -1.14822365e-001 -9.36388895e-002 -1.04658835e-001 2.24223807e-001
      4.76554990e-001 -1.70151532e-001 -2.39351001e-002 0.
      8.62348676e-002 -7.60777369e-002 -3.32475305e-002 -2.26057559e-001
      -1.14726059e-001 1.55578151e-001 6.38640895e-002 -8.98120478e-002
      -7.25875273e-002 -1.97219662e-002 2.00041220e-001 -5.54677248e-002
      9.63306427e-002 1.20144673e-001 1.11937657e-001 -3.94817591e-002
      -5.55139035e-002 -1.34958699e-001 -2.05182415e-002 5.58937043e-002
      -1.75576061e-001 -6.41007125e-002 1.26356678e-002 2.22456858e-001
      1.45886511e-001 -2.38586478e-002 4.78444695e-002 -8.78485143e-002
      -1.35101274e-001 6.06208947e-003 1.77515835e-001 0.
      1.40730441e-001 -2.17667952e-001 -1.06676027e-001 5.39333932e-003
      3.72430645e-002 -5.69174699e-002 -2.10362002e-001 1.37824535e-001
      2.33526230e-002 -6.99758977e-002 -1.42068192e-001 -1.27933934e-001
      -1.90199032e-001 7.23518580e-002 2.89708525e-002 -8.52448419e-002
      -4.31514382e-002 6.58063218e-003 1.42743941e-002 -1.86026528e-001
      -1.44427136e-001 -1.12533659e-001 -2.50935107e-002 3.47111449e-002
      -1.85994431e-004 2.08465770e-001 1.75870191e-002 -6.63260221e-002
      -1.39859289e-001 1.30788912e-003 -1.71181694e-001 0.
      1.14583164e-001 -1.46901265e-001 -1.39566630e-001 5.62279522e-002
      1.09425105e-001 -9.59829688e-002 -6.26802742e-002 1.92358911e-001
      2.07272410e-001 1.13746673e-001 -1.33538693e-001 3.15892957e-002
      -2.54296541e-001 -1.95851829e-003 -2.44198263e-001
      -5.13221398e-002 1.65498238e-002 1.04054302e-001 2.41267487e-001
      -9.08509567e-002 2.34854177e-001 4.16847132e-002 -1.42581137e-002
      -9.74167660e-002 3.83109339e-002 2.51196057e-001 2.45224863e-001
      4.84186336e-002 -2.42604673e-001 9.72799808e-002 9.86783206e-003
      0. -5.69195040e-002 -5.66680022e-002 2.08938733e-001
      -3.40434723e-002 -6.13830499e-002 2.81899363e-001 -1.13407411e-001
      6.51436448e-002 7.58990720e-002 9.94523764e-002 -1.09018981e-001
      -3.04915607e-001 -3.22367698e-002 -2.53522009e-001
      -2.55557120e-001 7.25664720e-002 2.27806270e-002 4.38351110e-002
      2.52618551e-001 4.11131866e-002 2.06976637e-001 5.35077304e-002
      1.13368839e-001 2.74050027e-001 2.44122967e-002 2.57614851e-001
      1.21924922e-001 6.61886707e-002 -1.82949767e-001 5.39587177e-002
      -1.29131317e-001 0. 8.61574560e-002 1.10114515e-001
      4.00251001e-002 -1.14810862e-001 -5.80632910e-002 9.97728631e-002
      -6.01923764e-002 2.20441204e-002 2.14574132e-002 2.25658268e-002
      1.80664682e-003 -1.11573242e-001 6.78036883e-002 -2.09044605e-001
      -1.28910020e-001 -7.59324431e-002 -2.38828599e-001
      -1.16618998e-001 2.05250919e-001 1.28395647e-001 1.24553517e-001
      7.18141720e-002 1.09523386e-001 2.63549149e-001 1.22546650e-001
      3.09321344e-001 1.31861642e-001 8.96273330e-002 -3.71811613e-002
      -9.92336348e-002 -2.55958259e-001 0. 1.46516010e-001
      2.71181345e-001 1.97745219e-001 1.11494340e-001 -2.12186605e-001
      6.18727840e-002 1.50150374e-001 -1.53052747e-001 -2.34009564e-001
      4.85578738e-002 2.03886598e-001 7.80485496e-002 4.38384293e-003
      -2.38311455e-001 -1.15401030e-001 -2.18130827e-001
      -6.29160032e-002 -1.82228699e-001 2.06567734e-001 3.80342245e-001
      3.56404543e-001 1.75676182e-001 -9.11461189e-002 2.12818459e-002
      2.06604898e-001 1.67541876e-001 -1.55792773e-001 5.94705380e-002
      5.98330386e-002 -1.01351994e-004 -1.86329588e-001 0.
      1.18847951e-001 -3.36816907e-002 2.19794400e-002 -2.35137895e-001
      -5.19570382e-003 -3.84475775e-002 1.41916340e-002 3.01258806e-002
      -1.29432037e-001 2.20262818e-002 1.51975974e-001 1.54036105e-001
      4.57143337e-002 3.93629866e-003 1.87684968e-002 -2.17795670e-001
      -2.14393884e-001 -9.35553014e-002 -1.23907274e-004 2.01633364e-001
      4.13663946e-002 -1.27213463e-001 -7.29045570e-002 3.44763547e-002
      -1.43926904e-001 -6.31827936e-002 -1.43950537e-001 7.77126569e-003
      -9.05666575e-002 -6.02209307e-002 -3.89617756e-002 0.
      -3.47777968e-003 -2.24174455e-001 4.19823900e-002 1.68462649e-001
      1.12876989e-001 8.36217180e-002 -3.49883139e-001 -1.07360691e-001
      -7.19765797e-002 7.38460496e-002 9.45837200e-002 -9.75931436e-002
      1.34105816e-001 -1.40803428e-002 -9.88182724e-002 9.98169184e-002
      6.23738728e-002 1.42894059e-001 -8.50762948e-002 5.43191545e-002
      -1.67287067e-002 1.79731533e-001 -9.03739408e-002 2.65408796e-003
      -1.50387079e-001 -9.10774469e-002 -5.25430068e-002 5.07575609e-002
      2.26547018e-001 -1.33874595e-001 -1.21179976e-001 0.
      2.04735622e-001 -1.24620356e-001 9.79220048e-002 -2.46986449e-002
      -1.68359622e-001 1.03421547e-001 1.14904558e-002 -2.98965629e-002
      -1.96438953e-002 -3.33017595e-002 1.45959109e-001 -1.51762173e-001
      4.66547310e-002 1.83382079e-001 -7.43233711e-002 -2.31879521e-002
      -2.90087834e-002 7.49903684e-003 -1.19472288e-001 -6.90114871e-002
      -1.11604184e-002 -4.13074121e-002 -1.44359469e-001 7.99194649e-002
      -9.14666951e-002 3.74556221e-002 3.34822424e-002 -5.96144749e-003
      -1.35403156e-001 1.77193627e-001 2.18049530e-002 0.
      7.05586374e-002 -1.20702885e-001 1.18851528e-001 1.43741921e-001
      1.09499224e-001 6.48706257e-002 -2.14951426e-001 -2.07887311e-002
      -6.91375434e-002 2.20250115e-002 -1.94503009e-001 -2.76896600e-002
      1.22491367e-001 1.05504684e-001 -1.18833676e-001 6.12999462e-002
      1.88012086e-002 4.48876014e-003 -4.17002067e-002 -2.77191848e-002
      4.08107460e-001 5.46226874e-002 1.47201240e-001 9.52325203e-003
      -3.78573276e-002 3.30397449e-002 -4.21857610e-002 -2.84811016e-003
      -3.81348096e-002 1.07247539e-001 -3.06617375e-002 0.
      -2.42041066e-001 -6.66634217e-002 1.84890762e-001 8.56045410e-002
      -1.39228553e-001 8.59895274e-002 -1.23257272e-001 2.10363746e-001
      9.79722366e-002 8.07439163e-002 -1.31425951e-002 8.27133879e-002
      2.57272035e-001 1.40005171e-001 -1.74767122e-001 -2.49402989e-002
      -1.71005830e-001 -3.42897236e-001 -1.01540625e-001 4.07629199e-002
      6.94027245e-001 4.88323450e-001 2.31185913e-001 7.60013089e-002
      -1.09160148e-001 1.91225946e-001 -1.72759101e-001 1.50574163e-001
      -1.74503461e-001 -5.33273891e-002 4.31329347e-002 0.
      -1.16236217e-001 -1.76049918e-001 -3.47378254e-002
      -7.75230816e-003 8.82868022e-002 1.01003516e-002 -1.06739096e-001
      2.64622420e-001 4.73042242e-002 -1.29348204e-001 -1.65808916e-001
      -5.59322443e-003 1.48336276e-001 -1.03383899e-001 -1.55066609e-001
      4.71520498e-002 4.28778529e-002 -6.44517317e-002 -2.73463607e-001
      -2.02007353e-001 2.99046218e-001 3.16036791e-001 1.69879451e-001
      9.54329073e-002 2.52241027e-002 2.49330223e-001 -4.65202481e-002
      8.93491656e-002 -1.76748276e-001 2.51487509e-004 -1.09184824e-001
      0. -1.01342127e-001 9.74353030e-002 2.32924357e-001
      -5.18493615e-002 -1.77478924e-001 3.79360653e-002 -6.85178936e-002
      -2.09431592e-002 -3.14540625e-001 -1.96979448e-001
      -3.92651521e-002 1.72916856e-002 1.06330037e-001 -5.39440066e-002
      -2.40472034e-001 1.24947108e-001 -6.51194379e-002 2.07054354e-002
      -2.02202842e-001 -1.12775549e-001 1.89176932e-001 -3.66764236e-003
      1.43649615e-002 1.27338380e-001 2.75020599e-001 2.24328876e-001
      -8.10461491e-002 1.47297848e-002 -5.42180315e-002 -4.04769145e-002
      -2.46659487e-001 0. 7.60767162e-002 -2.75740512e-002
      2.07386956e-001 3.18090133e-002 -1.24642015e-001 -1.82319134e-002
      1.93683863e-001 1.70158982e-001 -1.45533592e-001 -2.30702326e-001
      -2.20907092e-001 -1.24210589e-001 -3.17573245e-003
      -2.05737963e-001 1.25009313e-001 -2.50588055e-003 6.86483458e-002
      1.16725169e-001 -2.93302666e-002 -1.90997258e-001 2.03278467e-001
      -6.05358854e-002 -3.71962339e-002 3.74697208e-001 4.22069520e-001
      6.71118081e-001 -1.31811406e-002 -2.01319735e-002 1.10421255e-002
      1.01812527e-001 -1.46331623e-001 0. -7.23897144e-002
      -2.14957297e-001 7.23660663e-002 -1.26967743e-001 4.39513363e-002
      -1.22606577e-002 6.60642833e-002 1.79002151e-001 -1.22017361e-001
      -1.87710688e-001 -2.50750165e-002 1.64317451e-002 2.34423503e-002
      5.55279292e-003 1.33371754e-002 1.66386560e-001 -1.45535581e-002
      -2.03477629e-002 -1.42555669e-001 -1.05065361e-001 1.15100257e-002
      -6.96146861e-002 -6.46710843e-002 1.75489545e-001 2.34773651e-001
      4.92135137e-001 -2.98131015e-002 8.61580595e-002 -8.08193907e-002
      -1.72408707e-002 -8.69717821e-002 0. 1.11755162e-001
      -1.59334794e-001 -9.47729573e-002 1.00280136e-001 7.75980353e-002
      1.02572590e-001 -3.02002672e-002 1.10723086e-001 -1.10914437e-002
      3.23909633e-002 4.57738899e-003 1.85700655e-002 -1.02527447e-001
      -8.72349292e-002 1.03128627e-001 4.09177244e-002 -1.77061439e-001
      1.36947632e-001 -8.13185275e-002 -1.17561407e-001 3.08333021e-002
      -3.82454746e-004 -7.21427649e-002 -2.42056884e-003
      -6.07354082e-002 -4.76854481e-002 1.00275621e-001 1.75091505e-001
      2.46924199e-002 9.22938064e-003 -1.25463337e-001 0.
      -2.00587064e-001 -8.19734335e-002 -1.35086149e-001
      -1.16392739e-001 1.10119715e-001 1.00948393e-001 2.11970657e-002
      -5.39730005e-002 -2.51972139e-001 -3.43342833e-002 1.46307766e-001
      -1.06967771e-002 2.16655992e-002 1.41637534e-001 1.32957390e-002
      6.86701164e-002 1.52986512e-001 1.63614675e-001 1.02529101e-001
      1.31206691e-001 8.77556205e-002 -7.66111910e-002 -2.57472284e-002
      1.60468295e-001 -4.81976382e-003 4.55154441e-002 -4.48535830e-002
      -3.21540385e-002 -1.55137792e-001 2.82153040e-001 -6.87327012e-002
      0. 9.52683240e-002 -7.68514234e-004 -1.03280023e-001
      -2.85903126e-001 5.68683855e-002 1.41666466e-002 -1.37653530e-001
      8.25658888e-002 -1.65654585e-001 -1.02836214e-001 6.01197146e-002
      9.01998207e-002 4.81527112e-002 -1.48821682e-001 -1.65462986e-001
      2.20736247e-002 8.58075917e-002 -5.99851012e-002 8.88911784e-002
      1.91159084e-001 2.98414141e-001 -6.38346747e-002 -6.53995126e-002
      -1.03921957e-001 -1.59895852e-001 3.44390385e-002 -1.97100177e-001
      -1.30010555e-002 -2.62091458e-001 4.32221927e-002 -5.81081770e-002
      0. -5.94782159e-002 -1.71975400e-002 5.40484153e-002
      -3.26103151e-001 -3.93422276e-001 -6.83218660e-003
      -3.42532285e-002 -1.24263242e-001 -5.06508611e-002
      -1.21963667e-002 2.13992029e-001 -6.45336658e-002 -1.22904787e-002
      3.36577445e-002 4.60535707e-003 -1.52186789e-002 1.17425583e-001
      4.17911559e-002 -4.30988260e-002 1.86132789e-001 3.38236243e-001
      -1.16381645e-001 -2.43617192e-001 -6.29655570e-002
      -1.35793030e-001 -1.11267686e-001 -8.94820988e-002 2.43300334e-001
      -2.90054083e-001 -2.27310136e-002 -2.37358823e-001 0.
      -2.19754681e-001 -2.73691136e-002 7.69158080e-002 4.44768416e-003
      -1.91123083e-001 6.23430721e-002 1.39417127e-001 -1.12571627e-001
      -3.69558930e-001 -1.28961176e-001 2.24198803e-001 -9.47554260e-002
      1.17398895e-001 -2.38317605e-002 -8.98886025e-002 -9.41038653e-002
      2.02643678e-001 2.35981777e-001 -2.91030765e-001 -1.34023219e-001
      -6.40094727e-002 1.78016335e-001 -2.37730131e-001 6.92205727e-002
      2.63779014e-002 -4.93930131e-002 -1.26745969e-001 1.39157757e-001
      -2.14223444e-001 2.23586872e-001 -2.84553736e-001 0.
      -1.33485392e-001 -1.79496795e-001 -1.60990711e-002 1.49379343e-001
      -7.85895362e-002 -1.88874632e-001 -1.96566314e-001 1.59117848e-001
      -5.22923730e-002 -5.08383252e-002 1.20625041e-001 5.23646325e-002
      4.04211059e-002 8.45078751e-002 7.24153668e-002 1.46661624e-001
      1.43262491e-001 7.64113143e-002 -1.93855539e-001 -1.06273547e-001
      -4.66693901e-002 1.34161860e-001 1.08501343e-002 -2.61544120e-002
      -1.22944778e-002 2.34200463e-001 -1.46405146e-001 2.27176428e-001
      -8.41940343e-002 1.21895835e-001 -1.94675311e-001 0.
      -4.20119055e-002 -1.94697734e-002 -7.48934075e-002
      -5.86211914e-003 -2.82093436e-001 -2.40278199e-001
      -4.86630619e-001 6.80306181e-002 2.19134614e-001 -7.57734403e-002
      -6.39468431e-002 6.89463243e-002 -4.23253030e-002 9.27261636e-002
      -1.81212835e-002 -9.74112526e-002 -1.09819181e-001 1.64810076e-001
      5.45697138e-002 -1.73759565e-001 -9.30933561e-003 -1.33714795e-001
      -1.41233727e-001 -2.02576637e-001 -2.52093256e-001 2.96921670e-001
      4.22737539e-001 -1.25629216e-001 -1.53289229e-001 1.48427919e-001
      -3.14977229e-001 0. -6.69653416e-002 -1.88005313e-001
      -5.27505018e-002 3.33442762e-002 1.44798355e-002 1.61877662e-001
      -4.25253481e-001 -9.15204510e-002 -1.93612546e-001 3.03691113e-003
      8.14889818e-002 -3.24405008e-003 1.21577494e-001 -1.60703719e-001
      -1.88049853e-001 5.63087054e-002 6.16788678e-002 1.47697344e-001
      1.62679538e-001 -2.03131989e-001 -1.10155694e-001 8.06880370e-002
      -1.84177473e-001 -1.06615998e-001 -5.78772500e-002 4.00498092e-001
      1.43944055e-001 -9.57713798e-002 1.32985096e-002 7.34693650e-003
      -2.49487355e-001 0. 1.33832976e-001 -1.56533971e-001
      -9.02930796e-002 8.35364908e-002 1.47374198e-001 7.31674358e-002
      -1.94665477e-001 -1.67887807e-001 -3.46835814e-002
      -8.71432498e-002 2.30066568e-001 1.39893353e-001 6.32506935e-003
      1.51924744e-001 1.42294034e-001 7.72966668e-002 1.13138501e-002
      -2.44746041e-002 1.73914924e-001 3.79195146e-004 9.85857472e-002
      -1.18471375e-002 8.71777460e-002 1.13165796e-001 -1.93493217e-002
      -1.64095312e-002 9.61498991e-002 2.33781368e-001 5.76064922e-002
      -5.92078380e-002 -2.41306759e-002 0. 1.31402150e-001
      4.24194820e-002 -1.19007081e-001 -1.42303675e-001 9.64846760e-002
      1.44719198e-001 -2.77615562e-002 1.32280290e-002 -9.67260152e-002
      -1.57272667e-001 1.21470779e-001 4.24782634e-002 -2.89472640e-002
      6.34977892e-002 6.49041682e-003 -6.87003136e-002 5.52841574e-002
      1.66745216e-001 5.12608439e-002 9.19088647e-002 6.69402555e-002
      -1.22998111e-001 -2.26138607e-001 1.48815382e-003 -1.09170787e-001
      -1.44564779e-002 5.65420762e-002 -8.04475993e-002 -9.63385478e-002
      2.00871870e-001 9.07009169e-002 0. -1.05966330e-002
      -4.71807667e-004 -2.05572128e-001 -1.70090094e-001 1.55705889e-003
      2.31640443e-001 -8.59998390e-002 8.97435099e-002 1.02426298e-002
      -1.76255360e-001 1.46869659e-001 1.03719249e-001 -2.03112543e-001
      -5.11337221e-002 3.88017781e-002 1.21144310e-001 -1.25223398e-001
      -1.45715043e-001 1.07178606e-001 1.77677244e-001 3.37281562e-002
      -1.34819001e-001 -2.24168375e-001 1.42926266e-002 6.81369081e-002
      -1.24218062e-001 -9.08886641e-002 1.09247886e-001 -1.40366629e-001
      -3.96953896e-002 -1.32100880e-001 0. -8.96990448e-002
      3.77278961e-002 -5.60635515e-002 -1.80483401e-001 -8.46002549e-002
      -7.05047790e-003 -5.73189631e-002 -1.14690922e-001
      -1.43849507e-001 -2.23551780e-001 -4.72318642e-002 1.51603892e-001
      -2.38786284e-002 -4.62345891e-002 6.30730763e-002 8.02810490e-002
      8.01846683e-002 2.48937473e-001 9.94824544e-002 1.49332881e-001
      4.92230840e-002 -1.08204275e-001 -1.43058524e-001 8.87410436e-003
      -7.31835365e-002 -4.06364873e-002 -3.93189639e-002 1.99054077e-001
      -3.10435984e-002 -4.99516763e-002 -3.12673867e-001 0.
      2.10447963e-002 -9.14208740e-002 -2.02984333e-001 -1.30824208e-001
      -9.12396088e-002 -1.44090965e-001 -6.74846619e-002 8.11934471e-002
      -4.65835854e-002 -3.12834680e-002 1.02291279e-001 -1.16094716e-001
      2.07229987e-001 3.77406739e-002 7.14244228e-003 8.03700313e-002
      -6.83040172e-002 1.18878208e-001 1.81666881e-001 1.06498664e-002
      -1.96771566e-002 -8.62324759e-002 2.27224850e-003 -1.19967707e-001
      -6.75546005e-002 1.53768882e-001 -8.11317787e-002 1.08205400e-001
      -1.67242602e-001 5.79801202e-002 -1.56588301e-001 0.
      1.94678269e-002 -6.67532608e-002 6.78503141e-002 -2.09289640e-002
      -2.53022969e-001 4.86279801e-002 -5.05614206e-002 -1.51252344e-001
      -1.08839571e-001 -6.69346750e-002 5.34050055e-002 3.13018635e-002
      3.75198061e-003 9.75056887e-002 -3.18414681e-002 2.09847316e-001
      -1.32351011e-001 1.53839141e-001 6.91625997e-002 -1.55797586e-001
      1.53479531e-001 -5.63006327e-002 -1.40630081e-001 -6.04711697e-002
      1.62612624e-003 -3.84744331e-002 3.88568677e-002 7.81530961e-002
      -1.06289960e-001 1.08433276e-001 -1.73109680e-001 0.
      -1.05958909e-001 -3.15238169e-004 -1.07131422e-001 3.23161893e-002
      -4.88302223e-002 -1.19909346e-002 -2.87463605e-001
      -5.50283194e-002 5.32855578e-002 -6.28280565e-002 3.20812702e-001
      1.78589776e-001 8.78430679e-002 1.64355069e-001 -1.00886561e-001
      1.24561556e-001 7.65225850e-003 -3.11064646e-002 -1.31062865e-001
      3.11744623e-002 1.23317569e-001 -4.93705552e-003 -1.22277401e-002
      -1.22702539e-001 -1.48149908e-001 2.40545738e-002 2.87156790e-001
      4.42976020e-002 -1.91798478e-001 1.77257791e-001 4.46660891e-002
      0. -1.98242605e-001 -3.37229148e-002 9.27944854e-002
      -1.76669210e-002 1.35175034e-001 9.62120891e-002 -2.45894700e-001
      -3.76699902e-002 5.54919466e-002 -7.00413138e-002 -7.08208680e-002
      -1.64735943e-001 1.61613882e-001 7.03078508e-002 -7.52547756e-002
      -2.66408697e-002 -7.08618984e-002 9.77267027e-002 1.61921531e-001
      -1.00073583e-001 -7.98565373e-002 1.36814460e-001 -6.62210733e-002
      -1.59493446e-001 -2.06339926e-001 -3.60745154e-002 1.85585767e-001
      -1.40884817e-002 -1.06483124e-001 1.07992314e-001 -1.29892334e-001
      0. 1.45302966e-001 -1.12117440e-001 -1.12256989e-001
      -1.06161200e-002 1.88259080e-001 2.87006676e-001 -3.27204406e-001
      -1.12560336e-002 1.45809829e-001 -9.63674486e-002 2.29125530e-001
      -2.46105175e-002 -1.57744914e-001 -1.94658160e-001 6.50853515e-002
      -7.94239528e-003 8.46602172e-002 -3.09080444e-002 1.17111795e-001
      1.60444807e-002 -1.28919765e-001 -1.87534273e-001 -2.74082482e-001
      -5.21457903e-002 -1.78536579e-001 8.87590274e-002 9.73795876e-002
      1.88699841e-001 6.70977980e-002 -8.15727487e-002 -1.46144912e-001
      0. 7.01889172e-002 1.21297665e-001 1.75065640e-002
      -1.00817196e-001 3.12967211e-001 2.75429130e-001 -2.28079587e-001
      -6.06959835e-002 5.73913269e-002 2.52028517e-002 -1.01226740e-001
      -1.69399232e-001 1.06015075e-002 5.42634614e-002 1.19241014e-001
      1.15282722e-001 -4.01427411e-002 1.45316228e-001 6.40497506e-002
      8.21609944e-002 -1.78599451e-002 -9.89584774e-002 -7.68539384e-002
      3.64368521e-002 -1.04516275e-001 -7.00841025e-002 1.49061084e-002
      -6.64233938e-002 -3.38101238e-002 1.61163732e-001 2.33377591e-001
      0. 6.87326044e-002 -7.71658495e-002 -1.45251468e-001
      9.30808368e-004 6.34225532e-002 6.80545643e-002 -1.53461158e-001
      -8.89767706e-003 4.62658554e-002 1.86636280e-002 -3.57190631e-002
      -1.47189538e-003 9.29098204e-002 -2.41683359e-004 -9.27148014e-002
      1.88917026e-001 7.44238347e-002 -7.09553733e-002 2.01112151e-001
      1.14676885e-001 1.11512177e-001 2.71028671e-002 8.22630376e-002
      -5.07557914e-002 3.90911438e-002 -3.98007641e-003 -9.60514992e-002
      1.59857601e-001 1.16600528e-001 -2.03046456e-001 -5.62331416e-002
      0. 6.40932396e-002 -1.40660573e-002 -7.78126046e-002
      -1.40786273e-002 -9.75548029e-002 -5.65712564e-002 1.00497350e-001
      -1.71277791e-001 1.68674976e-001 -9.63011757e-002 -2.91004665e-002
      -2.25957483e-002 6.38016984e-002 -5.87749854e-002 4.44310457e-002
      -3.37834209e-002 8.33552927e-002 2.90975451e-001 1.05260991e-001
      8.55689570e-002 8.90725851e-002 -2.37839594e-002 -1.58665136e-001
      -6.60465434e-002 -6.07272200e-002 1.75771292e-003 3.04981619e-001
      1.09730035e-001 1.39761731e-001 -1.45999575e-002 -1.67051569e-001
      0. -1.52875423e-001 -1.35229856e-001 -1.85729533e-001
      3.67073677e-002 -9.90309641e-002 7.64840394e-002 -3.75370234e-002
      -3.85236889e-002 1.67026907e-001 -1.01432599e-001 1.06120184e-001
      9.62325260e-002 6.62022159e-002 6.67398572e-002 1.19709149e-001
      5.47286049e-002 9.37059000e-002 7.54064173e-002 7.34752137e-003
      5.19243442e-003 -4.06869315e-002 -1.31226510e-001 -1.90779418e-001
      7.79971108e-002 -1.58649936e-001 8.66389722e-002 -1.10657945e-001
      6.94291145e-002 -9.16326419e-003 1.35956794e-001 -9.78395790e-002
      0. -1.09034277e-001 2.49103054e-001 6.52618632e-002
      -1.96485341e-001 -6.83663860e-002 1.94370560e-002 -5.14750369e-003
      -1.38384491e-001 9.02869552e-002 -1.02713607e-001 7.69954100e-002
      6.48044124e-002 -1.73132084e-002 9.55047309e-002 -1.65667944e-002
      9.24946293e-002 3.13105099e-002 7.80225499e-003 3.78110148e-002
      -1.50847495e-001 1.76427171e-001 -2.56085932e-001 -2.41750136e-001
      -2.89111972e-001 7.51658306e-002 -6.40885681e-002 -1.61676537e-002
      8.62571523e-002 -1.02413893e-001 9.27704126e-002 -1.10942107e-002
      0. -1.63275123e-001 1.89207450e-001 -1.26772419e-001
      -2.63646115e-002 -1.78442895e-001 -9.51725766e-002
      -1.85081661e-001 1.32779270e-001 1.32513061e-001 1.63383394e-001
      1.99144721e-001 1.50560394e-001 7.02034384e-002 9.00803730e-002
      3.02743241e-002 1.13610171e-001 -1.84161991e-001 -1.22327849e-001
      2.39682764e-001 1.55195028e-001 1.44013334e-002 -4.57344837e-002
      -7.81207681e-002 -5.24483845e-002 -8.97534564e-002 1.02462806e-001
      -5.22589497e-002 -1.71498619e-002 -1.09009229e-001 1.15116552e-001
      1.00682862e-001 0. -1.04808256e-001 -7.78614059e-002
      -3.33496071e-002 -1.53675765e-001 4.57500853e-002 -2.04582699e-002
      -3.01873665e-002 -4.59432416e-002 -6.32658526e-002 2.60256268e-002
      -9.84452367e-002 6.08125478e-002 6.75298348e-002 -1.06129766e-001
      1.21966600e-002 5.48540503e-002 4.25009169e-002 -2.15736464e-001
      2.55193740e-001 -2.23089799e-001 2.02808287e-002 -6.92459419e-002
      8.85618478e-002 1.00555770e-001 4.95465584e-002 1.07259013e-001
      2.31866568e-001 -2.12698802e-001 -1.22531839e-001 5.55376336e-003
      2.78906487e-002 0. -1.90169469e-001 1.62639171e-001
      -4.01187241e-002 -8.50094333e-002 2.78583199e-001 3.68348658e-001
      -1.29051268e-001 -8.00461695e-002 -4.31304611e-002 5.22377789e-002
      3.45569327e-002 7.25790188e-002 2.30978042e-001 -2.45017018e-002
      1.84201542e-002 8.35552346e-003 2.68572439e-002 -5.01950122e-002
      5.66341728e-003 1.19103216e-001 6.74572736e-002 2.56920885e-002
      -8.26547965e-002 1.38588414e-001 -1.02645881e-001 -4.28915359e-002
      7.54958615e-002 1.94095686e-001 2.15838835e-001 -6.54995963e-002
      -5.62522523e-002 0. -6.74356567e-003 -3.82052809e-002
      -1.00482866e-001 1.45517793e-002 8.50422829e-002 6.13939948e-002
      -1.61045175e-002 1.77975208e-001 4.55799280e-003 -1.52316362e-001
      7.09191933e-002 2.16214843e-002 8.25866237e-002 -2.12267544e-002
      3.54131982e-002 -2.39146456e-001 -1.70010075e-001 -4.83601950e-002
      -5.46221286e-002 6.34976663e-003 -1.27611339e-001 -1.02853887e-001
      -4.57085520e-002 2.39489023e-002 -1.27945229e-001 6.50610367e-004
      -6.49749488e-002 -1.06967911e-001 -2.08791763e-001 1.98852405e-001
      4.46218345e-003 0. -2.34157406e-002 -1.59949400e-002
      2.70113721e-003 5.87821044e-002 -2.10222155e-001 -3.66012901e-002
      7.30733499e-002 8.15108791e-002 3.26789580e-002 -7.88015351e-002
      1.03226192e-001 -1.81696881e-002 1.07998163e-001 1.59614444e-001
      -5.64534143e-002 -1.32994249e-001 8.60672817e-003 4.15668115e-002
      -7.33649805e-002 6.02427050e-002 7.84556940e-002 -7.64094712e-003
      1.86807141e-001 -1.54701872e-002 -1.04518391e-001 1.83526799e-001
      -1.27224457e-002 1.62352905e-001 1.65957943e-001 -1.05826750e-001
      -1.76708415e-001 0. -4.72758226e-002 8.74776766e-002
      1.13002680e-001 -8.59812498e-002 -1.35601327e-001 1.05720423e-002
      1.94163218e-001 2.32104048e-001 -1.24880239e-001 -1.44391000e-001
      -6.46181926e-002 1.79037042e-002 -3.15033831e-002 2.66334303e-002
      -3.86240967e-002 2.31611747e-002 -1.67446837e-001 1.44705677e-003
      1.18802704e-001 1.56873122e-001 1.93170920e-001 -1.86289087e-001
      1.22865900e-001 8.73044953e-002 -6.70131668e-002 4.22711484e-002
      -7.74608785e-003 4.26145680e-002 1.65946018e-002 -1.74687840e-002
      -1.04840644e-001 0. -3.91044244e-002 1.29144549e-001
      -1.37538388e-001 -1.93236843e-002 -1.18342116e-001 2.69283772e-001
      -1.12263389e-001 2.51483936e-002 3.37406620e-002 -2.79097468e-001
      -1.03865437e-001 2.65409588e-003 -1.01705482e-002 -1.20308846e-001
      -1.67678550e-001 2.09913388e-001 -3.00003728e-003 6.07433505e-002
      -3.04005221e-002 -2.79586427e-002 -1.11018196e-001
      -1.48797706e-001 -8.80538300e-002 -1.29241147e-003 3.13372165e-002
      1.10553667e-001 -5.37393056e-002 -9.13267732e-002 -1.40147120e-001
      8.72628987e-002 -3.49515043e-002 0. -2.92814430e-002
      -6.06767423e-002 -9.76327956e-002 -1.18382603e-001 2.33391032e-001
      4.62999344e-002 -1.26490593e-001 -1.11330166e-001 -2.90155225e-002
      -1.14547191e-002 1.31842896e-001 8.99260268e-002 2.10738316e-001
      -3.16840364e-004 -1.13224402e-001 -1.03551142e-001
      -3.82536277e-003 -1.40759870e-001 8.72977152e-002 -1.69223085e-001
      8.56938362e-002 3.89665179e-002 8.53877608e-003 -1.15992585e-002
      -2.21175686e-001 1.63952168e-002 -1.35117143e-001 6.53202161e-002
      -7.39657432e-002 2.90658046e-002 -1.30607128e-001 0.
      -1.32053182e-001 -1.31392274e-002 1.70963243e-001 1.40913561e-001
      1.01471521e-001 -5.34826852e-002 -1.36629432e-001 -3.86629999e-002
      -6.02868013e-002 -1.52262866e-001 -7.02215061e-002
      -5.45842461e-002 4.47895564e-002 -6.56939074e-002 -3.97558324e-002
      1.04933508e-001 1.37790674e-002 3.66045907e-002 -8.40337053e-002
      -2.38584005e-003 6.21913895e-002 -3.29617374e-002 4.59584668e-002
      4.70628322e-004 -2.20192913e-002 3.10403649e-002 3.84567529e-002
      1.25151570e-003 -2.01211601e-001 6.71730936e-002 3.69430818e-002
      0. -3.21640447e-002 -7.88417831e-002 7.11256862e-002
      1.02678381e-001 -1.34318754e-001 -9.45324749e-002 -3.67944571e-003
      -3.44755575e-002 1.28893673e-001 -5.44684716e-002 8.85454342e-002
      -1.05535433e-001 -1.39791802e-001 -1.92365438e-001 1.05988160e-001
      1.46271944e-001 -5.82775846e-002 -9.93257016e-003 5.78617565e-002
      -1.02060288e-001 8.48614722e-002 2.44482290e-002 1.59123179e-003
      2.01363891e-001 -4.19346569e-003 -5.95245045e-003 7.91711509e-002
      -6.84993565e-002 -2.17169285e-001 1.05603382e-001 4.10587043e-002
      0. 7.80838281e-002 1.10955775e-001 2.26489548e-002 7.34232292e-002
      9.16071385e-002 -4.74065915e-002 -1.40680457e-002 -5.72457686e-002
      7.82771111e-002 -6.68050423e-002 1.68195561e-001 -4.44863103e-002
      -1.85008526e-001 1.15890756e-001 -1.45943999e-001 1.32287815e-001
      3.58155556e-002 1.78629439e-002 1.76160724e-003 4.88259681e-002
      -8.36701095e-002 -9.72236991e-002 5.59622981e-002 -1.03344075e-001
      1.18458818e-003 -1.82569489e-001 1.35929540e-001 2.30673760e-001
      1.10029161e-001 -2.56135687e-002 -1.43459991e-001 0.
      -1.50593808e-002 -3.12091380e-001 3.82851698e-002 -7.04850927e-002
      1.26835138e-001 1.64028592e-002 -1.99128374e-001 9.84483361e-002
      -1.07055623e-003 6.09473027e-002 7.69997016e-002 4.46717367e-002
      2.47804239e-001 7.77809396e-002 -1.71287805e-002 1.18907236e-001
      -7.05695003e-002 1.04595982e-002 1.42964840e-001 -3.97566147e-002
      -1.32797942e-001 7.89484456e-002 -8.64080787e-002 1.09930195e-001
      -1.68610767e-001 -1.80887580e-002 8.16563144e-002 -1.62223000e-002
      -9.34213400e-002 1.26699939e-001 9.23127756e-002 0.
      1.64382622e-001 1.23680830e-001 8.34638327e-002 -9.02949274e-002
      4.98161800e-002 3.92774828e-002 -1.09002963e-001 1.04172491e-001
      1.71864629e-002 1.33274021e-002 -2.05753576e-002 4.62356806e-002
      -1.85897022e-001 -2.14489907e-001 -6.84520528e-002 2.22319830e-002
      -7.82045871e-002 -2.38801941e-001 8.48794729e-002 5.73860407e-002
      1.13373466e-001 -2.61280090e-001 4.01198817e-003 7.09766448e-002
      -1.51131868e-001 2.21219752e-002 -1.76398328e-003 -2.76573449e-002
      1.58183917e-001 -1.06843963e-001 -1.84874967e-001 0.
      1.85786039e-002 1.27332240e-001 1.29221082e-001 5.32587655e-002
      -2.82013685e-001 2.01039445e-002 8.86597205e-003 -7.46519193e-002
      -2.12734103e-001 -6.60881922e-002 5.29198255e-003 1.77091911e-001
      -5.28962240e-002 -1.21005826e-001 -1.65206864e-001
      -6.17997572e-002 -1.32044842e-002 -1.63145825e-001 2.22398743e-001
      3.33913535e-001 1.39908835e-001 4.49439101e-002 -5.51918149e-002
      1.16060011e-001 1.99852232e-002 -1.44099779e-002 -2.89643705e-001
      -1.39291426e-002 -4.48400415e-002 -1.17702588e-001
      -1.40781596e-001 0. -1.26570135e-001 1.04379572e-001
      6.05217218e-002 1.60126537e-001 -2.24276874e-002 -7.16375485e-002
      5.49103320e-002 5.37940126e-004 1.75347403e-002 -6.36167601e-002
      -6.73151538e-002 -1.05011784e-001 4.66876291e-002 1.74878627e-001
      -5.80767868e-003 1.40651226e-001 -9.56185311e-002 -6.70742318e-002
      -1.24358863e-001 -3.42817865e-002 -7.64884949e-002 7.11791217e-002
      2.38822728e-001 2.18276635e-001 9.72507596e-002 1.14115998e-001
      -4.05272990e-002 4.59794216e-002 -4.93906103e-002 4.80922721e-002
      1.90280415e-002 0. -4.71643433e-002 2.58234385e-002
      -3.26545909e-003 1.98078174e-002 3.62642966e-002 5.88667914e-002
      1.25158370e-001 -1.86085030e-001 -6.24368107e-003 -2.62389451e-001
      -6.14880286e-002 -5.37832826e-002 1.30240187e-001 -9.78318453e-002
      7.98560381e-002 -4.55074906e-002 2.90169530e-002 -8.92690420e-002
      -1.02875091e-001 -3.06632556e-002 1.30127877e-001 7.99910277e-002
      1.76069096e-001 3.29234749e-001 6.03888817e-002 -1.64985046e-001
      -2.67424062e-002 4.67014350e-002 -6.41416609e-002 -2.57877577e-002
      -1.20816275e-001 0. -5.18620061e-003 -1.59909457e-001
      -4.26457562e-002 -8.08974802e-002 1.37015790e-001 -1.33191898e-001
      1.12149127e-001 5.68099171e-002 1.88129097e-001 -2.13987287e-002
      -1.26123562e-001 -9.52652991e-002 -8.98040384e-002
      -3.42945606e-001 -1.06893048e-001 2.99031623e-002 1.95710585e-001
      6.52343705e-002 1.06273510e-001 -6.25194609e-002 3.69177423e-002
      -1.98434796e-002 7.29792714e-002 1.03452487e-003 1.37294605e-001
      2.10510239e-001 3.20768982e-001 -9.06170309e-002 -1.45488545e-001
      7.28872642e-002 -3.44439708e-002 0. -4.30207737e-002
      5.15056774e-002 1.74511895e-001 -1.26164898e-001 -5.62358871e-002
      -8.42982531e-003 -1.28674403e-001 5.67012094e-002 1.36273369e-001
      5.52253947e-002 -1.08540421e-002 -6.85893148e-002 -3.29319388e-002
      -6.76876605e-002 -1.77739874e-001 -8.27863142e-002
      -1.76850073e-002 4.13327403e-002 2.02641129e-001 -2.88447142e-002
      6.22242764e-002 -9.58206803e-002 8.09141695e-002 -7.26176053e-002
      -1.76493436e-001 1.45598158e-001 3.12041491e-001 -6.47220835e-002
      -1.49924591e-001 -1.72715075e-003 7.24790245e-002 0.
      -3.20160054e-002 -7.61273727e-002 1.79897815e-001 -3.02221239e-001
      1.69841051e-001 2.83256263e-001 4.88843508e-002 1.69389263e-001
      -8.71306565e-003 -1.59638777e-001 1.69818550e-001 -1.73634160e-002
      -3.55499401e-003 -8.52399468e-002 1.21379986e-001 9.84382778e-002
      -1.05977759e-001 -6.04563504e-002 1.38206854e-001 -5.89420274e-002
      -1.02953874e-002 -3.12635392e-001 -1.33522347e-001 8.88825804e-002
      8.32685977e-002 1.97551027e-002 1.07760979e-002 2.50582337e-001
      1.06958002e-001 -8.20550397e-002 -9.18294713e-002 0.
      1.74881034e-002 8.28633159e-002 -5.66004589e-002 1.77301377e-001
      1.59339249e-001 7.38612562e-002 -1.52078867e-001 1.09130882e-001
      -9.62603092e-003 5.91006503e-002 -1.35379717e-001 -7.23734945e-002
      5.79517968e-002 1.38356581e-001 -4.10187580e-002 -1.24052852e-001
      5.30858040e-002 -2.28195097e-002 1.10777907e-001 3.61181833e-002
      -8.09554458e-002 9.35381185e-003 -5.66037893e-002 -5.59655242e-002
      -1.78475350e-001 4.61893566e-002 3.26823033e-002 -8.06551334e-003
      -8.14737156e-002 1.99025482e-001 3.87828797e-002 0.
      6.85297027e-002 -1.84907932e-002 -2.06387848e-001 7.11926594e-002
      5.48226200e-002 1.37578687e-002 -1.65762991e-001 -1.03918929e-002
      1.55503571e-003 8.92671421e-002 3.21366370e-001 1.17306029e-002
      -1.66079253e-001 -2.32425258e-002 3.80754918e-002 6.35904027e-004
      9.79914665e-002 1.53017947e-002 1.60207599e-001 9.07354280e-002
      -9.94470268e-002 -5.72693646e-002 6.80062026e-002 1.64914250e-001
      -8.05699378e-002 1.16857095e-002 1.48249075e-001 4.88359220e-002
      1.10042065e-001 6.32234439e-002 -1.30710483e-001 0.
      -1.61179960e-001 -1.50856122e-001 2.06435993e-002 1.56870242e-002
      3.56302969e-002 1.27512470e-001 4.96376194e-002 1.75304078e-002
      3.50067485e-003 -9.01354253e-002 1.10581078e-001 1.54990554e-001
      -2.60616075e-002 -4.54591550e-002 -3.23988497e-002
      -1.96263567e-001 6.99575618e-002 -1.53522670e-001 2.42249683e-001
      1.34673759e-001 -1.16263172e-002 2.21065376e-002 3.57195325e-002
      1.71245888e-001 -1.74460858e-001 2.20560595e-001 -8.43749475e-003
      6.31954893e-002 1.18539967e-002 -1.05633453e-001 -8.73631909e-002
      0. -1.48875326e-001 -1.74574018e-001 -1.09421641e-001
      5.72785325e-002 9.56328772e-003 -2.47264728e-001 -9.95177925e-002
      -3.83088998e-002 5.96529022e-002 -1.33586109e-001 -1.33601010e-001
      -9.78005752e-002 -6.12548552e-002 -5.53877987e-002 6.02175817e-002
      -9.37338769e-002 -7.42067723e-003 -5.09857573e-002
      -2.92652491e-002 -1.50909096e-001 7.28210062e-002 1.17036432e-001
      6.92349151e-002 1.16977729e-001 -2.84084529e-002 1.22283481e-001
      -1.01654083e-001 -1.33689316e-002 -1.49079040e-001
      -1.86178342e-001 -2.47704506e-001 0. -1.05143726e-001
      -2.18697242e-003 -1.85754560e-002 -1.38789818e-001 1.49350390e-002
      -7.06626624e-002 -9.15007293e-002 -5.76439947e-002
      -1.96092039e-001 -1.92901731e-001 1.98810607e-001 -1.68826267e-001
      5.48081547e-002 4.40935940e-002 -5.50414026e-002 -1.53809801e-001
      -1.13428518e-001 -3.96895520e-002 -6.73936754e-002 3.42503861e-002
      2.06935316e-001 3.88962179e-002 1.98628709e-001 2.34108388e-001
      -4.29200288e-003 1.40116569e-002 -1.85236752e-001 -1.07973777e-001
      -1.69547975e-001 -2.13558525e-002 -2.15724021e-001 0.
      -9.17629451e-002 8.06727037e-002 -5.37476614e-002 4.81808707e-002
      1.25435472e-001 7.23393932e-002 -1.97698891e-001 1.92054664e-004
      -5.52477082e-003 -2.04260558e-001 -7.18443841e-002
      -1.07714422e-001 -7.65959620e-002 -1.09443478e-002
      -9.27653164e-002 -3.56683172e-002 1.24251917e-001 9.41345617e-002
      2.48093247e-001 1.20779477e-001 1.40663251e-001 -4.16727439e-002
      2.24040106e-001 1.36616915e-001 -2.49653861e-001 1.09155089e-001
      1.11076228e-001 -1.57630563e-001 -1.61208168e-001 4.46907617e-002
      8.40227231e-002 0. -2.13866234e-002 2.58268323e-002
      5.19358590e-002 -1.85478657e-001 7.72884563e-002 1.43915728e-001
      -3.22731063e-002 -1.41252190e-001 -1.07491417e-002 4.54085656e-002
      -8.19616988e-002 -1.36069795e-002 -7.25100469e-003
      -8.61982331e-002 -7.36334622e-002 -8.93315673e-002
      -2.25587711e-002 2.70180643e-001 2.19969302e-001 -1.16882056e-001
      -9.36542358e-003 -5.40667512e-002 1.38502568e-001 2.94648279e-002
      -9.22878161e-002 -9.15638581e-002 1.92448825e-001 -2.53237970e-002
      -6.52931780e-002 -4.51680310e-002 6.45444468e-002 0.
      -5.31669259e-002 -3.57111841e-002 2.28083253e-001 -8.03937539e-002
      -6.38397112e-002 2.85080791e-001 -5.42343780e-002 -4.71236259e-002
      4.41481854e-004 -9.55039114e-002 1.32840395e-001 -4.74564135e-002
      -2.31872015e-002 -3.58104892e-002 1.37497559e-001 8.25458169e-002
      -3.12909372e-002 -8.26117471e-002 6.40137494e-002 1.18416242e-001
      2.09504008e-001 -7.76712522e-002 -1.48339227e-001 1.17757246e-001
      -1.02924451e-001 -5.52771874e-002 1.59146730e-003 2.57458866e-001
      1.50127947e-001 -1.88163713e-001 -1.17525756e-001 0.
      -1.02304323e-002 2.21671127e-002 6.93269521e-002 2.79296096e-002
      5.02096973e-002 1.54875070e-001 8.36277530e-002 1.66250452e-001
      1.06491096e-001 1.52190417e-001 4.38255966e-002 -2.01051936e-001
      1.07170179e-001 -7.41992053e-003 3.21140438e-002 2.22372860e-002
      -1.94879204e-001 7.20984442e-003 2.22630575e-001 1.19549096e-001
      -1.07609436e-001 -9.77093801e-002 5.16835274e-003 1.49729669e-001
      2.49299109e-002 -1.88569874e-001 7.05398098e-002 -8.60546231e-002
      4.18348517e-003 1.91976056e-001 1.87840462e-001 0. 5.24030663e-002
      -6.55770721e-003 4.50043604e-002 3.01103145e-002 -7.35469535e-002
      -3.27661261e-002 -1.24845967e-001 -4.77088150e-003 4.51031029e-002
      -2.00534835e-001 7.03031644e-002 5.68077974e-002 -1.06607556e-001
      3.33033758e-003 4.36344407e-002 1.09655082e-001 -5.65941110e-002
      -5.96740283e-002 1.29575998e-001 -2.93258578e-002 8.69813338e-002
      -9.70086157e-002 1.87134042e-001 1.85256332e-001 -5.52776828e-002
      8.19274038e-002 1.77416429e-001 -4.70701419e-002 3.12198084e-002
      -1.08927734e-001 2.59978566e-002 0. -7.94257596e-002
      1.29861891e-001 -8.83838907e-002 -8.68372545e-002 -1.46619290e-001
      7.94497691e-003 2.75747240e-001 1.20063312e-001 1.97124168e-001
      -2.05509722e-001 -1.42284185e-001 -3.24246362e-002
      -5.60135953e-002 -4.04544026e-002 8.40382874e-002 -8.82105902e-002
      -2.03473955e-001 4.07147557e-002 3.27982336e-001 6.86723962e-002
      -8.87554660e-002 -6.85684532e-002 3.40500809e-002 3.08447145e-002
      9.12279189e-002 1.91049948e-002 2.33303800e-001 -7.98821747e-002
      1.06027476e-001 -1.20398030e-001 -5.38341254e-002 0.
      -7.66768157e-002 -1.03007546e-002 1.21027954e-001 -8.19209740e-002
      -2.00820208e-001 -4.37463112e-002 5.21630310e-002 -6.29642978e-002
      -6.52389154e-002 6.99448586e-002 5.91191761e-002 -2.55091816e-001
      -1.50144072e-002 -2.13010963e-002 1.29278004e-001 1.04935968e-003
      -8.19240510e-002 2.66438294e-002 -1.47735924e-001 -3.31220478e-002
      5.07810339e-002 9.23181623e-002 -1.24747276e-001 1.32802531e-001
      7.15977252e-002 -8.56462717e-002 2.74549145e-002 -5.93061000e-002
      -9.08781867e-003 -1.56012610e-001 9.55490675e-003 0.
      -1.31589159e-001 4.28435244e-002 -3.87116633e-002 1.64625317e-001
      -1.69866323e-001 -1.81863979e-001 -3.50351855e-002 9.82526094e-002
      -2.19813306e-002 -1.99746266e-001 4.23307940e-002 -2.40124255e-001
      -1.54368617e-002 8.47558230e-002 -1.28140733e-001 6.32401109e-002
      -2.62360871e-001 1.67594850e-001 -1.13057114e-001 6.01368248e-002
      -5.60992099e-002 2.37165034e-001 2.43747570e-002 -5.41151017e-002
      1.78714320e-001 6.73792735e-002 1.60700992e-001 -1.36967734e-001
      -8.95340964e-002 -5.67448810e-002 -7.55894184e-002 0.
      -3.25181037e-001 2.42544591e-001 3.76557894e-002 1.99870870e-001
      8.29556361e-002 -7.14011164e-003 -6.92539364e-002 5.00201434e-002
      8.16453695e-002 -1.72266096e-001 3.94028388e-002 -2.14742213e-001
      -7.28584751e-002 -1.33840904e-001 -2.28017673e-001 1.55110732e-001
      -1.03536107e-001 -9.18202102e-002 3.24589729e-001 2.79191852e-001
      7.29833394e-002 8.20061564e-002 1.50715545e-001 -9.00227204e-002
      9.20285285e-002 3.23467329e-002 5.86695150e-002 -1.29785046e-001
      -9.71659794e-002 -8.00152868e-002 5.73831834e-002 0.
      -2.27680668e-001 -9.42154974e-002 -2.29436764e-003
      -2.49612164e-002 -6.65338412e-002 -8.48530307e-002
      -9.60078165e-002 -4.55555543e-002 -6.25644624e-002
      -3.46869566e-002 1.20622814e-001 -9.40117463e-002 1.46266714e-001
      -1.64130136e-001 5.87935327e-003 1.09395564e-001 -5.33359088e-002
      1.64569616e-001 1.69932619e-001 1.12161219e-001 -7.18626380e-002
      1.66647583e-001 1.01345934e-001 1.60827383e-001 5.44379838e-002
      -8.95828754e-002 -6.50208071e-002 -1.05565198e-001
      -4.87489104e-002 -9.54245552e-002 1.21072922e-002 0.
      5.35989776e-002 1.03740461e-001 -1.00619234e-001 -4.57275324e-002
      8.42273757e-002 9.60429162e-002 -6.37254119e-002 8.08993652e-002
      -1.40136898e-001 -2.95110382e-002 1.73971906e-001 -1.90983072e-001
      2.93102190e-002 1.47394016e-002 -2.81408168e-002 8.01691115e-002
      -1.04345411e-001 5.57901375e-002 8.88255090e-002 2.60587275e-001
      -2.40488961e-001 5.67843169e-002 3.50546949e-002 3.03566307e-002
      -1.82895526e-001 1.64073016e-002 -8.57047886e-002 1.32579446e-001
      2.18105957e-001 -2.03609839e-001 -1.14407234e-001 0.
      5.48582897e-002 1.83389708e-002 -3.31767574e-002 1.54079264e-002
      -4.08409238e-002 -1.52273839e-002 1.83636118e-002 1.22605219e-001
      -7.92662352e-002 -3.96135934e-002 -2.03972727e-001 5.95275536e-002
      -4.95445542e-002 2.81285290e-002 1.15435101e-001 1.83372959e-001
      -5.59249260e-002 1.20702386e-001 9.04831886e-002 -3.47808376e-002
      7.04527423e-002 6.77590817e-002 -3.16738933e-001 -2.47617513e-002
      1.90645546e-001 -1.05819907e-002 3.26662809e-002 -1.36549577e-001
      -1.85614184e-001 2.90724248e-001 1.34757802e-001 0.
      -7.77868554e-002 1.51210323e-001 -7.14129284e-002 -9.42584947e-002
      2.97728240e-001 1.93821177e-001 -1.03534870e-002 -1.48803979e-001
      -2.12052204e-002 -1.18434668e-001 -2.24065378e-001 3.64782929e-004
      -7.87728503e-002 1.24483936e-001 2.12760083e-002 -7.02860802e-002
      -2.69634873e-002 -8.10822621e-002 2.04163224e-001 -2.87039708e-002
      4.82098479e-003 -1.03774568e-004 5.00990190e-002 8.70452598e-002
      -4.68995608e-002 -1.90975666e-002 -5.69088757e-002
      -6.00564852e-002 -4.53290977e-002 -2.53785718e-002 2.02014502e-002
      0. -1.13697469e-001 1.83008444e-002 -7.80005008e-002
      -1.60151258e-001 -9.16414633e-002 -5.74870557e-002
      -8.19007754e-002 -7.84649029e-002 8.20532963e-002 2.83435266e-002
      -1.12772554e-001 9.56032500e-002 -1.06913641e-001 -1.59405425e-001
      7.35348761e-002 -2.41375472e-002 -1.83257028e-001 -1.36061828e-003
      4.67112154e-001 -4.04327661e-002 -3.30631696e-002 -1.30247608e-001
      -2.17310652e-001 7.16351718e-002 -2.12469906e-001 -7.53842816e-002
      1.41766191e-001 -9.41490903e-002 -1.61299974e-001 -1.14917174e-001
      -7.81021938e-002 0. -8.51294175e-002 -5.98502792e-002
      -7.35660549e-003 3.03404946e-002 -1.10622197e-001 -1.49427831e-001
      7.86997005e-002 2.06136424e-002 9.52485502e-002 -4.65353504e-002
      1.04901597e-001 3.25044468e-002 -5.68943471e-002 3.11421975e-002
      4.35150750e-002 -1.24274485e-001 -2.32595414e-001 -1.59758389e-001
      -2.03075935e-003 4.02413942e-002 1.24325715e-001 1.10505046e-002
      -1.24358048e-003 -3.64978574e-002 1.43122626e-002 -7.85802677e-002
      -1.69565845e-002 -4.71852832e-002 -4.50740941e-003
      -1.17041603e-001 -1.11974373e-001 0. -5.48799075e-002
      1.68873698e-001 1.67445606e-003 -1.33300964e-002 -1.88505933e-001
      -6.95294961e-002 1.13369733e-001 1.24040082e-001 3.09582576e-002
      -9.97656509e-002 -1.12365253e-001 -2.68228143e-001
      -1.18769929e-001 2.39371806e-002 3.64067182e-002 -7.10388422e-002
      -6.80797324e-002 1.99798606e-002 1.80710033e-002 5.62425144e-002
      -2.14871079e-001 -4.24277931e-002 -1.06603593e-001 2.92486540e-004
      -3.49964388e-002 1.20527372e-001 1.52257577e-001 -1.20020270e-001
      -1.27785355e-001 2.07452029e-002 -2.99718920e-002 0.
      -6.86830133e-002 5.44935167e-002 -5.91805130e-002 6.79181814e-002
      -1.22665018e-001 1.78696718e-002 -1.61446720e-001 3.95777496e-003
      -1.00179881e-001 -2.33274281e-001 -1.61378399e-001
      -2.47100294e-001 -1.00703731e-001 -6.34877533e-002
      -5.15761413e-002 -2.10342798e-002 2.07998287e-002 -6.49464875e-002
      3.88173133e-001 6.70144036e-002 -1.59757957e-001 -1.06123209e-001
      4.48657162e-002 3.99579629e-002 -1.05726548e-001 -1.62584311e-003
      -1.61157086e-001 -3.59075926e-002 -1.75557256e-001
      -1.70365945e-001 -2.26566374e-001 0. -1.91055715e-001
      1.57251712e-002 -9.69979092e-002 5.94405085e-002 1.08210191e-001
      8.86897463e-003 -7.20126033e-002 -3.69278193e-002 7.14861006e-002
      1.15739815e-001 -5.82721494e-002 -7.58022144e-002 -1.05042309e-001
      -2.13244203e-002 9.04851705e-002 4.83949669e-003 -6.80758208e-002
      -1.38031423e-001 2.99273759e-001 6.67388216e-002 -1.85844451e-001
      -7.11547211e-002 9.71704721e-002 1.11813165e-001 -1.92434937e-002
      -1.31799402e-002 -2.61957999e-002 4.02227491e-002 -7.68467411e-002
      -1.15514314e-002 -1.35079831e-001 0. 1.85767226e-002
      -1.04281999e-001 3.22882347e-002 -1.06217265e-002 -5.05836494e-002
      2.60024726e-001 -1.33394197e-001 -1.53370664e-001 -1.58932060e-001
      -9.16280076e-002 8.56261998e-002 2.26434786e-002 9.07462984e-002
      1.88006446e-001 -2.55469549e-002 7.65390173e-002 6.14270344e-002
      -7.33085256e-003 9.88126174e-002 5.80257736e-002 1.04256824e-001
      1.27724260e-001 -1.52248472e-001 4.74879593e-002 3.91876511e-002
      2.86107697e-002 -7.98653066e-002 2.82499105e-001 1.77642226e-001
      -1.79145515e-001 -2.33767152e-001 0. -1.18710604e-002
      4.66089956e-002 -1.14886627e-001 -6.93939477e-002 2.77044892e-001
      1.15816377e-001 2.12551598e-002 -1.04758479e-001 3.02123949e-002
      -9.70536545e-002 -1.49104863e-001 -2.09924914e-002 8.53340775e-002
      -3.13587785e-002 -9.93234217e-002 -1.35890797e-001 6.31516427e-002
      2.81846803e-002 1.32732913e-001 -2.34632697e-002 -1.60291076e-001
      1.04249492e-002 -5.18214377e-003 9.36886743e-002 -6.44102395e-002
      3.61615345e-002 2.81581823e-002 -2.43792892e-001 -1.91324219e-001
      1.96024641e-001 1.60356447e-001 0. -2.50799030e-001
      1.09057419e-001 5.13467640e-002 -7.75693916e-004 1.45475417e-001
      1.11567810e-001 -7.40785301e-002 -1.89514518e-001 -5.33464625e-002
      -1.31156489e-001 -6.54439107e-002 7.90836141e-002 -7.37613291e-002
      -2.60036103e-002 -4.52922620e-002 -1.25810839e-002
      -3.09069045e-002 -1.60706043e-002 1.16705872e-001 1.00046113e-001
      -8.09042677e-002 3.82285006e-002 8.52703527e-002 5.69534935e-002
      -5.89674246e-003 -2.06772506e-001 1.11572416e-002 -8.81079584e-002
      1.49103403e-002 -8.20025802e-002 -6.78660721e-002 0.
      -2.55525291e-001 -1.37215823e-001 1.28834933e-001 -1.24437235e-001
      -1.07190192e-001 8.24607164e-002 -1.37382895e-001 9.43134725e-003
      7.55704790e-002 -1.64326608e-001 1.40795037e-001 7.89181292e-002
      -6.50146678e-002 -1.20026067e-001 -2.34835260e-002
      -1.26733435e-002 -5.06003797e-002 6.20954111e-003 2.30646119e-001
      1.66730657e-001 1.87929571e-001 -2.36752450e-001 -9.06460956e-002
      1.06200173e-001 -1.36191368e-001 9.39122811e-002 1.40464038e-001
      -8.98771510e-002 4.95196320e-003 -1.52242512e-001 -8.13365504e-002
      0. 6.78747669e-002 3.91322821e-002 9.81970653e-002 2.20617503e-001
      -1.63659438e-001 -1.93356887e-001 1.73183814e-001 5.03867567e-002
      2.03804970e-001 -7.04567060e-002 1.58755124e-001 -2.07657069e-002
      -1.87051982e-001 4.20961231e-002 1.20170571e-001 -1.48066785e-003
      5.00044264e-002 -1.25423655e-001 7.62700383e-003 2.16165528e-001
      1.14087045e-001 -1.94145516e-002 -4.80787270e-002 -6.06094897e-002
      -5.62643893e-002 1.80166692e-001 2.12212816e-001 -5.36447857e-003
      2.00193375e-001 -3.29356268e-002 5.59069403e-002 0.
      -1.71459422e-001 -3.02468729e-003 2.86784545e-002 2.05301940e-001
      -2.28413284e-001 -2.51584668e-002 1.32985890e-001 9.29165110e-002
      1.96503121e-002 -8.04074854e-002 -1.77638549e-002 2.72290986e-002
      -6.05099602e-003 6.39583841e-002 6.21206909e-002 -1.78224370e-001
      4.49124500e-002 3.68543379e-002 -6.41990677e-002 1.35161817e-001
      3.90040805e-003 1.13072917e-001 -3.79258022e-002 2.51738820e-002
      -8.90008435e-002 1.74898282e-001 3.31726298e-002 -1.27136365e-001
      -7.03136697e-002 1.93363207e-003 1.97451636e-001 0.
      -2.83408433e-001 2.80070484e-001 8.82960483e-002 -1.74547568e-001
      7.24652261e-002 -5.47710322e-002 -8.11160207e-002 1.46176174e-001
      4.01107557e-002 -1.80864245e-001 -5.46657667e-002 -2.21727658e-002
      3.63139473e-002 -2.61924956e-002 -9.43076760e-002 -8.04350674e-002
      8.78849924e-002 4.71665785e-002 2.97525764e-001 1.86888352e-001
      1.96301028e-001 -2.02544913e-001 3.13759292e-003 -1.26182616e-001
      -3.09582055e-001 1.19556889e-001 1.43012121e-001 -3.36608700e-002
      2.31558513e-002 -1.09841436e-001 6.12309901e-004 0.
      -6.25501648e-002 -1.76497586e-002 -1.08297639e-001
      -7.40105510e-002 1.49442703e-001 7.39583606e-003 1.45264059e-001
      3.73974182e-002 -1.20415622e-002 -2.33896106e-001 -2.92656161e-002
      -1.51077151e-001 -9.00305361e-002 -1.41734287e-001 1.09083056e-001
      -5.00144362e-002 1.63370624e-001 1.12588003e-001 1.73472852e-001
      3.32070718e-004 -1.68510169e-001 -1.32045358e-001 5.91755062e-002
      6.61700517e-002 6.10650890e-003 -3.33721861e-002 4.05966192e-002
      4.03232425e-002 5.21695707e-003 -1.35602698e-001 -2.59142350e-002
      0. -2.88985413e-003 -1.55440839e-002 -9.60869193e-002
      -1.16839381e-002 1.43256217e-001 3.06354433e-001 4.73921634e-002
      -4.62045334e-002 1.04609236e-001 -2.28872985e-001 1.00182578e-001
      1.10336198e-002 4.24890518e-002 -7.52070919e-002 -1.78859308e-002
      9.88389459e-003 -1.64811388e-001 -1.28592163e-001 -1.37622477e-002
      4.27176915e-002 2.35705078e-002 4.75897565e-002 -1.07821092e-001
      9.84534323e-002 -9.78011489e-002 -2.64804870e-001 9.83813852e-002
      2.69703776e-001 1.75707877e-001 -2.38854751e-001 -2.17199996e-001
      0. -2.86643710e-002 4.48525744e-003 9.51519310e-002
      5.14233746e-002 7.10043684e-003 1.55313879e-001 1.34766325e-001
      -4.08658981e-002 -5.11568561e-002 -1.18087098e-001
      -1.30605688e-002 2.59348042e-002 4.77687009e-002 1.26230419e-001
      -2.76337867e-003 -1.75146058e-001 4.79238965e-002 1.71491560e-002
      9.12898257e-002 1.83985177e-002 -5.38324192e-002 -8.22056383e-002
      -7.13977516e-002 1.70875311e-001 3.82983126e-002 -3.93468626e-002
      -1.40863946e-002 -1.60307109e-001 -1.47148862e-001 2.49010280e-001
      1.92089468e-001 0. -2.05605909e-001 -5.57884388e-002
      9.03281793e-002 -6.84258416e-002 -5.62093966e-003 -4.76984009e-002
      1.03097968e-001 -3.78033444e-002 8.46627057e-002 -1.87830806e-001
      1.53493509e-001 4.20405790e-002 -4.92236130e-002 2.02441439e-001
      -1.75475876e-003 -5.32161407e-002 -4.54971530e-002
      -1.50806038e-002 1.59614488e-001 3.37468460e-002 -8.42013657e-002
      -6.53401166e-002 2.74028093e-001 1.23070953e-002 -6.35380149e-002
      -7.88861886e-002 1.33020729e-001 -7.54474476e-003 -6.95147412e-003
      -1.26922391e-002 -1.87644195e-002 0. -2.68812448e-001
      -2.43191402e-002 2.91028549e-003 -9.45169628e-002 -1.88266143e-001
      -6.93123564e-002 8.97644907e-002 1.74418479e-001 6.41793907e-002
      -3.21815073e-001 -5.57020605e-002 2.42555529e-001 -4.89235781e-002
      5.37416413e-002 1.31569579e-002 -2.37848520e-001 -1.16742343e-001
      1.75516397e-001 1.46764725e-001 2.17896886e-003 1.75927773e-001
      -1.36634275e-001 1.88405123e-002 5.79243191e-002 -2.24020407e-001
      -8.70222077e-002 1.42682314e-001 -6.36934349e-003 -1.05212308e-001
      -3.17362994e-002 -1.44243374e-001 0. -3.88116464e-002
      9.59686488e-002 -9.50263217e-002 3.35632712e-001 1.60383508e-002
      5.52066751e-002 2.79239547e-002 2.91800834e-002 -5.53932339e-002
      -6.03827089e-002 1.09271169e-001 8.94239545e-002 -1.26937389e-001
      -1.12995975e-001 -1.53819382e-001 -7.29352888e-003 4.85824272e-002
      7.26143420e-002 2.29783729e-001 1.43803403e-001 9.47488248e-002
      6.20263442e-002 -2.26546992e-002 -9.95749831e-002 -1.00988701e-001
      8.95478353e-002 1.08079754e-001 -4.21394669e-002 8.63570049e-002
      1.86591521e-002 4.51597273e-002 0. 1.66654009e-002
      -3.31993625e-002 -5.13877384e-002 8.44785050e-002 -8.99879336e-002
      1.06780402e-001 1.86663270e-001 1.19688645e-001 6.53369650e-002
      -1.41225308e-001 -1.04837842e-001 1.96881182e-002 -1.05272330e-001
      -1.53281227e-001 -2.27411956e-001 -1.79894164e-001 1.39237195e-001
      -1.58214234e-002 1.11168794e-001 -5.29309409e-003 -4.68533970e-002
      -3.69293131e-002 -1.56436339e-001 -3.59870531e-002
      -1.95726663e-001 2.00639054e-001 1.41677007e-001 -1.05650604e-001
      -1.73486676e-002 -9.52669084e-002 4.67798598e-002 0.
      -2.41898879e-001 6.23761453e-002 2.02839479e-001 1.01942427e-001
      1.70996040e-002 -6.37676641e-002 -1.52186811e-001 -1.59471259e-001
      -1.73672987e-003 -1.50803223e-001 1.49311973e-002 -6.43263832e-002
      -1.52543291e-001 -1.08250767e-001 -4.95030992e-002
      -7.47355632e-003 1.85954362e-001 -1.68194692e-003 3.49453121e-001
      1.74596254e-002 -2.53909566e-002 -3.00371312e-002 7.03702867e-002
      8.46513510e-002 -1.34844616e-001 1.22317053e-001 -6.51262626e-002
      5.33982925e-003 -6.86993375e-002 -6.70760497e-002 -1.37555525e-001
      0. -3.82523760e-002 -3.97869945e-002 -4.11448590e-002
      1.00924402e-001 -3.36534269e-002 -6.21506423e-002 -8.16113800e-002
      -8.92510638e-004 -1.28783155e-002 -6.26526475e-002 6.03093803e-002
      -1.42110661e-001 -7.58534446e-002 1.65385194e-002 1.25357747e-001
      -3.01199779e-002 7.79479966e-002 1.48941353e-001 1.85624480e-001
      7.74622709e-002 -2.86084175e-001 9.80539024e-002 4.18469310e-002
      2.55824149e-001 -1.65467877e-002 -8.82001817e-002 -8.95134732e-003
      -1.75819919e-002 2.89680529e-002 -6.46363422e-002 1.03114583e-002
      0. -1.00620389e-001 -1.26190081e-001 -7.23326951e-002
      1.02578439e-001 1.69389486e-001 6.86685145e-002 -1.52991518e-001
      6.12166263e-002 7.31475130e-002 -1.53609335e-001 1.17203429e-001
      -7.37972185e-002 -9.52392220e-002 -4.89345640e-002 4.80622146e-003
      7.38602728e-002 4.33828942e-002 1.30674481e-001 1.53132364e-001
      1.08693838e-001 -1.67499453e-001 4.45163809e-002 -4.76343036e-002
      3.31125110e-002 -1.48866490e-001 -7.54319057e-002 1.91367850e-001
      2.38914371e-001 1.78946733e-001 -2.69220144e-001 -1.38641298e-001
      0. -1.44847380e-002 -2.36958727e-001 -8.22328031e-002
      2.02634960e-001 9.24388021e-002 1.53514994e-002 -3.59423496e-002
      2.44321257e-001 -1.37607634e-001 -7.21493736e-002 -2.31908280e-002
      1.15648478e-001 -1.63711011e-001 2.59757400e-001 -4.71466593e-002
      7.78038334e-003 -1.40174255e-001 -8.82325247e-002 1.39060095e-001
      -6.67368025e-002 -2.82097305e-003 -1.23785615e-001
      -7.85616785e-002 -1.45494223e-001 4.26996239e-002 1.64846946e-002
      -2.53698111e-001 -5.41369393e-002 -3.21528316e-001 2.26061419e-001
      1.00626223e-001 0. -2.24231660e-001 -1.30409524e-001
      4.50141467e-002 -1.66102126e-001 1.36682868e-001 1.57631919e-001
      4.77350429e-002 2.80596782e-002 1.67916268e-002 -1.88180536e-001
      4.06613313e-002 2.94660386e-002 8.29980373e-002 9.21270326e-002
      -5.30581400e-002 -2.08854437e-001 -9.56287980e-003
      -7.94377699e-002 2.14314774e-001 1.17723353e-001 2.32380815e-002
      -1.08330816e-001 1.01783045e-001 1.63305596e-001 -4.43617962e-002
      5.76074161e-002 3.31420102e-003 -5.16520962e-002 -1.00472637e-001
      9.79496017e-002 -1.26215145e-001 0. -1.33096188e-001
      4.30496968e-002 1.23263914e-002 -6.43938556e-002 -1.21167131e-001
      4.43273857e-002 4.46177237e-002 -5.45524955e-002 8.86251554e-002
      -9.42704156e-002 3.18897255e-002 9.20644775e-003 -5.47879748e-002
      -1.09764874e-001 -1.03761934e-001 -2.42673457e-002 2.32701655e-003
      5.34747913e-002 4.23538864e-001 7.44345635e-002 6.83663860e-002
      -8.71649683e-002 -4.88603488e-002 3.34573090e-002 -9.47318375e-002
      -1.13987677e-001 1.30713135e-001 -1.52080625e-001 -7.12592453e-002
      5.59268408e-002 -3.53916921e-002 0. 1.15792276e-002
      1.00464433e-001 -1.83812559e-001 -2.26425394e-001 -5.86960614e-002
      4.06535044e-002 -6.26935661e-002 5.37183285e-002 -1.04118586e-001
      -2.39933565e-001 1.01088859e-001 -1.57527551e-001 1.05557784e-001
      -6.99885637e-002 3.49777415e-002 1.17479973e-001 -2.27358550e-001
      2.28092428e-002 2.05369562e-001 1.43570259e-001 -2.10529402e-001
      -5.31643480e-002 -1.24362506e-001 5.61691038e-002 -1.06861465e-001
      -1.22981898e-001 -4.46663350e-002 -2.18384966e-001 2.56505166e-003
      -1.68042526e-001 3.39775011e-002 0. -2.53138095e-001
      8.48640427e-002 1.24226362e-002 -6.92249537e-002 1.46410121e-002
      -1.00477010e-001 -1.80130437e-001 -1.26028553e-001 1.04946025e-001
      1.89272255e-001 3.76717187e-002 -1.85690969e-001 5.66739403e-002
      -5.03138714e-002 1.22491442e-001 1.86387938e-003 -7.82506838e-002
      4.21010815e-002 2.50306457e-001 -2.58415621e-002 -9.22802910e-002
      -1.41463250e-001 -1.25351287e-002 -7.48640001e-002
      -1.83957741e-001 -1.23577110e-001 5.01935259e-002 -1.49956286e-001
      1.16737172e-001 -2.16072738e-001 7.19009340e-002 0.
      -1.32490218e-001 3.03104557e-002 -2.60076094e-002 1.21298796e-002
      -9.61356685e-002 -3.56373144e-003 -1.63362414e-001 5.40729053e-002
      2.21790224e-001 -1.44082278e-001 -3.90545763e-002 7.26144910e-002
      -1.08239941e-001 -4.69137952e-002 -1.27521548e-002 9.63450223e-002
      -3.74643356e-002 -4.58759554e-002 3.52661937e-001 1.63503930e-001
      -7.20670000e-002 -1.04096293e-001 -7.85751119e-002
      -1.00337535e-001 -5.09441979e-002 6.37995675e-002 1.22740060e-001
      -6.10168651e-003 8.68870467e-002 -2.16194153e-001 -3.83868925e-002
      0. -9.89028811e-002 -1.40357509e-001 2.74311975e-002
      -4.53870818e-002 2.01454833e-001 1.95277601e-001 -6.86277226e-002
      9.03286114e-002 -4.56687026e-002 -2.51650810e-001 -5.57485521e-002
      7.93997794e-002 -7.42824748e-002 -2.42801663e-002 -7.38780946e-002
      5.13972528e-002 -1.12230949e-001 1.21088319e-001 1.01758257e-001
      -1.41632870e-001 3.14169936e-002 -8.25444832e-002 4.10064124e-002
      6.95044771e-002 -5.76725788e-003 -3.80420722e-002 1.32577494e-001
      -3.30062620e-002 -3.17511521e-003 -1.14956781e-001 4.52442393e-002
      0. -1.98087133e-002 -1.46120060e-002 1.59116894e-001
      1.14088953e-001 7.77351554e-004 8.08765590e-002 1.25966370e-001
      -1.32603809e-001 -1.15389273e-001 -1.22237250e-001 2.49851961e-002
      -1.25338003e-001 -2.13044137e-002 1.06846295e-001 1.72204822e-001
      -1.70594696e-002 1.06037460e-001 -8.88154432e-002 1.36434510e-001
      -6.03513569e-002 -7.24172369e-002 7.21152723e-002 -1.50876015e-001
      1.12824000e-001 1.08359478e-001 -6.12855256e-002 -1.54512348e-002
      2.33245581e-001 2.86277711e-001 -1.91267714e-001 -2.18074545e-001
      0. 2.80254550e-004 9.65166613e-002 -2.61893235e-002
      5.69573529e-002 2.10749045e-001 5.02075106e-002 1.16544617e-002
      1.11407131e-001 1.97445318e-001 -7.01100826e-002 -7.87856430e-002
      1.27334699e-001 -5.73512241e-002 -6.29131868e-002 -1.05619937e-001
      -2.98996568e-002 -1.10902399e-001 -1.77527890e-001 2.91696340e-002
      1.72170121e-002 1.30913645e-001 -1.03242733e-001 -2.53121019e-003
      1.05155878e-001 -3.36214229e-002 -6.70496374e-002 -4.78780493e-002
      -2.76317537e-001 -1.71450287e-001 3.13919634e-001 2.01377720e-001
      0. -3.45814884e-001 6.55301958e-002 1.06811710e-002
      4.00119796e-002 1.16452679e-001 -9.86411646e-002 -9.26131755e-002
      1.45946313e-002 2.71363556e-002 -1.28315752e-002 -1.74124703e-001
      9.69623495e-003 1.14479162e-001 -2.54500121e-001 -3.15416381e-002
      2.16951333e-002 -5.42815328e-002 -1.97855338e-001 1.32932156e-001
      6.86383918e-002 1.40508652e-001 6.34443983e-002 1.78062171e-002
      -6.94874972e-002 -1.04785569e-001 -1.62959829e-001
      -1.85573027e-001 -2.14660540e-001 -1.37979865e-001
      -6.86624721e-002 2.44186539e-002 0. -1.45035028e-001
      -1.14325911e-001 1.42378375e-001 -4.34308164e-002 -9.07669496e-003
      -7.93311074e-002 -1.40419006e-001 -3.92984524e-002 6.95950165e-002
      3.46789099e-002 1.74090758e-001 1.94031969e-001 7.78119564e-002
      -1.50494531e-001 -1.07354008e-001 -1.95069262e-003
      -2.20948592e-001 -1.00098439e-001 3.23444039e-001 1.53251871e-001
      1.48602337e-001 5.20088635e-002 6.60827681e-002 -1.03600211e-002
      -1.09140798e-001 -1.53022468e-001 1.97119743e-001 -2.42836028e-001
      -4.08875085e-002 -1.38601307e-002 8.11279342e-002 0.
      -1.70977831e-001 1.75857946e-001 2.33085137e-002 -5.11020459e-002
      4.64769341e-002 -2.34186336e-001 -2.46639833e-001 -6.99897110e-003
      2.25703403e-001 6.91872165e-002 -1.78382024e-001 -7.79096708e-002
      -8.99038091e-002 -1.11072108e-001 5.95741384e-002 -6.49224669e-002
      1.15455754e-001 -3.55968624e-003 1.78164363e-001 -1.07427547e-002
      3.15106809e-002 -1.89099640e-001 -1.09183654e-001 -7.74586648e-002
      -3.27202111e-001 1.01165086e-001 1.30776346e-001 -1.06830642e-001
      -5.78239635e-002 -1.31702736e-001 5.11864163e-002 0.
      -9.22009256e-003 2.30852470e-001 6.43780082e-002 -7.70069137e-002
      -1.17175825e-001 -6.30960763e-002 -4.08702977e-002
      -8.94042775e-002 3.05473879e-002 1.70499124e-002 -1.34675190e-001
      3.81675852e-003 -6.99248016e-002 2.93857921e-002 6.96144551e-002
      2.11605672e-002 8.92359763e-002 -2.09937334e-001 2.32698530e-001
      5.02716079e-002 -2.03563855e-003 -1.98038474e-001 -8.27572718e-002
      2.68925540e-002 -7.89432004e-002 -3.52482796e-002 -7.06454962e-002
      -1.48555502e-001 7.20513910e-002 -5.57297282e-002 1.18997935e-002
      0. 8.57800711e-003 1.44692138e-001 -8.19520801e-002
      -8.60535279e-002 -8.91127661e-002 1.43792346e-001 -5.33344932e-002
      -1.24440864e-001 2.77341940e-002 -2.43111849e-001 -1.66066110e-001
      -6.26628175e-002 -1.42794356e-001 -4.63268384e-002
      -9.60670859e-002 4.14061956e-002 1.52669981e-001 1.22178912e-001
      3.36932689e-001 2.19289839e-001 -9.67092626e-003 -1.93316951e-001
      6.35914356e-002 6.61540544e-003 -2.64160912e-002 1.45763054e-001
      1.46720514e-001 6.20623678e-003 8.07568431e-002 -3.12560260e-001
      -3.40834185e-002 0. -1.47895627e-002 -8.31745192e-002
      8.69346410e-002 -1.74427897e-001 1.78693384e-001 1.69143260e-001
      5.04703000e-002 -3.36169004e-002 4.27818624e-003 -3.40165675e-001
      -2.20846727e-001 -2.28082854e-002 1.51380360e-001 -1.51309639e-001
      -2.96893358e-001 4.90168668e-002 7.30619207e-002 -5.97784109e-002
      1.52815863e-001 -2.11189866e-001 -2.91766971e-002 7.21972808e-003
      2.62956209e-002 4.06761020e-002 -4.09863377e-003 2.50470117e-002
      1.43001555e-002 -7.76883736e-002 9.21074022e-003 -1.85992926e-001
      -4.47892509e-002 0. -6.69701323e-002 5.04184626e-002
      -1.07435070e-001 -9.55972970e-002 2.54051030e-001 2.54207075e-001
      -4.23055477e-002 7.74178877e-002 1.48840114e-001 -3.09689865e-002
      4.65091392e-002 5.51781878e-002 4.60313708e-002 -7.37207010e-002
      -2.28328854e-002 -1.42520607e-001 1.45036966e-001 -3.36087085e-002
      1.45918772e-001 5.86190727e-003 -1.34766266e-001 -1.37868404e-001
      -6.18183501e-002 1.03453234e-001 -2.85220772e-001 5.86671457e-002
      7.76336342e-002 3.97148639e-001 3.50800753e-001 -2.63674378e-001
      -2.66615391e-001 0. 1.09526709e-001 4.21219645e-003
      -6.79044379e-003 2.92677581e-002 7.10088462e-002 2.19523683e-001
      1.51900753e-001 3.33825558e-001 4.21160124e-002 3.30468714e-002
      -1.33771315e-001 1.54354632e-001 1.27878115e-001 2.22610421e-002
      1.26954243e-001 -1.48387998e-001 -1.63554773e-002 3.24222585e-003
      -2.14884147e-001 -1.16843835e-001 -5.97464517e-002
      -6.39066994e-002 -5.72158396e-002 3.11606437e-001 -4.39254194e-002
      -2.67295055e-002 -6.33750260e-002 -6.92293569e-002
      -4.91391897e-001 9.31808293e-001 1.58578560e-001 0.
      -1.01865843e-001 -1.40411183e-001 7.61548504e-002 -1.61885008e-001
      -5.97924255e-002 1.99121043e-001 2.64511053e-002 2.89055288e-001
      1.23075843e-001 1.12329379e-001 1.61368400e-002 5.37939277e-003
      1.22215077e-001 -1.27251640e-001 -2.70390600e-001 9.43974182e-002
      -9.27089676e-002 -2.44617127e-002 2.44191453e-001 -1.36456370e-001
      -1.54907629e-001 -1.24436252e-001 1.27613142e-001 9.34284478e-002
      6.97511509e-002 -8.84511694e-003 -1.75910443e-001 -2.53126472e-002
      -2.74716318e-001 3.27063352e-001 1.32933725e-002 0.
      -2.53506601e-001 8.60488694e-003 1.54200718e-001 8.68929401e-002
      1.57776941e-002 1.02282181e-001 -1.44870386e-001 9.89730582e-002
      1.69506386e-001 -5.03636897e-002 4.80289906e-002 1.44725308e-001
      2.00972468e-001 1.11779757e-001 -1.07170254e-001 3.38978358e-002
      4.58673388e-002 -1.24489143e-001 1.24057360e-001 9.71527025e-002
      1.82327837e-001 6.44037034e-003 4.04984057e-001 2.25812197e-001
      -1.03152126e-001 3.48342806e-002 1.82181522e-001 -1.81906074e-001
      -6.15129881e-002 3.44323784e-001 1.54174194e-001 0.
      7.00889304e-002 4.10016179e-002 1.77148417e-001 8.95887688e-002
      7.08285198e-002 -1.12215532e-002 1.31522819e-001 1.36760408e-002
      3.40741090e-002 -9.88185965e-003 -6.58693314e-002 8.14667437e-003
      2.31918424e-001 1.38283208e-001 -4.52727713e-002 -8.02122951e-002
      1.06713124e-001 -1.57447815e-001 5.05605787e-002 -6.80321157e-002
      1.16854936e-001 2.37593204e-002 2.05961987e-001 1.84279323e-001
      1.56339277e-002 1.49225384e-001 -1.41487211e-001 -1.60531588e-002
      1.35897994e-001 9.73268002e-002 1.33118615e-001 0.
      -1.58481654e-002 5.09555303e-002 -7.80301169e-002 -2.56734993e-002
      -1.16177835e-001 1.93705466e-002 1.14952482e-001 2.88803894e-002
      -9.96722952e-002 2.39220098e-001 -8.03989917e-002 2.58338869e-001
      -6.28356412e-002 -3.51870470e-002 1.06406339e-001 3.13294202e-001
      1.42845005e-001 4.42345031e-002 3.24347429e-002 1.89505219e-002
      -2.59011593e-002 -1.89636081e-001 1.03141584e-001 3.08511853e-001
      1.08050771e-001 1.03805654e-001 -4.45219874e-002 1.44906282e-001
      7.48001263e-002 4.13989536e-002 1.18218027e-001 0.
      -4.93417680e-002 1.35502160e-001 9.88351479e-002 2.24825833e-003
      -3.68953794e-002 8.68067071e-002 8.74702260e-002 -1.57347061e-002
      8.56170431e-003 -2.65592486e-001 -5.67748845e-002 6.74574375e-002
      7.65801221e-002 -1.49143836e-003 6.96785301e-002 1.86300620e-001
      1.67437345e-001 -3.36255804e-002 1.56212464e-001 1.53668359e-001
      3.31512839e-002 -6.84276968e-002 2.69109666e-001 2.83118039e-001
      1.49187490e-001 2.81422943e-001 3.69992144e-002 3.13278407e-001
      1.30100101e-001 -9.01482999e-002 -1.04603529e-001 0.
      2.08183169e-001 8.31317231e-002 2.17265964e-001 2.11960495e-001
      2.61717200e-001 -9.65993106e-002 -2.28178367e-001 4.46646586e-002
      2.57699415e-002 -1.77892461e-001 -1.77867398e-001 -2.64476165e-002
      -2.32764870e-001 8.25295672e-002 -1.37523323e-001 1.26987666e-001
      -3.03147659e-002 2.44331779e-003 1.68188974e-001 -1.37139723e-001
      3.31114754e-002 3.19975540e-002 2.05448121e-001 8.48140195e-002
      -1.55833542e-001 -5.41047007e-002 -1.16889421e-002 4.24625903e-001
      -1.62901860e-002 -8.96742344e-002 -2.44620740e-001 0.
      1.10798165e-001 2.52155960e-002 1.27317831e-001 1.62780643e-001
      4.12254661e-001 1.46052837e-001 -1.04658026e-002 -1.78161506e-002
      5.42752147e-002 -9.94403753e-003 -7.46277943e-002 2.28776336e-002
      -1.21465400e-002 1.33234993e-001 1.22425996e-001 -9.77651495e-003
      1.31586507e-001 -9.87866893e-002 -9.99241993e-002 -3.70672680e-002
      -3.19510847e-002 1.43366724e-001 1.40127420e-001 4.71105240e-002
      -1.85921699e-001 -6.86084926e-002 -8.16947892e-002 1.03770828e+000
      1.73452109e-001 -5.93384616e-002 -5.78949988e-001 0.</_></support_vectors>
  <decision_functions>
    <_>
      <sv_count>1</sv_count>
      <rho>5.8691768194286835e+000</rho>
      <alpha>
        1.</alpha>
      <index>
        0</index></_></decision_functions></my_svm>
</opencv_storage>
