<?xml version="1.0"?>
<opencv_storage>
<my_svm type_id="opencv-ml-svm">
  <svm_type>C_SVC</svm_type>
  <kernel><type>LINEAR</type></kernel>
  <C>5.0000000000000000e-01</C>
  <term_criteria><epsilon>2.2204460492503131e-16</epsilon>
    <iterations>100000</iterations></term_criteria>
  <var_all>4096</var_all>
  <var_count>4096</var_count>
  <class_count>2</class_count>
  <class_labels type_id="opencv-matrix">
    <rows>1</rows>
    <cols>2</cols>
    <dt>i</dt>
    <data>
      -1 1</data></class_labels>
  <sv_total>1</sv_total>
  <support_vectors>
    <_>
      2.90436774e-01 1.09514877e-01 3.15613151e-02 6.40260503e-02
      2.44132325e-01 -3.44270132e-02 -1.46918640e-01 -2.38943160e-01
      -7.40892068e-02 3.12483698e-01 1.70707196e-01 7.46068284e-02
      3.29367407e-02 1.15407698e-01 1.37786269e-01 1.96143746e-01
      -2.29934491e-02 -2.30142757e-01 2.90997118e-01 2.45549455e-01
      7.59301707e-02 6.83748797e-02 -1.65536664e-02 1.47412211e-01
      1.57156661e-01 -2.26429589e-02 -1.04841925e-01 -1.73451543e-01
      6.29705265e-02 1.39109328e-01 4.57964510e-01 0. 1.55492410e-01
      -1.25453487e-01 2.12493688e-01 -4.01547432e-01 -1.21028051e-01
      1.63566917e-01 -2.46425882e-01 -2.63043404e-01 -5.06329760e-02
      1.68903589e-01 -1.28205270e-01 3.71934683e-03 -1.69833116e-02
      2.58504540e-01 2.34363861e-02 8.55263025e-02 6.51625693e-02
      8.48141238e-02 -3.19384709e-02 -2.06409264e-02 3.45356986e-02
      -2.29197711e-01 1.13526238e-02 2.80510664e-01 -1.31237775e-01
      -5.43082170e-02 3.87428515e-03 -1.65950164e-01 1.25064686e-01
      -5.07299267e-02 2.95321420e-02 0. 7.40589127e-02 -2.51430005e-01
      5.94875887e-02 -7.83077031e-02 -5.90168871e-04 -1.90789178e-01
      1.13352053e-01 1.19885273e-01 -3.72581817e-02 1.51585355e-01
      2.32710242e-01 1.66345134e-01 1.39577985e-01 1.90275624e-01
      4.70613539e-02 -2.14578852e-01 -2.47847795e-01 -4.64916043e-02
      8.21855292e-02 -2.36023273e-02 1.60494909e-01 2.00014994e-01
      3.12338650e-01 5.13281524e-02 -2.14316875e-01 -1.05282456e-01
      -1.64237261e-01 -2.14069322e-01 -1.87007599e-02 6.83124363e-02
      2.71486968e-01 0. -1.92612801e-02 2.17956193e-02 2.87170038e-02
      7.37500414e-02 1.16719529e-02 -5.77339754e-02 -6.79360107e-02
      -1.47808753e-02 -1.94955736e-01 3.52036476e-01 -2.94528395e-01
      -1.72687411e-01 -2.53548045e-02 4.23849598e-02 4.61364575e-02
      -2.46241659e-01 2.53220480e-02 -1.63403243e-01 3.34123939e-01
      7.10151345e-02 3.36319774e-01 2.62726247e-01 1.08377591e-01
      2.32420117e-01 -2.88607419e-01 1.37219042e-01 -3.14579874e-01
      -1.45753324e-01 -3.92656028e-02 -1.42565563e-01 1.87851004e-02 0.
      1.05956420e-01 -2.21545491e-02 2.81941425e-02 8.90078843e-02
      3.77744660e-02 -2.37737950e-02 -2.03468904e-01 -3.15250494e-02
      1.75938249e-01 1.49282694e-01 -3.76556873e-01 -2.61488371e-02
      -1.50480971e-01 1.76159278e-01 5.88970482e-02 2.95196891e-01
      2.17938170e-01 1.43596202e-01 1.62713647e-01 -1.88063383e-01
      -5.50610609e-02 1.29163973e-02 1.25821710e-01 1.55282751e-01
      1.93075702e-01 1.08285010e-01 2.00644419e-01 1.57314818e-02
      3.76489609e-01 -7.60805160e-02 -1.26379561e-02 0. -9.05374363e-02
      -7.65517652e-02 -2.65966564e-01 -7.74824172e-02 7.89765939e-02
      1.83896795e-01 -7.24803209e-02 -3.10713351e-02 -3.08519248e-02
      2.19261572e-01 -1.13776013e-01 3.43904197e-01 -2.63823807e-01
      -6.32929802e-02 1.56244978e-01 1.63537040e-01 -4.94367220e-02
      1.37789667e-01 8.96981359e-02 -1.37261495e-01 1.33759484e-01
      -2.12684900e-01 1.12088904e-01 2.41827652e-01 8.08446929e-02
      1.64645195e-01 2.11922795e-01 1.28388822e-01 4.33359265e-01
      -3.23623151e-01 -1.68197811e-01 0. 1.69576421e-01 -1.11188725e-01
      -1.43925369e-01 -2.40120292e-01 1.28772363e-01 1.38367727e-01
      -1.97665811e-01 1.39834985e-01 2.49915104e-02 -1.27787404e-02
      -1.56651929e-01 -3.82283032e-02 9.38097984e-02 -1.09038606e-01
      -2.41695084e-02 4.71208133e-02 -7.05556273e-02 1.91594772e-02
      2.21172228e-01 -8.54721889e-02 1.21400587e-01 2.86296867e-02
      -8.25034231e-02 1.45943344e-01 1.29059292e-02 1.33553073e-01
      -5.69332354e-02 -1.30057693e-01 1.14753902e-01 -3.08857441e-01
      1.62617162e-01 0. 1.63077652e-01 -1.05713475e-02 -1.24924883e-01
      -5.29135279e-02 1.90878600e-01 2.94094265e-01 6.80139214e-02
      -5.24086617e-02 -2.54111402e-02 4.67299819e-01 -1.97475389e-01
      2.37149652e-02 -4.00211290e-02 7.20605254e-02 1.55824587e-01
      3.44609208e-02 -5.12929298e-02 -1.36673748e-01 1.95821568e-01
      1.05783641e-01 1.59375072e-01 -6.64603943e-03 -1.57694444e-01
      2.32742488e-01 -2.44576223e-02 -2.95221865e-01 -1.94589928e-01
      3.42611372e-02 5.10811627e-01 -1.65199921e-01 -1.32497139e-02 0.
      7.63673559e-02 -2.07610995e-01 -1.21700101e-01 7.12631494e-02
      -1.36868528e-03 1.02642037e-01 6.92607537e-02 1.15835115e-01
      -1.66545689e-01 -1.19459651e-01 8.14684725e-04 -6.97747469e-02
      -1.66135788e-01 9.68813971e-02 -7.95084313e-02 2.48567179e-01
      1.99419446e-02 4.84187379e-02 -9.44967791e-02 -6.42086640e-02
      -2.01711431e-01 -1.99406594e-02 -6.63737161e-03 -5.27431667e-02
      2.63628393e-01 3.18112433e-01 -4.48785126e-02 -1.80371851e-01
      -1.62204579e-01 1.74478158e-01 1.29390910e-01 0. 1.71184316e-01
      -9.07148719e-02 -1.51295051e-01 -2.02976480e-01 1.64441559e-02
      -1.11169636e-01 9.84984916e-03 -3.66544612e-02 3.49207759e-01
      1.03830703e-01 -3.65983605e-01 -1.00654416e-01 -1.41410545e-01
      -2.77378615e-02 9.52846631e-02 -2.51812071e-01 2.32371628e-01
      -4.03675020e-01 2.32003629e-01 -1.24228701e-01 -1.77629173e-01
      -7.89765716e-02 1.33618355e-01 2.91131496e-01 -1.46754220e-01
      1.92407742e-01 -5.14283329e-02 -1.91087231e-01 -1.05577342e-01
      3.29477116e-02 -1.63329765e-01 0. 1.75234646e-01 7.07708746e-02
      -1.85967132e-01 1.82825122e-02 3.51809822e-02 -3.68852192e-03
      6.45655692e-02 1.42944664e-01 1.14283621e-01 -4.53248657e-02
      8.49395711e-03 -8.33983626e-03 -1.56092674e-01 -1.93312585e-01
      -3.28805208e-01 -1.20062247e-01 6.71753287e-02 1.40389308e-01
      1.01719059e-01 1.50198117e-01 3.32291692e-01 2.18536600e-01
      -1.50366813e-01 -1.03135809e-01 3.01498380e-02 2.33262315e-01
      1.61576886e-02 -6.01102272e-03 -1.78622589e-01 4.23242562e-02
      4.60156053e-02 0. -2.67934084e-01 5.67608103e-02 -1.14715733e-01
      2.29433715e-01 -9.98373032e-02 -2.94718333e-02 -6.76988512e-02
      1.83973402e-01 7.71059990e-02 3.17544825e-02 -2.67243266e-01
      -5.98828346e-02 1.18835956e-01 -1.57929137e-01 -2.27221623e-01
      2.26092756e-01 -2.24323630e-01 -6.82143196e-02 4.23924252e-02
      4.79720831e-02 3.25229704e-01 2.81157851e-01 -1.56505015e-02
      2.43571505e-01 1.69993341e-01 2.69543856e-01 1.68015525e-01
      1.49989501e-03 -1.47913888e-01 -8.18265155e-02 -8.31264853e-02 0.
      2.01852337e-01 2.09097546e-02 1.77582681e-01 -2.84501106e-01
      -2.25308180e-01 4.38450754e-01 1.57865256e-01 2.79615164e-01
      -1.48014203e-01 -1.80076316e-01 2.25685374e-03 -3.48751284e-02
      1.41845616e-02 -2.40218952e-01 -2.35833302e-01 -1.30837262e-01
      -2.81986028e-01 -2.47419477e-01 2.92261034e-01 2.00686231e-02
      2.03109905e-01 -1.05486587e-02 -1.29109845e-01 2.36730441e-01
      5.83049580e-02 2.40037590e-01 -2.57732540e-01 2.58050077e-02
      -1.89572707e-01 1.09711206e-02 -1.84891999e-01 0. 7.25018755e-02
      2.59862244e-01 -1.48172140e-01 -8.82693082e-02 8.00740793e-02
      -9.37952623e-02 4.37660366e-02 1.64873466e-01 -2.80328125e-01
      1.17524542e-01 7.40164379e-03 1.51324287e-01 -1.75663859e-01
      -2.23309100e-01 -5.69116808e-02 -3.97336893e-02 -1.04684688e-01
      -1.44030258e-01 1.82798088e-01 3.47145110e-01 3.69166344e-01
      -1.06229074e-01 -1.50520116e-01 -1.10591821e-01 2.67182827e-01
      2.75776356e-01 -1.29530028e-01 7.88435861e-02 1.23364471e-01
      -8.88478607e-02 -3.29058707e-01 0. 1.75115854e-01 8.64610225e-02
      -7.42180049e-02 -1.76948443e-01 -5.09556010e-02 -1.86127722e-02
      -2.37702698e-01 1.12436721e-02 1.57074146e-02 4.28261459e-02
      -1.59638487e-02 -1.35317102e-01 9.88462940e-02 8.38844702e-02
      5.84240258e-02 -6.78881556e-02 -2.98524141e-01 -2.84425229e-01
      1.31075740e-01 2.41586454e-02 -7.56308287e-02 9.59251449e-02
      -3.80682014e-02 1.96330532e-01 -1.96641296e-01 -5.93572259e-02
      -2.27898777e-01 -2.02732608e-02 -9.59593803e-03 -1.74162492e-01
      -1.67453781e-01 0. 1.89830422e-01 -2.40753293e-02 5.73578849e-02
      1.13991998e-01 3.33555222e-01 -2.40226351e-02 -1.42934531e-01
      1.46578446e-01 1.30688563e-01 -1.40070334e-01 -8.30321759e-02
      -1.09961860e-01 3.52268331e-02 2.69332472e-02 5.36602996e-02
      -5.62237389e-02 -4.37610829e-03 -9.75434319e-04 -1.22698233e-01
      1.23089574e-01 7.38785118e-02 7.51219364e-03 -5.35824411e-02
      4.42734174e-03 -2.36288041e-01 -1.25768453e-01 -6.26257583e-02
      1.64225876e-01 2.06871673e-01 -1.46210566e-01 1.18267806e-02 0.
      2.46433333e-01 1.07077181e-01 1.02737293e-01 -9.56535488e-02
      -2.29428321e-01 1.70757994e-01 -1.06443735e-02 1.25287786e-01
      3.28336477e-01 -2.70023167e-01 -7.51505122e-02 3.29231587e-03
      1.16399843e-02 9.06675681e-02 -4.25401777e-02 -1.41963974e-01
      -1.56278521e-01 -2.66194344e-01 1.42835332e-02 -8.71309340e-02
      8.80350024e-02 -1.15653493e-01 -1.74731076e-01 9.87819135e-02
      -9.81187597e-02 1.46512017e-01 2.99511775e-02 -2.54054755e-01
      -1.75591990e-01 2.90475547e-01 9.12547410e-02 0. 2.00731412e-01
      2.20300201e-02 1.41094625e-01 -5.98857412e-03 -3.04523632e-02
      5.77176400e-02 1.33552626e-01 4.66089919e-02 -9.83458236e-02
      -2.95249611e-01 -8.35624486e-02 -3.01727857e-02 3.34227532e-01
      -8.51737261e-02 -1.72868595e-01 -2.66253203e-01 -5.81898317e-02
      -2.26675048e-01 -4.03282084e-02 -1.48895502e-01 8.71376544e-02
      4.59947497e-01 2.46525064e-01 2.18184441e-02 -5.89032844e-02
      9.26414728e-02 -1.91093042e-01 -1.77173838e-01 -2.03585308e-02
      -4.86844145e-02 4.96576056e-02 0. -2.29300469e-01 -1.87047869e-01
      1.20274819e-01 2.60924459e-01 -8.66348296e-02 -1.36469677e-01
      -7.95608982e-02 -1.47438765e-01 5.49431071e-02 8.05327892e-02
      1.50809407e-01 3.82275403e-01 -1.29454210e-02 -5.28897196e-02
      -1.21830486e-01 -9.99668762e-02 4.67458181e-02 -2.52554566e-01
      -3.53597626e-02 1.43433020e-01 5.78883767e-01 4.30698246e-01
      2.00169414e-01 1.78915020e-02 -1.48634717e-01 4.08110544e-02
      -8.00692886e-02 8.25687051e-02 -2.17480496e-01 -6.29729331e-02
      5.16875423e-02 0. -1.71848744e-01 -2.62738347e-01 -5.04637994e-02
      1.60292283e-01 -9.62048993e-02 -1.10241354e-01 3.14395949e-02
      1.14028320e-01 1.22480690e-02 -5.65637350e-02 1.05876967e-01
      5.51551469e-02 -2.49697819e-01 -8.85035321e-02 7.70965740e-02
      4.02971327e-01 1.53990118e-02 -1.62497506e-01 -1.32658631e-01
      -7.36912265e-02 2.83572882e-01 2.44267255e-01 1.88153327e-01
      1.96041644e-01 2.54928797e-01 3.38093907e-01 -6.80419877e-02
      1.30600929e-01 -8.56416747e-02 -6.68008700e-02 -1.07441030e-01 0.
      1.84187979e-01 -6.73736185e-02 4.72237691e-02 1.88347489e-01
      5.48251383e-02 2.08848014e-01 -2.94583160e-02 -3.18830498e-02
      -7.06343889e-01 -2.71287471e-01 9.16272327e-02 1.36553660e-01
      -5.51408939e-02 -2.99050927e-01 -3.03346872e-01 5.31817153e-02
      6.48224056e-02 1.10593088e-01 -5.23973517e-02 -8.96781310e-03
      2.65839100e-01 5.02610244e-02 1.02983117e-01 1.91332042e-01
      1.68471351e-01 5.14880061e-01 -3.45335007e-01 6.07290678e-03
      -4.01102416e-02 -9.08683799e-03 -2.50876188e-01 0. -1.25313133e-01
      8.96038488e-03 9.32289958e-02 -1.55302182e-01 -1.37234598e-01
      -4.16686118e-01 7.20886663e-02 1.67215779e-01 -1.12005785e-01
      -1.15038365e-01 -1.08441904e-01 -2.33016554e-02 8.06767046e-02
      4.32477370e-02 2.40896270e-01 -2.34397668e-02 1.00772031e-01
      1.02741852e-01 -2.35713661e-01 -1.41177863e-01 -6.65638968e-02
      -6.07727058e-02 8.77435580e-02 1.41963214e-01 4.58433867e-01
      4.31712568e-01 1.79228798e-01 6.91841841e-02 -9.57231596e-02
      1.47460565e-01 -2.65610814e-01 0. -1.79943934e-01 -2.00578526e-01
      1.47981094e-02 -3.60812396e-01 6.91299066e-02 -5.11829890e-02
      -1.00062408e-01 1.75501719e-01 -2.28935555e-01 -9.89885703e-02
      1.49863943e-01 -2.34139666e-01 -6.88773990e-02 1.48595586e-01
      2.31514543e-01 -1.23775983e-02 1.68400049e-01 6.72241524e-02
      -1.01041473e-01 -2.07281023e-01 -1.59608483e-01 -2.39816263e-01
      1.45525023e-01 2.91703314e-01 -1.26360610e-01 4.36626732e-01
      -7.33759329e-02 -6.14511222e-02 -1.02125302e-01 9.89691988e-02
      -1.76217347e-01 0. 6.61540329e-02 -1.46131694e-01 -3.25321183e-02
      1.50179088e-01 1.59227088e-01 4.18466032e-02 -4.90637906e-02
      1.36606276e-01 -1.05022416e-01 2.52344429e-01 -1.47840977e-01
      -1.12184659e-01 3.92899364e-01 -3.19640547e-01 1.10799119e-01
      -1.27621084e-01 1.52721658e-01 -8.03001821e-02 1.77994907e-01
      -5.11224121e-02 -1.27055898e-01 3.07734489e-01 -1.84710234e-01
      1.25436664e-01 -2.00155929e-01 -4.78983819e-02 -1.64457798e-01
      1.47267938e-01 1.34903327e-01 -1.11458011e-01 -9.28695966e-03 0.
      4.67529185e-02 -9.88534391e-02 7.19350353e-02 -2.42929965e-01
      1.35250062e-01 1.11304060e-01 2.03198582e-01 -2.00798884e-01
      -7.51826316e-02 8.80173147e-02 8.98823366e-02 -1.87107310e-01
      3.08497753e-02 9.82540175e-02 -1.41120136e-01 3.11474413e-01
      1.14872307e-02 9.52049419e-02 2.77022645e-02 -2.00568318e-01
      -8.68412405e-02 -1.12245776e-01 -1.28179982e-01 -6.86119720e-02
      1.79661691e-01 -2.09930286e-01 -8.28072131e-02 -7.15754554e-02
      -1.93321690e-01 2.47062653e-01 1.81701720e-01 0. -1.41428977e-01
      -1.43033892e-01 -2.15366691e-01 -3.41675252e-01 -1.59504324e-01
      1.52362317e-01 -7.71655738e-02 1.08278051e-01 -1.57833114e-01
      -1.49246782e-01 1.67883322e-01 5.15957214e-02 7.08132237e-02
      1.19863585e-01 -1.37161046e-01 -4.81682681e-02 -2.98226103e-02
      -5.09430729e-02 -1.85330808e-02 -3.35464738e-02 6.52404353e-02
      -2.22266108e-01 2.89207567e-02 -8.67488161e-02 -1.50950119e-01
      8.56505893e-03 -3.93580534e-02 -3.51156518e-02 -2.29976833e-01
      -8.93308371e-02 -1.07809529e-01 0. -1.43102184e-01 1.47794664e-01
      5.48954904e-02 -3.90070230e-01 -2.23659754e-01 1.42347887e-01
      -2.09131092e-01 -1.73250511e-01 -3.47870171e-01 -8.65541399e-03
      9.23847035e-02 -1.61828592e-01 2.40176648e-01 -1.76935062e-01
      -2.30546415e-01 -7.96154141e-02 5.93560226e-02 6.84005097e-02
      3.40617508e-01 3.39107364e-01 2.00089648e-01 6.02099858e-02
      -3.93095404e-01 -7.08360225e-02 -1.41031280e-01 -3.57510932e-02
      -1.34776533e-01 6.16265461e-02 -3.47247303e-01 -1.09668396e-01
      -2.36060992e-01 0. -4.01012078e-02 -9.55610722e-02 -1.90182567e-01
      3.19558144e-01 5.58781065e-02 9.04558599e-02 -1.15606159e-01
      1.11565292e-01 -1.61810488e-01 -2.19095036e-01 -1.38641283e-01
      7.74220452e-02 8.06436092e-02 1.29360542e-01 5.95720112e-02
      -2.33848505e-02 -8.43513906e-02 2.27559283e-01 -1.18185163e-01
      -3.10750753e-01 -1.04377188e-01 2.23900035e-01 1.52427137e-01
      8.49036947e-02 1.02666682e-02 1.01737091e-02 -9.42569003e-02
      1.55037031e-01 -1.89451665e-01 2.05814540e-01 -1.32141307e-01 0.
      -3.00186247e-01 -4.18830141e-02 4.75298315e-02 2.74238974e-01
      -1.35597527e-01 -3.04510415e-01 -1.53830543e-01 -2.19560545e-02
      1.42234191e-01 -2.84573764e-01 2.57683963e-01 1.68655977e-01
      1.36697292e-01 -1.03856407e-01 2.11776376e-01 1.23907253e-01
      -6.78375661e-02 1.59537673e-01 -2.79299229e-01 -5.78312017e-02
      -3.17695714e-03 5.27875125e-02 -3.12834859e-01 -9.55903903e-03
      7.94920772e-02 2.29172096e-01 1.61669642e-01 1.34913802e-01
      -1.49286240e-01 1.57501236e-01 -9.22033861e-02 0. -1.06813155e-01
      1.05318902e-02 2.63076164e-02 9.70561132e-02 -2.23665982e-01
      -1.77254871e-01 -3.25777948e-01 -1.04953051e-01 9.57103744e-02
      -1.21470742e-01 3.60818058e-02 -2.64036804e-01 1.59620475e-02
      -2.48920381e-01 6.14477135e-02 -6.66790605e-02 -9.30451415e-03
      2.87365973e-01 -8.66037309e-02 -7.28672147e-02 -2.08812237e-01
      1.06645159e-01 -2.25008026e-01 -5.53393289e-02 4.99860756e-02
      5.16479537e-02 3.57480586e-01 -1.49315102e-02 -1.76569819e-01
      6.14001527e-02 -3.49978715e-01 0. -1.59609586e-01 -2.48441696e-01
      7.40834847e-02 -2.13224709e-01 -8.03469047e-02 1.68687969e-01
      -4.17310894e-02 -2.07355425e-01 -4.94168848e-02 -3.96889523e-02
      3.97206247e-02 -4.89495061e-02 3.44428688e-01 1.36180539e-02
      -2.08420008e-01 -2.73175567e-01 2.01533824e-01 2.72524357e-01
      1.65534645e-01 -1.48997918e-01 8.11722651e-02 2.80659702e-02
      -6.79413751e-02 -1.50632724e-01 -7.05353916e-02 2.36851469e-01
      1.23459876e-01 -1.10191844e-01 -2.28017420e-01 1.92602381e-01
      -6.92399666e-02 0. 3.24366763e-02 -1.14247307e-01 2.85182863e-01
      -2.11689994e-01 1.57791078e-01 1.77601054e-01 -1.11322083e-01
      2.46790443e-02 -9.29728523e-02 -1.05435140e-01 7.27559924e-02
      -3.44095156e-02 1.32343411e-01 1.55302614e-01 -1.72668874e-01
      1.17973033e-02 1.71765432e-01 8.27274695e-02 -7.12876534e-03
      5.84846139e-02 2.33502313e-01 -1.10534430e-01 2.80997157e-02
      -7.95340911e-02 -8.05528387e-02 1.80425301e-01 8.82646963e-02
      3.01276237e-01 8.76434296e-02 -3.24421525e-02 -1.38861880e-01 0.
      7.18350112e-02 -1.30195677e-01 1.96826130e-01 -4.70270291e-02
      9.04543139e-03 2.85616696e-01 4.37168702e-02 -7.10311010e-02
      1.91031769e-01 2.26728376e-02 2.13387430e-01 1.81216456e-03
      -1.97377443e-01 2.33493894e-01 2.28258669e-01 -1.41397670e-01
      2.17282802e-01 -2.68919170e-02 2.18795970e-01 -2.29862444e-02
      6.64505884e-02 -2.01983184e-01 -2.59509832e-01 -3.05343196e-02
      -1.39896460e-02 9.85945910e-02 2.96141207e-02 4.34422046e-02
      -1.11087240e-01 3.92340660e-01 1.94343701e-01 0. 2.87330598e-02
      3.60328108e-01 -1.18444249e-01 -1.44679651e-01 -3.19650210e-02
      2.51145303e-01 -1.20963141e-01 -5.90874963e-02 1.88339073e-02
      -3.63574237e-01 -2.09532361e-02 6.01363964e-02 -4.97480594e-02
      1.15231417e-01 -7.01533305e-03 6.39550611e-02 5.35168871e-02
      -1.98409468e-01 -7.50260428e-02 1.24492399e-01 1.50619313e-01
      -1.36012837e-01 1.31151620e-02 -4.62155342e-02 4.08965610e-02
      1.31196873e-02 -2.76892513e-01 2.04030722e-01 -2.43993878e-01
      9.90400091e-02 -1.35896027e-01 0. 3.72004882e-02 2.71148141e-02
      -1.34449765e-01 -1.28867969e-01 2.38188714e-01 -1.64901406e-01
      -3.66400570e-01 1.01334035e-01 5.30322865e-02 -2.84415662e-01
      -3.18373293e-02 9.50636342e-02 2.08709702e-01 -1.21186912e-01
      -7.68823773e-02 2.60130823e-01 -2.61130899e-01 3.57725084e-01
      1.11652963e-01 3.15830596e-02 1.51773944e-01 4.49537374e-02
      -4.19736318e-02 -1.82844907e-01 -2.13406026e-01 1.03820395e-02
      3.49515915e-01 2.92670280e-02 -3.17244641e-02 1.38047829e-01
      -2.25898162e-01 0. -4.20962684e-02 -2.34404013e-01 -3.09353739e-01
      -1.43984735e-01 6.23968728e-02 -1.39387339e-01 -2.00922027e-01
      1.38722882e-01 -2.59607732e-02 -2.91467793e-02 2.11948469e-01
      1.57535985e-01 1.71262041e-01 -7.67510906e-02 -1.68470945e-02
      2.84310758e-01 -1.00578465e-01 -4.00742423e-03 3.17611285e-02
      -4.19229530e-02 -4.53600809e-02 -1.19760379e-01 -2.90526420e-01
      -1.85408816e-01 -2.83542443e-02 3.83364558e-01 1.10162385e-02
      1.53788507e-01 -1.08670488e-01 -4.99021336e-02 -1.35345489e-01 0.
      1.37503748e-03 1.23179428e-01 -1.09074041e-01 -1.87346071e-01
      -7.78643563e-02 -1.20314032e-01 -1.07952736e-01 -1.97671041e-01
      1.24462461e-02 -8.76505822e-02 2.56757587e-01 -2.28216752e-01
      6.39048778e-03 1.25720382e-01 1.20497249e-01 2.37198785e-01
      4.31702770e-02 -7.97879472e-02 -1.72463432e-01 3.68702710e-02
      -1.24741293e-01 -3.35454404e-01 7.05963150e-02 6.48900867e-02
      -8.19355100e-02 9.67035741e-02 1.41964052e-02 8.56627077e-02
      -2.26231366e-01 6.91147745e-02 -5.54196723e-02 0. -3.66031565e-02
      -2.40159258e-02 3.59641202e-02 -3.33358608e-02 2.86670756e-02
      -6.13843128e-02 -1.33025199e-01 -1.00437388e-01 1.87201664e-01
      3.97569686e-02 2.24291816e-01 2.26886775e-02 1.55922741e-01
      -1.37539476e-01 -8.08961913e-02 4.36856225e-02 -2.18519345e-01
      -7.05289766e-02 1.41585276e-01 6.58625886e-02 9.99682620e-02
      1.56922042e-02 3.31757180e-02 -1.56837121e-01 3.58103365e-02
      2.05543879e-02 1.93430826e-01 -8.16442743e-02 -1.10891573e-01
      2.02060208e-01 -8.40560123e-02 0. -8.70997682e-02 -9.69772041e-02
      -3.95449437e-02 -2.36894891e-01 2.20443338e-01 9.93238762e-02
      -3.75001848e-01 -2.16271475e-01 5.57171628e-02 1.06578946e-01
      2.84518935e-02 -2.03986615e-01 1.35893449e-01 -4.50611636e-02
      4.27900925e-02 2.27449268e-01 -7.52135587e-04 -2.66613662e-01
      8.99546146e-02 -1.15028046e-01 -1.91987708e-01 -4.73563224e-02
      1.75755799e-01 1.45937085e-01 -1.49214074e-01 8.73392224e-02
      7.38111660e-02 -2.39109561e-01 -1.81035742e-01 5.14334887e-02
      6.15683980e-02 0. -1.85039788e-02 4.99999747e-02 4.92477000e-01
      -2.07508489e-01 4.01463121e-01 3.44803557e-02 -4.14501637e-01
      -2.69104615e-02 1.00999542e-01 -2.08126083e-02 -1.21430114e-01
      -1.78566545e-01 -1.39381140e-01 -1.76583990e-01 6.00244384e-03
      9.90989581e-02 2.46133134e-02 1.35958925e-01 8.64744484e-02
      -1.53356627e-01 1.90689012e-01 -2.24261403e-01 -1.34146184e-01
      -1.73911348e-01 -2.52859980e-01 -5.71415536e-02 1.57061204e-01
      1.35464504e-01 1.03211492e-01 -1.09032750e-01 -1.10365614e-01 0.
      3.10290694e-01 5.14169931e-02 1.28834441e-01 1.64350152e-01
      7.20487237e-02 2.00836807e-01 -2.75699675e-01 1.18860513e-01
      2.63130683e-02 1.59058854e-01 -1.46971971e-01 5.73293865e-03
      -3.51828545e-01 2.89839525e-02 1.14889443e-01 -1.86236948e-01
      -1.28918588e-01 1.94190308e-01 3.85818928e-01 6.56804293e-02
      1.66303962e-01 -2.41664231e-01 -1.31896771e-02 1.19351499e-01
      -2.75955170e-01 1.13341644e-01 1.67923421e-01 -1.67270541e-01
      1.88470315e-02 8.88052285e-02 2.88789868e-01 0. 9.49243084e-03
      1.53535455e-01 -3.26510072e-01 -2.84986496e-01 -1.43763497e-01
      2.54865766e-01 -7.87819698e-02 1.84530646e-01 -1.24695390e-01
      -3.73987496e-01 -1.76769674e-01 -3.40309031e-02 9.02516544e-02
      2.32204166e-03 8.45836252e-02 1.07794190e-02 -3.43020707e-02
      2.21600905e-01 -7.13792816e-03 2.22626954e-01 1.88404456e-01
      -7.95841739e-02 2.48372912e-01 2.43755236e-01 -3.12760146e-03
      3.04768324e-01 -3.69196422e-02 1.52585298e-01 -8.13289452e-03
      -2.42261618e-01 -1.68939829e-01 0. -1.08465165e-01 1.82344303e-01
      -9.46466550e-02 8.84814002e-03 -1.29970729e-01 -6.29981607e-02
      1.46082029e-01 3.27262320e-02 -5.46605662e-02 -2.36587584e-01
      1.10539339e-01 8.33495334e-02 6.35725036e-02 6.49400800e-02
      3.66528742e-02 -1.70284629e-01 7.02232169e-03 3.04299772e-01
      4.04773699e-03 2.54151195e-01 1.65423468e-01 5.92437610e-02
      -8.06209967e-02 -5.48547320e-02 -3.10752150e-02 -1.48904875e-01
      2.33275015e-02 2.64638454e-01 -1.06312625e-01 2.82045286e-02
      -1.00375652e-01 0. -8.44602734e-02 -4.23460640e-02 -2.10224465e-01
      -4.31508422e-02 6.92018196e-02 5.86411841e-02 1.12951919e-01
      -7.91926160e-02 -6.80955201e-02 -2.81601191e-01 3.37793976e-01
      -5.37640080e-02 -1.18267402e-01 -2.14789696e-02 2.58640409e-01
      -6.14043372e-03 -1.35626867e-01 -1.97442919e-01 -1.28785431e-01
      -6.42222911e-03 -3.68764251e-01 -2.06326872e-01 -2.52102792e-01
      -4.70356904e-02 -7.16780797e-02 -1.25408515e-01 -1.54032454e-01
      3.63923027e-03 -1.54467866e-01 1.56119674e-01 -2.43141741e-01 0.
      7.88367689e-02 2.45161265e-01 -2.46498838e-01 -1.55779094e-01
      -1.12580210e-01 5.05276024e-02 -1.62595347e-01 -1.26728639e-01
      1.16155781e-01 -1.81126937e-01 3.54777783e-01 4.79982458e-02
      1.43448681e-01 -7.14180768e-02 -6.23440044e-03 1.46099970e-01
      1.29055202e-01 -2.12331507e-02 -1.99839026e-02 1.16534933e-01
      1.43444404e-01 -8.16020295e-02 -7.86802098e-02 -6.49903938e-02
      -2.24305615e-01 5.22851769e-04 2.67422404e-02 1.23742893e-01
      -1.73549987e-02 6.04473390e-02 -5.94189428e-02 0. 3.07831645e-01
      2.34955013e-01 -2.35801816e-01 1.80693477e-01 1.13434494e-01
      -1.84921354e-01 1.34304404e-01 -1.47980019e-01 1.77126959e-01
      -2.25606039e-01 -1.16237581e-01 8.94447938e-02 1.37995789e-02
      -2.06307009e-01 -6.92917500e-03 5.17260246e-02 -2.91880965e-01
      5.95942251e-02 2.62801379e-01 6.71835914e-02 3.65788341e-02
      2.74874959e-02 -2.26912156e-01 -2.89520890e-01 6.57314360e-02
      -2.09035516e-01 1.22873180e-01 -1.29643872e-01 -8.82513896e-02
      5.77280521e-02 1.35299236e-01 0. 5.68943620e-02 3.32626654e-03
      -1.24778785e-02 2.51377001e-02 6.16453849e-02 4.45064791e-02
      -3.13298330e-02 -2.25758310e-02 -6.40211254e-02 -2.81063348e-01
      7.90980756e-02 1.49359480e-01 4.07383703e-02 1.70747161e-01
      -2.33971506e-01 1.07113518e-01 1.57264084e-01 1.73146725e-02
      5.15038818e-02 -1.52372211e-01 -4.03543934e-02 1.67294234e-01
      2.72364803e-02 -2.07445875e-01 3.12105082e-02 1.39024898e-01
      1.31872892e-02 -1.72941968e-01 6.88703405e-03 1.03293993e-01
      1.88957706e-01 0. -1.49908643e-02 3.60225625e-02 -4.46799845e-02
      3.94454487e-02 2.45341554e-01 2.83524305e-01 -2.62072474e-01
      -1.54968858e-01 5.98132275e-02 7.01186433e-02 1.41229153e-01
      1.40557855e-01 3.47008482e-02 1.56722784e-01 7.74111375e-02
      5.39514162e-02 1.06209859e-01 -2.47329529e-02 1.73137896e-02
      1.49908632e-01 -5.81748225e-02 9.35986340e-02 8.16430449e-02
      1.85736611e-01 -1.30040094e-01 4.95573469e-02 2.43130520e-01
      1.69008836e-01 1.57782659e-01 2.44029835e-02 9.36202481e-02 0.
      4.96581532e-02 -1.51540160e-01 -1.25216648e-01 -7.01260045e-02
      4.12763536e-01 4.91514988e-02 -1.42588943e-01 8.92902240e-02
      6.00482821e-02 6.76375553e-02 -1.87453061e-01 -6.97176531e-02
      1.27099514e-01 2.98038632e-01 1.02596097e-01 -6.44765720e-02
      5.85506856e-02 -9.91363898e-02 -4.07788232e-02 -1.52807549e-01
      -2.44192898e-01 -7.07313940e-02 -3.90386372e-03 1.06767111e-01
      -8.25363547e-02 4.28412147e-02 6.69454131e-03 -7.06538260e-02
      -9.68283415e-02 1.35364965e-01 2.22835511e-01 0. -2.02047870e-01
      3.70033294e-01 -3.37620936e-02 -2.09237374e-02 7.65671954e-02
      7.76696876e-02 9.69353169e-02 8.91496465e-02 -1.78868055e-01
      1.06773458e-01 -2.03245599e-02 -2.81952649e-01 2.76558787e-01
      8.08980316e-02 -4.62339111e-02 -1.73887715e-01 -1.87654197e-01
      -6.80336207e-02 1.98072463e-01 1.96469709e-01 2.98711732e-02
      2.02339441e-01 7.82282427e-02 1.08552784e-01 1.86590217e-02
      1.19635195e-01 -2.37764806e-01 3.38281319e-02 2.13015825e-01
      -8.91791955e-02 -1.76097974e-01 0. -1.67282939e-01 5.93028143e-02
      1.22645512e-01 2.01051414e-01 -1.27097040e-01 -1.52523696e-01
      4.92956340e-02 1.96589783e-01 8.19083024e-03 -4.48374823e-02
      1.94925502e-01 1.59244582e-01 -2.42558703e-01 -2.12885737e-01
      -7.92990178e-02 9.96514112e-02 -2.35361814e-01 2.64202714e-01
      1.96005642e-01 2.71555185e-01 2.43272260e-01 -7.37202391e-02
      -1.75322026e-01 -1.23330876e-01 -1.02849966e-02 1.27310129e-02
      1.18283890e-01 -6.90310523e-02 1.11336634e-01 -5.03436774e-02
      5.19978888e-02 0. 3.09215188e-02 -3.97981107e-02 -2.63459273e-02
      7.70226642e-02 -2.27989435e-01 1.84440911e-02 2.54725307e-01
      -3.10933203e-01 -1.66320384e-01 -2.10931376e-01 -9.17516202e-02
      -3.56679820e-02 4.46860678e-02 9.23295245e-02 6.86807558e-02
      3.07131745e-02 5.11641689e-02 3.20497692e-01 4.18227278e-02
      -1.96051985e-01 -9.88331139e-02 1.17243845e-02 -9.35728773e-02
      -9.27819982e-02 9.64239165e-02 1.61996959e-05 1.46648005e-01
      -9.25230458e-02 -5.99489585e-02 -7.74447918e-02 1.73087895e-01 0.
      6.28925487e-02 -1.11362375e-01 1.06714346e-01 -1.70293674e-02
      2.28408381e-01 2.14674342e-02 5.22270352e-02 -1.42693415e-01
      -1.11733761e-03 1.15511939e-02 -3.02299950e-02 -1.62237599e-01
      2.05533296e-01 -8.02826658e-02 1.67182922e-01 -2.34208331e-02
      -8.59288722e-02 -1.42250180e-01 -1.91258907e-01 -2.03280881e-01
      1.97637994e-02 6.31235465e-02 1.60491198e-01 1.52993590e-01
      -3.79329100e-02 -6.06543943e-03 -5.81695661e-02 1.06718384e-01
      -9.26764533e-02 7.39252493e-02 -5.99545427e-02 0. -1.40465602e-01
      -8.83949548e-02 2.49015406e-01 4.35776412e-02 1.76129133e-01
      -2.03524664e-01 1.09134521e-02 -8.85280296e-02 2.75866985e-01
      -7.30560496e-02 -9.59513988e-03 -8.96360353e-02 -2.50500813e-02
      6.66087121e-02 4.82133254e-02 7.79837444e-02 -3.12459618e-01
      5.57571650e-03 2.33643354e-04 -6.12331629e-02 -2.79583391e-02
      -5.04484251e-02 4.19024736e-01 4.07468975e-02 4.48884219e-02
      -2.44751692e-01 1.57042384e-01 -2.22583860e-02 -2.15313420e-01
      1.56696275e-01 4.46598381e-02 0. -1.40249237e-01 4.36223149e-02
      1.21283412e-01 2.85566479e-01 -2.84290433e-01 -1.18213214e-01
      1.03661291e-01 2.51641750e-01 1.33037850e-01 7.91160315e-02
      2.28879333e-01 -9.66241732e-02 -4.31909144e-01 -1.37753233e-01
      3.67510952e-02 1.71776995e-01 6.44664839e-02 -1.04744127e-02
      2.45422155e-01 2.28800952e-01 1.00293763e-01 -4.81658895e-03
      -2.14076504e-01 6.00617379e-03 -1.54975951e-01 1.52669340e-01
      2.46744394e-01 4.99897599e-02 -1.46862239e-01 2.06430465e-01
      3.19984518e-02 0. -1.24555670e-01 1.21028423e-01 -1.59236714e-01
      -3.67903672e-02 1.68260604e-01 2.70319521e-01 -1.30340621e-01
      -2.29767188e-01 1.02483310e-01 -1.35319740e-01 1.73165843e-01
      -7.77766556e-02 -3.25005710e-01 -6.58355504e-02 8.33288506e-02
      1.84722021e-01 3.62563193e-01 3.91734205e-02 1.15441682e-03
      2.01411068e-01 -1.01026803e-01 -2.12675765e-01 4.84224930e-02
      2.03232259e-01 -3.01164299e-01 -2.53937900e-01 2.02803761e-01
      3.48438829e-01 7.36035705e-02 -6.02280237e-02 -2.57909805e-01 0.
      5.70392162e-02 6.20902888e-02 2.87483394e-01 1.83234736e-01
      9.22054872e-02 -3.49879488e-02 -2.42096171e-01 1.77581102e-01
      1.23755440e-01 1.49784172e-02 -1.06114142e-01 1.36126280e-02
      -8.54794756e-02 -9.59807783e-02 1.01293236e-01 -4.35078554e-02
      1.61967054e-02 -7.35873133e-02 2.01881789e-02 5.65071926e-02
      1.49689183e-01 2.60992106e-02 -1.12656720e-01 1.19831756e-01
      -3.92059326e-01 9.78960618e-02 -4.31596451e-02 8.96952897e-02
      -1.21473946e-01 1.54302642e-01 8.85297805e-02 0. -7.74626359e-02
      1.81318656e-01 1.67356238e-01 -2.41751280e-02 -2.65401244e-01
      2.21843719e-01 7.12004825e-02 2.34821290e-01 -1.14282899e-01
      -3.87482308e-02 -1.08332619e-01 -1.79021806e-01 8.45811423e-03
      -1.28487036e-01 6.99279690e-03 5.94781637e-02 -1.62899762e-01
      -5.49256848e-03 4.65274137e-03 2.37183601e-01 2.32534017e-02
      -1.02147534e-01 -1.81385234e-01 1.53728649e-01 5.35773151e-02
      1.42880425e-01 1.79044843e-01 -5.92460781e-02 4.55192430e-03
      1.25364691e-01 -1.42716765e-01 0. -1.08884797e-01 -3.14653739e-02
      -2.30118647e-01 -3.64365354e-02 -8.49179253e-02 -1.19891129e-01
      -1.24321178e-01 -1.18924491e-01 1.26003549e-01 -1.41536191e-01
      5.95084392e-02 3.17009203e-02 1.85331464e-01 -1.48403630e-01
      -2.03946725e-01 4.36431207e-02 -3.33246849e-02 -2.57631928e-01
      6.14672154e-03 2.02532515e-01 -6.76459000e-02 -8.45577344e-02
      -9.51551944e-02 -1.37956873e-01 5.63296154e-02 -1.81907061e-02
      1.86255395e-01 4.74155918e-02 -1.61739409e-01 -2.01700732e-01
      -2.46645898e-01 0. -8.42691734e-02 1.38060644e-01 -2.40900546e-01
      1.15878746e-01 -1.75567046e-02 8.09984207e-02 -2.92310789e-02
      -5.69555983e-02 -1.13493979e-01 -2.29758456e-01 1.15942381e-01
      -7.84842297e-02 2.29934946e-01 1.11826673e-01 8.50081146e-02
      -7.43698552e-02 1.66158974e-01 -5.07210642e-02 -1.28303260e-01
      2.67069489e-01 -1.72838181e-01 3.50159071e-02 3.62863004e-01
      9.82067958e-02 2.75564998e-01 2.66088605e-01 -6.17571138e-02
      7.27569964e-03 -9.76124108e-02 1.74063712e-01 -5.16397953e-02 0.
      -2.38748103e-01 1.96028143e-01 -3.69746417e-01 -1.53554425e-01
      -6.74390048e-02 1.19405026e-02 -7.34094530e-02 3.60543072e-01
      -2.38325030e-01 -7.18775019e-02 -7.69203678e-02 7.54971951e-02
      2.00386032e-01 4.17729132e-02 -1.11859247e-01 -1.22687116e-01
      8.50049686e-03 6.01833910e-02 -3.87185454e-01 -1.80650353e-01
      -6.69220686e-02 1.21607102e-01 1.46107063e-01 4.86003309e-02
      -2.54201353e-01 1.63432673e-01 9.08081308e-02 1.36165246e-02
      -1.06760219e-01 7.11248722e-03 -1.82532385e-01 0. 2.48332843e-02
      -7.12439641e-02 5.01325130e-01 3.79576460e-02 -5.19844927e-02
      -8.33485927e-03 -1.02705255e-01 1.90521851e-01 3.40164483e-01
      -1.06611159e-02 -3.81904915e-02 -3.56247753e-01 -8.48781988e-02
      -2.60857910e-01 -2.44291127e-03 -1.83946937e-02 -9.99425575e-02
      6.31350800e-02 2.65462726e-01 -1.27652269e-02 1.70730725e-01
      8.19300562e-02 -8.22574086e-03 6.49153888e-02 -5.06749228e-02
      1.92623794e-01 4.52276081e-01 9.19857714e-03 -2.02381425e-02
      3.51227005e-03 3.20652686e-02 0. 4.13375236e-02 -3.00134540e-01
      -1.19534388e-01 -2.70885825e-01 -1.63436964e-01 -8.29713941e-02
      -5.71728572e-02 2.22757548e-01 1.57154098e-01 -1.35866612e-01
      -1.15508653e-01 -4.95558716e-02 1.53044149e-01 -8.92689750e-02
      -1.50275066e-01 -1.01869568e-01 -3.35037261e-01 3.73664528e-01
      4.41340990e-02 -3.12619746e-01 -1.19707465e-01 -9.44803506e-02
      -1.62818387e-01 1.70172080e-01 -4.88823019e-02 -9.76151675e-02
      3.56121838e-01 -1.57419577e-01 -2.86779791e-01 -2.92215608e-02
      -9.08522587e-03 0. 2.17436440e-02 3.83102834e-01 -3.37396786e-02
      -2.69906297e-02 -8.79060030e-02 2.87506312e-01 4.00389964e-03
      -1.54858336e-01 -4.04946834e-01 -3.89434040e-01 7.41004571e-02
      1.35897053e-02 5.47496863e-02 2.06884265e-01 1.42779335e-01
      -1.36088654e-01 -7.78462216e-02 1.73684433e-01 2.45229214e-01
      2.14916915e-01 -7.93375298e-02 8.71460128e-04 -1.71144754e-01
      4.51621413e-01 -3.02523375e-02 -2.77114719e-01 -9.65571627e-02
      1.40087709e-01 2.05897301e-01 -1.52252689e-01 -1.70004860e-01 0.
      5.84637672e-02 3.60650546e-03 3.79939377e-02 -6.79733418e-03
      -1.08561985e-01 1.11573152e-02 -9.72932354e-02 -4.70447056e-02
      3.02417040e-01 1.15147315e-01 -6.75906092e-02 -8.88717473e-02
      5.71487769e-02 1.03219301e-01 -2.06433181e-02 -7.06919059e-02
      2.18820218e-02 3.86984497e-02 1.14291921e-01 -7.54064098e-02
      -1.02825254e-01 -1.67299762e-01 -1.06788091e-01 -1.18595548e-01
      -4.56458144e-02 1.50921211e-01 2.42666319e-01 3.52166370e-02
      -2.40787059e-01 3.69293660e-01 -4.95314337e-02 0. 7.64848590e-02
      -6.31819814e-02 1.39789492e-01 6.88170269e-02 3.75898741e-02
      -3.09763709e-03 -3.03045779e-01 1.39417425e-02 -1.85723677e-01
      2.01708734e-01 6.13987111e-02 -4.53512970e-04 4.59007621e-02
      1.57940164e-01 1.25249237e-01 5.64182587e-02 8.63351766e-03
      -7.48886615e-02 2.97900409e-01 1.38158485e-01 1.57557622e-01
      -3.31788138e-03 -7.96812493e-03 7.71933496e-02 -1.37729615e-01
      8.72937515e-02 -7.53877684e-02 5.30987531e-02 -5.98723814e-02
      2.55763978e-01 -7.76453316e-02 0. -1.78565353e-01 9.48843453e-03
      -1.23349585e-01 3.11474465e-02 1.46102116e-01 2.66048938e-01
      -8.80854763e-03 -1.17413830e-02 2.05202103e-01 -2.90395971e-02
      2.02343062e-01 4.07722369e-02 -2.87226029e-02 -3.07175785e-01
      -9.80805680e-02 4.86375019e-02 5.00023626e-02 -3.01103503e-01
      4.63506609e-01 1.40151665e-01 -6.14327490e-02 8.56273323e-02
      1.78930491e-01 2.15587661e-01 -9.56109017e-02 2.12064639e-01
      1.47912487e-01 2.57506341e-01 1.75002664e-02 -4.02675718e-02
      -2.75676727e-01 0. 1.05095357e-02 -1.64349720e-01 -2.74569601e-01
      2.11965144e-01 -2.08217308e-01 -1.69217706e-01 -2.67970413e-01
      -1.16223559e-01 -7.33811930e-02 -3.87978852e-01 1.08142428e-01
      -3.39545339e-01 -1.13880314e-01 -1.42908067e-01 2.77344733e-01
      -1.71363652e-02 -1.61655918e-01 -1.10011749e-01 -3.60622108e-01
      3.07871122e-03 -1.70274645e-01 3.47390383e-01 2.98745483e-01
      2.82157212e-01 -1.42350420e-01 -2.50708945e-02 -1.14654601e-01
      -8.19155946e-02 -3.74616593e-01 -1.30548581e-01 -3.27003449e-01 0.
      -1.53086007e-01 -2.67275646e-02 1.12947911e-01 2.08399877e-01
      -2.78546274e-01 5.62004708e-02 4.74499464e-02 2.00300850e-02
      -1.16230763e-01 -1.71291053e-01 2.08091766e-01 -7.53507614e-02
      -4.64462787e-02 -1.09421067e-01 -2.21365407e-01 -1.45182740e-02
      7.05595594e-03 1.07174687e-01 -1.63072094e-01 -3.55061740e-02
      3.11602443e-01 5.77147007e-02 -6.24768399e-02 -8.12058970e-02
      5.33357561e-02 2.40643695e-01 4.19037342e-02 -4.05562744e-02
      -1.48349449e-01 6.58773184e-02 -8.70429724e-02 0. -4.03052568e-01
      -1.65625095e-01 -2.43628845e-01 1.80745319e-01 -1.12058654e-01
      5.02518788e-02 -1.75246745e-01 -1.03304712e-02 5.27643859e-02
      1.06196515e-01 1.61329865e-01 5.16801886e-02 -1.92918517e-02
      1.42438591e-01 1.21996859e-02 7.36763477e-02 -9.75979716e-02
      2.20838934e-01 3.61058086e-01 -2.25650091e-02 -2.88024861e-02
      2.44394876e-02 1.55336782e-01 1.48458451e-01 -1.01966068e-01
      -2.10420549e-01 3.19765508e-01 -1.81944706e-02 -4.83674370e-02
      5.97995594e-02 -7.55961314e-02 0. -9.88979638e-02 -1.08350568e-01
      4.80473675e-02 -5.99567778e-02 2.01522019e-02 6.66000322e-02
      -3.07684839e-01 -1.57493353e-01 -1.56295747e-01 1.64112542e-02
      -1.99261177e-02 6.26021102e-02 1.49866462e-01 -2.51593366e-02
      -2.78826896e-02 3.84469423e-03 -2.04470962e-01 2.73528006e-02
      -9.64395553e-02 7.06127658e-02 1.40440807e-01 1.53966025e-01
      1.95374519e-01 1.26315892e-01 -1.59120023e-01 -1.84195302e-02
      -1.89454228e-01 5.59061058e-02 -2.08768293e-01 -1.33998826e-01
      -7.67021626e-02 0. 9.46570337e-02 8.53589028e-02 5.24647944e-02
      -5.41633740e-02 9.19411704e-02 2.55283574e-03 7.21557215e-02
      1.69971362e-01 5.10280430e-02 1.14489868e-01 -1.84291657e-02
      -1.05647683e-01 -1.78594500e-01 -5.91831319e-02 6.65954649e-02
      2.15210065e-01 -1.78780422e-01 -1.01843365e-01 3.96140099e-01
      -3.99564803e-02 -2.00290084e-01 -1.20886512e-01 -2.19939128e-01
      1.02596655e-01 1.77878097e-01 -9.86197144e-02 6.37981892e-02
      3.43351126e-01 2.05776431e-02 -2.55750809e-02 -1.87607661e-01 0.
      -1.53641492e-01 -2.66253471e-01 -4.99276966e-02 -3.11803501e-02
      6.84459368e-03 2.13768274e-01 5.78322783e-02 -1.03694268e-01
      -3.00302226e-02 2.01305762e-01 1.83177784e-01 -8.85815918e-02
      -8.64527095e-03 3.33963544e-03 -5.34442961e-02 2.73860365e-01
      -2.37737730e-01 2.18466461e-01 2.18001261e-01 -1.72925927e-02
      -4.70003719e-03 -1.22142062e-01 1.20076828e-03 5.86075820e-02
      2.35903814e-01 -6.10318221e-02 1.25463963e-01 -2.23512322e-01
      -9.95721743e-02 1.83192670e-01 2.03747034e-01 0. 1.62191480e-01
      -4.56714854e-02 1.82482183e-01 -4.49854024e-02 -1.45284936e-01
      7.83486217e-02 -1.00646131e-01 1.01265050e-01 1.40683606e-01
      -1.16002010e-02 -3.07624489e-01 -1.29763633e-01 -1.83822393e-01
      -2.50027537e-01 -2.59124469e-02 9.85508859e-02 -7.37074986e-02
      1.08027691e-02 2.83329606e-01 2.04868075e-02 7.48153776e-02
      8.83093011e-03 1.25943711e-02 1.58882022e-01 7.99940601e-02
      1.02474026e-01 3.93605568e-02 -1.73939720e-01 -1.75930038e-01
      5.28502129e-02 4.02376503e-02 0. -2.45512813e-01 9.10735782e-03
      -1.31219821e-02 -2.66364008e-01 1.63481776e-02 4.16170917e-02
      2.93784086e-02 -3.23574468e-02 -1.74273935e-03 -3.78553838e-01
      -7.56781474e-02 -2.60715932e-02 -3.71030867e-02 -4.79231745e-01
      -5.67921773e-02 1.42441332e-01 -9.78372842e-02 -4.57989499e-02
      5.44220030e-01 2.33031902e-02 1.29621878e-01 -5.66304736e-02
      6.38044849e-02 2.65149355e-01 6.15146160e-02 -2.63359677e-02
      7.05200583e-02 -1.87752053e-01 -4.10467871e-02 -2.45943516e-01
      -2.40500420e-01 0. 3.74092944e-02 1.24884702e-01 2.03780711e-01
      -5.94118685e-02 2.22069427e-01 -1.32847324e-01 -1.44423053e-01
      1.49597436e-01 -1.27765849e-01 -1.60751313e-01 -6.58138096e-02
      -8.20743367e-02 -8.89543369e-02 -7.89518654e-02 -9.34410561e-03
      4.08165716e-02 -2.49319643e-01 -2.19965070e-01 -5.68502583e-02
      7.21279979e-02 1.65524617e-01 5.47356494e-02 3.01949859e-01
      4.58412804e-02 2.29575168e-02 1.97939813e-01 -1.20844215e-01
      -1.11740306e-01 -4.75392491e-02 -1.49887532e-01 6.96931221e-03 0.
      -9.88782719e-02 -3.86819579e-02 2.70139445e-02 1.70218781e-01
      -2.73379594e-01 -1.29105821e-01 -6.21978864e-02 2.18099549e-01
      1.35105908e-01 -2.74605960e-01 -2.82285184e-01 -3.03057134e-01
      -2.29930311e-01 -4.06063460e-02 -2.15859979e-01 -7.46181747e-03
      -8.55088327e-03 1.64479420e-01 1.78928062e-01 -1.04882970e-01
      -5.59807159e-02 8.08736384e-02 2.01939985e-01 -7.13427812e-02
      -9.22517665e-03 2.95407623e-01 3.85143422e-02 -3.21715772e-01
      4.22975495e-02 -1.85052902e-01 -1.24629654e-01 0. -3.05303931e-01
      8.35208818e-02 7.55364075e-02 9.47382003e-02 3.92949954e-02
      -1.41566679e-01 3.39572169e-02 6.40622973e-02 -1.86951235e-01
      -1.31739501e-03 4.12697941e-02 -2.72073328e-01 -1.86994821e-01
      -3.61723639e-03 2.00705864e-02 1.04035504e-01 -2.23116744e-02
      -7.40899891e-02 3.96988958e-01 2.02980757e-01 9.12629887e-02
      9.72096920e-02 3.35687578e-01 -1.57920038e-03 4.38756011e-02
      -1.42751500e-01 -9.57683176e-02 -1.63823307e-01 -3.12940888e-02
      -1.64842188e-01 5.93288504e-02 0. -1.72421783e-01 -7.66904354e-02
      4.41374183e-02 1.47485688e-01 -3.62464637e-02 -2.97311638e-02
      6.86733499e-02 -2.14056119e-01 1.44743904e-01 -6.96375370e-02
      -1.05959617e-01 -7.70434365e-02 5.92889898e-02 -2.27512389e-01
      -4.47300449e-02 3.15720774e-02 3.38151753e-01 1.43251885e-02
      1.99777946e-01 5.71769103e-02 6.83540404e-02 2.04926208e-01
      1.44362068e-02 1.75172463e-01 -1.64207473e-01 -6.60965638e-03
      2.07811639e-01 -2.89402567e-02 6.45010620e-02 -1.67168960e-01
      3.46643776e-02 0. -6.00718670e-02 -2.88307592e-02 8.44418555e-02
      2.08635196e-01 -9.30121467e-02 1.11552395e-01 -1.26556426e-01
      -1.41024768e-01 2.44536951e-01 -8.37673694e-02 2.37990096e-01
      -1.37554169e-01 4.45364527e-02 -2.79420726e-02 -9.27375183e-02
      2.28800803e-01 -1.29246444e-01 -1.66993305e-01 -1.39010042e-01
      3.37768607e-02 -8.59397724e-02 3.45146768e-02 -1.76422626e-01
      -2.66297422e-02 -4.49407920e-02 -9.75292400e-02 1.33957267e-01
      2.53356904e-01 1.89902097e-01 -2.62692034e-01 -1.46269366e-01 0.
      -2.81636231e-02 -2.27230024e-02 -1.44762546e-01 -1.91499870e-02
      3.53046730e-02 2.61740744e-01 3.62973996e-02 -1.82613288e-03
      1.05400801e-01 -1.69609308e-01 -8.61285031e-02 -5.28312114e-04
      1.26293734e-01 -6.98016286e-02 -4.55378182e-02 -2.54066028e-02
      -1.07024632e-01 1.36031955e-01 7.60293230e-02 -1.47268195e-02
      -8.50620940e-02 -5.33262966e-03 -1.87543273e-01 2.41529256e-01
      -1.71820372e-01 -2.17344373e-01 2.19909921e-02 -2.55216241e-01
      -1.74327776e-01 1.96634173e-01 2.23673865e-01 0. -3.87321591e-01
      2.97290906e-02 -1.33011997e-01 -1.01625890e-01 6.65923730e-02
      -2.38460563e-02 -4.47955653e-02 9.48052853e-02 -1.32569829e-02
      -3.08971614e-01 -2.51713604e-01 1.03404522e-01 1.81820989e-01
      2.47224808e-01 -1.30910218e-01 -1.21723942e-01 -1.11842372e-01
      2.55577732e-02 1.03753731e-01 -5.01190871e-02 6.87102601e-02
      2.12033018e-01 2.37456009e-01 4.78619114e-02 -1.72076181e-01
      1.79429576e-02 -7.70132020e-02 -1.19328476e-01 -2.74646908e-01
      -6.45943591e-03 -1.43430075e-02 0. -3.04548949e-01 2.53534496e-01
      -9.75038707e-02 -7.22280070e-02 -1.98534548e-01 -2.89200276e-01
      -1.47686735e-01 4.18398418e-02 -1.20598320e-02 -1.58287242e-01
      -3.46967950e-02 1.50276333e-01 -1.24517210e-01 1.34327859e-02
      2.31787190e-01 5.27526475e-02 -1.00632705e-01 -6.59889355e-02
      3.85484427e-01 9.50596333e-02 -1.42410070e-01 -8.86911079e-02
      -2.70618349e-01 1.09711282e-01 -7.65986443e-02 -2.13228166e-01
      1.46343689e-02 -1.13952190e-01 -5.16567528e-02 -5.95500283e-02
      -1.81311354e-01 0. -1.28245936e-03 3.30746099e-02 1.34900644e-01
      -1.48969755e-01 2.96402693e-01 -2.41029814e-01 -1.50985122e-02
      1.90853283e-01 1.75706685e-01 -7.21253082e-02 1.75431117e-01
      -5.40161245e-02 -1.85203890e-03 -4.60875034e-02 3.43754180e-02
      -1.77712962e-01 -3.57131064e-01 -2.42213178e-02 2.05345545e-02
      2.84119993e-02 4.44220081e-02 -1.20260246e-01 1.12753417e-02
      -1.87016129e-01 -3.53471860e-02 -2.82746088e-03 1.52896270e-01
      6.94017019e-03 1.21748112e-01 -1.36853114e-01 -3.84012870e-02 0.
      1.54371545e-01 -3.13378274e-02 3.61941904e-02 -1.05791740e-01
      -1.24507219e-01 -1.79613218e-01 -3.17627192e-01 1.58485621e-01
      6.63740113e-02 -1.31622553e-01 3.02543361e-02 -1.69000268e-01
      -3.43365192e-01 8.32311735e-02 2.66149342e-02 3.22926529e-02
      -1.63184449e-01 1.05722219e-01 1.83357615e-02 2.05790222e-01
      -1.06035739e-01 -2.30936646e-01 -3.92467342e-02 3.61624286e-02
      -2.35143214e-01 -5.84372412e-03 -2.22023707e-02 -1.00779921e-01
      -1.15539156e-01 -9.27066430e-02 -1.02274954e-01 0. 5.74767552e-02
      3.05637151e-01 2.62322187e-01 -7.89061002e-03 -9.17446911e-02
      -4.94389571e-02 -4.95643057e-02 -1.05224319e-01 5.47654321e-03
      -3.10700871e-02 7.57295862e-02 -4.06383693e-01 -6.89361468e-02
      -6.33910671e-02 -1.41888201e-01 1.87582329e-01 -1.55413166e-01
      -1.19039221e-02 3.35209697e-01 1.34164289e-01 -2.89353859e-02
      -8.80198274e-03 1.26871988e-01 -3.69603261e-02 5.12839332e-02
      -3.48695815e-01 -1.48669537e-02 1.34169322e-03 -1.41075388e-01
      -1.66455097e-02 2.03215890e-02 0. -2.61688922e-02 -5.60206249e-02
      -2.77864128e-01 1.63433000e-01 3.23903635e-02 1.11795612e-01
      1.63978294e-01 -2.85833806e-01 2.87278652e-01 -2.53482878e-01
      -1.02892317e-01 -7.54599944e-02 8.16282555e-02 -2.51736313e-01
      5.45314625e-02 -2.92564183e-02 1.85388193e-01 -5.58983609e-02
      2.09106117e-01 -6.93718791e-02 -2.09841341e-01 3.05883437e-01
      9.78486147e-03 1.44240171e-01 1.23595437e-02 -2.33410746e-02
      1.16222821e-01 -3.67628075e-02 4.08672076e-03 -7.53050223e-02
      -4.95559648e-02 0. -4.02651653e-02 -1.36292160e-01 -6.06366880e-02
      -1.49237746e-02 1.53176486e-03 1.25670150e-01 1.01673882e-02
      2.93200687e-02 -3.23432684e-01 2.29044691e-01 1.01063505e-01
      -1.71600565e-01 2.62968034e-01 1.02731884e-01 2.26436570e-01
      4.61068116e-02 -1.70962065e-01 -3.34559567e-02 2.88903452e-02
      -1.59879029e-01 -1.94405988e-01 1.44252613e-01 -2.18485549e-01
      1.70223340e-01 -6.21939451e-02 -6.34341501e-03 1.98480650e-03
      5.30186333e-02 3.68776143e-01 -1.96299791e-01 -1.39006332e-01 0.
      -1.27715945e-01 -8.95000249e-02 -1.31197855e-01 -8.70299935e-02
      3.95810515e-01 2.43500337e-01 6.95234165e-02 2.72494853e-01
      1.38995841e-01 -1.74093261e-01 -1.73862353e-01 -7.14976564e-02
      -2.56024390e-01 -8.33001286e-02 1.36797085e-01 -8.77016112e-02
      7.87856728e-02 -2.41969582e-02 1.60314962e-01 2.42034476e-02
      -1.26148805e-01 -2.81549037e-01 -3.25744539e-01 1.96659341e-01
      -4.57038283e-02 1.39963642e-01 1.32023215e-01 -3.48235786e-01
      -1.64419055e-01 2.32876346e-01 2.93820381e-01 0. -1.19198911e-01
      -2.93134395e-02 1.00447059e-01 -1.03999406e-01 -2.71192372e-01
      -1.59849282e-02 -1.51816616e-02 1.16402833e-02 -1.98033333e-01
      -9.49758589e-02 8.56117010e-02 2.01900110e-01 4.71238382e-02
      -3.00917663e-02 -7.46157840e-02 1.49434041e-02 -8.25860500e-02
      8.05201977e-02 3.01461041e-01 9.24873278e-02 1.34820148e-01
      7.17610866e-02 -7.03174174e-02 3.30024473e-02 -7.44961621e-03
      -1.40649110e-01 -3.74600515e-02 -1.03400186e-01 -6.24467758e-03
      -1.69981301e-01 4.72321026e-02 0. -2.51538903e-01 5.49957678e-02
      3.09708923e-01 -2.32642457e-01 -2.02434257e-01 9.19829682e-02
      1.85796708e-01 3.60311680e-02 1.11625582e-01 -9.66940820e-02
      3.59014094e-01 2.82542910e-02 -1.47207111e-01 -1.25907406e-01
      -2.04922616e-01 -1.06448337e-01 -8.08541551e-02 -1.00599162e-01
      3.56160641e-01 1.44598484e-01 1.91824228e-01 -3.50788265e-01
      -2.58285910e-01 1.88487563e-02 -6.99795131e-03 5.35363331e-02
      1.67541832e-01 -1.43542483e-01 5.06895185e-02 -1.49044767e-01
      6.66127652e-02 0. -2.87661776e-02 9.66531038e-02 1.19584836e-01
      3.18591118e-01 4.75340039e-02 1.10652611e-01 5.88021763e-02
      1.63803119e-02 1.64051980e-01 -2.45456606e-01 4.11696639e-03
      -9.95710492e-03 -7.28137791e-02 6.01966493e-02 4.59901728e-02
      -1.34927988e-01 -1.02670826e-01 1.10272944e-01 -6.29024431e-02
      9.51696783e-02 2.58239955e-01 4.06007953e-02 5.48495017e-02
      -3.79797220e-02 -8.36480707e-02 -2.25990519e-01 8.09110329e-02
      9.80545580e-02 1.73214674e-01 -4.83027138e-02 4.01851758e-02 0.
      -1.39476061e-01 1.83104843e-01 1.64859667e-02 2.52426326e-01
      -1.54668003e-01 -1.09706193e-01 -6.11865632e-02 2.95804024e-01
      3.23423922e-01 1.23517886e-01 -4.16134000e-02 -1.41183570e-01
      -2.04531401e-01 8.86283740e-02 5.27826510e-02 -2.00207949e-01
      1.42121864e-02 -3.30500633e-01 1.95082739e-01 3.50414723e-01
      -4.00754400e-02 1.10133849e-01 -1.90968066e-01 -1.68967083e-01
      -3.24207157e-01 2.99791455e-01 2.25687623e-01 -8.85931104e-02
      4.27425392e-02 -7.78225586e-02 1.08264312e-01 0. -2.86697298e-01
      1.28240913e-01 3.87745537e-02 1.34655669e-01 -5.33560514e-02
      1.24818876e-01 -6.38300106e-02 1.48753136e-01 -9.41715389e-02
      -7.51994774e-02 5.13493503e-03 -3.80363828e-03 -1.56439692e-01
      1.12668835e-01 6.44789413e-02 -9.76865292e-02 2.44872853e-01
      -9.00907889e-02 4.34018314e-01 1.14609160e-01 3.91042270e-02
      8.52363631e-02 -5.37409708e-02 6.28940389e-02 -2.55687624e-01
      3.97440165e-01 -1.12691619e-01 -7.68266805e-03 7.64919072e-02
      -9.70270634e-02 6.64595217e-02 0. 3.40975225e-02 -2.05368266e-01
      -2.77187973e-01 -4.86906692e-02 7.04568475e-02 3.25069837e-02
      4.59493045e-03 -7.42919818e-02 -9.23610255e-02 -3.29278290e-01
      7.65798688e-02 -3.32479365e-02 -1.68921113e-01 -1.33159935e-01
      -2.15031002e-02 -1.49982855e-01 3.78289521e-01 -8.08394775e-02
      8.35088417e-02 -1.29623786e-01 -1.44237161e-01 -1.04599699e-01
      9.60583165e-02 -8.03477392e-02 -3.48310918e-01 1.96948927e-02
      4.41730097e-02 -1.11345433e-01 -1.26211300e-01 -2.14037195e-01
      -2.84360480e-02 0. -4.22048606e-02 -2.18314752e-01 4.37767059e-02
      1.15112543e-01 7.93262012e-03 3.44876587e-01 4.64576259e-02
      6.16723821e-02 -2.04384401e-01 2.53508806e-01 2.47750655e-01
      -6.74079806e-02 -1.04853131e-01 5.71134463e-02 1.87870577e-01
      -9.95711461e-02 9.26385894e-02 -1.07493103e-01 2.04085097e-01
      7.03571290e-02 -5.67284562e-02 -9.65685546e-02 -5.50830290e-02
      2.94629008e-01 -2.37452418e-01 -1.09409578e-01 -3.05772983e-02
      3.95647049e-01 2.99436122e-01 -2.38330200e-01 -1.67086616e-01 0.
      -4.53617461e-02 -4.58685458e-02 4.82391864e-02 7.12818326e-03
      1.35506496e-01 1.37658492e-01 -3.91101651e-02 1.27239190e-02
      -2.04044417e-01 -1.96521759e-01 5.91835454e-02 1.74764290e-01
      -6.11374788e-02 -1.15209132e-01 8.33249390e-02 1.51606113e-01
      1.42775357e-01 -5.38035035e-02 -9.72854495e-02 1.77519947e-01
      -6.92715272e-02 -7.58723170e-02 -2.26474747e-01 -7.06866663e-03
      2.00211614e-01 4.35338318e-02 -3.90523821e-02 -9.88286138e-02
      -2.95557916e-01 3.96926969e-01 8.78994539e-02 0. -3.10483932e-01
      2.18269363e-01 1.76256388e-01 -1.88151523e-01 -1.76989824e-01
      1.00987434e-01 -6.22159764e-02 5.45547120e-02 -1.57804370e-01
      -1.82291448e-01 -4.60550748e-02 -8.51501226e-02 1.07895523e-01
      1.72143713e-01 -1.86202731e-02 -1.13926023e-01 3.00746709e-02
      2.92136639e-01 1.84933707e-01 7.13664517e-02 2.27087047e-02
      -4.20826338e-02 2.07361970e-02 1.06190585e-01 -3.92687730e-02
      -1.53557286e-01 2.23901439e-02 2.52877343e-02 -4.27503474e-02
      9.30527076e-02 -1.64859161e-01 0. -3.06894690e-01 -6.41921461e-02
      9.90668908e-02 -2.15814918e-01 7.05435947e-02 5.13658486e-02
      -3.21663953e-02 1.05318971e-01 -1.66432746e-02 -1.80199772e-01
      -1.18961513e-01 -1.59960464e-01 1.36033744e-01 1.24668509e-01
      -1.58315718e-01 -5.15551940e-02 -1.09894253e-01 -4.13926179e-03
      4.99737531e-01 5.98697551e-03 5.97768128e-02 6.88666850e-02
      2.27511585e-01 -8.60656425e-02 -7.46060312e-02 1.73149835e-02
      -1.27006054e-01 -1.08775988e-01 -8.89773667e-02 -7.13417903e-02
      -1.22987047e-01 0. -1.28941640e-01 -2.57694740e-02 -7.51660019e-03
      -1.87949747e-01 3.90745029e-02 1.14170082e-01 2.08729431e-01
      -2.53680795e-02 -1.84263647e-01 -7.50613362e-02 1.79509148e-01
      6.97465707e-03 1.49079531e-01 -1.74405262e-01 -4.41237390e-02
      6.94530644e-03 -3.11796740e-02 1.79146275e-01 4.29239012e-02
      1.18414067e-01 1.75409839e-01 -6.98090941e-02 -3.49781901e-01
      -1.72482163e-01 1.48775503e-01 1.09285705e-01 -2.22087372e-04
      -4.88788262e-02 1.05963387e-01 1.22089712e-02 -6.97415397e-02 0.
      -1.94889978e-01 1.27080888e-01 -1.16534699e-02 1.36035345e-02
      2.10642651e-01 -1.25836253e-01 3.90417844e-01 2.37571895e-01
      1.31014302e-01 -1.08731836e-02 -2.48434052e-01 -1.28100336e-01
      2.27705330e-01 -1.48949116e-01 1.25663392e-02 -2.02604681e-01
      3.63607565e-03 -6.11203648e-02 6.95472881e-02 5.39056286e-02
      -1.51887387e-01 4.94580308e-04 1.64125949e-01 -3.36122103e-02
      -6.69855401e-02 2.17369109e-01 -3.77065465e-02 -8.74955878e-02
      6.09650239e-02 -1.58054549e-02 1.46881849e-01 0. -3.07576269e-01
      2.41038725e-01 -1.53100282e-01 1.26881272e-01 2.99185868e-02
      -7.60489032e-02 -9.76336822e-02 -6.67568520e-02 3.67814712e-02
      -1.61944270e-01 -3.69085670e-02 -9.49938893e-02 -2.60584682e-01
      1.10124506e-01 9.04474631e-02 -3.96980252e-03 9.50600654e-02
      -5.07680513e-03 3.90840620e-01 2.45773852e-01 -2.17262551e-01
      -5.15105836e-02 1.23948157e-02 9.38639343e-02 -9.16448161e-02
      -2.68639959e-02 -1.12759344e-01 2.04009600e-02 -6.74841329e-02
      -1.04560688e-01 -1.00244962e-01 0. -3.12293500e-01 -6.60537630e-02
      1.36718348e-01 1.31171897e-01 4.43580076e-02 -3.07353318e-01
      -1.54836521e-01 2.68777579e-01 -6.18874393e-02 -2.09588781e-01
      3.84554826e-02 -3.06596398e-01 2.77981292e-02 4.22572419e-02
      -7.44688660e-02 1.78398311e-01 3.11937839e-01 -5.24718277e-02
      1.71617404e-01 1.20922633e-01 -8.94546732e-02 1.34889081e-01
      2.44385675e-01 4.18666676e-02 1.22114167e-01 3.12248677e-01
      -7.64622688e-02 -5.01386710e-02 2.61910651e-02 -5.36230206e-02
      -9.48097631e-02 0. -3.10342908e-01 2.55560011e-01 8.77554864e-02
      -3.92461233e-02 5.12161963e-02 -9.40519869e-02 1.43844076e-02
      1.78333968e-01 -8.92906114e-02 -2.15590373e-01 -8.22567195e-02
      2.61990707e-02 1.27584025e-01 -2.19125614e-01 3.63487527e-02
      5.88256679e-02 1.29954413e-01 1.28240764e-01 -1.67848974e-01
      6.62151575e-02 -2.56372690e-02 4.98258732e-02 -1.31278083e-01
      -5.02684852e-03 -3.01003009e-02 -9.56120864e-02 2.02737108e-01
      3.74319971e-01 2.21473709e-01 -3.04163486e-01 -2.70653665e-01 0.
      -9.52204037e-03 -1.27104416e-01 -8.66046026e-02 3.71071063e-02
      3.24551344e-01 1.50565365e-02 1.03979312e-01 1.32767156e-01
      -4.91791591e-02 -1.69535950e-01 2.18394548e-01 2.28798911e-01
      -1.67603552e-01 -7.22620711e-02 -1.56999156e-02 -7.10573569e-02
      -1.62745759e-01 -3.13386843e-02 1.68910280e-01 6.66078106e-02
      4.05492866e-03 -8.67486745e-02 1.06308281e-01 7.08779246e-02
      -1.09566525e-01 -7.60100037e-02 1.78204075e-01 -1.49320707e-01
      -3.28465462e-01 3.69732499e-01 1.54251456e-01 0. -3.84574950e-01
      -1.43595949e-01 -8.07587877e-02 -2.61010136e-02 2.05019061e-02
      2.13642240e-01 9.08451229e-02 -1.77520797e-01 -6.79569989e-02
      5.44598624e-02 8.35593045e-02 -2.42484435e-01 8.72091204e-03
      2.10055206e-02 -1.98368922e-01 -1.89632088e-01 -1.86870292e-01
      -3.15326937e-02 3.13120127e-01 -4.55477610e-02 -2.92746574e-01
      6.09170385e-02 1.60806060e-01 2.80723482e-01 3.33969742e-02
      -1.73560172e-01 -2.59424448e-02 -1.51458398e-01 -1.94617271e-01
      -6.28385395e-02 -1.74048334e-01 0. -9.95480195e-02 1.49934571e-02
      1.67393655e-01 -2.15570569e-01 -2.88310140e-01 1.05917886e-01
      -2.86900282e-01 -2.00159863e-01 4.37185243e-02 -9.88056362e-02
      1.95457354e-01 -1.37233327e-03 2.88469382e-02 -6.79549668e-03
      -3.07364427e-02 -3.45103405e-02 -2.47631326e-01 1.26304537e-01
      4.05774504e-01 -3.87683790e-03 1.03324533e-01 -7.52589926e-02
      -4.97866832e-02 2.02326581e-01 -2.38881737e-01 -2.66580850e-01
      1.89290904e-02 -3.57373923e-01 -4.98732626e-02 -1.05991242e-02
      2.76647359e-02 0. 7.17938393e-02 3.64416614e-02 -2.28434950e-01
      -2.91535914e-01 7.31504411e-02 -9.33644772e-02 -7.12611377e-02
      -6.09856434e-02 2.74339139e-01 -2.51294941e-01 7.60345459e-02
      -1.23542078e-01 2.32034363e-02 -2.21720770e-01 2.43124098e-01
      -4.18674462e-02 -6.23137727e-02 -1.40493572e-01 3.32237422e-01
      1.05685741e-01 -1.14227980e-01 -2.55212247e-01 4.39926907e-02
      7.98443332e-02 -1.60912246e-01 -1.85968474e-01 2.27187499e-02
      -2.34653041e-01 3.33111621e-02 -2.32069656e-01 6.16053380e-02 0.
      -2.04773813e-01 -3.90470698e-02 5.23880087e-02 1.22529484e-01
      -8.27267915e-02 -1.68089300e-01 3.54882665e-02 -1.43511355e-01
      -5.25464043e-02 -9.65166613e-02 1.42469704e-01 -1.44292518e-01
      -1.72330603e-01 -2.54650950e-01 5.74019961e-02 -2.97842864e-02
      2.09281594e-03 1.25350893e-01 3.19395997e-02 5.55939600e-02
      -1.00055911e-01 -2.68316194e-02 -8.48912597e-02 -2.56282855e-02
      -1.74319565e-01 -2.13549688e-01 2.01404631e-01 -1.41212761e-01
      -8.20407867e-02 -1.83907866e-01 6.21282822e-03 0. -1.84297830e-01
      -1.28143266e-01 2.09209025e-01 1.36144519e-01 -1.00581363e-01
      -1.51411384e-01 -2.31373936e-01 -1.53360873e-01 1.39779210e-01
      -2.73576021e-01 -7.21934298e-03 -2.20076546e-01 -2.26820469e-01
      -1.02965102e-01 -1.36553228e-01 2.16395944e-01 1.53565079e-01
      1.82142049e-01 4.42788929e-01 -2.10139960e-01 3.65908481e-02
      -1.19800679e-01 -2.84197897e-01 -7.74747282e-02 -1.24328472e-01
      -7.57645071e-02 2.29416817e-01 8.38962421e-02 -7.35117868e-02
      -2.31739163e-01 -1.93073526e-01 0. 7.11835083e-03 1.96139533e-02
      2.48139694e-01 -4.98923510e-02 1.06967591e-01 4.05395329e-01
      -4.68651578e-02 -3.05029489e-02 -8.55274424e-02 -3.98032874e-01
      -2.98216976e-02 -2.20813885e-01 -8.45144317e-02 -2.16966569e-02
      -1.45652920e-01 -1.55703560e-01 -2.85118669e-01 3.05155307e-01
      1.91516608e-01 -2.10690320e-01 7.16119185e-02 -1.24924086e-01
      3.00025102e-02 3.71304601e-01 -2.77462192e-02 -7.40445703e-02
      1.36013761e-01 5.41694909e-02 -1.26031190e-01 3.65176834e-02
      -1.82326153e-01 0. 1.04858495e-01 8.21745396e-02 -2.66416132e-01
      8.65490660e-02 -7.97994658e-02 -2.82354448e-02 -9.88867581e-02
      9.84140933e-02 -1.63289711e-01 8.59334767e-02 -1.76883832e-01
      2.59577543e-01 -1.00808367e-01 1.04566842e-01 3.47627997e-01
      -1.24450020e-01 7.61184692e-02 1.62643380e-02 2.14746296e-01
      -2.40698963e-01 -1.24550916e-01 -6.96317106e-02 1.71402860e-02
      7.35880807e-02 -1.37808397e-01 1.39523670e-01 -6.40864624e-03
      3.92587483e-01 3.03189248e-01 -1.62078232e-01 -4.28427696e-01 0.
      2.72208512e-01 -4.09647748e-02 1.55975789e-01 -9.73131806e-02
      1.98705330e-01 1.09164223e-01 2.20278557e-02 -9.60811600e-02
      4.15917523e-02 9.04060528e-02 4.11040597e-02 -2.53428742e-02
      5.31048737e-02 -1.09132886e-01 7.59759471e-02 -1.49780855e-01
      4.57838215e-02 -1.96680963e-01 -3.01261730e-02 2.95892432e-02
      3.79538462e-02 -3.08272820e-02 -1.97735384e-01 -4.36627679e-02
      -1.29329756e-01 -8.40075128e-03 -9.46926177e-02 -3.71771932e-01
      -1.96002901e-01 3.22060436e-01 4.29914773e-01 0. -2.09209964e-01
      -4.84984070e-02 9.51503292e-02 -1.30961731e-01 9.61762667e-02
      9.55890566e-02 -8.81927684e-02 -1.16968974e-01 2.25051105e-01
      -9.68635604e-02 -2.50120521e-01 -2.48343244e-01 2.05556393e-01
      -8.67482573e-02 -2.61939745e-02 -6.19768500e-02 2.28672312e-03
      -2.51196921e-01 1.28343776e-01 -5.71420379e-02 -5.37659414e-02
      -4.35176007e-02 1.68582752e-01 -2.95917969e-02 -1.65297106e-01
      -2.72490140e-02 -7.84556568e-02 -3.45168799e-01 -8.62790197e-02
      -7.92624950e-02 8.85879546e-02 0. -3.77062708e-01 -5.89120537e-02
      1.67655364e-01 -2.31357396e-01 -1.68686390e-01 1.30713493e-01
      -1.71548665e-01 8.80395919e-02 5.66297583e-02 3.02532986e-02
      1.11188084e-01 -2.21958697e-01 1.82996735e-01 1.61023155e-01
      1.06113903e-01 -4.63815592e-02 -1.74842328e-01 -4.00398336e-02
      1.79941982e-01 1.15184352e-01 1.06076650e-01 -7.23955184e-02
      1.17656089e-01 -2.31423117e-02 -2.13402689e-01 4.13026549e-02
      -3.46836261e-02 -3.46023083e-01 -1.02696024e-01 1.48474257e-02
      2.18830124e-01 0. -3.58993374e-02 6.89363256e-02 4.28874651e-03
      1.87609047e-01 1.57782465e-01 -2.50393093e-01 -1.65171489e-01
      -2.44498879e-01 3.83386523e-01 2.11733878e-01 -1.52805135e-01
      2.66567618e-02 -5.19827344e-02 9.65467915e-02 -7.83231258e-02
      -1.19969338e-01 1.94498256e-01 -7.84615725e-02 3.11954081e-01
      1.26525447e-01 -1.22859485e-01 -1.50225282e-01 8.76377225e-02
      -3.06012094e-01 -2.63853610e-01 8.11854452e-02 1.56356499e-01
      -7.82581866e-02 2.26430431e-01 -1.60024211e-01 8.44165683e-02 0.
      1.19284488e-01 1.89770773e-01 -3.04715795e-04 2.03017276e-02
      -2.28963569e-01 -3.79404634e-01 5.81238884e-04 -1.27675846e-01
      -1.34226471e-01 2.06752345e-01 1.01200985e-02 -1.03790626e-01
      2.36669742e-02 2.27800217e-02 9.27877575e-02 1.71569377e-01
      -5.27114887e-03 -6.71560541e-02 1.31404027e-01 2.23119780e-01
      6.00968488e-03 -1.12344161e-01 -1.67607114e-01 -3.09703171e-01
      8.78192708e-02 1.12362906e-01 -1.15257338e-01 -7.51731023e-02
      1.09759815e-01 -1.30626097e-01 6.86086062e-03 0. -2.78868139e-01
      2.02361166e-01 8.31300020e-02 9.52728391e-02 1.42650813e-01
      2.39090025e-01 -9.95294154e-02 1.96542088e-02 1.70035720e-01
      5.97833917e-02 2.02411115e-02 -2.26334989e-01 -3.37990552e-01
      -1.03584610e-01 -4.25451109e-03 1.62911490e-01 1.60348713e-01
      -1.76516220e-01 1.14051543e-01 1.31966740e-01 -9.87862572e-02
      -1.90744177e-01 1.54772043e-01 7.71989450e-02 -4.63063689e-03
      1.35852888e-01 -4.84946556e-02 1.76723868e-01 1.95716232e-01
      -2.86697358e-01 -2.52145268e-02 0. -1.97079837e-01 -3.53754275e-02
      5.55803217e-02 -2.92796671e-01 -1.67431720e-02 -5.82634285e-02
      -4.18581039e-01 1.16717748e-01 1.78661793e-01 -2.59806633e-01
      1.96678072e-01 -2.77882181e-02 1.35388583e-01 1.16540961e-01
      -4.45757061e-01 1.74339980e-01 -1.68960858e-02 2.40708925e-02
      5.92010505e-02 1.70294061e-01 -8.71268287e-02 -6.45419061e-02
      1.23898715e-01 -1.06262803e-01 -6.22647535e-03 1.29232779e-01
      1.82114597e-02 -1.75591528e-01 4.92605474e-03 -1.45475984e-01
      -4.73594330e-02 0. 1.15104176e-01 2.37090275e-01 -2.63377994e-01
      1.57789662e-01 -8.20612013e-02 2.46968776e-01 -9.21773463e-02
      4.11350317e-02 8.94179419e-02 -5.53254923e-03 -1.43924087e-01
      5.62786981e-02 -2.50543684e-01 2.16370061e-01 8.17182660e-02
      2.08174422e-01 -1.50751904e-01 -3.11363954e-03 1.46408439e-01
      9.90764331e-03 5.71824126e-02 -6.36811480e-02 -1.07351571e-01
      -9.88803655e-02 2.24885419e-01 8.32220465e-02 -6.67039305e-02
      2.30433106e-01 3.87050539e-01 -3.39269578e-01 -6.20464310e-02 0.
      3.61102164e-01 -3.28855105e-02 5.35591245e-02 -2.21646860e-01
      1.01912178e-01 4.23060447e-01 2.24748209e-01 2.18684569e-01
      2.38421068e-01 -2.72728298e-02 -1.86961666e-01 6.41237870e-02
      3.94704014e-01 7.44933859e-02 4.36446667e-02 -2.86627673e-02
      -2.94582278e-01 6.14908785e-02 -2.49135718e-01 -2.36480445e-01
      3.42344716e-02 -1.72206864e-01 3.12228710e-03 2.43701771e-01
      4.84102666e-02 -8.48026499e-02 1.54421926e-01 -9.26256776e-02
      -3.28050613e-01 8.10564756e-01 3.02094966e-01 0. -1.77866653e-01
      -1.05926000e-01 1.27512202e-01 -5.37179336e-02 -2.50985902e-02
      1.37535483e-01 2.04710454e-01 1.90085799e-01 -4.46465015e-02
      -3.53305712e-02 -5.79576881e-04 -8.51426926e-03 2.93940634e-01
      -4.98912260e-02 -1.98914349e-01 6.96436241e-02 -1.66730151e-01
      -9.61393565e-02 7.32976645e-02 -2.33655286e-04 1.41822934e-01
      -2.75996909e-03 -6.96081221e-02 9.17976275e-02 8.35681036e-02
      3.46259549e-02 -2.08728313e-01 -7.30134249e-02 -1.97607160e-01
      2.32206732e-01 6.67323023e-02 0. -1.78488955e-01 1.55136749e-01
      1.90023646e-01 4.16642986e-02 -1.63765589e-03 6.95818439e-02
      1.46690860e-01 1.61642432e-01 -9.21524409e-03 7.15735853e-02
      -7.19104186e-02 7.19388425e-02 3.90377104e-01 -1.07610915e-02
      -2.10004136e-01 -1.01777829e-01 -1.85993388e-01 -4.94621322e-02
      1.13081187e-01 1.34454653e-01 2.43151411e-01 1.47815406e-01
      1.53731048e-01 1.95530817e-01 5.35465330e-02 6.75859600e-02
      -4.68373634e-02 4.09735553e-02 -2.04414979e-01 2.80197442e-01
      1.09223008e-01 0. 1.79030180e-01 -3.56510639e-01 5.05426936e-02
      -2.67947853e-01 -1.95450950e-02 -4.02556956e-02 1.73761606e-01
      4.55209911e-02 4.88680005e-02 3.83476280e-02 5.62237054e-02
      2.28161126e-01 2.98849076e-01 3.26265767e-02 2.04424858e-02
      1.12645559e-01 -1.25073999e-01 -3.25069204e-02 5.67001663e-02
      3.30269784e-02 2.35353455e-01 -1.77368075e-02 2.14353487e-01
      3.82465810e-01 3.37426513e-01 -2.03581095e-01 4.53596842e-03
      2.22698390e-01 1.94060281e-02 2.05433458e-01 -2.38623202e-01 0.
      1.31041914e-01 -1.52003899e-01 5.48160560e-02 1.49681732e-01
      3.59638482e-01 2.19103336e-01 1.16453908e-01 4.10365790e-01
      -1.61935940e-01 4.55913804e-02 -1.15235396e-01 -4.73373719e-02
      -3.70931700e-02 -1.13117307e-01 -5.60773201e-02 2.23945715e-02
      -1.29343439e-02 1.71633586e-01 4.22682017e-02 -1.08326107e-01
      -4.17634472e-02 1.16821319e-01 9.95293632e-02 3.68744820e-01
      1.42288506e-01 1.18150108e-01 -8.34401250e-02 1.62145704e-01
      1.29710644e-01 1.75071284e-01 -2.60520563e-03 0. 1.28548548e-01
      -1.43018933e-02 2.20894933e-01 8.33865926e-02 2.03835338e-01
      -6.22297917e-03 -3.00919592e-01 1.71050683e-01 -2.69402325e-01
      -2.77453363e-01 1.79369107e-01 -1.30091012e-01 -1.17154203e-01
      7.43077183e-03 -1.13037534e-01 2.71024346e-01 5.51920161e-02
      2.77298540e-01 1.47424802e-01 -5.44775762e-02 6.81004860e-03
      -6.86744675e-02 2.06754074e-01 3.79519671e-01 6.76769614e-02
      1.09201677e-01 -1.60135046e-01 3.76845241e-01 2.20087439e-01
      -1.22918643e-01 -2.99856305e-01 0. -2.13324055e-02 3.96379903e-02
      3.45396340e-01 3.71638425e-02 3.96426320e-01 -1.18438955e-02
      -3.50019932e-01 -8.90814438e-02 -1.67623565e-01 -1.75454915e-01
      8.63628685e-02 -1.59946814e-01 -7.60779530e-02 2.80662086e-02
      -2.02797905e-01 3.37382078e-01 -1.08362800e-02 5.04784919e-02
      6.75671995e-02 -9.08815563e-02 -7.37498179e-02 7.21249804e-02
      4.27485913e-01 2.31171012e-01 -4.25866097e-02 -1.57995775e-01
      -2.54070789e-01 2.76402801e-01 -3.89528759e-02 -4.10157256e-02
      -1.70083404e-01 0. 2.31348708e-01 2.74221331e-01 -1.16961099e-01
      5.39496839e-01 1.22423366e-01 -4.13344316e-02 -6.59126639e-02
      2.52722114e-01 -1.25866337e-02 -1.74697980e-01 -2.76927531e-01
      1.36663988e-01 -3.29748020e-02 3.23372073e-02 3.61145526e-01
      6.54885173e-02 2.84416582e-02 4.54632118e-02 -7.56372958e-02
      -4.55640629e-02 -2.06797093e-01 1.57853425e-01 -1.40099123e-01
      2.71173745e-01 -1.22956969e-01 -1.59494221e-01 -3.09828728e-01
      1.15833497e+00 3.64891067e-02 -7.16910735e-02 -4.78089422e-01 0.</_></support_vectors>
  <decision_functions>
    <_>
      <sv_count>1</sv_count>
      <rho>5.0827106739440744e+00</rho>
      <alpha>
        1.</alpha>
      <index>
        0</index></_></decision_functions></my_svm>
</opencv_storage>
