<?xml version="1.0"?>
<opencv_storage>
<my_svm type_id="opencv-ml-svm">
  <svm_type>C_SVC</svm_type>
  <kernel><type>LINEAR</type></kernel>
  <C>2.5000000000000000e+00</C>
  <term_criteria><epsilon>2.2204460492503131e-16</epsilon>
    <iterations>100000</iterations></term_criteria>
  <var_all>4096</var_all>
  <var_count>4096</var_count>
  <class_count>2</class_count>
  <class_labels type_id="opencv-matrix">
    <rows>1</rows>
    <cols>2</cols>
    <dt>i</dt>
    <data>
      -1 1</data></class_labels>
  <sv_total>1</sv_total>
  <support_vectors>
    <_>
      5.01390398e-01 -1.84249803e-02 3.70659471e-01 -2.41455540e-01
      3.41423392e-01 2.51826435e-01 9.95617360e-02 -4.62652415e-01
      4.79807183e-02 7.11650789e-01 -6.19829930e-02 1.83454260e-01
      -2.15695594e-02 3.13958317e-01 4.17360842e-01 3.11247528e-01
      -5.77209368e-02 -7.22644925e-02 3.48953158e-01 1.08649224e-01
      1.30644009e-01 -4.48170274e-01 -5.20413458e-01 4.08718213e-02
      2.03091279e-01 -3.52503806e-01 -2.41462383e-02 -6.16774440e-01
      -1.19539455e-01 3.25733423e-01 1.64302886e+00 0. 1.05090670e-01
      -2.87542582e-01 3.41297567e-01 -5.87836206e-01 -8.34022880e-01
      -3.34568650e-01 2.00245678e-01 -1.31794810e-01 -2.73303568e-01
      2.77616948e-01 -1.70137286e-02 4.69775110e-01 1.07451417e-01
      3.13366652e-01 -7.20976889e-02 -1.15621239e-01 -4.90754098e-03
      9.50303599e-02 3.88471037e-02 -1.42841846e-01 2.23029867e-01
      -5.99802673e-01 3.87944072e-01 4.56220001e-01 1.01386555e-01
      -4.91660953e-01 5.80723435e-02 -4.95708972e-01 3.98531884e-01
      -4.04769123e-01 1.48945630e-01 0. -1.70907620e-02 -5.37324011e-01
      7.05263615e-01 2.49102786e-01 1.34536549e-01 -1.68418497e-01
      1.70355350e-01 2.21270517e-01 -1.39798045e-01 2.80450612e-01
      1.98374674e-01 2.31234461e-01 2.55983502e-01 -8.31670016e-02
      -1.94395065e-01 -5.82791269e-02 2.79969037e-01 -2.62918919e-01
      -5.55673718e-01 -4.03807998e-01 1.64074540e-01 -3.66934896e-01
      8.48026156e-01 9.20049623e-02 -2.72161007e-01 1.26118064e-01
      -2.39425644e-01 -6.58349553e-03 -2.22038731e-01 7.52509087e-02
      7.49762475e-01 0. 3.04613262e-01 -8.89269412e-02 9.37623531e-02
      1.77364260e-01 -3.42759609e-01 -1.58528894e-01 -1.85619816e-01
      3.78422350e-01 1.90174282e-01 1.50230020e-01 -9.47662219e-02
      -1.26014277e-01 2.32377335e-01 1.76169664e-01 1.08784653e-01
      -2.22637072e-01 -2.34206975e-01 -1.62278622e-01 3.03983659e-01
      2.61593699e-01 8.74402821e-01 6.58326924e-01 2.21768469e-01
      4.24700886e-01 -3.59006286e-01 1.13144927e-01 -1.84679419e-01
      6.38313144e-02 1.21950798e-01 -1.58924460e-01 6.56120479e-02 0.
      -7.66331851e-02 1.65513027e-02 -5.36062196e-02 3.13402027e-01
      1.62889838e-01 -6.82607442e-02 -2.03827113e-01 -1.08786866e-01
      4.58882034e-01 -5.32733090e-03 -2.73113519e-01 -4.97091794e-03
      -3.05883195e-02 -1.17884628e-01 -1.18151642e-01 5.32254159e-01
      5.64944386e-01 -3.08736395e-02 2.14947704e-02 -2.53298432e-01
      -6.78086504e-02 -2.42230948e-02 -5.56474179e-02 -9.11316425e-02
      6.02032959e-01 -3.31825390e-02 1.35688558e-01 -1.36440635e-01
      1.05284989e+00 -3.18872571e-01 -1.46454394e-01 0. -3.28595281e-01
      -3.67096633e-01 -1.31324142e-01 -2.55494595e-01 -1.81091260e-02
      3.53685707e-01 -1.00960746e-01 3.99287008e-02 -1.90571979e-01
      2.74676144e-01 3.40018868e-02 3.06197733e-01 -5.18077195e-01
      4.24471013e-02 4.13437128e-01 2.89485365e-01 -1.51745498e-01
      3.39086920e-01 1.34400323e-01 -5.11920929e-01 2.02500626e-01
      -7.47956991e-01 3.80914301e-01 4.98150885e-01 -8.87717400e-03
      7.08677694e-02 5.58382273e-01 -4.62854020e-02 8.88236463e-01
      -9.03932154e-01 7.65809044e-02 0. 5.70008039e-01 -3.69543582e-01
      1.66598365e-01 -2.14222819e-01 -4.85568270e-02 -2.72390954e-02
      -6.06880367e-01 1.37978911e-01 3.09857696e-01 -1.76943034e-01
      8.74965265e-02 1.36880606e-01 1.23699475e-03 -2.79495031e-01
      2.93268174e-01 1.98280051e-01 -1.79060444e-01 1.44045532e-01
      3.82272243e-01 -4.62818518e-02 5.10845900e-01 -2.10877031e-01
      -1.29834741e-01 7.09304586e-02 -2.57443506e-02 7.58399442e-03
      -2.01296911e-01 -4.04718667e-01 1.47327796e-01 -2.54987746e-01
      5.80123365e-01 0. 4.40624654e-01 -6.42080456e-02 -5.21049276e-02
      -2.63255119e-01 3.49696428e-01 6.25288248e-01 1.96513385e-01
      3.21850300e-01 1.34473098e-02 6.97575688e-01 -6.94024265e-02
      3.78338024e-02 -2.03052446e-01 -2.19238743e-01 5.81599534e-01
      -9.18736979e-02 4.15910780e-02 2.60628343e-01 -2.60530293e-01
      9.51406509e-02 1.46860152e-01 -3.15247685e-01 -2.72741973e-01
      4.28669244e-01 -4.38991070e-01 -4.19833422e-01 -4.94678348e-01
      1.24157920e-01 1.71545625e+00 -3.29041481e-01 -2.83276290e-01 0.
      -2.27295607e-01 -3.14707547e-01 3.00488397e-02 2.56928355e-01
      3.04703444e-01 2.44077355e-01 -6.80606663e-01 1.21321832e-03
      -6.90053940e-01 -3.05223584e-01 1.53226018e-01 1.26863316e-01
      -1.80800587e-01 2.97450215e-01 -3.72810941e-03 4.04813051e-01
      1.96883366e-01 9.87019539e-02 -3.47523719e-01 -2.04033609e-02
      -3.78817469e-01 9.68081877e-02 -8.09065327e-02 -3.26446354e-01
      -4.40410912e-01 3.05944949e-01 -8.82016048e-02 -5.37477314e-01
      -5.85482776e-01 7.29214430e-01 2.58214891e-01 0. 2.55850732e-01
      -4.80425924e-01 -3.50088149e-01 -7.15154186e-02 3.60059649e-01
      -2.31979210e-02 -2.29221970e-01 3.06008130e-01 -3.83082181e-01
      -1.91788916e-02 -1.73055112e-01 3.05633843e-01 -9.17885080e-02
      -4.82300848e-01 1.26460731e-01 -1.50503010e-01 2.32235074e-01
      -2.38537431e-01 4.12979454e-01 -4.32770759e-01 -3.04841131e-01
      -1.43505424e-01 6.12345971e-02 2.14444309e-01 -2.84001440e-01
      2.98303306e-01 -5.52479178e-03 -6.07275963e-02 -2.66198367e-01
      2.63888896e-01 -4.58636731e-01 0. 1.80924684e-01 2.45573491e-01
      -5.27925968e-01 -1.89196482e-01 1.09017240e-02 4.78029072e-01
      -8.82143155e-02 8.91005158e-01 4.84714746e-01 1.12337694e-01
      8.87715966e-02 -7.45778298e-03 8.16207286e-03 -1.92476809e-01
      -3.97765130e-01 -2.90058047e-01 -2.46516809e-01 4.07306194e-01
      2.55609155e-01 3.03250402e-01 2.97324836e-01 3.39100473e-02
      -1.53212762e-02 5.92354976e-04 -3.27414811e-01 1.73536733e-01
      5.98267615e-01 2.12073117e-01 -3.72715622e-01 4.76602614e-01
      1.40409291e-01 0. -5.20789742e-01 2.82990307e-01 -2.98615187e-01
      4.17843170e-04 -1.70663357e-01 3.14754635e-01 3.59374881e-02
      5.24847209e-02 -9.55468342e-02 -2.52888426e-02 -2.61609197e-01
      2.78047863e-02 3.04376721e-01 -5.02322435e-01 -3.93516153e-01
      1.50111228e-01 -3.31721902e-01 2.94271618e-01 1.39862090e-01
      8.50936398e-02 6.03140175e-01 5.28586268e-01 -4.02497143e-01
      5.72995722e-01 5.05068719e-01 -1.81386292e-01 4.80183721e-01
      5.23859896e-02 -1.41162679e-01 -1.77617297e-01 -2.69552469e-01 0.
      1.75205007e-01 1.80748835e-01 2.29403555e-01 -2.78277934e-01
      -3.16142172e-01 4.83279884e-01 5.99108264e-02 3.25292349e-01
      -4.63828057e-01 -7.47514307e-01 1.55198336e-01 -2.71449145e-02
      1.27253324e-01 -2.56470233e-01 -3.52381229e-01 -3.06578398e-01
      -4.49230969e-01 -2.07765654e-01 8.61950159e-01 4.58641618e-01
      4.45444196e-01 2.66274631e-01 1.02847844e-01 3.17947000e-01
      -3.72932442e-02 5.57430327e-01 -1.51834562e-01 -1.48268849e-01
      -2.39068434e-01 -2.27841258e-01 -1.71607524e-01 0. 3.73596549e-02
      3.82167637e-01 -7.22598732e-02 -1.77023083e-01 9.56592560e-02
      -1.75047696e-01 -3.61481249e-01 2.47195989e-01 -3.51016134e-01
      3.61302644e-01 6.96494654e-02 7.09492207e-01 -3.68809342e-01
      -5.68805873e-01 1.67140976e-01 1.42515630e-01 1.42879533e-02
      3.87010276e-02 2.70460635e-01 5.76945782e-01 4.16353434e-01
      -3.05214316e-01 -5.61312318e-01 2.95868199e-02 -3.59566063e-02
      2.34647796e-01 -2.10197464e-01 1.30422339e-01 5.70396006e-01
      -3.00682455e-01 -3.10084760e-01 0. 4.14326429e-01 -1.73220575e-01
      -3.54003012e-02 -3.71568263e-01 -1.65159643e-01 2.20465139e-01
      -1.65207237e-01 -1.94149867e-01 3.77961472e-02 -3.71419817e-01
      6.09912425e-02 1.76728179e-03 1.67335242e-01 4.63070303e-01
      1.98432267e-01 -1.89835310e-01 -4.41551626e-01 -3.27356696e-01
      -4.43912782e-02 -1.80200174e-01 -4.44648683e-01 5.88944077e-01
      -3.89071647e-05 2.43065938e-01 4.83541330e-03 -1.78304881e-01
      -3.03861111e-01 2.37630177e-02 -6.33267388e-02 -2.68827140e-01
      -1.02050170e-01 0. 2.70677179e-01 1.43994868e-01 -2.29074493e-01
      9.28020105e-02 6.57181382e-01 -1.19153038e-01 -1.77926734e-01
      3.66293877e-01 6.68955296e-02 -7.42170289e-02 -2.31069356e-01
      3.11132729e-01 3.00747871e-01 -2.41655409e-01 7.54101053e-02
      -7.91684836e-02 -6.29855469e-02 -3.17333570e-06 -5.78050494e-01
      3.07542652e-01 -9.33423117e-02 -6.71582296e-02 -5.25820792e-01
      4.49035354e-02 -6.05696976e-01 5.10214921e-03 -6.52808174e-02
      2.46917665e-01 4.77485269e-01 -6.49650022e-02 -1.55095503e-01 0.
      3.68414551e-01 -3.45808059e-01 2.61150092e-01 -3.99468886e-03
      -1.04131162e-01 -7.98552856e-02 -2.22591460e-01 5.56699216e-01
      2.47678667e-01 -7.12859750e-01 2.53450423e-01 1.46944344e-01
      8.74978229e-02 3.13331217e-01 -1.41680017e-01 -3.91811192e-01
      -1.93002194e-01 -2.30569184e-01 4.25344780e-02 -3.93733047e-02
      -1.39545932e-01 -1.14521824e-01 -3.34955007e-01 -1.79520786e-01
      -1.88916996e-01 4.69956994e-01 7.73131028e-02 -6.23992860e-01
      -3.93412530e-01 1.82989284e-01 7.44314194e-01 0. 3.87960523e-02
      2.95711964e-01 6.43153846e-01 3.17987800e-02 1.73619241e-01
      -8.31768140e-02 3.28743607e-01 -9.42515731e-02 -3.56781125e-01
      1.27973035e-01 -1.23067483e-01 -3.08504373e-01 -6.53785542e-02
      -4.59332615e-01 -5.43087982e-02 -3.45581099e-02 -1.73050612e-01
      -2.32960984e-01 3.70034650e-02 1.66051179e-01 4.41526890e-01
      4.46808338e-01 6.29889444e-02 3.96669051e-03 4.79394235e-02
      -2.49042898e-01 -3.22434567e-02 -9.16008130e-02 -5.61547354e-02
      -1.16742671e-01 1.01594426e-01 0. -6.84445500e-01 -3.14454287e-01
      3.54396701e-01 3.23338091e-01 5.16613089e-02 -3.68433684e-01
      -2.77788937e-01 -1.96942747e-01 5.28478801e-01 -1.67789951e-01
      7.43296146e-02 1.47776380e-01 1.74441010e-01 9.44927484e-02
      -1.50056079e-01 -2.65346497e-01 3.35507810e-01 -2.61545211e-01
      -6.16384029e-01 -7.54003972e-02 3.56749088e-01 8.42126310e-01
      2.80294776e-01 1.34226874e-01 -2.61136681e-01 4.60733861e-01
      1.58962116e-01 1.76690087e-01 -5.18743157e-01 -5.11481240e-02
      1.09238736e-01 0. -2.38306597e-01 -8.27422217e-02 2.13656604e-01
      -3.00695514e-03 -3.24996620e-01 -2.00112805e-01 -3.35937142e-01
      4.10882503e-01 3.09093893e-01 7.25174770e-02 9.22105685e-02
      8.82545486e-02 5.28026558e-02 7.70791695e-02 -8.53742063e-02
      2.97665894e-01 7.36648366e-02 -4.67304826e-01 -1.00977451e-01
      1.25669148e-02 1.85462430e-01 2.27213442e-01 3.81973296e-01
      -7.78927431e-02 2.72878259e-01 2.32573405e-01 7.84028787e-03
      1.27469122e-01 -1.39283970e-01 1.57161593e-01 -1.68894723e-01 0.
      1.49822071e-01 -1.81626439e-01 1.67831734e-01 3.49925697e-01
      -1.74781326e-02 1.33106813e-01 1.47560224e-01 -3.82480562e-01
      -6.72406852e-01 -1.63452908e-01 1.95766658e-01 3.60278457e-01
      1.96124036e-02 -4.43586379e-01 -4.23562497e-01 -8.71236622e-02
      3.81588012e-01 1.85968906e-01 -3.19253147e-01 -3.92256111e-01
      -2.13444345e-02 8.22416320e-02 -8.82833824e-02 7.69560263e-02
      1.24877617e-01 4.52553272e-01 -3.50586742e-01 2.63025731e-01
      8.20708424e-02 -2.23058820e-01 -2.54151076e-01 0. -3.07662249e-01
      2.76218027e-01 4.92185563e-01 -2.70213753e-01 -1.90130100e-01
      -6.07993186e-01 3.64278674e-01 1.75709710e-01 -1.73782073e-02
      5.22407144e-02 -3.12832743e-01 -1.41493157e-01 1.43211767e-01
      -1.77987069e-01 5.85402966e-01 -8.19009766e-02 -2.01647788e-01
      -4.35426552e-03 -1.76896900e-01 -1.23284474e-01 1.84539288e-01
      1.85677961e-01 -1.22350752e-01 2.25871429e-01 9.46433127e-01
      4.54344511e-01 2.59947777e-01 1.65117770e-01 1.10379450e-01
      2.13358819e-01 -5.94612598e-01 0. -2.15765163e-01 -3.24673563e-01
      -1.02473624e-01 -3.58710140e-01 4.62520272e-01 -2.40667731e-01
      -2.22874373e-01 1.48489669e-01 -3.10577247e-02 1.42102003e-01
      6.14368506e-02 2.50864830e-02 7.89666828e-03 -4.47265923e-01
      2.05533072e-01 2.09777534e-01 2.51855999e-01 2.24933684e-01
      -3.63018930e-01 -6.74578846e-02 -5.53695895e-02 -2.95908391e-01
      -1.98365771e-03 2.28661790e-01 -2.62838244e-01 5.80045223e-01
      -5.93415163e-02 -1.34442523e-01 -4.43913341e-02 2.72657305e-01
      -1.89921409e-01 0. -1.79160222e-01 -2.45387778e-01 1.20284937e-01
      2.21331894e-01 3.11439671e-02 -3.23754430e-01 1.75053142e-02
      2.22679064e-01 -2.53281623e-01 1.05925345e+00 -6.07300580e-01
      -1.38936713e-01 5.81796885e-01 -3.04038018e-01 5.17850891e-02
      2.96994776e-01 1.83318540e-01 -8.63185376e-02 5.98016381e-02
      -1.24529667e-01 2.31368527e-01 3.25470380e-02 -1.35562479e-01
      4.90491807e-01 5.79050779e-02 -2.87401348e-01 3.39172333e-01
      2.59922713e-01 4.37677205e-01 -2.40465134e-01 -1.51707366e-01 0.
      -4.13566828e-02 -5.74175894e-01 9.46209282e-02 -1.41777173e-01
      3.11654955e-01 7.40807950e-02 3.59997422e-01 2.75174119e-02
      5.91455065e-02 8.06711316e-02 2.47855872e-01 1.84889346e-01
      2.87742704e-01 -2.33789027e-01 5.56798615e-02 6.87848806e-01
      -1.94719642e-01 1.81404978e-01 3.54378551e-01 -6.76548528e-03
      -3.50867927e-01 -4.33718562e-02 -3.39168906e-01 -1.10220410e-01
      2.95840085e-01 -4.16098565e-01 6.88546430e-03 2.73738444e-01
      -3.09889346e-01 5.60264707e-01 1.67567238e-01 0. -6.45647421e-02
      -3.10306877e-01 -2.24667296e-01 -4.52444524e-01 5.62594645e-02
      3.39042395e-01 -2.28521805e-02 6.27157807e-01 -6.09549060e-02
      -2.67005026e-01 2.16347560e-01 -1.31902784e-01 3.96963954e-01
      7.74693266e-02 -4.87460345e-01 1.52056128e-01 -6.10322714e-01
      -2.26724878e-01 2.63536326e-03 7.98953406e-05 -1.59900025e-01
      -7.60212317e-02 1.83341801e-01 -3.65749478e-01 1.46371976e-01
      -1.88010782e-01 -1.27269998e-01 -6.80980273e-03 -1.30773336e-01
      -9.13008973e-02 -2.39645109e-01 0. -7.16640353e-02 6.28560007e-01
      4.59344462e-02 -3.46441507e-01 -2.29474887e-01 6.07771054e-02
      4.51774374e-02 -1.35027021e-01 -3.67837071e-01 6.57488545e-03
      -5.10023981e-02 -1.15170836e-01 6.87827021e-02 8.55457708e-02
      -3.90547290e-02 -6.56974167e-02 1.80360287e-01 5.08510955e-02
      9.04888788e-04 6.93779647e-01 3.41919325e-02 -2.19950393e-01
      -4.88891572e-01 8.13329741e-02 2.22139005e-02 2.11975366e-01
      -5.13035119e-01 2.54900485e-01 -2.06787109e-01 -1.34530917e-01
      -3.08694653e-02 0. -1.17194466e-01 -3.02413926e-02 -3.55907470e-01
      3.53248745e-01 1.09906033e-01 5.45422792e-01 -2.94725180e-01
      1.70193881e-01 -1.51853994e-01 1.15388915e-01 -4.25572097e-02
      1.28029287e-01 4.88544963e-02 -1.08141884e-01 -8.55568126e-02
      1.04471356e-01 -2.14164943e-01 6.91577047e-02 -4.79299054e-02
      -8.12047660e-01 -2.98802614e-01 2.97912192e-02 7.52690434e-02
      9.34822932e-02 7.37937391e-02 -2.59242773e-01 -6.07288003e-01
      1.93596035e-01 -3.95167053e-01 4.48217422e-01 -1.31469220e-01 0.
      -1.00763023e+00 3.06540597e-02 5.21256268e-01 2.01945037e-01
      -2.47265637e-01 -2.99882889e-01 -4.29382890e-01 -3.24136466e-01
      6.25643134e-01 1.76697969e-01 4.48095590e-01 6.36464715e-01
      -4.85449610e-03 1.59092620e-01 -7.09697884e-03 -1.46044672e-01
      6.57241940e-01 2.31823266e-01 -3.78042966e-01 1.57199115e-01
      -2.74442807e-02 2.80128479e-01 -2.36291438e-01 -1.88786387e-01
      -3.96282747e-02 1.62873894e-01 4.21750128e-01 4.15896505e-01
      -2.97939628e-02 5.75439334e-01 -3.85198414e-01 0. -1.71868175e-01
      2.76604742e-01 -3.56653444e-02 -3.67047578e-01 -4.40710902e-01
      1.03549376e-01 2.46781912e-02 9.62725782e-04 -2.36804634e-02
      -1.84754640e-01 -1.09736234e-01 -4.17199582e-01 1.99195638e-01
      -2.14795083e-01 -2.33194709e-01 -3.66090447e-01 2.06204280e-01
      5.55342138e-01 2.46548895e-02 -4.87152129e-01 -3.62958491e-01
      2.87601709e-01 -1.44056410e-01 2.66704381e-01 1.35705888e-01
      -1.78498581e-01 4.75118309e-01 -7.63275996e-02 -9.40192565e-02
      1.80735812e-01 -5.75223446e-01 0. -3.81434768e-01 -3.87591809e-01
      4.24348831e-01 -3.88484269e-01 1.75968871e-01 2.48470455e-01
      -4.00609702e-01 -3.29930991e-01 -2.47779004e-02 -4.97662909e-02
      4.89280045e-01 -4.48239565e-01 6.14781916e-01 4.84142825e-02
      -5.62936738e-02 -1.51534239e-02 2.86278695e-01 6.17001392e-02
      2.49378055e-01 -1.27438217e-01 1.15439288e-01 1.68700472e-01
      -3.13338250e-01 -3.97423469e-02 4.32412997e-02 1.15928397e-01
      2.24716291e-01 -7.09805414e-02 -1.83083713e-01 1.56562209e-01
      3.47871445e-02 0. 5.55102117e-02 -7.03937039e-02 2.33300567e-01
      -1.89591885e-01 -1.65127918e-01 1.59851283e-01 -4.31359001e-02
      3.58677618e-02 -1.52098447e-01 -1.60217568e-01 2.90716469e-01
      9.74661186e-02 2.18646511e-01 2.09109753e-01 -2.31934898e-02
      -1.60184622e-01 3.61248180e-02 -2.51006514e-01 -1.24409102e-01
      1.61749706e-01 -1.17060146e-03 -1.60037264e-01 -1.33810304e-02
      1.26792654e-01 -2.76990592e-01 1.52714595e-01 2.14902265e-03
      6.56997085e-01 8.89948681e-02 -2.61138886e-01 -4.27510619e-01 0.
      -2.87120372e-01 -2.38979936e-01 6.80365145e-01 -8.47930610e-02
      1.15245730e-02 5.13392806e-01 2.30304405e-01 -2.64564395e-01
      -2.48862490e-01 1.29160002e-01 -2.86701828e-01 2.82633305e-01
      3.17422636e-02 3.71885777e-01 1.16398074e-01 -3.42649400e-01
      -5.42755425e-02 1.46560609e-01 4.80429143e-01 -3.03578861e-02
      -7.36134276e-02 -4.32782859e-01 -2.95700282e-01 -4.39671576e-01
      -1.30401522e-01 -2.93670148e-02 -2.74764180e-01 -1.67931974e-01
      -9.58578661e-02 5.38067102e-01 5.85407466e-02 0. -4.05804254e-03
      1.51310891e-01 -3.38234007e-01 1.63573474e-01 -3.58553231e-02
      7.89182782e-01 -3.91689032e-01 -2.25168958e-01 1.71773046e-01
      -3.27860892e-01 4.30406511e-01 -5.82976127e-03 -3.47631335e-01
      7.54002184e-02 -6.28425851e-02 3.47501874e-01 -1.18133798e-02
      1.05568133e-01 -2.37467200e-01 6.33669943e-02 -2.26168513e-01
      -1.06184378e-01 1.75325926e-02 -2.11750627e-01 -1.98474340e-02
      -9.19388086e-02 -1.50906324e-01 3.48202497e-01 -1.96901545e-01
      2.81384289e-02 4.85925265e-02 0. -1.11262858e-01 -1.82838470e-01
      6.56144246e-02 -4.56629008e-01 5.32417335e-02 -7.57803619e-02
      -6.12366199e-01 -3.55995484e-02 8.39287713e-02 3.22012961e-01
      -3.18997085e-01 3.48284453e-01 6.51037693e-01 -2.58899301e-01
      -2.46669978e-01 1.92967832e-01 1.28930852e-01 2.15286408e-02
      -2.21264645e-01 1.94599465e-01 3.17244858e-01 -3.89477164e-02
      -6.05054855e-01 -3.27954441e-01 -5.67653179e-01 -2.96349339e-02
      2.14482117e-02 1.09313503e-01 -5.31426147e-02 9.22311470e-02
      -3.51809055e-01 0. 2.11682275e-01 -2.19515964e-01 -5.70789158e-01
      -2.68069237e-01 1.40588254e-01 1.92290455e-01 -2.38772810e-01
      9.29597318e-02 -1.74481496e-01 2.43001327e-01 -5.64031526e-02
      6.58860356e-02 3.07733953e-01 -3.53748441e-01 8.31815507e-03
      6.44615591e-01 3.05535011e-02 2.13223740e-01 1.24136664e-01
      2.24196419e-01 -3.35540064e-02 -3.05745006e-02 -4.56976563e-01
      1.32550858e-02 4.69807116e-03 1.12129346e-01 -1.06289528e-01
      2.40122065e-01 -1.96970045e-03 -5.95877506e-02 -5.17237782e-02 0.
      -2.14365870e-03 -1.47635475e-01 4.40744869e-02 -1.69468611e-01
      3.36534530e-01 8.51259306e-02 2.64467895e-01 -3.40192020e-01
      -2.68093534e-02 -5.26837766e-01 1.47365153e-01 -1.08589552e-01
      -2.06833348e-01 -2.20216721e-01 2.85372257e-01 2.16236383e-01
      -2.04390794e-01 -1.14136592e-01 -9.57096443e-02 -4.78366435e-01
      -2.56885961e-02 -6.01252913e-01 -7.59898350e-02 1.30124554e-01
      -9.53974351e-02 -3.63805741e-01 1.34793118e-01 -1.67534828e-01
      -2.18715578e-01 1.49284214e-01 -8.73935074e-02 0. 1.09666027e-01
      1.98464066e-01 4.99884561e-02 5.09247258e-02 -1.62229463e-01
      -2.33122900e-01 3.59336287e-01 -1.81331664e-01 -2.75308818e-01
      -4.32198718e-02 3.07864100e-01 5.37654310e-02 4.96646702e-01
      -3.77757922e-02 4.73984368e-02 -3.36342216e-01 1.49917632e-01
      -2.31190294e-01 4.98758048e-01 -4.20630932e-01 2.62295336e-01
      1.74954638e-01 -7.71695897e-02 -4.41014439e-01 -3.33372882e-04
      5.15704090e-03 1.96078703e-01 5.27405068e-02 -2.51877084e-02
      1.25752494e-01 -8.30349803e-04 0. -6.50956333e-01 -1.77171780e-03
      3.35641682e-01 -3.61901871e-03 3.45908791e-01 3.25273901e-01
      -2.62556583e-01 1.38409317e-01 -3.54382753e-01 2.03244984e-02
      -3.56866628e-01 -1.24331817e-01 8.96687508e-02 1.62731409e-01
      -9.90171805e-02 -4.05885935e-01 1.36423469e-01 3.52900438e-02
      -2.91720927e-02 -3.39484751e-01 -1.06764719e-01 1.36653185e-01
      -8.03552717e-02 -2.73265000e-02 -3.20846349e-01 3.20620805e-01
      4.85811055e-01 -2.47263700e-01 -1.34566635e-01 1.02920346e-01
      -3.67942452e-02 0. 4.26069833e-02 -4.72784415e-02 6.64397597e-01
      -5.37099063e-01 -4.64317352e-02 3.72226387e-01 -4.62655693e-01
      -2.89600100e-02 1.56774461e-01 -1.55099735e-01 -3.65274251e-01
      -4.42279093e-02 1.71828210e-01 3.53334397e-01 4.26604003e-02
      -9.22542661e-02 2.14933753e-01 2.01546788e-01 2.98206419e-01
      -5.67908287e-01 -2.88764209e-01 -2.18419507e-01 1.23452134e-01
      -5.29418945e-01 -5.26485085e-01 -5.89994118e-02 7.59850442e-02
      3.43115956e-01 3.47936749e-01 -1.97955310e-01 -2.85196692e-01 0.
      4.31407958e-01 3.71911049e-01 1.92854151e-01 3.31423968e-01
      4.02686983e-01 -1.30005822e-01 -5.43396592e-01 6.87663376e-01
      -5.09255052e-01 -4.40362608e-03 -1.64964259e-01 5.59012964e-02
      -6.78717494e-02 -3.78799699e-02 4.67764705e-01 1.55064743e-03
      -2.65748054e-01 1.79829553e-01 5.11434436e-01 3.31777275e-01
      1.17551319e-01 3.02219559e-02 8.28079283e-02 2.69998580e-01
      -4.53871727e-01 2.28502855e-01 3.80258650e-01 -1.20710604e-01
      1.67999342e-01 1.07359877e-02 6.01684868e-01 0. 7.84239992e-02
      2.31578961e-01 -3.65230590e-01 -1.10487640e-01 5.29003963e-02
      1.98947385e-01 -1.05455123e-01 1.07477330e-01 1.09732084e-01
      -3.97520274e-01 -1.18052639e-01 -1.32387578e-01 -9.13406238e-02
      -4.29564565e-01 -1.18194133e-01 1.30579472e-01 7.99393281e-02
      1.10795155e-01 -1.33258373e-01 8.84864554e-02 7.48351216e-02
      -1.94248468e-01 4.83021945e-01 9.54440758e-02 -1.26484893e-02
      1.79280311e-01 -1.30282208e-01 1.00081339e-01 2.55616903e-01
      -5.44905305e-01 -1.72761708e-01 0. 1.36889413e-01 4.12417650e-01
      -7.42536560e-02 3.94924462e-01 -2.63535500e-01 6.18636310e-02
      -9.88060534e-02 1.35823488e-01 2.78805941e-01 -4.24003094e-01
      -2.17331983e-02 -4.80395667e-02 -4.08434123e-02 4.80642505e-02
      -1.73588738e-01 9.97058209e-03 4.36760217e-01 1.59768164e-01
      -1.16426185e-01 -2.92691827e-01 9.68180448e-02 2.57930517e-01
      1.96065903e-02 -4.03552949e-02 -1.52064696e-01 -5.33541515e-02
      1.78788647e-01 3.89556974e-01 1.27538785e-01 -1.01873567e-02
      -6.82779774e-02 0. 1.31026790e-01 -4.22150105e-01 2.70368129e-01
      -2.89500244e-02 2.65315417e-02 -2.22225836e-03 3.64263892e-01
      -2.89414316e-01 1.62407234e-01 -4.51025367e-01 4.86584187e-01
      3.65042873e-02 -2.56983757e-01 1.06810912e-01 2.77148873e-01
      -1.30199462e-01 1.94426149e-01 1.65920220e-02 2.87462324e-01
      -4.14162904e-01 -3.85270119e-01 -3.89261335e-01 -4.51749057e-01
      -2.38036692e-01 -1.37735978e-01 -2.72746682e-01 -5.38908780e-01
      -4.14881594e-02 -3.22727859e-03 3.68312836e-01 -9.18010995e-02 0.
      1.10989131e-01 2.48295397e-01 -4.57326025e-01 -1.73249438e-01
      1.33615941e-01 -3.21328044e-01 -3.87902230e-01 -4.11943823e-01
      -2.94029802e-01 -4.07769457e-02 3.40867400e-01 1.52420312e-01
      4.88109380e-01 5.41946664e-02 6.53041974e-02 5.67782640e-01
      4.94803600e-02 -2.53293872e-01 3.92085463e-01 -8.54985118e-02
      3.39667141e-01 -1.69216976e-01 -1.05226226e-01 -2.56211497e-02
      -4.74536479e-01 3.56616169e-01 -2.90161490e-01 3.20449591e-01
      -2.69194067e-01 9.73099563e-03 -1.21698745e-01 0. 4.24345076e-01
      1.28699347e-01 -3.13664705e-01 2.56655425e-01 1.42896906e-01
      -4.24010515e-01 5.02789319e-01 -5.67260981e-02 2.56894916e-01
      -3.16914380e-01 1.04962267e-01 2.97449946e-01 -1.01842731e-01
      -3.46378028e-01 1.15438893e-01 -3.86911295e-02 -1.26720890e-01
      -3.12940255e-02 8.86701494e-02 5.30071259e-02 -9.28347334e-02
      -7.10874647e-02 -1.29751295e-01 -2.01390237e-01 -7.60206729e-02
      -7.60249943e-02 4.51749489e-02 3.23499031e-02 4.28404845e-02
      4.36037891e-02 1.04597323e-01 0. 7.70257711e-02 2.19740570e-01
      -5.60861826e-02 -6.56501064e-03 -1.28558114e-01 1.84115186e-01
      -2.98106343e-01 3.08124691e-01 -1.87421709e-01 -1.21409357e-01
      -5.65878935e-02 3.61940235e-01 -5.44813201e-02 2.89848894e-01
      -5.52737176e-01 3.27115834e-01 -2.07055792e-01 -2.68445402e-01
      1.79347873e-01 -3.08915883e-01 3.53174657e-02 1.66138425e-01
      -3.69405337e-02 -1.69293322e-02 -1.23289088e-02 -1.15710258e-01
      1.44550321e-03 -3.23147774e-01 6.77540340e-03 7.77045265e-02
      1.58745319e-01 0. 1.07004471e-01 2.09679663e-01 -1.45410642e-01
      3.42876315e-01 4.59538281e-01 4.58835959e-01 -3.96524608e-01
      -2.65757507e-03 -3.70687425e-01 2.49187067e-01 5.17507851e-01
      9.35110152e-02 -8.18702653e-02 4.29465353e-01 3.83552462e-01
      2.00185552e-01 -2.71148622e-01 -2.09062964e-01 -4.60475795e-02
      1.22667797e-01 -2.71741748e-01 1.25876382e-01 -3.47248912e-01
      -1.17630325e-01 -1.67131305e-01 -3.09055075e-02 3.18844616e-01
      2.21276790e-01 5.31984866e-01 -3.67620401e-02 2.14035422e-01 0.
      2.19953060e-01 -5.12338132e-02 -3.21820855e-01 2.63857812e-01
      4.59904134e-01 7.18847513e-02 -3.42547357e-01 2.37564206e-01
      -1.73887964e-02 4.26864289e-02 -7.74394929e-01 9.93534327e-02
      -1.82059884e-01 5.27161896e-01 -9.15474370e-02 2.63065904e-01
      -5.18269418e-03 -1.20958030e-01 6.11503385e-02 -5.76656103e-01
      -5.51481307e-01 1.27121404e-01 5.29698730e-02 -1.93919122e-01
      -2.22193465e-01 -3.97371463e-02 3.35503295e-02 6.51536211e-02
      -2.96163321e-01 2.06799060e-01 1.55400112e-01 0. -2.59998083e-01
      8.20378721e-01 -6.86679482e-02 -4.06467021e-01 4.82618660e-02
      2.54608411e-02 -1.80699840e-01 -2.67914146e-01 9.36357230e-02
      -4.74643707e-02 1.13970056e-01 1.29734054e-02 5.16857862e-01
      1.40161693e-01 3.55484970e-02 3.72999787e-01 4.80369516e-02
      8.00765008e-02 -2.38149241e-01 3.53106946e-01 3.96749973e-01
      -2.97693983e-02 2.81724542e-01 2.30935290e-01 -3.96087654e-02
      -1.77683860e-01 -2.63951153e-01 1.01641819e-01 5.91382921e-01
      8.65202844e-02 -2.71776259e-01 0. -4.93003488e-01 3.43647927e-01
      8.25997144e-02 4.56943482e-01 -3.90420407e-02 2.07495559e-02
      -6.18827995e-03 3.45170468e-01 -2.54498392e-01 4.35830876e-02
      -1.09548807e-01 -7.05045685e-02 -3.00162673e-01 -4.48023736e-01
      2.83598423e-01 1.33125499e-01 -1.65979534e-01 3.87664169e-01
      4.85391766e-02 -2.64031053e-01 -6.13482781e-02 6.21067844e-02
      -2.53961027e-01 1.38363123e-01 -3.20873894e-02 -1.94283217e-01
      5.54059967e-02 9.25298501e-03 2.25130558e-01 -1.52608365e-01
      1.72806494e-02 0. -5.28386328e-03 -2.94068545e-01 3.55531365e-01
      -9.30083096e-02 -8.38019699e-02 -2.10236818e-01 1.30651727e-01
      -2.73804694e-01 -1.44944534e-01 -2.24581689e-01 -5.46577983e-02
      -2.07137689e-01 1.26677915e-01 -1.85417980e-02 3.35824899e-02
      5.15892267e-01 1.14346847e-01 1.35051280e-01 1.08892590e-01
      -2.02856660e-01 -2.71957237e-02 -1.58812702e-01 -3.83886397e-02
      -5.64800978e-01 7.40721449e-02 3.27965587e-01 -1.87081009e-01
      1.40252799e-01 -2.89422750e-01 6.05244339e-02 -4.84921830e-03 0.
      3.18757802e-01 1.81500033e-01 3.15158457e-01 2.27675904e-02
      8.12068701e-01 -5.56165092e-02 -1.62853599e-01 -1.98927566e-01
      1.58757016e-01 1.32183153e-02 -1.92152545e-01 -4.13205743e-01
      3.75508070e-01 -1.48027271e-01 3.99889499e-01 5.48832538e-03
      -2.22978666e-01 -3.14610362e-01 -1.22751862e-01 -6.18449807e-01
      -4.97953631e-02 -2.06351861e-01 -6.37759864e-02 -1.29038632e-01
      -3.73663306e-01 1.42368078e-01 -1.19074836e-01 3.87657732e-01
      -1.99626341e-01 4.57537442e-01 -2.23787606e-01 0. -6.52743459e-01
      -1.47516415e-01 2.18873933e-01 1.12689650e-02 2.67597083e-02
      -4.01247650e-01 1.78402916e-01 3.60627651e-01 3.62075418e-01
      6.69240505e-02 2.40588620e-01 -2.24235073e-01 1.14882872e-01
      -1.90248683e-01 -3.72637324e-02 -3.26126367e-01 -3.56317878e-01
      4.78831530e-01 -1.75663102e-02 4.47453082e-01 -2.50655860e-01
      -3.30891870e-02 4.38637853e-01 2.10615918e-01 -1.09767646e-01
      -1.53842941e-01 -1.03207491e-02 -3.63901556e-02 -2.82995820e-01
      1.28017098e-01 6.10441193e-02 0. -1.55420229e-01 -1.77010909e-01
      3.65425237e-02 7.27550805e-01 -5.49691439e-01 1.73788279e-01
      -3.27048823e-02 3.55491728e-01 -5.36393642e-01 3.27102423e-01
      1.47847431e-02 1.13313280e-01 -6.05958879e-01 -1.82249591e-01
      -3.65002483e-01 4.12556291e-01 2.41315842e-01 2.91380193e-02
      2.53459871e-01 -1.12852775e-01 3.24977458e-01 4.36534733e-01
      -1.06360547e-01 1.36712447e-01 -5.71423948e-01 2.54036039e-01
      1.46384582e-01 3.21366675e-02 -2.67509282e-01 1.48562819e-01
      5.32925362e-03 0. -4.93165404e-01 3.34040105e-01 -6.21537507e-01
      -2.29244113e-01 6.22136891e-02 3.70151997e-01 -3.90826426e-02
      6.52821064e-02 -2.51547098e-01 5.46287835e-01 2.48170048e-02
      4.55483228e-01 -1.94170743e-01 5.22209555e-02 -2.50283238e-02
      1.90581828e-01 1.17378950e-01 2.72774071e-01 3.86224508e-01
      -1.15130842e-01 -3.89131337e-01 -5.61597526e-01 1.24720074e-01
      2.34748974e-01 -3.52248907e-01 -5.60732484e-01 2.31457964e-01
      5.38173258e-01 1.19104482e-01 -9.24121663e-02 -2.64368773e-01 0.
      -1.03981197e-01 1.95898443e-01 -8.61338302e-02 1.81019977e-01
      1.68382078e-01 -3.12334418e-01 1.23665519e-02 -4.59010601e-02
      4.85704303e-01 -1.48451999e-01 -5.15842102e-02 6.81675792e-01
      -2.00203776e-01 -5.83187453e-02 -1.01919383e-01 -3.56426358e-01
      4.62782294e-01 -3.64182144e-01 -1.01638548e-01 1.53952211e-01
      2.40125030e-01 -6.13774396e-02 -9.43121612e-02 -4.87942338e-01
      -4.15438503e-01 2.91374385e-01 -1.91996977e-01 1.23731144e-01
      -1.58211559e-01 2.48891488e-01 -4.54647914e-02 0. 1.87460095e-01
      2.34440729e-01 7.67375007e-02 4.64628488e-01 -5.88725567e-01
      5.01425505e-01 2.50447541e-01 2.19895571e-01 -3.04283649e-01
      2.03573167e-01 -1.89302206e-01 -1.08652338e-01 -2.34929740e-01
      8.01599678e-03 -1.28494412e-01 7.98454583e-02 1.18684471e-01
      -2.44106025e-01 1.08411118e-01 1.01560839e-01 -1.47241428e-01
      1.35296300e-01 -3.15248609e-01 3.41702908e-01 -7.90626928e-02
      3.52008909e-01 -3.77410859e-01 1.03229955e-01 7.44872913e-02
      2.41067469e-01 -1.61088839e-01 0. 1.79403368e-02 -2.05150440e-01
      -5.77126503e-01 3.03360879e-01 -1.99707240e-01 2.19382554e-01
      -7.40854517e-02 -3.39259535e-01 -9.30533856e-02 -2.87832171e-01
      3.68067771e-01 1.01457961e-01 -1.01102501e-01 -1.13951273e-01
      -6.20809495e-01 1.29971951e-01 -4.57860827e-02 -2.04728767e-01
      -2.38202929e-01 5.10033250e-01 4.99900691e-02 -5.13451338e-01
      3.11714530e-01 -1.52901322e-01 9.43923295e-02 -1.26655459e-01
      4.41433817e-01 3.50422055e-01 -3.89891379e-02 -4.52654332e-01
      -6.70723021e-01 0. -1.36709318e-01 1.64207071e-01 1.05068862e-01
      4.38415483e-02 -3.95292729e-01 3.83308306e-02 7.98293948e-02
      -1.12144038e-01 -4.96796221e-01 -5.12243748e-01 -2.66940650e-02
      -1.98197037e-01 3.87833685e-01 7.44307861e-02 5.60252033e-02
      -2.49270219e-02 2.81618834e-01 1.64261058e-01 -2.48548299e-01
      4.45133686e-01 -3.24355990e-01 4.72163297e-02 5.86092770e-01
      5.38760006e-01 1.86134115e-01 1.68209955e-01 1.18246555e-01
      -1.62189186e-01 -7.96571448e-02 1.47592336e-01 -1.45008579e-01 0.
      -1.70061648e-01 1.80287331e-01 -2.37639919e-01 -3.69125575e-01
      -2.03528274e-02 2.52183676e-02 8.72731581e-02 2.42344186e-01
      -1.92794830e-01 5.37189282e-02 1.34577811e-01 1.45196468e-01
      5.38149960e-02 7.22481832e-02 -2.02657029e-01 -3.08894724e-01
      1.67973638e-01 7.22081065e-02 -4.00340110e-01 9.68346670e-02
      -6.27868772e-02 1.86248869e-02 5.12445927e-01 5.21162808e-01
      -4.80057508e-01 -9.35656801e-02 -1.04532570e-01 1.42792180e-01
      -5.29493392e-02 -2.64349759e-01 4.88008074e-02 0. -1.08044975e-01
      -1.15808388e-02 5.31284034e-01 1.61700815e-01 -3.51338863e-01
      1.17340825e-01 1.66202873e-01 1.13535970e-01 3.67624521e-01
      1.02652863e-01 -1.38686612e-01 -3.51274580e-01 -1.43871278e-01
      -1.02708787e-01 -5.19752085e-01 -3.83347809e-01 3.17958713e-01
      7.07576722e-02 -2.22206861e-03 1.68000453e-03 -2.55057365e-01
      3.56292933e-01 2.99578607e-01 2.02365085e-01 -2.25258768e-01
      8.02381635e-02 3.54157627e-01 -1.11012071e-01 -6.30556941e-02
      -2.33017635e-02 1.21216290e-01 0. 1.50887981e-01 -1.46296561e-01
      -5.62064275e-02 -4.66716468e-01 -2.66674221e-01 7.20959855e-03
      9.04971808e-02 3.60478908e-02 5.84693193e-01 -4.61302966e-01
      -1.70685679e-01 -5.84573783e-02 2.92880207e-01 -5.57186119e-02
      -2.69151658e-01 4.04435508e-02 1.70025621e-02 2.85697609e-01
      -5.25606461e-02 -2.95385003e-01 -1.05999880e-01 -1.39478564e-01
      2.14565948e-01 2.30023101e-01 1.07414134e-01 -4.45125960e-02
      4.69012916e-01 -2.76568644e-02 -5.05034626e-02 -3.48384172e-01
      2.16371015e-01 0. -1.24149323e-02 5.46701908e-01 -8.31334740e-02
      8.96317139e-02 -8.97243395e-02 3.02202314e-01 7.50630721e-02
      -4.76872146e-01 -4.03449237e-01 -2.10228428e-01 -9.20753777e-02
      -8.49009827e-02 -7.83394948e-02 4.75242466e-01 4.72641774e-02
      -3.15525718e-02 5.03239930e-01 2.55984366e-01 3.53603326e-02
      2.89201260e-01 -8.79484639e-02 -9.26826266e-04 -5.94952762e-01
      4.85536277e-01 1.20391048e-01 -2.93449938e-01 9.45460424e-03
      6.88438714e-02 5.26804388e-01 -2.84061223e-01 3.37786563e-02 0.
      -1.99960023e-02 -4.06200975e-01 1.00663871e-01 2.52808183e-02
      -1.25083968e-01 1.93476796e-01 5.02846003e-01 -1.48419991e-01
      2.82553047e-01 4.60907146e-02 -1.58254728e-01 -1.90097794e-01
      3.47244114e-01 8.86018798e-02 2.58487165e-01 -2.40663916e-01
      3.08018476e-01 4.02916431e-01 -2.49144778e-01 -1.43592671e-01
      -3.00034165e-01 -4.71266247e-02 -1.94181532e-01 -7.99648762e-02
      2.05850199e-01 5.75846061e-02 6.29056394e-02 -9.06890929e-02
      8.48164782e-02 3.60880643e-01 2.42473811e-01 0. 1.44692108e-01
      -3.37021619e-01 1.41069498e-02 1.94910958e-01 3.18124034e-02
      -2.61110663e-01 2.89845467e-01 4.10297602e-01 -3.27563673e-01
      4.27347451e-01 1.18252501e-01 -2.06202753e-02 8.53347704e-02
      4.45064642e-02 2.35983267e-01 -1.43145531e-01 -1.59816489e-01
      -1.37836859e-01 3.88436280e-02 2.28215128e-01 3.13559502e-01
      -1.02687962e-01 4.99035092e-03 -2.05582812e-01 -1.04646988e-01
      -8.97850394e-02 -3.55598480e-01 1.28771275e-01 1.95840463e-01
      3.93631272e-02 -7.64327869e-02 0. -1.03323869e-01 -4.26478460e-02
      -2.84767300e-01 -7.14023709e-02 1.03940420e-01 3.43178928e-01
      1.72198005e-02 -2.41565377e-01 3.74794394e-01 3.22660357e-02
      5.29545069e-01 8.91838744e-02 -2.77826320e-02 -3.53126496e-01
      -2.04953521e-01 -3.53557877e-02 -1.16852134e-01 -1.60581782e-01
      9.24978018e-01 1.34559907e-02 1.74888879e-01 1.03460178e-01
      6.32812142e-01 4.52347159e-01 -6.73799813e-02 2.64244199e-01
      4.82913405e-01 5.31255156e-02 3.06451589e-01 -1.33246839e-01
      -2.98091799e-01 0. 1.53869763e-01 -6.27827585e-01 -5.32409668e-01
      2.81636268e-01 -4.14847642e-01 -3.26555133e-01 2.73113120e-02
      2.37247601e-01 -7.07601905e-02 -3.72251123e-01 3.18404019e-01
      -3.50700110e-01 -2.90830553e-01 -2.95259595e-01 3.40087175e-01
      2.15097647e-02 -2.97707915e-01 3.20613123e-02 -9.61049199e-02
      -1.41374409e-01 -2.16091320e-01 8.19249809e-01 2.62834489e-01
      3.79053682e-01 -2.68103424e-02 2.65460134e-01 -2.43526652e-01
      -8.39457884e-02 -2.27601230e-01 -3.36108238e-01 -3.73879075e-01 0.
      -4.72087145e-01 3.37573234e-03 2.09024712e-01 1.16561636e-01
      -2.42689848e-01 -3.89262140e-02 -1.04691004e-04 1.47299290e-01
      7.02626929e-02 -9.90164503e-02 8.60305876e-03 -2.20893025e-01
      -1.12636186e-01 1.26482025e-01 -3.86977166e-01 5.10187708e-02
      3.73159319e-01 7.89674222e-02 -5.29845595e-01 -5.75583577e-01
      3.44280124e-01 3.04078281e-01 3.39508146e-01 -2.80226350e-01
      2.90286899e-01 4.04241383e-01 -1.77976280e-01 2.66290247e-01
      -1.41744748e-01 -3.59563500e-01 5.18430993e-02 0. -3.37144613e-01
      -1.84289202e-01 -7.16119111e-01 1.56447887e-01 -1.01270035e-01
      1.64748475e-01 6.75327778e-02 2.14288786e-01 -5.84702305e-02
      3.51250917e-01 -6.38868064e-02 2.95302272e-01 -3.58610690e-01
      3.17920297e-01 -2.43379161e-01 5.31994440e-02 6.51205704e-02
      -9.21711922e-02 6.56035662e-01 2.11180121e-01 1.84782505e-01
      -1.18589818e-01 6.24408312e-02 2.06799079e-02 1.09431356e-01
      -4.15178508e-01 -2.14518909e-03 -3.00336909e-02 -1.23579718e-01
      1.32213593e-01 -1.99936494e-01 0. 1.86299250e-01 -1.39327198e-01
      -3.47490087e-02 -5.84130697e-02 -2.24862844e-01 -7.30545670e-02
      -5.51068723e-01 2.94331700e-01 -9.79279801e-02 -2.19762295e-01
      -1.36849731e-01 3.12156498e-01 -1.77423358e-01 1.45441890e-02
      -1.22301772e-01 -2.97779739e-01 -2.17476875e-01 -3.03621411e-01
      3.47901314e-01 2.31625497e-01 4.94185120e-01 -1.09880522e-01
      8.53752866e-02 -5.23275211e-02 -2.49388278e-01 3.71963561e-01
      -1.71600223e-01 -8.50410610e-02 -1.80000395e-01 -2.63966858e-01
      -3.41802508e-01 0. 2.89005995e-01 9.03836042e-02 4.16649580e-02
      -6.00275919e-02 -3.06009442e-01 -2.62494713e-01 5.34832954e-01
      -1.18044630e-01 -2.10482910e-01 2.39712268e-01 -3.15181091e-02
      -1.06965536e-02 -1.25359192e-01 2.25062251e-01 8.46519619e-02
      2.99751192e-01 -2.92969495e-01 -3.27572763e-01 4.30481046e-01
      -4.08727854e-01 -3.76437396e-01 -1.39762089e-01 -2.44912371e-01
      6.29064366e-02 3.43806952e-01 -1.01464115e-01 5.58523238e-02
      1.45437986e-01 4.08275910e-02 -1.17497265e-01 -4.05364111e-02 0.
      -2.26493835e-01 -3.18903804e-01 2.91959167e-01 -4.65487922e-03
      9.29764807e-02 2.22643763e-01 -6.75913915e-02 3.48850191e-02
      1.41162634e-01 2.28479132e-01 2.43684247e-01 -1.44402519e-01
      -6.15487136e-02 6.78589195e-02 -2.00598821e-01 -8.00662413e-02
      -9.77895409e-03 -2.25585308e-02 2.62483746e-01 -8.29804316e-03
      7.70961717e-02 -1.38940606e-02 -2.04452246e-01 -2.59400666e-01
      -1.66827366e-01 2.92892735e-02 7.63512775e-02 -1.16354421e-01
      -2.62962252e-01 2.84312040e-01 1.83180779e-01 0. 2.24009067e-01
      -2.12489992e-01 -5.74628375e-02 7.89868757e-02 -1.89257532e-01
      -3.79144475e-02 1.84687048e-01 -3.03390045e-02 3.11240107e-01
      8.81334692e-02 -2.93304056e-01 -2.76304573e-01 -2.21881658e-01
      -4.60598990e-02 1.48657367e-01 3.71402413e-01 -9.72888768e-02
      -2.68177152e-01 3.54877800e-01 1.86845198e-01 -8.71345326e-02
      2.71430492e-01 -1.47809431e-01 1.70705989e-01 1.42085224e-01
      -1.76744372e-01 -1.96243390e-01 -3.67249548e-01 1.03207687e-02
      1.56596214e-01 4.78986315e-02 0. -2.51551215e-02 3.67268592e-01
      2.79881328e-01 -4.15669940e-02 4.66982275e-02 -2.40917981e-01
      -3.78626399e-02 -6.26518857e-03 2.89982200e-01 -6.56301141e-01
      -1.62406608e-01 -6.58542588e-02 2.18860283e-02 -6.89630687e-01
      2.21410632e-01 1.38831168e-01 -1.78750351e-01 2.23202765e-01
      7.04950333e-01 3.19963321e-02 2.09587216e-01 1.43436104e-01
      5.78913018e-02 2.63587207e-01 -1.03397004e-01 -2.23488092e-01
      2.53856778e-01 -2.07393602e-01 5.73666617e-02 -1.58969864e-01
      6.59664944e-02 0. -1.12248309e-01 2.03106076e-01 3.39633107e-01
      4.92789634e-02 3.89918610e-02 -2.12263674e-01 -1.71292707e-01
      1.91859826e-01 -6.30241036e-02 -6.09693229e-01 -1.00972623e-01
      3.05030435e-01 -2.22956076e-01 -1.90851465e-01 2.06218883e-01
      -1.42928511e-01 -2.39184290e-01 -1.51485503e-01 -5.40754855e-01
      2.91589081e-01 2.76019186e-01 -1.64106730e-02 5.01418998e-03
      1.42575592e-01 -2.61934996e-01 2.37641200e-01 -7.68213719e-02
      -1.11275367e-01 9.73369852e-02 -3.90291721e-01 -1.19130649e-02 0.
      -1.22666746e-01 -2.84737926e-02 -2.66548872e-01 4.32251282e-02
      -3.95630032e-01 -2.62765229e-01 4.46977792e-03 9.32580307e-02
      6.42415106e-01 -3.12010031e-02 -3.22899282e-01 -1.39919043e-01
      -3.00947756e-01 1.06616095e-01 1.62873670e-01 -2.35875294e-01
      -3.73034209e-01 4.99700665e-01 3.60968336e-02 9.69152227e-02
      4.61131409e-02 -7.95257371e-03 2.08754167e-01 2.89959013e-01
      1.34383082e-01 -8.84523243e-02 1.10836983e-01 -7.36363009e-02
      5.50766826e-01 -4.49093729e-01 -4.65214312e-01 0. -1.71903715e-01
      -2.15900578e-02 -1.10033758e-01 1.75050944e-01 6.84164762e-02
      -6.20857254e-02 -3.62544417e-01 1.41876847e-01 -8.00958797e-02
      -2.01853231e-01 8.57747197e-02 -3.02004904e-01 -1.20585524e-01
      -1.32398635e-01 3.59607249e-01 9.19792280e-02 -7.76999742e-02
      -2.60123730e-01 2.63622969e-01 1.43715769e-01 7.54572824e-02
      6.00025177e-01 1.45586476e-01 -4.42944095e-02 5.30641899e-03
      -4.66087788e-01 -3.83772105e-01 -3.24319392e-01 -1.45684257e-01
      -1.25652447e-01 1.33583277e-01 0. 1.17248315e-02 -5.41402936e-01
      -3.31401080e-02 2.36116648e-01 -2.30124131e-01 6.93032369e-02
      4.49470133e-01 -1.55043110e-01 -1.45908937e-01 -9.57652926e-02
      -5.99062368e-02 -2.65195340e-01 3.62009369e-02 -2.48105213e-01
      2.61998177e-01 -2.27765918e-01 5.37363112e-01 3.19061905e-01
      1.51195079e-01 -6.53258339e-02 -5.78602776e-02 1.16488762e-01
      1.93468705e-01 5.05878568e-01 -2.76778042e-01 -1.56930059e-01
      1.35639161e-01 4.32616621e-02 1.12582490e-01 -5.92602938e-02
      -1.34823173e-01 0. -2.04010323e-01 -3.44085991e-01 -8.18407014e-02
      2.55964607e-01 -7.99533203e-02 -2.64314911e-03 1.45913169e-01
      -8.20174664e-02 -1.89223401e-02 -6.67846352e-02 2.00971767e-01
      -1.05402451e-02 -2.94275343e-01 5.26531696e-01 -2.53947079e-01
      -1.06219441e-01 2.05979943e-01 -1.14415690e-01 -4.78203475e-01
      1.12714767e-01 -3.64832938e-01 -7.06889331e-02 -2.50109732e-01
      2.37937942e-01 -2.85195947e-01 -7.75735527e-02 2.10410506e-01
      3.45250726e-01 2.34883353e-01 -4.74322259e-01 -2.58684307e-01 0.
      -1.17393825e-02 -1.93941474e-01 -4.84588295e-02 -1.50225207e-01
      -2.83477325e-02 3.04399073e-01 4.64022718e-02 8.33504051e-02
      2.42966060e-02 -2.06190690e-01 -3.74117568e-02 1.56915113e-01
      1.14903882e-01 2.57360935e-02 -2.14881346e-01 -2.61426289e-02
      1.95062328e-02 3.34072299e-02 4.24761951e-01 -1.12947047e-01
      6.19467795e-02 -7.59546608e-02 -3.09325516e-01 5.16894639e-01
      -3.73047620e-01 -2.89343059e-01 -3.06080580e-01 -4.51616913e-01
      -3.18605930e-01 2.95620561e-01 4.23492223e-01 0. -9.24220756e-02
      -4.70798492e-01 -2.89649338e-01 -2.45963130e-02 3.69191110e-01
      -9.85747874e-02 1.81219101e-01 2.27840751e-01 -2.62788832e-01
      -2.95708477e-01 4.84077558e-02 -2.44752601e-01 3.76831055e-01
      3.84208381e-01 -3.54238972e-02 -2.77252346e-01 2.01351047e-01
      -1.23174779e-01 -2.83775851e-03 3.96988168e-02 -2.53437281e-01
      5.10462999e-01 1.71783566e-01 2.02933177e-01 -1.05315112e-01
      4.37624156e-01 -4.85663265e-01 1.74347475e-01 -3.15958321e-01
      5.40411249e-02 -1.13290764e-01 0. -2.12473273e-02 -5.42096421e-03
      4.60259952e-02 -1.47021517e-01 -3.82209033e-01 -4.77247119e-01
      2.49784544e-01 -1.91409528e-01 3.23804408e-01 -1.51040882e-01
      -4.79824662e-01 4.48589116e-01 -1.14675067e-01 -3.08822040e-02
      1.22809727e-02 -1.50769189e-01 6.23931587e-02 -1.40360594e-01
      5.03842294e-01 -1.61617756e-01 -5.09954020e-02 -4.06192064e-01
      1.32531270e-01 -1.50996566e-01 -1.59480467e-01 -3.45351815e-01
      1.83020726e-01 -1.81276947e-01 -2.11208373e-01 -1.89030599e-02
      -1.30358636e-01 0. 7.73333535e-02 2.02403933e-01 -2.83924267e-02
      -3.78214031e-01 1.30825594e-01 -3.01706046e-01 1.59623444e-01
      1.32434994e-01 4.23299253e-01 -1.07114382e-01 2.08520636e-01
      2.33791351e-01 1.21933952e-01 1.07626878e-01 3.10967445e-01
      -5.48504174e-01 -3.03798318e-01 -3.58197242e-02 1.02240331e-01
      -3.79095562e-02 2.84101486e-01 -1.98970780e-01 6.51849657e-02
      1.70526937e-01 -1.96473509e-01 -8.60916823e-02 4.53758776e-01
      6.25058785e-02 6.66669160e-02 1.12169161e-02 5.06271645e-02 0.
      1.21767476e-01 5.63148260e-01 -1.14607841e-01 1.13537937e-01
      -2.48650655e-01 -6.14253461e-01 -1.53153822e-01 2.52878755e-01
      2.84096599e-03 -1.26502961e-01 -2.11730853e-01 -2.69356251e-01
      -4.39560473e-01 -3.42479721e-02 1.54426143e-01 -1.92591213e-02
      -1.81093752e-01 -4.63549979e-02 -9.98352841e-03 3.27569097e-01
      -2.19006822e-01 -2.93777287e-01 -1.59105323e-02 3.35145108e-02
      -2.25280628e-01 2.52383620e-01 -1.21926084e-01 -3.09264362e-01
      -5.79628535e-02 -6.50244355e-02 -1.57079518e-01 0. 3.62438262e-01
      2.52737284e-01 -1.62067547e-01 3.06202546e-02 -2.16607034e-01
      -1.96292531e-02 9.57461894e-02 3.06698307e-02 1.95659190e-01
      1.71477869e-01 4.98636477e-02 -5.26772261e-01 -4.41691101e-01
      1.75405502e-01 -1.14426099e-01 -1.47014886e-01 1.14321284e-01
      8.53664577e-02 7.54100621e-01 2.65954524e-01 -2.88429290e-01
      1.53015638e-02 4.68746364e-01 -9.88003463e-02 -3.44203487e-02
      -3.81521553e-01 5.11354432e-02 -2.95296703e-02 -1.43522499e-02
      -7.30387270e-02 8.67972001e-02 0. -3.22485238e-01 -7.82894567e-02
      -3.36585075e-01 -6.32360429e-02 2.03330442e-01 8.93172547e-02
      -4.45086695e-02 -3.64774942e-01 2.00227629e-02 -1.41619787e-01
      4.60359454e-01 1.22697420e-01 7.99141824e-02 -6.08896017e-01
      -1.52376130e-01 2.40399748e-01 3.71302783e-01 1.37925044e-01
      -4.04341891e-02 -1.44481003e-01 -1.20402075e-01 2.69270986e-01
      2.60355026e-01 -9.53857526e-02 4.74012084e-02 3.72787416e-02
      -5.81443310e-02 -9.49192122e-02 6.32252842e-02 -1.62162989e-01
      1.11883450e-02 0. 3.49348586e-04 3.15231889e-01 -6.10660166e-02
      -2.30545610e-01 1.00222573e-01 -4.58515018e-01 2.43620023e-01
      2.67024666e-01 -3.62011939e-01 8.80033791e-01 5.40390350e-02
      7.83486366e-02 2.55917639e-01 3.42100590e-01 2.84011424e-01
      1.67200178e-01 -3.14453721e-01 -1.04677334e-01 -7.91998655e-02
      8.43154043e-02 8.27344358e-02 8.40968359e-03 -7.09074885e-02
      1.71004266e-01 -1.82789918e-02 -1.11012109e-01 2.71725684e-01
      1.94920674e-01 6.61038339e-01 -3.73435244e-02 -1.31865919e-01 0.
      -2.11529225e-01 1.02914937e-01 5.17756753e-02 1.77854404e-01
      4.82233256e-01 1.57592550e-01 2.71805346e-01 3.33853543e-01
      -2.31873557e-01 7.09730685e-02 -4.91177022e-01 -1.30472392e-01
      -2.99237639e-01 -6.86334372e-02 1.87139615e-01 2.41915826e-02
      1.54963449e-01 8.71603936e-02 1.98325828e-01 2.03016214e-02
      -1.66558623e-01 1.51722375e-02 -5.44079244e-01 -2.33405814e-01
      -9.78893340e-02 1.72591507e-02 -2.61956215e-01 -5.87247431e-01
      3.40256169e-02 1.53905287e-01 7.14935184e-01 0. 2.00768169e-02
      1.00102127e-01 5.05808473e-01 -2.88599879e-01 -1.60444200e-01
      -2.57723987e-01 -6.32700473e-02 1.26538858e-01 -4.28528428e-01
      1.91290881e-02 2.79500037e-02 -1.68684170e-01 -1.57463714e-01
      -3.20751630e-02 -1.12502031e-01 -2.50754505e-02 2.77373195e-01
      -9.67652947e-02 3.15363258e-01 1.67544156e-01 -1.55370161e-02
      -1.53004140e-01 -1.83836251e-01 -3.51385802e-01 3.39081362e-02
      3.46182823e-01 -3.33866328e-02 -1.78596944e-01 3.03429186e-01
      -5.29809773e-01 6.83253258e-02 0. 7.55440667e-02 9.84006003e-02
      3.56079131e-01 -1.03262067e-01 -2.66563892e-01 6.53267562e-01
      8.35094824e-02 -1.54408906e-02 9.69770402e-02 -1.42883033e-01
      1.76980812e-02 1.53417764e-02 1.92122102e-01 -5.33775091e-02
      -3.07420254e-01 -2.31440350e-01 9.00341256e-04 1.12591255e-02
      3.98659110e-01 -2.54636616e-01 1.34283140e-01 -1.01661468e-02
      -4.73124266e-01 2.83205360e-01 -2.54609257e-01 1.46488369e-01
      -1.81118831e-01 4.89742942e-02 1.03959523e-01 -2.71529615e-01
      3.45202863e-01 0. 8.99211392e-02 -2.00146392e-01 2.92581439e-01
      5.69250643e-01 4.25464623e-02 5.63698038e-02 3.50605405e-04
      -1.13734268e-01 -2.39133194e-01 6.03176877e-02 2.59335577e-01
      -2.41806701e-01 -1.35755032e-01 -3.42158414e-02 1.61113337e-01
      1.03601679e-01 -2.18614694e-02 4.01314139e-01 -1.60467967e-01
      -4.23583090e-02 3.14594179e-01 1.88229993e-01 2.50872731e-01
      5.31859472e-02 -1.35931119e-01 -2.52039492e-01 -5.11733405e-02
      -4.54181992e-02 3.51928532e-01 3.22602913e-02 1.56222999e-01 0.
      -7.10858218e-03 3.19108605e-01 4.61104698e-02 4.92392659e-01
      -2.98948735e-01 -1.65305778e-01 -1.94412973e-02 1.29901590e-02
      3.30472678e-01 2.88490131e-02 -3.32910597e-01 -2.75077932e-02
      -1.81273103e-01 1.88201666e-01 2.36559540e-01 -6.54525459e-02
      2.37433046e-01 -1.89158216e-01 -2.37348765e-01 1.21451460e-01
      5.18923858e-03 2.06986472e-01 -4.14959252e-01 -4.87067401e-01
      -1.02665998e-01 1.16572581e-01 5.80057025e-01 -2.42680684e-01
      1.09804757e-01 -6.63304422e-03 4.24711555e-01 0. -2.72476584e-01
      3.60375881e-01 -2.16729179e-01 1.78661674e-01 2.97796488e-01
      5.86457908e-01 7.66648501e-02 3.84322613e-01 2.82641023e-01
      -3.60264212e-01 -4.89283204e-02 1.77570373e-01 -3.00276548e-01
      8.89171567e-03 2.67328918e-01 -2.89742779e-02 7.35550374e-02
      -4.83466238e-01 -1.41309708e-01 -6.62696064e-02 2.50680983e-01
      -9.94893983e-02 -3.52233112e-01 -1.78769957e-02 -8.70630518e-02
      1.09474994e-01 -7.80473277e-02 1.27582988e-02 3.25341851e-01
      -1.24147482e-01 2.49504611e-01 0. 3.75845551e-01 -1.57102436e-01
      -4.23202813e-01 -2.42108479e-02 9.36991125e-02 4.96649891e-02
      1.66363046e-01 4.38265502e-02 -1.02245234e-01 -2.09874555e-01
      -3.17491025e-01 2.47523874e-01 -4.44880687e-02 -5.10737151e-02
      -1.85619652e-01 1.78531967e-02 1.12640141e-02 -3.42747450e-01
      2.22593635e-01 -3.64184618e-01 -3.11527494e-02 -5.86320125e-02
      3.34368527e-01 -3.64163756e-01 -3.59112471e-01 -3.90025169e-01
      -1.44421598e-02 -4.39614020e-02 8.86366963e-02 -2.96993822e-01
      -1.49321482e-01 0. 3.64187211e-01 -2.66044289e-01 -3.84956673e-02
      2.59063512e-01 -2.21499994e-01 1.37170762e-01 4.46322449e-02
      1.42105877e-01 -2.17407107e-01 3.62335205e-01 2.88542062e-02
      1.35195553e-01 -4.32334900e-01 -1.10023571e-02 9.43894923e-01
      9.22785699e-02 4.94953543e-01 -9.76689979e-02 -3.04917753e-01
      -3.83088440e-02 1.91758517e-02 -1.46234214e-01 -3.16022515e-01
      2.73526579e-01 -2.94294089e-01 -8.07268322e-02 -4.65638451e-02
      3.60829860e-01 4.60247904e-01 -8.63185078e-02 7.61515573e-02 0.
      1.55756027e-01 -1.06853433e-01 -6.33547604e-02 -2.34806284e-01
      1.75577983e-01 1.30408078e-01 -1.90263949e-02 -5.63051924e-02
      -1.15818322e-01 1.30851120e-01 8.00268278e-02 6.05370283e-01
      -1.26063943e-01 1.24169506e-01 -1.27618849e-01 8.27578977e-02
      -4.12228741e-02 2.03773975e-01 -5.15765667e-01 1.09781727e-01
      -2.12470770e-01 -3.06412205e-02 -7.07723573e-02 2.75506154e-02
      1.10222004e-01 -2.03993395e-01 4.34052125e-02 -2.47695446e-01
      -3.48266423e-01 4.48219776e-01 5.23741066e-01 0. 5.20172343e-02
      3.84647965e-01 -2.55669266e-01 -4.15607840e-01 8.56799260e-02
      2.57373005e-01 -1.71566188e-01 -5.25903441e-02 -4.48817641e-01
      -2.59020627e-01 1.21481568e-01 4.43236250e-03 4.06837575e-02
      2.26032257e-01 -7.71162987e-01 -1.04749158e-01 3.08479220e-01
      6.72758758e-01 9.86768156e-02 2.97965616e-01 -4.25789595e-01
      -1.90516934e-01 2.76824802e-01 -3.04821562e-02 -3.78653556e-01
      -2.91029900e-01 -5.07512577e-02 -1.25283256e-01 7.63301328e-02
      -3.48656401e-02 -6.96680099e-02 0. -2.94127584e-01 1.09263048e-01
      -3.65414888e-01 -5.91304362e-01 3.99940908e-02 5.52524850e-02
      1.11449555e-01 1.13293640e-01 -8.87013897e-02 7.39461407e-02
      -1.72959238e-01 -1.98414519e-01 5.80530703e-01 4.62318122e-01
      9.36229005e-02 -8.38966593e-02 -2.64586717e-01 2.61086881e-01
      1.70288384e-01 4.56902161e-02 8.97027701e-02 1.75951391e-01
      2.35051796e-01 1.20232321e-01 7.65881911e-02 -2.05424845e-01
      -4.89418417e-01 -5.59297688e-02 1.74461439e-01 -2.08230540e-01
      1.49123361e-02 0. 2.72262573e-01 3.24002177e-01 1.68790922e-01
      -1.63088590e-01 -3.95803750e-01 3.63235384e-01 3.68830323e-01
      -1.40921295e-01 -2.07029894e-01 1.58269674e-01 -1.31813899e-01
      -2.10846663e-01 1.31287717e-03 -3.09059117e-02 -2.03081928e-02
      -1.78023681e-01 -1.10037951e-02 4.32781756e-01 1.96156442e-01
      3.77941579e-01 1.73853666e-01 -1.32611334e-01 -6.18803203e-01
      -2.74478287e-01 2.44368926e-01 -1.50276972e-02 -3.09646100e-01
      -4.42242026e-01 3.18056315e-01 1.68364927e-01 2.38538072e-01 0.
      -1.39702380e-01 6.75046667e-02 -1.70752868e-01 -1.29964445e-02
      2.84810841e-01 5.33869863e-02 2.42413521e-01 6.45575166e-01
      4.93410528e-01 1.03240639e-01 -2.53831387e-01 3.06676775e-01
      7.13879704e-01 -5.49849749e-01 2.49425277e-01 -3.59609902e-01
      -2.57482082e-01 -4.03660566e-01 -3.17859828e-01 -4.49697524e-01
      -1.67890608e-01 2.64202446e-01 2.28616342e-01 1.20605282e-01
      -6.74416065e-01 4.76105988e-01 1.19705841e-01 7.90528804e-02
      1.44882008e-01 -2.62031496e-01 5.15360177e-01 0. -2.69590944e-01
      5.99114716e-01 -1.30790338e-01 1.85843572e-01 -1.69042900e-01
      -8.90115350e-02 5.45640737e-02 -5.96332610e-01 9.54069048e-02
      -1.15406513e-01 -2.74736118e-02 -1.38189465e-01 -4.74357933e-01
      -5.18645979e-02 -2.02590704e-01 -1.26157075e-01 3.60297769e-01
      1.90672264e-01 3.01283747e-01 4.84777212e-01 -1.46616042e-01
      -3.96031052e-01 -2.57619083e-01 -6.54558614e-02 2.51263827e-01
      -4.90124404e-01 -2.88722944e-02 -2.00190306e-01 -8.15765783e-02
      -7.38152163e-03 -1.37425616e-01 0. -2.72664219e-01 -2.15053275e-01
      2.91457325e-01 2.82441169e-01 -1.21225595e-01 -4.98146087e-01
      -1.80481821e-01 1.33203596e-01 1.19500630e-01 -4.64120321e-02
      1.27079219e-01 -3.26835841e-01 7.43137524e-02 9.75930691e-02
      3.11376550e-03 4.93187547e-01 1.69587255e-01 5.17492741e-02
      -6.07555471e-02 1.04410298e-01 -2.02944413e-01 2.92026818e-01
      4.59417343e-01 -1.43673927e-01 2.61787206e-01 4.21882778e-01
      2.36972690e-01 -4.36216928e-02 3.53516847e-01 -8.53899866e-02
      -1.38518289e-01 0. -4.02899534e-01 -1.34471357e-01 3.25060397e-01
      -1.00924678e-01 1.83750361e-01 -3.03687841e-01 -2.02885136e-01
      2.89353490e-01 2.44470425e-02 2.14808285e-01 4.20764118e-01
      -3.72478336e-01 1.96226612e-01 -3.55943590e-02 2.40876317e-01
      2.49374419e-01 4.13587600e-01 3.96382846e-02 -1.35639653e-01
      -1.41284496e-01 -3.76886539e-02 1.29110157e-01 -3.56544644e-01
      -2.31224895e-01 -1.62734285e-01 -5.64396307e-02 2.40676105e-02
      1.00432180e-01 7.04294026e-01 -3.78767610e-01 6.66287988e-02 0.
      6.24969006e-01 -3.44518661e-01 9.88293141e-02 7.40716830e-02
      9.53330547e-02 -4.12094057e-01 3.44069242e-01 3.14053178e-01
      -3.35817069e-01 -4.83503729e-01 1.80879608e-01 2.33379319e-01
      -1.36614114e-01 1.35346502e-01 3.40190083e-01 1.77032977e-01
      -3.83147687e-01 1.49139777e-01 5.10436893e-01 -1.46810368e-01
      -1.29221678e-01 -3.87767911e-01 -3.83025110e-02 -2.54667133e-01
      -7.80593380e-02 -3.71278644e-01 1.66056544e-01 -1.00892052e-01
      -2.39547417e-01 -2.74032587e-03 6.59771025e-01 0. -4.70362544e-01
      -5.04794359e-01 2.66376078e-01 2.57750452e-01 -5.26153296e-02
      6.25393629e-01 1.45823732e-01 9.26852971e-02 2.55828261e-01
      1.15499459e-01 1.77089572e-01 -4.84124631e-01 -8.36489499e-02
      -8.50969702e-02 -1.85529187e-01 -2.31892452e-01 9.18994937e-03
      4.49866876e-02 -3.70148607e-02 -2.79568613e-01 -4.63138163e-01
      2.78797925e-01 3.52419734e-01 1.62607014e-01 -2.14792073e-01
      -8.50145146e-02 -7.95349851e-02 -1.54318392e-01 9.03351977e-02
      -1.06789351e-01 1.20124698e-01 0. -1.70366526e-01 2.65923679e-01
      5.10458171e-01 -2.20350206e-01 -3.71453553e-01 1.19459867e-01
      -3.79644811e-01 -2.61085987e-01 2.28611916e-01 1.11364126e-01
      3.31871629e-01 -1.39049426e-01 -1.08874530e-01 1.54204786e-01
      -2.98284441e-01 1.05746984e-01 -3.18550691e-02 -5.26370369e-02
      8.36294964e-02 2.05406740e-01 1.47482768e-01 -3.08796447e-02
      -2.18839705e-01 -2.96435982e-01 -3.40202391e-01 -2.78790891e-01
      5.14070541e-02 -1.81645602e-01 3.25723827e-01 -1.78426102e-01
      -6.27418160e-02 0. 2.07813114e-01 -4.00164485e-01 -1.61654323e-01
      -3.04057986e-01 1.09953612e-01 -2.52664447e-01 1.02565512e-01
      9.83369052e-02 6.89867735e-01 -3.34308386e-01 -5.34926020e-02
      -4.71010119e-01 2.83069670e-01 1.47333339e-01 -1.99602008e-01
      2.07539782e-01 -2.12684885e-01 -1.16269663e-01 2.42469072e-01
      -1.91892833e-01 -3.64168733e-01 -2.58276671e-01 5.59997082e-01
      -1.09915115e-01 1.52113717e-02 -4.78676349e-01 -1.05329730e-01
      -5.84003389e-01 -1.22118881e-02 -2.35322267e-01 5.20682573e-01 0.
      1.13841649e-02 -3.77705395e-01 2.73429245e-01 -2.51385551e-02
      -3.65686715e-01 3.74198668e-02 -7.20548257e-02 2.56651845e-02
      -4.89078760e-01 -1.70813337e-01 3.46485674e-01 -3.95147540e-02
      -1.86757565e-01 -1.18187763e-01 -4.38696295e-02 -8.56368318e-02
      1.54885827e-02 -3.64420675e-02 2.57553279e-01 -3.34030315e-02
      -1.14812359e-01 -2.80967563e-01 -1.02455325e-01 5.01437038e-02
      -4.05898899e-01 7.99047798e-02 -2.37809852e-01 -1.96738005e-01
      1.98985651e-01 -4.66088653e-01 -1.49456844e-01 0. -5.24132013e-01
      3.60826910e-01 2.53575414e-01 2.39037782e-01 -3.01425308e-01
      -1.81090593e-01 7.31479451e-02 2.48521864e-01 1.40478790e-01
      -2.30065033e-01 -2.05420762e-01 -5.69418788e-01 -6.87976480e-02
      -1.33636191e-01 3.27130646e-01 4.58139926e-01 1.92552701e-01
      6.47172630e-02 4.61623639e-01 1.85186267e-02 -3.54130834e-01
      1.97600648e-01 -3.53047132e-01 3.65158141e-01 1.17127132e-02
      3.48235182e-02 2.57663071e-01 1.73042431e-01 1.75353035e-01
      -2.95144558e-01 1.46980193e-02 0. 2.23202169e-01 -1.92778647e-01
      5.46470225e-01 -3.09902042e-01 -1.30868644e-01 3.41108382e-01
      1.81200981e-01 1.56466216e-01 -1.36837885e-01 -2.78237939e-01
      1.26281157e-01 -5.64849436e-01 5.15903831e-01 -4.51144069e-01
      -2.28302300e-01 -2.68943071e-01 -4.01124269e-01 1.44100025e-01
      3.92817140e-01 -3.97393048e-01 1.33579716e-01 3.14784557e-01
      -8.46362934e-02 4.00461048e-01 -3.13450128e-01 -1.50291488e-01
      4.14960049e-02 1.28807485e-01 -2.88237154e-01 3.72710428e-03
      -1.87597215e-01 0. -9.41852108e-02 -2.42417324e-02 2.52349377e-01
      -1.34166941e-01 8.60727951e-02 5.30820452e-02 -4.02911514e-01
      3.57348859e-01 -5.19285798e-01 5.85044861e-01 3.64591479e-01
      1.15060918e-01 -2.68661566e-02 3.72287959e-01 6.16912208e-02
      -1.34399444e-01 -2.59120226e-01 -3.65130380e-02 -8.66300464e-02
      -5.01231670e-01 -1.14068471e-01 -1.23195119e-01 -2.12516189e-01
      2.80299962e-01 -2.22886637e-01 9.69337374e-02 -8.87168646e-02
      8.35139811e-01 1.17021948e-01 -1.01940952e-01 -5.59914112e-01 0.
      2.47601181e-01 -1.24081738e-01 2.29290292e-01 -3.32615584e-01
      4.87991840e-01 1.31561279e-01 3.82701993e-01 3.89994979e-01
      -5.05543888e-01 2.10188791e-01 4.53350961e-01 3.20445113e-02
      5.86874127e-01 -1.70205057e-01 7.21593276e-02 -1.20825864e-01
      3.28380913e-01 -7.95107484e-01 -3.32175940e-02 -2.47483887e-02
      -1.59579683e-02 -9.82484687e-03 -1.85655147e-01 -1.21759117e-01
      -2.64374554e-01 -1.49723917e-01 -5.47935486e-01 -3.71464819e-01
      1.93203427e-02 6.85434163e-01 3.75582874e-01 0. -4.23199683e-01
      -2.50865698e-01 5.29891968e-01 1.11538604e-01 -3.51461500e-01
      -1.52116954e-01 9.20102224e-02 1.30248396e-02 2.49833554e-01
      -1.96483329e-01 -3.41430217e-01 -4.52629030e-02 -1.53248301e-02
      -5.78860044e-01 2.96111643e-01 1.36647180e-01 1.40139967e-01
      -1.54946268e-01 -1.11318797e-01 2.01680332e-01 3.50338846e-01
      -1.79453522e-01 5.31924143e-02 -1.37677640e-01 -2.79889643e-01
      1.50541365e-01 -9.38543901e-02 -3.96543086e-01 -4.61381674e-02
      -5.65329120e-02 5.57430722e-02 0. -1.14436783e-01 -1.42159000e-01
      2.40187332e-01 -6.02836728e-01 -1.91429704e-01 1.87242970e-01
      -1.02292180e-01 -7.58809969e-02 -1.95749849e-01 4.90297265e-02
      -2.22651079e-01 -2.66695544e-02 3.46419424e-01 -1.20694861e-01
      2.60917634e-01 -2.94869781e-01 -2.45165318e-01 5.47592826e-02
      4.39287812e-01 1.75562799e-01 1.09162137e-01 -2.68306248e-02
      1.04906611e-01 -1.00107834e-01 -1.37302324e-01 8.51665288e-02
      -9.80650410e-02 -3.63228172e-01 5.45299146e-03 -2.27140084e-01
      2.09890921e-02 0. -1.50572792e-01 2.87150294e-02 2.01932162e-01
      4.06185657e-01 9.71999690e-02 -4.82577264e-01 -1.28661469e-01
      -1.46837920e-01 9.14916456e-01 -1.20801546e-01 -3.42533588e-01
      -5.76717034e-02 8.24469179e-02 -2.62613118e-01 9.49243009e-02
      -1.33257965e-02 2.50268638e-01 -1.26376972e-01 6.94782734e-01
      1.46062579e-02 -1.61206797e-01 3.66378427e-02 1.73385277e-01
      -6.36783600e-01 -4.51595038e-01 -1.81461304e-01 2.08195701e-01
      -4.98744845e-02 2.92601250e-02 -1.60235256e-01 2.96161771e-01 0.
      2.85230607e-01 3.08561444e-01 -6.47236332e-02 -1.22283757e-01
      -1.84510022e-01 -3.86423200e-01 -2.00755950e-02 -5.69559820e-02
      1.50315389e-01 2.98952669e-01 -2.37533465e-01 2.91488111e-01
      2.04556376e-01 -7.64202401e-02 -1.25622079e-02 1.51128873e-01
      -6.49100393e-02 -4.28708196e-01 4.92396146e-01 -2.13563461e-02
      2.62478560e-01 -2.15035141e-01 3.23729277e-01 -4.73694503e-01
      -6.26562610e-02 3.58068287e-01 -2.92586267e-01 -3.55061367e-02
      3.45457464e-01 -2.07274467e-01 -8.61176997e-02 0. -1.31746992e-01
      4.60734636e-01 -1.49669379e-01 -1.90480366e-01 -1.10417986e-02
      4.45396155e-01 3.73767585e-01 -2.01696217e-01 -5.86486869e-02
      2.41750926e-02 -1.31852850e-02 3.08116406e-01 -6.97369277e-02
      -2.53389299e-01 -2.71429300e-01 -1.45086229e-01 3.74854594e-01
      -2.56856769e-01 -9.46861878e-02 1.50367126e-01 -1.10117771e-01
      -5.40837765e-01 4.18319643e-01 1.80931002e-01 -1.22167401e-01
      -1.21895112e-01 2.09684387e-01 1.43898875e-01 4.23319131e-01
      -4.38167751e-01 -1.87063441e-02 0. -7.08605647e-02 3.01360600e-02
      1.11526012e-01 -3.11483771e-01 1.05194427e-01 1.47515135e-02
      -5.01774907e-01 2.97068775e-01 5.21676838e-01 -3.83694708e-01
      -1.40096277e-01 1.97599247e-01 -2.75267139e-02 -6.74541369e-02
      -6.26946568e-01 -2.50724971e-01 5.85104451e-02 5.13572711e-03
      7.86591619e-02 1.88259169e-01 -2.63215583e-02 -2.75079608e-01
      3.32882226e-01 2.50595063e-01 -5.44255018e-01 3.31066430e-01
      8.39884877e-02 -2.47862205e-01 -2.14328654e-02 -1.86976328e-01
      -3.34963277e-02 0. 4.17468965e-01 -1.19598769e-01 -5.27672581e-02
      8.79660770e-02 -2.86211997e-01 -2.34997016e-03 -1.16747562e-02
      -1.49048299e-01 2.59434548e-03 -6.63580224e-02 -1.42515033e-01
      3.10542941e-01 -1.81660593e-01 1.81290224e-01 -9.85532328e-02
      3.97651881e-01 3.53709161e-02 6.67018369e-02 1.36905268e-01
      -1.87803268e-01 6.53391629e-02 3.42942834e-01 -3.13732587e-02
      -9.86245126e-02 4.37372059e-01 -1.02551810e-01 -2.99491078e-01
      2.26947740e-01 4.23080891e-01 -4.07627195e-01 -5.90980127e-02 0.
      4.40305799e-01 -4.95992713e-02 4.44087386e-02 -2.23614648e-01
      2.30829701e-01 5.33544064e-01 1.77483857e-01 1.12939537e-01
      1.65644243e-01 4.15580153e-01 -1.60381109e-01 2.15100467e-01
      6.41259134e-01 -2.19357878e-01 -1.06424447e-02 4.02167216e-02
      -3.81924361e-02 6.85305148e-02 -4.96835470e-01 -4.76655841e-01
      -3.01837504e-01 -3.53874683e-01 -2.83212125e-01 4.03565109e-01
      -5.06071672e-02 -8.64771288e-03 1.87495098e-01 -1.66156515e-01
      -4.25470710e-01 1.64099026e+00 7.44804218e-02 0. -5.27450368e-02
      -3.10979664e-01 -4.42187846e-01 -4.61414307e-02 4.65033250e-03
      8.43346119e-02 1.46787599e-01 4.85517800e-01 5.88578396e-02
      -1.67630818e-02 -1.11932896e-01 3.44632775e-01 3.87817502e-01
      2.43410975e-01 -1.27917200e-01 3.61171573e-01 -3.87337804e-01
      9.35609862e-02 1.57734960e-01 -2.63176471e-01 -1.23541104e-02
      -5.63772880e-02 2.25386351e-01 2.97088534e-01 5.65651841e-02
      1.95023760e-01 -2.91175514e-01 1.68579593e-01 -3.48405421e-01
      3.95871669e-01 1.20881110e-01 0. -1.86895594e-01 1.68052837e-01
      1.35980740e-01 3.06397021e-01 -2.41099656e-01 -4.17841449e-02
      1.27648503e-01 7.04171285e-02 -1.97168626e-02 -2.06161454e-01
      1.55240715e-01 4.74957705e-01 3.07726920e-01 3.49847585e-01
      -2.82500446e-01 -2.15376943e-01 3.04797083e-01 4.53334115e-03
      -2.06625108e-02 5.54796398e-01 5.04969776e-01 3.69044766e-02
      1.22110635e-01 6.01704895e-01 1.31107988e-02 3.84469479e-01
      -1.68280974e-01 -1.00370340e-01 6.41949996e-02 4.81228888e-01
      1.26313835e-01 0. 6.27514303e-01 -7.16625094e-01 -1.68466493e-01
      6.02784678e-02 9.76429060e-02 -1.82429925e-01 2.15497687e-01
      3.16970348e-01 1.45548418e-01 7.91308135e-02 1.60426214e-01
      9.55414623e-02 3.03424776e-01 1.75292715e-02 3.02290797e-01
      -1.07040867e-01 -2.25279834e-02 1.47236750e-01 -1.95172817e-01
      -1.58368528e-01 1.12858549e-01 7.01028705e-02 2.90851533e-01
      7.95539856e-01 1.29073560e-01 9.14289579e-02 -3.84109989e-02
      -8.93970113e-03 4.68657970e-01 -8.53915000e-04 1.87868983e-01 0.
      1.42220883e-02 -4.01331857e-02 4.02544081e-01 -1.74747974e-01
      6.34971142e-01 -2.04830155e-01 1.12296104e-01 7.09465146e-01
      -2.60279298e-01 -6.03573807e-02 2.29766190e-01 -5.75912409e-02
      -1.08497046e-01 1.39761329e-01 -2.60596484e-01 3.12891364e-01
      9.75205004e-02 3.31709266e-01 -9.64850113e-02 3.40159461e-02
      2.18952477e-01 4.90537584e-02 2.64742494e-01 6.21660531e-01
      -1.82302296e-01 -1.96162477e-01 6.87912628e-02 2.79224485e-01
      5.87677896e-01 -2.91057467e-01 2.81214148e-01 0. -4.09151763e-02
      1.97227404e-01 3.19578052e-01 2.60881543e-01 1.99101046e-01
      -6.92829490e-01 -4.66730177e-01 4.46411997e-01 -3.55337292e-01
      -2.58246839e-01 6.77380562e-02 -1.12779215e-01 -1.80519044e-01
      -2.06637189e-01 -3.60335976e-01 6.04626894e-01 -1.10955968e-01
      3.11443985e-01 6.86677396e-02 1.66685253e-01 -1.09148556e-02
      -1.89275146e-01 6.92125261e-01 6.32896245e-01 -1.05752878e-01
      9.13805440e-02 1.17270797e-01 5.22392213e-01 -9.22136456e-02
      -2.80967861e-01 -3.27530295e-01 0. -3.03329993e-03 -1.44366428e-01
      3.12620878e-01 7.43121579e-02 1.77967101e-01 -5.27019620e-01
      -2.19742015e-01 -2.25022674e-01 3.93632092e-02 -1.16684847e-01
      4.87492949e-01 5.81573546e-02 -3.62833530e-01 2.62953192e-01
      -4.57800746e-01 3.24099541e-01 4.70065624e-02 -3.03536002e-02
      -1.64797023e-01 -9.11568403e-02 -3.64322990e-01 5.68594551e-03
      9.80479717e-01 7.83586264e-01 1.39438599e-01 9.54876654e-03
      -2.51463950e-01 -5.25098890e-02 4.69908789e-02 8.17786083e-02
      -2.19039172e-01 0. 8.64094257e-01 1.38903797e-01 -8.86095762e-02
      5.65081954e-01 1.96492180e-01 -1.54545471e-01 -4.00035441e-01
      3.18115056e-01 3.43779832e-01 -1.61561936e-01 -4.46326751e-03
      2.61562467e-01 2.07739875e-01 -1.83871284e-01 1.84491292e-01
      3.98288101e-01 4.78118956e-01 -1.99250579e-02 -5.00635684e-01
      -7.11676180e-02 -2.55377263e-01 1.98864907e-01 -1.50869712e-01
      7.64930904e-01 -1.91052377e-01 -5.55264235e-01 -4.86521035e-01
      1.92563522e+00 9.36878994e-02 -9.44300666e-02 -5.37253618e-01 0.</_></support_vectors>
  <decision_functions>
    <_>
      <sv_count>1</sv_count>
      <rho>8.4313439250776785e+00</rho>
      <alpha>
        1.</alpha>
      <index>
        0</index></_></decision_functions></my_svm>
</opencv_storage>
