<?xml version="1.0"?>
<opencv_storage>
<my_svm type_id="opencv-ml-svm">
  <svm_type>C_SVC</svm_type>
  <kernel><type>LINEAR</type></kernel>
  <C>1.0000000000000001e-01</C>
  <term_criteria><epsilon>2.2204460492503131e-16</epsilon>
    <iterations>10000</iterations></term_criteria>
  <var_all>4096</var_all>
  <var_count>4096</var_count>
  <class_count>2</class_count>
  <class_labels type_id="opencv-matrix">
    <rows>1</rows>
    <cols>2</cols>
    <dt>i</dt>
    <data>
      -1 1</data></class_labels>
  <sv_total>1</sv_total>
  <support_vectors>
    <_>
      -8.42074230e-02 -1.20753668e-01 1.63230836e-01 1.32592499e-01
      -1.24306120e-01 1.91150919e-01 -1.05604213e-02 1.95908006e-02
      1.07389398e-01 -2.00313717e-01 3.30457032e-01 9.93750170e-02
      -2.59171575e-02 -1.56445235e-01 -1.21714577e-01 -1.28759786e-01
      -1.23324692e-01 -2.13726401e-01 -8.25858563e-02 3.36369164e-02
      1.79852113e-01 1.83191210e-01 -3.05838257e-01 -5.96566200e-02
      -1.78711731e-02 -1.39843521e-03 -6.22808896e-02 -7.28276744e-02
      -9.09047201e-02 7.33044967e-02 -3.50788832e-02 0. -1.12181194e-01
      -1.34785339e-01 9.05923545e-02 1.41344860e-01 2.92673171e-01
      5.80110326e-02 9.54338908e-02 -1.79290935e-01 -6.44159541e-02
      -1.05873935e-01 1.07035622e-01 1.98507272e-02 -1.41426966e-01
      -1.67779982e-01 7.04297200e-02 -1.50533199e-01 2.00865814e-03
      7.34383091e-02 -1.07173935e-01 -6.98847920e-02 1.50046423e-01
      -7.25670755e-02 2.07550563e-02 1.26766905e-01 1.76201649e-02
      -9.59512666e-02 -1.89721175e-02 4.52593900e-02 6.34169430e-02
      -6.99163005e-02 -8.84781554e-02 0. -1.26679450e-01 -7.15984106e-02
      -2.03590035e-01 1.43685594e-01 2.60544240e-01 2.54049897e-01
      -4.81701307e-02 -1.23592660e-01 -6.45011440e-02 1.12550639e-01
      8.61702487e-02 5.38624376e-02 -1.66896671e-01 -1.06416181e-01
      -4.32369858e-02 4.43838425e-02 2.00670555e-01 2.80627400e-01
      9.33884904e-02 6.92552403e-02 -3.43850330e-02 -2.31957193e-02
      4.59905043e-02 7.22848624e-02 9.23343562e-03 1.18832424e-01
      1.15246959e-01 8.97422358e-02 -1.83426552e-02 1.10945605e-01
      4.48050424e-02 0. 7.82682896e-02 -7.26884604e-02 -7.27232471e-02
      -9.65090692e-02 4.10668589e-02 3.46308082e-01 7.86451474e-02
      -1.35383755e-01 1.85132008e-02 -2.23296389e-01 2.58208543e-01
      1.20692357e-01 8.05426314e-02 -4.77301329e-02 -1.19619563e-01
      -2.09932014e-01 1.93022907e-01 1.48772597e-01 9.76350456e-02
      8.31561163e-02 7.72467926e-02 2.28829291e-02 9.51216277e-03
      9.88356173e-02 -1.56461284e-01 4.94912453e-02 2.23717853e-01
      1.36185676e-01 6.15394972e-02 4.81340364e-02 -6.38243407e-02 0.
      8.49644933e-03 1.00433595e-01 -1.67595401e-01 1.54613972e-01
      -2.12647766e-02 2.41945356e-01 1.14158511e-01 -2.50479747e-02
      -1.21492594e-01 -1.07366398e-01 -1.07720099e-01 1.36226669e-01
      -1.51668591e-02 -3.53074772e-03 -2.50066906e-01 -2.11654246e-01
      -4.53391671e-03 8.36130381e-02 3.08631361e-02 6.18086895e-03
      4.84874994e-02 1.60937056e-01 2.42149504e-03 1.01582505e-01
      -7.73347691e-02 5.58645166e-02 -2.00216044e-02 -6.18335344e-02
      -1.02997728e-01 3.06440368e-02 4.18152697e-02 0. -1.83245763e-01
      3.87079269e-02 -3.34595479e-02 -6.70868009e-02 1.01955839e-01
      -2.12800711e-01 7.55259246e-02 1.39745191e-01 -8.26005936e-02
      -8.32613464e-03 -2.27645561e-01 -7.99732283e-02 -1.90474167e-01
      -9.44975838e-02 -4.12076786e-02 -3.68704088e-02 8.86780322e-02
      2.77101368e-01 -5.92466593e-02 -8.10799226e-02 -4.75639738e-02
      -1.95679739e-01 -1.06473438e-01 -9.95508581e-02 1.74559489e-01
      1.69022754e-01 1.92320645e-02 -3.86358164e-02 -4.74717915e-02
      -4.80324253e-02 -1.18753843e-01 0. 4.97184284e-02 7.74495080e-02
      -4.70133908e-02 -3.71101610e-02 -2.89931707e-02 1.90079466e-01
      9.55337808e-02 1.19713508e-01 -2.06597865e-01 -1.11581124e-01
      -4.24528047e-02 1.13861047e-01 4.02118154e-02 2.80545000e-03
      -1.32632315e-01 2.23864932e-02 4.92605194e-02 2.19286054e-01
      -2.19834242e-02 1.01372860e-01 -1.15745738e-02 2.40656622e-02
      1.03679910e-01 -8.98317620e-03 -4.72288877e-02 1.29734889e-01
      7.98343271e-02 1.31202385e-01 9.56747308e-02 1.22416147e-03
      -5.18328957e-02 0. -7.16173947e-02 -1.60104502e-02 2.27378547e-01
      -3.36766951e-02 1.26244903e-01 5.52659072e-02 4.24270071e-02
      -1.08154841e-01 -1.27413556e-01 1.66293904e-01 -1.21620774e-01
      4.09241244e-02 1.30762503e-01 -1.76236942e-01 -5.00422902e-02
      6.21998161e-02 6.05398379e-02 -1.42182127e-01 -1.36829233e-02
      -7.22713321e-02 4.07638103e-02 1.30037488e-02 3.48207392e-02
      -4.56126295e-02 3.18426266e-02 -2.97172926e-02 -1.85677316e-04
      3.85153741e-02 -4.92895506e-02 5.74087203e-02 -1.59551408e-02 0.
      -3.00328806e-02 1.04611695e-01 1.55674919e-01 6.44373521e-02
      -2.00162515e-01 -1.88440289e-02 2.66444266e-01 1.34175956e-01
      -8.84885415e-02 -3.34107801e-02 -9.83668640e-02 1.54249310e-01
      -6.41799793e-02 2.33946383e-01 -1.18129313e-01 -1.56128407e-01
      4.89423759e-02 1.03966258e-01 1.57891549e-02 3.99780599e-03
      2.04942957e-01 3.05269957e-02 -7.10772499e-02 -2.36297980e-01
      1.12712786e-01 1.78493321e-01 1.42046511e-01 -9.31301787e-02
      3.96618284e-02 1.01354770e-01 1.68347195e-01 0. -3.63285542e-01
      -9.64810029e-02 -1.63289592e-01 -2.09314749e-01 1.27342850e-01
      8.32784772e-02 2.44464368e-01 -1.73353292e-02 1.50328964e-01
      -6.93238750e-02 1.91419452e-01 -6.51100054e-02 -8.40963274e-02
      -1.77309513e-01 -5.09844571e-02 -1.97570883e-02 -9.10946056e-02
      1.11587815e-01 -2.20669240e-01 -4.95136455e-02 -1.47175372e-01
      -2.44609311e-01 -8.53804424e-02 -1.65666893e-01 1.68987393e-01
      -4.43806984e-02 1.95703730e-01 -1.02924243e-01 1.23354137e-01
      -2.08425254e-01 -4.72144932e-02 0. -4.20771576e-02 -9.43433717e-02
      -1.62414312e-01 2.56453395e-01 1.57774791e-01 -1.65051267e-01
      9.81951654e-02 -6.77529257e-03 -1.02001717e-02 -3.15606631e-02
      -1.44051090e-01 1.28966436e-01 -1.49471596e-01 -2.69448996e-01
      3.61921042e-02 -1.78839508e-02 -1.69132933e-01 -5.47294840e-02
      -4.85432409e-02 -1.14471234e-01 -7.98451994e-03 1.80479214e-02
      9.34688821e-02 2.27424726e-02 7.59115443e-02 -1.59316108e-01
      2.76100971e-02 -1.69639885e-01 1.23689901e-02 -2.22056165e-01
      7.78392479e-02 0. 1.17296033e-01 -1.20812885e-01 -1.12155139e-01
      7.69870058e-02 -2.06606269e-01 2.74354398e-01 2.25666240e-01
      -2.20606595e-01 -1.32106319e-01 -1.42775893e-01 -2.47051008e-03
      -7.88979679e-02 3.67441252e-02 -1.06389537e-01 -1.61102429e-01
      -1.42774373e-01 2.14619264e-01 -9.45934355e-02 -2.95403693e-03
      -4.17528227e-02 -1.69067353e-01 8.37345943e-02 -8.39025304e-02
      1.96865246e-01 2.76555456e-02 8.87934119e-03 -1.17726862e-01
      -2.26122066e-01 9.71808285e-02 -1.55141950e-01 1.27339978e-02 0.
      -1.62267596e-01 2.36495584e-01 -7.43630603e-02 2.51899332e-01
      1.04317762e-01 7.72323906e-02 -1.90060541e-01 -2.01711059e-01
      -9.84342694e-02 -2.54121840e-01 1.01258166e-01 -4.40359041e-02
      2.93897726e-02 -1.87776223e-01 -1.18373685e-01 -1.88284609e-02
      5.62038049e-02 7.10694492e-02 -2.31988013e-01 2.79196769e-01
      -7.25485012e-02 2.32589588e-01 -2.08621636e-01 -3.17726890e-03
      -1.75690338e-01 -9.49259773e-02 -1.62713662e-01 -2.55858153e-01
      -3.72863933e-02 -7.78565705e-02 1.72020212e-01 0. 8.72382745e-02
      -3.69383693e-02 1.25997171e-01 2.63269484e-01 2.54010297e-02
      -2.10590735e-01 -1.19217420e-02 1.12304568e-01 2.10728124e-02
      -1.45148844e-01 -1.47633590e-02 1.18419833e-01 -7.38256276e-02
      -2.09411025e-01 2.30546281e-01 2.69124303e-02 1.68579459e-01
      -1.59823045e-01 6.60588406e-03 8.64944980e-02 1.99214369e-01
      1.90862089e-01 -2.17669129e-01 -5.20414338e-02 5.91528080e-02
      2.07222044e-01 -1.39334381e-01 3.05653010e-02 1.20579958e-01
      -1.05313912e-01 1.03752628e-01 0. -1.13202177e-01 -8.71716663e-02
      1.65838435e-01 1.17769390e-01 -1.06622577e-01 3.44412439e-02
      -2.44820431e-01 1.07314140e-02 -2.47203658e-04 -3.34729180e-02
      7.81014264e-02 -1.09641999e-01 -3.19919176e-02 -3.34887691e-02
      4.25182655e-02 -1.95095912e-01 1.04839206e-01 2.68349469e-01
      -1.28456399e-01 7.41762342e-03 -4.28913074e-04 8.07247683e-03
      -2.39099517e-01 -2.52373308e-01 -2.55653381e-01 -8.87021888e-03
      2.20911652e-01 7.75013268e-02 5.27081899e-02 -1.60985142e-01
      -3.19991112e-02 0. -3.61148976e-02 -1.15719646e-01 -1.04521297e-01
      8.10247194e-03 6.68748170e-02 7.73056895e-02 3.32292393e-02
      -9.09613967e-02 -2.13925987e-02 -2.10514978e-01 1.61023095e-01
      -1.60300270e-01 2.88442045e-01 1.81292713e-01 1.96757957e-01
      8.76788199e-02 1.85970426e-01 1.53549924e-01 -1.61862686e-01
      1.03391506e-01 -1.99795395e-01 1.20212503e-01 -6.78073540e-02
      2.92457730e-01 1.57292321e-01 5.06035835e-02 1.93788633e-01
      1.00842737e-01 2.00162139e-02 1.36646852e-01 7.28052109e-02 0.
      -2.29182869e-01 1.09668955e-01 1.13913387e-01 1.33927137e-01
      8.29249248e-02 3.47035229e-01 9.31719542e-02 4.48414534e-02
      9.66428816e-02 -2.45370761e-01 -4.53769825e-02 -1.24628343e-01
      2.30656549e-01 2.01392874e-01 -3.32395971e-01 -1.51587218e-01
      -2.00284302e-01 1.44378319e-01 -2.07967788e-01 -2.62892302e-02
      -1.23255765e-02 3.42470407e-01 -5.17340079e-02 -4.61553484e-02
      -1.09028980e-01 -1.16745837e-01 2.10844249e-01 -1.24698542e-01
      7.53820390e-02 -8.36927593e-02 2.60158718e-01 0. 2.13340912e-02
      2.54727304e-01 -1.89983070e-01 -4.11791988e-02 8.98685679e-02
      1.10248990e-01 3.29072714e-01 2.82718241e-02 2.91403197e-02
      -6.08833656e-02 3.23538519e-02 -1.05876341e-01 6.59095421e-02
      6.35927171e-02 -7.77928606e-02 -2.23764166e-01 -2.69997805e-01
      -6.96215183e-02 3.37392315e-02 2.05214515e-01 3.91339809e-02
      -2.34403480e-02 3.39924311e-03 -3.12994458e-02 -2.28228290e-02
      -9.75055173e-02 4.62404005e-02 -9.35820341e-02 1.82512358e-01
      -2.62339413e-01 1.66536942e-01 0. -7.72766247e-02 1.39314860e-01
      3.19485441e-02 -1.22116104e-01 -7.90727064e-02 1.08171627e-01
      3.73624891e-01 2.69037455e-01 -1.14996448e-01 3.34454328e-02
      8.44649673e-02 -2.18539819e-01 -8.99563134e-02 1.08768947e-01
      -1.13362916e-01 -1.67641699e-01 -3.48694831e-01 -1.35649025e-01
      -5.74281886e-02 1.61683366e-01 5.37966983e-03 -3.64147499e-02
      -1.86168283e-01 -1.16383238e-02 1.58149600e-01 -7.00364783e-02
      -2.32992962e-01 -7.45720118e-02 6.84479326e-02 -1.88701630e-01
      4.46708351e-02 0. -3.28813726e-03 -5.78942038e-02 1.82039216e-01
      2.82270193e-01 3.94554622e-02 1.23643279e-01 -1.98715612e-01
      -4.25095148e-02 1.07276537e-01 -1.68290839e-01 -9.00586694e-02
      -3.23585749e-01 -4.50756699e-02 -2.23223120e-01 1.12914309e-01
      -1.03949346e-01 -2.54400611e-01 1.32260889e-01 -1.05496928e-01
      -2.06038848e-01 -1.07342951e-01 2.00559959e-01 -5.49720787e-02
      -9.94132683e-02 -4.98374663e-02 -8.76355395e-02 1.65769383e-01
      -2.03874275e-01 -6.49837451e-03 -8.02046582e-02 4.02019769e-02 0.
      -9.00864899e-02 1.27141967e-01 1.70455277e-02 2.97007114e-01
      2.26594601e-02 1.96894277e-02 -1.37234733e-01 -2.35388875e-01
      1.69319406e-01 -2.40744501e-02 -3.69412415e-02 -2.36578137e-01
      -2.43545517e-01 -7.25640580e-02 8.31695870e-02 1.00009046e-01
      -1.26572087e-01 7.70898536e-02 -3.44804078e-02 3.55258980e-03
      -1.16373353e-01 -3.67377400e-02 -1.36310712e-01 5.25754355e-02
      3.02718598e-02 2.36323345e-02 1.72697976e-01 -3.18645507e-01
      8.99987072e-02 -7.42650330e-02 1.66274667e-01 0. -1.88185334e-01
      -5.40098250e-02 1.38577670e-02 1.17610037e-01 4.16654110e-01
      -2.19759787e-03 1.53173553e-02 5.46686426e-02 1.43673243e-02
      -1.26914829e-01 1.18678719e-01 -1.56275913e-01 -1.01336405e-01
      -3.16664338e-01 1.64281175e-01 1.95844844e-01 -5.96203394e-02
      -8.30732659e-02 -1.55420095e-01 5.97682893e-02 -1.36547655e-01
      -4.29057591e-02 -4.32503037e-02 3.60821858e-02 1.95508808e-01
      1.12741431e-02 -1.60506934e-01 -4.86632586e-02 1.82504684e-01
      -1.73996106e-01 5.09979427e-02 0. -2.51557708e-01 -3.33998986e-02
      -6.95117712e-02 1.31670684e-02 1.73561573e-01 2.76683539e-01
      1.13703400e-01 3.36595923e-02 2.53426358e-02 -2.35123292e-01
      2.06028417e-01 -1.73119053e-01 -1.39422506e-01 -2.73009675e-04
      -5.46348095e-02 -3.90741639e-02 7.10893199e-02 5.68072163e-02
      -9.24180821e-02 1.78045064e-01 -9.72682610e-02 -6.69085830e-02
      -2.86312196e-02 1.16496734e-01 9.52441171e-02 2.01786056e-01
      1.27093449e-01 1.97525509e-03 2.43663922e-01 -2.75048941e-01
      1.71187222e-02 0. -3.57497782e-01 5.98898977e-02 2.94567764e-01
      3.33388299e-02 -9.85037684e-02 -3.61257225e-01 -8.77716690e-02
      -1.22414060e-01 7.76560679e-02 4.78582196e-02 -1.99592739e-01
      -1.97616950e-01 3.07019632e-02 2.15760067e-01 3.75106633e-02
      -1.10552344e-03 9.22941938e-02 -7.75029603e-03 -1.24887072e-01
      5.61555885e-02 1.75667465e-01 1.44445106e-01 1.35614157e-01
      -1.00806646e-01 -7.23875090e-02 -5.95182460e-03 7.38778859e-02
      -1.54861197e-01 9.31365509e-03 -1.64948717e-01 5.40865064e-02 0.
      -2.46865097e-02 -6.54249126e-03 6.66996185e-03 -1.02543607e-02
      -2.77626038e-01 7.55558833e-02 -6.37238398e-02 -9.94095132e-02
      2.14213580e-02 6.95387647e-02 6.16955794e-02 1.39755309e-01
      1.10261738e-02 6.41821250e-02 2.77425889e-02 -5.73373027e-02
      -1.14214063e-01 5.99678159e-02 -1.90541759e-01 2.33081251e-01
      3.54513787e-02 2.70425305e-02 -1.20012626e-01 2.97054090e-02
      -1.17285259e-01 -6.02329038e-02 -4.64081578e-02 -6.22166358e-02
      -9.14423447e-03 -4.61163372e-02 6.26823232e-02 0. 2.20000386e-01
      6.77788034e-02 -2.09763408e-01 1.48299471e-01 -1.36839807e-01
      -2.31961533e-02 -1.21696927e-01 1.00435227e-01 3.62490982e-01
      -5.50111756e-02 -1.33293986e-01 8.31572413e-02 7.01667815e-02
      6.23430684e-02 1.22812435e-01 1.44887501e-02 1.23532869e-01
      1.19946217e-02 6.20709509e-02 -3.06685176e-02 8.32004100e-02
      2.20735803e-01 2.05538552e-02 1.40166283e-01 -7.63693452e-02
      1.20238274e-01 2.37886220e-01 1.44875646e-01 1.85551435e-01
      -2.51613352e-02 2.83435490e-02 0. 1.20902158e-01 9.62329581e-02
      1.57658756e-01 2.10388541e-01 7.82785267e-02 1.32998511e-01
      2.20916227e-01 2.10122257e-01 -2.29163706e-01 -1.48833394e-01
      9.23594087e-02 -2.28059545e-01 -8.44137147e-02 -6.31763861e-02
      -3.62200141e-01 -5.96692860e-02 -1.11058265e-01 -1.76074535e-01
      1.90644097e-02 2.10810766e-01 9.35915411e-02 1.46190539e-01
      1.02133043e-01 -1.08476892e-01 2.94856690e-02 2.57600933e-01
      -2.56562859e-01 6.54933453e-02 7.72933960e-02 -1.48241848e-01
      -6.18568361e-02 0. -2.06635490e-01 -1.02301970e-01 2.23423824e-01
      2.27808475e-01 2.46107206e-02 1.46013811e-01 2.29992777e-01
      1.59176111e-01 -4.53223893e-03 8.16641226e-02 -7.56249577e-02
      -8.16877410e-02 -7.82127678e-02 -3.73509377e-01 -8.88986066e-02
      -5.43338321e-02 -2.12135181e-01 7.75230378e-02 -2.99353749e-02
      -8.38854089e-02 2.74818867e-01 4.26761992e-02 -1.34568647e-01
      6.56902790e-02 1.48176432e-01 1.15443967e-01 2.08930105e-01
      -1.16667427e-01 -5.41553982e-02 6.53051883e-02 5.47670871e-02 0.
      -9.51134041e-02 3.18864703e-01 7.63717964e-02 -1.06230751e-03
      -4.25929502e-02 7.34949484e-02 1.22326925e-01 -1.74533412e-01
      -5.41220456e-02 2.97775596e-01 7.85735697e-02 6.53836876e-02
      -5.62677067e-03 9.54050794e-02 -3.55380885e-02 8.24671332e-03
      3.17778774e-02 -2.02765875e-02 3.20683084e-02 2.87568241e-01
      7.22394958e-02 1.71376504e-02 5.29123060e-02 1.28553361e-01
      1.86936408e-01 2.79921200e-02 2.67635509e-02 -2.58803517e-02
      7.94384722e-03 1.44415557e-01 2.22053066e-01 0. 7.67165497e-02
      8.06184262e-02 -9.10458788e-02 1.15634175e-02 6.18215874e-02
      -1.39119089e-01 6.65338561e-02 -1.05670892e-01 -8.56455639e-02
      5.02097830e-02 6.77457526e-02 -1.83570459e-01 -1.07547015e-01
      8.15026164e-02 -8.01512413e-03 -5.28185815e-02 1.62268817e-01
      1.37405977e-01 -1.85742766e-01 2.34994222e-03 -1.08729623e-01
      -8.54637921e-02 -1.10433353e-02 6.28786832e-02 7.65447840e-02
      6.85542151e-02 2.68711120e-01 -3.01991887e-02 9.90600511e-02
      -4.25256342e-02 -1.55146867e-02 0. 2.49658614e-01 -3.62812094e-02
      -1.03494324e-01 -1.52357012e-01 -1.01926029e-01 -1.67108268e-01
      1.18925318e-01 6.47100806e-02 -1.25900626e-01 -3.82998027e-02
      8.76838714e-02 -1.19356751e-01 1.14988603e-01 9.75959226e-02
      -1.78854093e-01 1.69295836e-02 -1.54213026e-01 1.42543167e-01
      -7.76555985e-02 -7.32237920e-02 -8.55676830e-02 1.39593884e-01
      -6.85057640e-02 -2.03888327e-01 1.50943190e-01 -2.87074186e-02
      -5.64762428e-02 -7.28349909e-02 2.24662617e-01 -2.50287473e-01
      -3.57741378e-02 0. -1.78909883e-01 -6.35718256e-02 -5.80584183e-02
      -1.13094866e-01 1.85404524e-01 -5.07922471e-03 -1.09423101e-01
      -5.18124998e-02 2.13993087e-01 -3.18091884e-02 5.95230656e-03
      -5.18158488e-02 -6.86025247e-02 -1.52946457e-01 -2.86608003e-02
      2.75130291e-02 -1.33728012e-01 7.41358697e-02 -7.76552185e-02
      -1.90595761e-02 7.60554224e-02 -6.18150942e-02 7.74094164e-02
      1.47097796e-01 -6.60985559e-02 -7.27611706e-02 1.15132526e-01
      -2.25638151e-01 1.06267817e-01 -2.00353622e-01 6.49257675e-02 0.
      2.23462228e-02 -1.31248325e-01 3.85513045e-02 1.36197850e-01
      -1.98340490e-02 1.12431601e-01 3.45381275e-02 1.35572106e-01
      -1.41420394e-01 6.11591972e-02 2.55119633e-02 -2.06261268e-03
      -1.27179697e-01 -1.55432642e-01 -1.91980034e-01 -2.10073397e-01
      1.70403630e-01 3.25547010e-01 4.55302969e-02 1.23232596e-01
      1.21090978e-01 8.44575688e-02 -1.93359956e-01 -1.13036409e-01
      -1.85291767e-01 2.86289990e-01 1.74599186e-01 2.14618109e-02
      -1.11043304e-01 1.91252276e-01 -6.25315011e-02 0. 3.59436572e-02
      -1.65646121e-01 4.28836010e-02 7.70627633e-02 -2.89047770e-02
      5.52768186e-02 7.56409913e-02 4.13205624e-01 -9.98294353e-02
      -3.66293281e-01 -2.25792844e-02 -1.18149310e-01 -1.36390030e-01
      -1.21233322e-01 3.29812616e-02 6.03925809e-02 -1.34562090e-01
      9.95119438e-02 -3.91238451e-01 -6.54494241e-02 -8.80732387e-02
      -9.22410563e-02 -1.66774750e-01 1.63875923e-01 1.74371824e-01
      2.43268743e-01 -2.16479041e-02 -6.53487965e-02 2.71112584e-02
      -3.69858462e-03 -9.98083800e-02 0. 7.78885782e-02 3.03123772e-01
      -1.43388314e-02 5.02122520e-03 1.16081871e-01 9.63888243e-02
      -2.24649459e-01 6.77193776e-02 -3.59521732e-02 -1.68500751e-01
      -5.90650216e-02 3.08181550e-02 3.31238890e-03 1.63910478e-01
      -1.43943980e-01 -2.21188646e-02 -1.38923213e-01 -7.28085190e-02
      -7.17517436e-02 1.39186084e-01 -8.42389390e-02 -7.59712234e-02
      1.12864882e-01 8.78084451e-03 -1.42313004e-01 -1.32191703e-01
      -1.31814271e-01 -1.89750150e-01 1.64832205e-01 -1.36505924e-02
      3.10090370e-02 0. -1.07233159e-01 -3.96721400e-02 -3.49193662e-02
      -1.94470897e-01 5.29323928e-02 1.86628819e-01 1.80445071e-02
      3.21317539e-02 3.99570674e-01 3.72125618e-02 -1.44260570e-01
      -1.08288556e-01 -7.96850305e-03 -2.07340539e-01 2.78609246e-01
      -7.43169487e-02 -2.29986366e-02 1.20153865e-02 -1.52766136e-02
      -1.14557594e-01 -2.02451542e-01 -1.08604223e-01 -3.67490277e-02
      2.92889982e-01 -1.84692413e-01 -1.09412745e-01 2.50113040e-01
      2.39365790e-02 3.16154920e-02 -1.75531089e-01 1.55652702e-01 0.
      -4.28313106e-01 -1.36066526e-01 2.91129291e-01 8.26696232e-02
      4.14798893e-02 1.15042083e-01 8.48423690e-02 3.94573212e-02
      -1.44321963e-01 -4.52827588e-02 4.08524387e-02 -4.89295349e-02
      2.22611297e-02 -1.03787482e-01 5.70277162e-02 -5.37658632e-02
      -1.17211975e-01 -1.14890011e-02 -4.34752464e-01 -4.64796610e-02
      2.00911701e-01 1.03273794e-01 2.37851404e-02 5.13629504e-02
      -8.87585059e-03 -1.05310865e-01 -9.47486013e-02 4.35582623e-02
      -1.31815404e-01 -3.34459506e-02 -2.65081059e-02 0. 8.33177269e-02
      -1.13082770e-02 8.74478891e-02 7.69940764e-02 4.81281430e-02
      1.02248020e-01 1.46030620e-01 2.75611803e-02 -1.40479773e-01
      -3.43655124e-02 2.79274076e-01 1.41975343e-01 -1.24989018e-01
      -1.76933646e-01 -1.76289141e-01 -1.57692149e-01 -1.49012043e-03
      2.39346102e-02 5.45501113e-02 3.21592808e-01 1.70799300e-01
      -7.97095820e-02 -1.74405560e-01 -1.03793263e-01 6.90610521e-03
      9.87681597e-02 1.18277229e-01 2.55333573e-01 -8.45817775e-02
      7.52547383e-02 -1.54854789e-01 0. -5.51285781e-02 -1.95181116e-01
      1.05892755e-01 -9.74453315e-02 -2.05090996e-02 2.12823339e-02
      1.64700389e-01 6.52504861e-02 -6.18574582e-02 1.73862800e-01
      -2.52060555e-02 1.30138665e-01 1.17117753e-02 -3.54452170e-02
      1.40487868e-02 3.63229550e-02 -1.32688701e-01 -6.69567287e-02
      2.19363272e-02 -1.14142887e-01 1.98680550e-01 -1.52663682e-02
      -9.35674012e-02 -5.69642633e-02 1.21135540e-01 -9.28373784e-02
      -1.40904069e-01 7.66706169e-02 5.18852286e-03 7.15768859e-02
      -1.37977540e-01 0. 1.64088696e-01 3.66235301e-02 7.96665847e-02
      -1.49408385e-01 -8.77537727e-02 -9.02432576e-02 4.20938171e-02
      -5.01459949e-02 6.47146404e-02 -2.10727945e-01 1.08145662e-02
      1.51685208e-01 1.18096031e-01 -1.22438610e-01 -1.77247435e-01
      3.58481966e-02 -1.03697609e-02 2.66914010e-01 -1.51867986e-01
      7.92475864e-02 1.02305472e-01 3.74770612e-02 1.38528626e-02
      -1.41418442e-01 1.11601092e-01 -2.00503692e-02 2.96791673e-01
      6.39652982e-02 2.11301781e-02 -5.96217401e-02 8.56617559e-03 0.
      -9.51057523e-02 -1.59242023e-02 1.53108969e-01 -3.39153260e-02
      5.26664816e-02 4.62541655e-02 9.59393904e-02 -1.48137450e-01
      -2.14541897e-01 -5.02968878e-02 -1.39743522e-01 1.82799667e-01
      3.64795811e-02 -7.64671266e-02 6.85404912e-02 8.69809017e-02
      9.58999991e-02 -3.41476500e-02 -3.06238383e-01 -4.44661677e-02
      1.80846974e-01 -9.64606833e-03 -1.82750717e-01 1.02945790e-01
      1.41743556e-01 -7.70451352e-02 -6.51782379e-02 1.36751784e-02
      -1.14928961e-01 9.13970172e-02 1.47544807e-02 0. -1.07517213e-01
      1.44052446e-01 -1.86008234e-02 4.56269048e-02 1.59255370e-01
      7.62047917e-02 2.61916011e-03 -1.52456695e-02 3.91643375e-01
      1.19806230e-01 6.23927871e-03 -8.79832730e-02 -1.40004605e-01
      -1.17721349e-01 1.55167663e-02 -2.09278703e-01 -9.96698961e-02
      2.56831020e-01 -1.00432396e-01 2.22951382e-01 -1.54013962e-01
      -1.02152780e-01 8.63713771e-02 6.83978498e-02 -7.36250952e-02
      -1.39135435e-01 3.16884100e-01 2.23810911e-01 -8.30745921e-02
      9.38902572e-02 -3.58023643e-02 0. -2.63731241e-01 1.77240774e-01
      3.14418264e-02 8.99353251e-03 8.58752429e-02 -2.56944392e-02
      -7.31952116e-02 -3.07777643e-01 5.79307079e-02 -2.09138215e-01
      -1.44165799e-01 3.51827666e-02 -3.86379696e-02 8.67283568e-02
      3.93531937e-03 7.62746036e-02 1.40715748e-01 -1.43686414e-01
      -1.50128722e-01 1.71535879e-01 2.76104808e-02 -1.19445525e-01
      -1.07831936e-02 -1.24656267e-01 1.68547090e-02 5.52616417e-02
      -1.12770300e-03 1.30626947e-01 -2.42816612e-01 4.95520793e-02
      -1.73867613e-01 0. -1.11132815e-01 8.20887983e-02 -2.44837224e-01
      -3.89325954e-02 -1.31416963e-02 1.67061716e-01 -1.03996834e-02
      5.66565618e-02 2.41290435e-01 -2.00070456e-01 -2.48265952e-01
      3.57908346e-02 8.64152536e-02 -3.84445973e-02 9.83822122e-02
      -1.17562748e-01 3.69187482e-02 -2.61428326e-01 -6.33754581e-02
      -1.45349726e-01 -5.15722148e-02 -1.03466092e-02 -2.17722729e-01
      1.09589063e-01 -1.42912328e-01 9.79501382e-02 1.64079797e-02
      9.06978101e-02 -1.21337250e-01 9.29399431e-02 -2.88389474e-01 0.
      1.75601676e-01 4.20266658e-01 -1.00921370e-01 1.74534976e-01
      8.44748616e-02 9.58328918e-02 -2.62672664e-03 -9.17398185e-02
      8.26401189e-02 -2.45144680e-01 2.17477724e-01 -1.44911826e-01
      -2.11224779e-01 -5.56204617e-02 8.56374204e-03 -6.72725514e-02
      -7.54278079e-02 -5.51193133e-02 -9.61654857e-02 3.43959630e-01
      -1.33038893e-01 -4.17680800e-04 6.06222227e-02 1.11128807e-01
      -5.41103743e-02 -1.94486037e-01 1.69646800e-01 8.33707824e-02
      -2.74642669e-02 1.70555934e-01 -1.27759159e-01 0. 5.36024161e-02
      -2.24300683e-01 -2.38062426e-01 8.02076235e-02 -9.84259099e-02
      1.38472185e-01 -1.17723353e-01 2.35393301e-01 9.47655439e-02
      -1.72814205e-01 9.22363773e-02 -2.68724398e-03 4.16218229e-02
      1.14230275e-01 3.60568389e-02 -2.03838143e-02 1.09456785e-01
      -9.45584327e-02 -2.73293227e-01 -2.07978971e-02 -1.58181086e-01
      1.09906249e-01 -4.02217396e-02 -5.67315407e-02 -1.06492966e-01
      1.91359997e-01 6.91772252e-02 1.09880410e-01 -1.03383213e-02
      3.02404296e-02 -1.17013715e-01 0. -1.81729853e-01 7.58094490e-02
      1.42570198e-01 1.63830265e-01 4.67507169e-02 9.04408172e-02
      1.73540190e-01 5.81004433e-02 4.38843481e-02 7.82328323e-02
      4.59807590e-02 1.55887753e-01 -4.38382626e-02 -9.12473425e-02
      -1.65432826e-01 -7.29323998e-02 -1.59916013e-01 8.94952044e-02
      5.61816841e-02 -3.99357267e-02 1.41396195e-01 8.27198699e-02
      6.57800883e-02 -7.79658407e-02 7.96004683e-02 -6.33020997e-02
      2.23114803e-01 2.08528534e-01 -9.06124711e-02 9.13243964e-02
      2.61907210e-03 0. 2.58762360e-01 -1.90577060e-02 -9.46489945e-02
      -1.54522076e-01 -1.37851909e-01 -8.37243944e-02 -4.54259664e-02
      -1.20942034e-01 5.86963706e-02 -1.94578737e-01 1.08016618e-01
      3.56521346e-02 6.82260767e-02 -4.25759368e-02 -1.04528442e-02
      8.40575993e-03 1.40579462e-01 -1.92481831e-01 -5.64976931e-02
      3.10662314e-02 -1.67668927e-02 -2.57163066e-02 -1.76600486e-01
      -2.44464148e-02 -5.72196059e-02 1.02552235e-01 -1.33439273e-01
      6.97465464e-02 -1.85783193e-01 8.66376981e-02 -1.67610258e-01 0.
      1.90249309e-01 4.87662032e-02 1.75573938e-02 1.03708647e-01
      -1.05348945e-01 1.30768716e-01 -5.58219142e-02 -3.15743834e-01
      6.35987744e-02 2.36454178e-02 2.74963081e-01 -1.15386538e-01
      1.54285356e-01 -2.01652214e-01 8.95597972e-03 8.76716673e-02
      9.61795002e-02 -1.24258623e-01 -2.94183828e-02 3.39922279e-01
      -3.46154906e-02 2.54107296e-01 -2.02872694e-01 -2.79784147e-02
      -4.39920686e-02 -1.44832224e-01 2.76937224e-02 1.86037764e-01
      -9.50229540e-02 5.07575646e-02 -8.77255481e-03 0. 3.08465920e-02
      9.17734280e-02 -7.21037686e-02 -1.66021630e-01 -1.70085147e-01
      9.75697190e-02 -1.69145584e-01 -1.31978780e-01 -2.42691506e-02
      -1.38952523e-01 7.37307370e-02 7.69471750e-02 -2.80278996e-02
      1.18817762e-01 1.49545506e-01 1.65450960e-01 7.60720670e-02
      -1.36494458e-01 -8.93221572e-02 5.35949990e-02 4.57181595e-02
      -3.81724313e-02 -2.90527265e-03 6.35207891e-02 4.24595363e-03
      -1.08377688e-01 -1.51825830e-01 1.19612627e-01 -9.49912667e-02
      1.06253609e-01 -2.04566523e-01 0. -3.57700616e-01 -1.78831115e-01
      -1.63933977e-01 8.61896649e-02 -6.73638806e-02 2.06198752e-01
      -1.18777297e-01 -1.45787284e-01 -5.95878698e-02 1.41480953e-01
      1.57048300e-01 -2.58674975e-02 6.20674975e-02 -5.44208810e-02
      -1.78396609e-02 2.98312642e-02 2.16240466e-01 7.29761049e-02
      -7.34490603e-02 -1.11256823e-01 -1.36542976e-01 1.90128058e-01
      -4.51383479e-02 1.75593153e-01 -3.55243497e-02 2.35631187e-02
      1.49456203e-01 4.53017168e-02 -9.14273318e-03 5.58277071e-02
      -1.94788232e-01 0. 6.22263364e-02 -9.82268006e-02 -8.36033970e-02
      -1.44996732e-01 2.22996533e-01 -2.33764723e-02 9.26818419e-03
      -2.55822241e-01 -6.20944761e-02 -3.54512542e-01 -3.87952966e-03
      3.04218650e-01 7.47481212e-02 -1.38186023e-01 -4.04293314e-02
      -2.10494874e-03 -6.91987127e-02 3.47098894e-02 -9.59616080e-02
      6.01647198e-02 1.83824927e-01 -2.99457368e-02 1.89304143e-01
      -1.09044693e-01 1.00346044e-01 -1.60106272e-01 -1.28213406e-01
      8.72836541e-03 -1.42282948e-01 -5.29745743e-02 -8.13502222e-02 0.
      -8.10759142e-02 1.20090703e-02 -9.94710475e-02 -8.29650760e-02
      1.66812673e-01 -1.30496904e-01 -1.86504841e-01 -1.07914038e-01
      1.39909714e-01 -1.76060200e-02 -1.46784171e-01 9.95500609e-02
      1.43011421e-01 4.06191684e-02 1.60389632e-01 -5.38145518e-03
      1.13598682e-01 1.00088425e-01 -6.25052750e-02 -1.49964318e-01
      -5.20272702e-02 6.60299733e-02 1.11582987e-01 9.88107547e-03
      -3.31965201e-02 9.39199254e-02 1.45317495e-01 1.16278216e-01
      -1.32420704e-01 1.01614311e-01 -2.99459901e-02 0. 1.95864793e-02
      8.75795409e-02 -1.73035949e-01 1.15818590e-01 7.15357587e-02
      -7.50196651e-02 1.06696114e-01 7.55210035e-03 4.04899120e-02
      1.10356770e-01 -2.11967081e-01 -5.09935021e-02 -8.30982625e-02
      1.86829269e-02 -5.47426976e-02 7.32441992e-02 -5.51645197e-02
      2.33056352e-01 -8.47363174e-02 -1.68020297e-02 -1.01580709e-01
      5.13978815e-03 -9.07523409e-02 -7.57113323e-02 1.42132938e-01
      -4.67797834e-03 2.69630432e-01 1.02967158e-01 -2.80111153e-02
      1.22402944e-01 -1.12234958e-01 0. 1.85982928e-01 5.34563139e-02
      -2.60852009e-01 -1.89395145e-01 -7.80068040e-02 6.95459638e-03
      2.75316477e-01 -8.36135074e-02 -1.84494495e-01 -4.86977547e-02
      -1.06318884e-01 -7.01981643e-03 -5.48348241e-02 3.55027840e-02
      -6.37808889e-02 1.44449845e-01 -8.86975229e-02 1.41090035e-01
      2.04057410e-01 -1.26279831e-01 -9.59632397e-02 -2.50417709e-01
      -1.01007536e-01 8.69736597e-02 3.03923607e-01 -2.39980221e-01
      -5.21690724e-03 5.39990105e-02 -5.07663824e-02 5.83657362e-02
      -2.13841096e-01 0. 1.04778498e-01 3.00903171e-02 -1.15328178e-01
      3.66135426e-02 1.23136856e-01 3.12957540e-02 -2.26780307e-02
      -2.99586952e-01 3.39478105e-02 -4.53777276e-02 9.75187123e-02
      1.26304567e-01 4.10058275e-02 1.41914666e-01 -1.09253563e-01
      -9.80310291e-02 1.21952429e-01 1.58704415e-01 -5.86376525e-02
      8.76683891e-02 6.06787130e-02 9.04543046e-03 8.76724571e-02
      1.46909550e-01 -4.48689200e-02 3.82344867e-03 1.16137378e-01
      -3.20909056e-03 4.43692692e-02 8.69167149e-02 4.02165800e-02 0.
      -1.34997860e-01 -9.18135792e-02 1.09372502e-02 1.20556444e-01
      -7.42044896e-02 1.49476469e-01 1.44978538e-01 1.43051669e-01
      6.69456739e-03 -1.33917153e-01 7.09638596e-02 -1.97010994e-01
      1.70232598e-02 -6.98731244e-02 3.04341279e-02 -2.32021049e-01
      -1.09752528e-01 -4.23136279e-02 -1.66403040e-01 5.97645901e-02
      -4.65972982e-02 1.39010593e-01 -5.63472249e-02 1.53228194e-01
      1.60304978e-02 1.48842737e-01 2.51628309e-01 1.18327118e-01
      -9.07543451e-02 -1.50096361e-02 -1.97252050e-01 0. 1.84808701e-01
      -3.16751748e-02 -2.56340742e-01 -3.90910730e-02 -9.36967358e-02
      -2.42309757e-02 -6.31194487e-02 4.46850173e-02 -6.99262396e-02
      -1.90959528e-01 9.99102145e-02 1.25554234e-01 -5.77857606e-02
      2.62297653e-02 -1.19161703e-01 -1.45655632e-01 6.06953837e-02
      1.95998162e-01 1.17398433e-01 2.36688852e-01 6.34397864e-02
      -9.44125503e-02 -2.16844529e-02 3.66391689e-02 -9.42231715e-02
      2.53880080e-02 5.00054546e-02 1.50105860e-02 -1.23491295e-01
      8.84481296e-02 -1.46730572e-01 0. -1.42873237e-02 -1.18984535e-01
      -1.98561326e-01 -1.21911086e-01 -6.28072917e-02 2.98356205e-01
      5.57037294e-02 8.49712715e-02 5.68602160e-02 -1.55617878e-01
      1.82422772e-01 1.58570871e-01 2.21080467e-01 -1.04666464e-02
      -3.77963245e-01 2.40235124e-03 1.58021301e-01 -1.31310120e-01
      -1.35393053e-01 1.01252168e-01 9.76477861e-02 3.72609496e-02
      -7.42574409e-02 -6.86701834e-02 3.70616391e-02 1.03423476e-01
      -1.09776102e-01 2.32643504e-02 -5.38188852e-02 1.06546424e-01
      -6.35093823e-02 0. -7.28612617e-02 -1.10096186e-02 4.85147536e-03
      4.78358679e-02 1.48156866e-01 -7.49361664e-02 -1.32717133e-01
      -2.16804683e-01 -5.80798015e-02 -4.12078947e-02 -1.01313256e-01
      1.94808930e-01 5.12578338e-02 -3.47569585e-01 1.41273078e-04
      2.02015445e-01 1.41061530e-01 1.20899819e-01 -1.39728323e-01
      -8.99941772e-02 1.36094347e-01 9.01722386e-02 -1.07462205e-01
      -6.92472830e-02 3.28056104e-02 7.08231628e-02 1.40575645e-02
      1.22876570e-01 -3.89949232e-03 -6.23091571e-02 -1.25242680e-01 0.
      -8.03937912e-02 5.46722598e-02 -1.06206581e-01 -3.19031663e-02
      -6.10652380e-02 -2.39303380e-01 -4.01400514e-02 -2.42216155e-01
      -7.41373328e-03 2.73654461e-01 2.34345123e-01 9.57944021e-02
      -1.61552370e-01 -2.32071772e-01 9.56805944e-02 5.36430702e-02
      1.10706776e-01 8.96504521e-02 1.08732410e-01 1.64870262e-01
      -6.84807971e-02 -8.29852223e-02 -1.39404200e-02 -1.16278112e-01
      6.60448289e-03 4.11845446e-02 1.50057510e-01 7.89430737e-02
      -1.03062108e-01 2.23535821e-02 -8.97422582e-02 0. -1.10178269e-01
      -2.47985367e-02 1.45379454e-01 2.30263233e-01 9.89411920e-02
      9.94691700e-02 1.09918512e-01 6.41752779e-02 -3.16914655e-02
      -1.69411108e-01 1.15498155e-02 -1.48257613e-01 -2.99520642e-01
      1.40198749e-02 -3.80799659e-02 -6.25565276e-02 -1.76182598e-01
      2.07407754e-02 -1.47312924e-01 3.27891558e-01 5.09976931e-02
      -1.34388711e-02 1.40857637e-01 -7.16330623e-03 9.84820575e-02
      -1.00619430e-02 8.09738934e-02 3.77703086e-02 -1.06654949e-01
      6.14948198e-02 -1.18106008e-01 0. 1.05502129e-01 1.41966194e-02
      1.11120753e-01 1.92276295e-02 5.70376217e-02 -6.61490560e-02
      -1.21791922e-01 2.03811303e-01 -1.59981288e-02 -1.74477324e-01
      8.41365606e-02 1.76359490e-02 3.87551039e-02 8.78372043e-02
      -1.68839917e-02 7.56842792e-02 -2.12389171e-01 -5.04457764e-02
      -9.14853141e-02 2.18177110e-01 4.91641052e-02 -3.50352786e-02
      -6.16713651e-02 -2.06561554e-02 6.07967861e-02 3.54168974e-02
      -5.76786837e-03 1.47506416e-01 -1.34649798e-01 1.13284893e-01
      -5.22213392e-02 0. -1.58689562e-02 -2.27220673e-02 -1.44039318e-01
      -1.22704573e-01 3.55421871e-01 -1.28181174e-01 -1.92475334e-01
      -9.73959640e-02 -3.11619006e-02 -1.86350234e-02 6.86525702e-02
      2.26474538e-01 -7.54268691e-02 -7.29098096e-02 4.82925810e-02
      8.47992972e-02 1.12385429e-01 4.54783775e-02 -3.05461049e-01
      8.17379332e-04 1.12690575e-01 -1.95358694e-01 1.75673459e-02
      -1.44073769e-01 -1.02133326e-01 3.56351811e-04 4.20099124e-02
      6.49694353e-02 -1.44407824e-01 1.85943514e-01 -9.70847756e-02 0.
      3.48611027e-02 -1.84182897e-01 -3.80865671e-02 6.78908825e-02
      -1.95894696e-04 4.38191220e-02 4.76998873e-02 -4.39991541e-02
      3.13089788e-02 1.28315911e-01 1.72661692e-02 -1.99747846e-01
      7.04206526e-02 -4.47861925e-02 -9.85238180e-02 -1.28651038e-01
      2.26627886e-02 -1.38628483e-01 2.20197976e-01 -3.62199426e-01
      -1.33625120e-01 -5.72594814e-03 -1.78137958e-01 4.83868569e-02
      -1.20471649e-01 -3.27836536e-02 -5.31754689e-03 -1.50887430e-01
      -3.53751518e-02 1.26937315e-01 -1.35153830e-01 0. 2.48749759e-02
      -7.08622858e-02 -1.06236354e-01 7.24585215e-03 1.93557337e-01
      1.81952298e-01 -1.06523305e-01 -5.54809645e-02 5.07336408e-02
      -1.84837550e-01 9.70336050e-02 -9.82098840e-03 1.92281201e-01
      -1.16927838e-02 -2.07683221e-01 -5.75412661e-02 -1.25918195e-01
      1.11209545e-02 3.74516733e-02 -4.15047072e-02 -8.21904615e-02
      8.79420489e-02 2.28690475e-01 8.72154534e-02 -1.47087678e-01
      -7.43206814e-02 1.08039416e-01 -5.86052760e-02 -3.04831993e-02
      -1.03043601e-01 1.08318448e-01 0. 3.42536494e-02 -1.19770572e-01
      2.24876434e-01 -2.30987296e-01 -2.28978023e-01 3.29483822e-02
      3.93796014e-03 -7.67543539e-02 2.63012320e-01 -1.05272762e-01
      -3.61691378e-02 -2.47824669e-01 2.18199015e-01 3.30872126e-02
      -1.98253170e-01 7.35568115e-03 1.98982451e-02 -2.47555017e-01
      -1.15127534e-01 8.61648098e-02 -4.57553938e-02 2.89644841e-02
      -1.20082431e-01 -1.19348295e-01 -3.51445638e-02 -8.82200599e-02
      -3.53309400e-02 -6.02103360e-02 -2.59397209e-01 5.05166873e-02
      -3.92029956e-02 0. -9.40843660e-04 1.61948621e-01 2.30760723e-02
      7.74663538e-02 -4.11282778e-02 -1.87561542e-01 -2.41881207e-01
      1.79938152e-01 3.66449449e-03 5.69951385e-02 -1.64728329e-01
      3.99254423e-05 -8.10679272e-02 -2.52351761e-01 -9.01177004e-02
      1.91051006e-01 -1.25118300e-01 -1.86399166e-02 -6.27133772e-02
      -1.60924289e-02 -6.11470873e-03 -3.82359140e-02 -1.29253581e-01
      -2.19996125e-01 -8.30527302e-03 3.42965173e-03 1.50100499e-01
      9.29906964e-02 1.67916212e-02 -8.77819508e-02 -2.62110800e-01 0.
      -1.61606111e-02 -1.23826057e-01 -1.00030586e-01 -1.55775668e-02
      1.82473570e-01 2.19710603e-01 -1.13690579e-02 6.35287240e-02
      -1.22362385e-02 -9.67928674e-03 1.10987365e-01 -1.26445800e-01
      -2.01569512e-01 -3.42180401e-01 -9.85134766e-03 1.53023064e-01
      -6.83608577e-02 9.54596773e-02 8.16678256e-02 2.56298762e-02
      -1.12221375e-01 -1.37068659e-01 5.12975976e-02 2.35812232e-01
      4.49237414e-02 7.80105544e-03 4.86791953e-02 -5.20795733e-02
      9.49241966e-02 -7.49121606e-02 -6.79184198e-02 0. 7.59448707e-02
      -3.06876749e-03 9.68033448e-03 6.84098676e-02 6.66492730e-02
      2.95841657e-02 5.33176810e-02 -2.70176288e-02 -1.42578930e-01
      2.86249220e-02 2.02279794e-03 1.17048584e-02 -3.12021114e-02
      -1.87323973e-01 -1.18056349e-02 1.37666255e-01 -1.70927599e-01
      7.11072087e-02 1.89419121e-01 8.70881751e-02 7.62474462e-02
      1.90493427e-02 5.60326828e-03 -7.03482479e-02 1.28933471e-02
      -1.33702278e-01 -2.40943268e-01 5.04679717e-02 -3.55055146e-02
      -3.62767912e-02 1.22575695e-02 0. 1.98164769e-02 7.63522973e-03
      -1.28500387e-01 -1.43377157e-02 -9.73551795e-02 -1.05879232e-02
      -4.14397828e-02 -1.70261309e-01 -1.85144246e-01 -1.45282298e-01
      -2.18983084e-01 -4.53366414e-02 2.73269247e-02 -8.74071848e-03
      2.65138969e-02 1.93134815e-01 -8.55767578e-02 -3.00192274e-02
      -1.48363933e-01 -1.59519687e-01 -2.04418749e-01 -6.33295327e-02
      -7.44227469e-02 2.55761836e-02 9.29161459e-02 -6.04647584e-02
      -1.05162725e-01 3.22274193e-02 -1.16681732e-01 -1.69946328e-01
      -1.73224106e-01 0. 2.25808024e-01 1.18931159e-01 1.46962022e-02
      -4.30941395e-02 9.82049778e-02 -5.42154200e-02 -1.17244177e-01
      -2.93169487e-02 1.75960913e-01 2.84595601e-02 -2.61540920e-01
      1.51963802e-02 -1.86587253e-03 2.94802696e-01 9.52986255e-02
      -1.51635692e-01 -9.26548839e-02 -1.32486373e-01 2.22881556e-01
      2.73487233e-02 1.55452266e-01 -9.74316671e-02 -1.01361135e-02
      7.31436238e-02 -1.61922351e-01 -7.46159181e-02 8.22626874e-02
      7.15599880e-02 -2.48113237e-02 8.38813186e-02 -4.42204066e-02 0.
      2.34827206e-01 -1.19479597e-01 -2.98943996e-01 -6.85697645e-02
      6.34178668e-02 -1.45412996e-01 9.91364717e-02 3.67057212e-02
      1.31343633e-01 1.02630388e-02 9.73449498e-02 -2.09839776e-01
      4.65526097e-02 -3.76396142e-02 -1.13908857e-01 -2.03172658e-02
      1.19741127e-01 9.44825485e-02 1.80980906e-01 6.65792497e-03
      -2.54561424e-01 2.08548661e-02 2.45773196e-02 -6.34805858e-02
      1.14107586e-01 2.19350368e-01 1.52510226e-01 -1.25093773e-01
      -1.61899462e-01 1.68533042e-01 8.06083977e-02 0. -1.10623695e-01
      2.37096742e-01 -1.89317409e-02 6.75845444e-02 -4.42436114e-02
      1.91729084e-01 1.41965553e-01 -1.10948402e-02 5.18965460e-02
      -9.71002579e-02 -1.68866273e-02 -7.82866478e-02 1.22007675e-01
      1.52024701e-01 -1.75405238e-02 6.20539524e-02 8.21126029e-02
      -1.92454830e-01 -1.12070255e-01 6.97185844e-02 -4.48851176e-02
      8.37803334e-02 -5.08484244e-02 1.65118039e-01 1.39623359e-01
      1.13069206e-01 3.40075977e-02 1.69523433e-01 3.99621986e-02
      1.33302405e-01 -9.70431268e-02 0. 1.03610575e-01 5.55728376e-02
      -4.90817763e-02 5.98832443e-02 1.02194123e-01 1.51479945e-01
      2.46954322e-01 2.81085782e-02 -2.95818523e-02 9.32786497e-05
      -7.95563459e-02 -2.87614111e-02 -7.15872049e-02 -1.68815568e-01
      -2.09637970e-01 5.62052727e-02 9.04341713e-02 2.65451726e-02
      2.06396565e-01 1.45178974e-01 -1.15207337e-01 9.31840315e-02
      -5.19557893e-02 -5.18850572e-02 2.76418746e-01 3.95185687e-02
      9.44473892e-02 7.64618292e-02 -5.28980047e-02 1.40338317e-01
      -2.99965348e-02 0. -6.38636854e-03 1.92364845e-02 -6.63685519e-03
      2.57851839e-01 6.74918815e-02 7.66470581e-02 1.36851836e-02
      -1.27118528e-01 -1.51832076e-02 8.48691612e-02 -6.18732870e-02
      5.47949225e-02 -8.51006284e-02 -2.45137274e-01 -1.04755312e-01
      4.06418443e-02 1.02228686e-01 -8.14022347e-02 7.80287981e-02
      8.94285738e-02 3.56494752e-03 2.45175868e-01 -1.45815268e-01
      -6.70476332e-02 1.30542263e-01 -4.50541219e-03 6.91804960e-02
      6.12363815e-02 8.33664276e-03 2.68698055e-02 -1.04054317e-01 0.
      -3.69852446e-02 -2.27213725e-02 -2.70880237e-02 8.33844617e-02
      2.65430182e-01 -3.17682214e-02 -5.80229759e-02 -4.44295220e-02
      1.44075602e-01 -4.29454632e-02 -2.75074132e-02 -6.79102242e-02
      1.06177077e-01 1.39916642e-02 4.78760302e-02 7.74597675e-02
      -6.19709902e-02 -2.32776124e-02 -1.05848862e-02 4.76874150e-02
      -1.40241859e-02 1.60852805e-01 1.96055904e-01 -5.54043800e-02
      -1.60890922e-03 -5.83393238e-02 -2.35545752e-03 5.38279079e-02
      -1.24742221e-02 8.60952213e-02 1.10331364e-02 0. -9.65505764e-02
      9.12695527e-02 7.13570230e-03 -8.18336569e-03 1.15615278e-01
      1.40119195e-01 -6.93919063e-02 -1.96257651e-01 -1.14506774e-01
      3.04032892e-01 1.77214041e-01 1.76336676e-01 3.63261737e-02
      3.96046489e-02 -6.25605434e-02 -4.47131284e-02 -1.93623364e-01
      1.06933676e-01 1.88006669e-01 1.49849430e-01 2.03312159e-01
      5.71112074e-02 1.71053007e-01 7.17540383e-02 -2.42557693e-02
      -1.94479421e-01 8.15585628e-02 9.85394418e-02 1.36426941e-01
      -3.12796049e-02 -1.09782610e-02 0. -1.17674947e-01 -1.65214151e-01
      1.16139455e-02 8.61016586e-02 -3.95110473e-02 -4.26688464e-03
      -9.36034620e-02 -1.44615650e-01 -1.46152198e-01 3.30797508e-02
      -2.19220668e-01 -1.46592632e-01 -2.15948343e-01 -3.37228701e-02
      -4.13239710e-02 3.02047074e-01 -4.85968590e-03 9.23421904e-02
      -5.49952760e-02 -1.00787312e-01 -1.24044856e-02 2.65213531e-02
      -2.34522279e-02 3.97239663e-02 1.78725123e-01 -2.57474370e-02
      2.62334254e-02 -1.14488475e-01 -2.16566864e-02 -1.39232472e-01
      -1.24144167e-01 0. 1.85160011e-01 9.37219767e-04 -3.29135358e-01
      1.37898743e-01 1.46024942e-01 -4.27355897e-03 -1.03688635e-01
      -2.24188175e-02 2.46454239e-01 7.10725039e-02 -9.58826914e-02
      -9.27449018e-02 -5.46337590e-02 6.19639121e-02 2.31407005e-02
      3.86114977e-02 1.60882503e-01 2.84110084e-02 2.79514957e-02
      7.10851252e-02 -8.83462206e-02 4.95521091e-02 2.79166341e-01
      1.03176571e-01 -2.01090455e-01 1.51907280e-01 2.41250083e-01
      -7.43220448e-02 6.34101406e-02 8.87985080e-02 1.09626673e-01 0.
      2.23106593e-01 1.35106780e-02 -1.16864093e-01 2.27540150e-01
      2.06216425e-01 3.49346586e-02 -8.60933289e-02 -3.33228223e-02
      -2.09906638e-01 -3.77096385e-01 -1.61768690e-01 5.57622313e-02
      -1.20709933e-01 3.78283374e-02 3.20166186e-03 2.41759252e-02
      -2.28232667e-02 1.47216633e-01 5.03947325e-02 -1.01768449e-01
      4.22822312e-02 1.03724271e-01 2.86703953e-03 3.84107418e-02
      -7.45441066e-04 1.92697684e-03 -3.45281959e-02 -7.67392367e-02
      -1.29671092e-03 -1.54995248e-01 1.59920886e-01 0. 5.23894764e-02
      5.27177528e-02 3.70700844e-02 -9.98942088e-03 -1.36560043e-02
      -1.12060402e-02 -1.25970811e-01 -1.11848377e-02 1.97067577e-02
      1.07849106e-01 1.28503948e-01 -7.45617896e-02 -5.77744804e-02
      2.70019561e-01 -4.89489846e-02 -1.53203145e-01 6.48500845e-02
      -2.62546428e-02 9.31778774e-02 1.58613518e-01 -2.17444766e-02
      -7.38076568e-02 1.05739951e-01 -1.29046496e-02 -2.28904650e-01
      8.63602906e-02 1.31022558e-01 1.05593592e-01 9.80400965e-02
      -5.97743057e-02 -4.94113341e-02 0. -2.98226401e-02 2.92693879e-02
      2.03481570e-01 -1.04427403e-02 -4.98873787e-03 -6.02382123e-02
      -1.81949511e-01 -2.03285813e-01 1.44216288e-02 -1.89032882e-01
      -3.47518325e-02 -3.84655595e-03 -1.12349160e-01 5.16305529e-02
      1.57219887e-01 -1.29795708e-02 1.80612449e-04 2.33755752e-01
      -1.97601337e-02 1.12496756e-01 1.14277184e-01 -1.57052260e-02
      8.49107578e-02 2.88712643e-02 -1.78630486e-01 -1.20246209e-01
      1.38380438e-01 -2.69343574e-02 -3.15025188e-02 1.86334271e-02
      -3.26640345e-02 0. -1.60128698e-01 -6.27348246e-03 -7.47588128e-02
      -1.77884400e-01 -6.32419661e-02 -2.70873401e-02 -4.35815081e-02
      1.76658407e-01 5.84977195e-02 -1.63187712e-01 1.72742963e-01
      5.74145950e-02 -3.09331100e-02 2.10335150e-01 1.47238061e-01
      -4.84998636e-02 -1.54630929e-01 -7.51112252e-02 -6.16624430e-02
      1.33298129e-01 -9.28478129e-03 -1.20486014e-01 2.76773516e-02
      1.78989425e-01 -3.61036845e-02 -1.02906087e-02 1.06745213e-01
      8.36042513e-04 -3.46304514e-02 -2.21341327e-02 -3.94979417e-02 0.
      1.09869353e-01 2.22454034e-02 5.94673194e-02 -1.38860896e-01
      1.08875141e-01 -1.24071449e-01 -1.43006653e-01 2.91842166e-02
      8.35444182e-02 1.00863867e-01 -5.15493751e-02 1.19116329e-01
      -1.43605188e-01 -3.97375189e-02 3.03994030e-01 1.46098748e-01
      2.72538401e-02 2.38363817e-01 5.77179790e-02 1.00091726e-01
      2.12546319e-01 -2.66806453e-01 4.60779592e-02 1.70208633e-01
      -1.43507021e-02 2.91500073e-02 2.18029723e-01 -3.52982339e-03
      6.33735210e-02 1.21776670e-01 1.52152196e-01 0. -3.19787890e-01
      -1.64748594e-01 -1.61880422e-02 -1.45312399e-01 8.81278813e-02
      1.88557550e-01 1.57418922e-01 -1.79914951e-01 3.72428261e-02
      9.35497060e-02 2.73223203e-02 -5.52957244e-02 -7.94098824e-02
      -1.35882989e-01 6.20564409e-02 -7.08985776e-02 4.39419039e-02
      -1.63244560e-01 -1.05417795e-01 -1.67406484e-01 -1.84145216e-02
      -1.68099567e-01 -1.02211855e-01 3.47372927e-02 9.09600183e-02
      -5.69154546e-02 -9.06813145e-02 -1.40962690e-01 2.99487356e-03
      -1.20849863e-01 -3.93269174e-02 0. 1.70236468e-01 2.22085536e-01
      -6.83404207e-02 1.36204824e-01 -1.21356815e-01 2.45549413e-03
      -1.16113387e-01 -2.89712846e-01 2.49157865e-02 1.47201836e-01
      -1.02134254e-02 -8.92285351e-03 -6.50356188e-02 -6.90058842e-02
      -5.99749852e-04 1.19801071e-02 8.19820911e-02 -5.60651943e-02
      8.20945501e-02 3.34575951e-01 1.27026275e-01 2.70050198e-01
      7.15240464e-02 -1.19058611e-02 -2.15100329e-02 -7.84825087e-02
      -2.10656837e-01 -6.07199222e-02 6.46016821e-02 -3.48582328e-03
      -4.31049801e-03 0. -5.34584336e-02 4.80364785e-02 3.19802910e-02
      -1.89873986e-02 -2.42108494e-01 3.73847671e-02 1.16299428e-01
      -1.98972803e-02 3.17808129e-02 3.59507352e-02 2.31087178e-01
      5.64214922e-02 -1.11684091e-02 2.95740157e-01 9.09041520e-03
      -2.02504769e-01 -1.44829571e-01 4.41733487e-02 -1.05199128e-01
      2.00096980e-01 1.89365327e-01 3.52554433e-02 1.77452758e-01
      3.21350396e-01 4.46374640e-02 4.52122502e-02 7.39511773e-02
      -1.11445621e-01 2.63933148e-02 6.35478422e-02 1.36993214e-01 0.
      3.78558598e-02 -1.47794664e-01 -9.15428922e-02 2.40122393e-01
      3.05395693e-01 -7.93671608e-03 -2.25630954e-01 2.08414406e-01
      -6.33664206e-02 -2.27834135e-01 -4.35747430e-02 1.32570013e-01
      -1.09990962e-01 -1.05964400e-01 -1.99550427e-02 -1.16428614e-01
      -2.35392749e-01 8.69453400e-02 1.93375945e-01 -1.23715855e-01
      9.44023877e-02 1.41966015e-01 -2.13056818e-01 4.22273055e-02
      -1.47757575e-01 4.88907099e-02 2.03783676e-01 -1.42203555e-01
      3.88984606e-02 -1.57497317e-01 7.97335953e-02 0. -6.57335110e-03
      2.05189586e-02 -2.08544537e-01 -4.39969525e-02 2.95147181e-01
      -3.91447321e-02 3.77502814e-02 1.73527837e-01 3.45501117e-02
      -1.61899701e-01 5.37079498e-02 -1.57495841e-01 -1.27191246e-01
      5.84723651e-02 2.04139292e-01 8.57620835e-02 -1.02047086e-01
      1.98693443e-02 -4.04154137e-02 6.99165165e-02 -2.29112431e-01
      -5.55900037e-02 -2.19653860e-01 6.42776862e-02 2.37902656e-01
      1.78407475e-01 1.84920043e-01 1.28692880e-01 1.92822844e-01
      -1.96787626e-01 -6.03575855e-02 0. -1.73854932e-01 -1.96630135e-01
      1.94945008e-01 -8.51621255e-02 1.62939560e-02 9.30852219e-02
      -1.08673163e-01 -6.28526062e-02 1.18969120e-01 -2.62779295e-02
      -1.00735456e-01 -2.69040223e-02 -1.61815345e-01 2.04119191e-01
      2.69090950e-01 7.64543191e-03 -2.26116717e-01 1.36419162e-01
      -1.53865740e-01 -1.20624326e-01 1.78107828e-01 -1.55597627e-01
      -4.32459339e-02 5.08958995e-02 6.66795298e-02 -1.05770566e-01
      2.14793727e-01 -5.71259297e-02 7.57001415e-02 -1.38262987e-01
      5.91353439e-02 0. -6.89610690e-02 1.19980760e-01 -3.49149033e-02
      -2.49663405e-02 3.32589149e-02 4.47489619e-02 -7.82900453e-02
      1.58266485e-01 -1.75049096e-01 -9.87309590e-02 1.47961557e-01
      -2.32803166e-01 6.51510581e-02 1.61510244e-01 8.46146122e-02
      -2.14247257e-01 -1.00695327e-01 1.57325696e-02 -2.36754358e-01
      2.67201036e-01 -8.62473547e-02 1.31005451e-01 -3.53143737e-02
      -8.98098946e-03 -2.28050306e-01 1.16274402e-01 6.00310043e-03
      -1.10603414e-01 1.98894423e-02 -6.85919151e-02 6.62359148e-02 0.
      -9.19958204e-02 1.19414650e-01 5.30222543e-02 1.07077152e-01
      5.50295524e-02 1.44238696e-01 -3.61562613e-03 -2.20063165e-01
      3.29747349e-02 8.41479599e-02 1.76810175e-02 -9.01408345e-02
      1.33083835e-01 9.96479616e-02 8.74592960e-02 -4.57800552e-02
      -1.88224137e-01 1.29577175e-01 6.75305724e-02 2.00178698e-01
      3.87047194e-02 3.17804098e-01 -5.90602607e-02 -2.70323724e-01
      5.13510127e-03 -2.36297786e-01 1.36663198e-01 -9.26533490e-02
      -4.15203422e-02 1.67996064e-01 1.65831834e-01 0. -2.09285617e-01
      2.29584100e-03 7.80186355e-02 -2.26120174e-01 2.12938637e-02
      7.29907081e-02 1.95355117e-01 -2.00205222e-02 -1.11233830e-01
      -4.34915489e-03 1.07018994e-02 -1.76633805e-01 -1.04551405e-01
      1.49578825e-01 2.02581380e-02 -1.66758783e-02 7.99520761e-02
      6.72899410e-02 4.03836742e-02 1.16356671e-01 -2.80364472e-02
      -1.16197519e-01 2.70594992e-02 -6.39600307e-02 1.43782437e-01
      1.52619988e-01 -5.06312661e-02 -1.09852649e-01 8.81132334e-02
      -7.13759586e-02 1.24421353e-02 0. 6.65431842e-02 -1.65081427e-01
      -1.79556295e-01 -3.13897803e-02 -9.84669328e-02 2.50527233e-01
      2.26982445e-01 5.34770228e-02 5.62714189e-02 1.24723390e-01
      7.31317932e-03 3.48262372e-03 -2.44104285e-02 -2.47750089e-01
      -1.01498991e-01 -3.08641613e-01 -8.24972540e-02 -9.11296718e-03
      8.60142857e-02 -8.95072296e-02 -1.66077930e-02 -4.95448858e-02
      -1.58027217e-01 3.71305496e-02 9.79985893e-02 7.28691369e-02
      -3.70742679e-02 -1.32195160e-01 5.94888516e-02 -1.80585384e-01
      3.68788950e-02 0. -1.77329145e-02 1.25795215e-01 1.58448309e-01
      -2.73576170e-01 -8.55387449e-02 2.87367225e-01 3.14123869e-01
      -3.03114182e-04 -7.83254579e-02 9.62032378e-02 1.05335101e-01
      -1.87694684e-01 1.15948366e-02 1.29574537e-01 -8.10068920e-02
      -1.10851511e-01 8.37370008e-02 -1.06921151e-01 -1.48807630e-01
      2.89064616e-01 8.48741978e-02 -1.95751429e-01 -1.26162753e-01
      6.01577908e-02 1.20609291e-01 1.29085809e-01 -3.27148736e-02
      -2.36091409e-02 1.31783495e-02 -2.10637902e-03 1.87062964e-01 0.
      -1.47697523e-01 1.89783871e-01 9.08974335e-02 -1.20416947e-01
      1.26162291e-01 8.12742561e-02 -1.17368758e-01 6.23610392e-02
      6.36223480e-02 -3.53755020e-02 -8.08622986e-02 -8.24556053e-02
      -3.51305380e-02 2.60064811e-01 7.03871846e-02 -6.31062835e-02
      -1.23724714e-02 -4.79308441e-02 1.94607731e-02 7.49628246e-02
      -1.45636965e-02 -7.42791221e-02 1.44270033e-01 1.07773423e-01
      -8.87114555e-03 4.19905894e-02 -3.96382809e-02 -7.92257935e-02
      8.84470269e-02 -5.42686284e-02 1.40193090e-01 0. 1.84668973e-01
      2.24029630e-01 -2.61516925e-02 -1.05032519e-01 3.29750627e-01
      -1.12304054e-01 -1.97749317e-01 -7.32527450e-02 8.15358758e-02
      -5.50606474e-02 -1.30841225e-01 1.66482419e-01 -1.68051913e-01
      3.69097926e-02 8.12601522e-02 5.60362488e-02 1.63111463e-01
      1.61748886e-01 -1.38139173e-01 1.37833863e-01 2.67837588e-02
      -1.16099022e-01 2.10368201e-01 -2.16848478e-02 4.55436148e-02
      -9.15668812e-03 2.62747765e-01 4.78141233e-02 2.29597792e-01
      -1.06752887e-01 1.20237179e-01 0. 1.41855180e-01 1.21137530e-01
      2.08989695e-01 -4.80605252e-02 2.64850836e-02 1.74676806e-01
      -1.13868237e-01 1.10011332e-01 -8.50375965e-02 5.46935052e-02
      -2.26945151e-03 -2.20120586e-02 -1.38537316e-02 -2.44682864e-03
      1.67384073e-01 -6.59089535e-02 1.45445438e-02 1.38723463e-01
      7.65367076e-02 1.10631771e-01 1.23953655e-01 4.36737016e-02
      1.64779425e-01 1.27316445e-01 2.72399429e-02 -3.55321867e-03
      1.68372229e-01 3.46855260e-02 1.55916557e-01 -3.50765772e-02
      2.23972201e-01 0. 1.53990299e-01 -1.32457346e-01 -2.92019490e-02
      -1.49461284e-01 1.78820372e-01 9.93703604e-02 4.60885018e-02
      2.39071369e-01 -2.98057180e-02 3.32361795e-02 2.65933871e-01
      1.23978041e-01 -1.03728466e-01 1.89832181e-01 -2.27755848e-02
      -4.47526621e-03 -2.22017150e-02 -1.35395303e-02 1.02246210e-01
      2.67828435e-01 5.67091554e-02 -2.92489063e-02 2.51635909e-01
      1.59115359e-01 -3.66740040e-02 1.27848521e-01 2.75801234e-02
      2.47046500e-02 2.10286483e-01 3.13467123e-02 1.21470883e-01 0.
      -6.58661649e-02 8.46677050e-02 -1.90116614e-01 -1.98311076e-01
      -1.87598422e-01 2.15460062e-01 -1.46036193e-01 -5.77722676e-02
      1.43647447e-01 1.04116015e-01 1.18688002e-01 2.07183644e-01
      1.06452771e-01 7.07799047e-02 2.01098979e-01 -1.88494444e-01
      2.73045212e-01 -9.24741253e-02 -9.38285664e-02 1.83504552e-01
      -6.12636358e-02 6.80939183e-02 2.81179268e-02 2.55003363e-01
      -2.43580654e-01 8.40388462e-02 1.06546402e-01 -9.14308652e-02
      1.03968084e-01 2.94732815e-03 1.72354370e-01 0. 1.37908552e-02
      3.68985794e-02 -8.38134438e-02 -5.18406890e-02 1.70415696e-02
      4.30406928e-02 -1.35745436e-01 3.42902243e-02 1.69459775e-01
      -2.03032028e-02 3.07010114e-03 7.58776143e-02 -1.14208541e-03
      1.74148723e-01 9.79514048e-02 -1.01577476e-01 -1.46445548e-02
      -3.02752834e-02 2.06159577e-02 -3.95249017e-02 5.28655648e-02
      1.25977203e-01 1.55897886e-01 7.02330619e-02 -1.52139619e-01
      1.53354965e-02 1.06424354e-01 -5.87980961e-03 1.07680239e-01
      -6.29010797e-02 6.77441880e-02 0. 1.17700070e-01 -1.17516629e-02
      -4.67942208e-02 -8.81238841e-03 -1.06824385e-02 1.82259947e-01
      4.01028171e-02 8.37208182e-02 1.17494576e-01 6.96121752e-02
      -4.02520448e-02 1.32925823e-01 1.20554514e-01 1.04436807e-01
      -1.01976335e-01 -2.24467725e-01 -9.04882923e-02 -1.26777321e-01
      2.55684331e-02 5.50753884e-02 1.97730854e-01 1.13891117e-01
      1.58763096e-01 -9.78245120e-03 -1.80228934e-01 -7.92762917e-03
      -2.13036370e-02 5.45810536e-02 6.65638521e-02 -5.53236976e-02
      7.88067356e-02 0. -3.90600711e-02 7.65362903e-02 1.78157493e-01
      -9.83881578e-02 -1.18784860e-01 -6.65002540e-02 2.22865045e-02
      1.05275191e-01 -9.08142701e-02 -2.18711078e-01 -5.49139753e-02
      2.15596296e-02 1.54412761e-01 2.72887677e-01 -2.96398066e-02
      -3.58313829e-01 6.26369100e-03 4.52681109e-02 -1.59144223e-01
      -3.64393219e-02 2.57081121e-01 1.01719633e-01 1.49862291e-02
      -1.04122415e-01 -2.07950845e-01 1.73535287e-01 -2.01413035e-02
      1.71951443e-01 -8.31902996e-02 -8.69701505e-02 -9.25255865e-02 0.
      1.19297937e-01 5.50234830e-03 -7.82226771e-02 5.57068400e-02
      -1.73407540e-01 3.78704667e-02 -1.96806118e-02 9.33025405e-02
      -2.31432784e-02 -3.77088301e-02 -1.56732038e-01 -1.38893396e-01
      -8.87761861e-02 2.28567675e-01 -3.63770910e-02 -9.77501348e-02
      6.76630139e-02 2.23651648e-01 1.24515891e-02 5.90956304e-04
      -2.71960646e-02 1.16795572e-02 -8.91926363e-02 1.21892072e-01
      -1.10283546e-01 1.94255129e-01 2.16621429e-01 -9.27896705e-03
      -1.57012399e-02 1.42108714e-02 1.75175571e-03 0. -2.33688746e-02
      -1.45381823e-01 -8.85150433e-02 -1.27418209e-02 8.44167992e-02
      1.50904521e-01 4.41818014e-02 5.97150065e-02 -5.75561970e-02
      -1.26830190e-01 -4.76603098e-02 3.96546461e-02 -1.00419618e-01
      6.72351047e-02 -1.18698720e-02 -4.81212698e-02 -5.19300178e-02
      -1.37290195e-01 -9.13152620e-02 -1.29379258e-01 7.66332448e-02
      8.98843780e-02 1.53215483e-01 1.45584196e-01 5.77269718e-02
      5.75528257e-02 -8.11019316e-02 5.06292470e-02 1.16134975e-02
      -1.39795601e-01 -1.13636278e-01 0. 3.05264324e-01 -2.96676531e-02
      1.30557358e-01 8.00073426e-03 -8.91886428e-02 -1.21293873e-01
      -5.74494414e-02 7.38884509e-02 1.06343612e-01 -9.19710994e-02
      -1.03843413e-01 -2.43467137e-01 -9.31175426e-02 2.52478987e-01
      1.04690203e-02 -6.87929690e-02 4.94280225e-03 -8.55527520e-02
      8.89025778e-02 -1.71657000e-02 -8.49697068e-02 4.55078203e-03
      1.86115041e-01 1.45467535e-01 -8.10268000e-02 3.54337953e-02
      1.74614742e-01 7.13143218e-03 4.36010584e-02 -3.41688655e-02
      -6.01205677e-02 0. -1.17522217e-01 1.21663526e-01 8.70190784e-02
      -4.21286039e-02 -5.10139503e-02 7.52236694e-02 5.24155013e-02
      9.53726545e-02 -7.40042701e-02 3.02939683e-01 -1.06718607e-01
      -4.54785451e-02 -1.59738123e-01 3.75380814e-02 1.52996197e-01
      -5.10494038e-02 -1.91307336e-01 5.84401414e-02 2.05375940e-01
      1.77748576e-01 -2.52374019e-02 -1.08716264e-01 1.46329075e-01
      2.62169242e-01 5.10480627e-02 -5.08666709e-02 4.25482206e-02
      2.72481644e-04 -7.69924046e-03 2.70909145e-02 4.85226773e-02 0.
      -1.32559732e-01 -5.60100004e-02 3.40254903e-02 7.38277957e-02
      4.11585206e-03 1.75971404e-01 -3.57380360e-02 -1.64376929e-01
      -1.20635226e-01 1.03097938e-01 -1.38861850e-01 1.68382432e-02
      -1.35346130e-03 8.82307291e-02 -5.20414338e-02 -1.07063338e-01
      1.21572360e-01 -1.38298201e-03 -7.32668191e-02 -1.20504901e-01
      1.44236937e-01 1.59960836e-01 -6.31731823e-02 2.95195788e-01
      3.12726782e-03 5.18699512e-02 -8.91568959e-02 -1.45481452e-01
      -1.05811479e-02 2.79443469e-02 3.74476723e-02 0. -7.03492537e-02
      -7.25588482e-03 2.14042570e-02 1.06556967e-01 2.10414212e-02
      -1.54676616e-01 3.67830470e-02 -1.01142488e-01 -3.52207944e-02
      1.25223473e-01 1.49117976e-01 -2.73377150e-02 -8.62683505e-02
      8.99909586e-02 3.25515479e-01 -3.10471915e-02 -8.19538236e-02
      -1.00870289e-01 -4.43579517e-02 1.20365083e-01 9.11419466e-02
      6.00325651e-02 7.84663949e-03 9.70657766e-02 4.41375449e-02
      1.99637599e-02 1.78692602e-02 4.04682308e-02 8.67269337e-02
      -6.51844218e-02 2.26108190e-02 0. 5.75621054e-02 -1.59140527e-01
      2.76598544e-03 -4.82947119e-02 -4.12849784e-01 1.30606955e-02
      2.01565363e-02 1.03916831e-01 1.47291988e-01 1.22772612e-01
      7.09628016e-02 -2.04972357e-01 -5.80595955e-02 -9.50458869e-02
      -1.67467240e-02 -1.21835843e-01 -6.90223649e-02 -8.63108691e-03
      7.68162534e-02 1.17193423e-01 -9.74183455e-02 -5.23770824e-02
      -2.79856533e-01 8.62167627e-02 -4.64310199e-02 3.06350794e-02
      1.62098318e-01 6.23424239e-02 -6.04364909e-02 -1.69276923e-01
      -1.41919002e-01 0. -1.02099422e-02 -3.07457969e-02 2.61504613e-02
      1.87999323e-01 -3.52197975e-01 2.65658498e-01 3.00116241e-01
      4.83384989e-02 -7.68908933e-02 -4.77077588e-02 3.46520990e-02
      -8.88037011e-02 -2.57778198e-01 1.71970263e-01 -2.67729670e-01
      -1.46324992e-01 -7.28718638e-02 -5.07621393e-02 5.51219359e-02
      -8.41010734e-02 2.32111961e-02 -9.30606872e-02 -1.08966231e-01
      -6.74362108e-02 2.09862396e-01 9.44616720e-02 2.31429585e-04
      2.03145146e-02 -9.53557529e-03 -6.11726679e-02 -1.22674979e-01 0.
      1.40119627e-01 -1.52113419e-02 -3.11464611e-02 1.61304176e-01
      -1.21129185e-01 -1.95023701e-01 1.54020535e-02 -2.76639789e-01
      1.25570083e-02 3.32534168e-04 6.90053180e-02 5.48440889e-02
      -1.55021518e-01 6.71349764e-02 2.03351498e-01 -2.10879758e-01
      4.64754552e-02 8.15563723e-02 1.26397405e-02 1.88515425e-01
      8.66132155e-02 -8.15315321e-02 -9.24804434e-02 3.99775393e-02
      4.01780792e-02 -1.12659283e-01 7.77330101e-02 -3.05773653e-02
      -5.08435331e-02 -1.91244315e-02 2.84359083e-02 0. 2.85083149e-02
      2.94862613e-02 -5.55422641e-02 1.87806170e-02 -4.72770855e-02
      1.23152278e-01 3.89306098e-02 -1.81591853e-01 -1.78255931e-01
      -1.12343706e-01 5.48468046e-02 -5.92657775e-02 6.99894279e-02
      6.58368040e-03 -4.72944304e-02 3.26715559e-02 1.95587769e-01
      -1.11936100e-01 -1.50564253e-01 1.56116962e-01 5.69475144e-02
      1.24229491e-01 8.66740569e-02 1.02674030e-01 2.27839723e-01
      1.13535471e-01 -1.74665526e-01 -1.00173960e-02 7.88602531e-02
      -8.60753581e-02 -7.46762678e-02 0. 5.20493612e-02 9.71559808e-02
      2.32944172e-03 -1.78630848e-03 -1.59892216e-01 -3.02410990e-01
      -1.02870233e-01 6.99501531e-03 1.24057256e-01 1.69657543e-01
      -8.05326998e-02 -2.63996780e-01 -1.24264762e-01 8.03845599e-02
      -3.26812826e-02 -6.60583675e-02 -4.97694612e-02 -2.55201101e-01
      -6.83623478e-02 6.22479171e-02 -1.13116860e-01 5.18763922e-02
      2.04386357e-02 -8.28532577e-02 -2.77354494e-02 4.08856124e-02
      -4.68935147e-02 -1.80125087e-01 -4.07492705e-02 -9.78513211e-02
      -1.08756393e-01 0. 2.61084512e-02 1.78357989e-01 -5.33868885e-03
      -5.87669536e-02 -2.46488959e-01 -1.35383010e-01 1.12449490e-02
      -3.19106318e-02 -1.83288902e-02 8.72255266e-02 -1.45218089e-01
      7.63462037e-02 -2.61738952e-02 -5.87245114e-02 1.87963054e-01
      -6.92002028e-02 -1.76216975e-01 -5.46406880e-02 -4.18089330e-02
      2.41813306e-02 7.84180015e-02 1.40055167e-02 4.00644876e-02
      -3.33610326e-02 1.06240548e-02 -3.96298468e-02 -5.14353551e-02
      -6.08400144e-02 -4.63465191e-02 -1.29373267e-01 2.01185960e-02 0.
      -9.59018320e-02 -4.65944372e-02 -1.64057121e-01 4.06632908e-02
      -5.78619987e-02 4.02268842e-02 -2.05975678e-02 -7.16280043e-02
      -1.82431638e-02 4.26731706e-02 -6.88411146e-02 2.49148190e-01
      4.54019941e-02 -4.33976436e-03 8.52049440e-02 3.51851881e-02
      -5.62744103e-02 1.17704041e-01 -7.31367916e-02 -1.06297821e-01
      1.14352532e-01 2.18811646e-01 9.15666893e-02 1.84287906e-01
      4.96525764e-02 -9.67800431e-03 1.87513635e-01 -2.06883140e-02
      -3.87154929e-02 -1.80305764e-02 1.01885036e-01 0. -8.44010413e-02
      -5.65604456e-02 -3.10606360e-01 -1.18655218e-02 -1.72278941e-01
      -4.03438956e-02 1.75194591e-01 4.62318696e-02 4.36706794e-03
      1.22859165e-01 5.83492853e-02 4.26080152e-02 -2.05308557e-01
      1.79012597e-01 4.70622592e-02 -1.73561215e-01 3.91924009e-02
      -6.99125417e-03 -6.05049208e-02 -1.09267682e-02 -1.38379917e-01
      4.44488861e-02 6.87071681e-02 9.88147259e-02 -9.82659087e-02
      1.71892285e-01 1.51049376e-01 -1.19795045e-02 -3.07291280e-03
      -4.99618873e-02 -9.85804200e-02 0. 1.86942175e-01 3.73186246e-02
      -5.53205237e-02 8.45679715e-02 -3.06208134e-01 -7.74222687e-02
      1.17800459e-02 -1.54884577e-01 8.09018686e-02 1.35577574e-01
      7.32695833e-02 -1.58546731e-01 -1.10961199e-01 8.37611705e-02
      1.52658718e-03 -1.09067969e-01 -1.49496824e-01 -8.62642601e-02
      1.52886167e-01 2.10893646e-01 -5.02856374e-02 2.96232291e-02
      7.96190947e-02 9.62271467e-02 1.81333181e-02 -1.55006289e-01
      6.48614243e-02 6.95181638e-02 1.33203277e-02 -1.38241574e-01
      -1.86202005e-01 0. -1.55383661e-01 -6.96126893e-02 1.83105335e-01
      2.00186491e-01 4.29147631e-02 -6.11459762e-02 1.44870654e-01
      -1.72959253e-01 2.92089842e-02 -1.22254426e-02 1.53517395e-01
      -4.32815216e-02 -1.57543778e-01 -1.38611391e-01 -2.99435288e-01
      -1.38271630e-01 -1.53575808e-01 -1.59546569e-01 -1.21837899e-01
      8.29441100e-02 1.81608468e-01 4.63883951e-02 -5.22765219e-02
      -1.09271996e-01 2.07115442e-01 9.49882157e-03 6.39992654e-02
      -6.44899905e-02 -8.42728391e-02 -1.12333454e-01 -1.19695529e-01 0.
      1.42219245e-01 3.62970084e-02 -8.45850408e-02 -1.99485496e-01
      -1.30584374e-01 2.17482537e-01 -6.95069209e-02 6.24812357e-02
      -7.67879486e-02 -1.20864391e-01 -9.31815431e-02 1.69441185e-03
      -1.11404769e-01 -6.67803958e-02 -3.10084578e-02 -1.83845013e-01
      2.46313005e-03 -1.30834877e-02 -2.12331936e-01 -4.57236245e-02
      5.52863814e-03 -1.61077917e-01 4.70029265e-02 -3.87665187e-03
      -2.62473106e-01 1.30121380e-01 -1.20863721e-01 -8.65022540e-02
      -3.46592963e-02 -1.89553067e-01 -2.79769897e-02 0. 1.11896031e-01
      -3.41052259e-03 -1.00098632e-01 1.61327064e-01 2.43418887e-01
      6.61390871e-02 -6.33149780e-03 -2.08565459e-01 1.11618362e-01
      -1.12190202e-01 1.79472819e-01 6.08246736e-02 -3.06289792e-02
      1.25248224e-01 2.12181106e-01 -1.49579242e-01 -5.72466925e-02
      -1.46228913e-02 -8.68117362e-02 2.08430201e-01 7.60234743e-02
      1.68740869e-01 2.84508526e-01 8.26370269e-02 6.08204342e-02
      -8.09561983e-02 1.21682383e-01 1.46573424e-01 1.37056381e-01
      -2.12305784e-02 1.54685350e-02 0. 1.57071188e-01 1.87483966e-01
      1.89236000e-01 -5.74939214e-02 -6.75579906e-02 -9.66311172e-02
      -1.51543513e-01 -3.62880938e-02 2.79604979e-02 5.37598096e-02
      8.70884433e-02 -2.76340153e-02 4.46474068e-02 -6.72438368e-02
      1.67418383e-02 -3.33755426e-02 -1.91904902e-01 -1.03823170e-01
      -4.39358316e-02 2.27526501e-01 1.91839829e-01 6.18800707e-02
      -5.37491962e-02 -1.95748642e-01 -9.17605907e-02 -2.03934442e-02
      -1.11844026e-01 2.66630622e-03 -4.28854004e-02 -1.68758426e-02
      2.43293829e-02 0. 7.06528081e-03 8.81540775e-03 -5.34891561e-02
      3.82801681e-03 -1.57144740e-01 -7.03777522e-02 -6.11893833e-03
      1.79605693e-01 1.03292868e-01 4.35994975e-02 -1.05998755e-01
      -1.71197712e-01 -9.78996456e-02 -1.72212094e-01 -1.97152451e-01
      8.94589648e-02 -5.42799197e-02 9.41688940e-02 -6.44839853e-02
      -1.57537907e-01 -7.77833015e-02 -1.22015841e-01 -2.03437015e-01
      -2.42166072e-01 1.86380342e-01 2.42510483e-01 2.19710320e-01
      -5.21818548e-02 -4.72370386e-02 -6.41026646e-02 -9.85940620e-02 0.
      -1.14846602e-01 1.52546436e-01 -2.44542405e-01 4.38428149e-02
      6.81935996e-02 1.89534321e-01 1.71675012e-01 -1.38889432e-01
      -1.39813259e-01 1.66381672e-01 -8.32749307e-02 -7.53378794e-02
      -1.79091498e-01 1.38385445e-01 7.76025280e-02 -4.92982604e-02
      8.84963945e-02 2.93897569e-01 -5.74123971e-02 7.38073215e-02
      -7.69433454e-02 1.07445620e-01 1.79158524e-01 2.54097432e-01
      2.04566598e-01 9.81691033e-02 2.43396059e-01 1.52045712e-02
      1.57579109e-02 8.21198896e-02 5.91962188e-02 0. -1.79153413e-01
      4.74755000e-03 2.85193045e-02 -1.02934986e-03 1.76793173e-01
      -2.93872446e-01 -1.23247378e-01 -6.73464015e-02 8.17653313e-02
      9.02390257e-02 -2.64117327e-02 -3.47455521e-03 -1.83584049e-01
      -1.10880192e-02 1.18561812e-01 -1.83525942e-02 3.62240560e-02
      -4.46423180e-02 -1.96094543e-01 -3.62708829e-02 1.00626677e-01
      -1.96921989e-01 6.75457567e-02 -1.16783278e-02 -3.66949774e-02
      5.72222248e-02 3.32414210e-02 -9.68545228e-02 5.63074776e-04
      -5.35737127e-02 -4.59317863e-02 0. -1.34989679e-01 -7.62467682e-02
      1.89844564e-01 4.36708890e-02 -1.18063688e-02 -1.75445572e-01
      -1.37162566e-01 9.88086089e-02 -1.59117486e-02 -1.98944621e-02
      3.73161547e-02 -7.65723884e-02 2.33160444e-02 -1.57542780e-01
      -3.66917700e-02 -8.07002485e-02 -4.73982096e-03 -1.30087927e-01
      -1.16039775e-01 1.47707194e-01 1.36020839e-01 2.30768938e-02
      1.86040238e-01 -8.94229189e-02 2.75359005e-02 1.80333748e-01
      -2.40770597e-02 4.87461910e-02 2.89767403e-02 -2.55176187e-01
      -1.35950267e-01 0. -4.35224511e-02 -1.56183153e-01 -1.95248961e-01
      1.57147124e-01 1.28767882e-02 -6.47773221e-02 2.01919824e-01
      -2.79925987e-02 -5.90716004e-02 -3.13188247e-02 1.63957447e-01
      2.27368101e-02 1.21322279e-04 -2.24508625e-02 1.43386185e-01
      1.13736622e-01 -1.81771144e-01 -4.97636236e-02 4.88595804e-03
      -1.42997818e-03 -6.62609637e-02 1.83629856e-01 1.22532792e-01
      2.48803627e-02 1.82345867e-01 -9.40248743e-02 -1.26451790e-01
      3.42006721e-02 -7.81976134e-02 2.82971524e-02 8.05437658e-03 0.</_></support_vectors>
  <decision_functions>
    <_>
      <sv_count>1</sv_count>
      <rho>1.0011334906472276e+00</rho>
      <alpha>
        1.</alpha>
      <index>
        0</index></_></decision_functions></my_svm>
</opencv_storage>
