<?xml version="1.0"?>
<opencv_storage>
<my_svm type_id="opencv-ml-svm">
  <svm_type>C_SVC</svm_type>
  <kernel><type>LINEAR</type></kernel>
  <C>5.0000000000000000e-01</C>
  <term_criteria><epsilon>2.2204460492503131e-16</epsilon>
    <iterations>100000</iterations></term_criteria>
  <var_all>4096</var_all>
  <var_count>4096</var_count>
  <class_count>2</class_count>
  <class_labels type_id="opencv-matrix">
    <rows>1</rows>
    <cols>2</cols>
    <dt>i</dt>
    <data>
      -1 1</data></class_labels>
  <sv_total>1</sv_total>
  <support_vectors>
    <_>
      6.19397283e-01 -5.51608801e-02 4.02589552e-02 -3.09079260e-01
      2.16730520e-01 1.35133937e-01 9.12813246e-02 2.95694210e-02
      1.38758484e-03 4.98238981e-01 2.57955998e-01 1.66693926e-01
      -6.11663461e-02 3.02432179e-01 2.31261104e-01 3.55218738e-01
      -9.78461206e-02 1.36679783e-02 2.27970123e-01 3.39791328e-02
      1.99124031e-02 -3.02444905e-01 -1.98943436e-01 -1.29916593e-01
      2.09673181e-01 -1.78963795e-01 -1.56756967e-01 -3.73771310e-01
      -4.64000069e-02 2.20014334e-01 1.34847569e+00 0. 4.50016350e-01
      -2.18391448e-01 3.40137750e-01 -5.32018840e-01 -8.91180038e-01
      -3.74783203e-02 -4.47516367e-02 5.60886525e-02 -1.04031846e-01
      2.83711523e-01 -1.13129333e-01 2.72099942e-01 1.18745945e-01
      1.30212352e-01 -9.96167138e-02 4.85073961e-02 -1.68462656e-02
      -8.29345956e-02 -1.68698505e-01 -3.02812289e-02 1.30201742e-01
      -3.78987879e-01 4.86826487e-02 4.40197140e-01 -4.81102578e-02
      -2.29897633e-01 -1.46736652e-01 -3.80685002e-01 2.28488892e-01
      -2.68676251e-01 2.13051379e-01 0. 2.63017515e-04 -3.16437155e-01
      3.73154670e-01 5.61991706e-02 3.35656077e-01 -2.26514582e-02
      1.70630872e-01 3.02090734e-01 -2.09708884e-01 1.49564043e-01
      2.17458963e-01 3.80947620e-01 2.02784151e-01 9.89456922e-02
      -1.27633736e-01 -6.25410601e-02 -6.94549531e-02 -8.68063420e-02
      -1.04155228e-01 -2.71930486e-01 2.05393523e-01 -2.25920126e-01
      7.44726777e-01 6.14339486e-02 -1.95098475e-01 7.54279494e-02
      1.12920150e-01 -1.43745750e-01 1.35351911e-01 4.02473062e-02
      6.24552429e-01 0. 3.02499622e-01 -1.50195867e-01 2.06328005e-01
      2.95418128e-02 -2.33115777e-01 -7.30079338e-02 -2.35782519e-01
      1.48124129e-01 -1.32172316e-01 2.11024180e-01 -1.32540703e-01
      -6.76937029e-02 4.57139522e-01 1.77083910e-01 7.63824880e-02
      -3.50423753e-02 9.01610870e-03 -3.60141695e-01 3.90941232e-01
      6.65393621e-02 6.79611206e-01 5.13433158e-01 1.89956978e-01
      1.39361948e-01 -5.01893520e-01 9.76792257e-03 -2.81273544e-01
      -1.90817669e-01 3.13914120e-01 -2.21137360e-01 1.91117436e-01 0.
      -2.09939718e-01 -2.25171134e-01 -1.49912432e-01 2.36078963e-01
      1.21948764e-01 5.71168885e-02 -3.27835530e-01 8.38963315e-02
      3.40522349e-01 2.38014832e-01 -3.41394275e-01 1.31093383e-01
      2.54643410e-01 -9.03648809e-02 5.95108606e-02 2.38978714e-01
      5.05096376e-01 -5.72695136e-02 -4.10649180e-02 -3.83408040e-01
      -8.67268741e-02 1.04371786e-01 -2.96894126e-02 -2.92216372e-02
      3.90869141e-01 1.63540348e-01 -1.60783887e-01 -1.56396627e-01
      9.74522829e-01 -5.21423340e-01 1.11064143e-01 0. -2.48223962e-03
      -4.33811575e-01 -1.09279398e-02 -3.85373309e-02 2.01127708e-01
      3.73926520e-01 -2.71175236e-01 1.96299665e-02 -1.47669420e-01
      2.72725016e-01 1.66582584e-01 1.03454724e-01 -6.94592774e-01
      -9.30088535e-02 1.42607257e-01 5.21415830e-01 -4.29411530e-02
      2.76387721e-01 1.34195000e-01 -1.48135185e-01 8.17476958e-02
      -7.14575112e-01 3.60089898e-01 3.24827045e-01 1.16378233e-01
      1.54089093e-01 6.50195777e-01 -7.13623911e-02 7.72252440e-01
      -7.46408820e-01 2.07072496e-01 0. 4.98641938e-01 -2.89941162e-01
      2.25658864e-01 -1.00196622e-01 4.65040356e-02 -1.09458610e-01
      -4.31910753e-01 6.58516660e-02 3.05020452e-01 3.78938764e-02
      7.17087537e-02 -2.24558815e-01 7.26442412e-02 -4.45942461e-01
      2.77008116e-01 1.62399948e-01 -1.72539011e-01 -8.85496661e-02
      3.27049524e-01 -1.74946055e-01 1.49606466e-01 1.95227284e-02
      -2.61232436e-01 1.93789110e-01 -1.40928820e-01 -3.84624861e-02
      -1.68620735e-01 -3.70396972e-01 1.02888383e-01 -3.25303614e-01
      5.45782864e-01 0. 5.09022534e-01 2.06649989e-01 -2.72628278e-01
      -1.87303111e-01 4.51460183e-01 4.36935872e-01 8.27064440e-02
      1.98250026e-01 -3.70999686e-02 7.76304543e-01 -2.07692273e-02
      2.10571676e-01 -2.81445861e-01 -1.15977623e-01 4.10725117e-01
      2.84851808e-02 -2.01176986e-01 5.97935729e-02 6.72168157e-04
      1.13922946e-01 2.67995279e-02 -4.09134664e-03 1.21939354e-01
      3.88764560e-01 -1.42171934e-01 -4.08565044e-01 -4.31595087e-01
      1.47524074e-01 1.34379947e+00 -3.15521479e-01 -1.13028787e-01 0.
      -1.57661244e-01 -2.85077095e-01 -6.83914777e-03 3.57313931e-01
      4.40346003e-02 2.71096647e-01 -5.54943740e-01 -2.57154047e-01
      -4.98391718e-01 -2.26119403e-02 -1.30992115e-01 -1.03241252e-03
      -2.44581308e-02 1.54596567e-01 7.30969161e-02 4.03143346e-01
      2.06681073e-01 1.21849619e-01 -3.94090712e-01 -9.42644253e-02
      -2.41476431e-01 1.87640771e-01 1.26024380e-01 -8.22116795e-04
      -2.50501782e-01 1.92537665e-01 5.62634505e-02 -3.97105306e-01
      -4.26028669e-01 4.52418655e-01 2.25830957e-01 0. 3.27733785e-01
      -4.46092367e-01 -4.22107607e-01 -1.59185141e-01 7.82825798e-02
      -3.11264005e-02 -3.13957572e-01 2.77028710e-01 -1.68556914e-01
      3.33320141e-01 -2.83357650e-01 1.59659103e-01 -1.11103453e-01
      -1.50434732e-01 5.12976386e-02 2.27885917e-02 -1.02525748e-01
      -5.29040873e-01 5.06362654e-02 -1.86451539e-01 -3.33723396e-01
      -1.71697348e-01 4.74928133e-02 2.31448621e-01 -3.79755467e-01
      6.68911114e-02 9.34336614e-03 -8.06035474e-02 -3.68355274e-01
      1.26713933e-02 -2.55434811e-01 0. 2.22286955e-01 2.82449752e-01
      -4.02635366e-01 -5.02195470e-02 -6.60523474e-02 1.97388053e-01
      2.63035327e-01 4.54525411e-01 2.39909619e-01 6.85212808e-03
      4.59250761e-03 1.57499462e-01 -2.60886431e-01 -2.09277287e-01
      -1.40576005e-01 -1.97897479e-02 -1.06647909e-01 4.46343459e-02
      1.78029627e-01 1.48007751e-01 4.74033475e-01 -3.22749652e-02
      -3.81147750e-02 -1.86965391e-01 4.48693484e-02 1.30815417e-01
      4.73733246e-01 1.86453536e-01 -3.82197946e-01 4.64907408e-01
      2.17325911e-02 0. -2.91373104e-01 1.62021309e-01 -2.77752310e-01
      1.05751894e-01 -6.92571178e-02 1.31564602e-01 3.06772813e-02
      2.37116441e-01 7.21564889e-02 -1.17555022e-01 -3.20663422e-01
      -3.09167087e-01 2.97591388e-01 -5.54792881e-01 -2.10886076e-01
      2.69580305e-01 -1.77793071e-01 -1.47925140e-02 1.00290775e-01
      1.78201795e-01 4.94104087e-01 3.76630455e-01 -2.70971864e-01
      1.75726011e-01 2.06793025e-01 1.61993261e-02 3.22713375e-01
      5.38603477e-02 -3.03775251e-01 7.71846920e-02 -3.16381782e-01 0.
      8.05977881e-02 2.11296946e-01 2.25635529e-01 -3.17685217e-01
      -2.63494402e-01 3.57079268e-01 -1.24952449e-02 2.00692341e-01
      -3.31298828e-01 -2.99264967e-01 2.11912259e-01 -1.23106390e-01
      1.63876340e-01 -4.53795344e-01 -2.38078937e-01 -8.17493275e-02
      -4.54966575e-01 -4.15528752e-02 4.97906476e-01 4.81291145e-01
      1.87587604e-01 1.74534753e-01 -4.34192643e-02 3.05743098e-01
      -1.62889622e-02 3.74095619e-01 5.29024825e-02 -8.62112120e-02
      -1.15551345e-01 -6.79618344e-02 -2.80115455e-01 0. 2.04783902e-02
      3.48220229e-01 1.78224184e-02 -9.96860415e-02 -1.22500569e-01
      -2.44640902e-01 -3.33195746e-01 1.58603922e-01 -4.23572570e-01
      2.49992386e-01 1.33518443e-01 3.88608038e-01 -4.00822490e-01
      -2.38373458e-01 2.23437250e-02 -4.36657816e-02 5.92435114e-02
      -6.75479546e-02 1.24272190e-01 4.45456237e-01 4.18998122e-01
      -2.01195523e-01 -3.31501305e-01 -2.70428900e-02 7.96159282e-02
      2.31661782e-01 -1.27851903e-01 1.66871265e-01 2.01487318e-01
      -2.10182562e-01 -4.29313332e-01 0. 4.68831062e-01 -1.71819925e-01
      -8.69861022e-02 -2.41227195e-01 -8.09784532e-02 2.53939629e-01
      -2.50560313e-01 -1.00171320e-01 1.49338782e-01 -4.00742024e-01
      1.87186703e-01 -1.52973905e-01 -3.63344178e-02 1.40732512e-01
      1.79475516e-01 -1.53328285e-01 -3.65991235e-01 -3.75522763e-01
      -8.61776248e-02 4.15444281e-03 -1.17595412e-01 3.01053584e-01
      1.65088594e-01 3.46673518e-01 -2.93379992e-01 -2.30618477e-01
      -1.66184261e-01 -7.83399567e-02 -1.81718200e-01 -1.36855870e-01
      -9.19898301e-02 0. 4.10611272e-01 3.00287336e-01 -1.96987107e-01
      -8.58082697e-02 4.41771507e-01 6.23336388e-03 -2.75061101e-01
      2.70158798e-01 2.02746496e-01 -1.14963032e-01 -1.84294939e-01
      2.20737472e-01 1.73427284e-01 1.54569298e-01 -2.67577082e-01
      1.51822627e-01 -1.05321184e-01 -4.71277572e-02 -7.15663791e-01
      1.93738475e-01 -1.13572076e-01 -2.04414260e-02 -4.18646544e-01
      -5.78741282e-02 -2.02071980e-01 -2.92353660e-01 -7.71810561e-02
      3.61310303e-01 4.27135557e-01 -1.81074038e-01 -1.09938905e-01 0.
      3.86570662e-01 -2.89609522e-01 1.96994811e-01 5.99687807e-02
      -2.17420742e-01 -1.13696896e-01 -8.87441486e-02 2.66534060e-01
      2.06003666e-01 -5.65132797e-01 1.46294534e-01 1.66090623e-01
      2.94972509e-01 2.17332877e-02 -3.80311310e-01 -9.70332995e-02
      -4.90165763e-02 -2.95534998e-01 1.99936777e-01 1.63954750e-01
      1.13948174e-01 4.86561060e-02 -4.74928245e-02 -1.96932107e-01
      -9.93123651e-02 5.14902890e-01 1.11916155e-01 -4.50137913e-01
      -4.59014773e-01 2.02487513e-01 5.41044533e-01 0. 1.80239946e-01
      1.01045027e-01 4.94625181e-01 -1.37752164e-02 1.49049878e-01
      -6.29834682e-02 6.74703121e-02 4.07482013e-02 -4.30756092e-01
      2.78896149e-02 -1.33613404e-02 -5.01195908e-01 1.29133880e-01
      -1.13732561e-01 -1.40870914e-01 -5.70322052e-02 -4.43251692e-02
      -2.50541300e-01 9.00549963e-02 1.21724732e-01 1.51606083e-01
      3.59371841e-01 1.83704749e-01 5.18492237e-02 6.90980926e-02
      -2.70589262e-01 -7.98894465e-02 -1.11299284e-01 -5.10675237e-02
      -8.50036517e-02 4.07218486e-02 0. -2.99720407e-01 -3.66663069e-01
      -1.09615941e-02 3.71118516e-01 -1.26395583e-01 -1.44582346e-01
      -1.85930192e-01 6.57830685e-02 3.04653913e-01 -2.44712681e-01
      -7.50095174e-02 5.48271060e-01 -5.34342080e-02 1.57804713e-02
      -2.86860391e-02 -1.05566725e-01 4.74761873e-02 -9.41313952e-02
      -4.26292270e-01 -1.15912445e-01 5.94112813e-01 7.24017262e-01
      3.05448949e-01 2.33894899e-01 -4.96379323e-02 1.87664866e-01
      2.59501547e-01 1.52838781e-01 -5.16840160e-01 2.57534198e-02
      1.57837972e-01 0. -2.05236033e-01 1.42606214e-01 4.39218543e-02
      -2.21085437e-02 -3.81757885e-01 -2.13453799e-01 -7.52426609e-02
      2.06835374e-01 3.40488046e-01 -2.01688543e-01 1.34351492e-01
      -4.83182184e-02 1.78501874e-01 8.62070322e-02 6.16899841e-02
      2.01086432e-01 4.67890799e-02 -4.14347082e-01 -2.10421368e-01
      2.30952382e-01 1.94571346e-01 3.76755118e-01 1.89443871e-01
      -2.90049575e-02 2.50644356e-01 -1.09461043e-03 5.81511222e-02
      9.63557288e-02 -1.56640023e-01 1.21291824e-01 -1.17422558e-01 0.
      1.55585378e-01 -9.65043828e-02 6.04665540e-02 3.52392673e-01
      4.61361378e-01 -9.24420208e-02 3.59748304e-02 -3.75720978e-01
      -3.18460017e-01 -1.82819307e-01 -7.08776386e-03 3.65447640e-01
      7.49294162e-02 -4.59321737e-01 -1.96452215e-01 -2.06720278e-01
      4.26991880e-01 -9.49698910e-02 -1.35262191e-01 -2.63980508e-01
      2.26361215e-01 2.13173017e-01 1.45435020e-01 4.81305420e-02
      1.49849251e-01 4.02168095e-01 -1.41502723e-01 6.61312789e-02
      4.14855853e-02 1.37952939e-02 -1.67302743e-01 0. -1.69009700e-01
      1.48075849e-01 1.34394526e-01 -1.39327869e-01 -1.35398209e-01
      -5.57017863e-01 2.37728029e-01 7.38063455e-02 -4.34322841e-02
      -1.04478717e-01 -8.14932659e-02 -1.08180486e-01 -8.23402181e-02
      2.01799124e-02 3.04025412e-01 8.67875889e-02 1.41556398e-03
      -1.69964775e-01 -1.48645550e-01 -4.20558378e-02 -2.00993083e-02
      6.45492151e-02 1.49769232e-01 2.88874716e-01 8.14260721e-01
      6.20226562e-01 2.67350197e-01 -2.99243163e-02 -2.47132289e-03
      2.21732989e-01 -4.64743316e-01 0. 7.44955894e-03 -1.93415642e-01
      1.14162654e-01 -2.95493037e-01 2.83450454e-01 -3.32706064e-01
      -1.91476867e-01 4.20226216e-01 -5.34315966e-02 -3.76760997e-02
      1.04784235e-01 -1.53387308e-01 -6.64566383e-02 -3.05937678e-01
      3.90502699e-02 2.36745223e-01 6.90151751e-02 2.37436891e-01
      -2.00389892e-01 -1.32219598e-01 -2.10178588e-02 -3.02802235e-01
      1.44515529e-01 7.83253163e-02 1.01052830e-02 5.96057355e-01
      -4.60546687e-02 -1.29678950e-01 -5.91734536e-02 2.03829840e-01
      -7.04426318e-02 0. -4.41122167e-02 -1.43615410e-01 1.19125463e-01
      2.85290182e-01 1.66550592e-01 -3.24006915e-01 8.91262144e-02
      2.63897598e-01 9.44425259e-03 7.91558564e-01 -3.60951245e-01
      -2.66320080e-01 2.42857561e-01 -5.04144669e-01 1.23235673e-01
      -2.25255657e-02 1.49763376e-01 -2.50652254e-01 8.13008472e-02
      -1.51229963e-01 1.41026556e-01 5.07335663e-02 -2.28135914e-01
      3.84932876e-01 1.11937232e-03 -4.80793566e-02 5.84189110e-02
      2.37027213e-01 4.41031218e-01 -2.76687264e-01 -2.48392016e-01 0.
      1.58544220e-02 -2.35124707e-01 1.00951217e-01 -1.32148147e-01
      4.36150461e-01 -4.15738337e-02 3.07782233e-01 -7.31204599e-02
      2.14002002e-02 -6.37176037e-02 1.03668436e-01 1.41130477e-01
      6.94011375e-02 -3.89715999e-01 1.34307817e-01 6.58671498e-01
      -2.40959421e-01 9.21349507e-03 -3.16584879e-03 -1.13215886e-01
      -1.35823563e-01 -9.96189564e-02 -3.55928004e-01 -3.41722183e-02
      3.59430969e-01 -3.54148775e-01 -4.28927131e-03 1.93584830e-01
      -1.38364807e-01 3.15705746e-01 1.66456643e-02 0. 7.32932687e-02
      -1.84076548e-01 -2.25850388e-01 -5.17679393e-01 2.03818485e-01
      2.24261627e-01 -1.65700391e-01 5.19144118e-01 -1.83174685e-01
      -6.97840229e-02 3.10121253e-02 -6.57292679e-02 2.77180403e-01
      -7.02432171e-02 -3.43139142e-01 2.03454763e-01 -3.41354638e-01
      -1.41823769e-01 -6.71506077e-02 -4.33752164e-02 -1.39720380e-01
      -1.22482419e-01 9.10618603e-02 -3.42909515e-01 1.23919293e-01
      -6.44243583e-02 -3.46589796e-02 1.83230191e-02 -1.56652704e-01
      5.61880134e-03 -2.33279899e-01 0. -8.68611783e-02 6.73850954e-01
      -1.43305033e-01 -4.02828246e-01 -1.85801759e-01 2.88582686e-02
      7.05801025e-02 -7.03169554e-02 -4.07017797e-01 -1.84488669e-01
      1.19859157e-02 -1.49511158e-01 -1.65081188e-01 -5.25330789e-02
      1.81478649e-01 -2.21854612e-01 1.17354751e-01 1.59947369e-02
      2.27874368e-01 7.51282513e-01 -1.19897462e-02 -2.10223064e-01
      -3.42311084e-01 3.11572831e-02 -3.22201997e-02 9.71376970e-02
      -3.39343250e-01 2.33150959e-01 -3.72179210e-01 -1.47033319e-01
      -1.70958817e-01 0. 1.68748070e-02 -2.79580727e-02 -3.85444283e-01
      1.25546187e-01 1.25618920e-01 3.29029590e-01 -1.07174627e-01
      2.32814938e-01 -2.05129758e-02 -3.63513716e-02 4.11927961e-02
      1.23200700e-01 1.27155319e-01 -3.46933566e-02 1.05934694e-01
      -2.59097535e-02 -2.08667964e-01 -2.54052699e-01 -2.76465207e-01
      -5.22908151e-01 1.43436998e-01 2.47911349e-01 8.40300135e-03
      4.26006094e-02 3.01294457e-02 -1.26260430e-01 -3.31590265e-01
      7.10888132e-02 -3.20438325e-01 4.95862901e-01 -1.86832771e-01 0.
      -7.80849159e-01 1.24264143e-01 5.90429604e-01 2.93956667e-01
      -1.94165498e-01 -4.41506177e-01 -3.61533791e-01 -2.56956875e-01
      5.17714083e-01 7.45994300e-02 2.45930105e-01 4.20908213e-01
      1.81993410e-01 -2.00750142e-01 7.51717538e-02 -1.00810878e-01
      6.31753325e-01 -2.49506328e-02 -4.79443133e-01 1.53402060e-01
      -7.99343288e-02 3.45815212e-01 -4.10797149e-01 -1.29688129e-01
      -1.38360802e-02 4.23300803e-01 2.91426510e-01 1.75773591e-01
      -1.05728045e-01 3.73912334e-01 -6.91014826e-02 0. -8.72618034e-02
      -7.88493082e-02 5.24296537e-02 -3.15904021e-01 -3.25706571e-01
      -3.45947370e-02 -1.15689375e-01 -2.57048398e-01 1.18228160e-01
      -3.21963072e-01 5.42625040e-02 -2.90357381e-01 3.33432108e-01
      -3.71316016e-01 -4.62640226e-02 -3.18398476e-01 6.89566880e-02
      4.39396888e-01 1.74028240e-02 -3.52046907e-01 -2.86313981e-01
      1.42565563e-01 -2.12792739e-01 2.81286895e-01 -1.23807853e-02
      -1.99097842e-01 6.34015679e-01 -1.40513897e-01 -2.66003132e-01
      2.21606538e-01 -5.20609021e-01 0. -2.72698224e-01 -4.29150760e-01
      3.70156914e-01 -3.46393287e-01 1.82051688e-01 2.25622013e-01
      -2.37484843e-01 -2.32415907e-02 -2.45401919e-01 2.59424765e-02
      3.24936718e-01 -1.66622132e-01 6.98899508e-01 2.49923140e-01
      -9.43720713e-02 -1.57685503e-01 1.68142632e-01 -1.03395872e-01
      2.67255455e-01 -2.57381499e-01 2.13134915e-01 9.02377293e-02
      5.96701652e-02 -2.89512396e-01 -9.00574476e-02 3.67060959e-01
      1.55514739e-02 -1.92139694e-03 -1.72583252e-01 2.76622385e-01
      -2.23433711e-02 0. -7.62555981e-03 -1.48353577e-01 4.01120514e-01
      -2.10167706e-01 -7.67582729e-02 -9.53055620e-02 -1.59948483e-01
      -2.59860426e-01 -2.50421435e-01 -2.77188540e-01 2.94126868e-01
      -5.83904050e-02 1.37551188e-01 3.47258747e-01 1.21104360e-01
      -4.72524948e-02 1.86849847e-01 1.36714391e-02 -2.95286596e-01
      -2.28007026e-02 2.94187546e-01 -2.72923887e-01 1.08306902e-02
      -2.72534579e-01 -2.27756888e-01 1.51409745e-01 2.70069927e-01
      5.08750379e-01 1.13969028e-01 -2.92971313e-01 -3.71980816e-01 0.
      -1.83434114e-01 -2.70393848e-01 4.75912452e-01 2.58661788e-02
      1.56317189e-01 4.74967867e-01 1.29639164e-01 -2.45106936e-01
      5.44947274e-02 3.78867030e-01 1.64999351e-01 -7.16783553e-02
      -2.11478397e-01 2.55321443e-01 -2.55359888e-01 -2.60888219e-01
      1.64701268e-01 -2.10597798e-01 3.38180602e-01 -1.16739735e-01
      -1.72158554e-01 -4.85537559e-01 -3.37708294e-01 -5.22208273e-01
      -1.23396784e-01 8.47741887e-02 -3.02747697e-01 -1.46720976e-01
      -6.10953644e-02 4.03570443e-01 7.39571154e-02 0. -1.70884252e-01
      1.77351430e-01 -5.46345226e-02 -1.95898209e-02 -1.44178763e-01
      3.53030831e-01 -2.33827516e-01 -1.58863395e-01 -3.78019847e-02
      -3.07900637e-01 3.53435576e-01 1.32503033e-01 7.65898637e-03
      2.63945967e-01 2.15693891e-01 3.24122667e-01 -4.42125015e-02
      -4.08546515e-02 -2.55128741e-01 1.96744978e-01 1.39164329e-01
      1.06397875e-01 9.60716903e-02 1.99383851e-02 -8.64080619e-03
      2.35927571e-03 -1.51327595e-01 3.54461521e-01 -1.54673338e-01
      1.18447758e-01 -2.83276550e-02 0. -6.17351718e-02 -2.85884857e-01
      -2.58589894e-01 -2.08584473e-01 1.51602522e-01 -1.90924734e-01
      -4.42951351e-01 -5.06830774e-02 2.27141958e-02 6.84888810e-02
      -7.52133727e-02 2.94954121e-01 3.62918884e-01 -3.54023933e-01
      -4.26404886e-02 3.08010757e-01 7.13630021e-02 -9.97659415e-02
      -1.00779310e-01 3.27928402e-02 1.48353726e-01 3.98569405e-02
      -4.59907353e-01 -2.06668884e-01 -1.26110911e-01 1.74970720e-02
      -2.36983061e-01 -6.90218154e-03 -6.18160032e-02 5.83608635e-02
      -3.62494260e-01 0. 3.94106030e-01 -2.86617488e-01 -5.46251893e-01
      -1.91951692e-01 1.26882613e-01 4.11956012e-02 -2.80201644e-01
      1.71732649e-01 -2.25913063e-01 3.01208675e-01 2.57250547e-01
      2.14147285e-01 1.82164893e-01 -1.95462108e-01 1.33534446e-01
      3.06226969e-01 -1.40578017e-01 -5.03507629e-02 3.17102432e-01
      2.12898888e-02 2.45794430e-02 -1.84188634e-01 -1.50012761e-01
      -9.79449376e-02 -1.47437528e-01 1.66603148e-01 -2.02777371e-01
      2.50952214e-01 -1.38786152e-01 -6.70574903e-02 5.44148535e-02 0.
      9.81747881e-02 -1.28888831e-01 1.92187786e-01 -6.09910376e-02
      1.37642875e-01 1.47714019e-01 2.85992920e-01 -4.71387267e-01
      1.45909816e-01 -2.16085121e-01 1.24526136e-01 1.34932585e-02
      -3.92311335e-01 -1.45231426e-01 3.52392077e-01 4.22216266e-01
      -1.74623653e-01 -1.57406390e-01 -1.88441396e-01 -5.33325076e-01
      7.86944628e-02 -6.44414067e-01 -1.85437337e-01 5.92766628e-02
      2.23801494e-01 -3.25973958e-01 3.25344115e-01 -7.94893429e-02
      -8.48890319e-02 2.71239966e-01 -2.51563508e-02 0. 8.99768099e-02
      2.02806175e-01 7.13719130e-02 -8.29572454e-02 -6.75423071e-02
      -8.74176472e-02 6.27781749e-02 -6.12008525e-03 -8.07354525e-02
      5.08542806e-02 1.86967835e-01 3.95161659e-01 4.44500804e-01
      -3.20180170e-02 -5.86601766e-03 -2.71360219e-01 -1.73500538e-01
      -3.96617025e-01 2.50289917e-01 -2.40830392e-01 5.58588319e-02
      6.71610702e-03 8.08582380e-02 -5.19646049e-01 -4.10585105e-02
      1.27039716e-01 2.63423055e-01 -6.14116900e-02 -4.76242341e-02
      1.92396551e-01 5.81929125e-02 0. -5.27440786e-01 -1.11496232e-01
      2.89381891e-01 -2.86849618e-01 1.80707529e-01 4.13158417e-01
      -1.46396473e-01 4.40862887e-02 -3.72074693e-01 -5.96911795e-02
      -2.51507878e-01 -4.03602533e-02 1.38085112e-01 2.03328058e-01
      -1.00888357e-01 -1.41781598e-01 2.07722485e-02 6.35068715e-02
      -9.01981220e-02 -2.82506824e-01 7.36692324e-02 -2.07629800e-01
      9.43838432e-02 1.06099576e-01 -1.49726808e-01 3.53811294e-01
      3.16597372e-01 -3.59264433e-01 -9.53914151e-02 9.98955667e-02
      3.16340886e-02 0. 6.91295117e-02 -9.31773633e-02 5.41097462e-01
      -4.69965309e-01 2.55311310e-01 1.77819148e-01 -4.53737766e-01
      1.26295105e-01 4.05501753e-01 -1.30187631e-01 -1.93260610e-01
      -1.94367558e-01 9.70487967e-02 2.65837789e-01 -1.48252204e-01
      -6.33368492e-02 1.97153136e-01 2.56639421e-01 7.12376535e-02
      -4.01393443e-01 -2.56656259e-01 -2.30315015e-01 2.78684925e-02
      -4.02519822e-01 -4.02272582e-01 5.03248014e-02 3.92379314e-01
      2.48663321e-01 3.56567323e-01 -2.54260302e-01 -4.66589443e-02 0.
      2.83520281e-01 2.07274079e-01 2.10396454e-01 3.69155973e-01
      2.80200806e-03 -8.48049000e-02 -2.45896682e-01 3.93762290e-01
      -1.46865770e-01 -6.33063614e-02 -1.81883261e-01 1.04411125e-01
      -2.14359388e-01 1.79728821e-01 2.65617967e-01 -1.21448398e-01
      -1.61744624e-01 4.97323880e-03 3.65763962e-01 1.70515075e-01
      1.46838322e-01 -3.13601531e-02 2.55987585e-01 2.04913169e-01
      -2.45249376e-01 3.97061892e-02 1.42611593e-01 -1.05525203e-01
      -5.00626191e-02 1.25111654e-01 4.08224523e-01 0. 5.43427728e-02
      2.92952180e-01 -3.06008935e-01 -2.84192801e-01 -2.18888838e-02
      1.18743561e-01 -9.54031274e-02 2.90591091e-01 -4.68026400e-02
      -2.38219440e-01 -3.41588646e-01 -3.94106209e-02 6.89137205e-02
      -3.12692553e-01 -2.32526556e-01 1.02179036e-01 -6.15309104e-02
      -5.81371374e-02 6.66735172e-02 1.25963137e-01 2.20552310e-02
      -2.46558324e-01 5.02276957e-01 9.17859003e-02 -4.10408825e-02
      2.19297945e-01 -8.98270682e-02 1.56705081e-01 5.17426878e-02
      -4.74545628e-01 -2.57476747e-01 0. -1.04370870e-01 2.35565290e-01
      1.15920819e-01 2.39982411e-01 -5.92990071e-02 -1.06296800e-01
      -1.23989642e-01 1.53447151e-01 7.90639818e-02 -3.19845378e-01
      -3.86318155e-02 -7.74576738e-02 -4.83669303e-02 6.75269067e-02
      9.28362980e-02 -6.03788532e-02 2.18306795e-01 3.60891283e-01
      1.12633355e-01 -2.85965055e-01 2.70037442e-01 1.66507229e-01
      -1.73954293e-01 -1.57681704e-01 -1.15263492e-01 -1.45355135e-01
      2.90159851e-01 3.67984384e-01 -6.46870062e-02 1.53448626e-01
      -1.62166387e-01 0. 3.38083029e-01 -1.58587083e-01 -1.10232402e-02
      -4.87536006e-02 -1.68316469e-01 -7.97879547e-02 1.88520879e-01
      -1.15669519e-01 8.79993066e-02 -3.80042702e-01 3.27675432e-01
      2.09256232e-01 -3.30756366e-01 1.40449211e-01 6.29767478e-02
      -1.31254166e-01 1.52904987e-01 -4.98209186e-02 3.22283298e-01
      -3.91680598e-01 -2.64552325e-01 -2.25171432e-01 -3.26907814e-01
      -3.17686170e-01 -1.19100213e-01 -1.99079424e-01 -3.19031835e-01
      -4.79434989e-02 -3.35879438e-02 2.93746173e-01 -1.96255952e-01 0.
      3.48455496e-02 1.35868624e-01 -1.75465226e-01 -3.92461568e-01
      -7.73414895e-02 -3.31106424e-01 -2.91340947e-01 -4.96685952e-01
      -3.15736353e-01 1.03293080e-02 2.62133420e-01 4.30020154e-01
      3.41740400e-01 -1.27673075e-02 2.28813350e-01 4.56936806e-01
      3.15254718e-01 -1.59680635e-01 2.68285751e-01 -9.70856175e-02
      3.33471954e-01 -2.17423886e-01 -1.32770687e-01 9.33946222e-02
      -2.35018745e-01 2.08259240e-01 -1.62088647e-01 3.39632481e-02
      -3.58617932e-01 2.52240896e-01 5.51398769e-02 0. 4.03342426e-01
      2.87328869e-01 -2.36013666e-01 2.49132305e-01 -4.94091287e-02
      -2.37467006e-01 4.08230424e-01 9.50333923e-02 9.64019820e-02
      -4.79303449e-01 1.16116762e-01 2.32530966e-01 1.19446456e-01
      -1.33813024e-01 5.41251041e-02 1.50717512e-01 3.34011242e-02
      -7.42052644e-02 2.12215826e-01 -3.65254991e-02 1.16597554e-02
      1.30135208e-01 -2.24676877e-01 -1.53785095e-01 1.31098889e-02
      -4.58047092e-02 -7.36301243e-02 1.07023500e-01 8.16686600e-02
      9.75887552e-02 2.01898873e-01 0. 1.59980327e-01 3.69901732e-02
      4.14084718e-02 1.03868864e-01 3.09899785e-02 2.78489560e-01
      -3.59996408e-02 1.90435901e-01 -2.30684116e-01 -2.00131327e-01
      -3.16906981e-02 1.28857285e-01 1.60001636e-01 8.31542686e-02
      -4.14001077e-01 -5.73974550e-02 -5.89357018e-02 -3.35696898e-03
      1.90574020e-01 -3.15209866e-01 -1.10895507e-01 2.25205585e-01
      -2.32942462e-01 -1.55192669e-02 -3.68982367e-02 -9.61026549e-02
      -2.98587512e-02 -1.82477638e-01 -6.70309514e-02 1.03548564e-01
      2.31745243e-01 0. -3.20959315e-02 5.03915595e-04 -2.08792210e-01
      2.06672013e-01 6.08349621e-01 5.04737020e-01 -2.46626943e-01
      -1.71638861e-01 -2.35579491e-01 1.92746863e-01 4.08111036e-01
      4.87570390e-02 3.42505015e-02 4.17817950e-01 3.49512309e-01
      -2.24435225e-01 -8.77927765e-02 -1.66782275e-01 3.42970528e-02
      1.87504530e-01 -3.27842087e-01 6.25517443e-02 -1.95935801e-01
      -2.61083484e-01 -3.98562193e-01 1.18880160e-01 2.33723581e-01
      1.78786144e-01 3.71405870e-01 -2.70820763e-02 1.35772705e-01 0.
      2.15344921e-01 -2.01465562e-01 -3.37256432e-01 1.90568075e-01
      5.49283504e-01 4.82278727e-02 -2.55714685e-01 4.04360294e-01
      4.04198132e-02 -8.69778022e-02 -6.30490184e-01 2.38389120e-01
      -4.49651927e-02 3.67311388e-01 -5.92710227e-02 5.79887033e-02
      2.30433464e-01 -3.02014276e-02 5.29375933e-02 -4.72600460e-01
      -3.93847555e-01 3.29184392e-03 -2.32757609e-02 -1.80256426e-01
      -2.21903831e-01 2.55176097e-01 7.97436386e-02 1.77601069e-01
      -2.67391741e-01 9.60676596e-02 3.21810126e-01 0. -2.05588043e-01
      6.50601923e-01 -2.43063197e-01 -5.48882008e-01 -1.19242221e-02
      4.20637354e-02 -1.80730090e-01 2.39972733e-02 -1.20408431e-01
      2.26020113e-01 -2.00014383e-01 -4.07842360e-03 4.74283159e-01
      3.05139810e-01 -2.37113833e-02 2.75842756e-01 1.90767441e-02
      1.05794773e-01 8.35169405e-02 1.75155878e-01 4.29517120e-01
      -2.31973268e-02 6.28857389e-02 1.76210374e-01 -1.66423351e-01
      1.71466127e-01 -2.48682499e-01 1.12707086e-01 4.52656627e-01
      3.75050530e-02 -3.27373117e-01 0. -6.42143726e-01 2.64000058e-01
      2.24844441e-01 3.05883825e-01 -1.49532869e-01 -8.69785920e-02
      1.49870038e-01 1.79266706e-01 -5.32193594e-02 -1.45161733e-01
      1.72785431e-01 -2.86295563e-01 -2.42157280e-01 -1.74497530e-01
      5.03944755e-01 3.30065191e-01 -2.41608039e-01 3.45691085e-01
      1.94362491e-01 -1.02044076e-01 7.71407224e-03 -2.43032146e-02
      -1.69667125e-01 1.83356106e-01 1.98620595e-02 -3.00556242e-01
      2.41506591e-01 1.30029306e-01 8.94660950e-02 -1.47169977e-02
      9.59395897e-03 0. -1.13403216e-01 -7.58790746e-02 2.77253598e-01
      2.25309990e-02 -1.35414526e-01 1.36027053e-01 2.60245558e-02
      -5.12028337e-02 -2.15870425e-01 -1.89965919e-01 5.90515044e-03
      -2.62319863e-01 -1.29810214e-01 1.00311756e-01 -7.62551874e-02
      2.70179629e-01 3.20735246e-01 2.16090366e-01 -1.07610323e-01
      -6.95175305e-02 6.47109584e-04 -9.17343795e-02 -2.00679317e-01
      -5.40693045e-01 -2.25055873e-01 7.98033997e-02 -2.58566082e-01
      2.85233818e-02 -1.61073059e-01 2.04808384e-01 -1.33634368e-02 0.
      5.41468225e-02 9.10466611e-02 1.77714780e-01 -4.77713756e-02
      6.07184470e-01 -1.21440459e-02 -1.47549644e-01 8.42057616e-02
      1.66125700e-01 -1.23374850e-01 -2.65886396e-01 -1.54955789e-01
      3.83857161e-01 6.31139874e-02 1.28674537e-01 1.43491358e-01
      -2.67244339e-01 -2.29802266e-01 -1.07038014e-01 -4.14067805e-01
      -2.68219531e-01 -1.27139270e-01 3.33193272e-01 -1.66187152e-01
      -2.11337298e-01 2.74699539e-01 -2.54118532e-01 1.34155303e-01
      -2.60181963e-01 3.57803494e-01 7.50256404e-02 0. -5.04212141e-01
      -6.02318011e-02 1.98849231e-01 1.77542842e-03 1.99974072e-03
      -8.94402862e-02 3.78089488e-01 -8.35071877e-02 2.40101323e-01
      2.77235389e-01 2.29428247e-01 8.73406827e-02 -4.09508236e-02
      -2.28770763e-01 -3.10509324e-01 -1.85778499e-01 -4.50934082e-01
      4.38676625e-01 3.27448770e-02 1.73334137e-01 -2.68108174e-02
      -1.96830481e-01 7.41566494e-02 -1.04068324e-01 3.12526911e-01
      -2.00902924e-01 1.88249275e-01 -4.70661409e-02 -1.72358170e-01
      1.12580031e-01 5.93090132e-02 0. -1.97251648e-01 -3.63481045e-01
      1.71953544e-01 5.46157002e-01 -2.92081058e-01 5.13849370e-02
      2.79966407e-02 1.71764463e-01 -2.86187708e-01 1.08021677e-01
      2.99787641e-01 1.53454870e-01 -2.46388078e-01 -1.36529535e-01
      -1.09668963e-01 3.39900166e-01 2.38391325e-01 1.51524320e-01
      1.50231898e-01 -5.35229035e-02 3.47864062e-01 3.00236255e-01
      -1.31227195e-01 -8.45253766e-02 -4.02790457e-01 1.81663826e-01
      1.04899392e-01 1.12405129e-01 -2.05924019e-01 2.76508272e-01
      1.13402672e-01 0. -3.32435042e-01 1.70175985e-01 -6.16251051e-01
      -2.95131713e-01 6.09022155e-02 5.82630932e-01 -5.87880388e-02
      1.17787486e-02 -3.98229182e-01 5.72709978e-01 -1.21884100e-01
      4.71968025e-01 -7.10063353e-02 6.69240057e-02 1.33881252e-02
      5.60617745e-02 1.23675875e-01 2.92399436e-01 4.63473827e-01
      4.29582074e-02 -3.07887048e-01 -2.02077925e-01 1.13709144e-01
      2.97447532e-01 -2.66920179e-01 -3.03138047e-01 7.89054036e-02
      5.35670102e-01 7.98632801e-02 -5.82501255e-02 -3.07964653e-01 0.
      -1.54642299e-01 2.05213606e-01 -9.90385637e-02 1.24132909e-01
      -2.61638612e-02 -4.80216295e-02 -2.52408266e-01 -1.66633129e-02
      2.12214977e-01 -2.72149384e-01 8.62294585e-02 6.17516756e-01
      -1.15883984e-01 1.05537251e-01 8.84707421e-02 -5.40834069e-02
      2.48773679e-01 -2.26294436e-02 -2.73799092e-01 2.40554005e-01
      1.63995251e-01 -6.97427541e-02 -7.57034570e-02 -8.83437991e-02
      -3.82412493e-01 1.36988133e-01 -2.68382709e-02 2.71464914e-01
      -4.20252047e-03 2.89244503e-02 -8.99309933e-04 0. 2.14825004e-01
      2.43306130e-01 3.47004235e-01 2.54215032e-01 -5.63340604e-01
      5.75256944e-01 -2.54454231e-03 2.05295056e-01 -6.13597855e-02
      9.24381614e-02 -1.66314051e-01 7.26020485e-02 -5.42588905e-02
      1.70943905e-02 -4.39316958e-01 -8.07367042e-02 -5.00528254e-02
      -1.58531845e-01 8.03782493e-02 1.29129022e-01 3.17369729e-01
      -5.80924004e-02 -2.93298453e-01 1.92287698e-01 -1.20747890e-02
      -2.43407413e-02 -2.83970535e-01 -5.25375940e-02 1.66151166e-01
      1.98184967e-01 -1.01751611e-01 0. 3.76733132e-02 1.72326136e-02
      -5.57790697e-01 6.44882992e-02 -2.50755221e-01 3.01183552e-01
      -1.56853318e-01 -4.17976119e-02 -6.05244413e-02 -1.77447245e-01
      4.12011534e-01 -9.48928744e-02 -9.26397294e-02 -3.44278485e-01
      -4.52443600e-01 6.54752851e-02 -1.59056395e-01 -1.37568206e-01
      4.07264847e-03 5.23573995e-01 -1.47797272e-01 -2.64521927e-01
      3.10374230e-01 2.85908550e-01 8.12113881e-02 3.94429192e-02
      2.19225794e-01 1.41562358e-01 -2.91750133e-02 -4.30027306e-01
      -4.49791104e-01 0. -1.60205781e-01 3.17109793e-01 -9.72762033e-02
      -1.42995194e-01 -1.69629037e-01 -5.76592125e-02 1.24411732e-01
      2.36664992e-02 -3.61192912e-01 -1.97517425e-01 -1.06315009e-01
      -2.57092081e-02 3.69630069e-01 3.48017812e-02 -2.60279477e-02
      -1.46729395e-01 1.77926570e-01 8.91483054e-02 -3.57396811e-01
      5.04772246e-01 -1.62438974e-01 -7.32077286e-02 4.70988035e-01
      4.55510467e-01 2.08076343e-01 1.64731324e-01 -6.35967404e-02
      -2.25229219e-01 -1.44435316e-01 1.51233926e-01 5.12896702e-02 0.
      -2.96939731e-01 1.61750361e-01 -8.04292187e-02 -2.31276944e-01
      -3.24420296e-02 -1.87258516e-02 -1.19737983e-01 1.57598928e-01
      2.43362561e-02 6.78053824e-03 -6.75306991e-02 4.71001267e-01
      7.20592439e-02 2.87224277e-04 -1.44528732e-01 -2.11971760e-01
      -5.04540280e-02 3.02673094e-02 -3.67671341e-01 -1.85693696e-01
      9.45921317e-02 2.01358706e-01 4.77965444e-01 2.52174586e-01
      -5.31618059e-01 -2.31831804e-01 -1.99766271e-02 1.44108340e-01
      -1.78938925e-01 -1.35944724e-01 1.52340811e-02 0. -9.04785022e-02
      -2.07757428e-02 1.94807038e-01 2.39211190e-02 -2.24821389e-01
      4.03227769e-02 9.91713256e-02 4.41042794e-04 2.57865906e-01
      3.67782801e-01 -2.21849725e-01 -2.57261276e-01 -1.61204249e-01
      6.24598935e-02 -2.90609509e-01 -1.60435826e-01 -6.31357059e-02
      -9.88166034e-02 1.47406742e-01 4.35458347e-02 -2.71363318e-01
      2.14985341e-01 3.12200516e-01 4.63281795e-02 1.76314324e-01
      3.51944529e-02 3.05621445e-01 -5.05680107e-02 -1.87621325e-01
      -4.55683209e-02 2.79683694e-02 0. 2.65675597e-02 -4.92942939e-03
      5.21003120e-02 -3.39181185e-01 -2.00923145e-01 -6.15976043e-02
      -2.68407822e-01 1.37369052e-01 5.61190903e-01 -1.57261267e-01
      -2.35631093e-01 -5.07649221e-02 2.11136173e-02 -7.70090744e-02
      -5.58506139e-02 4.16947715e-02 -1.12669431e-01 1.07586281e-02
      1.30009383e-01 -2.66823620e-01 -2.85851151e-01 -1.61581412e-01
      2.21471578e-01 -4.78607453e-02 3.31725180e-02 1.18489914e-01
      3.28741044e-01 -1.30302325e-01 -1.39852002e-01 -1.11558601e-01
      4.54018079e-02 0. -1.09320104e-01 1.24244548e-01 -6.98167384e-02
      -3.16484421e-01 7.05937063e-03 4.76350784e-01 7.29521886e-02
      -3.79265577e-01 -2.27992818e-01 -3.60842586e-01 2.91945189e-02
      -7.68631091e-03 6.72560483e-02 3.31574887e-01 8.47504362e-02
      -6.29355833e-02 1.41385242e-01 2.19645277e-01 1.42091647e-01
      1.60578862e-01 -1.89303346e-02 -1.22749403e-01 -4.42917854e-01
      3.35350424e-01 1.91459507e-01 -2.23920137e-01 -2.99755707e-02
      8.56634825e-02 2.86992282e-01 -1.99410960e-01 -1.63784400e-01 0.
      6.37118742e-02 -5.71949542e-01 6.54076487e-02 -3.92584391e-02
      -4.60720956e-02 1.58342525e-01 3.33342612e-01 -2.10035309e-01
      2.66242713e-01 2.84564137e-01 -1.44164711e-01 -1.03051931e-01
      3.37771177e-01 1.40668750e-01 -2.60201871e-01 -2.04232812e-01
      1.45356893e-03 3.92323256e-01 -6.40440509e-02 -2.35892698e-01
      -2.76449561e-01 -9.10433605e-02 -4.88754809e-02 -2.51541197e-01
      5.12139127e-02 1.09504573e-01 1.88612118e-01 1.20641358e-01
      -5.76799735e-02 3.09873015e-01 -1.53698429e-01 0. 2.87496954e-01
      -3.61203879e-01 8.55573118e-02 3.34291160e-02 1.15244426e-01
      -2.19435096e-01 1.95478469e-01 1.56716719e-01 -1.36292264e-01
      4.69434291e-01 1.34137332e-01 -3.40262093e-02 3.05862993e-01
      -8.29446241e-02 2.03618124e-01 -2.54474968e-01 1.21523589e-01
      -6.11335672e-02 4.52067517e-03 6.14546947e-02 6.43160343e-02
      -1.11916531e-02 2.41645381e-01 1.63811240e-02 -9.00837407e-02
      4.76245359e-02 -9.51138064e-02 2.27802306e-01 4.63364683e-02
      2.83736736e-01 -1.05808355e-01 0. -1.38828889e-01 1.90428212e-01
      -3.68719846e-01 -1.00234106e-01 2.49822974e-01 2.10879922e-01
      -6.58910125e-02 1.32589728e-01 1.20331325e-01 5.88113703e-02
      3.69509012e-01 1.00541316e-01 -1.62030131e-01 -4.16086316e-01
      -1.17993854e-01 -3.67737524e-02 -2.00211123e-01 1.31152496e-02
      7.88105249e-01 1.98502973e-01 3.85587402e-02 -5.01641585e-03
      4.30492073e-01 1.17045149e-01 -1.70203254e-01 2.72572070e-01
      2.50155091e-01 5.39336689e-02 9.66076031e-02 4.59900685e-02
      -2.72304088e-01 0. 3.01070154e-01 -4.21719193e-01 -3.54692638e-01
      2.36084536e-01 1.06636785e-01 -2.29880646e-01 -1.79806709e-01
      2.14400053e-01 -7.59195760e-02 -4.45184350e-01 2.80650109e-01
      -2.99068421e-01 -2.98699439e-01 -2.59667337e-01 5.09726226e-01
      -1.63384259e-03 -4.95458066e-01 1.14644296e-01 -1.02039412e-01
      -3.81799489e-02 -2.98128396e-01 4.65225458e-01 4.14903730e-01
      3.03322613e-01 -1.46667629e-01 -1.67760670e-01 -1.61761239e-01
      3.47542167e-02 -2.43091211e-01 -1.79591328e-01 -2.24193037e-01 0.
      -3.40830803e-01 1.43542022e-01 5.18371239e-02 3.12576927e-02
      -4.06046927e-01 3.46051482e-03 -1.07644834e-01 3.93012874e-02
      2.63281316e-02 -1.16862185e-01 5.33662662e-02 -2.89869159e-01
      -2.93428689e-01 2.00294361e-01 -7.40679130e-02 2.83796817e-01
      4.59079184e-02 -2.26656795e-02 -4.01196748e-01 -3.22678119e-01
      2.48306133e-02 5.97974919e-02 2.55571067e-01 -4.54198522e-03
      2.97069848e-01 2.41428956e-01 2.51338892e-02 5.34765609e-02
      -2.24502325e-01 -1.76874638e-01 -1.61732826e-02 0. -3.34928632e-01
      -9.42668542e-02 -3.36704999e-01 -2.39615254e-02 -3.36983241e-02
      2.74545819e-01 9.14121419e-02 2.18757242e-03 -2.10656643e-01
      1.00293249e-01 -2.26524368e-01 1.25165716e-01 -2.19016880e-01
      3.16483587e-01 -2.80002177e-01 -5.17116077e-02 4.25869040e-02
      4.27959412e-02 2.46997327e-01 6.64233416e-02 3.32203042e-03
      -1.96390226e-01 2.51902372e-01 1.17767192e-01 -6.87224343e-02
      -2.37746879e-01 7.50706717e-02 -2.92181168e-02 -8.63049626e-02
      -7.19485879e-02 -1.97191253e-01 0. 2.58021861e-01 9.28441063e-02
      4.21565846e-02 1.33762717e-01 -2.05915630e-01 -1.98667422e-01
      -2.75322944e-01 2.73508042e-01 -8.56993198e-02 4.41291705e-02
      -7.93582723e-02 2.97834188e-01 -9.72953066e-02 -5.84942698e-02
      -1.64069086e-01 -2.21950203e-01 -8.92309994e-02 -1.53950959e-01
      2.44311824e-01 1.67336240e-01 3.50422919e-01 6.27792701e-02
      1.11463442e-01 -2.73306072e-02 -1.98852301e-01 3.56537730e-01
      -9.25117508e-02 -2.59635188e-02 3.44163403e-02 9.25080571e-03
      -2.47604191e-01 0. 7.53277913e-02 9.70412195e-02 2.23346323e-01
      -1.31387621e-01 -1.78225398e-01 -1.17906108e-01 2.15371788e-01
      1.61702603e-01 -1.21665053e-01 1.66531041e-01 -7.08996877e-02
      -1.58014856e-02 -3.47041965e-01 4.40924555e-01 9.19835735e-03
      2.19043329e-01 -2.37520769e-01 -3.19742739e-01 4.70739216e-01
      -1.81896284e-01 -2.35037252e-01 -3.08202446e-01 -5.47775403e-02
      -6.26901835e-02 2.01315343e-01 -4.91973497e-02 -1.33334428e-01
      2.95920193e-01 -1.39835952e-02 -2.13207245e-01 -3.65345851e-02 0.
      -1.95141777e-01 -2.46982932e-01 3.34873460e-02 -1.66520402e-02
      1.62842005e-01 3.01266342e-01 -8.45916644e-02 -1.00491814e-01
      -9.87458974e-02 2.52922207e-01 1.31139100e-01 1.15830101e-01
      -7.91580603e-02 6.66443026e-03 -3.34892273e-02 3.72194052e-02
      7.25436285e-02 6.77014962e-02 1.02404840e-01 1.75383970e-01
      1.27746269e-01 -2.68817842e-01 -5.18567488e-02 -2.89140910e-01
      -3.18726078e-02 1.40638901e-02 -1.31064653e-01 -4.08233106e-02
      -9.60253105e-02 1.79602906e-01 1.11093014e-01 0. 3.91956307e-02
      -1.32091567e-01 1.24251142e-01 2.40594253e-01 2.53488004e-01
      1.60716459e-01 1.07838988e-01 -2.54502241e-02 2.59894639e-01
      8.69285837e-02 -3.22693974e-01 -6.87954873e-02 -2.27073371e-01
      -1.61695763e-01 -4.68312390e-02 3.57837558e-01 -3.20986569e-01
      -2.19046399e-01 1.18819907e-01 1.98244795e-01 1.17724910e-02
      1.47301078e-01 -1.09142803e-01 3.43045429e-03 2.54384041e-01
      -2.55097270e-01 -1.26883537e-01 -2.04507992e-01 1.56196710e-02
      1.58938408e-01 7.99562186e-02 0. -2.88380776e-04 1.57785475e-01
      5.67320772e-02 -1.48019344e-01 2.54774168e-02 -5.46809956e-02
      -4.06322069e-02 -5.95899634e-02 6.93412125e-02 -7.30833352e-01
      -3.28396171e-01 -6.55414909e-02 4.90962639e-02 -5.46390355e-01
      -1.92628633e-02 2.61235803e-01 -2.03129545e-01 2.85279036e-01
      4.99895036e-01 2.87283119e-02 1.21229380e-01 -6.43600058e-03
      -4.55702804e-02 2.20899746e-01 -8.35182816e-02 -1.96369980e-02
      1.83292791e-01 -2.22075596e-01 -8.55994895e-02 -2.01950788e-01
      -9.93367657e-02 0. -9.72441360e-02 -4.54654954e-02 3.53939950e-01
      1.57109603e-01 -1.35449946e-01 -1.31987527e-01 -2.36542135e-01
      -4.41034138e-03 -1.46046475e-01 -1.80902287e-01 -7.28611425e-02
      1.08312190e-01 -2.96579123e-01 -1.65444881e-01 2.53755510e-01
      2.99462639e-02 -1.55248314e-01 -2.19182044e-01 -4.30005610e-01
      2.81321317e-01 4.74759340e-01 9.33187008e-02 -9.61327255e-02
      2.47655824e-01 -8.99849907e-02 1.63751960e-01 -1.94813043e-01
      -2.14058056e-01 2.82292347e-02 -3.19445580e-01 4.12752256e-02 0.
      -1.24648780e-01 -4.51686233e-02 -5.12889475e-02 2.98823208e-01
      -5.77701867e-01 -3.44604731e-01 -2.26364717e-01 2.31340721e-01
      3.89431715e-01 -1.24180123e-01 -2.67411470e-01 -1.02686748e-01
      -1.83431759e-01 2.12114930e-01 -6.34083673e-02 -8.16027001e-02
      -2.96956480e-01 4.06522363e-01 -1.66885927e-01 -8.86386782e-02
      4.64987159e-02 2.38560498e-01 9.12166163e-02 -2.55923234e-02
      -2.20453478e-02 -1.12296296e-02 1.29621208e-01 -1.46455690e-01
      3.06924492e-01 -4.02698547e-01 -2.06176221e-01 0. 4.14672792e-02
      -6.92393556e-02 5.05191199e-02 2.08297759e-01 -3.02614011e-02
      -1.51491970e-01 -2.78953761e-01 1.08242050e-01 2.15220943e-01
      -9.16875601e-02 6.05764017e-02 -9.04586911e-02 -3.67374420e-02
      -2.18121499e-01 1.16168074e-01 4.69366796e-02 4.37315516e-02
      -2.91906536e-01 3.54665339e-01 9.37506035e-02 2.62109071e-01
      6.35351598e-01 5.59504330e-02 -1.78540032e-02 -4.36807610e-02
      -3.35966825e-01 -1.60167679e-01 -6.63325638e-02 5.39651327e-02
      -2.52884924e-01 9.19193476e-02 0. -7.10106567e-02 -4.75423992e-01
      -2.14251816e-01 2.66732126e-01 -2.55118221e-01 9.22613665e-02
      2.88736016e-01 -4.30090539e-02 -2.38366857e-01 -4.30129141e-01
      -1.06608644e-01 -1.94860419e-04 -7.16382358e-03 -3.91294211e-01
      2.02465102e-01 -1.55002609e-01 5.36558092e-01 1.72488198e-01
      1.65885940e-01 -1.80645332e-01 -2.07676634e-01 1.41559660e-01
      5.91152683e-02 4.67311978e-01 -2.25676447e-01 1.02663815e-01
      -2.62532860e-01 -1.03938460e-01 -8.64772126e-02 -7.84502476e-02
      -1.21610209e-01 0. -1.63792729e-01 -4.12659496e-01 -5.54475971e-02
      1.66319042e-01 1.54810771e-01 9.57500041e-02 2.30827034e-02
      -2.39467964e-01 1.77518174e-01 -6.51050881e-02 2.27456897e-01
      4.89235036e-02 5.21609141e-03 1.41479686e-01 -2.23369181e-01
      4.82811369e-02 1.31059811e-01 2.44612992e-03 3.42896208e-02
      -2.66395919e-02 -6.99157417e-02 -6.11263029e-02 -1.06241778e-01
      2.33235061e-01 -7.28400797e-02 -2.41503529e-02 2.15287372e-01
      3.73608112e-01 2.92012542e-01 -3.11883301e-01 -3.24273914e-01 0.
      1.07222244e-01 -7.48415366e-02 -2.00631127e-01 -1.47078305e-01
      -1.25583947e-01 1.53145477e-01 -1.17016502e-01 1.51237741e-01
      1.98361397e-01 -2.96317995e-01 -2.48436972e-01 9.62715000e-02
      7.13907406e-02 8.02221801e-03 -1.33192778e-01 1.11985551e-02
      1.04778700e-01 -7.55287707e-02 1.98059201e-01 -7.38836601e-02
      5.32473400e-02 3.48586291e-02 -4.55148220e-01 4.68268782e-01
      -1.58408612e-01 -5.42340986e-02 -2.93296874e-01 -3.85344148e-01
      -2.43380219e-01 2.48898461e-01 1.36112496e-01 0. 3.93855572e-02
      -2.06819430e-01 4.59089503e-02 1.22376382e-01 3.74297332e-03
      -1.24888636e-01 -1.20719120e-01 4.50211942e-01 -1.78026676e-01
      -1.85744882e-01 3.17395329e-02 -2.85298437e-01 1.96314707e-01
      5.44032991e-01 -1.14905059e-01 -1.76561892e-01 -1.38526410e-01
      -9.39040184e-02 2.59864956e-01 -8.90814289e-02 -1.54103830e-01
      4.24484372e-01 2.77756870e-01 1.76119968e-01 -2.05990076e-01
      2.57968783e-01 -3.03236485e-01 1.25442028e-01 -1.22463644e-01
      -6.23318441e-02 -3.10055260e-02 0. -5.66026010e-03 2.19651535e-01
      9.98152643e-02 -1.43928230e-01 -3.20416600e-01 -6.00002408e-01
      1.16986789e-01 -2.12981645e-02 1.71233565e-01 -7.26605356e-02
      -7.04866946e-01 1.91205591e-01 8.49580988e-02 -1.74951348e-02
      1.19460300e-01 -9.08485949e-02 -7.97036812e-02 -1.62951261e-01
      4.73647833e-01 -4.80366163e-02 -4.91926400e-03 -2.82110959e-01
      -6.46756142e-02 -2.46626377e-01 -5.79225011e-02 -2.20688403e-01
      1.20011978e-01 -1.31118745e-01 -1.74277663e-01 -8.49752650e-02
      -1.83096200e-01 0. -1.32891331e-02 6.84128469e-03 1.57747805e-01
      -2.05326751e-01 1.76193211e-02 -3.78332287e-01 2.02641770e-01
      -1.50728628e-01 3.58371794e-01 -1.26061395e-01 1.75036475e-01
      1.10432968e-01 1.52277611e-02 1.33672148e-01 4.50812906e-01
      -2.81260073e-01 -4.15193021e-01 -1.49683520e-01 8.49170908e-02
      -1.82203092e-02 -5.50972968e-02 -4.85174805e-02 -1.46009684e-01
      1.16177417e-01 6.54047029e-03 -3.39272588e-01 3.90533864e-01
      7.81483874e-02 -4.08574082e-02 -5.25010973e-02 -2.79091261e-02 0.
      -3.41548845e-02 4.49627012e-01 1.29765436e-01 4.19412553e-02
      -1.51641235e-01 -4.66014057e-01 -1.58913329e-01 -3.54044512e-02
      2.60851234e-01 -1.26772091e-01 -4.55538571e-01 -6.17684312e-02
      -4.38065380e-01 -1.32969216e-01 2.44736329e-01 3.35615277e-02
      1.04453713e-02 2.26697579e-01 -1.11164473e-01 1.66763932e-01
      8.88074115e-02 -1.66095436e-01 -1.17956787e-01 1.61385372e-01
      -2.89686304e-02 1.41856194e-01 6.55596331e-02 -9.83340517e-02
      -6.13324232e-02 -7.45626958e-03 -1.45705581e-01 0. 2.68573035e-02
      2.16481283e-01 -2.19758943e-01 -3.38258706e-02 -1.50251418e-01
      1.23871170e-01 1.25610039e-01 5.67731783e-02 4.20213640e-01
      2.46275380e-01 2.04975262e-01 -5.83904028e-01 -6.86249614e-01
      -1.95540175e-01 -6.16923943e-02 6.41177893e-02 -1.44978091e-01
      6.53098226e-02 4.92281616e-01 1.17602922e-01 -3.55202943e-01
      -2.48549804e-01 2.40691051e-01 -5.90187646e-02 1.86239183e-01
      -3.25583667e-01 1.63449988e-01 -5.12708724e-02 -1.73070859e-02
      -1.50175942e-02 -1.64226741e-01 0. -2.15986282e-01 1.06934905e-01
      -1.63163960e-01 1.29730403e-01 1.34384707e-01 2.00630680e-01
      -1.80196017e-01 -3.86973917e-01 4.40214545e-01 -1.39660105e-01
      1.80741146e-01 9.03100446e-02 -1.91172585e-01 -1.71621107e-02
      -6.07343540e-02 1.30636200e-01 2.87610441e-01 5.12027629e-02
      -7.94120356e-02 -1.79581940e-02 6.43848777e-02 2.56881833e-01
      4.63274002e-01 -1.85717657e-01 -2.34358236e-01 1.64379880e-01
      1.53836936e-01 -1.51689917e-01 2.21473575e-01 -5.42800799e-02
      1.71805546e-01 0. -1.25138899e-02 7.09946007e-02 -1.66385174e-01
      -8.08836669e-02 7.95417875e-02 -2.52470046e-01 2.80023813e-01
      -8.92800018e-02 -3.12059551e-01 4.66307789e-01 1.26435891e-01
      -1.06114693e-01 2.78791636e-01 2.54279107e-01 1.36747226e-01
      1.70232385e-01 -2.59071410e-01 1.10802203e-02 -3.20359692e-02
      -1.13841124e-01 1.87018653e-03 4.72761020e-02 -2.79293329e-01
      2.19856590e-01 1.49141056e-02 -1.45749450e-01 1.91526353e-01
      7.91649893e-02 6.07541621e-01 -2.11799115e-01 -1.94115460e-01 0.
      -1.23654574e-01 -4.76425476e-02 -2.96507895e-01 9.43768173e-02
      5.32122195e-01 7.57238641e-02 2.79922873e-01 3.94335717e-01
      -6.75764456e-02 -1.58293828e-01 -4.35433209e-01 4.72814962e-02
      -4.71125841e-01 -1.35376498e-01 1.11138243e-02 -8.51414800e-02
      1.33479461e-01 -7.97837898e-02 2.27798581e-01 -2.68584061e-02
      -1.10374220e-01 -1.47014797e-01 -3.00390840e-01 -4.74970974e-02
      -9.97007042e-02 2.66050756e-01 -1.49641514e-01 -5.33422232e-01
      -1.85212031e-01 1.68402135e-01 3.93642694e-01 0. -2.06567198e-01
      -2.16692850e-01 3.01241189e-01 -1.20682515e-01 -2.74382740e-01
      -1.88487753e-01 -7.95015469e-02 6.15199097e-02 -5.75537741e-01
      -2.39690170e-02 2.48209253e-01 1.41900644e-01 -7.27127120e-02
      2.14335009e-01 -6.54006377e-02 -1.42045215e-01 2.09338576e-01
      1.19366117e-01 2.79550433e-01 1.30511954e-01 3.05746913e-01
      -7.68266991e-02 -2.91305203e-02 -1.04108863e-01 -2.21971169e-01
      6.38511702e-02 -4.41448800e-02 -1.12859748e-01 1.30075499e-01
      -3.25184703e-01 -7.90181011e-03 0. -1.25641152e-01 9.35206935e-02
      3.01353753e-01 -2.50290483e-02 -2.52601624e-01 4.76422340e-01
      2.28521019e-01 -2.53608264e-02 1.15419682e-02 2.19725315e-02
      6.96449876e-02 9.62319151e-02 4.33875680e-01 -1.40862197e-01
      -3.19601223e-02 -1.55583397e-01 6.01875894e-02 7.57284984e-02
      3.74575257e-01 -2.46148035e-01 8.16046894e-02 2.34305546e-01
      -2.83487827e-01 2.42404848e-01 -2.61133686e-02 1.16781592e-01
      7.03359991e-02 2.50416715e-02 3.52678984e-01 -1.22291364e-01
      2.68749774e-01 0. 3.32921334e-02 -1.40186593e-01 1.75757170e-01
      6.63026333e-01 -7.51788914e-02 -2.50785947e-02 1.78231448e-02
      -1.15415700e-01 -1.92667529e-01 1.46317348e-01 7.46378750e-02
      6.19278587e-02 -8.07335526e-02 -2.76523679e-02 -7.45245889e-02
      3.85723673e-02 1.01849206e-01 3.97150725e-01 -1.13619842e-01
      1.36332557e-01 1.77938789e-01 2.68572062e-01 -4.71855327e-02
      -2.71040559e-01 -1.58780783e-01 -2.46329680e-01 1.35255814e-01
      -1.24592520e-02 3.00237119e-01 -5.63338324e-02 2.30017230e-01 0.
      -1.72183290e-02 2.46080831e-02 1.81932390e-01 2.98941225e-01
      -2.77928025e-01 3.50606032e-02 -1.11652695e-01 8.18509012e-02
      1.74286082e-01 1.58426359e-01 -3.59699905e-01 -1.21438310e-01
      -3.53836268e-01 3.07802316e-02 1.78411201e-01 5.41152917e-02
      1.57964155e-01 -3.55046511e-01 2.41984110e-02 5.89621216e-02
      3.95942181e-02 1.78428933e-01 -2.51691848e-01 -1.47923514e-01
      -1.43169567e-01 1.69749916e-01 2.77923316e-01 -2.60540962e-01
      7.45335668e-02 -1.31583527e-01 2.13674083e-01 0. -2.47629434e-01
      3.42188239e-01 -6.14214092e-02 -8.96623954e-02 1.37414292e-01
      2.86155403e-01 -6.45600483e-02 2.49239907e-01 2.34915599e-01
      -3.67123425e-01 1.47150367e-01 9.06799808e-02 -2.55152106e-01
      -1.17825180e-01 1.53478906e-01 1.50008261e-01 1.57016993e-01
      -3.38942468e-01 -8.37686583e-02 6.35535046e-02 3.55420738e-01
      -1.06884554e-01 -1.65254533e-01 -4.91885804e-02 -1.71720982e-01
      2.18506828e-01 -2.69083798e-01 -8.40436816e-02 2.18282431e-01
      -1.12405486e-01 1.69522792e-01 0. 3.34640056e-01 -2.28921100e-01
      -4.96770024e-01 1.25801757e-01 2.75680870e-01 2.38094386e-02
      -7.01714754e-02 -1.08767644e-01 -6.73886687e-02 -2.61057973e-01
      -1.71722516e-01 2.35406861e-01 -1.39263883e-01 -1.45595074e-01
      -1.48406640e-01 -8.77711326e-02 6.80469722e-02 -1.40733570e-01
      1.79504693e-01 -3.47471029e-01 5.88164218e-02 6.80200830e-02
      1.78096652e-01 -2.30116040e-01 -4.06052649e-01 -2.66592026e-01
      4.14160974e-02 -5.62687330e-02 -2.11675391e-02 -2.76175648e-01
      -1.19288832e-01 0. -1.86843306e-01 -3.07665635e-02 -8.63094814e-04
      1.31876871e-01 -3.72318588e-02 1.60763726e-01 6.49217963e-02
      -4.48500253e-02 -5.49521863e-01 4.12256896e-01 8.00019503e-02
      3.65483016e-02 -8.30914602e-02 1.43257249e-02 6.80899978e-01
      1.49439216e-01 4.09767985e-01 6.44385889e-02 3.85565944e-02
      1.00155234e-01 1.16818532e-01 -8.43483880e-02 -1.92619637e-01
      1.72095001e-01 -2.23211244e-01 -2.88945599e-03 -1.24967955e-01
      2.46491387e-01 4.40602124e-01 -7.51391202e-02 -1.22992899e-02 0.
      2.09074214e-01 -8.75990391e-02 1.35654569e-01 5.53714111e-02
      1.39175519e-01 -1.35366425e-01 -1.19623706e-01 -4.15310711e-02
      -5.68590537e-02 1.57396212e-01 5.85432351e-02 1.60503462e-01
      -4.22991455e-01 5.93919307e-03 -3.14099342e-02 2.46591315e-01
      -2.83877347e-02 1.94997881e-02 -9.01868120e-02 1.22466072e-01
      -2.42420798e-03 -8.76713023e-02 1.80501401e-01 1.34337634e-01
      1.38313249e-01 -2.48614445e-01 2.73422956e-01 -4.18581784e-01
      -3.03680718e-01 2.76205897e-01 5.70497096e-01 0. -1.16541140e-01
      1.45546779e-01 -1.27415404e-01 -2.80127048e-01 1.44931257e-01
      3.33805799e-01 -1.30036727e-01 1.90104872e-01 -4.40933138e-01
      -2.83985079e-04 -2.69499831e-02 2.23062530e-01 1.47643298e-01
      6.93570748e-02 -6.47489369e-01 -1.19330339e-01 3.30860227e-01
      3.07146817e-01 1.85294449e-02 5.85385086e-03 -1.44159615e-01
      -1.36090979e-01 2.98027158e-01 8.81714895e-02 -1.81938618e-01
      9.90053713e-02 -3.36425632e-01 -1.19498380e-01 4.84981425e-02
      3.69028337e-02 3.56773771e-02 0. -3.40472817e-01 2.31427386e-01
      -3.32892150e-01 -1.82912305e-01 -1.06923349e-01 1.38850227e-01
      -5.27725182e-03 4.16178405e-02 1.11229688e-01 -1.54448263e-02
      -2.81970620e-01 -4.01471779e-02 3.05312574e-01 -3.79388742e-02
      1.01112626e-01 -1.45697994e-02 -2.22775444e-01 4.80169104e-03
      3.53468686e-01 1.70433313e-01 5.02064787e-02 2.71879017e-01
      2.83526242e-01 1.29592761e-01 6.26067892e-02 -3.47726673e-01
      -3.23500216e-01 -1.42998531e-01 7.76747912e-02 -3.01227719e-01
      6.15686178e-02 0. 3.21472108e-01 1.72640771e-01 9.77269281e-03
      2.83331741e-02 -2.53350973e-01 4.70576793e-01 1.84068561e-01
      -1.52207643e-01 -3.54526609e-01 1.65227398e-01 2.23732427e-01
      4.75933484e-04 -1.02316134e-01 -2.79223293e-01 -1.09085500e-01
      -2.61255860e-01 6.52440405e-03 2.48168677e-01 7.71570802e-02
      3.74938309e-01 1.25787765e-01 -1.70150846e-01 -5.56014299e-01
      -2.61477888e-01 -5.62517904e-02 -1.41286924e-01 -2.61452883e-01
      -2.94686943e-01 2.68786937e-01 6.86298031e-03 1.69426233e-01 0.
      -8.51068050e-02 -3.16740692e-01 2.15276062e-01 -5.90479635e-02
      2.90332019e-01 -7.00861290e-02 3.32966298e-01 4.71995950e-01
      4.72702146e-01 1.51219860e-01 -1.61790669e-01 1.13149315e-01
      6.22192085e-01 -4.63448435e-01 4.34492469e-01 -2.90132523e-01
      -1.90133452e-01 -4.59332407e-01 2.02896893e-01 -3.39680374e-01
      -1.90933138e-01 2.00094089e-01 7.36943483e-02 2.22968236e-01
      -2.51397163e-01 2.86148459e-01 -4.37097531e-03 -4.70434688e-03
      2.28844330e-01 -1.79525167e-01 4.30795431e-01 0. -2.22366780e-01
      3.66354138e-01 3.09207179e-02 3.95017266e-02 5.40221110e-02
      -2.76949465e-01 -4.29050140e-02 -4.13534105e-01 -6.37301579e-02
      -3.03339839e-01 1.15993783e-01 -1.00888938e-01 -4.04782385e-01
      1.31094560e-01 -4.82939258e-02 -1.97150797e-01 1.10162191e-01
      1.09093085e-01 1.93473443e-01 2.26748362e-01 -1.47931218e-01
      -5.01539648e-01 -1.75686136e-01 -2.18921617e-01 -4.36538942e-02
      -2.87708223e-01 -2.76194215e-01 -1.84510916e-01 -9.04603824e-02
      -1.63531587e-01 -8.79562348e-02 0. -3.09490591e-01 -2.75790781e-01
      1.18267030e-01 2.22333699e-01 -4.98117730e-02 -3.43734294e-01
      -1.45024419e-01 3.79865915e-01 8.89570042e-02 -1.09730616e-01
      2.94339508e-01 -3.99510443e-01 -2.52732392e-02 1.48058563e-01
      -1.16627207e-02 9.02424827e-02 2.60193259e-01 1.93675220e-01
      -9.83126387e-02 -5.74083030e-02 -1.73208103e-01 2.50254720e-01
      3.23355764e-01 -1.81946814e-01 1.27582446e-01 5.43915927e-01
      1.71087563e-01 -1.80473134e-01 3.64366978e-01 -5.98887838e-02
      -6.46540150e-02 0. -2.90735364e-01 -2.22977132e-01 1.33641601e-01
      -7.07188025e-02 -1.12657323e-01 -7.25374790e-03 -2.17978328e-01
      1.58662394e-01 -1.06236987e-01 2.53244817e-01 4.25416380e-01
      -2.11540908e-01 9.16336179e-02 -2.80536283e-02 2.39744246e-01
      2.14228749e-01 4.08691049e-01 6.67824075e-02 7.97003955e-02
      -1.50356889e-01 -3.15168858e-01 1.89860106e-01 -2.77821243e-01
      5.40046990e-02 1.20579265e-01 -7.97774494e-02 -1.43442194e-05
      -6.34735730e-03 6.65149987e-01 -4.79740173e-01 1.62180781e-01 0.
      4.12339240e-01 -3.23197812e-01 1.96061999e-01 -1.26338959e-01
      4.73008677e-02 -1.80877104e-01 5.29230416e-01 1.92454398e-01
      -4.06486869e-01 -2.93862075e-01 7.02898949e-02 8.74200612e-02
      -8.38411078e-02 1.91199258e-01 2.73209065e-01 1.79500446e-01
      -3.75751317e-01 1.84589624e-01 2.54742771e-01 -1.40235975e-01
      -2.99003888e-02 -3.22597533e-01 -1.62960216e-01 3.48914042e-03
      1.37725353e-01 -4.53407943e-01 3.27894166e-02 -6.24966435e-02
      -2.69689828e-01 9.73713621e-02 5.05040348e-01 0. -4.38595176e-01
      -2.37612203e-01 4.30679739e-01 4.25978810e-01 8.48243907e-02
      4.50559080e-01 -2.97545325e-02 -2.10320890e-01 1.32283583e-01
      1.62894323e-01 5.45761287e-02 -5.14380336e-01 -1.29440380e-03
      -1.19021893e-01 -5.58758557e-01 -1.51985899e-01 -1.70645878e-01
      3.21603119e-02 4.17140633e-01 -4.23683733e-01 -3.83111924e-01
      3.58695567e-01 2.63139069e-01 1.95696905e-01 -2.51785159e-01
      -2.79535145e-01 -3.23769189e-02 -1.87627554e-01 1.60235148e-02
      -8.85434449e-02 -5.02284728e-02 0. -4.18076813e-01 2.91449100e-01
      2.97540575e-01 -1.63479581e-01 -2.40948796e-01 1.31226629e-01
      -2.19303712e-01 -4.16367680e-01 3.11946303e-01 -3.30334716e-02
      1.41304702e-01 -2.04847798e-01 9.92972031e-02 1.58586144e-01
      -3.20488036e-01 -4.11244435e-03 4.61373515e-02 2.24176273e-01
      6.63054436e-02 -7.58521184e-02 -1.02898769e-01 9.14949775e-02
      -2.59213969e-02 -7.17462748e-02 -2.11912617e-01 -3.35426122e-01
      1.48670733e-01 -1.55261531e-01 1.64102286e-01 -1.14947714e-01
      -4.42666523e-02 0. 5.07415049e-02 -1.47304207e-01 -3.54373157e-01
      -1.19101651e-01 -7.34149814e-02 -1.27493337e-01 2.77198017e-01
      -1.72657251e-01 6.03245795e-01 -2.84236491e-01 7.29365647e-02
      -1.87816203e-01 1.20950103e-01 1.62837684e-01 -1.35669991e-01
      1.66904330e-01 -1.70523103e-03 -1.97180063e-01 1.43868402e-01
      -1.21804222e-01 -3.81843835e-01 -2.79673189e-01 2.57258981e-01
      -1.95574686e-01 2.42644057e-01 -3.82794201e-01 9.60823074e-02
      -3.71060371e-01 -3.36567163e-02 -1.28820792e-01 3.70368034e-01 0.
      2.13990230e-02 -3.73694114e-02 3.26589584e-01 3.89191136e-02
      -3.17165017e-01 -4.34762567e-01 7.06476122e-02 5.03887981e-02
      -4.39779818e-01 -2.98072040e-01 2.67251253e-01 -1.23048015e-01
      -8.75443369e-02 -1.36171520e-01 1.97565258e-01 6.91933930e-02
      -3.39785554e-02 1.33564174e-01 1.85281545e-01 -3.72816063e-02
      -5.82989939e-02 -1.56692669e-01 -7.34191611e-02 -2.87613392e-01
      -1.37547538e-01 -4.05377224e-02 1.84044670e-02 -1.31182641e-01
      1.07033215e-01 -3.00893605e-01 -2.01976150e-02 0. -2.51896292e-01
      1.59097672e-01 2.30823427e-01 3.63360167e-01 -3.18301059e-02
      -2.59072095e-01 -2.68105324e-03 -1.98717844e-02 -3.36812735e-02
      -4.83207881e-01 -1.30537838e-01 -2.51312912e-01 -2.67999321e-01
      4.12471080e-03 1.46968529e-01 1.54400095e-01 2.76010007e-01
      2.36254796e-01 7.58528352e-01 -2.52560854e-01 -1.83439031e-01
      1.03533551e-01 -1.49052992e-01 1.18154109e-01 -1.84677944e-01
      5.88362664e-02 2.62185663e-01 2.08434582e-01 1.61312267e-01
      -3.96038413e-01 -4.96279895e-02 0. 2.34799325e-01 -9.57313627e-02
      4.96779114e-01 -2.61734515e-01 -1.29487187e-01 4.04996902e-01
      2.49892116e-01 2.17966348e-01 -2.32569203e-01 -2.88219154e-01
      -1.65397659e-01 -3.63033563e-01 4.61344004e-01 -4.88292366e-01
      -1.08016700e-01 -2.56578010e-02 -3.99243385e-01 1.69559047e-01
      2.16750532e-01 -3.76776636e-01 1.40622109e-01 2.82890826e-01
      -8.78137574e-02 4.17165279e-01 -1.41900424e-02 -1.14385143e-01
      -1.40672535e-01 4.14418317e-02 -1.59053683e-01 3.32797281e-02
      -6.74805343e-02 0. 1.64443851e-01 6.66971728e-02 5.03589213e-02
      -4.23933901e-02 8.43605250e-02 -9.02237520e-02 -3.77342671e-01
      3.99174005e-01 -3.10895056e-01 4.75109100e-01 6.39141425e-02
      2.11182743e-01 -1.39034957e-01 3.94812912e-01 8.25357717e-03
      -1.23525098e-01 -2.20307484e-01 -4.15784828e-02 -1.62284657e-01
      -2.99988568e-01 -2.80648112e-01 -1.06435597e-01 -1.30109996e-01
      3.23043674e-01 -4.18357044e-01 4.58991602e-02 1.08479090e-01
      6.34679854e-01 2.27390975e-01 -1.52563691e-01 -4.39391971e-01 0.
      4.79103535e-01 -6.98192939e-02 -2.67329756e-02 7.77265504e-02
      4.17614311e-01 1.07701279e-01 2.14501828e-01 2.60715395e-01
      -2.50518143e-01 2.71897465e-02 2.88906485e-01 6.60616457e-02
      2.48087212e-01 -3.45290661e-01 -3.05740815e-02 -3.34781827e-03
      2.89343181e-03 -3.17544341e-01 -4.90077138e-02 -9.13794488e-02
      -3.29134315e-01 9.38286558e-02 -2.04428107e-01 1.78079102e-02
      -3.03090125e-01 -3.02527189e-01 -5.67468226e-01 -2.34209180e-01
      3.30258943e-02 4.12631720e-01 3.29093754e-01 0. -1.04514301e-01
      -7.93404654e-02 3.92861813e-01 1.29586831e-02 -3.17751974e-01
      -7.63944313e-02 -1.96946934e-02 4.11256477e-02 1.90409005e-01
      -1.22368842e-01 -8.65403861e-02 -1.91066220e-01 -7.79418722e-02
      -4.44027573e-01 8.99130926e-02 -1.06384894e-02 4.51457128e-02
      -1.44050404e-01 -5.52073121e-03 3.03395420e-01 3.48794371e-01
      -2.91430265e-01 1.02877401e-01 5.75728267e-02 -2.92138726e-01
      2.26365969e-01 -5.57372645e-02 -4.51212168e-01 -1.05529996e-02
      -9.85621139e-02 1.35164365e-01 0. -2.34063417e-02 4.77496572e-02
      1.75978303e-01 -4.31340218e-01 -1.09519236e-01 4.60316949e-02
      3.57880071e-02 -6.70127124e-02 -1.23992100e-01 6.74414337e-02
      -2.24714741e-01 -1.51981473e-01 2.99251914e-01 3.63491662e-02
      1.76184759e-01 -1.60424262e-01 -1.48751199e-01 1.64485425e-01
      4.99459773e-01 -1.98921263e-01 -4.33401717e-03 -4.59694974e-02
      4.45496701e-02 -3.36961038e-02 -8.35675001e-02 1.92430750e-01
      -5.21752313e-02 -2.65280306e-01 4.45146635e-02 -1.41039908e-01
      1.77072376e-01 0. -7.21142441e-02 -2.29672585e-02 2.11787865e-01
      2.36793056e-01 2.52495199e-01 -3.38303745e-01 -2.37237625e-02
      -2.51545817e-01 5.87566555e-01 -7.31334388e-02 -3.43248904e-01
      1.34130359e-01 1.48642763e-01 3.72267677e-04 -2.10154146e-01
      -1.79677501e-01 2.78448462e-01 -1.38855144e-01 6.32195830e-01
      7.67160356e-02 3.74762565e-02 -1.68056980e-01 1.91635892e-01
      -4.36271161e-01 -4.03394550e-01 -4.03829888e-02 2.58739777e-02
      -7.00739622e-02 7.43408576e-02 -2.08388105e-01 2.96757072e-01 0.
      7.84674585e-02 3.79468203e-01 -2.88902260e-02 -9.04468596e-02
      -3.81663516e-02 -3.34820360e-01 3.16100195e-02 -4.11151499e-02
      8.96324441e-02 1.76821738e-01 -4.86744754e-02 9.46838111e-02
      1.72850303e-02 7.80390278e-02 3.08284070e-02 1.38023511e-01
      1.41283572e-01 -3.46964836e-01 3.84835631e-01 -4.71655428e-02
      2.02734068e-01 -3.06717396e-01 6.83611110e-02 -3.24416786e-01
      -1.87284112e-01 2.50034153e-01 -3.01299602e-01 5.48165962e-02
      2.66611755e-01 -1.71819389e-01 4.56957333e-03 0. -5.21183312e-01
      4.20253366e-01 -2.11456418e-01 -1.44034937e-01 -2.27720998e-02
      4.41602468e-01 2.09330171e-01 8.66709799e-02 2.26971477e-01
      3.89963053e-02 -8.98125488e-03 3.36421371e-01 -2.49370381e-01
      -2.71663845e-01 -2.66450364e-02 -1.67002752e-01 2.45948240e-01
      -2.93801248e-01 3.57438415e-01 2.07604229e-01 -8.51788595e-02
      -4.52399135e-01 3.60426813e-01 3.89921069e-01 -9.62911323e-02
      9.31950361e-02 3.59807581e-01 2.15107173e-01 3.18256706e-01
      -3.15802753e-01 -1.75473183e-01 0. -6.96072578e-02 4.45672460e-02
      -1.28204189e-02 -2.79863805e-01 -9.14151520e-02 -1.48743903e-02
      -7.10128665e-01 2.72603542e-01 3.93494844e-01 -1.76838338e-01
      -1.66928306e-01 1.30209148e-01 3.60840470e-01 -6.90821707e-02
      -5.44766009e-01 -2.98308998e-01 -4.28364798e-02 1.65829435e-01
      1.25788912e-01 3.16064388e-01 -1.61375180e-01 -1.41809121e-01
      1.06937233e-02 9.08431411e-02 -6.60134971e-01 3.54836196e-01
      -7.58252991e-03 -2.57937163e-01 -1.19191051e-01 -1.57597363e-01
      1.15066394e-02 0. 2.87283599e-01 1.30593618e-02 -7.09275603e-02
      7.03118648e-03 -3.11039180e-01 2.60109287e-02 -1.73480332e-01
      -7.75589943e-02 -2.73276363e-02 -8.72054324e-02 -7.15899542e-02
      2.83322960e-01 -2.58888990e-01 3.09794158e-01 -1.45845950e-01
      5.33689022e-01 3.17602232e-02 -2.66924724e-02 1.66862920e-01
      -1.27491206e-01 2.45548766e-02 4.62248139e-02 -6.17500879e-02
      -1.02778040e-01 2.28763193e-01 -2.26394609e-02 -2.67246991e-01
      3.41075182e-01 3.75733942e-01 -4.91257042e-01 -1.11758642e-01 0.
      2.88967609e-01 -3.32818553e-02 -3.87314484e-02 -2.89604574e-01
      2.71859527e-01 4.54932660e-01 1.80950671e-01 1.67321786e-01
      2.97229141e-01 3.05995733e-01 -2.31198221e-02 3.50530893e-01
      6.11110628e-01 -6.67237863e-02 -1.17067493e-01 -9.18790605e-03
      -5.85493781e-02 3.70425463e-01 -5.07243514e-01 -3.24927300e-01
      -2.01167032e-01 -1.22962393e-01 1.58352286e-01 3.43618304e-01
      1.18410923e-01 5.78041701e-03 4.37441111e-01 1.50439993e-01
      -3.41859907e-01 1.29993057e+00 1.46854892e-01 0. -2.20033959e-01
      -3.48885655e-01 -5.00824116e-02 3.20431054e-01 -2.59213716e-01
      1.31872490e-01 2.27782086e-01 3.64861935e-01 -1.80126846e-01
      9.12847817e-02 -1.30771622e-01 2.73112983e-01 2.61614561e-01
      2.05653489e-01 1.39704436e-01 9.47104096e-02 -2.09114477e-01
      -9.82931033e-02 2.35879317e-01 -1.97886050e-01 -1.89642802e-01
      -1.02622345e-01 -6.33619204e-02 1.75935835e-01 1.21270433e-01
      2.32203349e-01 -5.20664215e-01 2.76086718e-01 -3.98084790e-01
      4.01106685e-01 1.05697308e-02 0. -1.73864096e-01 2.37480089e-01
      2.80887961e-01 3.80527645e-01 5.93354627e-02 3.20872962e-01
      1.53234154e-01 -2.78034583e-02 -5.94200939e-02 -1.14814416e-01
      1.05319448e-01 4.70893413e-01 9.91075411e-02 1.03700235e-01
      -1.79897934e-01 4.47024070e-02 5.56828454e-02 9.28614810e-02
      5.94100915e-02 3.60475749e-01 5.90363383e-01 1.09320916e-02
      5.81284203e-02 3.56074780e-01 9.59429815e-02 -2.18712166e-02
      -8.33376646e-02 1.14241771e-01 1.29480898e-01 5.68943858e-01
      5.88605627e-02 0. 3.86547953e-01 -3.37415844e-01 -2.88796574e-01
      -8.04856643e-02 -1.17689101e-02 -1.02344826e-01 4.94737662e-02
      3.54571611e-01 2.16484722e-02 5.35845011e-02 2.72356272e-01
      1.13072969e-01 2.05211788e-01 6.88930750e-02 2.40951031e-01
      -9.95705873e-02 -6.04645498e-02 1.17458597e-01 -3.22531730e-01
      -1.13383584e-01 -8.97467360e-02 1.22287057e-01 1.47284448e-01
      5.60607374e-01 3.86800021e-02 2.73169011e-01 8.64911079e-02
      -8.75951350e-02 3.13482553e-01 4.15827408e-02 1.58167720e-01 0.
      2.76659392e-02 -1.76117003e-01 4.87670183e-01 -9.46281850e-02
      8.25139821e-01 -4.82261367e-02 -2.21512288e-01 2.42502660e-01
      7.55222738e-02 -1.42562479e-01 1.95066512e-01 -5.55913672e-02
      -6.41877279e-02 -9.15440097e-02 -2.01916799e-01 2.78662950e-01
      2.79582709e-01 1.31314442e-01 1.82659216e-02 5.30232862e-02
      2.40786329e-01 1.27026513e-01 1.19015977e-01 4.62422550e-01
      -2.76288250e-03 1.61931112e-01 1.23476483e-01 1.81925505e-01
      5.25861382e-01 -2.25866690e-01 2.00120747e-01 0. -1.38717489e-02
      3.01599562e-01 4.83745903e-01 -1.17818929e-01 1.67596191e-01
      -6.75697386e-01 -2.81742483e-01 4.16629523e-01 -3.55250388e-01
      -3.42185199e-01 -1.32333055e-01 -2.59964168e-03 2.18234491e-04
      -1.05586499e-01 -9.43509787e-02 4.56112295e-01 -5.21840481e-03
      2.61547387e-01 3.49942148e-02 2.11687848e-01 1.93497822e-01
      -1.78375736e-01 7.90441751e-01 3.70609999e-01 1.07850976e-01
      1.26267552e-01 1.18001259e-03 5.34905553e-01 -1.12808868e-03
      -2.93033242e-01 -2.59225667e-01 0. -4.18717921e-01 4.03427333e-02
      2.60886312e-01 1.44472361e-01 5.54647446e-01 -4.03534502e-01
      -5.63847363e-01 -5.04414402e-02 -2.00834423e-01 -9.82875600e-02
      1.79732427e-01 1.31483033e-01 -3.28994334e-01 -1.77011892e-01
      -2.73141414e-01 4.41954494e-01 1.91692963e-01 1.50967062e-01
      -3.21956575e-01 4.82496992e-02 -8.50603878e-02 -1.23215932e-02
      1.02346075e+00 5.70546210e-01 8.63959342e-02 -6.01339620e-03
      -3.37034792e-01 -2.36083809e-02 -5.31428605e-02 1.00258611e-01
      -2.20850721e-01 0. 4.98430997e-01 1.87275335e-02 -9.33399722e-02
      1.93877637e-01 -8.29187483e-02 -2.02899557e-02 -1.49846777e-01
      2.77439117e-01 2.26035461e-01 -1.55991495e-01 9.32598636e-02
      2.77188361e-01 1.35086522e-01 1.25718907e-01 2.45501354e-01
      1.42266005e-01 2.87812233e-01 -8.90957490e-02 -3.94315392e-01
      -9.10592824e-02 -2.11929247e-01 1.57618776e-01 6.19358607e-02
      6.18114889e-01 -8.87477994e-02 -3.64605337e-01 -5.82816482e-01
      1.64110303e+00 -2.00065388e-03 -1.01529881e-01 -6.27835810e-01 0.</_></support_vectors>
  <decision_functions>
    <_>
      <sv_count>1</sv_count>
      <rho>8.2939057817709347e+00</rho>
      <alpha>
        1.</alpha>
      <index>
        0</index></_></decision_functions></my_svm>
</opencv_storage>
