<?xml version="1.0"?>
<opencv_storage>
<my_svm type_id="opencv-ml-svm">
  <svm_type>C_SVC</svm_type>
  <kernel><type>LINEAR</type></kernel>
  <C>1.0000000000000001e-01</C>
  <term_criteria><epsilon>2.2204460492503131e-16</epsilon>
    <iterations>1000000</iterations></term_criteria>
  <var_all>4096</var_all>
  <var_count>4096</var_count>
  <class_count>2</class_count>
  <class_labels type_id="opencv-matrix">
    <rows>1</rows>
    <cols>2</cols>
    <dt>i</dt>
    <data>
      -1 1</data></class_labels>
  <sv_total>1</sv_total>
  <support_vectors>
    <_>
      5.41570187e-02 -2.79871877e-02 4.90954369e-02 -1.18577303e-02
      4.28691367e-03 7.06226155e-02 -3.14451866e-02 -1.75518408e-01
      -1.21993728e-01 -2.00342424e-02 6.19862787e-02 1.32903695e-01
      4.89675328e-02 -6.20342512e-03 4.80121747e-02 5.25167398e-03
      3.76065001e-02 2.12591775e-02 2.28687543e-02 4.26081382e-02
      1.03510275e-01 5.08998409e-02 -2.44538090e-03 9.71524864e-02
      -4.68598818e-03 -9.71419439e-02 -6.05931953e-02 -3.05563603e-02
      -3.51679176e-02 5.59382662e-02 7.53620267e-02 0. -5.94146475e-02
      -2.92433370e-02 -1.54604232e-02 -1.03299677e-01 -7.33441785e-02
      9.77151170e-02 6.54439405e-02 -9.27721262e-02 5.17164841e-02
      7.69757181e-02 4.44326922e-03 7.26390556e-02 2.33381353e-02
      2.83634029e-02 3.46281240e-03 -1.17630064e-02 6.66683018e-02
      -1.02161029e-02 -8.75797402e-03 4.42074835e-02 4.42879498e-02
      -2.28560735e-02 -2.76128799e-02 7.05096051e-02 2.10655183e-02
      -1.61974726e-03 5.90959154e-02 -2.99199368e-03 -3.82049829e-02
      4.75605726e-02 3.85385565e-02 0. -1.44886449e-01 -5.24402671e-02
      2.59553455e-03 -2.55950484e-02 4.24653813e-02 9.34858806e-03
      1.94429606e-02 3.08445301e-02 7.75363576e-03 1.43112972e-01
      3.23532671e-02 1.34674102e-01 8.50422382e-02 5.23057953e-02
      -8.30808096e-03 -4.72227931e-02 -7.00980127e-02 -1.68353856e-01
      2.03708000e-02 -1.46941179e-02 7.45100453e-02 1.10794120e-01
      1.22236192e-01 -2.31077373e-02 -1.96392387e-02 -2.70083472e-02
      -8.45104232e-02 -1.45200326e-03 -5.44957481e-02 6.54911622e-02
      1.07430434e-02 0. -8.04302543e-02 6.34819269e-03 5.50921783e-02
      7.95173272e-02 3.24397832e-02 2.20053587e-02 -2.91297063e-02
      3.28118727e-02 -8.62240791e-02 9.84217003e-02 -3.11240051e-02
      1.31936312e-01 6.02988526e-02 2.73219720e-02 4.44085971e-02
      -7.24171102e-02 -6.22295290e-02 -1.29288480e-01 1.90370362e-02
      1.32287312e-02 2.39309162e-01 2.04833850e-01 9.50358659e-02
      5.43149710e-02 -7.75129944e-02 -6.64524920e-03 -1.45701706e-01
      3.66744101e-02 -7.77515769e-03 2.72288267e-02 -9.10167769e-03 0.
      3.40430960e-02 4.43090536e-02 8.92820023e-03 4.18857448e-02
      -2.90343072e-02 9.97148827e-02 -1.87683683e-02 8.63052979e-02
      1.11157931e-02 -1.46920262e-02 -4.59928848e-02 3.47656384e-02
      -7.87402093e-02 3.72950435e-02 1.50292531e-01 7.31486529e-02
      6.93462882e-03 -2.18484346e-02 2.12258976e-02 9.24693793e-03
      3.05369217e-02 2.56323745e-03 2.42955592e-02 1.66710377e-01
      5.06250486e-02 7.02117905e-02 -9.74775571e-03 9.29330960e-02
      1.13650121e-01 2.35770904e-02 -3.23314816e-02 0. 3.37274745e-02
      1.00415312e-02 -9.00570601e-02 -1.01537868e-01 -7.92976916e-02
      8.78273919e-02 -6.88015297e-02 7.72249550e-02 5.58889918e-02
      5.93546331e-02 -3.69001776e-02 1.00747593e-01 -1.94716379e-02
      -2.64822990e-02 1.05409175e-01 1.08498901e-01 -1.98405869e-02
      -1.37735987e-02 3.26466784e-02 -7.17791449e-03 2.11539045e-02
      -1.02689408e-01 1.19532617e-02 1.21157490e-01 4.43536788e-02
      9.42798331e-02 1.26358405e-01 1.06792033e-01 1.08923092e-01
      -6.51888624e-02 -6.44683391e-02 0. 8.91886204e-02 -1.05697334e-01
      -9.70174745e-02 -6.32251129e-02 -8.95291269e-02 4.33157645e-02
      -4.15056162e-02 4.83976714e-02 2.44242251e-02 6.76678121e-02
      8.18893593e-03 -7.42348656e-02 -5.57033755e-02 -1.39041375e-02
      1.16757184e-01 -6.60767406e-02 -1.01357721e-01 -1.49645433e-01
      8.90424401e-02 -5.61243156e-03 -9.06560943e-02 -6.82215840e-02
      -5.86433187e-02 1.22351639e-01 -9.47748050e-02 -1.52542396e-02
      -3.98286059e-02 -3.60711105e-02 -4.32121083e-02 -6.81575611e-02
      -6.93828464e-02 0. -3.25196306e-03 -4.70932014e-02 -6.68062046e-02
      2.26347614e-02 -5.56708314e-02 1.76189736e-01 1.32083111e-02
      1.13758622e-02 7.32109696e-02 1.85745686e-01 8.84379968e-02
      2.38307491e-02 -1.44748716e-02 -4.28582989e-02 1.25667438e-01
      -2.23219842e-02 -1.09227508e-01 -8.97423178e-02 3.47991027e-02
      6.60875142e-02 -1.57363899e-02 4.25561666e-02 -7.63188228e-02
      2.30226681e-01 -5.90422526e-02 -1.16346218e-01 -1.71905421e-02
      7.24461600e-02 8.72751027e-02 3.17252707e-03 -3.61558348e-02 0.
      -1.92975290e-02 -4.71968129e-02 -9.36483126e-03 5.95650263e-02
      -2.45997813e-02 8.08214694e-02 1.74029954e-02 2.18816549e-02
      -4.12506089e-02 -3.09431721e-02 -7.38266632e-02 2.07610037e-02
      -4.86293156e-03 -3.54775786e-02 -4.14014794e-02 3.52837853e-02
      -1.28656896e-02 6.95947558e-02 -6.02625720e-02 -1.08670928e-01
      -2.68357433e-02 9.52062532e-02 -4.77290340e-02 4.95577790e-02
      5.56579866e-02 3.94138247e-02 -8.15917912e-04 -6.31051883e-02
      -4.04123068e-02 4.33133878e-02 4.33391258e-02 0. 1.13975488e-01
      -3.45683051e-03 -2.16609053e-02 -6.63163960e-02 -2.82348599e-02
      5.08406982e-02 8.03152621e-02 6.57682493e-02 8.64586309e-02
      3.22619602e-02 -1.40876576e-01 2.53884383e-02 -3.39390561e-02
      -2.23725270e-02 5.32964803e-03 -5.87996580e-02 -6.51336014e-02
      -4.30896655e-02 1.17335506e-01 -6.92078397e-02 1.17767006e-02
      -3.53478976e-02 -1.71389226e-02 6.19514659e-02 1.34807760e-02
      -2.53262278e-02 5.22930026e-02 -2.05731615e-02 -1.33683933e-02
      1.03894453e-02 1.24545172e-02 0. 2.64234319e-02 3.56996129e-03
      7.78351873e-02 -2.68266816e-02 -4.32400499e-03 4.27132882e-02
      2.96264756e-02 3.68864127e-02 1.01981342e-01 1.22306205e-01
      4.28005531e-02 1.48792267e-01 4.00676094e-02 -9.14283022e-02
      -1.10166423e-01 -2.48854458e-02 -8.41329247e-02 -3.52674909e-02
      8.23047757e-03 9.53499787e-03 1.89293623e-01 7.70029724e-02
      -5.26620932e-02 -2.05754880e-02 7.32723325e-02 -1.10430038e-03
      2.27202643e-02 7.44003281e-02 -1.51330428e-02 4.36009765e-02
      3.66526507e-02 0. -1.24077164e-01 6.52080700e-02 1.04120351e-01
      9.01469514e-02 5.48308082e-02 1.35596827e-01 -1.36662768e-02
      5.79229295e-02 1.76190622e-02 3.52197811e-02 -2.74071395e-02
      8.19519386e-02 1.12613551e-01 -1.02326743e-01 -4.23919447e-02
      3.52372043e-02 -5.22400402e-02 -7.42409527e-02 4.43515703e-02
      4.74229679e-02 1.66148141e-01 1.60312399e-01 -1.99094769e-02
      8.68124068e-02 4.54073139e-02 2.23161746e-02 -5.16691357e-02
      1.21633634e-01 -1.64731927e-02 7.03807771e-02 -8.61039665e-03 0.
      7.26430640e-02 -4.03176091e-04 4.51487228e-02 -5.32691255e-02
      -8.64269435e-02 9.10015926e-02 3.07583585e-02 1.77823618e-01
      5.47716282e-02 3.49587165e-02 2.18817089e-02 7.07575632e-03
      -2.17963457e-02 -6.40557334e-02 5.12924008e-02 -1.06154956e-01
      -2.00305246e-02 -9.09034312e-02 1.44291431e-01 4.47080024e-02
      5.11844233e-02 -3.79090905e-02 -4.56601046e-02 8.45362470e-02
      -6.53686747e-02 1.83614790e-01 -1.56959724e-02 9.21847895e-02
      -1.09396707e-02 4.67272848e-02 -5.99421635e-02 0. 7.80128390e-02
      8.84083509e-02 5.13244793e-02 -4.25330363e-03 2.83433677e-04
      8.96922201e-02 5.21057844e-02 1.15294248e-01 -1.33340973e-02
      -4.48481888e-02 5.57607263e-02 3.60468403e-02 -6.84321523e-02
      -1.32193476e-01 3.54500557e-03 -3.23071890e-02 -8.39749165e-03
      4.35110182e-03 3.96435596e-02 1.59262598e-01 1.43461242e-01
      -1.27011370e-02 -1.98363215e-02 6.20137453e-02 9.38671157e-02
      9.53854024e-02 4.28269058e-02 1.02542356e-01 1.09635152e-01
      2.72782124e-03 -8.71280655e-02 0. 3.34166810e-02 2.45691389e-02
      -1.94637310e-02 3.98185588e-02 -2.23602522e-02 7.04916418e-02
      1.17308432e-02 5.44341952e-02 -4.54484895e-02 8.59595090e-02
      7.74406567e-02 -5.66645078e-02 1.24452626e-02 -2.82484926e-02
      3.97397317e-02 5.07716322e-04 -1.02751389e-01 -1.52912527e-01
      1.12481806e-02 1.13664523e-01 -1.63939707e-02 6.76863566e-02
      -1.89043209e-02 1.26737267e-01 -9.11111105e-03 -6.05897466e-03
      -9.72033367e-02 -6.75719138e-03 1.87751744e-02 4.46725311e-03
      -5.78229781e-03 0. -2.73050368e-02 -3.20482999e-02 1.93969477e-02
      6.66694716e-02 4.09177169e-02 7.80195072e-02 -4.92398813e-03
      1.00966670e-01 1.40130162e-01 1.32758617e-01 9.37895626e-02
      1.19912792e-02 2.36461386e-02 6.07228465e-03 8.84318426e-02
      -2.92584188e-02 -1.29025608e-01 -5.13962731e-02 -4.29471163e-03
      4.92188856e-02 8.45541880e-02 1.07041776e-01 4.78037931e-02
      1.09901436e-01 -6.92301765e-02 -8.56116861e-02 3.43586951e-02
      1.02433182e-01 1.04281247e-01 8.98759067e-03 3.35896462e-02 0.
      1.03630506e-01 -2.70104334e-02 -3.05740256e-02 -4.06616274e-03
      -9.72662121e-02 2.90800398e-03 -4.88730893e-02 -3.98096144e-02
      1.79161653e-02 -1.31366029e-01 -4.64555360e-02 3.50901373e-02
      8.41091052e-02 -2.93092914e-02 4.20778757e-03 -3.31084840e-02
      -1.28713474e-01 -2.50392165e-02 -4.57318388e-02 -6.54690564e-02
      1.90159194e-02 1.06174111e-01 -9.39262584e-02 5.12187667e-02
      -7.47763366e-02 -7.54648522e-02 3.66942100e-02 -8.82427767e-02
      -9.66537669e-02 -6.56560017e-03 5.85785368e-03 0. 4.45976444e-02
      9.37107876e-02 7.99714029e-02 -3.61667667e-03 -1.46521581e-03
      3.02880327e-03 -1.74786970e-02 -1.12452954e-01 -4.20347974e-02
      -1.72867924e-01 -4.62417714e-02 7.33062252e-02 1.52420968e-01
      6.42144904e-02 4.54305857e-02 -2.30295118e-02 -8.21252093e-02
      -7.04849288e-02 -8.05026889e-02 1.77271734e-03 9.12046582e-02
      1.76313877e-01 8.03170875e-02 4.49037254e-02 -3.75302173e-02
      -1.19973138e-01 -8.73380750e-02 3.27307521e-03 -1.84425898e-02
      -6.17735507e-03 1.42207965e-02 0. -9.55764130e-02 9.40221734e-03
      1.12995408e-01 2.47407611e-02 9.32403654e-03 4.16219458e-02
      3.71457934e-02 -5.46724834e-02 3.75320986e-02 -7.43857622e-02
      3.40287462e-02 2.76927859e-01 1.35810748e-01 -3.23158242e-02
      -2.30035335e-02 1.48353716e-02 2.40857173e-02 -1.03610881e-01
      -1.11276411e-01 6.16567470e-02 2.83582270e-01 1.98752016e-01
      -8.09554011e-03 2.54710168e-02 4.35144268e-02 -7.65450299e-03
      -6.85608760e-02 1.25451192e-01 2.45158020e-02 2.53534093e-02
      1.40076072e-03 0. -1.37904018e-01 -7.52554759e-02 9.99765173e-02
      7.42337331e-02 9.28590726e-03 2.21541617e-03 8.15637782e-03
      4.85819802e-02 3.52491774e-02 -8.78925472e-02 -2.41313726e-02
      1.83047801e-01 1.34720609e-01 -1.67603549e-02 -3.20575945e-02
      8.15268457e-02 3.20106186e-02 -1.19934678e-01 -3.74417007e-02
      -6.13178536e-02 2.54502416e-01 1.93993539e-01 2.60910038e-02
      4.00019698e-02 1.16988979e-01 1.09078251e-01 -6.71197474e-02
      1.06933154e-01 1.30238570e-02 3.20894197e-02 -5.06629460e-02 0.
      2.30374616e-02 -8.38583559e-02 8.91239122e-02 -1.11418907e-02
      6.32234961e-02 6.96842223e-02 -9.57996305e-03 8.58239383e-02
      -2.12515108e-02 -9.42763463e-02 -6.99337944e-02 3.83440629e-02
      -7.09414557e-02 -1.06389076e-01 -8.38889461e-03 -2.83354539e-02
      1.04418516e-01 1.95989236e-02 -7.01211020e-02 -9.67404768e-02
      1.17389895e-01 -3.24930996e-02 4.31396030e-02 4.64577228e-02
      1.20521868e-02 1.63652450e-01 -1.61766522e-02 4.30544876e-02
      -2.41892077e-02 3.93910855e-02 -6.33674189e-02 0. -1.04250945e-01
      -6.25667125e-02 -5.11289760e-03 -9.28707793e-02 -1.05287820e-01
      4.17899527e-02 1.37318047e-02 8.51906165e-02 1.99388284e-02
      -1.24757349e-01 -2.07917634e-02 1.84043497e-02 8.90817866e-03
      -5.61302528e-02 6.88655749e-02 7.36191347e-02 1.39260754e-01
      2.27831639e-02 -1.58567220e-01 -1.23632532e-02 1.55761484e-02
      -7.79582188e-02 -5.50719909e-02 1.08849823e-01 1.21636629e-01
      2.05499008e-01 5.89556471e-02 3.75049599e-02 -2.99982354e-03
      4.46501141e-03 -7.63409287e-02 0. -7.70577043e-02 -6.72188625e-02
      -9.43002477e-02 -5.97923137e-02 3.44682373e-02 2.19030920e-02
      1.39543600e-03 1.54666066e-01 -6.49663582e-02 5.55327907e-02
      6.35227859e-02 -5.77913336e-02 1.65994857e-02 -3.56152654e-02
      -1.80370137e-02 5.88432215e-02 -2.08673943e-02 -1.57495514e-02
      -6.32784367e-02 -1.53943300e-02 -1.41064048e-01 -2.94602308e-02
      -6.76226616e-02 1.23804975e-02 5.59912622e-02 9.55222547e-02
      -4.03147675e-02 -5.32344449e-03 -4.73297201e-02 2.28395853e-02
      -1.94311980e-02 0. -5.77681661e-02 -1.34804770e-02 2.36476883e-02
      7.72534087e-02 1.64758518e-01 1.01832986e-01 -2.91939322e-02
      7.97843747e-03 4.62785177e-02 1.43749669e-01 8.14310908e-02
      -8.31943601e-02 5.81344701e-02 -7.12555945e-02 6.19040467e-02
      6.41888566e-03 -4.12747227e-02 2.27028783e-02 8.21275357e-03
      4.16658409e-02 1.82193369e-02 9.98243466e-02 1.40241273e-02
      1.19495198e-01 -4.65904176e-02 -1.08030073e-01 6.40622377e-02
      1.69134617e-01 6.26087636e-02 4.17699385e-03 -2.56514642e-04 0.
      4.94210385e-02 -5.65367341e-02 -2.55363099e-02 -5.10268845e-02
      3.70625071e-02 7.28069693e-02 2.36332510e-02 -8.00387636e-02
      -5.81910126e-02 -4.60180715e-02 7.04743480e-03 7.80585408e-02
      2.96669919e-02 -7.81921670e-02 7.91366305e-03 5.33053465e-03
      -7.77661502e-02 4.45197634e-02 2.98132375e-02 -7.86488354e-02
      -3.22961598e-03 1.20359322e-03 -9.21195373e-02 5.43444231e-02
      6.79484196e-03 -9.68279317e-02 -5.02465293e-03 2.59380578e-03
      -8.35232362e-02 3.47595401e-02 -9.38242767e-03 0. -5.82770035e-02
      -4.02691625e-02 -5.70711540e-03 -9.85900387e-02 -8.59318674e-02
      1.17164642e-01 -1.64065342e-02 -2.12371200e-02 -4.15060334e-02
      -1.16692670e-01 6.04351982e-02 7.77567700e-02 2.78442539e-02
      -3.87098044e-02 -7.74418265e-02 -3.39861996e-02 -2.32418533e-02
      -1.13085248e-02 -6.42634779e-02 -3.86954993e-02 6.41825348e-02
      -8.68319273e-02 -1.24764375e-01 -5.08161373e-02 -5.38662598e-02
      -5.57685308e-02 -6.39677718e-02 -1.39010670e-02 -7.79670030e-02
      -1.60635803e-02 -7.40781948e-02 0. -2.44240984e-02 4.28655408e-02
      9.11646336e-02 -1.02135636e-01 -2.29025353e-02 4.11925167e-02
      -1.03813194e-01 -1.41465589e-01 -1.14174671e-01 -3.62858064e-02
      -2.56803855e-02 2.74651088e-02 1.29251182e-02 -5.23020923e-02
      -5.69716059e-02 -3.84533741e-02 -1.63093377e-02 2.40876190e-02
      6.22391179e-02 2.02674232e-02 1.00860357e-01 -3.87357809e-02
      -1.14266641e-01 -2.86424235e-02 -1.30430803e-01 -1.19504437e-01
      -6.76876083e-02 5.96094988e-02 -6.39024302e-02 -9.61943194e-02
      -1.32958382e-01 0. -1.19728945e-01 -5.45132719e-02 7.03408197e-02
      6.28361478e-02 3.34519520e-02 4.58833873e-02 7.51415151e-04
      2.11352315e-02 -1.29488651e-02 -6.45394176e-02 -5.98089024e-02
      1.94276851e-02 -3.30323726e-02 -7.06807300e-02 4.75966632e-02
      3.55050303e-02 7.62648648e-03 -4.83800285e-02 -9.43443328e-02
      -1.23186857e-01 1.09208934e-01 4.24429849e-02 -1.96516681e-02
      3.96432802e-02 3.15987989e-02 2.93359216e-02 -9.27142501e-02
      6.89998344e-02 -3.35662030e-02 5.60515607e-03 -9.71720219e-02 0.
      -1.69519022e-01 -7.57896304e-02 1.79395843e-02 -2.65721008e-02
      -5.50600514e-02 -5.11262417e-02 -4.89974171e-02 -1.11249916e-03
      3.25106345e-02 1.04329828e-02 -4.39849459e-02 6.46693930e-02
      9.44804177e-02 -1.05636895e-01 1.24405967e-02 1.10454775e-01
      3.09384111e-02 8.44565872e-03 -1.19394220e-01 -1.29965961e-01
      2.51602139e-02 3.19258273e-02 -1.01987071e-01 -1.04215909e-02
      7.06253126e-02 3.80905047e-02 -2.63691768e-02 -8.64837971e-03
      -7.14146271e-02 5.54537252e-02 -6.75429553e-02 0. -4.02777009e-02
      -5.89267686e-02 -1.44916698e-01 -2.30318569e-02 -1.38502970e-01
      4.29131137e-03 -9.50788707e-02 5.55248596e-02 5.48852198e-02
      -8.44196789e-03 4.76125889e-02 8.98933795e-05 1.29112050e-01
      -1.82565957e-01 -1.14226080e-01 1.97088509e-03 1.10665850e-01
      1.24323986e-01 -1.28938593e-02 -1.38408132e-02 -1.17058508e-01
      8.92050490e-02 -1.69104233e-01 -1.31971419e-01 -5.17625436e-02
      1.14881374e-01 1.19810954e-01 -1.38871674e-03 -3.68558541e-02
      4.33139270e-03 -9.68966410e-02 0. 3.38177904e-02 -3.72009166e-02
      -2.21159216e-02 -6.06194735e-02 -9.68627036e-02 -1.91582013e-02
      -4.56850529e-02 -1.69642065e-02 -9.77165848e-02 -6.94218874e-02
      -9.11182538e-03 -1.27677619e-02 8.38438272e-02 6.12286152e-03
      -4.23319340e-02 1.80722550e-02 6.49484694e-02 8.32887515e-02
      -1.41686322e-02 -4.31509092e-02 -1.28298774e-02 -6.27276162e-03
      -4.11260165e-02 -6.54266626e-02 -4.13515568e-02 9.59764794e-02
      4.36596647e-02 2.26671062e-02 -6.74244165e-02 -1.96784735e-02
      -4.86353897e-02 0. 3.91537882e-02 1.87395792e-02 5.30679598e-02
      -3.63218635e-02 6.07679635e-02 2.09146608e-02 -3.76413390e-02
      3.01672574e-02 6.07491843e-02 6.59032986e-02 1.19891446e-02
      -3.11911367e-02 5.94068952e-02 -1.23401629e-02 -1.71138234e-02
      1.53376255e-02 3.21658840e-03 1.33498758e-02 3.00205313e-02
      8.31315853e-03 7.03599676e-02 -7.80273415e-03 -3.02127041e-02
      1.00797461e-02 8.33797455e-03 3.44849154e-02 7.13367164e-02
      1.52385116e-01 6.80480599e-02 -1.42115094e-02 -5.62431775e-02 0.
      6.77623674e-02 -4.49078679e-02 6.16534129e-02 -7.77367577e-02
      -1.09615279e-02 2.80146487e-02 -9.48337391e-02 -2.37977896e-02
      3.31648835e-03 2.37126723e-02 5.11163622e-02 6.55278936e-02
      2.38551907e-02 4.69928235e-02 -3.42394933e-02 -4.36820872e-02
      -3.19285281e-02 -8.05614069e-02 8.34315419e-02 -1.84314772e-02
      7.62726963e-02 -2.40251049e-02 -6.26682583e-03 -9.58942324e-02
      -1.04740269e-01 -3.50021087e-02 -7.31978640e-02 9.64487065e-03
      -2.93920822e-02 9.60435439e-03 -2.31838468e-02 0. 8.32422897e-02
      2.31979806e-02 -4.06450108e-02 -1.32575586e-01 -7.65801072e-02
      7.19000176e-02 -1.04440928e-01 3.71431187e-02 -2.33199466e-02
      -4.47550863e-02 1.01051509e-01 1.29935695e-02 4.32419256e-05
      -2.75264550e-02 -2.21689623e-02 8.18763450e-02 -4.13323287e-03
      -1.96249578e-02 6.90266788e-02 9.22386646e-02 5.17695099e-02
      -1.04801483e-01 -6.33267388e-02 -2.20846990e-03 1.62002426e-02
      3.74240279e-02 -4.67545614e-02 4.38721627e-02 -6.98665828e-02
      2.36804634e-02 -3.74355167e-02 0. 5.13846055e-02 1.56118944e-02
      -5.97065203e-02 -1.08669765e-01 3.06573999e-03 -4.00091596e-02
      -1.85738429e-01 -9.76115167e-02 -6.36744127e-02 -6.82554096e-02
      1.59851201e-02 2.45210771e-02 -2.71085016e-02 -8.22374448e-02
      7.48214275e-02 1.48166055e-02 2.87358779e-02 6.53883666e-02
      -2.29389388e-02 4.92310151e-02 -1.27526782e-02 -6.84929565e-02
      -6.52200133e-02 2.02120058e-02 -1.57203868e-01 -4.55967337e-02
      -1.49136623e-02 -6.04376721e-04 3.76408547e-03 -7.51242265e-02
      -1.34829447e-01 0. 1.94134749e-02 -9.30876806e-02 -9.32717845e-02
      -8.42707604e-02 -2.25580707e-02 -6.85557872e-02 -4.63857055e-02
      3.01698539e-02 2.19423063e-02 -6.34928569e-02 1.80473868e-02
      9.00414437e-02 5.15652969e-02 -1.10001467e-01 4.11498826e-03
      3.61445136e-02 3.52394953e-02 1.06961373e-02 -3.92710306e-02
      -4.36412096e-02 3.72501789e-03 -1.74893923e-02 -1.44325092e-01
      -8.18654150e-02 -4.51963209e-02 4.96835299e-02 -1.77821163e-02
      2.12455150e-02 -6.96029630e-04 -6.89750910e-02 -7.61414692e-02 0.
      -1.88839044e-02 -3.65342610e-02 1.05393045e-02 -4.34954464e-02
      -1.12022541e-01 -4.83699180e-02 -2.47606039e-02 -2.15935595e-02
      1.46505618e-02 1.35511691e-02 1.25708267e-01 9.83324926e-03
      2.53762733e-02 -1.08611226e-01 8.16552266e-02 -4.22713757e-02
      1.05502037e-02 -4.07247953e-02 -3.85787040e-02 1.22354715e-03
      2.78367865e-04 -2.93876193e-02 -1.15544796e-01 3.36362310e-02
      -6.19885884e-02 3.31875123e-02 3.44937830e-03 -1.46631645e-02
      -5.64073697e-02 -7.92835373e-03 -1.78282969e-02 0. 2.82867020e-03
      -5.15015535e-02 1.71278361e-02 1.43700894e-02 -1.81954615e-02
      3.87170427e-02 -2.81474274e-03 3.06324549e-02 -1.33354831e-02
      -3.59520353e-02 1.21038124e-01 6.46988153e-02 7.61612356e-02
      -7.06170127e-02 -3.75706563e-03 -8.28537941e-02 -5.39238378e-02
      8.39881599e-02 2.52589900e-02 9.62349121e-03 7.61667565e-02
      8.20337385e-02 -3.86853516e-02 2.34278355e-04 -6.50934502e-02
      1.24815507e-02 4.03263196e-02 2.87107285e-02 -8.45262036e-03
      3.72458249e-02 -2.53330870e-03 0. -1.53326269e-04 -8.11368972e-02
      -3.28684412e-03 -2.96949949e-02 -4.17573787e-02 4.83550727e-02
      -9.95899886e-02 -7.58284610e-03 -5.27456440e-02 -7.55409431e-03
      4.05956991e-02 4.59955744e-02 3.33133042e-02 -2.74956618e-02
      -3.93001102e-02 -1.07009700e-02 -1.49345435e-02 1.52698038e-02
      5.01980595e-02 -5.67441173e-02 5.02916835e-02 2.81591876e-03
      -3.02227512e-02 -9.70081333e-03 -9.84751433e-02 1.74991116e-02
      2.96384599e-02 -1.27370190e-02 -5.44184484e-02 -1.15415100e-02
      -3.08581945e-02 0. 4.74627614e-02 1.02096125e-02 5.62363304e-02
      -6.58305511e-02 9.23054293e-02 8.08666572e-02 -5.21688126e-02
      -5.13276504e-03 -1.86553784e-02 6.65095309e-03 2.98575079e-03
      4.05664667e-02 -5.84372804e-02 -2.82072965e-02 1.41486397e-03
      1.91933429e-03 9.43633988e-02 1.07152261e-01 7.34451637e-02
      -1.11769000e-02 8.35960507e-02 -7.61927366e-02 -4.69455421e-02
      1.45596894e-03 -2.94899512e-02 5.66095822e-02 8.43009055e-02
      9.99225825e-02 6.31552190e-02 -4.14498895e-03 -1.10538322e-02 0.
      6.28665239e-02 -7.45638460e-02 2.08627153e-02 -5.52801527e-02
      -6.10714033e-02 -2.30418276e-02 -9.41455439e-02 2.94352360e-02
      6.08845986e-02 4.91144396e-02 8.75171181e-03 -2.95954179e-02
      -1.37990206e-01 -3.54833007e-02 1.25020919e-02 -5.70014417e-02
      -6.19287677e-02 2.09833458e-02 8.73561800e-02 -6.74678236e-02
      2.04991978e-02 -1.63969606e-01 -5.68828657e-02 3.45055237e-02
      -1.57704979e-01 -1.62572339e-02 5.59592471e-02 -3.77923250e-02
      -5.20908087e-02 -5.53517416e-02 -2.66852826e-02 0. 1.85194332e-02
      1.85225755e-02 -2.84491312e-02 -4.96534407e-02 -3.41107808e-02
      3.98281403e-02 -4.53574248e-02 9.13333222e-02 -1.48845548e-02
      -4.20937948e-02 -1.67333912e-02 -1.85511783e-02 -6.99636247e-03
      -7.32559040e-02 -2.88005918e-02 3.15590873e-02 7.14464206e-03
      -4.84295860e-02 -2.32235007e-02 4.08251770e-02 1.27858724e-02
      -3.71773131e-02 -4.98670340e-02 7.97833968e-03 1.89707440e-03
      8.55196267e-02 -6.88085109e-02 3.03764362e-03 -2.98068374e-02
      -3.00855935e-02 -3.76180075e-02 0. -1.25644598e-02 2.96968371e-02
      1.29252989e-02 -5.62067628e-02 -7.10459650e-02 -4.01178338e-02
      -2.25596037e-02 6.60249218e-02 -2.68963147e-02 -3.14913988e-02
      2.37784460e-02 -1.44322403e-02 -6.40526786e-02 -5.74181713e-02
      2.46367827e-02 -5.26537187e-02 4.66716737e-02 1.45597281e-02
      -1.10215824e-02 -1.79400276e-02 6.00536633e-03 -5.67581542e-02
      -1.46150157e-01 -4.26073745e-02 -6.21131845e-02 -9.38264560e-03
      -5.97208068e-02 5.44034950e-02 -2.11470444e-02 -6.06486537e-02
      -8.15697834e-02 0. -5.97223565e-02 -1.60536282e-02 -6.79521412e-02
      -5.99514954e-02 -7.13370144e-02 -7.62507021e-02 -2.09611468e-02
      8.20408016e-03 5.85366972e-03 -1.53913110e-01 7.12823647e-04
      -3.54079250e-03 -2.70058792e-02 -5.43455370e-02 3.78000550e-02
      -1.43165663e-02 1.45413116e-01 4.39339206e-02 -1.12452075e-01
      -9.64045599e-02 -1.06536932e-01 -6.46371096e-02 -1.05962373e-01
      -7.69142061e-02 -6.79937527e-02 1.08038083e-01 1.92447267e-02
      -1.44934691e-02 -3.39330151e-03 -5.54324798e-02 -1.07430920e-01 0.
      -1.40341436e-02 7.45245069e-02 7.51539618e-02 -7.85803646e-02
      -6.96243122e-02 -3.85529846e-02 -6.57289401e-02 -1.06745306e-02
      -4.86354604e-02 -1.29647097e-02 1.21760815e-01 9.97204557e-02
      9.12758056e-03 -2.02366095e-02 9.45354626e-02 -7.72389863e-03
      2.63843872e-02 -6.67631477e-02 2.08807085e-02 7.11040273e-02
      1.31219402e-01 -4.42434289e-02 -2.05997769e-02 3.85776460e-02
      -9.29764360e-02 8.92569125e-03 -9.89248753e-02 4.00421582e-02
      -1.82378106e-02 2.90087104e-04 9.81370918e-03 0. 2.36963127e-02
      7.67166317e-02 -6.68772459e-02 -5.28407246e-02 -1.79637447e-02
      -2.07690485e-02 1.80631112e-02 -5.43222576e-03 9.71354730e-03
      2.87810657e-02 -6.69293106e-02 5.85868433e-02 1.27195632e-02
      -3.48982774e-02 1.44400224e-02 -2.13974956e-02 -8.76519084e-02
      2.41203699e-02 7.18776137e-02 7.59820361e-03 3.16821709e-02
      -2.62691379e-02 -4.56286445e-02 -6.62040487e-02 -6.34238124e-02
      -8.10187533e-02 6.12334833e-02 -3.15322801e-02 -2.90574990e-02
      2.77230721e-02 -1.80079844e-02 0. 6.67222440e-02 2.63856817e-02
      -1.67344492e-02 -5.29804938e-02 -4.03325399e-03 6.32779971e-02
      -3.29211280e-02 5.76160848e-02 -2.68731602e-02 2.42885109e-03
      -6.07498502e-03 4.91242670e-02 1.69467449e-03 7.59533271e-02
      -4.07141261e-02 2.70016547e-02 1.53252864e-02 6.02822937e-02
      5.96802570e-02 -4.01094044e-03 -2.72329915e-02 -5.88992648e-02
      2.66743749e-02 9.67193581e-03 -8.11433885e-03 2.78123165e-03
      4.71257791e-02 5.15826866e-02 3.36967260e-02 2.22721510e-02
      1.75961014e-02 0. 1.17064007e-02 2.06952002e-02 2.22188840e-03
      -3.85915115e-02 1.05663352e-01 6.59317803e-03 -6.38367012e-02
      -6.75910860e-02 -4.91355918e-02 3.93133005e-03 1.41482353e-01
      -1.66896190e-02 -7.23474175e-02 6.50261268e-02 6.42869249e-02
      2.55429931e-02 -1.76149923e-02 1.01207606e-02 1.06306039e-02
      1.13702029e-01 -1.68477036e-02 -6.01609275e-02 2.22275108e-02
      -4.87198588e-03 -4.28774841e-02 -7.64234141e-02 3.62975826e-03
      9.50556546e-02 2.85596941e-02 -3.29209156e-02 -2.87224930e-02 0.
      -2.69336551e-02 -1.71483885e-02 2.28503328e-02 -1.62891131e-02
      8.58687088e-02 4.55487296e-02 -4.59992647e-04 3.55058983e-02
      5.54961748e-02 -4.15785275e-02 -3.24887224e-02 1.09300418e-02
      2.49263104e-02 2.16127578e-02 -1.01414474e-03 -6.56740069e-02
      9.89973359e-03 1.43602276e-02 1.98543351e-03 -1.20053841e-02
      5.47773093e-02 1.67211108e-02 -3.70107056e-03 1.03236593e-01
      -3.35559435e-02 5.23739308e-02 6.12019002e-02 4.20273244e-02
      7.85157736e-03 5.84044168e-03 3.40000377e-03 0. 1.35148531e-02
      1.17651589e-01 4.25933227e-02 -9.82247200e-03 1.31274303e-02
      8.09559003e-02 1.61925773e-03 3.96119840e-02 2.08765604e-02
      8.28819126e-02 1.77277233e-02 4.78339307e-02 8.04357901e-02
      -2.05945875e-02 -6.46752492e-02 -1.88615303e-02 -4.49161232e-02
      -2.13667937e-02 2.95199007e-02 9.66918170e-02 7.08194226e-02
      2.50623561e-02 3.41228172e-02 -2.28931233e-02 -3.60804312e-02
      1.60882417e-02 -1.55777084e-02 5.67909442e-02 3.12098861e-02
      6.93092868e-02 2.11588666e-02 0. -4.23431545e-02 2.97619887e-02
      6.18739575e-02 -7.69418804e-03 -1.47497198e-02 2.45609842e-02
      2.23506857e-02 3.38909514e-02 2.40022391e-02 -2.31330879e-02
      3.66355404e-02 1.05067315e-02 -3.25456783e-02 -1.50284737e-01
      5.32524101e-03 6.44413102e-03 -2.16898508e-02 5.29650077e-02
      8.33316147e-02 3.97253372e-02 4.33315262e-02 -4.14630659e-02
      -5.93432710e-02 -1.27745634e-02 9.15380660e-03 -3.13873030e-02
      5.25531322e-02 6.91861510e-02 2.70692334e-02 -1.88648645e-02
      -6.99060559e-02 0. -5.00695705e-02 -3.74188647e-02 -8.06541182e-03
      1.06246807e-02 -3.97038087e-02 2.80544329e-02 -3.57273333e-02
      -3.64569128e-02 -3.55204865e-02 -1.03442952e-01 5.39079821e-03
      1.80529170e-02 -9.15014010e-04 -9.96245295e-02 1.83895584e-02
      2.07028110e-02 4.69487384e-02 1.07721493e-01 -5.02137244e-02
      -3.75698172e-02 1.73172206e-02 3.14891785e-02 -9.86681804e-02
      -3.00273728e-02 -5.92361949e-02 1.64472386e-02 4.94511575e-02
      4.59253490e-02 -5.98965622e-02 -2.19017062e-02 -5.41925430e-02 0.
      5.28893154e-03 6.67284429e-02 9.88845378e-02 -1.89543469e-03
      6.34415001e-02 -5.56596629e-02 -9.28207785e-02 -1.46545805e-02
      -3.83672938e-02 -7.18642399e-02 2.31608320e-02 4.83088754e-02
      8.47847983e-02 2.13843919e-02 7.16102049e-02 -3.91285904e-02
      -7.42209554e-02 4.26848643e-02 -5.50070852e-02 3.81464623e-02
      1.57708630e-01 7.09780306e-02 8.08334798e-02 3.33049558e-02
      -8.22964683e-02 -3.95421125e-02 -1.73075572e-02 7.71262124e-02
      -2.19988674e-02 7.52895400e-02 -6.55212104e-02 0. -8.90391171e-02
      1.07516104e-03 5.67626692e-02 -8.67757760e-03 -2.62680626e-03
      -4.70486917e-02 -4.47813421e-02 2.07931474e-02 7.50131458e-02
      1.47620030e-02 -3.53664421e-02 -3.03218141e-02 4.20525856e-02
      1.06931133e-02 -1.37854097e-02 -5.59698902e-02 -5.29923588e-02
      1.97659787e-02 2.04936159e-03 -4.49961014e-02 9.51249897e-02
      2.56896764e-02 2.43850220e-02 -2.77180374e-02 -9.64438170e-02
      -3.78983989e-02 5.21411747e-02 7.33107189e-03 -8.59559625e-02
      4.04644236e-02 -2.76901666e-02 0. 4.93733250e-02 1.75128654e-02
      8.74721482e-02 3.27734612e-02 -9.11689177e-02 9.02545871e-05
      -6.43759146e-02 1.57542191e-02 7.19511509e-03 4.20660749e-02
      6.86859246e-03 -1.14026412e-01 -1.00684986e-01 -8.91965348e-03
      -2.13783849e-02 -6.94924034e-03 3.86888981e-02 1.15334310e-01
      7.47840255e-02 -8.41263123e-03 -9.44826659e-03 -6.51940703e-02
      -3.22075337e-02 -1.75583828e-02 -1.20120510e-01 3.37527394e-02
      6.38930351e-02 4.83709686e-02 -1.90353785e-02 1.56010585e-02
      -4.22846675e-02 0. -4.07481641e-02 -7.70415738e-03 3.52415256e-02
      -6.24534301e-02 1.80568155e-02 6.74050823e-02 -1.71537958e-02
      1.98184000e-03 -2.76180804e-02 3.76683823e-03 9.20406207e-02
      -6.63623586e-02 -1.47766262e-01 1.71852056e-02 3.01528834e-02
      -2.21905056e-02 -8.05288274e-03 5.05563132e-02 1.91771667e-02
      3.13870795e-02 2.67861895e-02 -1.36423156e-01 1.05168661e-02
      5.34641296e-02 -8.62259716e-02 -7.30871037e-02 3.80183086e-02
      1.10059865e-01 6.42835908e-03 -4.24578115e-02 -1.13468915e-01 0.
      -9.92287770e-02 -2.72649191e-02 -3.71542573e-03 1.08369030e-02
      7.12981895e-02 -2.50692628e-02 3.73042538e-03 5.17582446e-02
      5.90418018e-02 1.25055490e-02 -2.43077911e-02 1.87709462e-02
      -5.33158481e-02 7.79332453e-03 5.78697585e-03 -4.72578891e-02
      -3.76165053e-03 3.95422578e-02 -2.98998374e-02 -3.26265730e-02
      2.36273408e-02 -1.45312054e-02 5.73240668e-02 -4.97642197e-02
      -5.46718054e-02 2.25637257e-02 6.70538396e-02 5.39727062e-02
      8.28274898e-03 -1.31636681e-02 -5.04385345e-02 0. 4.31709476e-02
      3.51293795e-02 1.14494632e-03 4.88226563e-02 -4.08748575e-02
      5.64471632e-02 2.02813204e-02 5.67203723e-02 8.68665501e-02
      1.77827775e-02 -4.07859311e-02 2.84096189e-02 6.09946623e-02
      3.78441140e-02 -7.97601491e-02 -1.00270286e-01 -1.09922238e-01
      4.37901430e-02 2.97471089e-03 1.47311967e-02 2.21742447e-02
      7.33012035e-02 -7.59355724e-02 1.36363728e-03 -6.57824054e-02
      -2.51626000e-02 4.51485142e-02 4.35009114e-02 1.81657914e-02
      2.52143480e-02 -8.72708950e-03 0. -1.72178075e-02 3.29647362e-02
      2.25153081e-02 7.06286579e-02 -2.41324492e-02 -6.28171638e-02
      5.34770777e-03 1.59597658e-02 2.75211912e-02 -1.21147595e-02
      -3.08035556e-02 1.01586049e-02 7.94562250e-02 -3.53783593e-02
      -7.78966770e-02 -6.96674660e-02 -9.52325985e-02 -2.42450344e-03
      7.09403353e-03 5.26269525e-03 4.93802205e-02 7.28783906e-02
      -1.01945288e-02 -7.26193041e-02 -3.47271077e-02 -1.08561050e-02
      2.60758959e-02 1.01176202e-01 1.30930701e-02 -8.41252878e-02
      -1.07044958e-01 0. -3.49326730e-02 3.32035348e-02 -2.40217708e-02
      3.40071507e-02 6.45424798e-02 2.54789386e-02 3.64221223e-02
      1.82527658e-02 -2.40858067e-02 -8.24496374e-02 -6.90187439e-02
      -1.38999000e-02 -2.65739802e-02 -5.26264124e-02 -5.53949038e-03
      5.99947311e-02 -7.35934265e-03 1.92167740e-02 7.69062806e-03
      -2.20131315e-02 -2.14673509e-03 2.26524137e-02 7.66091272e-02
      3.91419493e-02 9.01788101e-02 6.00621961e-02 2.71917041e-02
      6.88880607e-02 -1.08158523e-02 1.47034216e-03 -8.28246996e-02 0.
      -4.25492460e-03 -9.27150995e-02 -1.04505554e-01 -3.76930013e-02
      9.58739445e-02 5.91680408e-02 -1.80219524e-02 3.11568994e-02
      -9.72554013e-02 -1.20227426e-01 -7.08444044e-02 1.61036961e-02
      1.82997249e-02 1.11311749e-01 3.14204507e-02 -4.81338352e-02
      -2.50776652e-02 6.94832429e-02 -1.22741923e-01 -1.56053856e-01
      -6.35214597e-02 3.96579877e-02 1.58087716e-01 9.86323953e-02
      -2.74179056e-02 -3.41469944e-02 -4.60923500e-02 2.27666721e-02
      -6.55842572e-02 1.48124862e-02 -5.96335940e-02 0. -9.47499648e-02
      -7.77341053e-02 9.53954384e-02 3.29335500e-03 2.04244833e-02
      -4.86524440e-02 -9.31985676e-02 8.73868987e-02 1.06740743e-01
      2.35134903e-02 -4.78887632e-02 -1.50916532e-01 -4.46306840e-02
      -4.01216261e-02 -7.10422769e-02 -1.77100468e-02 -5.75651526e-02
      5.45808710e-02 4.72488739e-02 -8.94272700e-02 -1.26014380e-02
      1.81034748e-02 6.83281245e-03 -6.82376102e-02 -2.52731703e-02
      1.36141712e-02 9.24050882e-02 -3.14918905e-02 -7.94188008e-02
      -1.54948421e-02 -3.99396606e-02 0. -8.79292786e-02 -3.45691182e-02
      -5.47299497e-02 -9.75026563e-02 -8.04865211e-02 2.66361609e-02
      -7.44744614e-02 3.94143127e-02 6.60256445e-02 -3.85267884e-02
      -1.33074373e-02 -6.55667856e-02 -5.91936633e-02 7.10109547e-02
      -4.23257761e-02 7.38301128e-02 1.08754626e-02 1.03148043e-01
      -5.17265350e-02 -5.68119325e-02 -5.57780638e-02 -1.14565425e-01
      -2.26673689e-02 -7.70143978e-03 -1.19623253e-02 6.58492558e-03
      1.00810364e-01 1.90969128e-02 -5.44092394e-02 -2.25220881e-02
      -6.36320338e-02 0. 3.34650800e-02 9.88147035e-02 -8.57700780e-03
      -3.17661185e-03 1.38263311e-02 7.40921348e-02 2.82496363e-02
      -1.81765966e-02 -3.74011770e-02 -1.17482036e-01 1.36522716e-02
      -4.04850356e-02 -7.23947063e-02 1.22529335e-01 3.61677893e-02
      1.52730150e-02 4.87812795e-02 7.22179189e-02 1.88012309e-02
      5.85729368e-02 -1.07624354e-02 -4.20613997e-02 4.54960130e-02
      7.05157369e-02 4.38656472e-02 -2.43385471e-02 7.56675424e-03
      1.06614001e-01 8.41323361e-02 -1.40666347e-02 -5.44097088e-02 0.
      -8.39538127e-02 -7.98881352e-02 -7.44245853e-03 -4.53703292e-02
      -1.31642837e-02 4.48319800e-02 -8.86870325e-02 5.25046606e-03
      9.39335860e-03 -3.75789702e-02 -3.91197717e-03 1.01077324e-02
      5.51780872e-02 4.30483930e-02 -3.70820351e-02 6.60231523e-03
      2.69190478e-03 9.31152627e-02 -6.05489947e-02 -3.43545713e-02
      -4.85051284e-03 9.05560330e-03 1.00458916e-02 -1.95267294e-02
      -5.27646020e-02 3.14423256e-02 7.46896118e-02 -1.60963032e-02
      -1.03645865e-03 2.04209629e-02 -6.30897582e-02 0. 8.41400027e-02
      6.21469750e-04 -1.11322729e-02 -3.22383344e-02 2.05118116e-02
      9.77813378e-02 -3.91551778e-02 5.94009366e-03 7.72286765e-03
      7.18120635e-02 -3.83224338e-02 7.17355758e-02 1.06004871e-01
      6.45558089e-02 -3.48136127e-05 3.57386321e-02 -9.72732436e-03
      -1.54154922e-03 7.29465857e-02 1.83803458e-02 4.90240827e-02
      2.88314875e-02 1.76333413e-02 8.08936507e-02 -2.17200238e-02
      -2.85123028e-02 -2.29769088e-02 7.27509037e-02 5.21687977e-02
      4.35203686e-02 3.63420509e-02 0. -2.26573497e-02 3.24953757e-02
      -1.02027483e-01 -1.09894827e-01 4.16334681e-02 1.10650688e-01
      -1.72340032e-03 -3.73814926e-02 1.40165538e-02 -5.95611229e-04
      6.94108829e-02 3.09848543e-02 2.46744733e-02 -5.92368469e-02
      -5.61137199e-02 -3.16437781e-02 3.63530926e-02 -2.50650868e-02
      1.72338948e-01 6.02106899e-02 -2.53953543e-02 -4.58016507e-02
      1.19477473e-02 5.94774298e-02 -6.87962323e-02 4.70525166e-03
      3.56186293e-02 7.48039782e-02 6.56907856e-02 -6.98602796e-02
      -1.11231558e-01 0. -8.69148001e-02 -9.48313531e-03 -3.74483019e-02
      -2.40471773e-02 8.18237755e-03 -3.84258032e-02 -4.85496186e-02
      -1.85496919e-02 6.71267323e-03 -1.48745835e-01 -3.71613726e-02
      -3.28433067e-02 -1.93369966e-02 -5.77193983e-02 6.66668639e-02
      1.20098032e-02 -7.57589638e-02 1.77077111e-02 -5.73356673e-02
      -8.49593058e-03 1.07965348e-02 3.21749374e-02 5.41058853e-02
      4.46798205e-02 -5.03660887e-02 -3.67861204e-02 3.45348604e-02
      -4.97997254e-02 -1.99492238e-02 -9.56197903e-02 -8.15057680e-02 0.
      -6.72440752e-02 4.20978628e-02 -9.59378947e-03 -6.05749758e-03
      -2.07406599e-02 -2.57426128e-02 2.60315952e-03 -4.00762558e-02
      1.16963231e-03 -1.07192636e-01 -7.23077357e-03 -3.82375494e-02
      5.60069606e-02 -1.34632913e-02 -2.70241536e-02 -5.18875904e-02
      -3.93642485e-02 8.43423158e-02 -9.83102992e-02 7.59323966e-03
      1.37894310e-03 1.16005884e-02 1.60805937e-02 -3.05362418e-02
      -7.47331157e-02 2.19302834e-03 6.93045110e-02 -3.46317440e-02
      -2.86737103e-02 -6.22927286e-02 -5.65066119e-04 0. -1.09920226e-01
      -4.35186662e-02 -1.15474008e-01 4.79049943e-02 -4.15635342e-03
      2.73302570e-03 -1.98931992e-02 -3.58641177e-04 6.46365136e-02
      4.92952988e-02 1.40978601e-02 -4.92935255e-03 2.17306260e-02
      -2.22238600e-02 -4.34067398e-02 -3.68982963e-02 -2.55853795e-02
      1.09864108e-01 8.10202211e-02 -2.59694606e-02 -4.61576879e-02
      2.98611708e-02 1.39874611e-02 -4.20845039e-02 -9.01889876e-02
      -6.85985461e-02 1.26454622e-01 -5.18270396e-02 -1.52631365e-02
      -1.14662282e-03 1.35061862e-02 0. 1.76714342e-02 4.98511363e-03
      5.10801841e-03 4.87407967e-02 3.52458842e-02 3.07440963e-02
      -5.65602928e-02 3.50117497e-02 1.47601971e-02 -3.79111543e-02
      1.17958244e-02 -6.76660389e-02 -7.32805356e-02 7.83324149e-03
      -1.14720933e-01 -6.66225553e-02 -1.29436135e-01 -1.25167565e-02
      9.20951664e-02 3.21597345e-02 2.97555830e-02 -1.16362376e-02
      1.13062598e-02 -1.01636581e-01 -1.12654597e-01 -5.88308088e-02
      7.09342351e-03 4.60792216e-04 -2.72651147e-02 -8.14554468e-02
      -5.52302375e-02 0. 2.85844021e-02 4.64381613e-02 -1.75662693e-02
      2.81985644e-02 6.84622228e-02 -4.07160409e-02 4.04405594e-02
      6.39061928e-02 -4.06929404e-02 -7.59440660e-02 2.41676010e-02
      2.54423413e-02 -5.73190190e-02 -1.20563265e-02 -5.26373368e-03
      1.54914875e-02 -3.34420912e-02 5.02466857e-02 8.12597647e-02
      3.16282711e-03 -4.69469726e-02 3.96284042e-03 2.65655741e-02
      -7.33268261e-02 -6.90338056e-05 -1.25624472e-02 3.12894136e-02
      1.67410463e-01 4.40235585e-02 -6.71523437e-02 -9.31924060e-02 0.
      1.36131747e-02 -3.48088630e-02 1.17087103e-02 6.36145920e-02
      4.67515215e-02 6.20539561e-02 4.38740104e-02 1.50203491e-02
      3.59044187e-02 4.45693638e-03 -6.24989308e-02 -8.10816232e-03
      -2.26974711e-02 -5.93399815e-02 -1.11487657e-01 9.89116449e-03
      -3.88671383e-02 1.65035240e-02 2.77549047e-02 -6.66270778e-02
      2.38383145e-04 4.00281064e-02 -4.65086848e-02 -6.30098656e-02
      6.34773299e-02 3.23745422e-03 6.45936187e-03 -7.89605454e-03
      2.28595469e-04 -1.51465023e-02 1.60183161e-02 0. 8.65512993e-03
      -3.45712155e-02 -1.10639874e-02 -6.03749789e-02 -2.50640139e-03
      3.18774171e-02 2.83467006e-02 4.70148362e-02 1.43915147e-01
      5.92031218e-02 -8.08975548e-02 4.51668538e-03 5.99515252e-02
      -1.13624865e-02 -4.89585958e-02 3.05847004e-02 -1.81354117e-02
      1.21498536e-02 8.59556496e-02 3.67307290e-02 4.19294126e-02
      1.03623308e-02 6.99204253e-03 3.24687324e-02 4.95009273e-02
      4.71376739e-02 8.66077542e-02 3.80991362e-02 3.75125371e-02
      6.01215055e-03 -6.98024733e-03 0. -2.35656668e-02 4.23510484e-02
      2.32729707e-02 -8.39638337e-02 -8.94623771e-02 1.15571152e-02
      -4.84265424e-02 -5.37478887e-02 1.02007002e-01 -7.87657276e-02
      -6.06885925e-02 -4.00472491e-04 3.17600928e-02 -2.90072709e-02
      4.69157808e-02 -3.59397903e-02 -1.48805613e-02 -6.03845483e-03
      1.16279781e-01 1.15234917e-02 2.70834118e-02 -1.59645826e-02
      -2.16448344e-02 8.97981003e-02 -6.46007583e-02 -1.99832339e-02
      6.59817532e-02 2.11318433e-02 4.76078130e-02 -9.96213555e-02
      -9.49930325e-02 0. -6.14134371e-02 1.09322824e-01 3.49679179e-02
      4.97109070e-02 -5.43680191e-02 -4.21059765e-02 -2.91906763e-02
      1.21278036e-02 1.50174037e-01 -4.22328934e-02 -1.86029468e-02
      2.67270813e-03 -2.94855051e-02 -3.51337530e-03 4.49946932e-02
      5.74318767e-02 -1.14766181e-01 -3.34321931e-02 -1.75666641e-02
      9.43414494e-02 2.67646536e-02 3.93204279e-02 2.98397113e-02
      2.75002588e-02 3.97504494e-02 -1.41202044e-02 1.25072271e-01
      3.25518250e-02 5.01807667e-02 -5.37281260e-02 -1.37822190e-02 0.
      -4.85780649e-02 1.17443137e-01 -6.80424552e-03 6.27098791e-03
      -6.19067736e-02 -5.15031070e-02 6.97715059e-02 9.93049964e-02
      9.91206989e-02 -7.29676783e-02 -5.23641072e-02 -5.61141036e-02
      -4.37045848e-04 1.64690595e-02 -2.29137465e-02 -8.49805772e-04
      -7.16460720e-02 7.94328749e-02 -2.53285142e-03 3.91120687e-02
      -2.71138176e-02 -1.87937962e-03 5.95366694e-02 -1.69197917e-02
      3.86470146e-02 5.62983006e-02 8.18968341e-02 -1.64208852e-03
      2.32602526e-02 5.03090257e-03 -6.97823521e-03 0. 1.88772921e-02
      1.01914771e-01 4.99688573e-02 -7.63689401e-03 8.63722619e-03
      -3.81557830e-02 -2.03554705e-02 6.45803809e-02 2.75140000e-03
      -1.21643310e-02 -9.34652016e-02 -1.33948922e-01 -5.46918511e-02
      -1.60396453e-02 -2.66551860e-02 -5.20838834e-02 -1.27022177e-01
      3.19593772e-02 1.41385168e-01 -1.62128638e-03 1.65340938e-02
      -1.09312171e-03 6.83339983e-02 -1.52635993e-02 -5.08685820e-02
      -6.72951415e-02 5.32273315e-02 -6.24788068e-02 -4.06037681e-02
      -3.72757651e-02 -2.72571412e-03 0. -1.17648076e-02 -1.90406833e-02
      3.42354737e-02 2.81676129e-02 1.23000201e-02 7.57955238e-02
      5.44992015e-02 7.77349025e-02 -2.20911149e-02 -9.11079422e-02
      -3.03603709e-02 -1.05184969e-02 -2.96891984e-02 -8.10847133e-02
      -1.00505121e-01 -4.08435389e-02 -5.61310202e-02 -7.26870354e-03
      3.53208445e-02 -3.43050584e-02 5.11607453e-02 5.44425217e-04
      3.59398797e-02 -1.92182809e-02 -6.19487511e-03 -1.29593564e-02
      -1.81614589e-02 -2.23502405e-02 3.16891223e-02 -7.64557421e-02
      -3.54942009e-02 0. -9.93661657e-02 -7.14793578e-02 -4.69206199e-02
      1.70269366e-02 9.77556594e-03 -3.07811815e-02 -5.21757491e-02
      5.87912425e-02 4.51296531e-02 4.59026545e-03 4.47243229e-02
      -2.66444217e-02 -5.99938147e-02 -5.86277507e-02 -1.48071544e-02
      3.87405641e-02 -5.90950176e-02 4.22576554e-02 2.49427445e-02
      -2.87483577e-02 -8.06915686e-02 -1.41443750e-02 -3.10446844e-02
      -1.21257585e-02 -5.51334303e-03 -1.02241058e-02 4.70622629e-02
      7.88377970e-02 1.07214592e-01 -1.99004903e-01 -1.09071724e-01 0.
      -4.77941036e-02 -4.30401340e-02 -6.79705888e-02 -7.36504840e-03
      8.80099684e-02 -1.30063770e-02 -4.89081442e-02 -1.05269656e-01
      6.81611970e-02 4.54857573e-02 -7.60032758e-02 -1.77729074e-02
      4.13330905e-02 1.55595709e-02 -1.03731668e-02 -3.35948877e-02
      -7.56089430e-05 -3.37038301e-02 -4.25845459e-02 -6.87672794e-02
      -3.54303382e-02 2.53487080e-02 5.28190844e-02 -2.00823192e-02
      -1.06416084e-01 -9.29723307e-02 5.30477427e-03 -3.67539302e-02
      -6.01006970e-02 -3.81910102e-03 -1.54453497e-02 0. -2.99584325e-02
      -6.88274205e-02 -2.28774082e-02 -4.17669825e-02 2.67888419e-02
      5.79388775e-02 -4.54326198e-02 -2.95150280e-02 7.89355189e-02
      -1.43350533e-03 -4.16400656e-02 -2.24209367e-03 7.20439404e-02
      9.99017432e-02 3.40953283e-02 -1.06052637e-01 -4.43232134e-02
      -7.02563021e-03 5.15334047e-02 -5.68869077e-02 7.97053427e-03
      3.11661419e-02 5.95089830e-02 6.04660250e-02 -1.28220528e-01
      -6.75574169e-02 9.40310303e-03 4.47302591e-03 -1.70108043e-02
      4.86082397e-03 -2.59766802e-02 0. 2.63546500e-03 -2.00987179e-02
      7.59634003e-02 -1.25243649e-01 -8.92940089e-02 -1.58235356e-02
      -6.78773969e-02 -3.74940112e-02 4.94433455e-02 -2.63843555e-02
      -6.55442927e-05 6.30642697e-02 9.14160442e-03 -3.39462087e-02
      -1.94801409e-02 -4.98003215e-02 -7.40652233e-02 -2.12668208e-03
      9.74501893e-02 -2.98965466e-03 5.36509678e-02 -5.29254563e-02
      -8.50355849e-02 -3.13845538e-02 -9.29063112e-02 -1.12700202e-01
      6.89096330e-03 -1.49555011e-02 2.47061756e-02 -7.85011128e-02
      -1.01637922e-01 0. -2.02354006e-02 6.57833070e-02 4.62668501e-02
      -6.13409504e-02 -1.01226410e-02 -9.59467739e-02 -2.45236624e-02
      6.67842617e-03 6.61076903e-02 -4.17939946e-02 3.29643525e-02
      7.77840391e-02 2.39270460e-03 -8.02680179e-02 -1.97234787e-02
      -3.94925736e-02 -7.31338486e-02 2.41015702e-02 9.29309130e-02
      7.27437511e-02 8.29029754e-02 -1.50888097e-02 -1.67105142e-02
      -6.10791780e-02 -4.96113263e-02 -1.70627404e-02 6.76787943e-02
      1.04870070e-02 3.98376398e-02 -8.67135003e-02 -3.17295790e-02 0.
      -1.48003912e-02 9.81388465e-02 2.27696896e-02 -1.78264026e-02
      -4.58644442e-02 -1.14099130e-01 -3.04116011e-02 1.28230199e-01
      9.16555375e-02 -1.17562510e-01 -9.69082713e-02 -1.36090502e-01
      -3.86375897e-02 -4.38906364e-02 8.91205110e-03 -3.60541083e-02
      -1.03501253e-01 3.90255935e-02 -2.76973099e-02 3.57026607e-02
      -2.57807635e-02 -3.61534990e-02 -4.75022830e-02 -4.47644889e-02
      -5.35077043e-02 6.12368062e-02 9.85081568e-02 -4.20110114e-02
      -3.67709249e-02 -6.19469695e-02 -5.10907806e-02 0. 6.84326664e-02
      1.08248070e-01 5.70463426e-02 -2.86710151e-02 -1.38373613e-01
      -5.43547831e-02 -5.16632535e-02 5.20118698e-02 1.16592674e-02
      -5.62551506e-02 1.75189730e-02 -9.36080366e-02 -2.72364914e-02
      -3.64388563e-02 3.48921306e-02 -5.73013094e-04 -8.70036557e-02
      7.52276331e-02 1.46276981e-01 5.35720624e-02 3.33769843e-02
      -4.91088852e-02 -5.31741567e-02 -6.56172773e-03 -1.63950901e-02
      -3.58995982e-02 1.00312509e-01 -1.87318064e-02 -3.12780291e-02
      -1.47246635e-02 -5.57052996e-03 0. 1.37555841e-02 9.00265016e-03
      -2.74894312e-02 3.93956192e-02 -6.88706583e-04 8.33441764e-02
      2.78259087e-02 -2.05995329e-02 2.53913086e-02 -8.68138224e-02
      2.59146504e-02 3.80821410e-03 -3.68286185e-02 -2.98040751e-02
      3.57208885e-02 -3.07874964e-03 1.46137858e-02 8.63219872e-02
      1.13858320e-02 1.59767400e-02 -4.81771119e-03 4.40872461e-03
      2.57085301e-02 7.15572610e-02 1.08612673e-02 -9.37636197e-03
      9.11452398e-02 4.98463437e-02 5.56019396e-02 -2.16474161e-02
      -8.47500004e-03 0. -1.23983681e-01 -1.14552528e-02 -1.73484217e-02
      1.50809635e-03 4.91745137e-02 2.68843435e-02 2.22439375e-02
      9.48051885e-02 -6.03337307e-03 4.54968996e-02 4.02113143e-03
      -1.52628506e-02 6.32286118e-03 6.40977174e-02 2.64159478e-02
      1.81092322e-02 -1.14881165e-01 -4.63673137e-02 -5.26717417e-02
      -5.72918765e-02 -3.00550796e-02 6.93211099e-03 5.29934056e-02
      7.86830485e-02 8.31903704e-03 -1.54143348e-02 -6.61210949e-03
      1.06617548e-01 1.55728221e-01 -1.31888181e-01 -1.19262874e-01 0.
      -1.14560865e-01 -5.35628758e-02 -1.39842378e-02 -5.62837981e-02
      1.06270850e-01 2.80526485e-02 -5.18614911e-02 4.39587645e-02
      -1.23037351e-02 -5.80408610e-02 -6.30672872e-02 -7.27327541e-02
      -4.84057516e-02 -3.53134610e-02 -8.70345253e-03 -3.23868021e-02
      3.06474026e-02 1.85992084e-02 -4.64940891e-02 -7.73784742e-02
      -5.68977781e-02 -3.55244800e-02 -1.90681648e-02 1.43062156e-02
      -7.15593100e-02 5.88803440e-02 -1.96967237e-02 -5.82724437e-02
      -9.46937501e-02 8.29157885e-03 -4.09054160e-02 0. 2.18064655e-02
      -3.67013216e-02 7.58048818e-02 -3.08877490e-02 -2.91064437e-02
      2.84398552e-02 -2.06919312e-02 -1.41116949e-02 -2.96690520e-02
      -7.33962283e-02 1.67569872e-02 -4.23852615e-02 -5.77145815e-03
      -2.24494711e-02 -1.12551533e-01 -4.52612564e-02 -3.44865471e-02
      1.03533916e-01 4.86902781e-02 -3.49092558e-02 2.40665544e-02
      -1.12224398e-02 -7.41164312e-02 -5.45694306e-02 -7.09642544e-02
      -1.29505973e-02 4.32556570e-02 1.35455118e-03 -3.21698859e-02
      -2.27908827e-02 -6.47754669e-02 0. -9.46745835e-03 6.94336295e-02
      1.02308132e-01 -5.02363443e-02 2.76314411e-02 7.36395083e-03
      2.03540409e-03 -4.79889708e-03 1.21208683e-01 -1.17689837e-02
      4.56230566e-02 3.98381706e-03 -6.75288737e-02 -1.36287406e-01
      -1.42075747e-01 -1.64242283e-01 -1.55059606e-01 -4.25596535e-02
      9.98006389e-02 6.54342398e-02 4.49214987e-02 -1.09074302e-01
      -1.11892015e-01 -6.82622343e-02 -1.54116586e-01 -1.07287265e-01
      4.14622501e-02 -3.60568203e-02 -1.10651702e-02 -6.73904791e-02
      -7.61392042e-02 0. 4.55916375e-02 1.07755877e-01 7.15184286e-02
      4.04824801e-02 6.64649680e-02 9.75583959e-03 2.07597762e-02
      2.81852409e-02 9.40096229e-02 -6.12443276e-02 1.28768468e-02
      -2.97809821e-02 -3.90302739e-03 -4.45550680e-02 -1.27836214e-02
      -8.80561247e-02 -4.72212769e-02 8.34588557e-02 4.79844697e-02
      8.87012929e-02 4.73757014e-02 3.68201584e-02 1.00602675e-02
      -4.08996902e-02 -7.83370212e-02 -1.60028785e-02 7.54501447e-02
      5.05864546e-02 9.26313624e-02 3.67572036e-04 -5.31665608e-03 0.
      -5.58727942e-02 1.01070851e-01 4.32002358e-02 7.42755532e-02
      -2.23092344e-02 2.88970619e-02 7.85924215e-03 1.75085604e-01
      1.24111451e-01 -9.54968296e-03 -8.63994583e-02 -7.59408176e-02
      -8.54212269e-02 1.96712166e-02 -3.88789847e-02 -7.98415616e-02
      -1.77771039e-03 -6.48282394e-02 3.31000313e-02 3.97131182e-02
      6.02441914e-02 -1.65815977e-03 -4.55785915e-03 -6.59832954e-02
      -6.77909181e-02 1.50994837e-01 4.15387005e-02 -1.46275619e-02
      2.98703890e-02 -2.70229727e-02 3.69300619e-02 0. -3.65049541e-02
      1.27707928e-01 1.98129397e-02 4.57058065e-02 -2.76649557e-02
      -3.88109796e-02 -7.43643865e-02 9.69287008e-02 7.69948289e-02
      -4.42139357e-02 -1.71406548e-02 -2.61416025e-02 -1.26636222e-01
      -1.16254821e-01 -9.72788483e-02 -8.60512033e-02 2.22767014e-02
      -4.09046113e-02 3.04799471e-02 6.48195222e-02 3.17612141e-02
      -4.59417626e-02 -7.90143982e-02 -1.21534094e-01 -1.44468471e-01
      8.38114172e-02 6.47601858e-02 -4.21247222e-02 -4.64302711e-02
      -5.82770407e-02 -1.46414498e-02 0. -2.94808336e-02 -4.28360142e-02
      -2.60511003e-02 1.11454567e-02 6.04434684e-02 6.47839010e-02
      -1.01344131e-01 5.70539981e-02 -1.41068092e-02 -9.51878726e-02
      -4.10425030e-02 6.37362078e-02 -3.92203629e-02 -6.68342561e-02
      -6.21698983e-02 -1.62929259e-02 3.69743630e-02 4.18425724e-02
      -8.80034931e-04 -4.59075607e-02 7.07170665e-02 -4.48088795e-02
      4.01128456e-02 -1.88106168e-02 -1.36021703e-01 3.81381027e-02
      4.18974645e-02 2.27258019e-02 -5.11876913e-03 -6.12525754e-02
      -4.99682352e-02 0. -7.29237869e-02 5.53590991e-03 2.42162310e-02
      1.84201319e-02 1.06991187e-01 4.91866432e-02 -5.64810820e-02
      9.32095349e-02 -1.38671342e-02 7.74756894e-02 2.97094055e-04
      -2.40544882e-02 -3.34343016e-02 -2.36114021e-02 4.69741337e-02
      -2.05235779e-02 4.84451167e-02 -5.93011566e-02 -8.48773774e-03
      4.88007034e-04 1.64489374e-02 -4.87174373e-03 -1.08854221e-02
      5.42383008e-02 -8.31407756e-02 4.73719090e-02 -4.97099757e-02
      1.55672610e-01 1.39921471e-01 -9.88502726e-02 -1.18229941e-01 0.
      -2.43462250e-02 -5.16171381e-02 3.62180285e-02 -7.50173023e-03
      1.34014964e-01 3.87351401e-02 5.81986178e-03 -5.43835983e-02
      -5.60133681e-02 -6.59611151e-02 -2.59092040e-02 3.34482715e-02
      -9.68467370e-02 -4.59760502e-02 -5.52253351e-02 -1.14506990e-01
      -2.48687305e-02 4.03481722e-02 -4.27981541e-02 -5.43796755e-02
      3.03946566e-02 -9.23275482e-03 5.72083294e-02 -9.42576397e-03
      -9.07949060e-02 -5.50651252e-02 -5.22130053e-04 -3.09040938e-02
      -7.13236183e-02 -6.78179879e-03 -4.87076268e-02 0. -1.28346412e-02
      1.46527868e-02 7.57530704e-02 7.95338489e-03 6.91347867e-02
      1.29808381e-01 -3.15297730e-02 1.18698189e-02 2.54534632e-02
      -7.55311027e-02 -9.59036779e-03 3.50663462e-03 -6.12657070e-02
      -2.83418577e-02 -8.98857340e-02 -6.17213547e-02 -9.21819508e-02
      1.03275418e-01 -4.21418669e-03 -2.98062563e-02 4.96585518e-02
      -3.79417203e-02 -1.35682886e-02 5.33571243e-02 -8.85676891e-02
      -5.29881939e-02 7.31390417e-02 -5.75633906e-03 -7.31284264e-03
      3.06904782e-02 -2.77445037e-02 0. -5.32975979e-02 -7.16421055e-03
      2.74090208e-02 -3.47115546e-02 6.61624819e-02 5.25624901e-02
      -1.46900890e-02 5.44915274e-02 9.19131264e-02 -2.50260625e-02
      -7.96973631e-02 -4.38346416e-02 -1.78659260e-02 -1.40280584e-02
      -1.22087158e-01 -5.30613996e-02 -7.58947954e-02 2.43608411e-02
      7.80167803e-02 -1.21013410e-02 1.56038133e-02 -3.71110439e-02
      1.14814136e-02 -6.58423975e-02 -3.47516499e-02 -3.99141908e-02
      2.87879538e-02 -2.18532421e-02 9.61789116e-03 -4.57884781e-02
      -4.77863140e-02 0. 5.36877438e-02 1.51065663e-01 6.08471818e-02
      1.04829408e-02 -2.01292783e-02 6.13561459e-02 3.32834944e-02
      -4.30548936e-02 5.24597801e-02 -1.83501672e-02 -5.55573180e-02
      -4.52963673e-02 1.61162633e-02 -4.56657894e-02 -3.11768763e-02
      -8.67956281e-02 -3.24798711e-02 1.25244185e-01 1.27889618e-01
      1.20392472e-01 6.77935109e-02 4.19979878e-02 -6.56377450e-02
      -2.87305266e-02 -1.04834409e-02 -3.30646932e-02 8.61314610e-02
      3.37344110e-02 5.74711375e-02 -2.30745669e-03 -1.20016199e-03 0.
      -8.54399949e-02 6.36026040e-02 7.46348426e-02 -5.47408350e-02
      -1.91826038e-02 4.69872206e-02 5.71668632e-02 1.42838642e-01
      1.01506591e-01 -1.21459560e-02 -3.67235369e-03 -4.73283380e-02
      1.15836523e-02 -3.48226205e-02 4.14103456e-02 -7.83464834e-02
      -1.98859032e-02 3.00704106e-03 1.75758973e-02 2.33068597e-02
      2.85417065e-02 -6.27235025e-02 9.50560346e-03 3.08912862e-02
      -2.39545200e-02 1.07917860e-01 7.13338852e-02 1.96840260e-02
      3.23827527e-02 -1.14886777e-03 3.73152979e-02 0. -1.03064328e-01
      1.17250346e-01 3.44372913e-02 6.15045130e-02 2.12106556e-02
      -2.78571099e-02 -8.29152316e-02 -1.07069006e-02 1.99982747e-02
      -9.55452546e-02 -1.21443206e-02 -5.72318546e-02 -9.13592726e-02
      3.36770043e-02 -3.74952052e-03 2.00177561e-02 6.37141690e-02
      -8.56455695e-03 1.42556364e-02 8.94698873e-02 -2.79654730e-02
      -3.37676331e-03 2.32620500e-02 -2.69939099e-02 -6.04767464e-02
      1.93847716e-02 1.87072176e-02 2.10382361e-02 -3.51770744e-02
      -1.62792355e-02 -2.67761294e-02 0. -1.52788475e-01 -5.83942011e-02
      3.34374122e-02 2.34126439e-03 2.24634185e-02 -2.46644393e-02
      -3.85855474e-02 1.12886965e-01 4.28184792e-02 -5.66076003e-02
      -1.18512241e-02 -8.80389139e-02 -4.04303968e-02 1.42307552e-02
      3.34579498e-02 1.24400899e-01 2.81021949e-02 -4.01215591e-02
      -5.87552600e-02 -4.84161414e-02 -2.28561517e-02 -2.40975916e-02
      7.14382604e-02 -8.64510518e-03 5.55619076e-02 1.04277790e-01
      2.62652733e-03 5.48402965e-02 4.06864323e-02 -4.82428335e-02
      -9.31713954e-02 0. -1.34773538e-01 -2.33424678e-02 -1.42941345e-02
      -1.03076480e-01 4.41187695e-02 3.80092748e-02 -5.53081632e-02
      6.36576712e-02 6.85946196e-02 1.91381611e-02 3.38549539e-02
      -6.84528947e-02 -2.08997596e-02 -8.74256715e-02 1.44217433e-02
      1.68826301e-02 2.60941070e-02 2.81324331e-02 -1.14270948e-01
      -3.01172771e-02 -2.34334767e-02 -5.06509207e-02 -3.19694206e-02
      2.11380068e-02 -6.95783237e-04 3.83048281e-02 5.06387837e-02
      1.00785665e-01 1.14479601e-01 -1.32300690e-01 -1.55875415e-01 0.
      5.20593021e-04 3.61000560e-03 3.90352681e-02 -5.27305193e-02
      1.19991593e-01 2.68358849e-02 6.13347180e-02 2.38911677e-02
      5.02296314e-02 -4.89630457e-03 -6.87420787e-03 5.29510342e-02
      1.64376944e-02 -7.88750276e-02 -2.19873786e-02 -8.32111239e-02
      -4.10000160e-02 6.66605681e-02 3.81020233e-02 -3.75551321e-02
      7.58706629e-02 -3.15919481e-02 -2.24998617e-03 3.63373831e-02
      -3.70269306e-02 2.43794210e-02 8.01581070e-02 4.47709002e-02
      2.38245376e-03 2.66075768e-02 7.28382031e-03 0. -1.63133100e-01
      1.87070537e-02 -1.68232713e-02 -1.85463354e-02 4.95681465e-02
      1.21166371e-01 -5.46540655e-02 -5.63085712e-02 3.37790586e-02
      4.21570726e-02 8.11523199e-02 -3.65855754e-03 5.32395160e-03
      -5.56268394e-02 -7.17599690e-02 -5.50924987e-02 -7.43733197e-02
      -2.95494758e-02 -2.34719254e-02 8.93658251e-02 -1.76023319e-02
      6.00479543e-03 -3.40170264e-02 7.86855444e-02 -9.55130234e-02
      -9.44497064e-02 -3.47167440e-02 -5.01518063e-02 -3.78856473e-02
      -1.81363598e-02 -1.05788074e-02 0. -8.29729438e-02 2.64398195e-03
      5.36833070e-02 -8.22004303e-03 -6.67730123e-02 1.84418354e-02
      -8.76236409e-02 -2.02593133e-02 3.89167778e-02 1.12908773e-01
      3.93343158e-03 2.44989954e-02 -4.06621993e-02 -9.42176767e-03
      -3.12732123e-02 -3.06717716e-02 -3.45734097e-02 1.69964191e-02
      8.24740231e-02 3.62333506e-02 9.47937667e-02 -5.48970944e-04
      -3.27205807e-02 -6.67769648e-03 -1.26299798e-01 -6.28542900e-02
      1.54312421e-02 -3.22311521e-02 1.35717476e-02 -3.24977115e-02
      -1.50405280e-02 0. 5.51975369e-02 6.22885339e-02 -1.43937804e-02
      -2.03955006e-02 -8.62571076e-02 3.87711711e-02 -1.19948396e-02
      -7.17454106e-02 6.92842528e-02 -1.03935343e-03 -1.26122721e-02
      -6.83500841e-02 -4.56233183e-03 -5.59308901e-02 2.98795663e-02
      1.00090662e-02 5.18404543e-02 -1.80352535e-02 1.05624579e-01
      6.08108677e-02 -5.09705842e-02 -2.87506785e-02 -9.35365260e-02
      4.23570443e-03 -4.61887307e-02 -4.05320711e-03 3.02527994e-02
      -4.62467363e-03 4.70192283e-02 -5.64617366e-02 -8.58181342e-03 0.
      2.53958218e-02 -8.58697167e-04 3.60699072e-02 -4.95866425e-02
      -1.22174911e-01 -1.57901701e-02 -6.38593128e-03 1.78964790e-02
      8.43185782e-02 -9.06446576e-02 6.42450573e-03 -6.58372864e-02
      -5.60759902e-02 -3.46704163e-02 3.37922312e-02 -5.28033487e-02
      -3.30635607e-02 -1.24954674e-02 9.38467085e-02 -2.60311756e-02
      -2.82965526e-02 -9.00918692e-02 -9.85408649e-02 2.95226392e-03
      -7.39981979e-02 1.15214651e-02 6.63948357e-02 -2.83537302e-02
      -2.52614282e-02 -6.50980100e-02 -3.99080180e-02 0. -3.95528898e-02
      3.62382345e-02 1.58906020e-02 -1.63612254e-02 -8.76344517e-02
      -3.08586415e-02 -6.56090230e-02 4.10256125e-02 9.06958506e-02
      -4.66465876e-02 -7.37319440e-02 -1.05916448e-01 -1.22663297e-01
      -8.63512903e-02 -7.56795034e-02 -6.74330518e-02 9.79100168e-03
      1.13819115e-01 8.48828405e-02 2.64473241e-02 -4.02270630e-02
      -1.08762294e-01 -1.14687577e-01 -7.20486492e-02 -1.04131296e-01
      4.85332459e-02 1.51787326e-01 1.68073718e-02 -6.49133772e-02
      -8.57799947e-02 -1.06989011e-01 0. -2.32726093e-02 -5.46901226e-02
      7.11801350e-02 -4.46697623e-02 2.91185733e-02 1.10463470e-01
      6.09119749e-03 5.22307232e-02 1.83961820e-02 -8.29696134e-02
      1.47226267e-02 -1.08331189e-01 -6.03417829e-02 -4.07641232e-02
      -7.46560888e-03 -2.17242874e-02 -3.92168611e-02 1.16744181e-02
      3.35992835e-02 -3.82853225e-02 2.06951108e-02 -6.16578460e-02
      -1.29255746e-02 4.83975336e-02 -1.44661199e-02 -9.23738908e-03
      3.98013443e-02 5.16335666e-02 -5.41638164e-03 -3.52089629e-02
      -9.09428671e-02 0. 6.30045012e-02 5.75495251e-02 1.04869169e-03
      -7.18851993e-03 5.16701862e-02 1.18960865e-01 -6.34952215e-04
      1.09280676e-01 7.89447688e-03 3.87383327e-02 -1.63443461e-02
      -1.76098198e-02 -4.74585444e-02 2.46607792e-02 4.78154868e-02
      -2.86638103e-02 -8.23360085e-02 3.20785795e-03 2.59224493e-02
      2.61243824e-02 -6.08055713e-03 -3.58546972e-02 3.68181355e-02
      1.10717736e-01 -4.39580455e-02 -5.18129952e-03 3.56966332e-02
      1.35283664e-01 1.58119723e-01 -3.59534137e-02 -1.04907118e-01 0.
      -8.04082826e-02 -1.22919735e-02 -5.76629629e-03 -9.73455161e-02
      1.82951957e-01 1.82060510e-01 3.46406922e-02 2.88178902e-02
      1.83063485e-02 -6.29295185e-02 -5.62246097e-03 -2.75411513e-02
      4.76597175e-02 -7.77345374e-02 -7.43187442e-02 2.55729933e-03
      -5.39122149e-02 -5.45614213e-02 -8.07631612e-02 -2.36777794e-02
      -4.28841040e-02 -2.82321796e-02 -2.20939307e-03 7.89275691e-02
      2.06541773e-02 -4.16986495e-02 -9.60193854e-03 -1.74977463e-02
      -1.32048177e-02 1.15606440e-02 -6.99141761e-03 0. -1.75209329e-01
      -7.16515258e-03 -2.37688166e-03 -5.48367351e-02 1.56449690e-01
      6.99827671e-02 -2.74959542e-02 -8.74713659e-02 2.96603031e-02
      4.65250239e-02 3.13773844e-03 3.73959797e-03 4.79800887e-02
      -8.07815567e-02 4.24613850e-03 -1.59219056e-02 -3.46019752e-02
      -1.29763067e-01 -5.25827073e-02 5.74189089e-02 4.11275141e-02
      7.79989688e-03 8.86466950e-02 4.55200970e-02 -5.50753176e-02
      -1.03991628e-01 -5.34552149e-02 -3.50807719e-02 -4.70831841e-02
      -3.04143745e-02 -7.11134169e-03 0. -6.09681904e-02 -1.65156405e-02
      5.48801050e-02 -7.04315156e-02 -2.50420365e-02 -1.85488947e-02
      -5.22224605e-02 -2.84809228e-02 3.02844346e-02 1.34595588e-01
      1.25439605e-02 -4.10298258e-02 5.34967482e-02 -7.29954801e-03
      -1.49496524e-02 -1.21495754e-01 -9.88234803e-02 -1.87807460e-03
      1.05637252e-01 -5.37692290e-03 9.82503686e-03 -5.69085777e-02
      4.55233306e-02 -1.88998356e-02 -1.33477807e-01 -7.21536204e-02
      7.45564792e-03 -6.04447871e-02 -3.45992893e-02 -6.60802564e-03
      -2.65145544e-02 0. 8.76319483e-02 6.41641617e-02 3.42048779e-02
      -3.59469317e-02 -2.49025207e-02 -4.21427219e-04 -1.23157417e-02
      -8.82898346e-02 1.32085294e-01 8.43380541e-02 -6.19218796e-02
      3.82937193e-02 2.19523702e-02 -4.22932357e-02 -6.18775859e-02
      -6.05651084e-03 -1.06634600e-02 -6.53558318e-03 1.30943909e-01
      3.48980576e-02 5.45418821e-02 -5.43181486e-02 -1.39092244e-02
      -4.77527939e-02 -2.80059129e-02 -4.75888178e-02 9.58300382e-02
      2.88950391e-02 5.72832227e-02 -3.25641297e-02 -1.07862684e-03 0.
      3.57108824e-02 7.43266707e-03 -2.13130154e-02 -2.66319625e-02
      -6.25062212e-02 -7.48828426e-03 5.09742945e-02 -6.25689998e-02
      -7.89316371e-03 2.73730792e-03 -7.69870132e-02 3.24267000e-02
      -4.30095494e-02 -1.24160843e-02 -1.08031752e-02 1.90966427e-02
      -2.99656596e-02 4.08697315e-03 4.42938581e-02 -7.87398499e-03
      5.04502170e-02 -1.02244563e-01 -7.62538686e-02 -5.23457192e-02
      1.39434347e-02 -2.94032283e-02 -3.33360359e-02 -1.81304906e-02
      3.20016444e-02 -7.55590573e-02 -3.68901752e-02 0. 2.92042159e-02
      7.41134360e-02 4.25067507e-02 2.98666637e-02 4.77520470e-03
      8.23811665e-02 2.03793030e-02 2.91164313e-02 7.25434870e-02
      -3.34530510e-02 -4.52327803e-02 1.52492970e-02 -1.61598530e-02
      -1.02978870e-01 -1.25828236e-01 3.57311852e-02 2.15994809e-02
      -2.80877389e-02 1.09103039e-01 4.47318070e-02 7.88709521e-02
      2.53087841e-03 3.77067178e-02 5.51907462e-04 7.46337548e-02
      5.37651516e-02 4.45875637e-02 7.70254955e-02 8.24744329e-02
      -8.05527270e-02 -2.91079190e-02 0. 1.61293037e-02 4.56193723e-02
      1.18243881e-02 2.63998657e-02 -1.17300525e-02 -5.15073612e-02
      -1.37357131e-01 5.44485599e-02 8.69592801e-02 -5.37224226e-02
      3.74184772e-02 4.14968580e-02 -8.13148823e-03 -8.99433866e-02
      -4.72441949e-02 -3.50832604e-02 -4.97437418e-02 2.37788819e-02
      4.09103930e-02 9.57641751e-02 6.31983951e-02 -5.93415508e-03
      -2.46489923e-02 2.42819637e-03 -1.10811375e-01 -9.36412998e-03
      5.12567796e-02 -4.37294431e-02 3.59225087e-02 -3.12692411e-02
      -2.71027647e-02 0. -3.18032224e-03 3.12726609e-02 -1.73576456e-02
      3.77540961e-02 -4.31619734e-02 7.03824684e-02 -6.70122076e-03
      1.05136767e-01 3.91364805e-02 6.29553869e-02 3.67004634e-03
      -1.00230714e-02 -1.37695912e-02 -5.85257560e-02 -3.17468420e-02
      3.98294106e-02 -1.51593434e-02 -9.65219457e-03 7.41155585e-03
      6.66327924e-02 1.12623954e-02 4.46636677e-02 -3.96036729e-02
      2.04755813e-02 3.16207334e-02 9.36340764e-02 8.68072268e-03
      5.15096970e-02 1.24438271e-01 -8.44049826e-02 -6.28591236e-03 0.
      -7.35135972e-02 -4.58557121e-02 -2.97172982e-02 -2.35438831e-02
      6.90171570e-02 1.52915537e-01 8.72657448e-02 1.07882850e-01
      9.95284989e-02 5.20437360e-02 -1.52529571e-02 9.00793448e-02
      -1.56998038e-02 -3.03845648e-02 1.32499654e-02 -4.20636609e-02
      -2.12658979e-02 -1.39807062e-02 -7.50761032e-02 -8.03063810e-02
      3.97264436e-02 -6.68669641e-02 4.14550193e-02 7.99408853e-02
      2.94600185e-02 6.42749220e-02 6.04862310e-02 7.42423683e-02
      -3.48276496e-02 1.44982427e-01 -1.43609401e-02 0. -1.65430471e-01
      -5.43494485e-02 4.99217175e-02 2.73009483e-02 5.64649142e-02
      1.59216940e-01 5.66840693e-02 8.07597414e-02 2.67416816e-02
      3.97513136e-02 -3.56553495e-02 4.14817110e-02 3.32252569e-02
      -2.31089368e-02 8.52218345e-02 2.69941371e-02 -9.28992033e-02
      -2.62044650e-02 -2.12599039e-02 -6.06093295e-02 5.77872247e-02
      -3.05653503e-03 5.10556549e-02 1.57302126e-01 5.98610863e-02
      -5.61382296e-03 -1.23447925e-02 5.02338931e-02 -1.43572502e-02
      1.00321621e-01 -1.32301101e-03 0. -6.99803280e-03 6.26287535e-02
      5.80854975e-02 2.15388481e-02 -9.82348341e-03 8.68515074e-02
      1.05139859e-01 5.59470691e-02 -4.98700961e-02 -1.99780874e-02
      -9.59962532e-02 3.77929620e-02 1.02995656e-01 -3.84587683e-02
      1.36854500e-02 -7.76180178e-02 2.15846114e-02 7.69373849e-02
      1.27406453e-03 -9.41657275e-03 8.65124539e-02 3.39932665e-02
      4.42177542e-02 1.58960983e-01 3.14138159e-02 5.51375262e-02
      1.49253784e-02 7.35860765e-02 -2.35471781e-02 9.57635194e-02
      1.65689103e-02 0. 3.31730023e-02 -6.64118230e-02 3.36491168e-02
      1.37220444e-02 4.89750244e-02 7.74396509e-02 1.88198015e-01
      1.58791561e-02 -4.91934679e-02 1.46252764e-02 1.29421996e-02
      1.31470844e-01 1.11235389e-02 -3.42025720e-02 -1.08349822e-01
      -4.04052958e-02 -1.02273792e-01 -5.29779419e-02 7.78340362e-03
      -3.21079381e-02 1.51256859e-01 6.61034286e-02 4.37063351e-02
      1.09110862e-01 1.13163978e-01 -9.91605669e-02 -7.26335049e-02
      7.70909563e-02 -5.38994698e-03 5.44470251e-02 -6.60996437e-02 0.
      -6.73881397e-02 -6.44578338e-02 7.83761367e-02 4.09266315e-02
      1.37392372e-01 1.19071402e-01 1.19782597e-01 8.68478939e-02
      1.91231370e-02 -8.76407772e-02 -2.03642417e-02 7.65882507e-02
      2.24209521e-02 -7.22771212e-02 -3.21763009e-02 5.72060794e-02
      6.31343946e-03 6.03049286e-02 -2.80517042e-02 -5.60725816e-02
      1.03787698e-01 6.33283108e-02 5.73730692e-02 9.99628305e-02
      1.31270960e-01 1.11722045e-01 6.81514591e-02 1.39638945e-01
      5.09315804e-02 6.86837882e-02 -3.29590179e-02 0. 1.05486838e-02
      3.08982320e-02 2.48565897e-02 3.54959667e-02 7.10229427e-02
      6.03017174e-02 -3.65674659e-03 2.31470913e-02 -3.90099362e-02
      -1.40237376e-01 -7.36832665e-03 1.00120539e-02 1.29104611e-02
      -8.99335928e-03 3.02470978e-02 1.41272962e-01 4.77000549e-02
      9.69395414e-02 -4.86492179e-03 -1.22176518e-03 -7.93622062e-03
      1.03353290e-02 1.21510141e-01 1.10302418e-01 1.09930307e-01
      8.06092173e-02 5.10684997e-02 1.41030952e-01 7.92903900e-02
      2.83039790e-02 -6.19095936e-02 0. -7.68368840e-02 -6.62323087e-02
      -1.97909102e-02 2.88509503e-02 8.13250765e-02 3.57593521e-02
      -1.06461737e-02 -9.78086051e-03 -1.97327323e-02 -1.00236692e-01
      9.90396589e-02 -9.57236588e-02 -3.41298506e-02 1.30345384e-02
      1.28083769e-02 4.39601243e-02 5.40788509e-02 2.24964172e-02
      -1.97847337e-02 -2.14609057e-02 -8.20279345e-02 1.69788357e-02
      1.41569674e-01 1.57517686e-01 3.43314670e-02 3.58188674e-02
      1.12275931e-03 3.00179869e-02 -4.56962660e-02 3.71306725e-02
      -4.11365069e-02 0. -7.27291629e-02 2.30150167e-02 6.01299629e-02
      1.90231726e-01 1.07448943e-01 2.18614079e-02 4.80732396e-02
      9.21084136e-02 1.07503450e-02 -8.22115690e-02 -3.82586680e-02
      -9.15391594e-02 -2.18856949e-02 5.15624089e-03 1.13068372e-01
      -1.08786970e-02 -1.04974126e-02 -5.35495877e-02 -1.32378295e-01
      -2.59237662e-02 -7.17955232e-02 8.37411657e-02 4.67488170e-02
      6.38994202e-02 8.29030853e-03 1.87070258e-02 -5.86703643e-02
      1.78424329e-01 5.03598526e-02 -9.15127806e-03 -8.27884600e-02 0.</_></support_vectors>
  <decision_functions>
    <_>
      <sv_count>1</sv_count>
      <rho>1.2185062121229373e+00</rho>
      <alpha>
        1.</alpha>
      <index>
        0</index></_></decision_functions></my_svm>
</opencv_storage>
