<?xml version="1.0"?>
<opencv_storage>
<my_svm type_id="opencv-ml-svm">
  <svm_type>C_SVC</svm_type>
  <kernel><type>LINEAR</type></kernel>
  <C>1.0000000000000001e-01</C>
  <term_criteria><epsilon>2.2204460492503131e-16</epsilon>
    <iterations>100000</iterations></term_criteria>
  <var_all>4096</var_all>
  <var_count>4096</var_count>
  <class_count>2</class_count>
  <class_labels type_id="opencv-matrix">
    <rows>1</rows>
    <cols>2</cols>
    <dt>i</dt>
    <data>
      -1 1</data></class_labels>
  <sv_total>1</sv_total>
  <support_vectors>
    <_>
      -2.08415315e-02 -1.72812372e-01 1.38423979e-01 1.19755648e-01
      -1.85109407e-01 3.01759094e-01 -2.41068788e-02 -2.17022654e-02
      5.41801751e-02 -2.93040961e-01 2.43081436e-01 3.93931121e-02
      -1.12068214e-01 -1.37769103e-01 -7.33191147e-02 -2.35750273e-01
      -4.35763411e-02 -7.76303709e-02 -3.18709426e-02 -5.17285727e-02
      5.73954992e-02 1.23847678e-01 -2.90986776e-01 5.53192161e-02
      -1.11690246e-01 -3.90033470e-03 -1.25342151e-02 -1.68998614e-01
      -1.37383670e-01 2.65336912e-02 4.36143056e-02 0. -1.26744777e-01
      -1.55033141e-01 9.28915963e-02 1.34763122e-01 1.69107988e-01
      1.11767359e-01 -1.66627653e-02 -2.81749964e-01 -6.34278953e-02
      -1.06856711e-02 1.69516653e-01 5.40736131e-02 -7.39261806e-02
      -4.78063039e-02 1.40400633e-01 -1.36912301e-01 1.04514159e-01
      1.33387953e-01 -3.57025601e-02 -5.70271686e-02 1.46913201e-01
      -4.50888872e-02 2.45316140e-02 1.33088872e-01 -5.90888150e-02
      -7.20111132e-02 1.08797126e-01 9.51479189e-03 1.60285592e-01
      -7.16847330e-02 -5.02632931e-03 0. -2.25833893e-01 -8.09993222e-02
      -1.96675748e-01 4.94418070e-02 1.48914382e-01 1.76606089e-01
      -1.59452885e-01 -2.67359376e-01 -1.79784358e-01 1.33810103e-01
      8.98030102e-02 1.66548371e-01 -1.76550433e-01 -1.14553355e-01
      8.70814696e-02 5.78654297e-02 1.65301934e-01 2.32793018e-01
      3.79921980e-02 8.54932517e-02 9.37067270e-02 -4.58608791e-02
      4.25211480e-03 1.26450002e-01 -4.49909233e-02 -6.35077851e-03
      -5.02407923e-03 -4.35554869e-02 -3.43610458e-02 -2.03949995e-02
      5.44506647e-02 0. 1.78592548e-01 -9.92563963e-02 -2.43627340e-01
      -1.43425241e-01 1.15485020e-01 3.34047407e-01 1.09288609e-02
      -4.66031916e-02 -7.94290379e-02 -2.45533690e-01 2.51291782e-01
      1.29876897e-01 1.21336676e-01 -2.85730679e-02 -5.77097759e-02
      -1.70383200e-01 7.33025298e-02 1.13370083e-01 2.06002206e-01
      1.71058048e-02 1.66659302e-03 5.24256937e-02 -2.98742950e-02
      1.55829862e-01 -1.04264803e-01 7.50983134e-02 1.48953676e-01
      5.04632369e-02 1.05611242e-01 -3.29504162e-02 -2.23902371e-02 0.
      1.06099688e-01 -1.37244808e-02 -2.66772389e-01 1.68560855e-02
      1.76150468e-03 2.30117142e-01 -2.27545481e-02 2.95890961e-02
      -8.16105381e-02 -1.48655117e-01 -1.37908338e-02 1.75552234e-01
      6.29668459e-02 5.64083867e-02 -1.22867025e-01 -5.08178622e-02
      5.19973598e-02 1.66984215e-01 1.09372713e-01 3.41157392e-02
      8.62100977e-04 1.29723266e-01 -5.46099320e-02 1.11171722e-01
      -9.31293815e-02 2.98529901e-02 -1.89244412e-02 -5.54562397e-02
      2.73898412e-02 3.09653394e-03 1.08567767e-01 0. -2.14073136e-01
      1.21005075e-02 -3.00364010e-02 -7.98425749e-02 7.68586919e-02
      -6.45151287e-02 3.93733159e-02 2.13181928e-01 1.07459771e-02
      -7.65520707e-02 -1.16831914e-01 -7.21447617e-02 -1.81533411e-01
      -1.22197129e-01 -6.24569356e-02 -2.65768562e-02 3.66277359e-02
      1.88001528e-01 -6.83246329e-02 -5.39568774e-02 -2.50471737e-02
      -2.00411648e-01 -2.08922356e-01 7.23718777e-02 1.72381774e-01
      1.14221960e-01 1.64383911e-02 -3.72944400e-02 5.21866754e-02
      -1.64716870e-01 -7.16724992e-02 0. -5.21227084e-02 -2.41461974e-02
      -1.03027619e-01 9.73736122e-02 1.27274282e-02 2.68214315e-01
      3.95872146e-02 1.44661903e-01 -2.93403924e-01 -8.55493173e-02
      9.89388209e-03 -2.95503289e-02 3.97632383e-02 3.80159169e-02
      -1.30059361e-01 -7.14061335e-02 1.22891515e-02 1.45141006e-01
      7.49431318e-03 6.49465099e-02 -1.62079573e-01 1.06458724e-01
      4.29511592e-02 -4.10176292e-02 -1.32920280e-01 1.27489895e-01
      3.12073212e-02 3.11444476e-02 1.04687318e-01 -1.01519354e-01
      -2.56376043e-02 0. -1.18816923e-02 -2.49015298e-02 1.62379473e-01
      -8.46335664e-02 1.71480745e-01 1.25767633e-01 -4.07515243e-02
      -1.11807942e-01 -3.58125828e-02 2.17141896e-01 -6.22334033e-02
      -9.47559252e-02 2.07619831e-01 -1.14134341e-01 -1.08112030e-01
      6.93080351e-02 2.13074367e-02 -1.22583047e-01 3.73635218e-02
      9.61758848e-03 -7.84341916e-02 3.01664136e-02 4.19999473e-02
      -2.25102971e-03 -1.66345425e-02 -3.21655199e-02 1.23301279e-02
      3.92330475e-02 5.48891686e-02 -1.44838672e-02 -2.61278171e-03 0.
      -1.39868602e-01 -1.65014938e-02 1.24428138e-01 6.94698542e-02
      -1.37927055e-01 -5.72258495e-02 2.96162218e-01 8.26016665e-02
      -8.16045776e-02 1.81902051e-02 -9.69763845e-02 1.50541976e-01
      -4.13395539e-02 2.00275451e-01 -1.54134482e-01 -4.06646430e-02
      1.62133142e-01 1.96421370e-02 7.43194744e-02 -6.00512512e-02
      1.32699326e-01 3.79317328e-02 -1.03365585e-01 -2.81251371e-01
      1.96153805e-01 2.64443040e-01 2.64740158e-02 -1.19470395e-01
      1.33862300e-02 1.09027900e-01 1.65441334e-01 0. -3.03771138e-01
      -2.05956325e-02 -2.05198407e-01 -2.81778812e-01 1.88986555e-01
      1.29644513e-01 1.40215501e-01 -4.35809158e-02 1.44368693e-01
      -1.23243369e-01 1.07534513e-01 3.78719978e-02 -4.07562517e-02
      -5.84657565e-02 -1.90934137e-01 -7.51424162e-03 -5.11614457e-02
      2.97967553e-01 -1.95043907e-01 -5.07490635e-02 -1.82643563e-01
      -2.79502630e-01 -6.83311597e-02 -1.98879972e-01 4.08522487e-02
      4.85853152e-03 3.08654696e-01 -1.46310598e-01 1.13877229e-01
      -1.43184781e-01 4.34324592e-02 0. -1.41617283e-01 -4.26100902e-02
      -9.18628946e-02 3.98246139e-01 2.45939776e-01 -1.04181901e-01
      1.35835901e-01 3.40606533e-02 -1.08199483e-02 2.02583466e-02
      -1.09986871e-01 6.48585036e-02 -1.61441222e-01 -2.37343982e-01
      1.15969129e-01 -4.06474918e-02 -1.52827516e-01 -2.30248477e-02
      1.07837602e-01 -4.39264774e-02 5.41873313e-02 1.49707600e-01
      5.87178953e-02 1.13473736e-01 -2.32725516e-02 -1.26592457e-01
      1.05964847e-01 -1.25736430e-01 1.32419363e-01 -2.40612105e-01
      1.86225548e-01 0. 1.08120047e-01 -1.00257836e-01 -3.19256857e-02
      1.75872624e-01 -3.84950459e-01 2.70077974e-01 1.73193276e-01
      -6.74071237e-02 -3.42582054e-02 -1.23303935e-01 3.86472009e-02
      -1.19363144e-01 1.15928724e-01 7.03415554e-03 -1.24580115e-01
      -1.25265300e-01 1.94112703e-01 7.44206738e-03 1.84151262e-01
      1.48263178e-03 -1.67398795e-01 1.39224574e-01 -9.02100354e-02
      2.73130596e-01 1.11389138e-01 1.25338629e-01 5.56091927e-02
      -1.72649771e-01 2.30090156e-01 -1.51834682e-01 8.45501944e-02 0.
      -2.39753395e-01 1.75290585e-01 -1.36406720e-01 2.07056284e-01
      1.38232663e-01 1.66571528e-01 -2.84320176e-01 -1.25808388e-01
      -8.40469077e-02 -2.51805753e-01 1.65066391e-01 -9.55512151e-02
      4.56963740e-02 -1.21655568e-01 -9.64015797e-02 1.11712059e-02
      5.72790653e-02 8.43953118e-02 -2.33940169e-01 2.80215889e-01
      -1.05048098e-01 1.98307395e-01 -1.68598890e-01 5.71428873e-02
      -2.32720554e-01 -8.19715858e-02 -1.50591105e-01 -1.76183671e-01
      -1.25768892e-02 -1.37640595e-01 1.44916788e-01 0. 1.23345517e-01
      -5.12886047e-03 1.55707538e-01 2.63164550e-01 -1.35878250e-01
      -2.59239882e-01 -1.34657010e-01 1.38121292e-01 2.44600326e-02
      -1.66924194e-01 2.73643862e-02 1.45845607e-01 7.54775852e-02
      -1.62104979e-01 1.91656709e-01 -9.73953679e-03 1.21444225e-01
      -1.15098983e-01 2.76143495e-02 1.30712301e-01 2.85903722e-01
      2.86474049e-01 -3.25236827e-01 -2.44425721e-02 -3.97849083e-02
      2.30237707e-01 -4.70373034e-02 4.08166163e-02 1.24003388e-01
      -1.00146413e-01 6.62887767e-02 0. -1.57342285e-01 -1.02200113e-01
      9.63433683e-02 5.08473665e-02 -1.63155019e-01 3.38255875e-02
      -2.44510293e-01 6.98723048e-02 -8.54098722e-02 2.15052478e-02
      9.11685601e-02 1.68843661e-02 1.59807518e-01 -1.00927241e-01
      2.39811782e-02 -7.91822374e-02 4.01189998e-02 2.05209523e-01
      -1.11337729e-01 -1.01841912e-02 1.04884170e-02 1.57053694e-01
      -3.32454890e-01 -2.30287030e-01 -1.57322019e-01 -1.03728175e-01
      1.15305908e-01 -1.45896792e-03 5.72760813e-02 -1.45587280e-01
      3.17111649e-02 0. -1.00296386e-01 -2.64488727e-01 -2.49471992e-01
      -3.13880970e-03 7.37874135e-02 3.04315444e-02 -5.64206578e-03
      -1.31271824e-01 5.64348772e-02 -1.39523536e-01 2.47892186e-01
      -1.35360792e-01 3.11831325e-01 1.82813331e-01 1.64342195e-01
      -3.68906073e-02 1.42685682e-01 1.27620116e-01 -1.97304130e-01
      7.71770626e-02 -3.38304251e-01 9.08946767e-02 -5.92352785e-02
      2.71555424e-01 7.77925998e-02 3.54784578e-02 2.02437416e-01
      5.93707934e-02 2.29336154e-02 -1.21474434e-02 5.79478294e-02 0.
      -2.70897299e-01 6.62915111e-02 2.15673268e-01 1.29722700e-01
      1.32644564e-01 4.27569330e-01 2.90071726e-01 -2.74970792e-02
      2.08362594e-01 -3.20612073e-01 -1.29708335e-01 -1.14392087e-01
      3.02677453e-01 1.63259014e-01 -3.87325704e-01 -1.35945082e-01
      -1.78865016e-01 9.24432836e-03 -1.37379244e-01 -1.01396322e-01
      5.04429750e-02 3.51221532e-01 -3.93921025e-02 -1.18290987e-02
      2.50070356e-02 -6.87813386e-02 1.81758061e-01 -1.16450720e-01
      4.75332141e-02 2.90123839e-03 2.45277315e-01 0. -6.21589366e-03
      1.69124842e-01 -2.32088432e-01 -2.47102790e-02 1.80191156e-02
      1.27347425e-01 2.72015303e-01 5.35091311e-02 1.53946847e-01
      2.76854560e-02 1.04929090e-01 -9.10765529e-02 4.51964550e-02
      7.89732486e-03 -4.46335673e-02 -2.95939773e-01 -2.98676997e-01
      5.46472659e-03 9.97094214e-02 1.47956565e-01 1.25617132e-01
      1.14414971e-02 -3.87605764e-02 4.53508683e-02 -1.50192276e-01
      -3.10284868e-02 2.43954778e-01 -4.32050936e-02 8.94335210e-02
      -2.15301588e-01 1.65205047e-01 0. -1.26803234e-01 3.04441936e-02
      1.27066880e-01 3.96964476e-02 -6.17489638e-03 1.66466653e-01
      3.33977789e-01 3.53961676e-01 -1.72518846e-03 -8.05068165e-02
      2.66395599e-01 -1.66805208e-01 -6.07662089e-02 1.08306356e-01
      -1.81264505e-01 -9.95359495e-02 -2.87026584e-01 -1.86636552e-01
      -9.24904272e-02 2.33760536e-01 1.46905959e-01 1.58820197e-01
      -1.19934849e-01 4.92144004e-02 8.67018327e-02 -6.94309734e-03
      -2.34817073e-01 1.02529250e-01 8.32054168e-02 -1.22153744e-01
      4.44029234e-02 0. -7.94382691e-02 -8.07874128e-02 2.86081672e-01
      2.19517216e-01 1.31828617e-02 1.42015040e-01 -4.02320400e-02
      1.78219527e-01 5.55778146e-02 -1.46745414e-01 -4.96231876e-02
      -2.01647207e-01 -9.18397903e-02 -1.94253638e-01 1.11159272e-01
      -1.71519220e-01 -2.77357459e-01 2.29653940e-01 -1.24168321e-01
      -1.90530300e-01 3.72482240e-02 1.04426526e-01 -1.02827325e-01
      -7.46038109e-02 1.47222290e-02 6.47940561e-02 2.21177056e-01
      -1.51990443e-01 3.32027301e-02 5.15113063e-02 2.10622419e-02 0.
      -6.92535266e-02 1.68342680e-01 -8.34312104e-03 2.96327442e-01
      3.77650820e-02 7.12427422e-02 -4.60642017e-02 -2.24774599e-01
      7.03317821e-02 8.83188993e-02 1.09359242e-01 -2.80658245e-01
      -3.12244952e-01 -2.45182533e-02 8.24507251e-02 1.07350033e-02
      -1.96536332e-01 2.50506818e-01 5.74781485e-02 1.22008234e-01
      -9.73326489e-02 -7.61055723e-02 -1.74391210e-01 1.39651880e-01
      1.86222722e-03 6.96281940e-02 1.78249910e-01 -2.30513379e-01
      1.82997450e-01 -7.58773535e-02 1.34229511e-01 0. -2.14535952e-01
      3.01607978e-03 1.87589396e-02 2.07520768e-01 3.54486942e-01
      3.84874158e-02 5.25080934e-02 1.52932554e-01 2.05091778e-02
      -2.17813879e-01 3.13618071e-02 -2.68393070e-01 -1.27980322e-01
      -3.51205289e-01 1.91614002e-01 2.74018019e-01 -8.52710009e-02
      -9.90672037e-02 -8.63319561e-02 1.27425954e-01 -1.19095162e-01
      6.17866637e-03 -6.18174970e-02 5.63392341e-02 2.45672345e-01
      -5.40006384e-02 -1.85172394e-01 -2.32283007e-02 1.71168000e-01
      -1.99971572e-01 4.30503525e-02 0. -2.57494420e-01 7.18078017e-02
      -2.12284345e-02 -9.40037742e-02 1.98249996e-01 3.02974522e-01
      9.82009247e-02 1.08477391e-01 -2.99711563e-02 -1.57561973e-01
      2.66589612e-01 -2.24087939e-01 -1.40578419e-01 1.98550597e-02
      -1.42571077e-01 7.10487217e-02 -6.31912500e-02 8.53362456e-02
      -8.23664740e-02 2.54408956e-01 -6.82529062e-02 -9.66645256e-02
      4.49769646e-02 1.57277405e-01 1.74695864e-01 1.64878681e-01
      1.35334238e-01 -1.67199429e-02 1.38452753e-01 -2.23651558e-01
      1.45217687e-01 0. -3.24516177e-01 7.58725256e-02 1.79745778e-01
      1.21233175e-02 -1.40175492e-01 -2.41263404e-01 -6.01777323e-02
      -1.63231909e-01 -9.22431145e-03 -3.75144323e-03 -1.80000737e-01
      -1.35201141e-01 6.63689105e-03 3.20683599e-01 -2.74891928e-02
      1.04979267e-02 5.24436571e-02 1.54940918e-01 -2.32445642e-01
      1.05766952e-01 1.08578481e-01 1.16989717e-01 1.36362001e-01
      -1.14800200e-01 -6.59072846e-02 -3.71473059e-02 3.42910811e-02
      -2.52919849e-02 1.29220227e-03 -1.73971102e-01 -2.45709158e-02 0.
      -1.14210196e-01 8.06068033e-02 -8.56999482e-04 -7.86345080e-02
      -3.01160991e-01 1.00087345e-01 3.19576357e-03 -7.15142190e-02
      1.37014449e-01 -1.16324805e-01 4.07593101e-02 2.09995151e-01
      -8.47862847e-03 1.37950405e-01 -5.84193431e-02 -1.18424416e-01
      -1.60646081e-01 6.58000633e-02 -1.91194057e-01 1.95057288e-01
      3.49718668e-02 -3.21956277e-02 -1.02535225e-01 -3.76331471e-02
      -9.51024815e-02 -5.80602027e-02 1.25540849e-02 -6.97328374e-02
      -7.71869645e-02 -4.12552916e-02 6.87878281e-02 0. 2.63387859e-01
      1.19887955e-01 -2.12191030e-01 1.15996249e-01 -2.69876838e-01
      -1.31165395e-02 -6.58603981e-02 5.17772026e-02 3.08422267e-01
      -2.63924241e-01 -2.99845133e-02 1.12234659e-01 1.05565295e-01
      6.97424868e-03 3.31358574e-02 -1.94650760e-03 -4.73294072e-02
      -2.92344540e-02 1.34322913e-02 9.00919884e-02 1.45713225e-01
      2.28661478e-01 -3.10912840e-02 1.47167102e-01 -6.05151281e-02
      3.33803855e-02 1.16412483e-01 1.52256921e-01 5.66628464e-02
      -7.10102990e-02 -5.12107313e-02 0. 8.78889635e-02 1.60351247e-01
      2.77486593e-01 1.56254530e-01 -5.23754694e-02 2.26287678e-01
      1.50111377e-01 1.57622650e-01 -2.68949151e-01 -3.14086020e-01
      1.12513930e-01 -2.39733383e-01 -1.01901814e-01 -5.16253114e-02
      -3.49228173e-01 -1.10610187e-01 -7.41323456e-02 -1.43792093e-01
      -9.45001189e-03 2.06150740e-01 2.03255281e-01 1.57211646e-01
      -1.51915951e-02 3.99581045e-02 -4.47738878e-02 2.11543158e-01
      -3.12647641e-01 1.09053664e-01 7.51763536e-03 -1.40519843e-01
      -1.54201522e-01 0. -4.11738783e-01 -5.19124046e-02 1.94180891e-01
      1.25824481e-01 4.53966074e-02 3.31019759e-02 2.22851321e-01
      1.45627379e-01 8.25862885e-02 1.47996277e-01 -8.31617713e-02
      -7.47879222e-02 -1.58931613e-02 -3.53326380e-01 -6.38776794e-02
      -9.50909033e-02 -2.17695728e-01 5.76708466e-02 -2.75448849e-03
      -8.35821033e-02 2.52530724e-01 6.18294664e-02 -8.75345767e-02
      1.04199976e-01 1.50886595e-01 1.33483812e-01 1.74850091e-01
      -7.27118328e-02 -1.73527107e-01 8.86832848e-02 1.03616677e-02 0.
      -2.47825325e-01 3.09863955e-01 5.18293530e-02 -1.40810013e-01
      -7.95969069e-02 -1.00175012e-02 -6.07782416e-03 -2.08506659e-01
      2.01575030e-02 2.67671794e-01 6.06526136e-02 -6.53768629e-02
      -8.69504437e-02 8.78819674e-02 2.70665530e-03 1.76136628e-01
      1.20738469e-01 -7.03366101e-03 3.12668867e-02 2.31611237e-01
      -3.95572893e-02 -1.50177136e-01 -3.92663628e-02 7.22962469e-02
      1.83063596e-01 8.78779590e-02 7.74209946e-02 -7.67197907e-02
      -7.16571882e-02 1.95679069e-01 6.84001222e-02 0. -3.71420719e-02
      -2.09136251e-02 -2.09409267e-01 6.79718927e-02 1.45601615e-01
      -7.87515491e-02 7.89593011e-02 -4.52129915e-02 -6.86639920e-02
      1.19126923e-01 8.09056964e-03 -1.56169504e-01 -3.81790027e-02
      8.92867222e-02 2.10846867e-02 -1.76800657e-02 2.05396697e-01
      9.51437205e-02 -1.38344467e-01 -2.51616277e-02 -1.26650035e-01
      8.56517535e-03 -1.16578102e-01 7.13578761e-02 7.36060292e-02
      9.21415016e-02 1.40614823e-01 -1.44917592e-02 1.38187110e-01
      -2.91837566e-02 -1.97758544e-02 0. 7.86823779e-02 9.95593816e-02
      -6.93467408e-02 -1.56898260e-01 -1.02086551e-01 -2.38651916e-01
      3.69067341e-02 6.52823178e-03 -2.34264612e-01 1.82759203e-02
      6.52539805e-02 4.16076928e-02 1.10139132e-01 2.28194177e-01
      -6.71840757e-02 4.82241474e-02 -6.70784339e-02 1.17120795e-01
      -1.24243781e-01 -5.07102022e-03 2.10328605e-02 9.76371765e-02
      -5.95944338e-02 -2.39329159e-01 1.04917288e-01 -5.86417764e-02
      -9.48715657e-02 9.51079093e-03 1.76216587e-01 -2.22173542e-01
      -3.63136292e-03 0. -2.38864288e-01 -1.35528117e-01 -1.39725521e-01
      4.59596980e-03 7.54192546e-02 -1.57972854e-02 -1.52377531e-01
      -4.57791472e-03 2.41264492e-01 3.41446511e-02 -1.65261164e-01
      1.06315382e-01 3.04070134e-02 -1.46194771e-01 3.95198315e-02
      1.69532141e-03 -4.50419895e-02 2.14428101e-02 6.71162561e-05
      -1.67908221e-01 6.31061643e-02 7.06879199e-02 4.05688286e-02
      1.95826352e-01 -1.78509340e-01 -8.27353224e-02 1.65961534e-02
      -1.65135831e-01 1.30846173e-01 -1.98683992e-01 2.66468804e-03 0.
      1.01525053e-01 -1.24425575e-01 9.66262296e-02 -2.83118691e-02
      -4.63906676e-02 1.77682117e-01 -6.18862398e-02 8.51133391e-02
      -1.84246138e-01 3.01319081e-02 -4.18543033e-02 3.46683413e-02
      -1.53095230e-01 -9.74263698e-02 -1.13163874e-01 -1.48991004e-01
      2.01836362e-01 3.86380583e-01 1.73602328e-01 4.18883152e-02
      1.12159416e-01 -2.18625367e-02 -2.80163258e-01 -9.48933214e-02
      -2.98395038e-01 1.27670974e-01 1.85483068e-01 9.29236487e-02
      -1.68933898e-01 2.47679308e-01 -1.17848106e-01 0. 8.46302360e-02
      -1.99113593e-01 -2.21300442e-02 -1.28263742e-01 -1.13419227e-01
      1.19555876e-01 3.55965202e-03 3.78250331e-01 -1.11886170e-02
      -4.66056198e-01 -1.55890480e-01 4.43621837e-02 -4.89551052e-02
      -5.39571680e-02 4.15007770e-02 9.62908864e-02 -1.44302279e-01
      3.82616296e-02 -1.63690031e-01 3.02754510e-02 -1.04166223e-02
      -9.60747451e-02 -1.90277085e-01 2.15951055e-01 2.05253884e-01
      2.68250465e-01 -2.48092469e-02 -3.71266641e-02 -8.81792009e-02
      4.92067374e-02 -1.76978990e-01 0. 2.19683915e-01 3.08378816e-01
      -1.29642293e-01 -1.61177948e-01 5.03341854e-02 1.65791493e-02
      -3.71278912e-01 -1.92206763e-02 3.79204042e-02 -2.11072162e-01
      -4.81357649e-02 -1.08257374e-02 6.84003010e-02 1.42139450e-01
      -2.65578702e-02 1.20628275e-01 -6.43859133e-02 -1.02309417e-02
      4.22900636e-03 8.80703926e-02 -2.23896757e-01 -1.64633319e-01
      -2.79289037e-02 4.54788432e-02 -1.62429392e-01 -1.15461715e-01
      -1.80570796e-01 -2.09463105e-01 9.81567800e-02 7.85526708e-02
      -8.94817617e-03 0. -2.21290141e-02 2.16556969e-03 -4.17722017e-02
      -3.37252170e-01 -1.97357014e-01 8.91379863e-02 -1.02718636e-01
      -8.70255604e-02 3.96023065e-01 1.42351642e-01 -1.87117234e-01
      -7.78532550e-02 1.11806847e-01 -1.14005923e-01 2.30763212e-01
      -1.65319610e-02 -4.83164899e-02 2.18750834e-02 1.51088774e-01
      -1.88562244e-01 -1.69057533e-01 -1.65125042e-01 -1.52486116e-01
      1.77757636e-01 -2.34283641e-01 -1.53800517e-01 1.82934389e-01
      5.22662029e-02 -1.48790050e-02 -1.94166049e-01 4.46063578e-02 0.
      -4.22703415e-01 -1.18268579e-01 3.32975328e-01 7.79171288e-02
      -6.16877973e-02 4.59672101e-02 5.72757162e-02 4.47911248e-02
      -2.23073214e-01 -4.25514318e-02 1.42054915e-01 -3.21266390e-02
      7.75599852e-02 -1.32540181e-01 9.81737301e-02 -6.33717850e-02
      -5.07816151e-02 1.54620018e-02 -1.21613897e-01 1.40903452e-02
      2.59639710e-01 1.51390195e-01 -6.80992082e-02 -2.25268900e-02
      3.01941414e-03 -4.85491939e-02 -7.93611109e-02 4.44165953e-02
      -2.11170688e-01 9.52814221e-02 -4.87001352e-02 0. 1.27356127e-01
      -1.62437320e-01 6.55944943e-02 1.80730559e-02 5.99545613e-02
      2.02681601e-01 5.51979654e-02 1.83359310e-01 -1.45490184e-01
      9.00643766e-02 3.86181474e-01 1.13394640e-01 -5.33160344e-02
      -1.40309885e-01 -2.19541848e-01 -1.95890963e-01 4.00839821e-02
      -4.63967808e-02 1.71006948e-01 2.37437531e-01 7.76626393e-02
      -9.22868177e-02 -3.10842186e-01 -1.09624140e-01 -6.15195073e-02
      2.12255254e-01 -6.87703118e-02 3.36239040e-01 -9.04474258e-02
      9.28211734e-02 -1.60160303e-01 0. -4.43318598e-02 -1.25782326e-01
      9.60442051e-02 -1.24251805e-01 -3.18080075e-02 2.26431154e-02
      5.77108040e-02 -1.58759914e-02 -4.77600545e-02 1.18416071e-01
      -1.34644434e-01 1.27108589e-01 -3.29020657e-02 -2.56979335e-02
      -3.15664262e-02 1.41956344e-01 -1.19123030e-02 -1.10253483e-01
      1.00236125e-01 -2.13195771e-01 1.35813653e-01 -1.22635685e-01
      -1.56333789e-01 -6.29239306e-02 1.06924951e-01 -9.65820476e-02
      -1.36240453e-01 1.31000713e-01 -6.64051473e-02 1.12313405e-01
      -2.58417547e-01 0. 4.42760400e-02 -1.60887570e-03 4.59813066e-02
      -3.52155790e-02 -1.12224713e-01 -1.62101790e-01 5.08453511e-02
      -1.65154990e-02 1.01566613e-01 -2.23492041e-01 1.06891185e-01
      1.70400500e-01 1.67353973e-01 -2.03930080e-01 -1.56857297e-01
      2.91699003e-02 8.98671597e-02 1.43027157e-01 -6.57140091e-02
      1.45842895e-01 3.02364416e-02 1.09706841e-01 -1.48092970e-01
      -3.22933011e-02 5.55394478e-02 4.03370708e-02 2.94318050e-01
      1.10031232e-01 -2.69430820e-02 2.17550788e-02 -8.71970430e-02 0.
      -5.27720861e-02 -6.35172203e-02 9.04682726e-02 -1.78602599e-02
      9.21658576e-02 4.86959983e-03 1.10667676e-01 -1.19293019e-01
      -2.14269444e-01 -1.27651785e-02 -2.46372633e-02 1.29578844e-01
      3.70906219e-02 -2.27561221e-02 1.42223358e-01 8.77159163e-02
      5.84403388e-02 -8.47958960e-03 -2.62203991e-01 -5.95377721e-02
      1.39929369e-01 2.15141848e-02 -2.36661136e-01 5.33778034e-02
      1.68749630e-01 -1.03588603e-01 -9.25218910e-02 5.25136180e-02
      -1.30700693e-01 2.03759342e-01 -2.33396459e-02 0. -1.29757762e-01
      1.05043478e-01 6.78063482e-02 4.80538867e-02 9.26618055e-02
      1.00060314e-01 6.12957217e-02 -1.70573313e-02 3.67438853e-01
      3.71841490e-02 5.55634638e-03 -8.65132660e-02 -1.84992284e-01
      -1.48910552e-01 8.40418693e-03 -2.53931731e-01 -1.69095576e-01
      3.80771250e-01 -3.06320526e-02 2.95927852e-01 -6.76701069e-02
      -1.62340447e-01 2.18580905e-02 1.02124937e-01 -4.68743928e-02
      -2.18756631e-01 3.50133121e-01 1.47036061e-01 -6.45265430e-02
      9.95415077e-02 -4.81649972e-02 0. -2.71176904e-01 1.15408838e-01
      8.06695148e-02 6.42513037e-02 6.16586134e-02 1.35831870e-02
      2.80032284e-03 -1.72183812e-01 7.78573751e-02 -1.31893784e-01
      -1.82592750e-01 -2.78286561e-02 -5.75103946e-02 -6.81896508e-02
      1.07432380e-01 1.09495208e-01 1.06395744e-01 -1.91849694e-01
      -9.51308310e-02 8.15786198e-02 3.04601938e-02 -8.20545107e-02
      -1.09493189e-01 4.84457910e-02 4.36288938e-02 1.34782016e-01
      -1.13800168e-01 1.01247229e-01 -2.76454866e-01 1.06859937e-01
      -1.03087895e-01 0. -1.08038269e-01 1.06015705e-01 -1.04588330e-01
      5.52092567e-02 -4.42224592e-02 1.68796346e-01 1.80676747e-02
      8.22692439e-02 1.23964943e-01 -2.48047218e-01 -1.31400511e-01
      6.91970587e-02 -2.46921424e-02 8.17932561e-03 5.30745499e-02
      -1.51125088e-01 -1.34188980e-02 -2.58628100e-01 -1.33630544e-01
      -1.31644666e-01 1.45945504e-01 2.47052871e-03 -1.49043620e-01
      1.15078896e-01 -1.82223737e-01 7.18721002e-02 -4.13007624e-02
      1.28404170e-01 -7.13866651e-02 6.60969839e-02 -3.11385572e-01 0.
      1.91379845e-01 4.43918705e-01 -6.10525198e-02 1.97989076e-01
      5.78390551e-04 3.58850919e-02 7.78751960e-03 -2.86241784e-03
      -2.29947921e-02 -2.96178818e-01 3.70464265e-01 -5.76141328e-02
      -2.77985007e-01 -2.24078208e-01 -4.21594381e-02 -6.79920912e-02
      -2.42980942e-02 -4.53550648e-03 6.63741902e-02 3.90428185e-01
      -1.65939823e-01 2.75369100e-02 -4.84000370e-02 2.15036003e-03
      -1.27759665e-01 -1.30327061e-01 2.29558006e-01 5.56117147e-02
      -9.82463285e-02 1.83636233e-01 -6.26304895e-02 0. -6.16186485e-02
      -1.50931746e-01 -1.79256618e-01 -5.31109842e-03 -6.67573661e-02
      7.85464719e-02 -1.74078196e-01 2.29547158e-01 2.33682189e-02
      -1.86716333e-01 -2.97068735e-03 6.64654002e-02 4.16857935e-02
      7.26987496e-02 2.97932196e-02 1.06734699e-02 9.07342806e-02
      -6.43331259e-02 -3.35826933e-01 -7.77748451e-02 -1.74127981e-01
      7.44477138e-02 -2.97631416e-02 -1.32422119e-01 -1.40004620e-01
      2.17621952e-01 6.39742166e-02 1.28593341e-01 -2.41118204e-02
      1.12636974e-02 -2.32869834e-01 0. -2.77917355e-01 1.26218677e-01
      2.01103032e-01 1.06743909e-01 6.98495880e-02 4.69004884e-02
      1.67483583e-01 7.72305429e-02 1.05714947e-01 3.54328081e-02
      8.14430490e-02 7.75117725e-02 -9.22650471e-03 -1.11977533e-02
      -1.36716545e-01 -9.68245640e-02 -2.30833843e-01 -2.61160545e-02
      5.74432574e-02 1.13191828e-02 7.70002082e-02 1.52450114e-01
      1.68746322e-01 -5.97671643e-02 1.31225720e-01 -3.19142006e-02
      1.62763312e-01 1.81776389e-01 -1.13026924e-01 1.01194829e-01
      -2.53188480e-02 0. 1.72370940e-01 -3.53515409e-02 -3.49967778e-02
      -1.27224788e-01 -1.56860396e-01 -1.71937317e-01 -6.02554865e-02
      -1.42980427e-01 1.09567016e-01 -1.79991916e-01 1.34260625e-01
      3.96280438e-02 1.46828741e-01 -3.39925922e-02 9.22859609e-02
      5.08803828e-03 1.06516324e-01 -1.59065768e-01 2.32275277e-02
      4.61541340e-02 6.65199291e-03 8.82251654e-03 -1.75802782e-01
      -4.87425588e-02 -9.62271392e-02 -5.58733232e-02 -1.50789440e-01
      1.06791429e-01 -1.52992889e-01 7.04370886e-02 -1.63822517e-01 0.
      2.00215429e-01 9.88277048e-02 -8.32521990e-02 1.08150780e-01
      -4.70142998e-02 7.42657706e-02 -3.40025723e-02 -3.06012720e-01
      2.48849113e-03 -3.28122303e-02 2.89139718e-01 -8.96370485e-02
      1.12265728e-01 -2.37411708e-01 9.76507291e-02 1.86622739e-02
      7.57295638e-02 -9.71383974e-02 4.38267225e-03 3.72008085e-01
      -8.13279450e-02 2.26845205e-01 -2.52167016e-01 -3.69846337e-02
      -2.58786734e-02 -7.67358169e-02 -8.97262339e-03 1.14961855e-01
      -2.08634228e-01 1.38112873e-01 2.63236929e-02 0. -1.06171062e-02
      1.58309907e-01 -9.85787660e-02 -2.49891892e-01 -2.45545596e-01
      -3.97623442e-02 -2.29662254e-01 -1.32126108e-01 7.07286298e-02
      -8.73537660e-02 8.09274614e-02 1.28658354e-01 -3.54348309e-02
      5.54785244e-02 2.04987288e-01 1.50690794e-01 9.66860726e-02
      -7.22332224e-02 -7.65384687e-03 1.71678290e-01 1.62652731e-01
      -1.35452583e-01 -5.75653724e-02 9.41786766e-02 -6.42030239e-02
      -6.67685047e-02 -1.17604770e-01 9.32553560e-02 -1.72062159e-01
      1.31376520e-01 -1.72653586e-01 0. -3.34276587e-01 -2.23771200e-01
      -1.85479552e-01 1.34223297e-01 -9.26522613e-02 2.07182646e-01
      -9.35918465e-02 -1.59429371e-01 4.04026099e-02 6.22631535e-02
      -3.01819742e-02 -4.40319180e-02 3.78777124e-02 -8.05371813e-03
      -3.81729635e-03 -2.55871546e-02 7.16957748e-02 -4.95144874e-02
      -7.94736668e-02 -3.12265992e-01 -1.23895064e-01 2.24373788e-01
      5.73526807e-02 2.51971245e-01 -9.17376950e-02 -5.42262271e-02
      2.79008485e-02 -6.36335909e-02 -1.66592285e-01 6.75978139e-02
      -1.65816203e-01 0. 8.89879838e-02 -4.63125817e-02 -7.26353079e-02
      -2.00923104e-02 1.81067973e-01 -5.59170097e-02 7.77600855e-02
      -2.85898298e-01 1.11755840e-02 -2.87053376e-01 -1.66387353e-02
      1.81603849e-01 -3.77722532e-02 -8.50740299e-02 2.38536447e-02
      -6.88563567e-03 -2.41387989e-02 6.29596636e-02 -7.49937445e-02
      -2.66074780e-02 6.65721521e-02 -1.25579059e-01 1.72177747e-01
      -5.21619059e-02 1.18356004e-01 -1.96078360e-01 -1.90035343e-01
      7.03777149e-02 -7.01016411e-02 -3.02878078e-02 -1.16598122e-01 0.
      -8.61295387e-02 2.29451023e-02 -5.35710678e-02 -2.15406671e-01
      8.99324045e-02 -1.57514006e-01 -2.00124964e-01 -6.59268573e-02
      7.69449696e-02 -4.26794440e-02 -1.84027031e-01 1.66236296e-01
      1.56130150e-01 -1.11742755e-02 4.63713147e-02 -2.08366159e-02
      2.04295248e-01 7.62594640e-02 2.77831256e-02 -1.99747190e-01
      -1.62972249e-02 -1.86878406e-02 9.45770442e-02 -9.81048495e-02
      -1.00225955e-01 2.21171767e-01 8.39665607e-02 6.47185966e-02
      -1.51597962e-01 6.31349161e-02 -6.97226897e-02 0. -7.67372027e-02
      9.69636962e-02 -1.88867509e-01 1.14587948e-01 6.82247803e-02
      -7.86630064e-02 1.83192194e-01 2.44298223e-02 -3.42711098e-02
      9.06823575e-02 -2.67959535e-01 6.04255348e-02 6.22367077e-02
      -4.70042452e-02 -1.02388553e-01 4.88680750e-02 -1.59445629e-01
      1.52193382e-01 -7.96123445e-02 -9.43111330e-02 -5.95448576e-02
      1.44990608e-01 -1.76675245e-01 -9.58643481e-02 1.57734320e-01
      -7.86368921e-02 2.28708535e-01 4.92631383e-02 1.09598143e-02
      5.21250442e-02 -1.37583107e-01 0. 1.64759248e-01 4.02975567e-02
      -3.29152763e-01 -2.48429969e-01 -6.62206784e-02 -4.09875810e-02
      2.58000910e-01 -8.61835927e-02 -1.18513986e-01 -8.85959268e-02
      -1.71616420e-01 -1.06262434e-02 7.23647177e-02 6.09070919e-02
      -1.15546063e-01 1.66438773e-01 -1.59938615e-02 7.03940541e-02
      2.91126609e-01 -7.02720508e-02 -1.56599611e-01 -1.70784578e-01
      -5.03154248e-02 1.02829173e-01 2.66264796e-01 -1.48794383e-01
      7.74554014e-02 4.53242064e-02 -4.67005596e-02 -4.38230485e-02
      -1.71034008e-01 0. 6.99706525e-02 1.52353168e-01 -1.10898450e-01
      -1.12074420e-01 -7.36731524e-03 1.78410076e-02 -2.80852336e-02
      -4.07620639e-01 1.81865077e-02 1.86077924e-03 -6.68865675e-03
      -6.32852456e-03 1.38369977e-01 1.65882781e-01 -1.27678216e-01
      1.01098623e-02 1.44814402e-01 9.65406671e-02 7.13787675e-02
      2.92039830e-02 -6.08606860e-02 3.22602205e-02 1.10700846e-01
      1.95578203e-01 1.00864647e-02 -3.41021419e-02 1.70404539e-01
      7.01745003e-02 -2.18801387e-02 3.64536047e-02 -8.04166496e-02 0.
      -1.96812198e-01 -1.38237268e-01 -6.20451607e-02 8.72040540e-02
      -1.48610905e-01 1.37245014e-01 1.49376497e-01 5.41503057e-02
      4.86426167e-02 -2.39339888e-01 6.13717176e-02 -1.30453333e-01
      1.79546308e-02 -2.87350994e-02 2.89445072e-02 -1.89022765e-01
      9.47757158e-03 -4.03306214e-03 -1.59627482e-01 5.05733229e-02
      -7.44920522e-02 1.27898753e-01 -5.31383082e-02 1.83370873e-01
      1.11474572e-02 1.67222291e-01 2.37416148e-01 -2.13040318e-02
      -1.69448048e-01 7.08084553e-02 -1.35990128e-01 0. 2.19611719e-01
      3.00383922e-02 -2.20675245e-01 7.75665939e-02 -1.62208736e-01
      -2.18351595e-02 -1.00318871e-01 5.17742336e-02 3.27647142e-02
      -1.67368352e-01 1.10899955e-01 1.32051989e-01 -4.87326123e-02
      3.90152968e-02 1.08370790e-03 -9.64940861e-02 -9.79826003e-02
      1.83959916e-01 2.97245294e-01 2.29062513e-01 6.42437264e-02
      -2.51318514e-02 -9.45245698e-02 2.13344574e-01 -1.35047674e-01
      -2.77375244e-02 6.27581403e-02 1.97496805e-02 -1.28468335e-01
      1.57170177e-01 -6.58221915e-02 0. -2.21535452e-02 -1.46132439e-01
      -1.66782707e-01 -1.25339195e-01 -1.45818695e-01 2.47532532e-01
      -1.58396047e-02 1.68656364e-01 6.02035001e-02 -2.54215062e-01
      2.89032072e-01 9.84527394e-02 1.59435526e-01 -6.40431717e-02
      -3.32188398e-01 -7.07730651e-02 4.53124233e-02 1.37089947e-02
      -1.57286927e-01 1.17241196e-01 2.45360099e-02 -3.45419794e-02
      -1.48770392e-01 -1.37985572e-01 -7.39572570e-02 1.95386991e-01
      1.33044953e-02 -2.23033293e-03 -1.39982566e-01 8.14366564e-02
      -6.22364208e-02 0. -1.16301246e-01 -7.11746514e-03 1.14194989e-01
      2.28460450e-02 2.40003631e-01 -5.48554212e-02 -1.50789857e-01
      -2.34253421e-01 -1.43009529e-01 -1.00223266e-03 -8.54999796e-02
      1.92694888e-02 1.04470983e-01 -3.81047189e-01 -7.21474290e-02
      1.52066559e-01 6.27145097e-02 2.26528585e-01 -2.55561352e-01
      -7.43247494e-02 6.87662289e-02 7.89065659e-02 -1.42936379e-01
      -8.85260403e-02 -4.65453863e-02 1.13958530e-02 6.47764513e-03
      1.05641022e-01 -2.85940450e-02 -3.84880640e-02 -1.81831047e-01 0.
      -8.66904929e-02 -3.73197459e-02 -2.87044551e-02 -5.56857958e-02
      -9.60949436e-02 -2.61429727e-01 -8.34192261e-02 -2.59295911e-01
      2.70981924e-03 1.93260521e-01 2.95096755e-01 9.71541405e-02
      -1.52914092e-01 -1.59471452e-01 8.12997967e-02 4.37096506e-02
      1.58936322e-01 9.62156355e-02 2.66177714e-01 5.27038537e-02
      -5.51355071e-02 -1.29119784e-01 9.60605517e-02 -1.47885427e-01
      -7.39566684e-02 1.45646736e-01 1.40423924e-01 8.45301077e-02
      -1.19803049e-01 -1.37202935e-02 -7.01026991e-02 0. -1.53259739e-01
      1.30668934e-02 5.53428195e-02 2.38716021e-01 6.14077598e-02
      -9.00341664e-03 1.07901484e-01 6.62251562e-02 3.42414267e-02
      -1.29360884e-01 1.19487923e-02 -3.32762077e-02 -3.76627862e-01
      -6.92916736e-02 6.13412494e-03 6.57376722e-02 -1.40539825e-01
      -3.33801322e-02 -7.51695260e-02 2.69632816e-01 8.21967050e-02
      -4.59369980e-02 1.13629006e-01 -1.33917453e-02 1.40216812e-01
      -3.50436494e-02 9.17642787e-02 5.25622368e-02 -9.35026333e-02
      3.64563987e-02 -1.29401863e-01 0. 3.04553527e-02 -4.66478430e-02
      4.23946343e-02 1.16808534e-01 2.29343828e-02 -8.76719505e-02
      -7.69929513e-02 1.21333256e-01 -8.85925516e-02 -2.28295058e-01
      1.01955697e-01 5.21644205e-02 5.05597256e-02 -8.83701432e-04
      -3.37640904e-02 6.52286857e-02 -1.79510191e-01 -1.17297731e-01
      -1.02897510e-01 1.54018506e-01 7.44875520e-03 5.79161122e-02
      -1.42770797e-01 6.37121918e-03 7.31910244e-02 7.05641657e-02
      -5.70166074e-02 1.46052897e-01 -1.34629533e-01 -8.78097117e-03
      -1.23236522e-01 0. 1.30171906e-02 -5.07900305e-03 -9.02512819e-02
      2.86410153e-02 2.53162533e-01 -2.07091361e-01 -1.01295494e-01
      -5.07644862e-02 -2.38428377e-02 6.88991919e-02 -1.26028927e-02
      1.03668049e-01 -2.52993349e-02 1.38398306e-03 5.91991283e-02
      4.76444736e-02 1.09474458e-01 -2.59769317e-02 -1.19005419e-01
      -2.97125392e-02 2.54544225e-02 -6.15780056e-02 5.76879904e-02
      -5.35698123e-02 -1.25366598e-01 9.02434886e-02 -4.04938087e-02
      2.05830172e-01 -1.17840014e-01 1.42484486e-01 -1.63117945e-01 0.
      -4.10662033e-02 -1.65369451e-01 4.53260951e-02 7.48955011e-02
      -3.36177722e-02 5.16314954e-02 1.44383195e-03 -5.05899936e-02
      -4.62627672e-02 8.09505805e-02 2.12457292e-02 -2.39931658e-01
      1.33173183e-01 -6.31053671e-02 -6.80756792e-02 -2.65932024e-01
      4.73104939e-02 -1.60960644e-01 2.06325665e-01 -3.34174454e-01
      -9.52139273e-02 3.25373784e-02 -1.65220171e-01 1.24304131e-01
      -2.66393512e-01 -1.70427617e-02 -6.99121729e-02 -2.20363095e-01
      -1.33846357e-01 7.87383839e-02 -4.45786975e-02 0. -2.44172495e-02
      3.76568176e-02 -5.83475679e-02 -6.98829070e-02 2.23639235e-01
      9.62017551e-02 1.68142784e-02 -1.15723036e-01 9.23345052e-03
      -1.70060411e-01 2.11088330e-01 9.64783132e-03 1.51508853e-01
      8.99267048e-02 -1.61682695e-01 -1.95243642e-01 -2.24160090e-01
      1.42288551e-01 1.49100900e-01 7.74741843e-02 -3.34975719e-02
      -4.43582684e-02 2.52345681e-01 1.04640670e-01 -1.98742241e-01
      -1.68326363e-01 8.67225379e-02 -9.89076570e-02 -7.18478337e-02
      6.15659170e-03 1.49744168e-01 0. -5.27272038e-02 -2.91092765e-05
      2.40751445e-01 -2.87557453e-01 -2.33904928e-01 -5.15925102e-02
      6.45347461e-02 1.02944322e-01 2.80793726e-01 -1.85610667e-01
      -6.99818358e-02 -1.69242546e-01 2.61935070e-02 -7.99765363e-02
      -1.44636035e-01 -1.71734124e-01 -5.18386923e-02 -1.34035110e-01
      -7.38270283e-02 1.17437199e-01 5.55264801e-02 -1.92517251e-01
      -1.75850108e-01 -1.07135363e-01 -1.55011058e-01 -1.86303761e-02
      -9.16556790e-02 -1.04846358e-01 -2.57376939e-01 1.14133232e-03
      -7.14978278e-02 0. -1.44827798e-01 1.45293415e-01 1.64222464e-01
      1.72076412e-02 -1.76155344e-01 -1.41949877e-01 -2.29092300e-01
      2.19234318e-01 7.04242513e-02 4.53321710e-02 -1.21948570e-01
      -3.07617728e-02 -1.56175688e-01 -2.62362212e-01 -1.14558443e-01
      3.09041198e-02 -7.06715509e-02 -3.69719677e-02 -1.10362545e-01
      -1.02879837e-01 5.36115095e-02 -2.16293767e-01 -1.28737688e-01
      -1.99714378e-01 -1.40756786e-01 1.00063957e-01 1.69049174e-01
      -7.55032105e-03 -4.87393327e-02 -1.18833348e-01 -1.98629871e-01 0.
      -1.03883632e-02 1.88360810e-02 -8.83823782e-02 6.07379973e-02
      5.61059527e-02 2.40597293e-01 -8.79914761e-02 -1.38969079e-01
      2.24092901e-02 -6.71546608e-02 6.43842667e-02 -1.18837968e-01
      -2.94187278e-01 -2.17846006e-01 1.02170788e-01 1.41675889e-01
      -3.71004753e-02 1.55785337e-01 1.79056138e-01 7.60393888e-02
      -1.37190223e-01 -2.05836535e-01 1.19606845e-01 3.24270457e-01
      1.71842985e-02 -1.34058863e-01 8.45775008e-02 5.78041635e-02
      8.48165005e-02 -1.50946245e-01 -8.50846171e-02 0. 1.62485838e-01
      -9.93198678e-02 -8.21661279e-02 5.20968325e-02 -5.57808653e-02
      1.70912012e-01 5.56674264e-02 6.53442591e-02 -1.85338005e-01
      -8.79096538e-02 -1.56354941e-02 1.35695204e-01 -1.38619259e-01
      -2.47366577e-01 4.48215753e-03 1.13152109e-01 -1.82404339e-01
      3.61679085e-02 1.92766160e-01 -7.80019760e-02 7.72254243e-02
      -1.08086310e-01 -2.12339219e-02 3.22750807e-02 6.46499470e-02
      4.78159264e-03 -2.82024831e-01 2.91345790e-02 -7.77260885e-02
      -5.33092506e-02 -3.88293155e-02 0. 5.35514317e-02 8.00361782e-02
      -1.07296318e-01 1.31759048e-01 -2.03763798e-01 4.70162220e-02
      -1.00368157e-01 -1.22867331e-01 -2.94620275e-01 -3.66907939e-02
      -2.08654881e-01 -9.58588533e-03 8.19500908e-02 -2.68771332e-02
      1.84039511e-02 1.29797667e-01 -1.46962747e-01 3.15989554e-02
      -3.91303822e-02 -1.19947657e-01 -2.19167382e-01 9.61846262e-02
      -5.71189709e-02 4.83576022e-03 7.69424736e-02 -1.07857943e-01
      -1.12765364e-01 9.91194472e-02 -6.20398484e-02 -1.63760349e-01
      -1.95555866e-01 0. 1.53023988e-01 1.78568676e-01 8.30684379e-02
      1.31948203e-01 4.42735218e-02 -1.04568407e-01 -1.88440122e-02
      -1.91242639e-02 2.40667537e-01 2.54779551e-02 -1.99288636e-01
      -7.83618074e-03 -7.64691755e-02 2.55815834e-01 1.67176813e-01
      -1.76270202e-01 -8.53974447e-02 -1.84336439e-01 2.06600443e-01
      8.85559712e-03 1.86834186e-01 -2.94514708e-02 5.35521880e-02
      1.50374338e-01 -1.71189621e-01 -6.35333508e-02 2.90686544e-02
      2.50830412e-01 7.24289715e-02 4.93479632e-02 -1.80329755e-01 0.
      1.77075192e-01 -1.26076266e-01 -2.74813920e-01 -1.83613688e-01
      3.32448222e-02 -9.28738434e-03 6.22899830e-02 1.19513825e-01
      1.86599970e-01 -3.37821199e-03 -4.03983742e-02 -2.88767606e-01
      5.70426919e-02 2.66878642e-02 2.84815561e-02 -2.89627407e-02
      9.08215567e-02 3.64263281e-02 2.66415685e-01 -1.26345977e-01
      -2.89750129e-01 -3.37783322e-02 -1.56458619e-03 1.00229338e-01
      2.61282194e-02 2.42219895e-01 1.48408398e-01 -1.43315256e-01
      -1.98881313e-01 1.64088875e-01 1.13472044e-01 0. -1.29186988e-01
      3.08456272e-01 1.13646865e-01 4.45918702e-02 8.88322815e-02
      2.43901476e-01 1.67458862e-01 -5.30954152e-02 7.78688267e-02
      -1.00615628e-01 5.91181312e-03 -6.80394173e-02 4.76514176e-02
      1.86244413e-01 3.59534111e-04 2.49501541e-02 1.27479592e-02
      -1.99926525e-01 8.37781876e-02 7.23219141e-02 3.23495567e-02
      3.13913599e-02 1.07082032e-01 2.26221994e-01 1.11293845e-01
      6.27573654e-02 -7.74155855e-02 1.93879217e-01 1.46335419e-02
      1.90151542e-01 -3.48576866e-02 0. 1.42683402e-01 1.57619432e-01
      4.97957356e-02 -6.26389608e-02 7.03813136e-02 8.59142691e-02
      2.21265063e-01 6.10307902e-02 7.68082887e-02 -1.74574003e-01
      -9.85543951e-02 5.19022904e-02 -8.26818272e-02 -2.40890890e-01
      -2.01241627e-01 -8.63504782e-02 4.54272050e-03 1.29217491e-01
      2.82745391e-01 2.63553802e-02 -2.59894673e-02 -2.42817830e-02
      -1.56722844e-01 -9.57540423e-02 1.52735680e-01 5.01298569e-02
      1.13371879e-01 8.47412497e-02 -8.04650858e-02 1.23386614e-01
      -7.85294101e-02 0. 9.88009200e-03 1.22148506e-01 4.08833437e-02
      2.71945626e-01 9.18333009e-02 3.80837619e-02 1.64394192e-02
      -6.65376633e-02 -3.23308189e-03 4.14028056e-02 3.11772227e-02
      3.25800888e-02 -1.12168819e-01 -3.92480463e-01 -1.56911165e-01
      -8.82374793e-02 5.06566912e-02 -4.87781279e-02 3.56518656e-01
      2.21933126e-01 -4.39969413e-02 1.79361328e-01 -2.36414701e-01
      -1.87678099e-01 5.32319695e-02 -1.78658348e-02 -2.42764615e-02
      3.79434936e-02 -7.30899349e-02 3.30101140e-02 -5.50519824e-02 0.
      -8.40994567e-02 4.84958887e-02 -5.73595054e-02 1.09546334e-01
      2.67979354e-01 4.02674749e-02 -7.20224157e-02 9.56754759e-02
      2.66647995e-01 1.02007426e-02 -4.07077931e-02 1.39290029e-02
      -6.58953637e-02 -2.59273648e-02 1.78761020e-01 -2.08320525e-02
      -1.10425791e-02 -2.59917025e-02 1.08647190e-01 -1.32685259e-01
      1.15080029e-02 5.37252501e-02 1.36239365e-01 1.16061307e-02
      -1.18924826e-01 5.08384667e-02 2.27008630e-02 1.34034425e-01
      6.01546653e-02 1.25374705e-01 -2.37014052e-02 0. -5.51579893e-02
      1.19371325e-01 -9.48054492e-02 -2.12098993e-02 1.23461992e-01
      2.33103871e-01 -9.35904831e-02 -9.33410898e-02 -9.02033746e-02
      1.27303481e-01 9.60292071e-02 2.24860564e-01 3.57158855e-02
      -4.21718359e-02 1.18425302e-01 -1.24469399e-01 -2.93049544e-01
      1.27673730e-01 1.53171822e-01 8.07268843e-02 1.74793899e-01
      6.08689599e-02 1.95974648e-01 1.17253356e-01 -1.17675535e-01
      -1.90573305e-01 8.83315951e-02 1.19919136e-01 1.18848413e-01
      -7.33059198e-02 -2.50098873e-02 0. -1.35434031e-01 -9.09516960e-02
      1.16530083e-01 3.32582556e-02 -2.09062740e-01 -5.80099598e-02
      -1.21167175e-01 -5.99775463e-02 -7.91126192e-02 -1.05139408e-02
      -2.27648422e-01 -2.60798693e-01 -1.73184663e-01 -5.52835763e-02
      -2.25485098e-02 3.40157181e-01 -1.68679848e-01 7.98901990e-02
      -1.05154015e-01 -1.33595243e-01 1.43459020e-02 -2.42861509e-02
      -7.54317362e-03 2.87867058e-02 1.63707867e-01 -8.61295089e-02
      7.21375644e-02 -1.33429870e-01 -3.26912552e-02 -1.65359572e-01
      -1.88255534e-01 0. 9.42397043e-02 -5.11605479e-02 -2.76614666e-01
      1.17951952e-01 -3.06577864e-03 5.33714816e-02 -3.77402380e-02
      -2.60521993e-02 2.44218558e-01 -5.66077977e-02 1.33375246e-02
      -4.93515916e-02 -5.20739183e-02 7.89736658e-02 -1.59023508e-01
      8.15813243e-02 8.89216661e-02 -7.77224004e-02 3.75665054e-02
      8.47030655e-02 -3.55619676e-02 6.91057295e-02 1.75778791e-01
      -5.46514392e-02 -1.64245233e-01 8.03473815e-02 1.63738370e-01
      -7.47096613e-02 1.50865525e-01 -6.31113797e-02 -2.09718794e-02 0.
      2.41455078e-01 4.10183286e-03 -6.81632683e-02 2.25159049e-01
      2.88562655e-01 9.43600535e-02 -5.36264814e-02 4.09824438e-02
      -2.28309944e-01 -4.40020889e-01 -1.85831666e-01 8.35305229e-02
      -2.42701303e-02 -4.16318141e-03 -2.18401864e-01 3.66072636e-03
      -8.83153006e-02 1.74974740e-01 -4.01954725e-03 -8.03455710e-02
      5.73364496e-02 1.61927700e-01 8.12121555e-02 -3.08467969e-02
      1.43114466e-03 2.19905470e-02 4.92717419e-03 -6.45062998e-02
      -7.21631646e-02 -8.08084682e-02 1.44733563e-01 0. 9.80629865e-03
      9.37101617e-02 1.09049678e-01 1.98861696e-02 -1.13963917e-01
      -4.44619060e-02 -8.84497538e-02 7.13407993e-02 9.00636613e-02
      6.27321899e-02 7.10598603e-02 -6.19740738e-03 -3.84864537e-03
      2.39111722e-01 -4.32184041e-02 -1.80862412e-01 -1.56748611e-02
      -3.62578291e-03 8.59644264e-02 1.92447469e-01 7.20580816e-02
      -1.33596091e-02 1.04527637e-01 2.02123281e-02 -2.43992209e-01
      1.04420409e-01 1.14351049e-01 7.57347792e-02 3.91953103e-02
      2.21828129e-02 -1.15049258e-02 0. -1.13132596e-01 -4.73687751e-03
      1.85294613e-01 -2.60541812e-02 -1.13601543e-01 -4.76340717e-03
      -2.03218654e-01 -1.17883667e-01 6.54613599e-02 -9.39537734e-02
      2.09402032e-02 2.08480051e-03 -1.63069338e-01 -1.20447651e-01
      6.70725405e-02 -8.08039159e-02 -7.57250264e-02 2.57273018e-01
      7.05627874e-02 2.95444876e-02 3.96622978e-02 -1.48460701e-01
      4.75977100e-02 -1.17779514e-02 -2.66429543e-01 -4.97602634e-02
      1.33164853e-01 -7.44453371e-02 -1.33385926e-01 3.16343606e-02
      -6.85841665e-02 0. -1.70466751e-01 4.30133529e-02 -4.72283065e-02
      -1.57417178e-01 -1.24932140e-01 -5.27087785e-02 -6.66833371e-02
      3.12746555e-01 -4.23061550e-02 -2.39336640e-01 2.45246351e-01
      -4.98192497e-02 -1.08541779e-01 4.12446447e-02 2.10925657e-02
      -3.48064974e-02 -1.77393749e-01 5.09069078e-02 1.12099960e-01
      1.84488207e-01 -9.40084830e-02 -2.38979176e-01 -3.88460718e-02
      9.88209546e-02 -1.27676815e-01 3.85551117e-02 5.79872057e-02
      4.59989719e-02 -1.34030551e-01 -6.90368190e-02 -1.05685338e-01 0.
      1.81947961e-01 2.81940084e-02 4.98454310e-02 -9.22027454e-02
      1.32010030e-02 -9.12377313e-02 -1.30325019e-01 -2.52385400e-02
      1.75917879e-01 1.70744240e-01 -9.13362429e-02 3.10163423e-02
      -6.36210963e-02 -1.22629896e-01 3.13115627e-01 1.18097693e-01
      -1.74945835e-02 1.45309821e-01 1.32750005e-01 4.35209125e-02
      1.06847167e-01 -1.42582327e-01 2.00781599e-02 1.90486878e-01
      -4.59069759e-02 -1.67594954e-01 1.99662670e-01 2.63223760e-02
      1.48494979e-02 1.92829788e-01 4.56818379e-02 0. -3.24113190e-01
      -9.60497186e-02 1.63211852e-01 -1.19772464e-01 9.63834673e-02
      2.14338049e-01 1.48325309e-01 -1.44110993e-01 8.15549120e-03
      8.74597728e-02 1.24774221e-02 -1.79775074e-01 5.73703684e-02
      -1.67949468e-01 1.25326067e-01 -1.18859448e-01 3.65788676e-02
      -1.41272411e-01 -7.85290673e-02 -1.42191812e-01 7.04079121e-02
      -3.31399366e-02 -4.52857465e-02 8.71190503e-02 4.59329113e-02
      -8.64666793e-03 -1.04108393e-01 -4.48453948e-02 7.41838738e-02
      -1.08099982e-01 -8.25875252e-02 0. 5.30697294e-02 1.65107638e-01
      6.28918409e-02 1.99428320e-01 -1.63720146e-01 7.82530904e-02
      -4.65622209e-02 -3.70622069e-01 6.99875727e-02 7.26317167e-02
      4.81301211e-02 -1.37266994e-01 3.05531314e-03 -1.27406299e-01
      -4.34822552e-02 1.32727623e-02 1.40597329e-01 -8.29456896e-02
      4.70636860e-02 3.19502652e-01 1.68593675e-01 2.92172790e-01
      4.74594049e-02 -5.72795458e-02 6.47354573e-02 -1.20018467e-01
      -1.59138173e-01 3.19938026e-02 5.55242524e-02 -5.00394627e-02
      -6.83931783e-02 0. -9.22637060e-02 -4.15216461e-02 1.82333857e-01
      1.29262850e-01 -2.26879179e-01 9.77526903e-02 9.85518098e-02
      -9.72352698e-02 6.76670149e-02 6.46287715e-03 2.39257157e-01
      8.57306086e-03 -4.89814021e-02 1.85883716e-01 2.50813495e-02
      -1.85026050e-01 -8.15838575e-02 6.90521151e-02 -2.63088103e-02
      9.44663212e-02 2.40914300e-01 9.54550281e-02 1.09985672e-01
      2.95758218e-01 -2.37071328e-02 2.89436057e-02 1.25801831e-01
      2.73781773e-02 6.49586245e-02 3.06089427e-02 3.56273465e-02 0.
      9.49495062e-02 -9.69207734e-02 -8.25585127e-02 3.51344079e-01
      2.26251721e-01 3.63849127e-03 -9.56554115e-02 1.51705995e-01
      -1.14225358e-01 -3.68463367e-01 2.66138394e-03 2.24741086e-01
      -1.06036656e-01 -1.69176504e-01 -5.24607003e-02 -1.90218732e-01
      -2.34911129e-01 6.70496374e-03 1.75994754e-01 -6.92183748e-02
      1.10093012e-01 1.87975124e-01 -2.24967718e-01 -1.21058873e-03
      -1.65364638e-01 8.72159749e-02 1.65023103e-01 -9.40554962e-02
      -7.89573118e-02 -9.60550457e-02 5.75836934e-02 0. 1.30911926e-02
      7.62972087e-02 -3.08184236e-01 -1.13611352e-02 2.46046498e-01
      2.55751703e-02 2.29961008e-01 1.87506497e-01 1.32242534e-02
      -1.13524944e-01 1.64132982e-01 -6.34660432e-03 -1.26629889e-01
      2.67516542e-02 2.22579703e-01 3.78375426e-02 -1.99484140e-01
      -3.24789062e-02 9.48245823e-02 1.17615759e-01 -2.13437706e-01
      -8.05767775e-02 -1.65182963e-01 1.02303043e-01 3.31944674e-01
      1.10548742e-01 1.12558857e-01 1.72255412e-01 1.43938139e-01
      -6.44417480e-02 -4.19817790e-02 0. -1.74315125e-01 -1.47713631e-01
      1.81402266e-01 -5.94144091e-02 1.06143147e-01 8.37452263e-02
      -6.51734471e-02 -4.82896715e-02 1.73245426e-02 -6.41710823e-03
      2.33445745e-02 5.91453053e-02 -1.75125405e-01 1.00847848e-01
      1.26911566e-01 -4.60962541e-02 -1.62012607e-01 1.62542000e-01
      4.14474905e-02 -4.71575446e-02 1.65662080e-01 -1.18990183e-01
      -3.11042033e-02 -3.39444987e-02 1.31622422e-02 -3.73418480e-02
      1.51382953e-01 -2.49861795e-02 1.01868967e-02 -7.53128082e-02
      7.91986063e-02 0. -7.17217922e-02 5.26803508e-02 -3.51038128e-02
      -4.38703597e-02 2.34993715e-02 2.41971593e-02 -3.03067174e-03
      1.63454741e-01 -5.23633026e-02 -1.20506212e-01 1.74115509e-01
      -1.87296584e-01 8.03912524e-03 8.24057907e-02 8.30252394e-02
      -1.46781653e-01 -7.26992339e-02 4.24920097e-02 -3.19653153e-02
      1.91832900e-01 -5.10464087e-02 5.97008057e-02 -6.85028359e-02
      -8.19834396e-02 -3.63665260e-02 1.85871184e-01 -3.53453308e-02
      -4.78441529e-02 1.95299555e-02 -1.60692465e-02 6.92388928e-03 0.
      -1.59095734e-01 1.51919961e-01 1.52001262e-01 1.40566275e-01
      6.90884963e-02 1.66569963e-01 4.28633802e-02 -2.16360658e-01
      1.17797613e-01 6.45014644e-02 -1.18146546e-01 -2.01023102e-01
      9.47181880e-02 1.40467435e-02 1.02496177e-01 -5.35536893e-02
      -1.64516896e-01 1.51232153e-01 1.49740400e-02 1.76116526e-01
      5.46739511e-02 2.66566396e-01 -5.47974790e-03 -2.70162255e-01
      -8.60765018e-03 -2.08643332e-01 1.92843527e-01 -5.17545603e-02
      -5.58635667e-02 1.81456417e-01 9.35581923e-02 0. -3.10782343e-01
      -5.12703992e-02 1.92072764e-01 -1.40154272e-01 -3.33560631e-02
      1.63626537e-01 1.59949899e-01 -9.72684771e-02 6.60362020e-02
      5.36689386e-02 8.77526253e-02 -1.86877146e-01 -1.51645631e-01
      3.73717137e-02 5.89688830e-02 8.91538560e-02 1.63130492e-01
      1.83108505e-02 2.07630116e-02 1.05963401e-01 3.20839807e-02
      -5.25161512e-02 3.01111713e-02 -7.63978437e-02 1.58592418e-01
      1.25658363e-01 -6.14557415e-02 2.27413103e-02 1.49731055e-01
      -6.55498281e-02 -5.09728715e-02 0. 6.67807087e-02 -2.29207218e-01
      -1.95260614e-01 -4.26002294e-02 -1.12281792e-01 2.33364731e-01
      1.53498307e-01 -7.46806560e-04 4.26363908e-02 -4.45656199e-03
      -1.80380061e-01 5.76684205e-03 1.57338772e-02 -2.49357551e-01
      -1.55670762e-01 -2.25114241e-01 1.42976223e-02 -2.04880498e-02
      7.67927766e-02 -1.94580704e-01 -6.06825799e-02 -1.13670491e-01
      -1.64889932e-01 -3.01406141e-02 6.05739541e-02 1.22653268e-01
      -6.67031035e-02 -6.00252636e-02 -9.08974558e-03 -2.35980153e-01
      -1.11379862e-01 0. 8.47590808e-03 3.62165645e-02 2.12534353e-01
      -2.03273952e-01 -6.06283247e-02 1.81194171e-01 2.75868505e-01
      -1.52231818e-02 -1.56095326e-01 8.37810114e-02 1.04534172e-01
      -2.34883323e-01 -1.12594932e-01 1.44372165e-01 7.18473420e-02
      -1.80155322e-01 6.32345751e-02 -7.85064772e-02 -3.16360556e-02
      2.35030383e-01 1.34298235e-01 -2.77516276e-01 -1.95603475e-01
      2.06421595e-02 6.37930781e-02 1.15275912e-01 -5.49346693e-02
      8.97295997e-02 7.36303581e-03 -4.29385528e-02 1.21708717e-02 0.
      -2.17251256e-01 9.16189924e-02 5.99898547e-02 -1.27135605e-01
      2.39768788e-01 9.99510065e-02 -1.94159508e-01 2.07069442e-02
      2.67607141e-02 4.90596667e-02 -1.25470623e-01 -1.27174065e-01
      -1.15210535e-02 1.82624206e-01 9.90630835e-02 -1.12415239e-01
      -7.14830123e-03 -2.37953383e-04 6.54054880e-02 3.01463897e-05
      -3.17244716e-02 -1.15966506e-01 1.61119342e-01 1.15081623e-01
      -1.47165671e-01 4.99556288e-02 5.64030698e-03 -7.09037706e-02
      6.32429495e-03 1.26836048e-02 2.69256383e-02 0. 2.10761949e-01
      1.01727851e-01 -7.90719539e-02 -2.52470728e-02 3.61481577e-01
      -1.26613751e-01 -2.54815966e-01 -9.15053710e-02 6.53492808e-02
      -4.12885174e-02 -2.44986236e-01 1.19388357e-01 -1.77615970e-01
      3.10095958e-02 1.79250717e-01 7.37268776e-02 1.31479621e-01
      2.39027232e-01 -3.71937305e-02 -1.51659315e-02 1.02593307e-03
      -7.54595920e-02 1.89686507e-01 1.23526610e-01 -6.86313435e-02
      -3.49805765e-02 2.73922235e-01 8.62574577e-02 1.20724447e-01
      -8.23987871e-02 9.79451165e-02 0. 1.38016671e-01 6.33184463e-02
      2.21268952e-01 1.22778185e-01 5.74138351e-02 7.00106695e-02
      -1.57712996e-02 9.66363847e-02 4.12996598e-02 2.23031770e-02
      -9.64919627e-02 -4.49189469e-02 7.87762776e-02 5.68480119e-02
      1.33304328e-01 -1.18587762e-01 5.65411113e-02 8.03902224e-02
      1.91491842e-01 -2.60442309e-02 8.79838914e-02 1.71693161e-01
      1.88177809e-01 1.58187345e-01 6.71492070e-02 5.44193424e-02
      1.99086502e-01 8.32809135e-02 1.11255720e-01 5.24266772e-02
      2.07058996e-01 0. 2.07916852e-02 -1.14086576e-01 -1.01292387e-01
      -4.24581729e-02 1.87168449e-01 6.25673458e-02 6.15407005e-02
      2.12210372e-01 1.77454688e-02 -8.68214387e-03 2.21768618e-01
      1.16706446e-01 -1.00950964e-01 1.74462482e-01 -1.34396311e-02
      -7.93607309e-02 3.67456563e-02 7.90037774e-03 1.65253758e-01
      2.27011666e-01 7.47470483e-02 8.17895234e-02 2.57041067e-01
      1.94929808e-01 -3.14880162e-02 7.60810524e-02 2.22381558e-02
      4.27424498e-02 1.74717918e-01 2.59733107e-02 6.73778206e-02 0.
      -1.77770779e-01 2.14105055e-01 -1.80340186e-01 -2.70758510e-01
      -1.00323170e-01 2.87181348e-01 3.62063311e-02 -3.75953726e-02
      1.00854091e-01 1.31345257e-01 1.25867903e-01 2.21759737e-01
      1.78278700e-01 1.15499325e-01 9.54583436e-02 -2.25250542e-01
      2.07992241e-01 -1.63121194e-01 -9.46666896e-02 2.81402797e-01
      -7.50488341e-02 3.03014964e-02 1.40006244e-01 2.97386765e-01
      -1.57146782e-01 6.42539337e-02 9.45452228e-03 1.87433045e-02
      4.96067591e-02 8.66977572e-02 1.08647905e-01 0. 6.59874827e-02
      -1.57991163e-02 -4.53705341e-02 -1.84281647e-01 3.71785946e-02
      -2.67670825e-02 -1.31121531e-01 2.63567902e-02 1.30095378e-01
      -1.10200541e-02 7.68667758e-02 1.97691955e-02 -1.60273048e-03
      8.96175280e-02 1.88974179e-02 -5.33240810e-02 -4.22098264e-02
      4.59399587e-03 6.46794438e-02 -8.32965132e-03 3.54497209e-02
      -1.15987584e-02 8.68890807e-02 9.34220478e-02 -1.28797174e-01
      5.97486179e-03 4.91434038e-02 3.68328509e-03 5.75743727e-02
      -2.10736040e-02 -6.00458235e-02 0. 1.08508833e-01 -1.98011845e-03
      -1.48175601e-02 -7.36152083e-02 7.06918444e-03 1.36600539e-01
      9.06277224e-02 1.20136723e-01 9.00924355e-02 -6.22518659e-02
      -1.03959672e-01 -1.09844888e-02 2.56195515e-01 7.77099505e-02
      -1.02790706e-01 -2.37043530e-01 -9.45257843e-02 -1.72030941e-01
      -2.02679895e-02 3.68016176e-02 1.67100102e-01 1.11830793e-01
      1.42506197e-01 4.54214662e-02 -1.75013319e-01 7.04196766e-02
      -7.62944892e-02 8.56226906e-02 5.37143089e-02 -1.00447312e-01
      -3.27893123e-02 0. -8.99469107e-02 6.48743063e-02 1.62830353e-01
      4.53430275e-03 5.04579209e-03 -6.31012544e-02 -5.85573539e-02
      5.57841584e-02 -4.75280285e-02 -2.17601821e-01 -1.33169657e-02
      -1.20839737e-01 1.22463413e-01 1.81415036e-01 -8.99964496e-02
      -3.15656871e-01 3.49314027e-02 2.31813006e-02 -7.10014030e-02
      -1.26960650e-01 2.32377067e-01 1.49184361e-01 6.36704639e-02
      -8.33134204e-02 -2.12567642e-01 2.23714009e-01 -3.46173788e-03
      2.50470787e-01 -2.32295934e-02 -1.84544280e-01 -2.13101119e-01 0.
      6.94342479e-02 -1.26133123e-02 -1.46214813e-01 1.79209851e-03
      -1.89667568e-01 5.99199086e-02 1.03076659e-02 6.43030256e-02
      -3.47238742e-02 -1.45257544e-02 -2.14036062e-01 -1.58915758e-01
      5.73527962e-02 1.43833414e-01 -2.04359442e-01 -5.05448282e-02
      3.27020362e-02 1.64743185e-01 -3.49972323e-02 -6.26459122e-02
      -9.66736972e-02 4.47305366e-02 -1.61481708e-01 7.89370611e-02
      -3.14446725e-02 1.18557282e-01 1.51119918e-01 -1.00565761e-01
      -9.59397405e-02 2.06252933e-02 -2.26795916e-02 0. 5.45326993e-02
      -2.14204878e-01 -1.55677423e-01 -1.14820540e-01 9.86975282e-02
      1.82798892e-01 -9.02750641e-02 7.17850924e-02 1.78018492e-02
      -9.26163718e-02 -1.26658231e-01 5.15041575e-02 -5.10884486e-02
      -5.51600046e-02 -2.88301930e-02 2.27023885e-02 9.53040365e-03
      -9.15392339e-02 -6.82760999e-02 -2.44351789e-01 5.36052175e-02
      1.70578267e-02 1.31403908e-01 2.22249821e-01 5.58139235e-02
      1.18361555e-01 -3.21009941e-02 4.20327559e-02 -6.86085671e-02
      -1.07680716e-01 -1.06872745e-01 0. 1.47280693e-01 -7.88123086e-02
      1.73297063e-01 3.05449199e-02 -9.16155726e-02 -1.40441656e-02
      2.10460695e-03 9.61661041e-02 1.50974765e-01 -1.12493314e-01
      -1.51035905e-01 -2.49862850e-01 -7.18287751e-02 2.00266421e-01
      -4.61181030e-02 -1.12418272e-01 -1.56202968e-02 -2.81381458e-01
      1.46278727e-03 -1.26234218e-01 -8.55571330e-02 3.63974869e-02
      1.77092880e-01 2.10981354e-01 -6.88416883e-02 1.48000941e-02
      3.22767943e-02 2.75486391e-02 -8.58706161e-02 -1.37251997e-02
      -1.28107592e-01 0. -1.44334286e-01 1.66750178e-01 1.31879032e-01
      6.07238114e-02 1.63913835e-02 1.03665432e-02 1.09629229e-01
      6.08054623e-02 -7.96527788e-02 2.17975199e-01 -1.88433871e-01
      -9.41613093e-02 -1.68208838e-01 -4.14484479e-02 1.44313604e-01
      -1.59316108e-01 -1.55422315e-01 -1.23404406e-01 1.01859204e-01
      1.55667678e-01 2.80853710e-03 -2.50072731e-03 1.70135826e-01
      2.66800940e-01 8.44993908e-03 -3.42007615e-02 -1.25788599e-01
      5.77577427e-02 -1.00678213e-01 1.16425697e-02 -7.97593221e-02 0.
      -1.72096118e-01 1.91751961e-02 8.76864567e-02 1.98552497e-02
      -1.17383458e-01 1.14923939e-01 -1.00960970e-01 -1.74505129e-01
      -7.87381083e-02 1.75674796e-01 -1.69560462e-01 4.70380820e-02
      -4.63158563e-02 6.98019266e-02 -4.89980541e-02 -1.65816367e-01
      1.37393311e-01 -5.23438603e-02 -7.43542016e-02 -7.69865289e-02
      1.62399083e-01 7.92953670e-02 -6.44921288e-02 3.21619570e-01
      -9.95557755e-02 1.12497829e-01 -9.16750953e-02 -1.23332858e-01
      -7.94426203e-02 3.98567766e-02 -5.16482145e-02 0. -3.75271179e-02
      -4.69910800e-02 1.20335519e-02 2.00880855e-01 -7.65950372e-03
      -3.01669002e-01 -3.92952897e-02 -3.11309677e-02 -4.77600135e-02
      1.40500918e-01 8.35142508e-02 -9.59879458e-02 -2.05692679e-01
      -1.68177430e-02 3.47935617e-01 1.21127039e-01 -1.42666772e-01
      -1.44706383e-01 -2.56515071e-02 3.97583582e-02 3.52474302e-02
      5.82757406e-02 -1.20903738e-01 9.59883183e-02 4.33111154e-02
      2.00773776e-02 3.20129073e-03 9.75993089e-03 1.64029617e-02
      -6.47435561e-02 -6.13147356e-02 0. -4.04517837e-02 -1.84948638e-01
      -4.94253449e-02 -1.32886186e-01 -2.64267802e-01 2.48045102e-02
      2.95908283e-02 1.37114555e-01 7.25449249e-02 9.52231139e-02
      4.91036177e-02 -2.09662706e-01 -4.42028493e-02 -7.85436407e-02
      1.64707075e-03 -1.53558791e-01 -5.62955327e-02 -1.31988183e-01
      4.11924906e-03 2.64928136e-02 -1.00350901e-01 -9.29130316e-02
      -1.53495282e-01 1.80350572e-01 6.93732277e-02 1.51956126e-01
      5.08784316e-02 2.88359094e-02 -7.96587989e-02 -2.07786873e-01
      -1.82716325e-01 0. -6.82478724e-03 8.38678330e-02 -2.81593688e-02
      9.61368456e-02 -3.82975608e-01 2.76940554e-01 2.30341122e-01
      -3.04112937e-02 -8.83671194e-02 -8.21652189e-02 8.66313055e-02
      -1.97963238e-01 -2.47252598e-01 2.42185161e-01 -2.09168896e-01
      -1.72808647e-01 -3.07640899e-02 4.75784279e-02 1.26589667e-02
      1.99085660e-02 -9.86467674e-02 -1.42462388e-01 -1.26320019e-01
      6.66338252e-03 1.67777106e-01 8.30932558e-02 5.52290715e-02
      1.42487437e-01 5.39374761e-02 -1.32562578e-01 -2.58635283e-01 0.
      1.15024447e-02 -2.62250137e-02 -1.69788644e-01 1.34487301e-01
      -1.21436626e-01 -2.74141759e-01 -5.38101010e-02 -2.83933073e-01
      3.09236683e-02 -5.09627834e-02 1.18182518e-01 3.34871598e-02
      -7.76107311e-02 2.70611197e-02 1.28353506e-01 -2.41807967e-01
      5.72257638e-02 1.35796279e-01 3.86189930e-02 2.45550588e-01
      -5.13661094e-02 -1.42357387e-02 -1.30030988e-02 6.92659989e-02
      3.25566530e-02 -1.13318570e-01 1.48269847e-01 -8.22239667e-02
      -1.64417431e-01 -8.47323015e-02 3.78344022e-02 0. 1.20125450e-01
      -1.01477131e-02 -5.57023473e-02 -7.28050172e-02 2.93396488e-02
      -5.24464883e-02 4.86572273e-02 -1.50166646e-01 -2.26031527e-01
      -1.33786798e-01 7.76004642e-02 -1.70804918e-01 4.99454848e-02
      -1.83569431e-01 4.81344089e-02 1.27793616e-02 2.38437235e-01
      -5.86599931e-02 -6.42809421e-02 1.94480047e-01 1.67091191e-02
      7.93162957e-02 4.67767045e-02 1.98887318e-01 2.30639368e-01
      1.21745892e-01 -1.33109212e-01 -3.70565690e-02 2.69089974e-02
      -9.55942720e-02 -1.24820597e-01 0. 7.09636956e-02 1.50232598e-01
      6.74498156e-02 8.00899193e-02 -1.52787372e-01 -2.02489987e-01
      -7.79890046e-02 6.55323118e-02 2.10580394e-01 1.92973033e-01
      -1.52844191e-01 -2.97204435e-01 -1.15677178e-01 -6.68930635e-02
      -1.81420725e-02 -7.93169960e-02 -1.25827745e-01 -3.03796351e-01
      -1.66306421e-02 6.18131831e-02 -4.70835380e-02 1.06457777e-01
      -6.49546608e-02 5.02114743e-02 5.87748364e-02 7.05654174e-02
      -9.36007220e-03 -1.44365877e-01 -1.39256697e-02 -6.40455112e-02
      -1.33639097e-01 0. 5.37799448e-02 1.57671556e-01 1.37329593e-01
      9.96735878e-03 -1.58758774e-01 -1.59625337e-01 8.81004855e-02
      8.99064690e-02 1.28533408e-01 5.66575602e-02 -1.84548914e-01
      9.78561342e-02 -7.32336706e-03 -6.21340461e-02 1.89339936e-01
      -1.42062202e-01 -3.36828232e-01 -9.38605145e-02 -1.19054383e-02
      2.97840666e-02 2.20840126e-01 1.17574364e-01 1.48896888e-01
      5.02082445e-02 9.82338265e-02 -6.22939281e-02 6.23139776e-02
      -5.86174242e-03 1.22705167e-02 -9.68965366e-02 2.63777375e-02 0.
      -1.30421460e-01 -1.86629251e-01 -1.30517378e-01 5.17159775e-02
      -1.72361791e-01 1.02610309e-02 -3.87706049e-02 -1.15158491e-01
      -7.45121681e-04 1.30257577e-01 -3.23218331e-02 2.47009784e-01
      5.59924543e-02 -1.70085263e-02 -1.13406861e-02 -3.29333846e-03
      -1.22049496e-01 3.97141166e-02 5.39590195e-02 -1.74024910e-01
      1.22452952e-01 2.20089257e-01 2.28700668e-01 1.73704699e-01
      9.40992534e-02 -3.62316221e-02 2.04291135e-01 -4.47353497e-02
      -7.84397051e-02 -1.01919755e-01 2.44353041e-02 0. -6.10760488e-02
      -1.19279340e-01 -2.86487788e-01 1.40793636e-01 -3.70076150e-01
      1.84152531e-03 1.80816397e-01 -7.45445937e-02 -4.48986925e-02
      9.36574116e-02 5.17203994e-02 3.40305082e-02 -2.78935343e-01
      1.96864143e-01 1.81588843e-01 -1.63525671e-01 3.64271887e-02
      -5.19774966e-02 -5.41357808e-02 -9.87995565e-02 -1.12153731e-01
      1.41001835e-01 1.25802770e-01 2.61351496e-01 -5.88818565e-02
      7.35140815e-02 5.13632596e-02 -1.28684286e-02 -2.58668754e-02
      -6.83114752e-02 -1.44238263e-01 0. 1.47817567e-01 8.26084614e-03
      -5.01600169e-02 1.36394519e-02 -4.66692597e-01 -1.41741201e-01
      7.90017992e-02 -3.57207470e-02 -2.08383054e-03 1.69208512e-01
      4.67818752e-02 -1.13191344e-01 -7.25197643e-02 6.99685141e-02
      1.25526404e-02 -8.50396901e-02 -1.54089481e-01 -1.39152184e-01
      1.77471146e-01 1.68844119e-01 1.88553184e-02 3.76260206e-02
      1.72410890e-01 1.02998108e-01 1.42762452e-01 -6.93629533e-02
      1.48287611e-02 3.38252150e-02 2.69820690e-02 -1.78897381e-01
      -2.18093291e-01 0. -1.36531424e-03 -8.88244286e-02 1.87634408e-01
      1.81320354e-01 -5.03855906e-02 -1.33464709e-01 9.34984013e-02
      -1.24479137e-01 -9.04911086e-02 -2.28828713e-02 9.46297869e-02
      -2.89878733e-02 -4.21029478e-02 -1.19155407e-01 -2.72874355e-01
      -6.52683303e-02 -1.53201565e-01 -8.57716948e-02 1.37025667e-02
      3.74131426e-02 1.89832881e-01 7.22852424e-02 -5.85029460e-02
      -1.57466456e-01 1.60802558e-01 6.22470230e-02 1.51620293e-02
      1.46303652e-02 -1.47565333e-02 -1.68225855e-01 -1.72079951e-01 0.
      1.80185512e-01 9.76412669e-02 -3.34666073e-02 -1.27564713e-01
      -4.94686440e-02 2.73161650e-01 -1.80318803e-01 1.20057061e-01
      6.40714467e-02 -1.06041186e-01 5.39503135e-02 -1.79080889e-02
      -3.20638083e-02 -7.50138611e-02 -5.06417714e-02 -1.91814065e-01
      -5.89259863e-02 1.41934201e-03 -5.53729571e-03 8.20580050e-02
      4.21326682e-02 -5.06559312e-02 5.39066903e-02 1.19291872e-01
      -2.75366098e-01 1.22940600e-01 2.42856257e-02 -6.01058826e-03
      3.45886946e-02 -1.55315071e-01 6.41628653e-02 0. 7.62435794e-02
      -2.43195444e-02 -2.00090930e-01 2.35223994e-01 2.87337840e-01
      6.89540356e-02 -8.59961882e-02 -2.05823362e-01 4.99859490e-02
      -1.21465683e-01 1.89593494e-01 -2.49793455e-02 -5.21799996e-02
      1.97953567e-01 2.94838607e-01 -1.19598739e-01 4.85258624e-02
      -1.65587708e-01 -6.09998964e-02 2.02183485e-01 -4.26369682e-02
      1.78551644e-01 2.19563067e-01 8.33711103e-02 1.30401514e-02
      -1.14861233e-02 -5.44657446e-02 6.39213547e-02 1.09058402e-01
      1.02612597e-03 3.74714434e-02 0. 1.60282448e-01 1.19806975e-01
      5.04847728e-02 -4.23685424e-02 -1.05972938e-01 -6.83936253e-02
      4.62011388e-03 -1.14819959e-01 1.36515927e-02 3.45403105e-02
      5.61771616e-02 1.39363296e-02 1.04280058e-02 -1.94087595e-01
      -5.36654480e-02 -3.67176794e-02 -1.34684116e-01 -1.34754419e-01
      3.87963839e-04 8.11377019e-02 1.35082230e-01 1.01815380e-01
      -1.39783204e-01 -2.26184994e-01 8.33837595e-03 -5.67442328e-02
      -1.32211640e-01 -1.67581849e-02 -9.61382836e-02 -7.72515833e-02
      -8.56428593e-03 0. -1.36852544e-02 -1.01840980e-01 -7.73901045e-02
      1.40096784e-01 -1.49187535e-01 -9.70109273e-03 4.47821915e-02
      1.05594568e-01 8.11172202e-02 1.20077766e-01 -1.51790068e-01
      -1.50054693e-01 -1.83458198e-02 -1.45483136e-01 -1.57001957e-01
      8.14958885e-02 -6.65584877e-02 8.36365670e-02 -3.63873318e-02
      -2.70100772e-01 -1.00679226e-01 7.17566684e-02 -1.88616052e-01
      -2.03807220e-01 2.48781487e-01 8.14746767e-02 1.07693814e-01
      3.13555188e-02 -5.13145141e-02 -3.18077318e-02 -1.29363179e-01 0.
      -1.22726440e-01 1.57769501e-01 -2.41835311e-01 -7.32574016e-02
      7.78015777e-02 2.60740608e-01 2.32234299e-01 -1.45878419e-01
      -1.55418918e-01 2.13059351e-01 -1.49684459e-01 1.98223647e-02
      -8.16928148e-02 1.15031227e-01 1.66693315e-01 -2.12599374e-02
      8.27999339e-02 2.01005474e-01 -4.26865816e-02 1.07964752e-02
      -6.87664896e-02 9.45383534e-02 1.86655596e-01 2.75413007e-01
      2.35968992e-01 1.91757884e-02 1.95794448e-01 1.25838056e-01
      2.55565476e-02 1.09844990e-01 -8.94446671e-03 0. -1.74338132e-01
      7.68260881e-02 1.83369685e-02 -1.48781491e-02 2.27718249e-01
      -2.27002800e-01 -1.34471565e-01 -1.53186128e-01 2.01008171e-02
      2.05709025e-01 -8.48329067e-02 -7.43967667e-02 -1.57140195e-01
      -3.66421454e-02 1.91645607e-01 -7.08849495e-03 2.12515648e-02
      1.15263753e-01 -1.28485039e-01 -2.02459041e-02 9.29263011e-02
      -1.25376523e-01 6.88881353e-02 -6.65549701e-03 -8.71367678e-02
      2.37318873e-02 7.27111846e-02 1.89935118e-02 1.51474113e-02
      -4.42990940e-03 -1.17921837e-01 0. -1.99390456e-01 -1.54870274e-02
      9.09621119e-02 4.11902629e-02 -6.24810485e-03 -2.20403597e-01
      -1.22102261e-01 7.86047876e-02 -6.46080896e-02 1.15724646e-01
      6.42714510e-03 -9.90939066e-02 6.79157302e-02 -2.62381434e-01
      -7.50865266e-02 -2.53832757e-01 -8.36093426e-02 -1.06723510e-01
      -1.76435784e-01 1.55578926e-01 5.32797053e-02 1.44236125e-02
      1.05005726e-01 -1.36631534e-01 -1.73824325e-01 1.22760274e-01
      -5.36905304e-02 8.14766437e-02 -7.15167448e-02 -2.86414146e-01
      -2.45924011e-01 0. -3.91122885e-02 -1.37649149e-01 -1.26015842e-01
      1.81617707e-01 -2.72616781e-02 -1.15153961e-01 2.49491930e-01
      6.99106827e-02 -1.09110631e-01 -4.65577729e-02 2.03789502e-01
      -4.54838909e-02 8.49516913e-02 -3.34288483e-03 2.57538795e-01
      1.49981514e-01 -1.20974258e-01 -6.05870932e-02 3.94359864e-02
      6.89869076e-02 -1.85691211e-02 2.55157918e-01 3.27055417e-02
      7.13616461e-02 2.18887106e-01 5.96055984e-02 -1.46056354e-01
      2.05159530e-01 -3.84577811e-02 5.18993549e-02 -4.60535176e-02 0.</_></support_vectors>
  <decision_functions>
    <_>
      <sv_count>1</sv_count>
      <rho>1.6866347458919795e+00</rho>
      <alpha>
        1.</alpha>
      <index>
        0</index></_></decision_functions></my_svm>
</opencv_storage>
